11 128
4 -0.030987173 -0.016994588 0.103792645 -0.06393821 -0.09769952 -0.124464005 0.0036858092 0.048680253 -0.12463312 -0.011964907 0.20153199 0.05381816 -0.15076987 -0.00568242 -0.054384056 -0.07530331 0.013428295 0.0859104 -0.049705364 0.036822394 0.11179803 -0.014889033 0.12553394 -0.014745241 -0.005273194 0.076992474 -0.15695906 -0.029047834 0.026263274 -0.10556471 -0.22930329 0.066172026 -0.011544222 -0.042014863 0.06642738 0.058437157 0.26267686 0.08423504 0.09422864 -0.042420454 0.06633006 0.15300971 -0.037205316 -0.057900377 0.07784255 0.0605378 -0.086667255 -0.11688733 0.019773774 0.02293044 0.066130996 0.016547993 0.046094 0.07610804 0.20363136 0.040867664 0.062527165 -0.1117534 0.018149728 -0.03405268 0.094630025 -0.12438592 0.02945755 0.04363541 -0.072018124 0.039890222 0.14228943 0.10786154 -0.051626157 -0.080150664 0.03694267 -0.02995331 -0.020140516 -0.10564302 -0.054165043 0.11046257 0.04919198 -0.016030014 -0.014267575 0.023722446 -0.015320537 0.018705076 0.087888844 0.09558781 -0.0062799384 -0.023860043 0.14913662 -0.0081644645 0.08886478 0.11706972 -0.099544436 -0.040158942 -0.090038545 -0.054499965 0.14486119 0.038197145 -0.17793973 -0.06323164 0.10056475 0.009636143 -0.12028892 0.1309476 0.14546372 0.0288057 0.17071764 0.018224267 0.08871568 -0.07915087 -0.043774787 -0.19697145 0.023482839 0.041811246 -0.04279842 -0.10402114 0.10059701 0.03466303 0.06906237 0.1077648 0.036383975 0.10761746 0.0456363 0.020425722 -0.017360745 -0.086052634 -0.018772788 -0.078560814 -0.07118058 0.032557324
6 -0.052619148 -0.03439101 0.097368285 -0.080083124 -0.08127397 -0.118032865 0.013210408 0.015312243 -0.1331773 0.025625627 0.23118131 0.07474181 -0.13181037 -0.02518869 -0.054878164 -0.08955182 0.014114363 0.09768818 -0.037783578 0.019547753 0.084628046 -0.006806372 0.10484179 -0.0017935047 -0.00862462 0.070641756 -0.16143678 -0.029681832 0.028208278 -0.10070259 -0.22316606 0.056816727 -0.027032243 -0.029170036 0.06151996 0.05418759 0.24368797 0.06525343 0.11965142 -0.037557457 0.10672241 0.14831796 -0.045520186 -0.058342017 0.06951644 0.06104588 -0.07698362 -0.13638224 0.023820493 0.0044461857 0.11189125 0.0063656108 0.045408558 0.042239342 0.19186342 0.039932467 0.05162731 -0.13195923 0.029529184 -0.0108758975 0.12816845 -0.12061086 0.022134386 0.08901134 -0.073219486 -0.00034542696 0.1392763 0.11704894 -0.024632404 -0.09461504 0.03187431 -0.028213032 -0.019472066 -0.10948253 -0.06990406 0.093626745 0.059881236 0.00574275 -0.0012749684 0.06499834 -0.021150868 0.023273798 0.077496864 0.111216135 0.0023851374 -0.008191211 0.15379521 -0.01606193 0.1049657 0.12422085 -0.09680537 -0.038778797 -0.11170692 -0.058999114 0.14471355 0.0039242543 -0.17726481 -0.09262662 0.09144504 0.008912752 -0.09316199 0.12309011 0.14044435 0.013868339 0.1475621 0.025858229 0.078505404 -0.08706992 0.00051533955 -0.17589708 0.04793902 0.051031858 -0.019427 -0.09858173 0.06212777 0.028828898 0.033122666 0.11592694 0.03471275 0.11116598 0.027479958 0.03936288 -0.031911377 -0.05306893 -0.049342517 -0.08060106 -0.09699208 0.013431591
11 -0.056424562 -0.045513637 0.08166836 -0.07682155 -0.06990312 -0.119713925 0.020964134 0.02473581 -0.13448882 0.030456122 0.2292686 0.070696 -0.14511211 -0.010066923 -0.051754862 -0.07749659 0.025942642 0.08835552 -0.046126157 0.035726372 0.10021146 -0.00749755 0.09368434 -0.0012124724 -0.008832717 0.052756038 -0.16630559 -0.030684778 0.018385101 -0.1155438 -0.21566682 0.03582703 -0.0125893755 -0.029177628 0.060473304 0.073078975 0.2438318 0.049479038 0.12399855 -0.027704641 0.093516454 0.14382009 -0.035435893 -0.06728035 0.06142067 0.06463685 -0.06853299 -0.117921375 0.031801492 0.009013885 0.09370819 0.026229773 0.058546185 0.029811954 0.20173934 0.043694437 0.057261728 -0.12769248 0.04266592 -0.0058979644 0.12881637 -0.12064023 0.009522551 0.08978523 -0.06351281 0.013218215 0.1490772 0.12970768 -0.044666454 -0.07575726 0.04818707 -0.029463321 -0.0131553225 -0.11111205 -0.054050796 0.079130866 0.046290603 -0.0043870825 0.009651319 0.07169969 -0.0036891345 0.0036321944 0.066194974 0.12988728 -0.00058343 -0.004450761 0.15688294 -0.01839087 0.10698777 0.11358759 -0.07454119 -0.043495297 -0.105112605 -0.058065772 0.15041158 0.01113867 -0.1958926 -0.105382085 0.06981464 0.009658895 -0.09770606 0.13225661 0.13073185 0.019047696 0.15632331 0.035429858 0.0842463 -0.09032064 0.0011252541 -0.18422651 0.033746254 0.05599653 -0.022177609 -0.111128524 0.07077248 0.01782226 0.036155406 0.12376478 0.027410533 0.09617549 0.018847018 0.048771273 -0.034711655 -0.051412635 -0.04711715 -0.0563452 -0.06943452 0.024628524
9 -0.06388293 -0.046666272 0.09539103 -0.07486939 -0.07845769 -0.12763521 0.0147111025 0.015752776 -0.14283602 0.03169953 0.24350682 0.07743379 -0.13186148 -0.026919296 -0.05468249 -0.095310666 0.020337041 0.09507102 -0.049288794 0.01854937 0.08771561 -0.0037121347 0.094075024 0.003644306 -0.00827291 0.060337648 -0.17114985 -0.028264018 0.013949208 -0.11316621 -0.22493476 0.041845135 -0.022306709 -0.029198796 0.0700401 0.06394726 0.23889527 0.042596217 0.12666173 -0.02266273 0.10585583 0.14577165 -0.046627037 -0.054304793 0.05954879 0.064061835 -0.069712445 -0.12498292 0.035473246 0.0042894594 0.11382252 0.018614404 0.053047348 0.02666032 0.19531514 0.043902762 0.04987759 -0.13636808 0.035060994 0.012694363 0.13972722 -0.12116892 0.016353227 0.10273516 -0.068284735 -0.004790733 0.14805405 0.13015056 -0.023016445 -0.092444785 0.04118453 -0.036183756 -0.022586662 -0.12668355 -0.05928019 0.07720407 0.060298614 -0.005094396 0.012481877 0.0742069 -0.012268391 0.011840706 0.08399981 0.1397006 -0.0022368687 0.0054278974 0.15249789 -0.012140399 0.10634972 0.11758109 -0.08062213 -0.03376707 -0.107876666 -0.04719965 0.1526621 0.0014695674 -0.19529806 -0.112619944 0.07958278 0.0056454525 -0.09702181 0.121969014 0.142994 0.022374008 0.1486564 0.026830027 0.08575687 -0.095386535 0.01613268 -0.18142074 0.047239374 0.049380884 -0.0101230815 -0.099725455 0.056019254 0.021879356 0.025134915 0.122139074 0.026973912 0.10144621 0.014700148 0.047899242 -0.028822804 -0.04736771 -0.057365503 -0.067684755 -0.08771064 0.01397339
7 -0.061470006 -0.042616416 0.0930976 -0.08897339 -0.08826723 -0.118179664 0.010695162 0.0087286 -0.15139672 0.026231656 0.23511508 0.08184618 -0.1396527 -0.029507726 -0.047734655 -0.10444245 0.0208217 0.10080737 -0.037054475 0.01014467 0.0715223 -0.017907288 0.09982026 0.0087724235 -0.0019434026 0.06949405 -0.16258188 -0.040889047 0.03283265 -0.11398931 -0.23355028 0.060161088 -0.02713904 -0.039153986 0.07059403 0.06380622 0.24090795 0.06455786 0.11204592 -0.038851023 0.12154535 0.15157878 -0.05628007 -0.04728945 0.078349054 0.05618645 -0.08701396 -0.14596456 0.035560455 0.011360365 0.121597946 0.010091009 0.056215633 0.034116663 0.1897655 0.04830673 0.04059857 -0.13511042 0.038886324 0.003805138 0.13634562 -0.1117406 0.023270067 0.1090227 -0.0880111 0.0011083923 0.14406368 0.11739109 -0.020907413 -0.1065592 0.037265245 -0.0382796 -0.016647063 -0.123185135 -0.06973345 0.10340564 0.05879861 0.004027421 0.008291081 0.07136714 -0.019980837 0.021469725 0.090977415 0.12092313 -6.0647753e-06 -0.012773915 0.155041 -0.013896626 0.11153494 0.114481635 -0.100348815 -0.03482251 -0.10735808 -0.054442354 0.14435385 0.01273062 -0.18058287 -0.091779985 0.094323605 0.0031100116 -0.08571643 0.12946568 0.1402693 0.020556884 0.16465835 0.03027833 0.087208286 -0.09617407 0.008841201 -0.17820737 0.05781897 0.058964845 -0.011582221 -0.10117085 0.051948957 0.019444449 0.031624954 0.11083892 0.038025077 0.13184391 0.03450538 0.044719253 -0.036358733 -0.05186808 -0.053641137 -0.08014093 -0.09974439 0.006623405
1 -0.037755296 -0.035249714 0.106524274 -0.08009216 -0.07770411 -0.10309764 0.0011034865 0.010799431 -0.13652535 0.010293418 0.21036908 0.05240016 -0.14349176 -0.017505385 -0.06192589 -0.09491649 0.017559076 0.07672916 -0.049805004 0.019878 0.087718055 -0.01500846 0.11032963 -0.0077587045 -0.013572136 0.07106479 -0.16967118 -0.039652877 0.01415792 -0.11155894 -0.21955705 0.06842192 -0.02857184 -0.027327232 0.07943757 0.051143873 0.24827151 0.07717979 0.09959898 -0.022163933 0.10504025 0.13187975 -0.044048436 -0.04660371 0.06837556 0.058265086 -0.06341459 -0.13413927 0.014460064 0.013236345 0.08764191 0.021345917 0.045872834 0.043910526 0.19113109 0.040895477 0.059232533 -0.120125264 0.02930323 -0.01005941 0.1265621 -0.12615672 0.039302465 0.09086857 -0.07648478 0.01102233 0.1440697 0.10560007 -0.042782515 -0.09632648 0.032440726 -0.032807868 -0.013636956 -0.10890502 -0.057122253 0.09523931 0.05822655 -0.010086877 -0.011049282 0.039331593 -0.009476658 0.028440967 0.08103147 0.098721765 -0.0059476034 0.0012350312 0.14211771 0.0023150125 0.089491546 0.122903585 -0.101808965 -0.033632394 -0.100540936 -0.05887765 0.13229182 0.021444257 -0.17983742 -0.080601506 0.07592331 0.008565388 -0.083291955 0.118430175 0.14041965 0.027799787 0.16544388 0.016380567 0.075219825 -0.08736363 0.0032828727 -0.17832214 0.023269165 0.051400937 -0.009394676 -0.115355566 0.06171396 0.03715386 0.035847932 0.1128128 0.029486598 0.11627012 0.04514893 0.035478454 -0.03275245 -0.05091403 -0.034017432 -0.061503235 -0.08643444 0.036490504
2 -0.051763922 -0.035553083 0.09802265 -0.076876394 -0.07886354 -0.12123333 0.005354629 0.024524461 -0.12728608 0.015077374 0.2281315 0.06390924 -0.14404246 -0.020913582 -0.058830053 -0.083971106 0.016759606 0.091567054 -0.04253462 0.039977495 0.097071566 -0.01207847 0.10645488 -0.0065737353 -0.018429847 0.07493662 -0.1696359 -0.0349982 0.02046895 -0.10944616 -0.2240899 0.052964125 -0.030356124 -0.02708086 0.073413625 0.06832367 0.25343773 0.06911512 0.121384665 -0.03516708 0.089518115 0.15273997 -0.037665006 -0.06098121 0.0762249 0.0601328 -0.070382945 -0.12849712 0.020402519 0.009518356 0.097329766 0.014390244 0.055388823 0.05165124 0.2026848 0.042612802 0.05820432 -0.12121177 0.029556349 -0.018605791 0.11967007 -0.12883681 0.026996952 0.07924602 -0.06685797 0.019368304 0.14865431 0.120803796 -0.036206692 -0.084267184 0.037834354 -0.0396335 -0.019811312 -0.11020179 -0.06229347 0.093316644 0.055474535 -0.004364489 -0.00056874746 0.062421218 -0.015733087 0.012985274 0.08158169 0.116661936 -0.0023861425 -0.014546483 0.15652174 -0.009662725 0.10311801 0.11828734 -0.08831631 -0.044489384 -0.11216324 -0.05973134 0.15330772 0.011961095 -0.19263196 -0.08891719 0.08819212 0.0057523083 -0.109216295 0.12422421 0.13606304 0.023778597 0.16178137 0.03206046 0.082628824 -0.09436053 -0.013677849 -0.19249316 0.03468189 0.05167549 -0.022619877 -0.11102302 0.076066464 0.024160275 0.04213048 0.11467736 0.034873206 0.10778987 0.029419657 0.040946644 -0.0305206 -0.05961576 -0.040555708 -0.075559035 -0.07587074 0.025228797
5 -0.037005562 -0.021665795 0.103799954 -0.07992569 -0.09333618 -0.12347621 -0.0068363445 0.036788203 -0.13432167 -0.005291323 0.19977474 0.06655589 -0.14379132 -0.020685917 -0.047648985 -0.089699596 0.012882073 0.086072214 -0.04779723 0.033791326 0.09631126 -0.02817901 0.11658859 -0.012209462 -0.004035738 0.07699305 -0.16062348 -0.036105208 0.03589101 -0.11144798 -0.22924487 0.07127544 -0.021128496 -0.04084416 0.0784472 0.061967026 0.24688761 0.08307877 0.086769804 -0.026270222 0.092088245 0.14631923 -0.039232686 -0.041756198 0.07624632 0.063412726 -0.080755524 -0.13097006 0.023970757 0.015824245 0.081983365 0.02000979 0.052760758 0.06480815 0.1906019 0.052925624 0.049622532 -0.10803849 0.029480563 -0.025303958 0.10801724 -0.119302325 0.035072304 0.07136446 -0.07856291 0.030177496 0.14990468 0.10451958 -0.04345497 -0.0954549 0.029892286 -0.04767482 -0.017239051 -0.11394074 -0.054269098 0.107548475 0.04384386 -0.02307751 -0.0015704815 0.03281132 -0.012119733 0.014094656 0.094662875 0.10207226 -8.433207e-05 -0.01652666 0.13809304 0.002949668 0.09432916 0.10354927 -0.10499853 -0.031430185 -0.08420894 -0.04295644 0.12547691 0.035634607 -0.16742818 -0.063608244 0.101263724 -0.0024904255 -0.107965924 0.13064983 0.14907807 0.028467087 0.16801433 0.01939098 0.0933816 -0.09686946 -0.025194066 -0.18800502 0.028088855 0.053030737 -0.027875215 -0.11184841 0.08579642 0.02342872 0.057344005 0.09858805 0.03958346 0.11563379 0.040672693 0.027132014 -0.023856295 -0.07302849 -0.0378241 -0.0772459 -0.0703728 0.018699821
8 -0.05637034 -0.031444762 0.08747438 -0.08227025 -0.07541154 -0.11662196 0.008584555 0.027786596 -0.13083832 0.023530768 0.22145058 0.074447736 -0.14275284 -0.017771957 -0.05156938 -0.083591305 0.022562506 0.08927206 -0.04799785 0.042474464 0.088270865 -0.02244347 0.0978762 -0.006149297 -0.01249932 0.06141501 -0.16893405 -0.038380582 0.02263746 -0.113921754 -0.22057313 0.05308071 -0.022379762 -0.038344216 0.0752913 0.0749012 0.23885359 0.06364272 0.10856489 -0.02800936 0.09114206 0.14928249 -0.04254846 -0.060141828 0.07405092 0.06307464 -0.07552527 -0.121368535 0.027464768 0.021298664 0.094008684 0.03297643 0.06477428 0.034313895 0.19486265 0.05379912 0.054098733 -0.110241644 0.046250567 -0.00898382 0.1126785 -0.11532028 0.016613793 0.08967745 -0.06860126 0.022523003 0.15505713 0.11936804 -0.04438176 -0.08181646 0.036410153 -0.037535917 -0.0070253536 -0.11559711 -0.052496906 0.088037245 0.051898137 -0.0048363227 0.0067713014 0.06355445 -0.0042818277 0.0039709317 0.07736516 0.124495484 -0.0010221537 -0.015230943 0.155494 -0.0069230283 0.103856824 0.10457738 -0.08468846 -0.044314764 -0.10046885 -0.056998648 0.13647632 0.018338718 -0.18596075 -0.09143673 0.08553947 -0.0044328626 -0.10602699 0.12629914 0.1338214 0.028543303 0.16721287 0.032089856 0.0890474 -0.09838176 -0.008951706 -0.18595493 0.03548944 0.060733162 -0.023264665 -0.11345447 0.067981176 0.011759234 0.040398605 0.11003143 0.03393818 0.11687148 0.029907117 0.04135383 -0.02497548 -0.061562616 -0.044410314 -0.059168976 -0.06646639 0.016918842
10 -0.030250583 -0.017382966 0.10440542 -0.07964257 -0.09228328 -0.114645965 -0.010774845 0.028181817 -0.12789278 -0.00453348 0.2054458 0.060562238 -0.14541744 -0.017605318 -0.048416123 -0.08592018 0.00077398034 0.08907159 -0.049157754 0.03518166 0.09459388 -0.021110155 0.12269965 -0.0058606877 -0.013168967 0.09140877 -0.16185622 -0.03847237 0.030379623 -0.09672399 -0.23404725 0.07315797 -0.022225222 -0.036138978 0.07282687 0.048275158 0.2549474 0.09133182 0.09556575 -0.033909757 0.08374146 0.15054455 -0.038864825 -0.048347197 0.0720081 0.05531416 -0.0820155 -0.13542236 0.015859764 0.009605026 0.09488433 0.0035108721 0.049649477 0.07258736 0.18730208 0.05524924 0.061398827 -0.1169789 0.017018575 -0.029861685 0.10181443 -0.12402377 0.034743633 0.062518716 -0.0775111 0.027919894 0.15037884 0.09956398 -0.040119894 -0.09690179 0.025935749 -0.037433505 -0.018728372 -0.10611476 -0.06716303 0.11579864 0.05176026 -0.0075572203 -0.014398287 0.033301067 -0.019371781 0.022096476 0.09140374 0.08686085 -0.009357288 -0.023453066 0.14066578 0.002121269 0.08956609 0.118491165 -0.110536054 -0.033347197 -0.09913656 -0.057325386 0.13653672 0.022170741 -0.172543 -0.060080457 0.10915514 -0.0047618235 -0.10619035 0.11836703 0.14805552 0.023628289 0.16167794 0.018000085 0.09206838 -0.08847333 -0.03151417 -0.18964511 0.037058808 0.048865825 -0.028537637 -0.10582116 0.08844148 0.030253481 0.043578327 0.101016454 0.0461851 0.123262785 0.04630232 0.019017143 -0.023166876 -0.069654375 -0.03237709 -0.08984571 -0.08927733 0.01972789
3 -0.04852003 -0.024201782 0.09151221 -0.06685372 -0.085531145 -0.11214499 0.012498039 0.021515612 -0.13208804 0.012637459 0.21040796 0.061172787 -0.13356414 -0.020294525 -0.04666498 -0.08108888 0.02110149 0.09079499 -0.039017055 0.03463601 0.08276744 -0.0063951374 0.099619225 -0.00591453 -0.0119213145 0.065020345 -0.16250817 -0.03951463 0.020976225 -0.10327357 -0.22135147 0.061799545 -0.025195137 -0.038194455 0.07179669 0.061938252 0.2460169 0.07328695 0.10256616 -0.0375468 0.09300605 0.14374004 -0.03363246 -0.048872896 0.07381278 0.06405665 -0.0837625 -0.1291175 0.02397698 0.017411005 0.09594973 0.018777616 0.055731766 0.045072827 0.19197232 0.04181551 0.047753952 -0.110427275 0.029496575 -0.018259877 0.108903855 -0.1191621 0.026937287 0.07746237 -0.073410265 0.012365402 0.13782455 0.10789413 -0.034238543 -0.08806153 0.034366954 -0.029395433 -0.02071903 -0.103607245 -0.059936803 0.098814435 0.05390408 -0.005581034 -0.0064100605 0.0535706 -0.00888062 0.022155551 0.08142179 0.10887943 0.0019648778 -0.01461549 0.15089315 -0.00493195 0.09842915 0.11175486 -0.0943713 -0.04014367 -0.10387023 -0.053215437 0.14342877 0.025867209 -0.17525439 -0.07272582 0.09075784 0.00084777334 -0.09438228 0.11679438 0.14167817 0.025687778 0.15777339 0.026733516 0.089934185 -0.07802417 -0.014543688 -0.18353271 0.041926023 0.05550053 -0.023015412 -0.10317709 0.06871089 0.022039905 0.047933344 0.10480139 0.029846417 0.11762546 0.041348472 0.03884825 -0.026064727 -0.0669632 -0.029568812 -0.073992625 -0.07551765 0.024718732
