1813 128
1222 0.061066307 -0.095710546 0.23605043 0.24046774 0.14797892 -0.18150143 -0.22078569 0.023020044 -0.22147316 0.2607696 0.3405109 -0.18342032 -0.3220071 0.27442163 0.16100764 -0.14401734 -0.26865405 -0.0899121 -0.03569505 0.056719165 -0.034569807 0.24694683 -0.019206407 -0.06659531 0.11852401 0.05846737 -0.6143901 0.34295908 0.2234602 0.22341953 -0.32285693 0.287482 0.21934015 0.21888112 0.12282189 -0.4027371 0.603889 -0.32470047 0.2624596 0.034413468 0.17119412 0.385099 -0.21870327 0.22488104 -0.17802979 -0.02888189 -0.2516487 0.09125191 -0.3034985 -0.06898393 0.33333817 0.09909984 0.2814004 -0.019550363 0.1986023 -0.013864779 0.22572911 -0.26460287 -0.12317246 0.21390693 -0.33226624 0.005892068 -0.054864008 -0.114333384 -0.07237129 0.06094131 -0.5187559 0.19662358 0.12302351 -0.23875646 -0.084225506 0.14106733 -0.3448189 0.13109383 0.28333226 -0.2056442 -0.11982673 0.08793249 0.09405696 0.27551 -0.54346174 -0.121440575 0.20827538 0.20594026 0.03912751 0.16792782 -0.066355415 -0.019334316 0.031208381 0.5211689 0.44815704 0.09207986 -0.45068687 0.06301716 0.6224566 0.02466758 -0.72767097 -0.5101197 0.018264621 0.04705889 -0.48731896 0.0836112 -0.18191583 -0.036041148 -0.20508114 0.17888917 -0.20095289 -0.0138296615 -0.06558955 0.40106672 0.090035185 -0.37139365 -0.09259467 -0.23614255 -0.05103825 0.07782016 -0.12629774 -0.010098584 0.2950708 -0.07773895 -0.21282823 -0.30817756 -0.23030494 0.18258032 -0.24201818 -0.006626426 -0.22884923 0.19331622
831 -0.39617082 0.104097575 0.1161832 -0.12780471 -0.30905604 -0.28006023 -0.2837186 0.28152856 -0.05734743 -0.0968945 0.29731658 0.07622925 -0.49850395 -0.0013172731 -0.12527281 -0.31404555 -0.28831053 -0.120246604 0.36325327 0.38300627 0.014235183 0.029854544 0.23059629 -0.29174823 0.011859047 0.03191193 -0.43078506 -0.07468979 0.18595995 -0.150281 -0.4228285 -0.21412508 -0.022728926 0.32703182 -0.27485272 -0.24000598 0.6019702 -0.14424607 0.29418057 0.14890511 0.12675723 0.45132303 0.09127444 0.07013223 -0.2461361 0.03434467 -0.11022216 0.06842137 -0.16593233 0.079147145 0.36741522 0.08607106 -0.1098435 -0.0083878925 -0.20142199 0.21135 0.16964418 -0.34352836 -0.1479344 0.34820393 -0.44489044 -0.14760716 -0.36092642 0.05333864 0.010561142 0.11070451 0.088083856 0.08454075 -0.025782071 -0.061091546 -0.29437637 -0.097146206 -0.17815535 -0.15297462 -0.030465752 0.06355882 -0.008385394 -0.18329686 -0.26783964 0.20689344 -0.82720286 0.26671073 0.26036504 0.20481902 -0.19265455 0.14146441 0.11490129 -0.09756542 -0.0056377877 0.6837615 0.09570777 0.5422975 -0.7137518 0.28494558 0.5324034 -0.011350082 -0.08845853 -0.06499838 -0.020436076 -0.24593867 -0.38314807 0.39381742 0.29389197 -0.3219981 -0.4293543 -0.18379249 -0.08536134 0.095370136 0.2647324 0.024180893 0.08094693 -0.014660856 -0.11935945 -0.17663047 0.26570943 0.016182631 -0.035177015 0.36610863 0.45803764 0.06342045 -0.60401297 -0.24426997 -0.00024487884 0.20988262 -0.22576873 0.100133345 -0.50929976 0.056022186
865 -0.28507775 0.052172434 0.09437715 -0.14841826 -0.3734848 -0.27627376 -0.17980866 0.22370127 -0.031223387 -0.14508617 0.34357738 0.10128652 -0.4798306 -0.012026274 -0.12200584 -0.38249293 -0.32624796 -0.07783773 0.35646024 0.45801002 0.008813664 0.06776436 0.2572204 -0.24426615 -0.20317174 0.13313888 -0.4423511 -0.09405106 0.2433456 -0.17021278 -0.42663494 -0.15635966 -0.10234713 0.23565394 -0.3068071 -0.2325974 0.661105 -0.11632662 0.2778942 0.08974273 0.18723139 0.42495352 0.07772605 0.110792875 -0.25588918 -0.015513087 -0.14577723 0.00825098 -0.1563335 0.069613785 0.33465537 0.03635117 -0.102522664 0.02236341 -0.27718732 0.18632129 0.037585877 -0.348573 -0.2111983 0.27396557 -0.4462629 -0.06753894 -0.4619857 0.06429519 0.042989414 0.09946805 0.08021532 0.11933053 0.05133643 -0.06624615 -0.21739879 -0.11515991 -0.20489751 -0.13269515 0.044980876 0.08187268 0.030721951 -0.17413813 -0.23490585 0.28420383 -0.86553085 0.30106696 0.29866055 0.22416836 -0.18495707 0.20147651 0.11206208 -0.039924044 -0.048960075 0.75592905 0.082734436 0.41915834 -0.7507898 0.20419723 0.50964683 -0.019949302 -0.16102336 0.018899323 -0.1508522 -0.17139724 -0.367879 0.32527333 0.2295323 -0.32332087 -0.29157466 -0.18540385 -0.06496214 0.081041306 0.24110462 -0.023032844 0.111004464 -0.058931455 -0.08622912 -0.17040052 0.215878 0.004995308 -0.0362407 0.34648642 0.43750873 -0.0165314 -0.58076054 -0.16564235 -0.07368127 0.14052884 -0.297328 0.047373127 -0.46910462 0.014754556
1467 -0.34888294 0.13591038 0.1528327 -0.15709995 -0.36239713 -0.24550655 -0.20425178 0.16963437 -0.014074603 -0.10923866 0.4330264 0.11212396 -0.45263633 -0.044357732 -0.13026054 -0.32348424 -0.32199883 -0.17733338 0.39420137 0.33160037 0.10373807 0.09234227 0.27684715 -0.2617982 -0.101560354 0.16830388 -0.54106975 -0.06857397 0.12715195 -0.14392292 -0.41159973 -0.20355706 -0.18040498 0.24432334 -0.34984288 -0.20213777 0.5976164 -0.15244746 0.1842823 -0.011778504 0.14452526 0.41099146 0.070066415 0.16308151 -0.3014909 -0.02094433 -0.08120427 0.029457001 -0.15455495 0.12530734 0.4294013 0.036864277 -0.07936699 0.088035256 -0.21369204 0.25096974 0.11263552 -0.38278714 -0.18849179 0.30337042 -0.3839432 -0.037826788 -0.45426387 0.13091196 0.014223972 0.06439864 0.12355807 0.019579105 -0.06392808 -0.051368188 -0.30604944 -0.081641875 -0.22693537 -0.14908895 0.07639248 0.04539766 0.088200316 -0.21487816 -0.30202615 0.2089308 -0.8298854 0.30113024 0.25868452 0.17981263 -0.19831435 0.16776234 0.072772175 -0.07647846 0.021983527 0.6566857 0.13264449 0.5345945 -0.7947593 0.22914073 0.5312577 -0.06472513 -0.13936843 0.022255417 -0.059358183 -0.2210292 -0.45897022 0.35416412 0.21162468 -0.36828995 -0.40955782 -0.18889709 -0.12023927 0.117699094 0.20454435 -0.022122912 0.04799086 0.025245255 -0.053196408 -0.13184443 0.33987692 0.011417201 -0.026064778 0.30166233 0.3979626 0.039827082 -0.5918019 -0.23383132 -0.015129568 0.14245649 -0.30399036 0.14760889 -0.51765406 -0.028702
667 -0.28241378 0.1369785 0.11581094 -0.18503638 -0.36652127 -0.27745277 -0.19453187 0.19657363 -0.12421447 -0.15737122 0.35042474 0.09755808 -0.43165395 0.017442351 -0.12684152 -0.3393577 -0.3437427 0.034071114 0.430039 0.33599243 0.037429217 0.07220981 0.14177838 -0.29978967 -0.11256144 0.08736128 -0.510216 -0.06699667 0.26917744 -0.14140749 -0.44057107 -0.12768494 -0.1661414 0.3237585 -0.2232294 -0.18790683 0.4979538 -0.1101504 0.27721727 0.051301677 0.15912828 0.4945251 0.09073524 0.03993734 -0.21007234 0.018633787 -0.17205025 0.08115094 -0.18873377 0.12808444 0.36983967 0.07402092 -0.065538004 0.027255312 -0.1754507 0.24543315 0.08455332 -0.41727188 -0.1533526 0.31037906 -0.46546784 -0.12540899 -0.38920516 0.124538526 0.10710927 0.04883058 -0.011243055 0.13128226 -0.08791164 -0.0938979 -0.26540843 -0.10418566 -0.173304 -0.108949594 0.098413266 0.021377344 0.06143359 -0.13547409 -0.2940572 0.20430976 -0.83056664 0.25679272 0.24788696 0.24651594 -0.15588434 0.040763855 0.09915415 -0.022086212 -0.05773551 0.6210102 0.08966387 0.5059418 -0.7925862 0.17164075 0.5409435 -0.030802798 -0.13168526 -0.003921812 -0.045461264 -0.24131869 -0.44410163 0.37855372 0.23443708 -0.41312706 -0.40924683 -0.24646878 -0.098749526 0.19839735 0.21601063 0.053615864 0.047519486 -0.048718505 -0.113950126 -0.13280085 0.20279591 -0.016063794 -0.12510501 0.36102644 0.42930412 -0.05025125 -0.6407844 -0.11803179 -0.051565167 0.17213124 -0.2760481 0.12168587 -0.57582706 -0.002817349
161 0.21878405 0.054448463 0.5158601 -0.1463959 -0.09413635 0.064629085 0.24120705 0.35737437 0.056510016 0.327198 0.61479545 0.12753104 -0.07168231 0.11341168 -0.21908727 0.18493502 -0.044093546 -0.00038347332 -0.17492583 0.14413106 0.25310534 0.31252232 0.38919663 -0.46639138 0.18196085 0.45469007 -0.07948652 0.21448463 0.23411894 0.14349215 -0.45418313 -0.15031287 0.00848043 0.31319445 0.17965811 0.057471175 0.24065307 -0.11683271 0.60045034 0.24484873 0.41858557 0.15520258 -0.15895501 -0.22725101 -0.22656108 -0.23601778 -0.3959134 0.2389389 0.16413017 -0.05951515 0.5605226 -0.114379466 0.092688434 0.50985587 0.12071183 0.003848735 -0.33773908 -0.78718174 -0.25955555 0.2575592 -0.2789254 -0.06945857 0.29515362 0.052438363 -0.30600497 -0.13433702 -0.034396738 0.35668048 0.19534048 -0.45217976 -0.21225886 -0.42514923 -0.1711362 -0.30234578 0.0632883 -0.2795458 0.13524908 -0.25330767 -0.29518917 0.36648563 -0.16341846 -0.24408562 0.5229808 0.32123843 -0.18058357 0.26707107 0.007717924 -0.30046144 0.46453357 0.69649184 0.23440827 -0.0056195436 0.15577997 -0.14495848 0.26059207 0.016224207 -0.4181784 -0.2963801 0.38026327 0.0015563632 -0.43988144 0.16617985 0.023680134 0.10862295 0.08090912 -0.1099737 -0.21901053 -0.6012877 -0.19796313 -0.28963232 0.35215604 -0.566124 0.044118207 -0.09980541 -0.2648557 0.13758819 -0.25745648 0.37024257 -0.049579665 -0.17281054 -0.1643181 0.05291702 0.097594365 0.04605146 -0.30173337 -0.0005406771 -0.12686461 -0.09460209
286 0.2107255 0.054508578 0.50303507 -0.090054475 -0.24927078 0.08320425 0.16488478 0.22955564 0.15215763 0.27820912 0.58101034 0.090027116 -0.115635596 0.08820015 -0.3069416 0.14225997 -0.064359605 0.10362615 -0.17521603 0.09170723 0.26670998 0.30894116 0.42880842 -0.45968282 0.18117797 0.39865473 -0.12594527 0.2014806 0.2745274 0.17980905 -0.44514754 -0.09677631 0.058596883 0.33881938 0.15230648 0.0012525372 0.19579208 -0.1693531 0.58461076 0.20417435 0.35393772 0.10965905 -0.109254576 -0.3776005 -0.18118796 -0.22589386 -0.4785973 0.22668548 0.09811059 -0.0051191687 0.56375146 -0.051256176 0.06405375 0.4750821 0.20625217 -0.08327019 -0.24976972 -0.73041666 -0.28818324 0.26119292 -0.2524478 0.015568935 0.38353842 0.09435144 -0.31668136 -0.11393678 0.04015825 0.45171836 0.15290141 -0.3800409 -0.11514191 -0.33472475 -0.12755057 -0.25529563 0.11914416 -0.3117399 0.16893236 -0.22097814 -0.26130313 0.4561853 -0.17904298 -0.30992842 0.4735601 0.26346377 -0.11767852 0.23362441 -0.039190643 -0.24786858 0.43639022 0.8020267 0.20334405 0.0031292916 0.11162478 -0.20711115 0.28046927 0.11268903 -0.33944532 -0.36617166 0.421926 0.0029851797 -0.35652024 0.23956512 0.09769609 0.09154748 0.06097475 -0.044305272 -0.22566268 -0.5847974 -0.19106637 -0.37440947 0.37933838 -0.5757348 0.109635554 -0.13579135 -0.1296901 0.042544656 -0.2690367 0.36360183 -0.0012199094 -0.19826397 -0.1907542 0.19547738 0.051985625 0.042679466 -0.33701658 -0.07750754 -0.14848268 -0.0026955197
283 0.27242616 -0.19174013 0.43465078 -0.040670786 -0.15733467 0.014182959 0.21739213 0.26383197 -0.024026966 0.20816934 0.4977734 0.091350034 -0.2147577 -0.00238132 -0.3855162 0.1511541 -0.08117154 -0.05374797 -0.20443992 0.06189149 0.31617987 0.31037775 0.46159893 -0.36060038 0.10526658 0.28031456 -0.111090235 0.2527588 0.25604367 0.055144843 -0.5075451 -0.19461174 0.09681233 0.25042388 0.20610884 0.027763855 0.10682227 -0.16972148 0.5955653 0.20950833 0.21468653 0.28315893 -0.0544355 -0.23367926 -0.097927965 -0.26655346 -0.40499 0.17540132 0.0975026 0.045909945 0.42120713 -0.10266532 -0.08558023 0.4493271 0.20632766 -0.1751525 -0.3606627 -0.61962664 -0.2050996 0.32378128 -0.24234134 -0.07574644 0.13162708 0.18206312 -0.35136586 -0.21787982 -0.056113742 0.5054401 0.16017649 -0.31484964 -0.26920202 -0.1426627 -0.15742937 -0.22976002 0.2993477 -0.26970622 0.10062876 -0.39191428 -0.20191902 0.31331697 -0.23129733 -0.3271519 0.38052 0.32907426 -0.0058933957 0.32752872 -0.059206877 -0.23011082 0.35665515 0.77463055 0.21893443 0.04794271 0.07582876 -0.22539374 0.2922725 0.16358243 -0.4138934 -0.470652 0.38714367 0.008636385 -0.37527278 0.16343257 0.031295855 0.2739932 0.083047055 -0.119800486 -0.29815784 -0.48524806 -0.17549063 -0.4840098 0.46897984 -0.4866486 0.07614316 -0.14458445 -0.0020300888 -0.022300486 -0.1419744 0.4100149 -0.043968078 -0.15403761 -0.24927503 0.10096868 0.057284426 0.054203812 -0.28047186 -0.22534518 -0.1362073 -0.10552009
357 0.05119187 -0.046446797 -0.34034935 -0.027642066 0.19510952 -0.086420886 -0.03311373 0.100532256 -0.18775515 0.49537128 0.7285501 0.21437126 -0.3534896 -0.049134582 -0.26932013 -0.19571492 -0.29800537 -0.085883975 -0.18196253 0.26234594 0.024857415 0.28227812 0.46248507 -0.34200603 0.021028839 0.19736171 -0.3613122 0.060537443 0.34012085 0.33101642 -0.5128687 0.03775433 0.20449108 0.12958804 -0.05036238 -0.3171702 0.2812028 -0.223385 0.59079087 0.08864858 0.027668668 0.36490497 -0.11925556 -0.108775556 -0.15909551 0.019725459 -0.024326678 0.012922096 -0.25642028 0.04863514 0.5878148 -0.13863397 0.07053363 0.40297306 0.13177826 0.19934462 0.10471621 -0.46374306 -0.08261186 0.048882976 -0.25745326 -0.017170927 -0.46787518 -0.27675143 -0.088161916 -0.008627549 0.03743344 0.3371426 -0.22173704 -0.21099819 -0.3247014 0.49842042 -0.3169821 -0.058494184 0.07937084 -0.15158421 -0.36697254 0.29661036 -0.28373253 0.35339838 -0.16976888 0.12499335 0.33518022 -0.1411783 -0.00935463 0.15751061 -0.057749137 0.17874561 -0.09322175 0.3287888 0.1710532 0.14103584 -0.5240253 -0.1847682 0.4039282 -0.23741482 -0.3579818 -0.18930861 0.54576504 -0.15849002 -0.3914087 -0.01097702 0.19642389 0.12016189 -0.374385 -0.15335026 0.06201245 0.058600497 -0.13187662 0.33463493 0.39628765 -0.34837785 -0.05347993 -0.25313374 0.03794116 0.08940346 -0.44880688 0.46597984 0.15567136 -0.040351108 -0.0015240308 -0.12283241 0.09130005 0.27263275 -0.2950018 0.028097337 -0.29118958 -0.25720164
294 0.09500528 -0.04737117 -0.38645807 -0.06555835 0.183262 -0.058320303 -0.03772291 0.088342756 -0.11459313 0.46196446 0.66572255 0.29499108 -0.37859428 -0.06646257 -0.1635853 -0.0934609 -0.21949676 -0.14823568 -0.19715713 0.2643088 0.024465013 0.2973725 0.41522002 -0.32486343 0.07133858 0.33765417 -0.3105792 0.10306002 0.36098725 0.23762278 -0.5121265 0.14186828 0.23972194 0.20412013 -0.07739195 -0.32333484 0.20881769 -0.23930609 0.7200148 0.10752822 -0.017234325 0.26109594 -0.13891801 -0.09185254 -0.15241502 -0.006536447 -0.037523117 0.005866507 -0.24133499 0.11920832 0.5760641 -0.23857805 0.119734816 0.41106707 0.09507338 0.12707768 0.071702875 -0.4844132 -0.03172282 0.14604944 -0.21264812 0.02431725 -0.46023455 -0.2839654 -0.04793058 0.028993394 0.10155918 0.28614286 -0.17365378 -0.161965 -0.30307877 0.5209776 -0.38848233 0.010525608 0.11799539 -0.15614493 -0.31705654 0.23259282 -0.20761013 0.40610304 -0.19703087 0.19080617 0.34473172 -0.05653493 0.11626232 0.15584894 -0.046397123 0.18188798 -0.117216356 0.34408367 0.28217992 0.14034349 -0.55552316 -0.20043397 0.37844104 -0.17177626 -0.29876533 -0.25371918 0.52517766 -0.15100157 -0.3752946 0.06680351 0.20209841 0.045096364 -0.24162453 -0.18421811 0.0955645 -0.012739192 -0.11759605 0.25711438 0.38843676 -0.24715276 -0.15572838 -0.223393 0.021905893 0.0877185 -0.42342496 0.41993618 0.21242665 -0.042718615 0.06872812 -0.03566121 -0.01990549 0.26110107 -0.3750773 -0.071250536 -0.3263982 -0.1870566
354 0.3071261 0.0088954205 0.5017863 -0.05871036 -0.15329818 -0.04733095 0.17287847 0.3040659 0.06853984 0.28131625 0.60514504 0.06549372 -0.11150734 0.1703235 -0.30332604 0.12100308 0.04415108 -0.02128552 -0.11387698 0.051436007 0.20575951 0.27191055 0.37527767 -0.46920305 0.17889209 0.4164035 -0.1153324 0.24870223 0.27837336 0.1862494 -0.42577398 -0.19783589 0.04186489 0.2750044 0.2980498 0.118273295 0.26750138 -0.1684276 0.6639076 0.32224157 0.36328483 0.10550327 -0.10747742 -0.35880286 -0.15066881 -0.13414578 -0.29917622 0.23668706 0.1583132 -0.011185934 0.4653309 -0.10238458 0.047995213 0.4143999 0.133699 0.02315992 -0.3004331 -0.64069784 -0.2025993 0.2895735 -0.27938706 0.020929992 0.33148772 0.10754505 -0.27385324 -0.16207768 -0.00084691006 0.39405975 0.1439004 -0.40255103 -0.22802587 -0.32778797 -0.11354594 -0.31373376 0.096671335 -0.24615262 0.1425528 -0.25138825 -0.24168915 0.37410226 -0.16322999 -0.23069465 0.38866702 0.20928289 -0.0880054 0.25558972 0.011453969 -0.2523901 0.42115232 0.7449984 0.26559606 0.09966678 0.009321351 -0.19625029 0.3015663 0.1438671 -0.39351842 -0.36583334 0.39494023 0.05692013 -0.39846593 0.18482368 0.009837592 0.12383573 0.053617988 -0.11247105 -0.24348702 -0.5476641 -0.12964034 -0.41224298 0.4002094 -0.7044304 0.13834544 -0.12731688 -0.13948789 0.085912 -0.23608968 0.3908316 -0.1036998 -0.09210109 -0.15331738 0.08826661 -0.03433574 0.07835766 -0.26206985 -0.07524671 -0.12357261 -0.119866
1377 0.059172407 -0.06998821 0.41692698 0.18133834 0.093434095 -0.13524191 -0.20750524 0.15790439 -0.31544217 0.30045944 0.31053284 -0.09067652 -0.2959884 0.31052327 0.12223253 -0.2115087 -0.44006234 0.0014810254 -0.005359896 0.11059172 -0.0069077765 0.2654772 0.039003763 -0.042017944 0.029260606 0.14798003 -0.574913 0.22355464 0.21575445 0.16232462 -0.40101486 0.30779725 0.13309474 0.27968284 0.101941146 -0.41704446 0.46606007 -0.22335786 0.18424505 0.123928264 0.20191811 0.47903496 -0.21339945 0.14437245 -0.16917807 0.024828918 -0.2748838 0.014402927 -0.24705122 -0.096652046 0.32629624 0.04228477 0.29889002 -0.00083010324 0.31190938 -0.03542122 0.20945725 -0.35791296 -0.21671866 0.14147164 -0.2431039 0.08234998 0.013822622 -0.00052622147 -0.07138768 0.055478532 -0.4451042 0.22149312 0.09821607 -0.19072618 -0.0039246483 0.1639628 -0.33075285 0.0680041 0.33729059 -0.18374589 -0.12160479 0.098338716 0.09986206 0.35396934 -0.64520276 -0.1453546 0.12531464 0.18348773 0.17519483 0.23507734 -0.030414246 -0.0135119725 0.11191799 0.52668196 0.34070188 0.18357664 -0.47481784 0.07328382 0.5307383 0.060559563 -0.67637455 -0.5058521 0.12839626 0.14747724 -0.4482915 0.10735303 -0.1784174 -0.09529184 -0.122753344 0.19794057 -0.14247438 0.17595531 0.016921083 0.30482227 0.047803126 -0.35084683 -0.04101816 -0.27028865 -0.049527973 0.038525846 -0.20351966 -0.046784166 0.28570807 -0.17304341 -0.15904137 -0.32058045 -0.21242222 0.15897985 -0.24667312 -0.037105355 -0.1680795 0.11217768
24 0.08507887 -0.01773228 -0.21495497 0.06784066 0.16270278 -0.2857353 -0.128432 0.4276485 -0.039240923 0.21639918 0.5568489 -0.079673074 -0.37724674 -0.3272357 -0.030593535 -0.07946913 -0.33197337 0.21980864 -0.24611646 0.22617233 0.3138697 0.384768 0.5934308 0.0317949 0.42863813 0.3214344 -0.43521953 0.1591324 0.7575807 -0.35801482 -0.5009961 0.09323829 0.14337425 0.41967592 -0.16558775 -0.28113148 0.44563085 -0.505031 0.7217521 0.18257895 0.2116988 0.40824628 -0.032266945 -0.6185898 -0.14382434 0.023493769 -0.4248691 0.15543829 -0.16902454 0.22872195 0.21829654 -0.2290307 0.04074363 0.5147315 -0.18866478 0.22738779 -0.36915535 -0.5383827 -0.3046549 0.32785714 -0.1787131 0.13418204 -0.21142308 0.085167125 0.09377564 -0.48863053 0.0368819 0.04884112 -0.14363535 -0.35839233 -0.3641713 0.33953193 -0.19574623 -0.007092189 0.26069167 -0.1863713 -0.50522894 0.10678601 -0.24504551 0.10610057 -0.5368899 0.38664123 -0.18113811 -0.27041245 0.088224724 0.3092588 0.15496019 0.2932723 -0.06850644 0.32931146 0.5395118 0.2038612 -0.5108842 0.19407865 0.24850745 -0.20306712 -0.19573718 -0.25810793 0.13205229 0.18792093 0.14592929 -0.031429395 0.22326225 -0.047215868 -0.13956 -0.11065199 -0.084286764 0.04362968 -0.059739854 0.54227436 -0.26545566 -0.55889046 0.0320623 -0.09082619 0.16551961 -0.022612175 -0.37080353 0.19950508 0.107824974 0.19659746 -0.5002596 -0.17833267 -0.010319426 -0.10145223 -0.09090543 -0.0033375937 -0.20933177 -0.24266231
1665 -0.16452965 0.70061743 0.078951895 0.5114354 -0.21118888 0.007069664 0.12671474 -0.27226686 -0.07941016 0.21502312 -0.08895158 -0.56510884 -0.114398465 0.00899632 0.1975294 0.106386065 -0.53090495 0.34813896 0.12343227 -0.7477684 -0.14224224 -0.32893267 -0.063771866 0.2900343 0.1416786 0.3445087 -0.15084867 0.9525792 0.1670964 -0.1924878 0.21721801 0.13955472 -0.07078146 -0.16519901 0.0007958482 -0.393173 0.31747502 0.0021545552 0.26692107 0.40963066 0.109235965 0.32814044 0.32270363 -0.019617422 0.01888199 0.22591655 -0.55880743 -0.25102162 0.44045904 0.24188447 0.5486398 -0.058809232 -0.3140955 -0.112249486 -0.4783986 -0.12714365 -0.2507648 -0.18084054 -0.29511553 -0.04282888 -0.21706003 -0.37040034 -0.17866735 0.08418394 -0.27248922 -0.5434107 0.2055959 -0.16590233 -0.3712672 0.06305333 0.22713135 -0.10128481 -0.24235615 -0.4021439 0.2082893 -0.16902955 -0.08316192 -0.046208903 0.38374597 0.06893801 0.13086 0.21160387 0.13768892 0.27994815 0.098412804 0.29045144 0.061914008 -0.19077961 0.10504401 -0.038563486 -0.07627579 0.24965064 0.13981037 0.07021672 0.408097 0.28942958 -0.17730184 -0.019422483 0.26567027 0.24831416 -0.33183572 0.38323045 0.05775063 -0.18922856 -0.037079092 0.100601844 0.34388545 -0.106620036 0.47951382 0.43209535 0.5315956 0.0069362884 0.107448906 -0.362591 0.22474533 0.41418448 0.12201803 0.16863286 0.30646497 -0.016703201 0.32781735 0.37514168 0.16690785 -0.28098446 0.17525028 0.03122328 0.1577342 -0.5179064
347 0.38596097 -0.027853582 0.4535316 -0.11930374 -0.06532683 -0.037061546 0.2943017 0.34635857 9.661527e-06 0.25101775 0.5276782 0.07575766 -0.12538077 4.754502e-05 -0.35004222 0.12549233 -0.14829566 -0.07273116 -0.2100356 0.16143167 0.22125185 0.36096787 0.45228618 -0.36035094 0.18623005 0.23768005 -0.11325245 0.22326468 0.22402157 -0.004921506 -0.41339582 -0.15632412 0.07392204 0.22345985 0.2502425 0.020933412 0.13573124 -0.2201679 0.5701581 0.21291159 0.30980098 0.3025023 -0.034150574 -0.25570855 -0.019397203 -0.23863421 -0.34066793 0.15808871 0.1856685 0.09803718 0.32685646 -0.07482729 -0.19168586 0.43587512 0.12015695 0.09181181 -0.34518772 -0.66989714 -0.2877636 0.39405644 -0.24320677 -0.08012188 0.2092624 0.1310694 -0.46469742 -0.130633 -0.14306766 0.4284844 0.14716676 -0.29425308 -0.3088014 -0.22211437 -0.2628286 -0.1514274 0.17073666 -0.30625454 0.083114564 -0.3718076 -0.161379 0.31075063 -0.23527408 -0.30757424 0.401694 0.25013068 -0.05622421 0.31798142 -0.05233644 -0.25290862 0.37964496 0.7599573 0.34030768 -0.098599754 -0.01699368 -0.24202038 0.2831805 0.086965576 -0.4050581 -0.41634065 0.4262591 -0.12563594 -0.3676898 0.2713165 0.0669573 0.19055822 0.06487537 -0.12895714 -0.24612111 -0.54976434 -0.17526238 -0.32582262 0.501556 -0.5039374 0.019058406 -0.104058005 -0.12905826 0.04475708 -0.20642136 0.46299025 -0.13830084 -0.18846896 -0.26154065 0.1267806 0.11275861 -0.04460443 -0.22895007 -0.21916611 -0.18336292 -0.11675197
27 0.03433372 0.70698035 0.15648156 0.57332796 0.093552135 -0.52732474 -0.12781475 0.18112361 -0.27147186 0.18579572 0.03361723 0.045368508 0.059412412 -0.110169716 0.15848783 -0.25149557 -0.12583137 0.06899208 0.19718121 0.046709877 0.16049102 0.42730588 0.23789322 -0.012273948 -0.101735294 0.38375515 0.37928495 0.23170306 -0.1265494 -0.17863862 -0.4132083 0.06266584 -0.25264776 0.43187058 -0.33730218 0.019411243 0.07988674 -0.18756728 -0.007406951 0.18052658 0.26088828 -0.13900173 0.12333433 0.072575815 -0.15219538 0.62878656 0.050139043 0.12563549 0.3167849 0.39407998 -0.17895174 0.18172473 -0.5544055 -0.038666964 -0.053945675 -0.13630567 0.5616904 -0.2271161 -0.09967247 -0.29840916 0.4352803 -0.12744977 -0.2640393 0.13044669 0.6698507 -0.53116584 0.46353063 0.2990535 0.11924827 -0.58873904 -0.5800646 0.28203645 -0.7224194 -0.2327673 -0.38806766 0.10076052 0.118397206 -0.0014509081 0.28966406 0.4118637 0.37848586 -0.33541417 0.17175263 0.5303299 -0.11752501 0.09561696 0.019148752 -0.52669865 0.12048691 0.09901631 0.14856401 -0.37939903 0.19263583 -0.3796392 0.20895189 0.09214895 -0.21195576 -0.35560048 -0.10128281 0.06551728 -0.68095183 -0.3366559 -0.043842226 0.11009529 -0.11054362 -0.097044446 -0.03946835 0.23972051 0.18047504 0.1195647 0.27764228 -0.35007235 0.27067423 0.14260867 -0.0482582 -0.016217003 -0.18071535 0.12523451 0.28458053 0.1244731 -0.41259068 0.15036364 0.022560328 0.14243393 -0.47525156 -0.46817046 -0.025897034 0.5155077
399 -0.15565912 -0.049529925 0.40593648 -0.042038135 0.1380514 -0.02091236 -0.12278071 0.28145665 0.1983463 -0.06904461 0.062429097 0.037175123 -0.4248188 -0.008793207 0.29903013 0.14680982 -0.089079 0.28518078 0.58173966 -0.4973784 0.2569663 -0.03196806 0.049938112 0.0004668553 0.017160408 -0.08324659 -0.33415362 0.57484525 -0.037204146 0.013418391 -0.43860185 -0.115051106 -0.20642205 0.03767337 0.26953474 0.07343163 0.06095308 -0.63317305 -0.03927512 0.0581477 0.5487046 0.17906956 0.07615439 -0.15888265 -0.41498324 0.23085865 0.47440827 -0.28979275 0.070475295 0.0282475 0.7247312 0.024504352 -0.3678461 -0.2162807 0.588191 -0.21162981 -0.04675821 -0.20815021 -0.28720835 0.16480595 0.35353127 0.15429372 -0.25082085 -0.38554743 -0.03044205 -0.25595123 0.5036594 0.3997096 0.2383929 -0.0025502665 -0.31962046 -0.34874186 -0.56974095 -0.23768783 0.26349536 -0.28603998 -0.33095035 -0.161378 -0.05915461 -0.007672214 0.0030520938 0.07432664 0.3989126 0.24286611 0.025892245 -0.34283033 0.23024483 -0.13050495 -0.25240254 -0.16596964 -0.11244645 -0.7558303 -0.26188284 -0.025486887 -0.0984695 -0.22160189 -0.18466666 -0.2728101 0.028546318 -0.1724526 0.20843454 -0.051369116 0.17483646 -0.04678326 0.12224439 -0.076053075 0.32487586 0.03031279 0.48931396 -0.22333112 -0.020298038 -0.26445502 0.04630697 0.053209476 -0.107694216 0.19420281 0.37862888 0.29013786 0.12659532 0.085612565 0.1863728 0.28244236 -0.18334718 0.03205901 -0.41330084 0.0011291446 0.08071159 0.09836642
6 0.26377922 0.9460335 0.0065895347 0.12739775 0.36578202 0.022827243 0.47300404 -0.08097979 -0.05699182 0.38860428 0.49066493 -0.1796383 0.040448654 -0.39100745 0.65899694 0.004911316 0.05630026 -0.08428933 -0.3600481 -0.2888369 0.124058954 0.24135573 0.10385797 -0.048711307 -0.12492404 0.13884105 -0.49414676 0.3151492 0.21455698 -0.27980018 -0.48643392 -0.31516445 0.0818016 0.54582536 0.11070171 0.20806134 -0.004097464 -0.114692576 0.008349863 0.39096916 0.31973943 0.20765387 -0.101842746 -0.28677398 0.18312563 0.49692857 -0.24042958 -0.10415602 0.17505251 0.27754378 0.03447363 0.6005194 0.31668505 0.013642512 -0.26753443 -0.19411926 0.41660485 -0.28914678 -0.30036888 -0.519297 0.29659817 -0.04640166 0.021168565 0.31458533 0.46971264 -0.4976929 0.10157498 0.09852731 0.045790132 -0.4561402 0.07491771 0.14788572 -0.44238487 -0.035682835 -0.3962513 0.28510705 -0.6269808 -0.3784146 0.43692017 0.5453819 0.15196754 -0.2545016 0.40001738 0.2805068 -0.25116795 -0.003461557 0.2736773 -0.15138675 0.44243312 0.16673411 0.0009458982 -0.48228344 -0.09089532 0.04896476 -0.15481964 -0.1209342 -0.16162907 0.17986389 -0.35717306 0.09405771 -0.28078845 -0.153126 0.10045585 0.51455367 -0.25155342 -0.27989203 0.017806573 0.22557443 0.24552792 0.023779267 0.34133127 0.037390485 0.13000236 0.53081214 0.052635066 0.22087866 -0.21966106 0.02341066 0.27463016 0.006604723 -0.24535856 0.2691712 -0.10494481 0.34713256 -0.29789928 -0.93666613 0.26804042 -0.2301365
69 0.06430471 0.70954925 0.17026834 0.6268426 0.09429853 -0.4544225 -0.09531643 0.113219395 -0.16956957 0.15376738 0.02911017 -0.008675229 0.1070015 -0.16583693 0.19269523 -0.2285503 -0.10256585 0.041347336 0.23047844 0.014309826 0.20823029 0.45401305 0.25229326 0.01535933 -0.014998785 0.3224653 0.40610427 0.23550723 -0.13196394 -0.18182611 -0.42179018 0.029897328 -0.23951346 0.4334264 -0.3165526 0.040214706 0.019433737 -0.19192155 0.013183123 0.17240827 0.2527293 -0.19024006 0.06638532 0.06541828 -0.14154889 0.64762133 0.11403316 0.18202785 0.24955821 0.40875134 -0.094926484 0.26278016 -0.61746174 -0.0996968 -0.11761843 -0.17294571 0.5632395 -0.3235547 -0.1579181 -0.3255609 0.42449686 -0.13041511 -0.26082528 0.10093149 0.6408672 -0.5882359 0.40406752 0.30501595 0.13883917 -0.52351636 -0.67493004 0.35066047 -0.694423 -0.18992355 -0.46725214 0.13776268 0.17723149 -0.11711171 0.18325037 0.44960722 0.307102 -0.295419 0.11798557 0.5073813 -0.17902434 0.16551194 -0.07058164 -0.4666062 0.18793483 0.15759502 0.005920285 -0.3393951 0.17008683 -0.39803335 0.21755293 0.12718488 -0.20916279 -0.33955565 -0.14958665 0.077413335 -0.70823455 -0.36474767 -0.008147379 0.07606098 -0.11332136 -0.09654923 0.0029952065 0.24867575 0.19608958 0.086969666 0.25458816 -0.40162757 0.19518521 0.10797056 -0.059071444 0.018860383 -0.1593134 0.14883041 0.16757591 0.10363588 -0.44287023 0.1572089 0.116863996 0.13420743 -0.48685655 -0.49779963 -0.023572084 0.4239619
35 0.041619547 0.7284053 0.21813433 0.6705526 0.15495163 -0.47161293 -0.04516087 0.15829168 -0.21748239 0.13084225 0.1232424 -0.016027987 0.14437853 -0.13109845 0.24220192 -0.2603018 -0.042218577 0.056551788 0.22598884 0.010460951 0.3050644 0.5227944 0.25185826 -0.029324656 -0.07955021 0.3786162 0.38102776 0.20809212 -0.1536888 -0.20566995 -0.35046265 0.041954957 -0.27035776 0.38712767 -0.31800863 0.03440281 0.039876148 -0.25546503 -0.0036172261 0.16015606 0.2430369 -0.05807951 0.04731819 0.055092975 -0.13900556 0.5741971 0.104504116 0.15281503 0.27050844 0.47302732 -0.10551537 0.23462047 -0.59404075 -0.16560313 -0.1353541 -0.26481622 0.62665766 -0.25018895 -0.072044194 -0.23642494 0.4438341 -0.10699885 -0.29408982 0.08735838 0.5725581 -0.52413404 0.4491227 0.27338874 0.13948482 -0.6160995 -0.6726022 0.37857246 -0.6624789 -0.23994996 -0.4475822 0.18042594 0.07874237 -0.07773366 0.15167719 0.42429104 0.30135915 -0.35263187 0.12651496 0.43992636 -0.20353577 0.16552593 0.033693243 -0.50365037 0.15917452 0.102855116 0.05238854 -0.32531816 0.2145894 -0.37746468 0.29374766 0.0036771027 -0.17652793 -0.37071207 -0.092222564 0.0798902 -0.68336135 -0.33250365 -0.051568486 0.041940812 -0.1543196 -0.08983106 -0.004039395 0.3102308 0.2010064 0.033304945 0.22417504 -0.3725172 0.27733853 0.16383912 -0.034052998 0.030515779 -0.18949835 0.11941103 0.27089706 0.075257905 -0.4431041 0.16378081 0.11925357 0.09817487 -0.4459007 -0.46527693 -0.02824351 0.47653136
2 0.23595703 0.9694093 0.036848348 0.2103937 0.3300202 0.020689806 0.45624113 -0.08061301 -0.13413471 0.345009 0.51156324 -0.23767865 0.036297966 -0.43713948 0.6768491 0.042225152 0.07754026 -0.025319254 -0.2726722 -0.3245 0.15812144 0.19301872 -0.006091467 -0.14159948 -0.076784156 0.1040889 -0.48685786 0.26247418 0.18657856 -0.22115059 -0.43041235 -0.27191067 0.021451386 0.47893786 0.15802576 0.23492678 0.03762337 -0.099809915 -0.004818275 0.38663882 0.29474482 0.21868189 -0.086077794 -0.3125219 0.23246117 0.47044912 -0.19543798 -0.11252811 0.13294193 0.3113866 0.038333274 0.5832171 0.25257012 -0.042486288 -0.3361356 -0.3298249 0.5219634 -0.38207722 -0.25724608 -0.51754755 0.26906377 0.046396594 0.019101493 0.2700712 0.4824135 -0.46157116 0.07965534 0.05923563 0.08952866 -0.434453 0.014273752 0.14026923 -0.34772605 0.028927494 -0.35707527 0.2799398 -0.6229599 -0.44620627 0.49068984 0.4765299 0.13525856 -0.16895474 0.48505557 0.2560224 -0.27317992 -0.084995 0.2726404 -0.11554332 0.4871114 0.19308475 -0.010791555 -0.50956 -0.05602075 -0.0097455215 -0.09250154 -0.13829528 -0.15998466 0.054632995 -0.3197489 0.01831785 -0.3112527 -0.120139554 0.03125216 0.51538056 -0.2616629 -0.21011294 -0.04322588 0.17073387 0.19615677 0.050911717 0.29822296 0.098590046 0.11890237 0.6089718 0.07321623 0.16792504 -0.2710004 0.03758472 0.26337624 -0.06762708 -0.31970063 0.27385837 -0.00026982586 0.41569492 -0.29220545 -0.9011678 0.32034135 -0.22790216
48 -0.11983246 -0.0696614 0.42323628 -0.038942907 0.1818252 -0.080129415 -0.122287914 0.34709528 0.1902852 0.010790513 0.11443492 0.06065468 -0.47566792 -0.07015184 0.34106174 0.06281079 -0.08449784 0.28093168 0.5671577 -0.48999283 0.289749 -0.023947876 -0.006619514 0.056139894 -0.012871689 -0.18813981 -0.33039185 0.5556278 -0.13388038 0.018763324 -0.42073864 -0.061017133 -0.2650174 0.01862171 0.17586851 0.100302294 0.040910043 -0.68113565 -0.057115454 0.029795306 0.46713573 0.17559597 0.015160065 -0.21732341 -0.35059053 0.13965994 0.5013883 -0.28045174 0.037386063 -0.005891384 0.68322587 0.05926306 -0.40598154 -0.16213877 0.54672736 -0.26345828 -0.0014153862 -0.1903059 -0.26529378 0.23074551 0.32440677 0.13816464 -0.21243761 -0.38631457 -0.08113819 -0.2637654 0.49652836 0.34358686 0.27925378 -0.036658414 -0.32536268 -0.3413329 -0.549768 -0.24494152 0.27926946 -0.26590928 -0.4285283 -0.18852612 -0.10470984 -0.032902777 0.005091371 0.12811972 0.32687262 0.2374869 0.017111072 -0.33336642 0.24785046 -0.18528348 -0.24848431 -0.16064528 -0.15745321 -0.72212136 -0.31169927 -0.0051875096 -0.05658126 -0.2429024 -0.1589768 -0.23921171 0.036201376 -0.19772576 0.123031005 -0.052286636 0.18061975 -0.03897093 0.12965593 0.03802648 0.3863882 0.053705137 0.429196 -0.25975648 0.051030442 -0.21301354 0.07919258 0.11507302 -0.20045465 0.2315933 0.37959027 0.2924391 0.1473021 0.11966818 0.1641079 0.311184 -0.13162285 0.0018150483 -0.35848156 -0.082933225 0.032610897 0.048569635
8 0.2376566 0.9504788 0.07282037 0.22387026 0.3914462 0.0013144013 0.5063223 -0.11679372 -0.06212972 0.34751377 0.5087246 -0.18571098 0.08450927 -0.410184 0.6000066 0.036943667 0.10851739 -0.018565452 -0.30001903 -0.3305392 0.14048602 0.2097383 0.025626987 -0.03904148 -0.21472412 0.14686565 -0.45978513 0.25161532 0.13990472 -0.22563446 -0.43691966 -0.26015562 -0.0018215353 0.510428 0.1620153 0.17008689 0.06413284 -0.07144429 -0.056791674 0.3622738 0.23051421 0.22098503 -0.1165863 -0.32453057 0.21779619 0.46104658 -0.25231645 -0.15303111 0.1440777 0.28177488 0.048766118 0.56821454 0.27708998 -0.074788526 -0.32900572 -0.29902515 0.47102895 -0.34791747 -0.21882804 -0.49439073 0.28945246 0.0641272 0.028787259 0.298368 0.47581863 -0.49171528 0.040133614 0.08576651 0.09212488 -0.37909868 0.013598785 0.17130272 -0.4056268 0.02074585 -0.18259026 0.31509572 -0.59211427 -0.4048873 0.5167613 0.5768783 0.22707489 -0.1714284 0.49836734 0.25524423 -0.25484258 -0.037747912 0.300093 -0.10836122 0.49505976 0.2231253 0.017846862 -0.44852728 -0.11605548 -0.031967398 -0.14173804 -0.115481466 -0.14032665 0.113379456 -0.32489505 0.09306694 -0.30408022 -0.109634094 0.100736305 0.52715003 -0.34446502 -0.15942767 -0.039151557 0.22193845 0.21874554 0.06433428 0.31195334 0.049541216 0.119461596 0.5582482 0.079627246 0.13468738 -0.18409248 0.060785495 0.27194157 -0.11794054 -0.31836483 0.2485418 -0.04124483 0.4282057 -0.3119466 -0.94358814 0.19953613 -0.14798315
67 0.2568561 0.94230336 0.11965288 0.1956237 0.32887027 0.04560474 0.4112683 -0.119277 -0.012264503 0.41678008 0.48125562 -0.22899146 0.06999058 -0.40301713 0.58567566 0.067471534 0.019111287 -0.03315313 -0.35216767 -0.29320666 0.0998428 0.17422052 0.07989102 -0.050436098 -0.22269659 0.114806265 -0.46476096 0.2662576 0.1520904 -0.32784387 -0.45768303 -0.32874373 -0.0177722 0.5486731 0.06621451 0.20576616 -0.07630169 -0.13101557 -0.0044856262 0.3826839 0.2870627 0.1891536 -0.066208676 -0.29933763 0.16815029 0.44520244 -0.22430232 -0.09096641 0.15698671 0.26594508 -0.04508052 0.57163554 0.24313548 -0.0127964495 -0.35025287 -0.3568784 0.420175 -0.28996408 -0.16882752 -0.5379956 0.27181217 -0.00675206 0.019171895 0.2646109 0.49564978 -0.45757294 0.03298131 0.097034514 0.12808044 -0.44520435 0.0005172744 0.22806504 -0.42881018 -0.023414848 -0.31279886 0.22470312 -0.6547627 -0.38259932 0.5003046 0.449606 0.114743866 -0.1335138 0.4641767 0.28569973 -0.238533 -0.02581266 0.31453836 -0.13836788 0.45277938 0.15581201 0.0001967244 -0.49462637 -0.07720963 0.037348215 -0.15364353 -0.13305393 -0.19308844 0.022550423 -0.36761442 0.1255161 -0.33303973 -0.124806024 0.13850166 0.5039256 -0.26539126 -0.19457328 -0.042566992 0.15833944 0.18850455 0.019849638 0.34073302 0.09567511 0.087890655 0.598365 0.054875888 0.11030495 -0.20754611 0.00035006372 0.17920266 -0.051948708 -0.31616852 0.2136922 -0.04020766 0.37628788 -0.37536684 -0.8820273 0.18959826 -0.16421422
104 -0.16670102 -0.050652243 0.4350262 -0.057088215 0.11314011 -0.06488721 -0.14147829 0.2389705 0.20048937 -0.07817169 0.127194 0.06687194 -0.49009627 -0.06007196 0.27305424 0.19502856 -0.068186425 0.29699138 0.5885487 -0.48042193 0.2794729 -0.02435876 -0.0101631 0.02170249 -0.0048308643 -0.16377105 -0.30059546 0.55473393 -0.040838968 0.03866882 -0.42252252 -0.057736367 -0.28517815 -0.022268815 0.2693542 0.12656836 0.06704181 -0.61879164 -0.094812214 -0.034133304 0.47168487 0.2377415 0.09964041 -0.2135037 -0.3635257 0.22556768 0.44653678 -0.31790045 0.017794956 0.01266032 0.6958618 0.045074593 -0.4266228 -0.22721331 0.53986907 -0.23595497 -0.07152556 -0.18471959 -0.2713938 0.17771494 0.38710058 0.13713951 -0.251484 -0.34757304 0.02382369 -0.2755032 0.43951622 0.39861903 0.23920864 -0.047388323 -0.32893166 -0.33482322 -0.5317015 -0.33018637 0.3437761 -0.25876224 -0.30617127 -0.2670211 0.01830395 -0.046611257 0.04995762 0.068865605 0.36091614 0.20230144 0.1210622 -0.27744085 0.23957221 -0.12488553 -0.2901872 -0.20058723 -0.15816818 -0.7345541 -0.30087346 -0.03439763 -0.08491204 -0.27914032 -0.18717957 -0.28198656 0.06564547 -0.17535517 0.17038627 -0.06766377 0.22386913 0.007856467 0.08934936 -0.059260823 0.30510235 0.052125126 0.5132793 -0.19520359 0.05452809 -0.2567405 0.008498108 0.070222504 -0.14923555 0.18783706 0.35927334 0.30562094 0.16158885 0.062936954 0.09749075 0.2640008 -0.16848023 0.011179014 -0.36401808 -0.104193 0.08032091 0.106377445
34 -0.104624785 -0.08091442 0.42321628 -0.0213757 0.18367046 -0.07751542 -0.08329567 0.30266035 0.16051131 -0.06704052 0.074427046 0.05391456 -0.4227881 -0.03938617 0.3240818 0.15868849 -0.07154164 0.20953326 0.6246493 -0.4815084 0.22669572 -0.010485187 0.052351642 0.05052372 -0.08200657 -0.18919839 -0.33047932 0.5243802 -0.16257672 -0.0698845 -0.37525606 -0.068342574 -0.22850998 0.019451462 0.27438337 0.07055951 0.063682385 -0.69608825 -0.04729564 0.0063159443 0.44787368 0.25695193 0.06789032 -0.21013263 -0.47284758 0.09917336 0.49157295 -0.28657857 0.12398509 -0.07355081 0.71358865 -0.017883597 -0.46357486 -0.11631268 0.50030965 -0.2255927 -0.051759902 -0.1753449 -0.30388963 0.20858279 0.29679057 0.21074437 -0.1949991 -0.37548113 -0.06149363 -0.3117851 0.52308136 0.306278 0.35260412 -0.034139954 -0.4046996 -0.27529234 -0.64253366 -0.266556 0.23505738 -0.23501569 -0.3387125 -0.2732111 -0.0016974183 -0.014312498 -0.004878531 0.10851297 0.34254497 0.2874259 -0.032644458 -0.33996043 0.25100183 -0.11778607 -0.22913492 -0.18079892 -0.16134344 -0.7374321 -0.31513423 -0.064050294 -0.0108015 -0.21976532 -0.14322647 -0.27354658 0.0593017 -0.14288777 0.18339549 -0.02323479 0.18050455 -0.0072286334 0.05060121 -0.0019292507 0.30814427 0.017419964 0.5012614 -0.17536904 -0.038692717 -0.20878361 0.10894389 0.07141288 -0.103568695 0.21946178 0.44275776 0.2949129 0.094673626 0.053844504 0.15888585 0.2797652 -0.106766805 0.030059414 -0.4091461 -0.116728365 0.033971798 0.056016807
28 0.003565614 0.7353562 0.221743 0.65955484 0.09827665 -0.44889992 -0.045654036 0.16216624 -0.25912052 0.13563065 0.07395265 -0.021514531 0.053101204 -0.05153985 0.2009091 -0.18401606 -0.14407067 0.044966713 0.26567796 -0.035292048 0.16216335 0.43291235 0.34381184 0.049015608 -0.04501256 0.43142375 0.40061128 0.20373125 -0.114704005 -0.29105824 -0.3734429 0.047305744 -0.2929528 0.33055383 -0.25260532 0.018277394 0.030992154 -0.16063485 0.011695672 0.119092114 0.24238935 -0.1221918 0.119058065 0.07887794 -0.21684255 0.6728223 0.10591785 0.11177119 0.30640346 0.37422362 -0.15038626 0.19607021 -0.5314291 -0.1327331 -0.111781046 -0.20747556 0.58203995 -0.33249378 -0.101735026 -0.2640454 0.35048267 -0.17796223 -0.34071314 0.12002535 0.61283475 -0.4105725 0.40564826 0.25884938 0.16319662 -0.6610481 -0.5730649 0.29031307 -0.7307915 -0.21211435 -0.44600308 0.09143909 0.10650973 -0.045677844 0.17588499 0.525412 0.33026505 -0.41944695 0.16484675 0.50189227 -0.15007663 0.17627965 0.019909667 -0.48006743 0.12874393 0.105497144 0.05170538 -0.29559144 0.17924511 -0.4001169 0.17679577 0.06107458 -0.1803311 -0.3292176 -0.1048969 0.16917396 -0.606099 -0.30647174 0.012454317 0.13806933 -0.16408633 -0.029274827 -0.042541333 0.28562275 0.15397358 0.084831126 0.29771757 -0.43838277 0.25108644 0.1496494 -0.03529893 -0.040413026 -0.07265317 0.016071744 0.14368649 0.09442096 -0.4762613 0.13169818 0.11957619 0.15129784 -0.5284531 -0.44978225 -0.117886946 0.53562766
700 -0.075041406 -0.08161602 -0.11998119 0.19530937 0.14786977 0.072741665 -0.14438544 0.10705894 -0.17369945 0.11217742 0.16692245 0.22728835 -0.1655943 0.6023927 0.21554948 -0.06801583 -0.44681954 0.050185267 0.026718503 0.42605466 0.11199586 0.26861474 -0.24929076 -0.068548255 -0.19499691 0.15025224 -0.21020727 0.4186553 0.4230546 -0.08196156 -0.33778012 0.25610107 -0.14666331 0.6155119 -0.11798222 -0.32819936 0.28437406 -0.2802521 0.19723122 0.38094333 0.32990712 0.26202774 -0.24870802 -0.013520548 0.0015148292 0.08121961 -0.15250163 0.21127498 -0.32311022 0.13796857 0.53912246 -0.1357809 0.03884044 -0.043115508 0.06898753 0.0842625 -0.010961605 -0.61012113 -0.40301824 0.30750832 0.0034336206 -0.0643097 0.5844636 0.67319125 -0.21731211 -0.11556339 -0.24563785 0.14076537 -0.05066377 -0.09857905 0.08011759 0.14021146 -0.25435618 0.22738501 0.022360753 0.118288085 -0.47604325 -0.093168594 -0.11440155 0.21904673 -0.3935455 -0.12766075 0.25110808 0.22241485 -0.1656045 0.3317213 -0.3251393 -0.2593353 -0.022880917 0.52757865 0.5162256 0.24544398 -0.34934804 0.018388435 0.55941176 -0.37971547 -0.49378994 -0.43682832 0.25098523 0.29615262 -0.49447393 0.07416632 -0.25274825 -0.30034086 -0.2052354 0.16467012 0.15577275 0.07483541 0.46958223 0.02887749 -0.031342037 -0.31740895 -0.026281679 -0.08623037 0.25949454 -0.14476931 0.029198438 0.42753127 0.24558917 -0.2345563 -0.073548414 -0.23424494 -0.17254242 0.6370996 -0.10452873 -0.18578073 -0.24156784 -0.11901318
72 0.2540525 0.95356303 0.089294784 0.17285578 0.35755315 -0.028689984 0.39340773 -0.15446621 -0.08789589 0.3418252 0.4481878 -0.2384132 0.022555508 -0.40124592 0.6390314 0.0123237055 0.06513495 -0.027765865 -0.31946424 -0.31170025 0.0964106 0.13936885 0.0535666 -0.0961676 -0.116447836 0.15789165 -0.58090675 0.3419077 0.1758668 -0.24202065 -0.4847515 -0.2811222 0.0049913693 0.57973593 0.17761579 0.19079483 -0.034800205 -0.0071898196 0.03512566 0.40119693 0.21942863 0.19725391 -0.07651212 -0.317059 0.20605086 0.46909514 -0.22601005 -0.14207348 0.19498207 0.24817465 -0.041775208 0.61101097 0.3015922 -0.010171005 -0.32388094 -0.24563926 0.46844006 -0.3021089 -0.2520073 -0.5177879 0.26051447 0.013710719 0.029419916 0.34155074 0.48825538 -0.45159012 0.059877504 0.11380839 0.15548997 -0.42940977 0.05788004 0.15249844 -0.41333896 0.012483299 -0.2923957 0.25793558 -0.62315005 -0.41927785 0.5129332 0.58804995 0.19218479 -0.2102289 0.4861113 0.256387 -0.23789103 -0.04864617 0.26070136 -0.18722302 0.44078755 0.20716958 -0.009259705 -0.46206972 -0.074529305 -0.039420467 -0.17253952 -0.13971323 -0.24202496 0.15030974 -0.3442439 0.1457214 -0.30050036 -0.13452876 0.028648965 0.54088587 -0.29374236 -0.22881769 -0.02642419 0.19025297 0.22055207 0.050586544 0.2897299 0.06622197 0.03264296 0.5886556 0.089838274 0.13401434 -0.16025476 -0.008064345 0.18987179 0.035819985 -0.32985884 0.2298432 -0.03417563 0.39495045 -0.38943288 -0.8884391 0.21906878 -0.21759036
1045 -0.040089488 -0.060647186 -0.07024605 0.23756777 0.20361684 0.03549547 -0.10115388 0.14917994 -0.08071085 0.16363503 0.17096531 0.24596237 -0.18964645 0.577519 0.20805272 -0.051464643 -0.5633029 0.07054981 -0.051337503 0.44642445 -0.012523885 0.25352424 -0.17477147 -0.087350145 -0.30175138 0.13931423 -0.26755327 0.445127 0.4905682 -0.095230706 -0.365007 0.13539252 -0.06686105 0.5836364 -0.14821032 -0.26572 0.23690507 -0.27033627 0.16901031 0.37247702 0.3807181 0.28363848 -0.26073253 -0.14697866 -0.029208077 0.12970218 -0.24515462 0.16900432 -0.21022755 -0.025239203 0.5777544 -0.09749343 -0.008745822 0.05452869 0.068237655 0.07416892 -0.051099487 -0.49622837 -0.46057463 0.3293217 0.0070332903 -0.11522808 0.54877263 0.63110983 -0.10644233 -0.014261305 -0.294852 0.17654923 -0.08268689 -0.19808084 0.044461746 0.18654914 -0.23859684 0.23265906 0.03945097 0.052547306 -0.38185796 -0.0899611 -0.122157745 0.21271913 -0.41842848 -0.13136068 0.25307626 0.10072952 -0.09093423 0.33793685 -0.2938451 -0.28650308 0.0010167566 0.5397774 0.48853442 0.26145515 -0.41504946 -0.038723815 0.522733 -0.25375253 -0.5353011 -0.4012225 0.3190056 0.34675974 -0.4865234 0.06402586 -0.220167 -0.3272771 -0.31310785 0.17785518 0.1295621 0.084716186 0.4737306 -0.12766705 -0.1172938 -0.39555115 0.08188314 -0.062455907 0.27764967 -0.16622117 -0.011572155 0.43677846 0.19711207 -0.22932532 -0.037582755 -0.1510473 -0.19904569 0.67074144 -0.09147855 -0.22338092 -0.19515048 -0.024907101
244 0.16900513 0.005440586 0.5246514 -0.082485095 -0.061698567 0.09607109 0.12765604 0.22350255 0.079760395 0.3124907 0.6731097 0.015578008 -0.04919821 0.18640068 -0.20133732 0.108006194 -0.08470894 0.13409518 -0.13955931 0.04035758 0.12040813 0.32387984 0.37484 -0.48683822 0.110182144 0.33013114 -0.18546231 0.1173761 0.16737844 0.014486938 -0.4846782 -0.22639714 -0.041156657 0.20618154 0.120403 -0.0011825375 0.24909309 0.008928458 0.5932923 0.18968435 0.3872391 0.14091977 -0.106187716 -0.3588857 -0.22295806 -0.2170551 -0.40782192 0.28423834 0.08643914 0.040872037 0.4832249 -0.1278343 0.06530991 0.4179703 0.13629322 -0.061401706 -0.30695307 -0.79062444 -0.2492947 0.29515538 -0.26870474 -0.034078285 0.24844556 -0.012833595 -0.2901709 -0.021308064 -0.016849846 0.386045 0.26601633 -0.49520406 -0.22686814 -0.48290077 -0.08116754 -0.30358058 0.019865869 -0.113032155 0.14914112 -0.21092916 -0.3340375 0.38536707 -0.17457938 -0.20298967 0.42976457 0.30385742 -0.07445995 0.092823856 0.06938818 -0.33214167 0.44521263 0.6432336 0.36461958 0.10324748 0.1005719 -0.20683888 0.19144346 0.046097606 -0.44518194 -0.37433368 0.3902509 0.004400017 -0.41530535 0.21304952 0.09737145 0.064100616 0.08098062 -0.09757446 -0.17920527 -0.4509664 -0.12711318 -0.35283124 0.3901103 -0.64267665 0.12660693 -0.11544611 -0.122807875 0.13313167 -0.2740599 0.31449166 0.010247721 -0.09254507 -0.10328618 0.077361986 0.13744234 0.15911563 -0.3272301 0.031391438 -0.15699844 -0.13190281
62 -0.18916251 -0.021818385 0.503982 -0.028437907 0.08431461 0.015957046 -0.14266597 0.27099505 0.15719938 0.01106517 0.09214929 0.07479707 -0.534308 -0.021239603 0.3366355 0.064225234 -0.230485 0.31458172 0.5000277 -0.40566382 0.18083075 -0.11124484 0.049797535 0.017737001 -0.081464484 -0.1712969 -0.3310393 0.5158939 -0.0747129 -0.019570136 -0.45866728 -0.0651295 -0.22665204 -0.008800231 0.3008599 0.13483562 0.0077683893 -0.55470616 -0.11958815 -0.011718231 0.5250233 0.21761529 0.13104548 -0.15765025 -0.5134581 0.18458477 0.3981239 -0.35468802 0.19199005 0.010339038 0.6443898 -0.0043063043 -0.3934855 -0.12157871 0.51262873 -0.24071562 -0.12905556 -0.13365453 -0.2375482 0.24442303 0.35250232 0.17799538 -0.25098398 -0.37120298 -0.04695572 -0.33783448 0.49453264 0.40008077 0.3388192 0.022644248 -0.2964325 -0.21946618 -0.60769475 -0.3640875 0.35612148 -0.41354018 -0.32377765 -0.24175027 -0.05158489 -0.054558467 0.13347027 0.15124138 0.4491776 0.23273404 0.023807788 -0.3922036 0.12994358 -0.08681536 -0.17508306 -0.23438685 -0.10964789 -0.7827424 -0.20470805 -0.081517756 -0.07338809 -0.19052155 -0.14158142 -0.27065575 0.0041726455 -0.14089872 0.1958338 0.076958574 0.16675892 -0.03771685 0.09445409 0.076181054 0.24108632 0.08995449 0.50125694 -0.26476023 -0.024813607 -0.21013634 -0.0494056 0.05430656 -0.0675292 0.17626047 0.3216674 0.28616783 0.17868218 0.03237945 0.09711647 0.34237212 -0.13193575 0.109464124 -0.3667742 -0.046452425 0.045207676 0.19868526
53 0.20706265 0.9325118 0.025697866 0.21435897 0.3345891 -0.021726891 0.39673844 -0.13056208 -0.03366477 0.28336087 0.53673893 -0.19650511 -0.015300574 -0.5281959 0.6530072 -0.031176843 0.06100581 -0.029455153 -0.34726727 -0.30924556 0.110792495 0.19332398 -0.019008541 -0.052264243 -0.10395827 0.14321798 -0.49374264 0.33603534 0.13520278 -0.17897497 -0.5038851 -0.28935683 0.050363794 0.5448653 0.17544381 0.2049922 0.00087825774 -0.16442747 0.0362316 0.4063318 0.26131907 0.17709038 -0.14070249 -0.25618905 0.20739189 0.47782227 -0.21067531 -0.17579101 0.106170356 0.20315869 0.029836038 0.5971776 0.32206872 0.025773143 -0.27528682 -0.30857497 0.53474945 -0.32252842 -0.22853382 -0.5970212 0.37140152 -0.02166163 0.121698864 0.28243014 0.47055876 -0.5212744 0.028834676 0.066121414 0.09485219 -0.3763899 0.08429532 0.19759122 -0.43216652 -0.059215706 -0.27666554 0.32037428 -0.5828025 -0.47279137 0.52722025 0.53362066 0.14790398 -0.18768403 0.5247385 0.2941104 -0.25126016 -0.012016865 0.2568441 -0.0885073 0.5181918 0.19037277 -0.06248393 -0.5162299 -0.039731048 0.031098654 -0.14452027 -0.16256353 -0.24137558 0.047557205 -0.35238916 0.080217525 -0.3600221 -0.15680285 0.090763554 0.5761661 -0.25887606 -0.25418124 -0.07272632 0.07670269 0.19839346 0.105208464 0.19586165 0.071273424 0.10697135 0.53688127 0.069965236 0.19616596 -0.18439162 0.06211922 0.26369348 -0.09250969 -0.32164872 0.24506716 -0.08294533 0.37090597 -0.30004057 -0.8583836 0.3031069 -0.20425063
21 0.15479891 -0.021632446 0.51838493 -0.028956166 -0.12885718 0.15108615 0.13968308 0.25362667 0.1300294 0.30086783 0.60017174 0.057701506 -0.08981668 0.007874932 -0.25865224 0.124394424 -0.11863538 0.016334413 -0.18140118 0.033416938 0.17209607 0.38685885 0.25732923 -0.4229874 0.18379164 0.35488245 -0.06748598 0.18900521 0.20886727 0.15603557 -0.4867318 -0.16615483 0.062753715 0.19436105 0.15859939 0.035791088 0.21330892 -0.087505326 0.631943 0.36886778 0.4933841 0.10097054 -0.17242864 -0.29845256 -0.34402603 -0.16986871 -0.28366587 0.2907488 0.04822527 -0.08993696 0.6751707 0.038547095 0.18549821 0.518248 0.18272944 0.0589533 -0.19475192 -0.78115237 -0.32535547 0.09701654 -0.19373637 -0.0022791282 0.41850564 -0.009676374 -0.26034522 -0.104067564 -0.059171665 0.39241904 0.12203651 -0.4612528 -0.1546231 -0.45200312 -0.038298294 -0.30115563 0.077459626 -0.15802324 0.14100401 -0.26331234 -0.3987102 0.2817199 -0.20092781 -0.30052215 0.40621573 0.2855943 -0.09847503 0.31236643 0.0562809 -0.25835487 0.44565895 0.6877169 0.2388411 0.13824755 0.12264299 -0.07162688 0.3187764 0.06486507 -0.39774972 -0.37973422 0.38521618 -0.016851794 -0.40004495 0.18406354 0.038980763 0.028805366 0.13036044 -0.12819017 -0.2061214 -0.6230034 -0.12983477 -0.2841022 0.3936609 -0.6749278 0.055366848 -0.05066654 -0.17035477 0.07502487 -0.24958995 0.41530845 0.092442706 -0.2767884 -0.19111085 -0.025708057 0.079332374 0.077356525 -0.29797676 -0.022455428 -0.116230026 -0.06005813
205 -0.15877752 -0.080117375 0.37681222 0.077756286 0.14765546 -0.021021925 -0.0825532 0.31898767 0.24608682 -0.14068721 0.041511152 -0.012031782 -0.3849296 -0.11772815 0.29041195 0.1465501 -0.09000521 0.32975847 0.5616603 -0.5313751 0.27255327 0.065931395 -0.033388738 0.04372095 0.1240323 -0.114697576 -0.35388464 0.53352344 -0.11423533 -0.061890427 -0.40733165 -0.059079565 -0.26132435 0.01453334 0.2857513 0.06799248 0.036554925 -0.6349208 -0.046464205 0.014011419 0.46759346 0.23625024 -0.03874565 -0.13882041 -0.4680595 0.19024292 0.4517367 -0.28485554 -0.048704002 -0.085536376 0.6811147 -0.01470737 -0.4174921 -0.182489 0.5553307 -0.2866598 -0.07680165 -0.25383875 -0.27656722 0.1489644 0.35635093 0.16977558 -0.24975257 -0.3656633 -0.063195296 -0.28460824 0.4039409 0.2771824 0.27539805 -0.027674342 -0.3145217 -0.34592113 -0.5374837 -0.15653099 0.2690082 -0.19679116 -0.3433409 -0.24680585 -0.028490793 0.017757187 0.0023083799 0.0035958227 0.33748353 0.3317125 0.030140167 -0.27086654 0.28632283 -0.14107975 -0.30849347 -0.2649136 -0.043789923 -0.718911 -0.35420394 0.036422923 -0.05514431 -0.28501222 -0.23336247 -0.26799968 0.053978764 -0.14853044 0.14966688 -0.03943768 0.23809808 0.039283473 0.14112131 -0.058025353 0.3141705 0.01926509 0.43925667 -0.14065805 -0.06553054 -0.21165894 0.07548045 0.053141806 -0.148428 0.16194691 0.44655117 0.3130337 0.11163533 0.08749046 0.15760179 0.31502312 -0.08229028 -0.009695856 -0.35398182 0.023215547 0.09442284 0.040964406
697 -0.06694984 -0.1301285 -0.0786601 0.18643343 0.12914293 0.10266684 -0.12523745 0.20742783 -0.147628 0.27712324 0.09243077 0.27507967 -0.15983778 0.41463724 0.12466195 -0.023861596 -0.5371666 0.07094047 -0.00540023 0.42492697 0.17641194 0.29079804 -0.27835336 2.4360415e-06 -0.19665322 0.10500778 -0.23177569 0.3094706 0.4662668 -0.038279604 -0.26267695 0.14588982 -0.087010145 0.5723726 -0.09928495 -0.31161615 0.25357425 -0.24695903 0.1469066 0.41250876 0.33982566 0.2296565 -0.26116666 -0.07255363 -0.017587803 0.11927548 -0.17335968 0.21436085 -0.28563252 0.09915729 0.52592 -0.12706845 0.026058426 0.013039944 0.014767592 0.12104674 -0.010092071 -0.61985785 -0.49428892 0.34899583 0.0421831 -0.11889305 0.6113626 0.597047 -0.13724612 -0.053228848 -0.16860783 0.16760866 -0.08177028 -0.088734545 0.08166681 0.24093705 -0.24853991 0.23588485 0.07357819 0.05210479 -0.3998179 -0.160237 -0.15689066 0.28282958 -0.46048146 -0.06684273 0.22274293 0.18294819 -0.118352935 0.47306582 -0.34436312 -0.23516686 -0.003627261 0.5133098 0.38053682 0.17366804 -0.3914745 -0.0016716763 0.5397624 -0.27117243 -0.58403933 -0.42377904 0.20584193 0.29854286 -0.4757201 -0.08026649 -0.22693779 -0.31762004 -0.28290644 0.29723433 0.16755275 0.051167764 0.4446504 0.048577454 -0.14430009 -0.42413995 -0.00019036155 -0.082260124 0.27349865 -0.031492043 0.046276014 0.4922539 0.23619413 -0.2639807 -0.120068744 -0.12729181 -0.28862435 0.64143705 -0.087257005 -0.24664655 -0.14025925 -0.07226706
11 0.07676989 0.68151176 0.16991828 0.5600762 0.09230462 -0.36430487 -0.08524876 0.081712596 -0.20534709 0.19968912 0.014998326 0.03277129 0.029958196 -0.1725526 0.21247143 -0.18154962 -0.090648755 -0.03844621 0.32076496 0.038864132 0.27579793 0.45642 0.2375255 -0.015805239 0.035280492 0.38230997 0.353047 0.25111932 -0.17225972 -0.1459283 -0.36862475 0.026507664 -0.23922883 0.39482626 -0.32701945 0.11642434 0.046838272 -0.1524002 0.08168825 0.20819707 0.24967489 -0.216464 0.15500493 0.13635023 -0.14259954 0.66714865 0.054628722 0.1100298 0.13846327 0.39148742 -0.13651167 0.25980803 -0.56783706 0.003721084 -0.09499651 -0.25265384 0.6037901 -0.3215252 -0.1400913 -0.301199 0.39464036 -0.25109723 -0.27765095 0.11604372 0.7088241 -0.51631147 0.44971737 0.29407227 0.11043957 -0.5992095 -0.61512107 0.31216517 -0.68345106 -0.25488257 -0.44603276 0.10874745 0.13015509 -0.057411786 0.18010767 0.47753814 0.30357397 -0.39231983 0.057096533 0.43086472 -0.17901114 0.16810586 0.05971461 -0.45491228 0.11155286 0.05763624 -0.06473683 -0.36914825 0.20543543 -0.35307574 0.24547715 0.11037779 -0.25744715 -0.37673438 -0.092633344 0.070079595 -0.6644339 -0.39141876 0.008215748 0.13695516 -0.14557345 -0.05153437 -0.08308525 0.17636536 0.14949112 0.12713243 0.30317912 -0.36761662 0.14111716 0.10252995 0.022684049 0.02235423 -0.120420896 0.13199395 0.273488 0.015721029 -0.46689102 0.19367589 -0.03196455 0.21578531 -0.44284683 -0.40721244 -0.0391465 0.4755787
13 -0.6127287 0.1981859 -0.16184291 0.17273013 0.03606239 -0.4801365 0.46525592 -0.15531719 -0.11371129 0.1377613 0.31299505 0.3002375 0.07530305 -0.16794556 0.11418887 0.0964812 -0.08899176 0.23040086 -0.0011169409 -0.06592647 0.15756354 -0.32057917 -0.07804674 0.29820377 0.29601493 -0.14421727 -0.23984493 0.42775634 -0.1065858 0.13150272 -0.27911538 -0.07466993 0.39160633 0.05145014 -0.22440852 0.0505854 0.19881257 0.31811374 0.1813217 -0.07743386 0.36258638 0.41510686 -0.019178225 -0.021898858 -0.21888764 0.2751827 -0.017898804 -0.07368918 0.3411487 -0.099883914 0.24474807 -0.09014074 0.12119426 -0.17316014 0.24348098 0.20670716 0.11889601 -0.5515488 0.18838558 0.1338922 0.4460814 -0.05205972 -0.4215026 -0.05167625 -0.083497554 -0.3462835 0.027418058 -0.08422997 0.2573631 0.3049957 0.036814798 -0.22999091 0.08469224 -0.15478608 -0.2629605 -0.18128255 -0.04980504 0.14215311 0.028057862 0.2978813 0.19116661 -0.2160546 -0.25709787 0.29098845 -0.0016056626 0.002992685 0.016637892 -0.020204838 0.04161992 -0.2643287 0.09195562 -0.21662539 -0.24103609 -0.17523998 0.13024308 -0.27621505 -0.16625689 -0.26428998 -0.14279951 0.24596415 -0.29086685 0.02302434 0.4418793 -0.35198876 -0.25522023 0.486486 -0.07483959 -0.31069133 0.16660272 -0.107741244 0.16225143 0.061411742 0.027699055 0.46274963 0.17223334 -0.40556377 -0.21474704 0.095364735 0.057969593 -0.08837363 -0.33581913 -0.007900886 0.020523889 -0.12852472 -0.10013728 -0.4328143 -0.15787862 -0.079536915
171 -0.1325363 -0.0254709 0.4946395 0.056611266 0.10388651 -0.021931237 -0.1806834 0.2127774 0.12623687 -0.06756019 0.07514848 0.12342225 -0.5331833 -0.12528063 0.29283908 0.076112635 -0.21248104 0.2735115 0.5761683 -0.49364412 0.21227317 -0.09658278 -0.0066042882 -0.044835143 0.012384705 -0.2407203 -0.23049884 0.5127221 -0.02674996 0.050722383 -0.4276919 -0.07978785 -0.26434755 0.03830794 0.29047403 0.084842905 0.042321786 -0.63220906 -0.039212666 0.090674505 0.6459344 0.13840638 0.14828393 -0.14894 -0.5344943 0.24419996 0.45790926 -0.2523212 0.1512614 -0.0533509 0.7019284 0.0141660245 -0.42325357 -0.06208835 0.4891308 -0.112106234 -0.078039214 -0.14927824 -0.19895023 0.305016 0.319171 0.057820786 -0.21759601 -0.42382583 0.03387932 -0.24878207 0.48973635 0.41748953 0.28594083 0.0036779463 -0.16480309 -0.2234897 -0.6151479 -0.39202774 0.37680933 -0.38794124 -0.32362726 -0.15290749 0.048580162 -0.04482161 0.10130436 0.1733182 0.3912396 0.17929898 0.051283285 -0.37546247 0.13460174 -0.09215352 -0.09644798 -0.14590746 -0.19775929 -0.7341813 -0.25326577 -0.025006255 0.011243844 -0.2914702 -0.22514857 -0.16612136 0.036476664 -0.14371556 0.22442955 0.09491263 0.0677121 0.09201844 0.24239428 0.10981158 0.23113587 0.084598206 0.42129093 -0.21956223 -0.028954402 -0.2550527 -0.036852475 0.048258062 -0.12157106 0.093857765 0.38072482 0.3442184 0.2401454 0.13309553 0.036971625 0.38532662 -0.10439161 0.15480764 -0.42488763 -0.026393613 0.036554873 0.14784776
237 -0.057329904 -0.039641406 0.3759028 -0.03787831 0.105560094 -0.009858943 -0.08865354 0.2774467 0.26276675 -0.060351625 0.07965999 0.0074053607 -0.5057363 -0.08047629 0.34042507 0.22164911 -0.071215294 0.29979798 0.64514875 -0.44142056 0.2695125 0.10018928 0.09087535 -0.015260736 0.09067783 -0.07303633 -0.37604597 0.50822824 -0.06767606 -0.048487496 -0.38165358 -0.047682226 -0.28575736 -0.040947292 0.2343239 0.10909659 0.12609543 -0.5312449 -0.10085274 -0.0028892912 0.45270276 0.20432277 -0.010413577 -0.1226835 -0.36820945 0.2177704 0.5531648 -0.335326 0.013328489 -0.086859286 0.65146077 0.032827344 -0.42735878 -0.24259283 0.584046 -0.33991656 -0.118352175 -0.29640564 -0.4259871 0.18258704 0.3190643 0.23009284 -0.29373914 -0.2930171 -0.109864734 -0.26773494 0.43060496 0.36929575 0.23714963 0.007783629 -0.37349647 -0.3488353 -0.58160794 -0.22932115 0.29825678 -0.21158634 -0.34684968 -0.19546603 -0.021436172 0.032165457 0.0067476695 0.0073604225 0.39168116 0.2727913 0.07748069 -0.31510243 0.23976031 -0.15550043 -0.31468 -0.24262992 -0.16523738 -0.73921376 -0.28685927 0.01205801 -0.049980253 -0.35016346 -0.18064341 -0.24771728 0.03254732 -0.07947958 0.13196424 -0.041643336 0.17267075 -0.025212811 0.17997383 0.05664092 0.3595204 -0.059127267 0.4173907 -0.10753436 -0.07406275 -0.22559832 0.07949261 0.10635026 -0.103750475 0.20032215 0.43851313 0.29827335 0.07351547 0.12497527 0.16454245 0.32612815 -0.1608556 0.03244079 -0.38596925 -0.09727673 0.066604115 0.0353606
16 -0.4780677 0.20560116 -0.13824835 0.05846883 0.050904237 -0.49881363 0.5960661 -0.19495085 -0.13388297 0.15152493 0.22621992 0.2841447 0.0017435253 -0.08686549 0.056213044 0.18545966 -0.066742815 0.24790843 0.044812437 -0.043239318 0.22630802 -0.24864227 -0.07927203 0.32952392 0.33176067 -0.15229647 -0.23738131 0.4810012 -0.056223292 0.19763461 -0.25548977 0.05760004 0.26769748 0.05480711 -0.23517749 -0.0005823269 0.23444647 0.26201984 0.21947683 0.0054438347 0.27337164 0.46380708 0.020616021 -0.06657087 -0.13903765 0.34809068 -0.019859731 -0.1567402 0.38393152 -0.12887058 0.2414291 -0.07569945 0.10505183 -0.20368966 0.22624362 0.19226797 0.12843905 -0.5203727 0.1936884 0.19635057 0.45450288 -0.097790875 -0.37029245 -0.030227963 -0.15666762 -0.33430424 0.16926794 -0.13795663 0.29833955 0.28064212 0.1370413 -0.14539452 0.028459378 -0.22353514 -0.23779352 -0.13561957 -0.011369693 0.023141226 0.07258732 0.2719483 0.13524401 -0.17415838 -0.38541555 0.28469408 0.07170912 0.06229917 0.042184215 0.021053832 0.05510177 -0.20846844 0.041752476 -0.21359488 -0.25587344 -0.18850225 0.08024374 -0.27098113 -0.13566051 -0.19637813 -0.19761029 0.22395736 -0.39092183 -0.009661745 0.32959926 -0.34113783 -0.31334585 0.47116488 0.07456724 -0.40209985 0.09809393 -0.092247516 0.09858248 0.05363111 0.032957274 0.44883746 0.21058251 -0.42727408 -0.19811295 0.016604489 0.0045773783 -0.102988705 -0.37893742 -0.058156643 0.030766098 -0.10652721 -0.1300657 -0.35092983 -0.08890063 -0.074359894
19 -0.5588221 0.26610795 -0.17730962 0.1230415 0.06532714 -0.50337267 0.49894264 -0.1284185 -0.20819366 0.10773221 0.25829694 0.25086725 -0.091340244 -0.1545519 0.0041140444 0.0011406356 -0.040848337 0.15910886 -0.03425291 -0.10960177 0.09976978 -0.25679445 -0.027115308 0.27999374 0.34873906 -0.117752925 -0.23278889 0.39415947 0.0069210604 0.21538717 -0.14979757 -0.08994906 0.39196286 0.12606181 -0.2939275 -0.03141502 0.3516198 0.21323277 0.16581152 0.008970121 0.31539252 0.35214737 0.047569476 -0.04518377 -0.27607426 0.3291373 -0.07539239 -0.20680179 0.39098224 -0.088977024 0.16352162 -0.047453396 -0.055816956 -0.27152252 0.26525685 0.18025683 0.13015811 -0.5474453 0.09570612 0.13411948 0.27591297 -0.11482367 -0.21337049 0.123701625 -0.10735168 -0.3529165 0.09999866 -0.02006498 0.313329 0.37466136 0.023153597 -0.32756105 0.09969726 -0.15887997 -0.20090896 -0.2515388 0.05133589 0.11616542 0.10344602 0.27518705 0.08187852 -0.1507593 -0.3152346 0.2184136 0.09936611 -0.08955269 0.010670835 0.007858331 0.10159653 -0.20479552 -0.100161485 -0.30086055 -0.27488324 -0.06215064 0.13269085 -0.20359498 -0.1117643 -0.3830501 -0.2408554 0.3387674 -0.29090375 -0.12291136 0.26463977 -0.29593104 -0.24043675 0.49105656 -0.04152238 -0.33184028 0.15103273 -0.23488867 0.14019193 0.06099413 -0.0048345844 0.42213365 0.26767644 -0.48774132 -0.29482368 0.18548483 0.052704304 -0.04579391 -0.36349174 -0.015039131 0.06972273 -0.18833858 0.009763768 -0.41090524 -0.013865344 -0.08000717
1 -0.44489872 0.14666669 -0.005966568 0.17635359 0.07810351 -0.50291467 0.5635591 -0.12501493 -0.2380631 0.10894959 0.30069774 0.34792534 -0.1146225 -0.12111144 0.11508736 0.10105663 -0.05947407 0.23962474 0.04865449 -0.09490161 0.15548702 -0.22331683 -0.052930765 0.35113966 0.25999928 -0.12932533 -0.18301147 0.4466564 -0.015598176 0.2931511 -0.208738 -0.06973059 0.38458407 0.044354673 -0.2504496 -0.04192562 0.20833603 0.18122941 0.11046453 -0.010551629 0.32249087 0.47131795 0.12487999 -0.055451892 -0.32393193 0.39573622 -0.011245478 -0.21870315 0.37972105 -0.12814318 0.19805408 -0.10762889 0.029233629 -0.13466994 0.18238208 0.29130366 0.15859722 -0.5800854 0.18375729 0.07433722 0.31998447 -0.12846607 -0.36718577 0.08203933 -0.11091252 -0.29053566 0.17165835 -0.06726877 0.22373602 0.34493396 0.14815044 -0.24220137 0.12891634 -0.1665404 -0.15201318 -0.18516622 -0.022065086 -0.075998895 0.14104259 0.35083818 0.060714375 -0.13823166 -0.34348175 0.25296086 0.12551837 -0.0921331 -0.025336042 0.048531488 0.12084888 -0.13191652 -0.04649866 -0.25217387 -0.19393842 -0.11093263 0.12517434 -0.24825282 -0.13935277 -0.291359 -0.23760334 0.28516304 -0.22602285 -0.090042986 0.29401204 -0.27685624 -0.2178974 0.57237285 0.009030128 -0.26278567 0.11779297 -0.09566023 0.11614541 0.04598578 0.06815237 0.36410597 0.13020149 -0.4981272 -0.3250685 0.04211028 -0.01697735 -0.15924609 -0.35756794 -0.033516124 0.12266671 -0.13933599 -0.082903884 -0.34796432 -0.090178624 -0.07775228
15 -0.5336206 0.26182523 -0.08121612 0.096158676 0.1721064 -0.5362641 0.5468261 -0.16604888 -0.15280987 0.047163803 0.26528463 0.23695812 -0.13117488 -0.10809114 0.07022941 0.08334494 -0.073414914 0.22172838 -0.013197267 -0.07442149 0.00836497 -0.252944 -0.06075289 0.31039107 0.3558057 -0.20488405 -0.23664996 0.44005135 -0.076827876 0.31062028 -0.21238393 -0.08050659 0.3130749 0.13354883 -0.2910501 -0.0058528506 0.3236104 0.19902058 0.2196838 -0.018922394 0.28949475 0.38652334 0.17009373 -0.006018808 -0.28662658 0.33923885 0.053328313 -0.11492021 0.4592944 -0.15195622 0.116925925 -0.042651344 0.09344139 -0.12665357 0.23784772 0.30330148 0.06032365 -0.56964535 0.15186748 0.08850892 0.33600146 -0.047145523 -0.35243332 0.120805204 -0.22945467 -0.26044774 0.21301086 -0.006568664 0.16344881 0.3645377 0.18614829 -0.19815533 0.08821251 -0.14481267 -0.23230582 -0.17863765 -0.04432713 0.013000078 0.06834441 0.36223197 0.110711314 -0.15818834 -0.20313662 0.31391767 0.010264163 -0.058923025 0.028303917 -0.051330093 0.044622663 -0.18356337 -0.09429991 -0.24737377 -0.07080551 -0.22458556 0.09998285 -0.25693166 -0.08753001 -0.2747243 -0.19219966 0.21554807 -0.3190647 -0.14600311 0.3912372 -0.31429014 -0.3331511 0.562806 -0.0045901253 -0.29160038 0.11509543 -0.101319835 0.13586138 0.01038478 0.008300917 0.38903743 0.2568654 -0.3553937 -0.25518644 0.049629267 0.056222238 -0.042102043 -0.35487175 -0.08659792 0.07502206 -0.16473117 -0.066816114 -0.31209433 -0.08703387 -0.08135874
1131 -0.15161605 0.5580106 0.00011928939 0.53377724 -0.2626599 0.13010846 0.102927625 -0.27164268 -0.0104500735 0.26834485 -0.14852187 -0.6311792 -0.08490973 -0.04328987 0.18593572 0.21573459 -0.47769803 0.26553196 0.20570229 -0.55371296 -0.17505668 -0.29869252 0.019367179 0.24297439 0.19970542 0.36353204 -0.21210195 0.93127775 0.16890444 -0.15426992 0.15935874 0.07965738 -0.14357989 -0.08176904 0.0053551793 -0.4500588 0.26496238 -0.063197754 0.23311791 0.44236392 0.16029006 0.35449925 0.2715078 -0.05664185 -0.053764865 0.26464373 -0.54715705 -0.35845423 0.38565165 0.1939189 0.47615293 -0.08639504 -0.38628992 -0.0743808 -0.52838194 -0.0640071 -0.1776559 -0.15202549 -0.3104817 -0.074292265 -0.25086698 -0.3572843 -0.27141288 0.16283035 -0.23607625 -0.6253874 0.08476193 -0.19274893 -0.32398468 0.14973637 0.2016639 -0.02093579 -0.19763933 -0.4132615 0.26288828 -0.13229182 -0.019085124 -0.17464224 0.2187817 0.044297613 0.2045651 0.22575217 0.15171185 0.40138623 0.11931013 0.25925195 0.09421152 -0.16954929 0.051764663 -0.06781284 -0.031852018 0.26213068 0.2156754 0.12578963 0.38990694 0.30346757 -0.25558206 -0.023561167 0.2515442 0.2259892 -0.37993392 0.22892126 0.05169963 -0.30012542 -0.061808378 0.077178404 0.47052988 -0.19551891 0.4647742 0.41696748 0.5726168 0.11363794 0.07355931 -0.23726092 0.318082 0.3458979 0.10857871 0.18414393 0.38927972 -0.0997415 0.32967353 0.4381991 0.16265415 -0.27626556 0.28348708 -0.05648988 0.30100423 -0.39314094
18 -0.5346917 0.21039914 -0.14378442 0.15095277 0.09027096 -0.50232315 0.5808708 -0.1413079 -0.15930575 0.12348558 0.2760079 0.28000942 -0.15615538 -0.08942125 -0.009155565 0.113924 -0.02275261 0.22121088 0.024849026 -0.050347265 0.1778815 -0.30278626 -0.02145688 0.4242947 0.277977 -0.13106672 -0.22721328 0.41686714 -0.061722428 0.14152597 -0.17927839 -0.11727483 0.39164448 0.08782807 -0.27954504 -0.068670854 0.29151356 0.15553305 0.20275675 0.07953924 0.3531857 0.30780375 0.07759287 0.03627978 -0.26223147 0.34631371 0.034312714 -0.17743576 0.3800615 -0.17143203 0.14631207 -0.08839774 0.007279314 -0.2242303 0.18663305 0.26702964 0.15926348 -0.56325525 0.24733247 0.0619072 0.30416974 -0.091279596 -0.2733976 0.12744056 -0.1976005 -0.29253733 0.16184367 -0.08621382 0.28638595 0.31709602 0.12789308 -0.23346655 0.065665565 -0.1537369 -0.18869485 -0.19811723 -0.08708145 0.023483086 0.064638704 0.2228361 0.041484736 -0.26243177 -0.21670935 0.38945588 0.102066286 -0.12142042 0.05669466 0.0138923 0.036460746 -0.20891103 0.012772958 -0.27312788 -0.15517367 -0.05333558 0.14468187 -0.2705584 -0.15765566 -0.3379878 -0.25236094 0.2991312 -0.3631017 -0.14310439 0.41298088 -0.2810332 -0.17501998 0.50056803 -0.14242396 -0.23171476 0.16499998 -0.16432625 0.1452059 0.09522032 0.024524326 0.4453118 0.18799077 -0.43261775 -0.2934647 0.0868912 -0.033278637 -0.124038436 -0.34167603 -0.10236777 0.11986126 -0.24090405 -0.045856725 -0.37128884 -0.10405819 -0.15671177
131 -0.1099342 -0.10080026 0.3497955 0.0040444755 0.14685671 0.006044158 -0.17597224 0.26292586 0.26673323 -0.09960355 0.056741893 0.024371056 -0.4195517 -0.04367673 0.25724456 0.2401164 -0.03637933 0.3371986 0.6215888 -0.5001999 0.22727019 -0.07500139 0.05800149 0.058947533 0.083035015 -0.09509391 -0.3235749 0.57598346 -0.10943989 -0.057892714 -0.45797932 -0.14271814 -0.26975855 0.059140537 0.21607289 0.08618892 -0.00055624766 -0.6422042 -0.048474114 0.0575798 0.53279907 0.14673853 0.03242366 -0.19532706 -0.3921348 0.10721725 0.45996135 -0.31265333 0.04383812 0.012295716 0.7064326 0.10424751 -0.45893684 -0.09719995 0.5595482 -0.31353503 -0.01842869 -0.14141619 -0.26094696 0.22274095 0.3475662 0.18805009 -0.25222656 -0.25078535 -0.11676953 -0.2840721 0.40166247 0.34865996 0.21794242 -0.086924285 -0.32517833 -0.31238264 -0.49541038 -0.20364411 0.2703664 -0.22332704 -0.37007308 -0.18162006 -0.049281925 -0.029141175 -0.07635539 0.009317826 0.37010738 0.25115407 0.08588901 -0.3285167 0.2652593 -0.19207302 -0.29858485 -0.18745117 -0.14279391 -0.8284539 -0.381455 0.033081777 -0.012509999 -0.3854653 -0.19900846 -0.311329 -0.00078887504 -0.12286974 0.14019734 -0.06485113 0.24963053 -0.049675073 0.11999441 -0.040654708 0.35904413 0.02673407 0.4717377 -0.058955077 0.031157343 -0.22652152 0.04297651 0.111979686 -0.14906497 0.19390416 0.427415 0.24072908 0.15385251 0.038311392 0.2190716 0.29795408 -0.054213777 0.037255637 -0.319757 -0.08243926 -0.0042477753 0.11729356
95 -0.21004134 0.0016070479 0.46952444 -0.01852158 0.09647971 0.0022807172 -0.1524129 0.28769925 0.16966376 -0.050720524 0.0829263 0.17629845 -0.5291985 -0.053730324 0.25652838 0.14678976 -0.22908598 0.25284487 0.47381613 -0.4778305 0.21302624 -0.086951695 -0.028817728 0.038805567 -0.008222517 -0.1883498 -0.26469535 0.5422683 -0.041719396 -0.02458404 -0.46304426 -0.06486249 -0.27488735 -0.024921479 0.39698762 0.10347336 0.05100261 -0.6755611 -0.11465891 0.083360985 0.5927976 0.045905456 0.09476084 -0.16761468 -0.5222558 0.19376685 0.41799268 -0.34258133 0.11629841 0.014988757 0.7159461 0.040167216 -0.42525676 -0.1455609 0.49005884 -0.10993901 -0.0999811 -0.13994436 -0.19353996 0.24060953 0.33621523 0.13483252 -0.1421892 -0.41834578 0.03957823 -0.29472184 0.5105768 0.36073583 0.3119388 0.00013471486 -0.2811275 -0.17721806 -0.5982778 -0.28470007 0.26825306 -0.40269083 -0.25719553 -0.23413624 0.023094494 -0.03713164 0.03739076 0.07604767 0.4481289 0.3368166 0.032462995 -0.32256812 0.13025904 -0.020303924 -0.13424453 -0.25815898 -0.16116136 -0.77965754 -0.22227968 -0.027251456 -0.012774836 -0.22892886 -0.19413573 -0.36603 0.06585113 -0.13778551 0.15951079 0.05274823 0.1861061 0.02057569 0.119784705 0.065049544 0.19550478 0.12381106 0.5175037 -0.23074955 -0.035583958 -0.18485941 -0.11443825 0.11415621 -0.08250048 0.17127192 0.40242982 0.4323792 0.15867074 0.0105641475 0.120409094 0.37228036 -0.13072419 0.05149703 -0.36104488 0.0010703251 0.024305383 0.085193574
317 -0.23783031 0.0117567545 0.5194901 -0.041438565 0.10537266 0.055345576 -0.19060656 0.25871456 0.20037514 -0.028994849 0.06772381 0.13868763 -0.52731293 -0.08369422 0.3018689 0.016565576 -0.16837288 0.22806951 0.5132903 -0.51544636 0.14542109 -0.08284365 0.018393561 0.09153513 -0.007701005 -0.22646074 -0.30693218 0.47761896 -0.052325834 -0.03728521 -0.41987988 -0.059273973 -0.24282883 -0.022496877 0.2763186 0.08453519 0.037152763 -0.6678083 -0.13982692 0.07960913 0.5812604 0.10949016 0.045473397 -0.24392879 -0.4943376 0.18424791 0.38215813 -0.32057923 0.13054995 -0.008114245 0.70810467 0.07629465 -0.44762298 -0.120185286 0.5259612 -0.19344364 -0.12852997 -0.12658884 -0.21426648 0.28055835 0.37332764 0.1750472 -0.16578639 -0.38679916 0.031326808 -0.29586428 0.4901791 0.4176021 0.2967861 0.019326884 -0.2359313 -0.2174842 -0.5925787 -0.3715015 0.28640985 -0.46400255 -0.28064463 -0.2564949 -0.042134527 -0.09009473 0.078621626 0.12967812 0.43751565 0.2362345 -0.03449429 -0.31078017 0.15572888 -0.04456894 -0.18228632 -0.18375537 -0.14378494 -0.7939492 -0.21612716 -0.14658022 0.0013063982 -0.24323384 -0.21434468 -0.3215911 0.048510235 -0.13810241 0.24879403 0.109876335 0.1287998 -0.019650871 0.09437352 0.12409117 0.24268138 0.030256739 0.4769912 -0.19590724 0.06864752 -0.19454707 -0.05979314 0.08362988 -0.053448036 0.15678366 0.33616248 0.32163033 0.15543687 0.007874009 0.07230024 0.3204715 -0.08709424 0.03634327 -0.38590986 0.019893259 0.09264499 0.14770627
54 -0.21013786 0.03974244 0.4095534 -0.017577423 0.07969403 0.05841642 -0.15627648 0.2770364 0.16989541 0.0030355875 0.041834354 0.09400975 -0.45262197 -0.02791481 0.22829175 0.035189193 -0.09781922 0.2822603 0.4989699 -0.52239054 0.23398097 -0.1479716 0.011511536 -0.0060676914 -0.0126771135 -0.13754746 -0.28401577 0.49500927 -0.105691575 -0.06769058 -0.3851479 -0.07154068 -0.23116069 -0.03022242 0.29547295 0.09579302 0.036770057 -0.6708636 -0.10033882 0.09236952 0.6158507 0.09037634 0.08877566 -0.098372065 -0.4304805 0.17580828 0.39434573 -0.29655823 0.14210999 -0.029931895 0.7093063 0.045971487 -0.4464004 -0.111689605 0.47209093 -0.21136884 -0.13877983 -0.131165 -0.14251867 0.23830563 0.3626688 0.09915062 -0.1543768 -0.39993188 0.0037493026 -0.27795032 0.54196316 0.32324904 0.29193968 -0.052182432 -0.32306126 -0.21615519 -0.5791163 -0.2918063 0.26261637 -0.41066018 -0.3113163 -0.21189404 -0.057430625 -0.0654014 -0.007518632 0.24037392 0.42228732 0.2292662 0.06459541 -0.3420542 0.09985506 -0.067506686 -0.09228256 -0.21573451 -0.17423831 -0.78778565 -0.265351 -0.023412349 -0.009572056 -0.27631956 -0.07045984 -0.29762542 0.09589906 -0.19830666 0.15815108 0.102594025 0.15996331 0.043833975 0.08926142 0.14011325 0.24835452 0.014794879 0.47378713 -0.20825455 0.030327907 -0.22642915 -0.048141368 0.07183298 -0.08268999 0.13950436 0.3223157 0.40364793 0.1955549 -0.03563844 0.17842275 0.3689265 -0.13600601 0.100667395 -0.42776594 -0.06060934 -0.012290306 0.18325146
1020 -0.13907945 0.5561935 0.036421567 0.54137325 -0.35089493 0.043583997 0.20754571 -0.23250356 0.044616405 0.2509056 -0.08588246 -0.6136689 -0.079820156 -0.08719784 0.20449255 0.19643246 -0.5065426 0.21596631 0.13525301 -0.60605985 -0.08283563 -0.22499408 -0.031141905 0.32111147 0.14592798 0.38125873 -0.18823652 0.95488834 0.15033911 -0.15842153 0.14675228 0.23435731 -0.08610748 -0.1432927 -0.12043439 -0.5335637 0.22678015 -0.008630229 0.19880208 0.37686983 0.08388073 0.32498524 0.3088567 -0.0920349 -0.0068732775 0.2393329 -0.5093566 -0.3286845 0.43358102 0.12570663 0.50026554 -0.060969245 -0.36430365 -0.1665295 -0.51986027 -0.10794451 -0.109620385 -0.13509919 -0.35973856 -0.06808779 -0.20619728 -0.3069881 -0.2899622 0.07701854 -0.23298275 -0.65093166 0.1418686 -0.15141557 -0.33207813 0.08658419 0.217363 -0.11687765 -0.2882755 -0.42112088 0.2691733 -0.079705074 -0.12561768 -0.17045482 0.23568164 0.025063237 0.2204532 0.17039044 0.17663565 0.265335 0.03398668 0.19261928 0.002750265 -0.06433938 0.20268944 0.0048584114 0.071598314 0.26544857 0.22263622 0.052820254 0.4179689 0.24239308 -0.3067761 0.0071541546 0.3375503 0.1917405 -0.34316912 0.36034703 0.03566078 -0.29928175 -0.030873986 0.080059476 0.41041243 -0.16527693 0.41206554 0.40496087 0.44272053 0.12826884 0.09131508 -0.24635793 0.24708739 0.2926527 0.2327414 0.12945054 0.32702455 -0.12271311 0.23354577 0.38917312 0.18144509 -0.35075712 0.24292848 -0.030720081 0.26079276 -0.44206345
77 -0.12364886 -0.047086522 0.50496525 -0.00028844355 0.09636956 -0.0341365 -0.14078979 0.22950776 0.24982536 0.039935462 0.05770017 0.16926588 -0.52781713 -0.08998281 0.28179058 0.11468015 -0.15622681 0.22167923 0.55426425 -0.47901452 0.22213963 -0.025490558 -0.052069534 0.10864291 -0.014944696 -0.17993945 -0.25054038 0.528772 -0.106776774 0.041802257 -0.36570242 -0.06336207 -0.28912246 -0.0015611949 0.28879666 0.12034889 0.016098218 -0.67819595 -0.06031171 0.08005337 0.5242739 0.13932401 0.104598485 -0.12522368 -0.50359184 0.23973545 0.45645696 -0.31687495 0.06726596 -0.015459619 0.72248733 0.091342285 -0.4440629 -0.12045222 0.5747672 -0.14318568 -0.10093423 -0.08495887 -0.2057519 0.32478032 0.32429245 0.1418626 -0.24641687 -0.3330192 -0.04508311 -0.35317189 0.5358221 0.39863583 0.30598214 -0.011243538 -0.22553584 -0.15837336 -0.54894453 -0.32907003 0.40246436 -0.45175326 -0.2687687 -0.25140807 0.004386175 -0.025751535 0.084530525 0.12754035 0.49244946 0.23935603 0.000292847 -0.3761022 0.11070899 -0.022232292 -0.12910627 -0.18581942 -0.20348689 -0.7711143 -0.20641515 -0.04348508 0.0028861624 -0.28004205 -0.16689506 -0.2945348 0.0842275 -0.10848572 0.24975169 0.10374303 0.11783707 0.017366873 0.060085762 0.06678561 0.1411377 0.052839767 0.45259544 -0.18654329 0.027338112 -0.19015424 -0.021711644 0.08796835 -0.15780866 0.10833591 0.34198508 0.39638358 0.22575067 0.031037187 0.017306745 0.36334133 -0.09840188 0.06322578 -0.3359436 -0.046112623 0.16559105 0.15763792
44 -0.49542585 0.0507663 -0.16359541 0.13240501 0.12391965 -0.57011217 0.477402 -0.21153429 -0.12584636 0.046542525 0.33229762 0.21569303 -0.111974604 -0.13057213 0.16446824 0.11136051 -0.10200986 0.21958724 -0.028619083 -0.11717894 0.10951292 -0.16302042 0.014377664 0.33413717 0.30260956 -0.18201473 -0.20997708 0.44674492 0.024212778 0.2944926 -0.2717074 -0.03754353 0.27741745 0.14776587 -0.15570146 0.04935361 0.30158663 0.21298489 0.20542268 0.011379912 0.43834424 0.46978438 0.16431504 0.015913218 -0.1699716 0.3492111 0.038000684 -0.044942144 0.4245951 -0.16848074 0.07382256 -0.116417035 0.047976725 -0.2500677 0.21503569 0.22247124 0.1406008 -0.52651733 0.17759046 0.05910344 0.2801995 -0.055972967 -0.4092648 0.063962266 -0.12303268 -0.26652852 0.16590202 -0.047188863 0.30052269 0.30121222 0.10786475 -0.20563345 0.10588613 -0.16982342 -0.23346129 -0.21126375 -0.15594594 0.04449982 0.061923306 0.20319115 0.08888747 -0.15923119 -0.27903435 0.34979254 0.0774173 -0.020763312 0.056031954 -0.072298236 0.039381318 -0.14791366 -0.06463301 -0.28213757 -0.18671192 -0.29264075 0.12877549 -0.24248146 -0.2749638 -0.28450182 -0.2536987 0.30275592 -0.3199693 -0.079134606 0.3139123 -0.3314786 -0.2845842 0.5671436 -0.13079941 -0.24817802 0.10826713 -0.22862983 0.1751242 0.15260749 0.023065008 0.397295 0.25163582 -0.3906409 -0.30608064 0.04695073 -0.024331782 -0.12661918 -0.3240526 -0.020723466 0.0761122 -0.12582785 -0.05391175 -0.25716802 -0.09193198 -0.17830707
37 -0.16272725 -0.015426397 0.31257245 -0.033394586 0.13532211 -0.046939805 -0.17486753 0.31950712 0.26150027 -0.11741923 -0.013559099 -0.028184231 -0.429949 -0.09260564 0.29841158 0.22299692 -0.03136626 0.24660374 0.66902757 -0.5255896 0.25727525 0.04610831 0.09381112 -0.017260944 0.095506676 -0.10406718 -0.28572023 0.48918965 -0.09825821 -0.057098404 -0.4794633 -0.10514026 -0.298576 -0.010995712 0.2724995 0.035480667 0.077814944 -0.5718049 -0.109051496 0.048701134 0.50808144 0.2793473 0.076987475 -0.24263436 -0.38426366 0.16926458 0.5546488 -0.29249296 0.008438121 -0.06609803 0.6839819 -0.00800847 -0.48531288 -0.20489287 0.48404866 -0.2949282 -0.048858237 -0.22744435 -0.33482447 0.18769865 0.32242382 0.12696534 -0.3015631 -0.3427893 -0.086128406 -0.23814863 0.42188722 0.3755953 0.27052096 -0.09378715 -0.2981179 -0.3452076 -0.51764166 -0.11991922 0.29529363 -0.1735016 -0.3623061 -0.197714 0.009220778 0.0070523554 0.02839843 -0.015007945 0.332267 0.32910448 0.061356496 -0.32239226 0.25063995 -0.1498682 -0.33089143 -0.19913836 -0.07314365 -0.7898969 -0.40729937 -0.0032022833 -0.06349148 -0.25128952 -0.23908292 -0.22905897 0.044667717 -0.10174629 0.12736075 -0.025650928 0.22519991 -0.022986349 0.1908348 -0.0016418638 0.4284097 0.05683913 0.46977505 -0.14965425 -0.007231561 -0.25744233 -0.007447564 0.114530556 -0.16597234 0.1804145 0.46633872 0.23111747 0.03306377 0.09862894 0.14609271 0.29950112 -0.15131137 0.077536836 -0.45768118 -0.12295949 -0.015770596 -0.006402401
389 -0.4423642 0.22667065 -0.2578562 0.1146447 0.084370695 -0.51615655 0.5972808 -0.1440023 -0.20780064 0.091671616 0.28415787 0.19254257 -0.15540504 -0.06539154 0.044362962 0.060793225 -0.056282535 0.2621608 0.032286733 -0.21764836 0.1637813 -0.20883644 -0.033664078 0.38213056 0.31504643 -0.1158655 -0.19673547 0.42153612 -0.043622542 0.26704597 -0.2135686 -0.01512298 0.23906618 0.13548586 -0.19951285 -0.045861255 0.3028268 0.15054092 0.27764896 0.04370695 0.41643065 0.4353619 0.1767657 -0.100952975 -0.24683696 0.29218543 0.00984851 -0.05321322 0.36359006 -0.058349647 0.11113029 0.04180245 -0.0025342344 -0.21345979 0.21416424 0.23691446 0.14944562 -0.56677127 0.27435967 0.14136544 0.23489082 -0.13403326 -0.26133803 0.10878312 -0.21529162 -0.22993086 0.18243018 -0.09699681 0.288104 0.3954234 0.19828117 -0.24214645 0.03139696 -0.1001473 -0.26129442 -0.17288382 -0.16035628 0.106522195 0.02928345 0.29468638 0.035820305 -0.17978817 -0.3105123 0.37460834 0.13461295 -0.06619866 -0.010819465 -0.076527074 -0.036663745 -0.1464096 -0.11818477 -0.27038756 -0.22716708 -0.30412838 0.07184045 -0.17168744 -0.08031718 -0.31271845 -0.21674237 0.25288206 -0.3556513 -0.12743516 0.32350156 -0.34458798 -0.352376 0.46464324 -0.0423097 -0.24740797 0.04979061 -0.2157538 0.21784666 0.13994789 0.06341095 0.41695824 0.16769612 -0.40740094 -0.24263407 0.16581185 -0.0959121 -0.14792806 -0.3186611 -0.10264783 0.047017854 -0.18338217 -0.113314785 -0.3726186 -0.07567751 -0.10019939
47 -0.15166046 -0.102574274 0.348383 0.02896033 0.08087549 0.007108245 -0.07921368 0.28486446 0.23248504 -0.07751134 0.06497105 0.069604285 -0.42779478 -0.09433982 0.34334594 0.17017673 -0.023149878 0.35716918 0.7490819 -0.49446595 0.280376 0.040344324 0.047939524 -0.020280205 0.096689574 -0.052334905 -0.34730494 0.5296405 -0.09387911 -0.09688547 -0.40033457 -0.09845513 -0.26770642 -0.0043618153 0.3198621 0.1248228 0.09179393 -0.5474736 -0.071073644 0.040838864 0.4927702 0.28508615 -0.006143242 -0.027617155 -0.466782 0.26901114 0.5214082 -0.33175522 0.041569397 -0.04411117 0.6263574 -0.016077746 -0.36530146 -0.16958931 0.5828204 -0.35064515 -0.06335317 -0.208801 -0.38832477 0.12145658 0.21910761 0.21752395 -0.32329133 -0.3037416 -0.13992135 -0.30966467 0.37882 0.4234107 0.23028244 -0.079795875 -0.26518437 -0.3644424 -0.5133597 -0.1971548 0.27784377 -0.18169746 -0.38087818 -0.16922273 -0.11837103 0.005337167 0.040708575 -0.0019203173 0.33641478 0.28580147 0.08774377 -0.29469013 0.2969063 -0.13763575 -0.31041524 -0.22980382 -0.16323781 -0.7548227 -0.34672445 0.029641893 -0.07616617 -0.3020527 -0.2796096 -0.23415741 0.0129849 -0.1390041 0.11936617 -0.108225755 0.24602287 -0.07286439 0.18212217 -0.027409622 0.39898443 0.060175896 0.44753268 -0.17016496 -0.019234283 -0.17620912 0.058915567 0.12967801 -0.19153151 0.17399535 0.44979057 0.2791253 0.15090305 -0.02343206 0.17231324 0.25494543 -0.05378 0.068114996 -0.40445015 -0.048147924 -0.009438746 0.092661336
1403 -0.18224622 0.54525894 0.21968701 0.57561284 -0.26744878 0.11524441 0.20877877 -0.33192053 -0.0968353 0.26526213 -0.10352903 -0.6607736 -0.0654633 -0.02417751 0.19804429 0.19959559 -0.5150817 0.19557105 0.20704725 -0.6480192 -0.099199615 -0.15263298 0.1788521 0.35133505 0.15707342 0.2914258 -0.3124755 1.0002309 0.23728499 -0.24199665 0.11694464 0.16421436 -0.08949103 -0.13954614 -0.075081855 -0.4122848 0.18526487 -0.10593139 0.24802926 0.37105468 0.05995583 0.4017359 0.2864456 -0.07544693 -0.11314435 0.26603833 -0.41984347 -0.25782248 0.46791533 0.15853676 0.55174583 -0.039381247 -0.29395345 -0.2029975 -0.5472743 -0.0696822 -0.13027065 -0.11748674 -0.26946688 0.04920061 -0.3459809 -0.33173218 -0.34078023 0.09860189 -0.26184252 -0.6719636 0.049659044 -0.1386267 -0.35707274 0.047365014 0.28164035 -0.017210701 -0.30370867 -0.3941798 0.2287452 -0.14071277 0.004617807 -0.119828075 0.3017042 -0.014604201 0.23529595 0.20158054 0.16580564 0.34962094 0.03297955 0.212689 -0.0040810774 -0.044840075 0.022421952 0.041168958 0.033444773 0.3406982 0.30757844 0.025911046 0.39857614 0.3827598 -0.25786823 0.018144567 0.26856717 0.22473039 -0.44402614 0.20734741 0.014599228 -0.3361259 -0.042464834 0.02329012 0.41602832 -0.08920544 0.38804474 0.31509894 0.5340745 0.28822008 0.156091 -0.18325405 0.28637826 0.3356343 0.2323398 0.12476861 0.37135035 -0.100203015 0.26541653 0.4817373 0.21966454 -0.21999627 0.26197568 0.012818274 0.3265754 -0.3806294
7 -0.43030584 0.16370794 -0.18774353 0.061426338 0.085904434 -0.46043888 0.6056968 -0.09941404 -0.19966173 0.11046303 0.2207917 0.10017701 -0.23104258 -0.10641358 0.06831849 0.119169995 -0.08989583 0.20364064 0.0061937124 -0.05324059 0.20218003 -0.22695053 -0.063198 0.3717608 0.31963274 -0.16054106 -0.16119142 0.39562848 0.011744494 0.20726116 -0.23866531 -0.06661394 0.25426808 0.07183725 -0.2501597 0.013689162 0.32588 0.21553697 0.23073067 0.036637895 0.3791817 0.4740665 0.18016157 0.0331569 -0.17899376 0.41217524 0.09103211 -0.07518282 0.44034415 -0.19053347 0.117398426 -0.046255343 0.16343558 -0.23296389 0.31190273 0.24918729 0.17113982 -0.6001775 0.08072002 0.15513134 0.17760393 -0.09039436 -0.3432407 0.06805815 -0.23740919 -0.18001963 0.06387985 -0.08955029 0.33610985 0.30361423 0.113484055 -0.17491761 0.12631752 -0.13503666 -0.22018853 -0.033790514 -0.11279932 0.0957355 0.039092284 0.23162141 0.11383519 -0.08331543 -0.27515855 0.27685845 0.19576392 -0.1005397 0.026765395 -0.17888428 0.16589528 -0.18679309 -0.09639595 -0.3080475 -0.14393088 -0.3605801 0.0736871 -0.22408982 -0.14731292 -0.23098104 -0.2521533 0.28945634 -0.3456059 -0.14671697 0.27577376 -0.4041578 -0.31045306 0.5340684 -0.0592525 -0.26717833 0.12307799 -0.16496983 0.17502373 0.0015835996 0.04109841 0.3980478 0.21196885 -0.4529204 -0.27824545 0.23150726 0.09813134 -0.04257232 -0.35374567 0.015683731 0.09319731 -0.15281066 -0.077837005 -0.3378841 -0.028927803 -0.103334054
3 -0.48933163 0.16611852 -0.14116286 0.12697877 0.1463452 -0.56414336 0.5154631 -0.15656124 -0.16798659 -0.004983084 0.26697612 0.20212755 -0.117786095 -0.09721856 0.13874152 0.06124458 0.013916836 0.23851356 0.014350837 -0.188891 0.10648926 -0.29134798 0.0028080395 0.34944946 0.2664759 -0.10125962 -0.3021479 0.40430567 0.09110375 0.208136 -0.22053063 -0.04260165 0.36212915 0.08571327 -0.28829625 -0.010623699 0.28427377 0.19504869 0.17518346 0.003416786 0.2997644 0.4334667 0.09112208 0.04809225 -0.35131478 0.35344228 -0.018334165 -0.15940705 0.38493022 -0.17274997 0.18272217 -0.0327392 0.08211397 -0.14600395 0.19720326 0.21550831 0.1319573 -0.5131106 0.1715576 0.06432807 0.3245278 -0.10387317 -0.32412577 0.048752237 -0.1502417 -0.2873799 0.21814711 -0.010285779 0.23077533 0.35576114 0.13147205 -0.26644844 0.08755452 -0.12938528 -0.22714044 -0.2875844 0.040065896 0.03032172 0.06428288 0.34924722 0.06686901 -0.2374168 -0.30762652 0.35597876 0.110748686 -0.03068681 0.017284244 0.018123368 0.056436762 -0.24335907 -0.07507184 -0.25259537 -0.15252292 -0.14065927 0.13247477 -0.21054871 -0.14058255 -0.3237264 -0.26422936 0.2919932 -0.3400683 -0.055414397 0.2588945 -0.30838674 -0.31834245 0.5181742 0.030567963 -0.34315184 0.099469684 -0.13375317 0.09794049 -0.012091082 0.012269124 0.34829625 0.2217625 -0.42855692 -0.27063373 0.0136097865 0.010121735 -0.19480981 -0.34678644 -0.08966744 0.07957165 -0.15451488 -0.045281023 -0.4319996 -0.12067781 -0.032664087
181 0.20544073 -0.18466827 0.4102536 -0.010152065 -0.0974829 -0.05553321 0.20486036 0.37478676 0.13500918 0.31747055 0.45960084 -0.02394277 -0.33887583 0.11398842 -0.4853907 0.28195414 -0.07611225 -0.08072597 -0.1735669 0.120564364 0.29350808 0.23638296 0.53106487 -0.24591407 0.0164592 0.3061356 -0.16094013 0.31671172 0.26121035 0.07863629 -0.41887227 -0.24753173 0.087962106 0.27940914 0.081100084 0.15684988 -0.11124096 -0.2581141 0.6577622 0.29452935 0.2851453 0.34796986 -0.0155530665 -0.065022066 0.0399384 -0.2897292 -0.40717465 0.012255509 0.013847216 0.16928786 0.33986023 -0.13909705 -0.34589213 0.5037336 0.1516662 0.11618012 -0.35793793 -0.61677676 -0.21668504 0.5173698 -0.029277261 0.0025564972 0.10438635 0.13601841 -0.33513492 -0.29165286 -0.17695305 0.37501553 0.12110615 -0.38820556 -0.21384208 -0.2728205 -0.16977344 -0.04851825 0.15722209 -0.14052354 0.16893387 -0.4364429 -0.1942992 0.25449035 -0.37499395 -0.28917104 0.40360227 0.19091752 -0.00081091316 0.3813303 -0.06320588 -0.37956586 0.25387874 0.9193482 0.13662693 -0.108427644 -0.01459842 -0.12541433 0.28410426 0.047552213 -0.4500856 -0.4275461 0.3718473 -0.094149575 -0.3542505 0.23630945 0.19346878 0.35874745 0.07499407 -0.09049199 -0.36025563 -0.39390728 -0.3773036 -0.24727651 0.5366851 -0.41172534 0.015229702 -0.23864585 -0.1558029 -0.040148005 -0.15441497 0.49081647 0.14131823 -0.2824662 -0.29888114 0.11551066 -0.044231124 -0.13354923 -0.21838264 -0.22298145 -0.16524436 -0.107428014
64 0.049098693 0.6626573 0.0749974 0.68506825 0.09916499 -0.42820412 -0.08426746 0.12181366 -0.20386122 0.13719381 -0.007462433 0.07584854 0.10575465 -0.15818606 0.11107418 -0.26983568 -0.08357246 0.0020103606 0.22499827 0.041137666 0.27001056 0.5659057 0.24616374 -0.09335329 -0.024382636 0.34114453 0.50112474 0.27365145 -0.08430052 -0.22937463 -0.3948915 -0.081939876 -0.23484163 0.43984023 -0.25471932 0.07970585 0.12259405 -0.25740835 0.080226816 0.21848394 0.21631065 0.02070634 -0.086422965 0.15020671 -0.22180514 0.62824804 0.20964147 0.111762024 0.32573137 0.205173 -0.090597756 0.18012726 -0.7104495 0.011528512 -0.11554741 -0.16055495 0.61090416 -0.1809431 -0.20651649 -0.29481047 0.44318926 -0.08019135 -0.18972452 0.20063905 0.6627144 -0.5759687 0.39932197 0.4144873 0.019032843 -0.4394433 -0.6317254 0.42211884 -0.7447039 -0.26499566 -0.3959076 0.23965967 0.14670865 -0.03771951 0.16052201 0.52290833 0.26372212 -0.26092383 0.02834464 0.60415226 -0.2183564 0.06685016 0.09386341 -0.3786095 0.20310393 0.22083476 -0.02570036 -0.37886238 0.25597867 -0.51150155 0.32381976 0.19141874 -0.23290928 -0.26006642 -0.21923093 0.06505911 -0.7198864 -0.33391967 -0.06289896 0.07366993 -0.07951075 -0.028877765 0.09071086 0.16124202 0.22382835 0.20092836 0.053186815 -0.28551564 0.3161228 0.25446522 0.01394107 0.032402847 -0.1982824 0.098907396 0.27736947 -0.102350704 -0.4189276 0.0933749 0.021961635 0.14147374 -0.45680824 -0.5247567 -0.015094192 0.4992858
1322 -0.22217566 0.5823543 0.10166541 0.48259777 -0.28118414 0.052037712 0.2345753 -0.3591609 -0.102418154 0.21748409 -0.04753664 -0.5967833 -0.0692282 -0.07713148 0.11370194 0.18711111 -0.55326253 0.16508564 0.19968325 -0.56333935 -0.1964061 -0.1314257 0.12194438 0.36704272 0.14736019 0.3073885 -0.30199608 0.9679673 0.11977206 -0.22799768 0.11613054 0.15944232 -0.0117536625 -0.09679121 -0.084811114 -0.49325445 0.19894774 -0.07308985 0.1591696 0.38248459 0.060987286 0.3397349 0.24262162 -0.13623416 -0.121059634 0.17181566 -0.48813665 -0.25225273 0.38291106 0.21553437 0.484796 -0.0007111965 -0.39015034 -0.14632256 -0.523582 -0.06791205 -0.122304164 -0.21061727 -0.4555432 0.028368605 -0.27762678 -0.30068734 -0.33918095 0.020534994 -0.30548838 -0.64167976 0.03235357 -0.12856048 -0.4237222 0.13309923 0.20738693 -0.08053241 -0.26279026 -0.29008344 0.24003771 -0.13086918 0.022465512 -0.13410299 0.26755023 -0.0036474916 0.20056014 0.26055363 0.23512848 0.38288626 0.03436777 0.22863044 -0.034832794 -0.102153294 0.1508924 0.02253591 0.050703052 0.18508936 0.2347688 0.0077174376 0.4269809 0.46545982 -0.17622283 -0.014795598 0.36147714 0.21798174 -0.31538013 0.14791739 0.07041948 -0.29778543 0.024685115 0.09005493 0.50501823 -0.078095205 0.3873873 0.31067947 0.46957517 0.17605668 0.15699619 -0.1364321 0.30179185 0.30715066 0.2536228 0.041557856 0.4303895 -0.037725057 0.22734557 0.47933605 0.2989215 -0.24506776 0.35286567 -0.15507747 0.3881875 -0.35657758
10 -0.47995713 0.1734764 0.02246685 0.23077336 0.075860396 -0.55872 0.5040058 -0.06718939 -0.15421389 0.015671471 0.31081584 0.3346271 -0.20716685 -0.042667978 0.044918723 0.050702218 -0.026441203 0.17943633 -0.15121885 -0.07025425 0.1568054 -0.21280542 -0.027358856 0.26028433 0.2631344 -0.2464257 -0.19419834 0.4847447 0.042460375 0.1981394 -0.22270955 -0.12161928 0.26680633 0.19162104 -0.24346918 -0.0019544724 0.18971398 0.14930329 0.22782841 0.09023347 0.31026497 0.39484957 0.07047278 -0.036433727 -0.20344509 0.43291676 0.07037923 -0.15199535 0.349945 -0.25447044 0.13911006 -0.09235332 0.0045804274 -0.2846987 0.23596764 0.15118721 0.109222144 -0.4025187 0.19356775 0.10065702 0.37127632 -0.07272575 -0.31256458 0.14410588 -0.22932048 -0.23277916 0.17383203 -0.19237316 0.25286815 0.25592688 0.19591129 -0.16093688 0.114964016 -0.21640147 -0.15977202 -0.2656017 -0.10039334 0.052197155 -0.0061756712 0.17407525 0.0069544846 -0.22705196 -0.224016 0.32485777 0.14939511 -0.06824682 0.065947995 0.0052544177 -0.055767536 -0.18191962 -0.13282065 -0.29478428 -0.17215364 -0.11936858 0.13747472 -0.24832685 -0.16291094 -0.25056776 -0.18389301 0.37538844 -0.40419796 -0.24944966 0.19760042 -0.31955862 -0.37184244 0.41293442 -0.13097902 -0.3199173 -0.03668665 -0.1810288 0.33203608 0.10793651 0.05659554 0.38145787 0.20741124 -0.47046536 -0.40517947 0.10883164 -0.032083746 -0.057647333 -0.26285145 -0.025127163 0.0011494388 -0.29002708 -0.06167586 -0.26910105 -0.17535032 -0.1452349
17 -0.4555576 0.16939937 -0.12178559 0.11250518 0.05290883 -0.5671135 0.5705231 -0.22440244 -0.15205075 0.11568401 0.23954369 0.30991325 -0.12174673 -0.11087581 -0.012379204 0.027361697 -0.12347931 0.30497956 0.042534605 -0.2066895 0.15226993 -0.37436113 -0.022826726 0.31142265 0.2634789 -0.082214646 -0.18437505 0.43046802 -0.037847277 0.22095266 -0.18568154 -0.007847583 0.33630466 0.20299993 -0.3363958 -0.004895168 0.25747204 0.191231 0.19228145 -0.020351307 0.36531854 0.3923458 0.1367202 -0.0035742256 -0.03179106 0.40550765 -0.0068379208 -0.06682075 0.3326541 -0.107139096 0.29151198 -0.063858494 0.06737054 -0.30395955 0.1991518 0.26224807 0.10026249 -0.6466285 0.17782508 0.11933082 0.41966575 -0.17015243 -0.37421918 -0.051297914 -0.18810311 -0.23789728 0.13085493 -0.081646286 0.30725548 0.27207345 0.076089285 -0.3628854 0.109708354 -0.15963465 -0.2814664 -0.13305748 -0.15300967 0.031658594 0.037504755 0.13018927 0.084976 -0.10571846 -0.2806767 0.28197074 0.09551453 -0.044119544 0.012639053 -0.14706914 0.04942658 -0.24054417 -0.051277254 -0.33870873 -0.3217657 -0.15146196 0.12528405 -0.20936884 -0.06248284 -0.20813146 -0.15861514 0.17449151 -0.38841566 -0.11103021 0.2908305 -0.17448062 -0.31904683 0.5519994 -0.04279624 -0.23185883 0.04545191 -0.18212014 0.122026876 -0.025254479 0.048325155 0.46682963 0.1831431 -0.49287838 -0.34617308 0.05541148 0.00423321 0.02728961 -0.33704033 0.038205016 0.038594563 -0.17106555 -0.038584195 -0.326693 -0.11258229 -0.06956064
1079 -0.32248238 0.6839273 0.12798366 0.46716502 -0.26547685 0.041422974 0.24058218 -0.29706353 -0.054346927 0.19997911 -0.20020097 -0.60484314 -0.15301636 -0.039888915 0.19361216 0.12763315 -0.47292528 0.19390573 0.16559388 -0.62395537 -0.15741858 -0.18886742 -0.01412965 0.35051003 0.27654096 0.20477492 -0.30141377 0.92824745 0.030618003 -0.28556147 0.16367015 0.17923982 -0.1811577 -0.10762386 -0.10234085 -0.4393533 0.14350587 -0.07672232 0.25153258 0.41549048 0.12774917 0.29872328 0.1982907 -0.15289018 -0.018136954 0.1314752 -0.4354847 -0.30848172 0.41237086 0.16575009 0.5206506 -0.051426604 -0.2495587 -0.15943344 -0.53318673 -0.021690335 -0.12257871 -0.21563482 -0.4163704 0.014978952 -0.20325178 -0.44645315 -0.32857302 -0.024467606 -0.24658865 -0.6400996 0.003269194 -0.23796329 -0.40066317 0.105109595 0.17794983 -0.058091298 -0.30777577 -0.45484218 0.24953838 -0.17226647 0.03983092 -0.12997474 0.10645561 0.028450102 0.20437126 0.16692147 0.22367513 0.33793107 0.07070954 0.3328246 0.007402442 -0.13327391 0.23887716 -0.002196841 0.014768608 0.214806 0.27114958 0.053574737 0.4621056 0.24185191 -0.25350794 0.023810778 0.2672528 0.22611904 -0.35823998 0.26074246 0.0979476 -0.23198175 -0.07634094 0.06422932 0.42397404 -0.10647137 0.40354088 0.3923257 0.5060366 0.1836412 0.18230815 -0.30859873 0.28993514 0.3470342 0.25905955 -0.009787287 0.319257 -0.09802839 0.25072587 0.5268424 0.3098145 -0.19262165 0.2575142 0.023902897 0.27965996 -0.43562698
31 -0.54054135 0.2537197 -0.03065193 0.18889228 0.21019778 -0.49960622 0.5759923 -0.18113539 -0.1306947 0.06498396 0.29723763 0.3631591 -0.0055735298 -0.10880621 0.0539091 0.1379209 -0.08308061 0.15939124 0.074859455 -0.13516018 0.18915008 -0.32853523 0.010210301 0.36324465 0.36247736 -0.102562256 -0.21855582 0.3763655 -0.13754724 0.17686878 -0.1772912 0.026619919 0.41355264 0.13776757 -0.33263677 0.034551818 0.2089461 0.22876069 0.18944608 -0.03904271 0.28508168 0.3531563 0.0054665552 -0.028081883 -0.19392635 0.30183703 0.033175886 -0.08418459 0.38969514 -0.081127256 0.22447105 -0.13638273 0.10769434 -0.22774065 0.19612622 0.2812338 0.13894744 -0.60389477 0.22582574 0.106560275 0.38855708 -0.05208771 -0.34038806 -0.042294256 -0.15354665 -0.35363787 0.037333503 -0.1744774 0.2784734 0.26413336 0.06487408 -0.31622002 0.08975088 -0.25220665 -0.21633272 -0.2504131 0.0046903654 -0.013985337 -0.063411325 0.23996137 0.1315152 -0.1552178 -0.26243547 0.36639622 0.06768528 0.0968998 0.04973075 -0.083372705 0.009971523 -0.30867395 -0.006759715 -0.26974666 -0.32122394 -0.056118406 0.12458674 -0.24445936 -0.20042636 -0.22972201 -0.16067094 0.29685405 -0.29902717 -0.0982989 0.40014553 -0.30902514 -0.31514558 0.50960684 -0.055526696 -0.23530404 0.14620243 -0.11481135 0.16032434 0.036736913 0.060539793 0.37680802 0.1142958 -0.31990474 -0.2476339 -0.025132552 0.041886993 -0.06661668 -0.40677133 -0.06386113 0.025261339 -0.09205784 -0.091959454 -0.38000882 -0.100254424 -0.14409149
75 -0.48667416 0.10431702 -0.05674778 0.19049914 0.13062708 -0.5065528 0.54731035 -0.16151135 -0.17784251 0.1618404 0.3412423 0.22129881 -0.14959349 -0.105568856 0.07026093 -0.022460464 -0.090796396 0.25153637 0.032524377 -0.064131096 0.24028467 -0.3101509 0.03746285 0.37619808 0.2967294 -0.1869576 -0.24790117 0.48081288 -0.09542599 0.10344672 -0.19980818 -0.07927178 0.23669575 0.13452655 -0.28443488 0.087725475 0.18349008 0.2605357 0.19718967 -0.06932938 0.39798516 0.44918528 0.09224142 -0.058815084 -0.07008716 0.42861798 0.08526042 -0.087697886 0.27061555 -0.11411014 0.18436922 -0.1403499 0.05374172 -0.26297012 0.21879895 0.21287142 0.09754323 -0.5544602 0.13810024 0.12686425 0.35659388 -0.09998084 -0.33405998 0.11718602 -0.22662364 -0.25904772 0.02726494 -0.20006861 0.29685968 0.30277792 0.075772956 -0.2793739 0.1526515 -0.23578778 -0.22721365 -0.119798385 -0.15855815 0.043852832 -0.057351112 0.05778251 0.011702861 -0.26169935 -0.29689723 0.36420208 0.11223081 -0.12378162 -0.031275086 -0.07053161 -0.068384506 -0.101215385 -0.13171479 -0.29375297 -0.17006588 -0.15415475 0.13550736 -0.22394687 -0.1798261 -0.21265934 -0.19421755 0.33480316 -0.3570336 -0.23545823 0.20643668 -0.35062513 -0.35006863 0.42119747 -0.14303595 -0.17329113 0.013535727 -0.098565936 0.30995962 0.0006536954 0.1461645 0.47447997 0.062906355 -0.43911207 -0.3268226 0.04418854 0.040196065 -0.049004413 -0.3273755 -0.05346861 0.16634461 -0.27837583 -0.077644624 -0.279004 -0.082061075 -0.13782051
