28 128
26 -0.055127393 0.020217862 0.01599636 0.037896268 -0.020794835 -0.121030696 0.11298791 0.051177274 -0.027365435 0.013868252 0.1805286 0.06511244 -0.053657934 -0.027649516 0.009226522 0.071801946 -0.0076397774 0.06490559 0.014292307 0.0024625575 0.17460291 0.16365002 0.15281236 -0.02963984 -0.02561259 0.089018814 0.023965372 0.13919944 0.05933042 -0.07669862 -0.16858827 -0.09505482 -0.0023689247 0.016221477 -0.19180506 0.063235275 0.20718509 0.019887775 0.22465922 -0.16029759 -0.040917248 0.12109464 0.034063615 -0.19475861 0.012425704 0.1011347 -0.012945802 -0.056581724 0.009013919 -0.022837905 0.09403514 -0.07470638 0.011026878 0.13967024 0.1425701 -0.07068773 0.100647084 -0.15412642 -0.08922622 -0.1188866 0.060415037 -0.11016369 -0.035043422 -0.1375145 0.04068502 0.029668024 0.057183184 0.1771409 -0.04007398 0.02678943 0.10416531 0.06325751 -0.060400464 0.037621066 -0.07154861 0.08286229 -0.0121802995 -0.009677516 0.028824635 0.131297 0.0025229605 -0.0267426 -0.08474715 0.1088652 -0.014275624 -0.054402575 0.16917327 -0.16556658 0.11421753 0.029212406 0.030142024 -0.08592559 -0.01260252 -0.076297596 0.19179769 -0.046686605 -0.13868137 -0.14680706 0.050702576 0.04298913 -0.17882808 0.11666197 0.14676079 0.001462457 -0.002226555 -0.032238193 0.09145731 -0.0040184925 -0.07602448 -0.09848202 0.0002689727 -0.051815156 -0.11364395 0.043044716 0.13797194 0.04755241 0.09455992 0.22480817 0.07930886 -0.10054164 -0.09088043 0.06405594 0.02399057 -0.06364627 -0.0035368907 -0.2061975 -0.06615056 -0.010121821
15 -0.058468755 0.023390433 0.040802106 0.018773075 -0.013416156 -0.1667338 0.090754695 0.02398398 -0.008765721 0.030649602 0.2032001 0.101230934 -0.04468638 -0.030087773 0.027142929 0.07827871 0.00085441314 0.08221056 0.04080783 0.024922507 0.1753371 0.15949258 0.13692492 -0.046585597 -0.026910601 0.10181092 0.022061655 0.14906721 0.060623184 -0.058411576 -0.13720131 -0.10835545 -0.0106642805 0.050049536 -0.19730946 0.048069246 0.17100485 -0.0001472312 0.22715138 -0.1369369 -0.04519371 0.11855861 0.049682032 -0.19243558 0.0023073086 0.10569927 0.00080370775 -0.06058707 0.0026428448 -0.028154157 0.106715016 -0.09090683 0.008893833 0.148008 0.11653 -0.06230359 0.07010716 -0.13904318 -0.092541315 -0.11209678 0.08691926 -0.10335121 -0.028376767 -0.12775487 0.08711862 -0.009645002 0.07233954 0.18260078 -0.0023591663 0.015152326 0.099380426 0.056681275 -0.070705585 0.020350952 -0.081920125 0.06405671 -0.050467025 -0.0006552499 0.017519949 0.17259881 -0.009945339 -0.053039465 -0.090084136 0.13057032 0.0043973993 -0.06253862 0.15391171 -0.1835641 0.110881366 0.019298423 0.0122327395 -0.10072343 -0.02784261 -0.06373686 0.18086423 -0.062279716 -0.11769618 -0.18104276 0.056743752 0.02121462 -0.1938358 0.1042006 0.16007935 -0.00181472 -0.052537058 -0.034439422 0.0975478 -0.021875208 -0.06034746 -0.08508435 -0.008684219 -0.050509173 -0.094075225 0.03755796 0.10646685 0.032340743 0.061301686 0.21349464 0.09204318 -0.121438265 -0.12643453 0.06837504 0.0063668503 -0.038077738 -0.034913808 -0.2094372 -0.06887286 -0.023925973
19 -0.033728383 -0.0015664333 0.06521211 -0.012500112 0.004339769 -0.17501351 0.05480512 0.032491896 -0.03157916 0.043539193 0.2056396 0.08025568 -0.062081832 -0.04850886 0.02316812 0.027243447 0.0014713277 0.08565251 0.015837401 0.07626142 0.16729794 0.096817344 0.09938828 -0.015034043 -0.04698871 0.09764605 -0.030083025 0.1237921 0.05262748 -0.056903202 -0.13395403 -0.08018502 -0.02748407 0.06769943 -0.1617777 0.033223353 0.20927796 0.030811237 0.2585211 -0.08658162 -0.017283525 0.14259778 0.044476934 -0.16244772 0.010387329 0.10760384 0.029964471 -0.069223054 -0.006133122 -0.041567225 0.10149197 -0.08551365 0.04933135 0.15236942 0.1455298 -0.013809319 0.08326592 -0.15802848 -0.07710236 -0.104087815 0.13669847 -0.13565686 -0.0054172482 -0.08201007 0.10088662 -0.02826921 0.09614222 0.16874255 0.0013704156 -0.021871284 0.09360487 0.019351048 -0.064973965 -0.005599601 -0.09260926 0.047337413 -0.046215422 -0.008712471 0.02907034 0.20038912 -0.03127932 -0.07336184 -0.075973906 0.12763649 -0.004332117 -0.031905364 0.16525036 -0.13369334 0.1423234 0.058936574 0.004544148 -0.09420971 -0.06027404 -0.051073167 0.16866489 -0.07532513 -0.16434503 -0.1868234 0.05483655 0.021821631 -0.21658061 0.095735736 0.15551184 -0.026321545 -0.053661235 -0.0014563445 0.08783777 -0.07851071 -0.053348377 -0.11209864 -0.005482337 -0.044032555 -0.06694399 -0.0148245925 0.11874236 0.014388011 0.040620334 0.21225028 0.08402725 -0.11625949 -0.14973018 0.05475962 -0.01180589 -0.020461876 -0.09430567 -0.19607814 -0.051811032 -0.011193765
23 -0.074393615 -0.0051971828 0.04962091 0.01894748 -0.04052125 -0.19005601 0.07883357 0.0103672715 -0.049381576 0.033871785 0.25561377 0.10502879 -0.088797905 -0.020769635 0.036721606 0.036755327 -0.013827421 0.115707465 0.049363088 0.020067407 0.1804165 0.164205 0.10988078 -0.026516283 -0.037778582 0.11645504 0.00028449463 0.15787697 0.04795045 -0.06265732 -0.17195718 -0.11299269 -0.0048750374 0.053296972 -0.16829386 0.04715586 0.19344033 0.0006383593 0.23445933 -0.12521762 -0.051618926 0.12577912 0.050661713 -0.15764815 0.008182647 0.090760484 -0.010034466 -0.073320985 0.024302348 -0.037030835 0.122669816 -0.11693946 0.0059732753 0.14424802 0.13612483 -0.06304218 0.036820065 -0.1877281 -0.07518834 -0.07342725 0.110549696 -0.1166758 -0.042641234 -0.1377513 0.04905484 0.0013195339 0.049086418 0.1954535 0.0034199022 0.0012025867 0.099923655 0.019004995 -0.079973556 -0.014030443 -0.0747313 0.06887266 -0.045052003 -0.019986058 0.029009415 0.14547835 -0.035722543 -0.053216033 -0.05941057 0.1317284 -0.022165773 -0.07754101 0.15307681 -0.16050628 0.119107515 0.029574659 0.022810346 -0.06675386 -0.046581402 -0.039444756 0.20986369 -0.045229796 -0.1437557 -0.19128734 0.0523065 0.022694008 -0.19920546 0.09765417 0.17045517 -0.011637098 -0.06773564 -0.01444628 0.11302398 -0.025154816 -0.07571371 -0.0977923 0.015598447 -0.05329325 -0.067531295 0.03628494 0.11375947 0.029745834 0.047233675 0.2026578 0.07307211 -0.124335445 -0.12541485 0.08229216 -0.006649604 -0.02855731 -0.047361396 -0.2081047 -0.054198056 -0.0085842
27 -0.040501133 -0.016339837 0.065089196 -0.010432887 -0.019453844 -0.17635854 0.047422346 0.019517591 -0.051711753 0.03877956 0.20561813 0.071269974 -0.10572799 -0.043668795 0.023663182 0.0017905363 -0.0036870046 0.10942097 0.043791965 0.05902493 0.16461521 0.097350255 0.11524078 0.008371193 -0.062657095 0.13173175 -0.019186113 0.13510832 0.072621375 -0.087830015 -0.16939893 -0.07504387 -0.04703516 0.0589907 -0.16465592 0.056231763 0.21266814 0.031908758 0.26462156 -0.10722183 -0.037332833 0.14970455 0.023768002 -0.1557058 0.042491525 0.08339785 0.014083624 -0.08711594 -0.015610004 -0.011688487 0.118140526 -0.11316767 0.05261027 0.15152328 0.11159818 -0.01729238 0.043925233 -0.16481178 -0.083582185 -0.074199714 0.13565956 -0.10569208 0.0057796435 -0.065737866 0.07588593 -0.021757713 0.07663117 0.16573235 0.028701538 -0.03408862 0.103457965 0.012225782 -0.07768647 -0.01644221 -0.09464399 0.063482076 -0.06591248 0.0021570881 0.032806832 0.20261717 -0.044488806 -0.07194477 -0.04933595 0.122315735 -0.01683273 -0.07420464 0.16360295 -0.15519617 0.14683507 0.038254958 0.013303175 -0.097076684 -0.04488061 -0.04756972 0.19127835 -0.056488387 -0.15658458 -0.20697238 0.06604975 0.015911574 -0.21320742 0.101757 0.1398459 -0.008145361 -0.05360488 -0.010445112 0.09661817 -0.0649513 -0.063726805 -0.09506802 -0.00451492 -0.06319904 -0.045027953 0.01842773 0.08198252 0.0017582794 0.053051684 0.19857202 0.105864145 -0.08057966 -0.12675613 0.055987366 -0.041248944 -0.00366054 -0.06461788 -0.22237526 -0.0742595 -0.024332892
28 0.00044887202 -0.02477195 0.09025186 -0.08269741 -0.15436514 0.0042995643 -0.16378446 -0.28469235 0.06802075 0.056384474 0.063097395 -0.023366118 0.12567505 -0.052012336 -0.12412339 0.00088944955 -0.10295415 0.0031686884 0.010146272 -0.256174 0.041438676 0.2282059 0.1571008 0.013493954 0.041970953 0.11033263 -0.033659447 -0.12900713 0.023484346 -0.118018344 -0.18848884 0.04317722 -0.07790324 0.03280257 0.00020919224 0.115507476 0.28722337 0.17726624 0.15164973 -0.08165691 0.018933354 -0.052522384 -0.027618911 -0.097616866 0.031126074 0.0729234 -0.041241813 -0.20086044 -0.04379702 0.066773936 0.051112182 0.074286506 -0.09243558 0.06490137 -0.041024297 0.015417177 0.0743868 -0.10061466 -0.13604599 -0.019707458 0.10257727 -0.08605762 0.110712506 -0.035690904 0.03494025 0.019088624 0.051601846 -0.04576239 0.054740254 -0.091023006 -0.011616434 0.038039193 -0.07471573 0.055568933 -0.08413483 0.029522333 0.011801701 0.1401938 0.0072334767 0.0736044 -0.049373478 0.10596418 0.030897684 0.04778527 -0.04998815 0.067595676 0.057223573 -0.11712282 -0.029944021 0.074009895 -0.123738244 0.04582689 -0.051868096 -0.05966862 0.13944684 -0.013383722 -0.16815387 -0.10913656 -0.05790462 0.055402502 -0.084384196 0.09838635 0.08847373 0.06285462 0.009133158 -0.095864065 0.009471738 -0.079071626 -0.050786715 -0.013368323 -0.062360637 -0.095815144 0.027482398 0.054044213 -0.10401013 0.08935903 -0.079786606 0.19967444 0.014041146 0.12608758 0.050521594 -0.024293091 -0.11015758 0.017337918 0.06019181 -0.18321522 -0.2951812 0.11841241
21 -0.08688886 0.031172344 -0.0037846053 0.060201034 0.0035410554 -0.14647491 0.098599575 0.06418826 -0.040419124 0.017518992 0.18311852 0.06281757 -0.07326878 -0.034244478 0.053119812 0.044031885 0.028178744 0.08449936 0.034703042 0.09021411 0.14438677 0.12115026 0.0851659 -0.03888783 -0.07814364 0.12665765 0.0015569382 0.13729367 0.06353975 -0.084058285 -0.18059325 -0.080047384 -0.080550976 0.05159681 -0.18455134 0.10077878 0.2244645 0.051123586 0.2664569 -0.14734283 -0.08067424 0.14575087 0.058422927 -0.17402612 0.057864152 0.123125546 -0.024386615 -0.07989936 -0.012241486 0.017447328 0.095548116 -0.094108135 0.07885321 0.17351627 0.13377303 -0.05225999 0.043370012 -0.1298218 -0.0927354 -0.11433031 0.07635607 -0.114300385 -0.007659673 -0.12291339 0.08796716 0.008608061 0.06632973 0.17823854 -0.004550891 -0.0055022435 0.10077448 0.028100505 -0.093465194 -0.0017962531 -0.06302589 0.07286248 -0.04847944 -0.02094293 0.018102562 0.19148365 -0.033116892 -0.07714749 -0.05745537 0.13570246 -0.0148469815 -0.121802464 0.19145979 -0.13578601 0.15758894 -0.008249506 0.038481813 -0.14483507 -0.04133113 -0.045106597 0.20126516 -0.028554099 -0.15800901 -0.18246682 0.061182875 0.006928996 -0.22892906 0.078989476 0.15807365 0.030420423 -0.018178908 -0.016036993 0.12378671 -0.055706907 -0.084076814 -0.09670549 -0.010563754 -0.047121998 -0.052627258 0.014844516 0.10319021 0.01850224 0.08157509 0.20759848 0.1104487 -0.09710983 -0.09659532 0.08487091 0.014234317 -0.030840337 -0.02082231 -0.21840104 -0.0012322376 -0.007552307
17 0.1048115 0.045259092 0.14154753 -0.03521648 -0.058846015 -0.069436416 -0.1099945 -0.10698077 0.07402667 0.06066968 -0.039249934 -0.05970444 0.05996287 -0.14377846 -0.049568776 -0.017438529 -0.026886292 0.009762282 -0.031410113 -0.035604224 0.113948554 0.14268306 0.22178681 0.055115428 -0.104800984 0.15334722 -0.04576979 -0.0021230597 0.11050622 -0.17996588 -0.2210661 0.080971554 -0.1262368 -0.00247238 -0.05909178 0.082301 0.17671205 0.16697596 0.15176073 0.0029144576 -0.024384594 -0.0037486167 -0.087339185 -0.05474713 0.107871294 0.12584147 0.053853024 -0.11608516 -0.15319067 0.16837649 -0.04925995 0.10449388 0.1224505 0.07141588 -0.09305589 0.105936736 0.05686712 0.08769927 -0.1094646 -0.0264519 0.052672293 0.010202508 0.17108981 0.10715799 0.16250263 -0.09337315 0.079897195 -0.10082888 0.072379544 -0.14553855 0.02710399 0.07197687 -0.049956635 0.048697915 -0.06559168 -0.033133324 -0.09291261 0.10110501 -0.001804209 0.19972542 0.022820117 -0.02051489 0.016452866 0.057993524 0.0045511387 0.08604621 0.07015385 -0.08913834 0.056460325 0.011869367 -0.113811776 -0.07123302 0.09290825 0.00072405103 -0.037176076 0.033319365 -0.0781161 -0.15781549 0.02772914 -0.06479497 -0.16592507 0.01946089 0.060384218 0.11418576 -0.04654742 -0.15393743 0.014244066 -0.08591722 -0.017230941 0.042982344 -0.15627378 -0.10832904 0.04053608 0.07013075 -0.20621422 -0.050074514 0.038573254 0.16997054 0.12709518 0.1783786 -0.014152343 -0.12476568 -0.08616196 0.034299914 0.0011802983 -0.17314912 -0.13943475 0.0065099965
25 0.06582631 0.056407765 0.09673244 0.013698742 -0.034647513 -0.0480808 -0.05296681 -0.08674786 0.08834972 0.039942127 -0.05403375 -0.049526416 0.06933015 -0.122920595 -0.026750484 0.015984524 6.645717e-05 -0.01817133 -0.023689428 -0.0350769 0.08705754 0.15312311 0.1987402 0.021791851 -0.099598266 0.14108177 -0.012570243 0.008269752 0.11119809 -0.18027209 -0.19264583 0.06301491 -0.14469309 -0.005479494 -0.088678256 0.11364025 0.15493593 0.13384095 0.1559591 -0.029244956 -0.048998732 -0.016495017 -0.057942335 -0.08125428 0.11031864 0.1327947 0.034861717 -0.111725904 -0.14238386 0.1832027 -0.038416184 0.107848406 0.11534738 0.06388749 -0.115769975 0.06632998 0.03815457 0.11263324 -0.111270055 -0.030893236 0.008269601 0.029604387 0.1478436 0.10053124 0.1610252 -0.08230842 0.07917326 -0.08144566 0.06445921 -0.09925477 0.042649914 0.100759104 -0.0638125 0.06719073 -0.028400403 -0.026155343 -0.0943551 0.08981781 -0.00020180995 0.1847917 0.049014248 -0.022063907 0.0099550765 0.07350632 0.009572354 0.05323443 0.052184142 -0.09467988 0.038704786 -0.040876187 -0.07800203 -0.09617586 0.112712026 -0.004284137 -0.028902372 0.043186035 -0.039220307 -0.1482523 0.014697474 -0.069753505 -0.120303325 0.0133324 0.052224774 0.14876693 -0.021733282 -0.16729175 0.038833972 -0.050441667 0.008850489 0.070172995 -0.15183133 -0.08377542 0.035488475 0.08434518 -0.19631799 -0.04396946 0.042834323 0.13809617 0.121491484 0.1461759 0.019919664 -0.08007253 -0.045026205 0.032579683 0.05586607 -0.1360336 -0.09227848 -0.0049650394
12 -0.045463197 0.017465351 0.027017435 0.019599222 -0.041322038 -0.10422231 0.073284164 -0.010624291 0.0034878815 0.011850452 0.16761938 0.048719257 -0.01684073 -0.016992833 0.009212558 0.080959335 -0.030604467 0.036262475 0.00793473 -0.031281896 0.15376127 0.18988338 0.13412835 -0.037851874 -0.035622984 0.11478115 0.01697554 0.08659352 0.06641661 -0.0848311 -0.19646089 -0.082959995 -0.04417242 0.031661753 -0.19023366 0.10887099 0.260702 0.07084877 0.25419614 -0.16719112 -0.05185337 0.07409193 0.058399357 -0.19944973 0.017022094 0.124277554 -0.018618941 -0.12640493 -0.0072896313 0.00014583168 0.10526284 -0.047916498 0.0043065725 0.13877866 0.089980386 -0.05855301 0.105318554 -0.120563455 -0.12344336 -0.122091204 0.053063147 -0.11410882 -0.010517333 -0.13184473 0.08141241 0.019121364 0.07646238 0.13985461 -0.027428523 -0.0037066317 0.11095743 0.08203676 -0.10015547 0.06828762 -0.06730492 0.07270961 -0.040655997 0.0024172873 0.035192505 0.14642166 0.01451457 -0.024395075 -0.07069422 0.12561645 -0.028405124 -0.046473548 0.13839564 -0.16397642 0.091173634 0.0062531005 0.0080854045 -0.065906696 0.0005868224 -0.065923564 0.19625016 -0.028838316 -0.14655605 -0.15192944 0.016984701 0.019198883 -0.15416268 0.11238561 0.15603083 0.040060107 -0.01065171 -0.0599344 0.11445216 -0.014286132 -0.071039535 -0.071712375 -0.010301597 -0.043648407 -0.0826572 0.051624622 0.10062878 0.060556907 0.0444085 0.22759278 0.08259943 -0.0760439 -0.053376384 0.06309605 0.007233718 -0.037343316 0.027617145 -0.20848724 -0.08840232 0.01659172
2 0.0940192 0.05795282 0.15225726 -0.021110414 -0.0075483 -0.1108524 -0.0536138 -0.013329897 0.06060091 0.049012713 -0.02181918 -0.07901528 0.049972694 -0.13938764 -0.008015521 -0.04766468 0.06800927 0.019841082 -0.0044695684 0.026712652 0.09963483 0.09456841 0.17694141 0.02838963 -0.120821275 0.1196571 -0.0499299 0.027748192 0.13770145 -0.17757417 -0.18964393 0.12493628 -0.17121108 0.011937323 -0.08090664 0.07867631 0.17086898 0.16927034 0.16472264 -0.032179445 -0.017714832 0.051841244 -0.056079574 -0.06310529 0.150625 0.12470853 0.039600983 -0.10646915 -0.12382731 0.21469225 -0.0677939 0.084694155 0.16348946 0.0840014 -0.016574308 0.07646233 0.022182124 0.11984485 -0.09996405 -0.04568587 0.070321366 0.011990777 0.15934604 0.09832861 0.20160466 -0.1272323 0.061941314 -0.08132161 0.09529807 -0.12358118 0.046537954 0.085027486 -0.06730846 0.0046838964 -0.04677327 -0.041529015 -0.07072491 0.08570452 -0.032242063 0.26141217 0.01067236 -0.059311245 0.006360942 0.08516757 0.059542395 0.055760127 0.12710811 -0.110978745 0.095491506 0.016205844 -0.11112028 -0.1609654 0.049151108 -0.0013957539 -0.013438183 0.058162894 -0.085797235 -0.1978536 0.030143794 -0.048911978 -0.19941136 0.017152153 0.063971326 0.12904118 -0.02351762 -0.14311431 0.008256023 -0.10330358 -0.0043384656 0.034301665 -0.16237521 -0.092321634 0.04959251 0.04963978 -0.21841972 -0.05701548 0.06415228 0.17466575 0.13736007 0.15181914 -0.027866792 -0.08745411 -0.061366968 0.0076507786 0.010780009 -0.13241406 -0.0710269 0.02139879
9 0.0701986 -0.06712862 0.23208219 -0.15492201 -0.21457282 -0.11850191 -0.18911737 -0.32544824 0.10303248 0.04405623 0.13522026 0.01908851 0.11381395 0.008852573 -0.09023009 -0.013705004 -0.16017556 0.03730959 0.041539244 -0.28118 0.10690472 0.23952273 0.11085253 -0.011785087 0.056639314 0.090936616 -0.05606028 -0.09770052 0.035609 -0.04669638 -0.14818549 0.009972774 -0.0044494476 0.05073741 0.029327467 0.052461054 0.23212855 0.13083144 0.105277 -0.02785644 0.042993054 -0.10844094 0.025555978 -0.038450096 -0.011330921 0.09384743 -0.0020802622 -0.2694232 0.015129091 0.01908892 0.061631408 0.07157115 -0.1839225 0.011690784 -0.08028317 0.033170957 0.021761332 -0.056954537 -0.12636341 0.017975923 0.14474337 -0.09052614 0.07285591 -0.034811642 0.111540906 -0.07906427 0.044082895 -0.07649898 0.13024817 -0.11595035 0.021944202 0.061882272 -0.14217603 0.06055435 -0.07576627 -0.0305585 -0.071825154 0.118112914 0.02774048 0.0716393 0.0047469647 0.08427328 0.05178941 0.10639779 -0.009459688 0.14864649 -0.056813166 -0.16912977 -0.099155925 0.07572084 -0.18504842 0.15656526 -0.026070515 0.018140886 0.10742488 0.020036086 -0.081908956 -0.1404769 -0.118745364 0.010257516 -0.030890336 0.11341121 0.15454747 0.07282903 -0.14559837 -0.1350642 0.050660633 -0.020943847 -0.013624415 0.041886684 -0.058862887 -0.06896392 0.026848065 0.09816752 -0.16092257 0.085717246 -0.16514231 0.13780555 -0.033708252 0.061129626 0.010167413 -0.023756545 -0.1463206 0.04442651 0.039624363 -0.09910004 -0.29583868 0.11166336
3 0.10965259 0.03414381 0.13169032 -0.027211756 -0.051105678 -0.098825775 -0.10863954 -0.09840208 0.07571458 0.067944214 -0.029494744 -0.055524528 0.05257716 -0.14175704 -0.019479947 -0.022363182 0.001815017 0.0105271395 -0.014836315 -0.030377539 0.107857585 0.14012018 0.20461416 0.056936443 -0.1026569 0.15739603 -0.041333243 -0.0012847218 0.13428661 -0.18763246 -0.22244883 0.0808056 -0.13113888 0.0121158445 -0.08780931 0.089246064 0.16889478 0.1465121 0.1672495 0.0022733156 -0.029882977 -0.02299582 -0.060623158 -0.056191925 0.10011384 0.12003434 0.037146375 -0.11869452 -0.14002016 0.18123296 -0.04951886 0.07790398 0.13752255 0.077937655 -0.11753763 0.095363066 0.015132275 0.09246529 -0.111815035 -0.0014989516 0.054801278 0.03481149 0.15913698 0.10935647 0.17832544 -0.11544396 0.0771722 -0.09349787 0.08264338 -0.14687584 0.041478716 0.07588538 -0.062213942 0.03857586 -0.05946212 -0.046090424 -0.13175899 0.09014822 -0.008695067 0.21700244 0.0130848065 -0.043548226 0.006668125 0.07385379 0.015650038 0.070756644 0.053463373 -0.08524256 0.058266636 -0.007496912 -0.10277715 -0.086771175 0.10272311 0.018045275 -0.035801303 0.044191945 -0.03932012 -0.16290563 0.021882454 -0.07465804 -0.13946466 0.002469281 0.0584204 0.12187631 -0.067118794 -0.17381817 0.040658277 -0.056982853 -0.00013912295 0.061952025 -0.15641204 -0.09412551 0.064492784 0.08538918 -0.22920592 -0.063848354 0.018063523 0.15653391 0.13251062 0.1524152 -0.027846636 -0.11902917 -0.0919255 0.0453296 0.012070884 -0.16220427 -0.10321386 0.0010624005
20 -0.005778727 0.0075039417 0.09595983 -0.014655913 0.0012397278 -0.1484655 0.11977272 0.12701489 -0.033119027 0.012946878 0.1893232 -0.013648773 -0.08700384 -0.017534835 -0.0012633778 -0.019667571 -0.009171707 0.07606154 -0.016189028 0.05700169 0.2022689 0.07655427 0.11784269 -0.014149035 -0.11945457 0.099309325 -0.03499658 0.1464762 0.11848259 -0.07013553 -0.2208407 -0.001332415 -0.083123736 0.01716279 -0.14572693 0.07028977 0.2214447 0.09940399 0.22643603 -0.14230667 -0.026478184 0.15692823 0.00010240331 -0.1372368 0.09025515 0.08271177 0.015681546 -0.105278365 -0.01279007 0.031156793 0.060845073 -0.05812683 0.05948858 0.089340895 0.17674828 -0.0251702 0.11381423 -0.07216144 -0.075440705 -0.121979415 0.06877444 -0.10389663 0.00016432218 -0.064454876 0.102898486 -0.024519501 0.049660925 0.10655934 0.0002757394 -0.03530447 0.11260482 0.08492218 -0.100650474 0.016005076 -0.047114294 0.026889307 0.030005084 -0.015004597 0.04102137 0.17132103 -0.0016077626 -0.07089759 -0.03341061 0.08812808 0.010521896 -0.03847097 0.19214977 -0.12995315 0.15524714 0.05500795 0.01652056 -0.107587844 -0.021206187 -0.051988687 0.15387641 -0.003694768 -0.18603915 -0.1971703 0.01998308 0.032820106 -0.18809135 0.11561688 0.092621006 0.019179702 0.021390062 -0.016644994 0.029885758 -0.08431988 -0.05413328 -0.052828506 -0.011832985 -0.04526367 -0.05354584 0.030116444 0.049737997 0.044362452 0.085136496 0.21715838 0.10657041 -0.013201401 -0.036851157 0.025169307 0.0026717868 -0.028414821 -0.0036212832 -0.12827665 -0.050440498 0.019831995
11 0.07878923 0.020259488 0.1444776 0.011570409 -0.23210046 -0.007822021 -0.112394676 -0.42838454 0.25588894 -0.01815642 -0.08398136 0.0560566 0.21252213 -0.0486485 -0.09811634 0.2553291 -0.21488611 -0.13747552 -0.053328514 -0.35255402 0.14079525 0.45122385 0.28496975 -0.07160638 0.043850828 0.14152682 0.06379754 -0.107487015 0.060324475 -0.18220717 -0.18934658 -0.13070117 -0.01015775 -0.026837807 -0.12036386 0.21790227 0.23439749 0.030695923 0.15763795 -0.053191002 -0.030262858 -0.26598546 0.08823786 -0.16749403 -0.09706355 0.25171527 0.04836347 -0.32015774 -0.10307606 -0.0059008487 0.109797634 0.1811904 -0.17506549 0.013153697 -0.31366804 -0.019692069 0.11450714 0.07689453 -0.20355886 -0.077408336 -0.041858878 -0.022980142 0.08314019 0.017495548 0.12916148 -0.055867128 0.15504213 -0.04617292 0.035581518 -0.032168273 0.111929275 0.20667323 -0.19307798 0.29574174 -0.01935986 0.0042017195 -0.23330125 0.06685483 0.09794251 0.008470798 0.25058636 0.11732063 0.037457675 0.14438343 -0.025706604 0.205166 -0.2395223 -0.1762909 -0.21092936 -0.13569897 -0.09370719 0.2137353 0.26050654 0.027405232 0.015804397 0.02910164 0.091767035 -0.04850921 -0.11512689 -0.112851 0.15569 0.13942958 0.16824628 0.20561108 -0.09965854 -0.3026159 0.18664178 0.15543494 0.0762496 0.12460175 -0.12498876 -0.030539414 -0.062637374 0.2067402 -0.08826272 0.05085608 -0.072002195 0.10885083 0.0072403 0.019060351 0.12566099 0.0058440566 -0.054616477 0.042352308 0.2150777 -0.12546825 -0.24190117 -0.0011711717
1 0.070617154 0.023856554 0.10444894 0.036819227 -0.23017676 -0.046532582 -0.09800817 -0.3890925 0.1806313 0.01187296 -0.038932115 0.024910294 0.14817797 -0.06633166 -0.022739278 0.20705023 -0.17301196 -0.14201175 -0.07351236 -0.23369974 0.13495822 0.4141108 0.19524373 -0.035180315 -0.034309298 0.17394538 -0.006201352 -0.11359882 0.08760113 -0.20009792 -0.27806428 -0.12085776 -0.08021863 -0.029419271 -0.12163033 0.25948668 0.3007269 0.06862774 0.22123303 -0.030110855 -0.026876362 -0.28241798 0.1485862 -0.11603422 -0.07440617 0.28835338 0.008712199 -0.34264874 -0.08231654 0.010540539 0.11437985 0.15177234 -0.050285492 0.0037113253 -0.3101007 0.013985487 0.06639554 0.10015848 -0.16334327 -0.0378188 -0.051317744 -0.040232107 0.070771664 0.046757054 0.14359373 -0.077971786 0.1530287 -0.051994935 0.005780275 -0.10716234 0.12797819 0.1381652 -0.2208119 0.25318953 0.0010353074 -0.037204016 -0.26154897 -0.031671666 0.13534896 0.050477695 0.22584315 0.038053732 0.040810097 0.1800816 -0.047040477 0.16349196 -0.21813467 -0.023005212 -0.10986164 -0.16565974 -0.03208881 0.1952146 0.26933318 0.10139371 0.0030047102 0.06719592 0.06602238 -0.017811341 -0.140157 -0.14488621 0.14877917 0.088019006 0.17787416 0.23444143 -0.097341985 -0.27496535 0.27151558 0.13131158 0.06487576 0.10039847 -0.07422615 0.010354368 0.020046702 0.14563593 -0.07133079 0.016886365 -0.084350936 0.081907116 0.007459622 -0.008513668 0.120557554 0.023365274 -0.05577068 0.07571639 0.16410235 -0.09317808 -0.094916895 -0.011744293
16 0.10174777 0.013358851 0.17689419 -0.055518642 -0.06778221 -0.12538016 -0.08603512 -0.106095925 0.081342764 0.039545093 0.011498804 -0.0490026 0.04186663 -0.07686132 0.0074847997 -0.028788315 -0.0073520727 0.009147676 0.008549802 -0.05493023 0.111080594 0.14063418 0.1379622 0.019228492 -0.10150366 0.12695485 -0.040448554 0.009273972 0.12101383 -0.15116765 -0.18968086 0.06268721 -0.12521566 0.022586009 -0.070807 0.09811104 0.17424524 0.14443725 0.15689045 -0.021746987 -0.025806563 -0.03677006 -0.016662374 -0.03996305 0.10444694 0.12569596 0.051083703 -0.18010408 -0.088260815 0.17264698 -0.030561598 0.08379932 0.07816049 0.040072978 -0.086434305 0.07309948 -0.0011570385 0.117737606 -0.10740153 -0.001464791 0.06808976 0.012999437 0.12915175 0.084280245 0.20822723 -0.13075428 0.06133747 -0.09260668 0.10666907 -0.13450406 0.07714235 0.09504286 -0.112465754 0.037650246 -0.027685605 -0.06217459 -0.12854077 0.062923856 0.008616472 0.20351306 0.05388726 -0.053292133 0.024174558 0.11275065 0.030618984 0.082403556 0.02159806 -0.12309585 0.024387712 -0.022357663 -0.11442758 -0.044313975 0.094337106 0.04078785 -0.0093289185 0.08409715 -0.041199464 -0.18986748 -0.035757378 -0.08219418 -0.10831571 0.026985487 0.08736918 0.15011941 -0.09831277 -0.17639446 0.0592413 -0.04648929 0.015035949 0.08604169 -0.15154608 -0.068825655 0.066409014 0.09839151 -0.24585697 -0.040211942 -0.02411126 0.13010211 0.096555345 0.122748345 -0.002462739 -0.07040277 -0.08928931 0.051483758 0.04513214 -0.0880338 -0.08667013 0.032854978
22 0.06503454 0.042360153 0.12659939 -0.021907382 -0.015119719 -0.14493752 -0.04485239 -0.034746498 0.0258467 0.07322597 0.05641361 -0.010410838 0.027935227 -0.11343103 0.034741774 -0.02934681 0.08571998 0.04439049 0.04904073 -0.017263636 0.08876215 0.14033176 0.16506653 0.031603906 -0.058107395 0.10680887 0.0013781489 0.080969185 0.097449794 -0.15244119 -0.13467418 0.057396587 -0.08381572 0.028538954 -0.12446466 0.022473287 0.1073163 0.09915616 0.13406701 -0.038071766 -0.03523098 0.02615704 -0.04700102 -0.07181921 0.09726871 0.06753946 0.027280277 -0.022978334 -0.07289944 0.19114605 -0.061727002 0.036079343 0.12231357 0.08710142 -0.025584288 0.037142202 -0.019503191 0.047417175 -0.08058218 0.013325663 0.089473404 0.029696947 0.098659985 0.031168256 0.17414597 -0.102394976 0.023817493 -0.031361066 0.0689614 -0.09116533 0.055908766 0.063688226 -0.01824339 -0.021782497 -0.04703516 -0.029795207 -0.09757782 0.078665555 -0.043474432 0.23428063 -0.02263836 -0.06834076 -0.06292866 0.09744967 0.024732605 0.033847027 0.122921154 -0.1595624 0.077176295 0.014954446 -0.10698062 -0.14212824 0.05363731 -0.00868325 -0.0012662613 0.048623823 -0.045876585 -0.2076724 0.03894343 -0.030776447 -0.2057817 -0.006056594 0.08093278 0.0902451 -0.09123778 -0.14241436 0.024238309 -0.049180776 -0.024553549 0.039302956 -0.14541192 -0.09684482 0.035209082 0.07618324 -0.2028611 -0.05909843 0.0316261 0.17643037 0.11489885 0.07700631 -0.1012151 -0.085682765 -0.06314349 0.0028008886 -0.014659409 -0.16057692 -0.07056754 0.012333539
4 -0.05040552 0.13130093 -0.1752841 0.11358689 -0.14101596 0.016639233 -0.13762033 -0.45560893 0.17786321 0.12707171 -0.07071347 0.23348157 0.3502751 -0.15049936 0.1460244 0.4410531 0.15568191 -0.19734244 0.10061643 -0.425373 -0.010712616 0.6861599 0.2890735 -0.09869557 0.20642312 0.07186962 0.23084356 -0.12874487 -0.059250537 -0.3452826 -0.11749068 -0.26477334 0.13722932 0.03072449 -0.39164343 0.26434615 0.18147694 -0.043902703 0.10116018 -0.17267762 -0.11284814 -0.4377528 0.15335251 -0.2958512 -0.21422875 0.21054576 -0.056581177 -0.05383562 -0.062947765 0.24540918 -3.7492093e-05 0.22151513 0.0049765487 0.14640328 -0.37878498 -0.14963005 0.0044922824 0.09732404 -0.21621896 0.054847304 -0.07566582 0.12185512 0.021547854 -0.27190465 0.20093656 0.03761009 0.09746639 0.05262627 -0.1732298 -0.033436008 0.17027928 0.17896311 0.040966906 0.23890673 -0.013019929 0.0253187 -0.42434144 -0.03131052 -0.026908444 0.10878105 0.20591207 0.014168941 -0.3195266 0.3236423 -0.110471174 0.1432225 -0.11701147 -0.30338258 -0.20129643 -0.29530227 -0.13074705 0.06453063 0.44186482 -0.0015198556 -0.03209808 0.16460499 0.22701001 -0.03888941 -0.050991144 -0.17378545 0.01578319 -0.055704087 0.29603776 0.22197907 -0.18970172 -0.50447744 0.32965147 0.36205715 -0.005068398 0.14066225 -0.28606096 -0.03212035 -0.04845289 0.2606624 -0.21937658 -0.05160178 -0.0850362 0.26354578 -0.0006070107 -0.08750644 -0.1083758 -0.06823298 0.014398767 -0.13321766 0.20754719 -0.26558894 -0.06801092 0.08434934
5 0.12222938 0.03232811 0.151348 -0.073621355 0.017915193 -0.08670078 -0.052236807 0.014992641 0.06625687 0.029045088 -0.00061692775 -0.07671399 0.052452914 -0.09875515 -0.022468867 -0.04510546 0.03258632 0.00802785 -0.0074624894 -0.018746438 0.12350945 0.07129035 0.20319402 0.02746056 -0.07330498 0.101763494 -0.022771105 0.039830957 0.12807542 -0.12593405 -0.14942227 0.11138428 -0.09616817 0.019081406 -0.09282407 0.013189002 0.14092626 0.17724928 0.12569001 -0.046546318 0.0032147833 0.044852592 -0.08888471 -0.07496899 0.12139938 0.0784134 0.06646739 -0.07635857 -0.09678756 0.18542561 -0.09233222 0.08043539 0.10478013 0.09046302 0.00869866 0.081088126 0.08379452 0.09391946 -0.11048719 -0.059310623 0.07722476 0.0007629523 0.14754266 0.0552412 0.19576748 -0.101855844 0.06708678 -0.08934465 0.0744847 -0.09641159 0.040816125 0.1002137 -0.025416542 0.018194076 -0.07131462 -0.028098175 -0.035726696 0.11330881 -0.047526363 0.23090312 0.011097306 -0.039751302 -0.04207415 0.06139789 0.053279404 0.0902139 0.12624913 -0.1650178 0.059539627 0.060616005 -0.14801994 -0.13897765 0.03786941 -0.04601978 -0.023272263 0.027762905 -0.094592124 -0.1879557 0.01995655 -0.016189942 -0.20483801 0.031758483 0.05585107 0.093491584 -0.02954535 -0.14131458 -0.042352468 -0.109732054 -0.014338462 0.031545606 -0.17188048 -0.1048148 -0.0025834097 0.0541942 -0.20507129 -0.017294016 0.03568203 0.19792274 0.13480766 0.1507131 -0.059442844 -0.12249334 -0.058348883 -0.0028816466 -0.0026134204 -0.13542666 -0.14657283 0.03749902
24 0.11360645 0.012098731 0.17844048 -0.048373315 -0.011375338 -0.12050973 -0.03374259 -0.013198668 0.046340253 0.02879782 0.02219465 -0.06345547 -0.006754022 -0.10074725 -0.016205356 -0.055262804 -0.008197842 0.035849445 -0.014496032 0.019581623 0.14960697 0.08264835 0.17668323 0.04096984 -0.12209675 0.12972784 -0.04887199 0.06670625 0.13503803 -0.1372298 -0.19064836 0.07930434 -0.114020735 0.011974221 -0.08332586 0.038381767 0.15498443 0.14519762 0.17050347 -0.016071172 -0.01399174 0.053411912 -0.06850071 -0.05526669 0.1286667 0.10968635 0.07962772 -0.11862604 -0.109018944 0.14832565 -0.039940346 0.05374329 0.117445804 0.06965459 -0.015003451 0.08609064 0.05123026 0.069991626 -0.0920579 -0.04440611 0.084512785 -0.010358273 0.13399169 0.09770186 0.1700238 -0.12334211 0.06983922 -0.053740818 0.08937667 -0.10325767 0.06586462 0.08489652 -0.069021046 0.023682376 -0.05724702 -0.030288722 -0.07415397 0.07483986 0.001841151 0.2234613 0.028382549 -0.060794476 0.005734142 0.07337543 0.03908405 0.06655408 0.096276134 -0.12029785 0.08796993 0.03540004 -0.09222461 -0.09829042 0.05105144 -0.0032707064 -0.0038022238 0.030201335 -0.08834694 -0.19987343 0.015904116 -0.04859864 -0.17145042 0.040052023 0.06273277 0.09214916 -0.060076624 -0.11507553 0.010489356 -0.095847204 -0.0028458452 0.032701965 -0.12951684 -0.088939704 0.019522032 0.058493685 -0.17269787 -0.04795886 0.047123265 0.15981571 0.12789324 0.12434989 -0.042808514 -0.07829956 -0.06796711 0.036607213 -0.014239396 -0.12059927 -0.094359845 0.004105209
8 -0.09157869 0.15201703 -0.14131981 0.15558256 -0.15230078 -0.0486354 -0.06414456 -0.39460483 0.14061221 0.103057005 -0.04893323 0.23101816 0.24303988 -0.11158064 0.18522201 0.4101144 0.19160119 -0.1434122 0.1451532 -0.3237238 0.018846683 0.6406835 0.24474916 -0.12908907 0.100244045 0.106159024 0.20115934 -0.06940774 -0.003785757 -0.37769678 -0.17116489 -0.2416381 0.032559235 0.02307575 -0.38568678 0.3174612 0.14498158 -0.07970131 0.0985733 -0.19640698 -0.17341448 -0.36556944 0.19838446 -0.2732934 -0.15197688 0.21076024 -0.089356884 -0.096638255 -0.06541625 0.2873143 0.0644612 0.14711563 0.04493914 0.11235492 -0.39289075 -0.17547897 -0.09968259 0.14914183 -0.19425602 0.05726408 -0.100019105 0.15250674 -0.01298383 -0.2567286 0.20060739 -0.0011555805 0.067128904 0.0906424 -0.09973306 -0.02926003 0.19699807 0.17566049 -0.04209778 0.18251547 0.03484879 0.028153181 -0.44631374 -0.09585918 -0.020385385 0.13370173 0.22090702 -0.048937395 -0.23815908 0.34748417 -0.07521312 0.008590615 -0.11036904 -0.2970654 -0.15329815 -0.3734609 -0.060100414 0.00020373349 0.43786716 0.042257298 0.012385044 0.2123378 0.26655766 -0.0924664 -0.043112 -0.21805792 0.024663085 -0.04809093 0.29620376 0.26964182 -0.18437764 -0.48772642 0.39458373 0.3843679 0.0015736385 0.1618793 -0.2644578 -0.030604817 0.0017890641 0.27027413 -0.23406531 -0.083892435 -0.02270861 0.21290384 0.0498191 -0.11196761 -0.059714515 0.02012873 0.017905712 -0.1200403 0.251505 -0.21402606 0.024836183 0.037718885
14 0.10454071 0.0076139322 0.19074522 -0.07499985 -0.0686636 -0.1116975 -0.0566306 -0.07304501 0.061491992 0.03183158 0.035581324 -0.052268136 0.034043826 -0.06418142 -0.035922498 -0.027688565 -0.015102427 0.012251272 -0.010454431 -0.07832061 0.13410181 0.13458513 0.1621758 0.020909471 -0.080777556 0.10492091 -0.03962691 0.009202125 0.10592737 -0.13566646 -0.18770939 0.06608642 -0.088751696 0.010213342 -0.064171664 0.06445334 0.1711193 0.14232004 0.1307746 -0.041983895 0.00034404686 0.0053382893 -0.050706398 -0.04767134 0.09407818 0.08908766 0.048774656 -0.1419426 -0.08025053 0.130145 -0.030801281 0.07649769 0.047221776 0.032943774 -0.020165933 0.046172466 0.05972151 0.06551585 -0.09087949 -0.034185782 0.08197776 -0.01717613 0.099356666 0.052200116 0.1557242 -0.10406978 0.038359106 -0.062278382 0.071839675 -0.11411558 0.0692825 0.089856714 -0.08577112 0.030892318 -0.045127872 -0.03369638 -0.06319675 0.065882176 0.0034602627 0.16948679 0.030728549 -0.028603908 0.020362627 0.086390905 0.022906093 0.08907847 0.06375862 -0.14315684 0.040748265 0.042386055 -0.11916367 -0.034626212 0.05349943 0.0035820222 0.011328858 0.054271333 -0.08294608 -0.17723823 -0.02308683 -0.032700665 -0.12406855 0.06026433 0.0694806 0.09346922 -0.053159643 -0.1355879 0.0037948783 -0.058096554 0.0007709523 0.048590597 -0.12440124 -0.0756069 0.024995511 0.07360981 -0.18357304 -0.004048141 0.005708318 0.1651766 0.088206224 0.118169256 -0.0031890206 -0.08093686 -0.081689045 0.020139351 0.018626735 -0.09967068 -0.13288167 0.046243176
10 0.099548556 0.047911137 0.13577403 -0.014126206 -0.04581161 -0.06375861 -0.045323126 -0.06984646 0.06394468 0.045625173 -0.057782404 -0.07508999 0.03867698 -0.10425044 -0.023136292 -0.00041386846 0.014715309 -0.021004971 -0.014762868 -0.029533194 0.1112391 0.1390355 0.199313 0.032622494 -0.13575351 0.12810673 -0.032687683 0.013573379 0.12035532 -0.20685273 -0.21312743 0.077145174 -0.14830127 -0.011218591 -0.08880024 0.11720542 0.15639299 0.14653814 0.13788898 -0.033350334 -0.036092404 -0.001966149 -0.06858415 -0.068010375 0.12989414 0.122182354 0.060134765 -0.12919424 -0.15119688 0.2181032 -0.034274176 0.10923399 0.13649777 0.031204449 -0.10434578 0.07143025 0.048195623 0.14499427 -0.111378394 -0.026392011 0.03073517 0.03407202 0.15698925 0.110944316 0.19292149 -0.11382986 0.06754516 -0.09659165 0.07759796 -0.14133178 0.0781344 0.115430556 -0.07838427 0.06198414 -0.029863266 -0.044782463 -0.10709286 0.060678035 0.004729832 0.22269371 0.076097324 -0.04631976 0.004703439 0.09161419 0.01800898 0.069603845 0.07296741 -0.12945929 0.062622026 -0.034989126 -0.092475414 -0.099109866 0.1491868 0.004996756 -0.035433177 0.0860469 -0.05222845 -0.1961511 -0.00072752516 -0.07937614 -0.13802685 0.029659549 0.06340365 0.1563376 -0.03486364 -0.18836422 0.03301025 -0.037439276 0.010353362 0.086757444 -0.18116263 -0.096343696 0.048994593 0.09355731 -0.24719743 -0.05101163 0.071010076 0.17191139 0.14411823 0.17400226 0.015445402 -0.09899785 -0.08017324 0.028101463 0.05962153 -0.12909113 -0.105976135 0.008549162
7 0.1020443 0.031711232 0.12651083 -0.030935558 -0.008792141 -0.06310609 -0.01798141 -0.0072239446 0.04253511 0.036560938 -0.023445318 -0.05510211 0.008956535 -0.09294154 -0.012939817 -0.005984494 0.026647909 -0.0048471214 -0.0150429355 0.0024254033 0.12852567 0.09728927 0.18779096 0.03276023 -0.118141375 0.10104333 -0.035463884 0.034777608 0.11510529 -0.16646796 -0.17183273 0.067335255 -0.10505326 2.4178258e-05 -0.110464625 0.061416093 0.1490971 0.123481415 0.1431407 -0.046140008 -0.014903843 0.03682201 -0.06199715 -0.08572817 0.10464187 0.09057812 0.071019135 -0.08701747 -0.11869356 0.16150993 -0.028392253 0.05874279 0.12554781 0.055920515 -0.033220727 0.065203324 0.07126567 0.097339705 -0.10086427 -0.04552203 0.044960376 0.0065529277 0.11604701 0.075141594 0.16826865 -0.09527194 0.06621154 -0.052623775 0.050256126 -0.10927333 0.08050467 0.1055089 -0.04336662 0.04987638 -0.050371572 -0.021128556 -0.071063936 0.04477929 0.0039592325 0.21430993 0.055237405 -0.054779366 -0.034685474 0.077255 0.016469436 0.06281148 0.10412838 -0.12898315 0.08172118 0.006966863 -0.07656817 -0.10550131 0.10470394 -0.028647436 -0.010447883 0.043776043 -0.06575761 -0.16847593 0.015401695 -0.04304278 -0.14877841 0.03992795 0.06047976 0.09414716 -0.029897055 -0.13256405 0.0119711235 -0.038456365 0.001716114 0.040065195 -0.14433691 -0.08642735 0.0036453302 0.06414513 -0.16388972 -0.039301157 0.07536863 0.17313795 0.13181992 0.12007875 -0.030796956 -0.0915759 -0.05110379 -0.0023283586 0.010738361 -0.10992314 -0.086659856 0.0014024347
18 0.12443448 0.028367601 0.18537615 -0.04802546 -0.034599204 -0.12425973 -0.047104396 -0.022339439 0.07386194 0.033356436 0.01625837 -0.07900135 0.029589023 -0.114346065 -0.01745686 -0.03811608 0.025492499 0.006779672 -0.011836605 -0.044687953 0.13252889 0.1317763 0.21006699 0.034971274 -0.10580529 0.12636365 -0.026678275 0.053339086 0.14836173 -0.17140676 -0.20905824 0.09601301 -0.12747347 -0.0050279466 -0.09751358 0.07069276 0.17067042 0.15932839 0.16582753 -0.047006663 -0.01672042 0.01772145 -0.07098291 -0.06744226 0.14184706 0.09799794 0.058418114 -0.11312379 -0.103444494 0.19782154 -0.074757844 0.07945852 0.12139929 0.061970722 -0.01485445 0.059975516 0.047545746 0.10750726 -0.09820254 -0.029838476 0.060568403 0.017435791 0.13240287 0.09069443 0.18561918 -0.11504067 0.05227574 -0.072624825 0.06968233 -0.106314145 0.078926325 0.10678686 -0.0670636 0.02639255 -0.039446596 -0.04680395 -0.07533738 0.082476646 -0.013050332 0.21823366 0.036830407 -0.055936266 -0.0031900126 0.08384683 0.048607685 0.086975485 0.095261656 -0.1377552 0.066744365 0.029141491 -0.11448757 -0.10722881 0.08538797 -0.0034179897 -0.01250456 0.06901305 -0.07366358 -0.20068474 0.012273281 -0.043999456 -0.16222431 0.0374054 0.046565156 0.12844469 -0.037196405 -0.16326836 0.0021828986 -0.0727708 -0.0058672405 0.048975322 -0.15638159 -0.08598747 0.024781613 0.09124377 -0.21186982 -0.03793802 0.046020612 0.17568544 0.12756723 0.14849178 -0.018844206 -0.09977013 -0.06551169 0.018428857 0.035618406 -0.12221116 -0.09103897 0.022705628
6 0.116333656 0.030029038 0.19855341 -0.082401276 -0.05831029 -0.11029597 -0.07807062 -0.07003924 0.064586125 0.058693178 0.002588262 -0.07131275 0.041256923 -0.098656684 -0.037554752 -0.040665038 0.024430985 0.019977486 0.011993083 -0.07882564 0.12105517 0.14296354 0.20338477 0.046092406 -0.1035134 0.11156094 -0.03297534 0.017032849 0.11999167 -0.18609428 -0.19720867 0.100244895 -0.11794011 0.0008692645 -0.07069292 0.07221111 0.14925821 0.1659106 0.11306561 -0.04099275 -0.013745759 0.0036982798 -0.09222852 -0.048073884 0.13311638 0.07966308 0.06759212 -0.12226084 -0.12244525 0.22313778 -0.0667419 0.10749269 0.09846104 0.02465066 -0.053227026 0.06645978 0.044595458 0.12566274 -0.101703875 -0.012046138 0.082626544 0.034559302 0.14411798 0.07652975 0.20479807 -0.12835461 0.029606452 -0.10886689 0.0991677 -0.14491118 0.07165245 0.11074435 -0.06093795 0.024829822 -0.05132384 -0.05655937 -0.08518314 0.09914355 -0.02227305 0.22710232 0.037435442 -0.041380875 0.0014599788 0.08479804 0.037353497 0.104588434 0.08901305 -0.18505925 0.04058349 0.028693521 -0.151203 -0.07986239 0.100717 -0.0018530082 -0.029567571 0.08930789 -0.06717724 -0.21866973 -0.0043131467 -0.05545053 -0.166551 0.03467121 0.047029838 0.124126025 -0.06348128 -0.18259884 -0.021798082 -0.05706617 -0.0077402135 0.080787875 -0.1857846 -0.11246617 0.04824859 0.104523934 -0.2841811 -0.04792255 0.032264452 0.18747987 0.1187849 0.18760855 -0.01232294 -0.12774186 -0.10534941 0.010723535 0.03373445 -0.11785045 -0.1459344 0.046974037
13 0.07816247 0.040745884 0.123264 -0.025220916 -0.008773655 -0.10046102 -0.022857307 -0.006504542 0.028743546 0.05753844 0.012304026 -0.053689085 0.01354057 -0.10228042 0.009312298 -0.026566382 0.067982115 0.014712972 0.011484418 -0.004030226 0.11146392 0.12102187 0.17419297 0.038848408 -0.10622067 0.11014031 -0.023332087 0.05669867 0.11706032 -0.17821544 -0.18218644 0.08100317 -0.11336551 0.008479649 -0.10423171 0.07151153 0.14663462 0.13231836 0.13419889 -0.04537446 -0.03682473 0.027411854 -0.068522684 -0.06730449 0.12976494 0.077372134 0.047402862 -0.067208886 -0.10824197 0.20761439 -0.062432613 0.0708538 0.13903818 0.05597199 -0.016650978 0.054269448 0.033370886 0.09530306 -0.08491856 -0.016559223 0.05098233 0.02631491 0.12116784 0.062197536 0.1757164 -0.089263745 0.04350586 -0.059479892 0.053434514 -0.107444495 0.0746341 0.090977676 -0.038857307 0.00903026 -0.029976867 -0.035229664 -0.06834462 0.055955056 -0.014261977 0.21779379 0.016123258 -0.06834832 -0.035118934 0.08572208 0.018537061 0.049563076 0.12244765 -0.13707657 0.08732125 0.009908567 -0.08745952 -0.13262993 0.090553224 -0.012900819 -0.0053017964 0.07575252 -0.08455636 -0.20441686 0.025724376 -0.038579863 -0.18449673 0.020009536 0.051159102 0.1066742 -0.03440997 -0.14257275 0.005356766 -0.0653479 -0.016981492 0.051016904 -0.1606407 -0.096049316 0.034693144 0.07106921 -0.21236694 -0.051481284 0.06384385 0.18383367 0.124531664 0.13728286 -0.032402977 -0.099793635 -0.063687965 0.004176048 0.01680414 -0.12346091 -0.07933781 0.032965682
