13 128
5 0.0030681607 -0.07495681 0.0866405 -0.04071927 0.020982051 -0.14301778 -0.025175609 0.1104042 0.022927202 0.059835244 0.18360053 -0.011984794 -0.089994915 -0.023093857 -0.14485753 -0.039080456 0.04510964 0.0849171 -0.05753594 0.12423671 0.19068073 -0.028592067 0.102445215 -0.05073184 -0.057082083 0.008712634 -0.19947171 -0.021222334 0.024051663 -0.10006646 -0.1263147 0.059523202 -0.025161274 0.046150494 0.054709382 0.09610109 0.23181231 0.030438626 0.168272 0.022828545 0.0015530733 0.12577559 -0.009969267 -0.13877714 0.04929806 0.04203943 0.010569494 -0.030035084 -0.039619483 0.056203347 -0.028303027 0.05450493 0.048220117 0.048049055 0.20263888 0.027983388 0.09001737 -0.0664799 0.022798391 -0.029819725 0.09695147 -0.11324162 0.02545585 0.033361975 0.049994938 0.0129362075 0.14783578 0.11713622 -0.033153098 0.028232832 0.015462563 0.0061597577 0.0019975565 -0.06335593 -0.017007533 -0.06657498 0.045726754 0.033479866 -0.017792366 0.104385674 -0.038135912 -0.047946114 0.012034301 0.09360611 0.052491225 0.04770559 0.17228478 -0.014240362 0.07447959 0.15977657 0.003609132 -0.10320914 -0.14218685 -0.077694654 0.13365626 -0.025611581 -0.19937408 -0.17527485 0.008438453 0.055581983 -0.15699519 0.10669416 0.022732798 -0.025360165 0.11106953 0.023518167 -0.038900625 -0.09182065 -0.014300649 -0.1439922 -0.08497527 0.011575112 -0.017510515 -0.10131423 0.044611473 -0.0019254378 0.039302748 0.13869269 0.0055927406 0.031000024 -0.045080334 -0.011013756 -0.041863214 -0.05997195 -0.0077249855 0.05082896 0.013955925 0.10212187
2 0.00556886 -0.07220645 0.07884762 -0.03905876 0.032289863 -0.15040974 -0.022304626 0.1136609 0.03173295 0.070410185 0.18593298 -0.0044121533 -0.08361891 -0.028106745 -0.14105245 -0.02490635 0.039392333 0.09239942 -0.05268638 0.14008757 0.20475715 -0.018758334 0.105902426 -0.053403687 -0.05996173 0.011573772 -0.19853364 -0.009437312 0.034492936 -0.0908332 -0.12271627 0.048679695 -0.024621598 0.060076296 0.036637153 0.0915186 0.23462503 0.024992254 0.1883075 0.029526483 0.002535889 0.12620686 0.0072480584 -0.15128608 0.03290976 0.054084565 0.018264586 -0.031259768 -0.04661729 0.033831377 -0.019581344 0.03963217 0.04730399 0.05850868 0.2039625 0.02811494 0.092390336 -0.07685575 0.018468091 -0.046292383 0.10379213 -0.1206989 0.020957597 0.028671142 0.06128859 0.0029816788 0.15224726 0.12604488 -0.03178853 0.03347739 0.011035886 0.008183581 -0.0023414355 -0.051533688 -0.027349958 -0.07449901 0.032568287 0.03595345 -0.018575482 0.11800994 -0.041564133 -0.053264655 -0.004642938 0.09051171 0.06298785 0.051655665 0.17185909 -0.01810548 0.08195327 0.16595304 0.008925794 -0.10911867 -0.15034159 -0.07885993 0.13634163 -0.044550158 -0.19553384 -0.18225518 0.013230922 0.05699363 -0.16014187 0.10812377 0.026991256 -0.04337128 0.086620525 0.025902778 -0.03780833 -0.09094488 -0.014679542 -0.14428198 -0.08585276 0.01120677 -0.022409948 -0.10369158 0.05950421 -0.0042113937 0.036215376 0.14641576 0.009287906 0.006173506 -0.06592472 -0.0087274145 -0.048729815 -0.052402478 -0.021549776 0.038236856 0.01663224 0.09482677
4 0.0155872 -0.081809275 0.0016840497 -0.029599795 0.03863095 -0.103559986 0.007689052 0.06945544 -0.028048933 0.0761399 0.19641693 -0.0037852682 -0.15188456 0.058232922 -0.06063938 0.025305346 0.00431407 0.06259692 -0.10226077 0.13789295 0.21758996 0.031120857 0.085722 0.020755962 -0.054180577 0.021343522 -0.17990445 -0.008539774 -0.027595647 -0.07190636 -0.14799748 -0.052828986 0.072569184 0.047426477 -0.023449998 0.055255752 0.24694692 -0.018009039 0.20703015 0.03906633 -0.046616655 0.107209004 0.04177761 -0.16529217 -0.06757902 0.03983466 0.011652456 -0.003611265 -0.005137302 -0.026918266 0.02766079 0.0065977094 0.07403826 0.037703242 0.18686199 0.07194928 0.14731267 -0.15383624 0.0047492753 -0.013941917 0.09876939 -0.12452448 -0.051441055 0.011637155 0.049937196 0.02533163 0.18576254 0.1478135 -0.09468015 0.04388715 0.07101588 0.045335364 0.0032370966 -0.04544756 -0.039973713 -0.03263822 -0.008571016 0.03805712 -0.01870818 0.10924538 0.012080966 -0.07092018 -0.04407139 0.094589636 -0.02527951 0.032359395 0.14523093 -0.028463181 0.06423521 0.1636234 0.039588917 -0.0779967 -0.1414885 -0.10605323 0.19477749 -0.07170766 -0.26083595 -0.17976175 -0.008857098 0.024517989 -0.11281468 0.08805742 0.044665888 -0.040812463 0.069567375 0.038193837 0.047556676 -0.046633467 -0.016101362 -0.1746223 -0.038543403 0.014483915 -0.031973567 -0.102535285 0.1234883 -0.003081278 -0.040169064 0.17739905 0.022358023 -0.018489953 -0.06385373 -6.270093e-07 -0.04971651 -0.008482233 -0.020838054 0.021521667 -0.018400887 0.087585635
7 0.00041410743 -0.06762369 0.068574786 -0.041675303 0.023949621 -0.14521737 -0.01932138 0.104512624 0.0065269833 0.06303748 0.1928101 0.0039439197 -0.10650691 -0.012736534 -0.11945092 -0.019573664 0.030802248 0.08521515 -0.06659343 0.14326039 0.20383438 -0.013747807 0.10464508 -0.04019749 -0.058874775 0.021862255 -0.19917037 -0.01176311 0.019759016 -0.09431096 -0.14028704 0.029106107 -0.009038209 0.048807964 0.036562003 0.08957052 0.24155886 0.021571338 0.18530706 0.031996436 -0.004478141 0.128208 0.013361867 -0.1457749 0.018747615 0.056992304 0.011876573 -0.03134793 -0.03346197 0.021070506 -0.0043002595 0.038373 0.05953103 0.057845037 0.20505957 0.04314331 0.10170519 -0.08879932 0.020133916 -0.04089705 0.10057438 -0.12661621 0.009490099 0.028562548 0.050353196 0.017385973 0.1681654 0.13370559 -0.050841045 0.026955295 0.024375455 0.0017064558 -0.0018507229 -0.060262874 -0.028102033 -0.05223999 0.023764437 0.023660183 -0.014056985 0.109260574 -0.024042107 -0.0578152 -0.00090978254 0.10092268 0.03965065 0.04046653 0.16519713 -0.012780684 0.08107129 0.15488277 0.008334501 -0.0988137 -0.141759 -0.078704864 0.14757976 -0.041531447 -0.21261995 -0.17272753 0.018884879 0.0397309 -0.15792981 0.1072331 0.04502676 -0.030670578 0.09582369 0.029721653 -0.0036643527 -0.09124875 -0.020410342 -0.16386156 -0.071764335 0.017805353 -0.026444009 -0.11254179 0.08175188 -0.005785035 0.02704173 0.14821975 0.015151626 0.007813397 -0.059262127 -0.0013075651 -0.04317259 -0.048907977 -0.025121799 0.025868768 0.013552956 0.08664844
3 0.010693245 -0.08761204 0.01713913 -0.053659733 0.01830593 -0.0910957 -0.011829397 0.04968071 -0.04192512 0.05875764 0.20740736 -0.0030626953 -0.16909175 0.05507823 -0.06415157 -0.0050571114 -0.005810277 0.06308428 -0.09788217 0.11009066 0.18918805 0.0072560958 0.09204737 0.035365384 -0.05508924 0.04956077 -0.1751413 -0.02879833 -0.025517602 -0.075786375 -0.16534677 -0.033890065 0.05777859 0.035836976 -0.00078685867 0.05569779 0.25022024 0.005405563 0.19334802 0.015971513 -0.036005497 0.12343996 0.008732011 -0.15022255 -0.033241216 0.009702216 -0.000925799 -0.028090844 -0.0005641142 -0.014220332 0.046333086 -0.0051260097 0.07426949 0.043713048 0.18276815 0.07954847 0.14688393 -0.15903991 0.0023556107 -0.0011575648 0.09812944 -0.119188696 -0.038647056 0.023255294 0.02336402 0.04194238 0.18592347 0.1350643 -0.083496034 0.01978378 0.07178239 0.028442964 0.0071181715 -0.06277977 -0.050542753 0.0021137737 0.012396891 0.049958277 -0.017667439 0.102151126 -0.0047304523 -0.05961729 -0.011629644 0.08457254 -0.046307757 0.007957149 0.1482987 -0.028390015 0.06321564 0.16368444 0.016204141 -0.069962434 -0.14685401 -0.11730314 0.20019898 -0.06529625 -0.26815903 -0.16420007 0.0071096057 0.019118302 -0.11109293 0.08899904 0.036885414 -0.025878739 0.10502328 0.042786576 0.04493924 -0.06340979 -0.021285271 -0.17943701 -0.019911423 0.016271962 -0.023508767 -0.099951565 0.10884964 0.002286906 -0.049820174 0.16431819 0.038636245 0.031403415 -0.034157872 -0.0060456437 -0.051273976 -0.008475669 -0.01703752 0.005222567 -0.04940624 0.080623224
13 0.012725465 -0.09001299 0.043718427 -0.050739147 0.027373446 -0.09805553 -0.0134380385 0.06323457 -0.021449987 0.059183653 0.1937526 -0.015017897 -0.14728059 0.036561776 -0.0993819 -0.017383637 0.015037166 0.057684626 -0.088815585 0.10610158 0.19332707 -0.0037640003 0.09726257 0.0036198713 -0.05575158 0.03082114 -0.18379922 -0.023648163 -0.01860718 -0.08989476 -0.14349538 -0.0051555787 0.030982735 0.04640472 0.017862052 0.06563151 0.2460562 0.011452953 0.18587495 0.024950366 -0.020487064 0.11393892 -0.00067518343 -0.1506528 -0.009854821 0.019477047 0.016965315 -0.024869664 -0.019761566 0.009682485 0.008196833 0.021958638 0.059366927 0.03959455 0.19395828 0.054858472 0.1367039 -0.13279068 0.011705859 -0.0067210486 0.107821845 -0.12233074 -0.013494082 0.031884134 0.034161046 0.03231419 0.1732361 0.13165057 -0.07779403 0.02594685 0.05674454 0.025401186 0.011091238 -0.061842237 -0.033675563 -0.027923563 0.025241284 0.042064752 -0.021586092 0.095148586 -0.011747979 -0.05214627 -0.012212921 0.08429973 -0.017076902 0.03241452 0.15520793 -0.023797465 0.061792176 0.16987404 0.014310732 -0.08167422 -0.1436657 -0.11061723 0.17496903 -0.0525974 -0.25163975 -0.17652822 -0.010397287 0.0416859 -0.11878794 0.09767329 0.027524205 -0.023847798 0.11245818 0.032130983 0.0050475886 -0.072253786 -0.0076482254 -0.16471079 -0.057816923 0.011884142 -0.015942223 -0.10909051 0.0839061 0.011504402 -0.022714112 0.1653074 0.021812553 0.02326039 -0.036085453 -0.0052752392 -0.052540958 -0.016467093 -0.011570892 0.035537194 -0.028115232 0.1017677
9 -0.005597435 -0.06987099 0.0681138 -0.04629672 0.026903456 -0.14128654 -0.01721968 0.100947164 0.010096046 0.055093005 0.18263833 0.0051112794 -0.10696931 -0.014185537 -0.12000131 -0.016423596 0.03406865 0.07764581 -0.05164251 0.1410945 0.200577 -0.018533356 0.100992456 -0.04696678 -0.057565644 0.02391057 -0.18458073 -0.0067759836 0.025637804 -0.09829346 -0.124822825 0.021407802 -0.020252991 0.055698078 0.036345653 0.09937392 0.23601823 0.023375671 0.18711002 0.025128266 -0.0003536442 0.12747131 0.015354335 -0.14669609 0.032062843 0.056750763 0.022337537 -0.033863857 -0.036858767 0.0147153335 -0.013107258 0.036387447 0.055771884 0.06443849 0.2101999 0.030914498 0.096924745 -0.08429803 0.024412932 -0.05354254 0.105201356 -0.13052307 0.015113979 0.02696868 0.050772708 0.0274284 0.16027628 0.1377549 -0.053979557 0.031296995 0.02823902 -0.012708657 -0.0018670545 -0.05480877 -0.026278155 -0.04973702 0.016969072 0.016246501 -0.0068155983 0.109700315 -0.02678452 -0.060427953 -0.0039848774 0.10039013 0.04376963 0.03414061 0.16338696 -0.019248193 0.086397864 0.14467435 0.011491435 -0.102139555 -0.1376043 -0.07791286 0.14421718 -0.039365083 -0.20819537 -0.16767618 0.012402405 0.048493978 -0.1609677 0.117558494 0.035957076 -0.030401599 0.09998361 0.03865569 -0.012740463 -0.09997839 -0.02344993 -0.16415825 -0.08141337 0.018804189 -0.028995885 -0.12148147 0.087969564 -0.0036018593 0.039144564 0.14563887 0.015493083 -0.005985155 -0.06274835 0.009817193 -0.050690833 -0.044041023 -0.029820133 0.022379449 0.02635711 0.08697423
1 0.0026309446 -0.064745635 0.06602497 -0.048405312 0.01978235 -0.14305988 -0.017863229 0.107749805 0.0022408308 0.057249166 0.1800991 0.00865341 -0.10909315 -0.008890562 -0.11255053 -0.019359404 0.033282537 0.08205722 -0.061985973 0.13979383 0.20111424 -0.022510491 0.10407907 -0.04331694 -0.050296947 0.017868254 -0.1904748 -0.013084894 0.030577624 -0.09778607 -0.13771622 0.032887723 -0.0047680708 0.042461365 0.03556885 0.09367724 0.2388935 0.028152382 0.17259447 0.029856581 0.0013748992 0.12669213 0.01289175 -0.14185928 0.024507755 0.05845018 0.0069668004 -0.03522845 -0.029672604 0.024501853 -0.011870058 0.04376873 0.05961419 0.058747035 0.20430258 0.044827547 0.09706713 -0.08303902 0.02749605 -0.0478163 0.098512284 -0.12193904 0.008910547 0.02831572 0.043967437 0.02525568 0.16671789 0.12985153 -0.058139946 0.025142381 0.02547979 -0.0016152405 0.002672739 -0.058706354 -0.024416126 -0.044907935 0.015926974 0.017850794 -0.010255686 0.102365516 -0.020672863 -0.05967668 -0.0011914544 0.09687345 0.043331303 0.035813835 0.16234805 -0.014543792 0.083173595 0.14632794 0.0023974557 -0.0966827 -0.13110253 -0.07586197 0.13606733 -0.029231492 -0.20299155 -0.1636106 0.019262023 0.040100254 -0.15518913 0.11857761 0.04527883 -0.03078992 0.103017464 0.031594235 -0.0013804166 -0.09424361 -0.025212122 -0.16154 -0.07486924 0.023787685 -0.03160061 -0.11764876 0.08588233 -0.0079384055 0.036755852 0.14360723 0.016862364 0.011355976 -0.054200195 -0.00080209173 -0.045949243 -0.053077653 -0.025623519 0.028321343 0.01914871 0.08445676
6 0.005041679 -0.06784125 0.0859927 -0.049222533 0.033747222 -0.14485191 -0.037915282 0.12343179 0.03464991 0.067944825 0.17974775 -0.009174609 -0.094471306 -0.031660058 -0.15583842 -0.03961379 0.05060357 0.08695516 -0.06426096 0.15013473 0.19511755 -0.048455816 0.111465 -0.060642656 -0.065302044 0.009564894 -0.21363823 -0.027360544 0.03165512 -0.107997544 -0.12747471 0.07456774 -0.03468814 0.04562723 0.064771414 0.105383225 0.22815365 0.03895347 0.1633282 0.03472064 -0.0017173681 0.12816578 -0.01239758 -0.14615762 0.055369653 0.046842687 0.014053659 -0.025832163 -0.05232341 0.070040315 -0.039139766 0.06951618 0.062283456 0.050219312 0.19997397 0.0405354 0.090400346 -0.0481919 0.035423655 -0.035705168 0.08601813 -0.10742951 0.031400766 0.040616587 0.05421661 0.0219681 0.16398507 0.11432312 -0.042739794 0.03299914 0.0022602326 0.00091580406 0.0176967 -0.06435962 -0.012086776 -0.07318793 0.042704444 0.035627667 -0.021441309 0.10642572 -0.035404444 -0.0570346 0.007891046 0.08974407 0.060436998 0.043604612 0.17658372 -0.0014881023 0.075197674 0.15335052 0.0044692247 -0.11649576 -0.1404222 -0.08294598 0.114953496 -0.025043208 -0.19246745 -0.1749734 0.015482915 0.044148237 -0.16728024 0.10488928 0.017358085 -0.021541672 0.122243606 0.020994725 -0.041336115 -0.10439003 -0.017941253 -0.1458742 -0.099548645 0.019339802 -0.017036188 -0.11519724 0.042865574 -0.014991747 0.044280034 0.13318644 0.011144111 0.042193517 -0.04503809 -0.016922126 -0.03778447 -0.06524261 -0.009160495 0.06298694 0.03174436 0.099563785
12 0.028716488 -0.080487795 -0.033040557 -0.022540817 0.03443196 -0.06912155 0.011431572 0.038125653 -0.04876526 0.07095265 0.19897562 -0.013072592 -0.18256426 0.09703099 -0.022639966 0.045107927 -0.025733627 0.053411257 -0.12075123 0.12523785 0.20938492 0.056041054 0.08452149 0.067950286 -0.056001585 0.046944696 -0.16042192 -0.01372003 -0.05720511 -0.044922605 -0.16399424 -0.090151325 0.11369355 0.04133974 -0.05675692 0.02029744 0.25181583 -0.025168117 0.21332508 0.026016418 -0.07908811 0.10307468 0.04790149 -0.1688439 -0.10896344 0.013151567 -0.0010343123 0.0028554196 0.0070429635 -0.05553941 0.06288971 -0.035543963 0.0802769 0.042869426 0.16439982 0.09221188 0.17538024 -0.19653705 -0.021199074 0.001058799 0.08308926 -0.11950715 -0.07958428 -0.0087396465 0.037293687 0.035330713 0.19053526 0.14202875 -0.10926453 0.0414582 0.09224062 0.07074295 0.002680631 -0.035767432 -0.061930872 0.005643824 -0.016740538 0.059192874 -0.03395221 0.0991469 0.019378893 -0.06440703 -0.05444149 0.06970615 -0.078613065 0.007169012 0.12968776 -0.034474295 0.04678081 0.17249548 0.043520954 -0.06195817 -0.14708146 -0.13010088 0.22982639 -0.09335263 -0.28351256 -0.16145091 -0.0026811927 0.0074275024 -0.08412258 0.060818736 0.04473936 -0.04226889 0.057887383 0.039319888 0.08191691 -0.013262916 -0.027165161 -0.18227434 -0.0001206658 0.006090749 -0.034846608 -0.082732536 0.14829831 0.004706817 -0.08701599 0.18151344 0.039307456 -0.010198053 -0.048167683 -0.011113803 -0.047218174 0.012412221 -0.008751952 -0.007591941 -0.06141112 0.07906796
11 0.0022530784 -0.06784932 0.05860687 -0.04090328 0.019097893 -0.12918216 -0.012439591 0.09166486 -0.00046639767 0.060887143 0.18818954 -0.0030164102 -0.11134 -0.00032157518 -0.10722003 -0.015873374 0.030209044 0.08223263 -0.06363 0.1379262 0.19278142 -0.007837206 0.094245724 -0.030380229 -0.05908045 0.01889378 -0.19499077 -0.02334543 0.013293515 -0.089006856 -0.14140336 0.026891943 -0.0008975364 0.04160883 0.035293486 0.087731875 0.24440289 0.027546464 0.17833033 0.020930234 -0.0053361836 0.12563397 0.016205331 -0.14082256 0.01970857 0.04880984 0.0021826853 -0.036543995 -0.02662625 0.024737896 0.0022765053 0.037151236 0.062469974 0.048867915 0.20217866 0.045212355 0.10364594 -0.08885702 0.019562863 -0.03941278 0.094407186 -0.12378575 0.003440544 0.026806096 0.04338386 0.019504601 0.16199042 0.12561677 -0.053523887 0.02593528 0.032347925 0.011350936 -0.0021182955 -0.05328596 -0.030485675 -0.040833894 0.025191749 0.030544188 -0.017184565 0.10909279 -0.017808577 -0.052686647 -0.0024224713 0.09517174 0.03135005 0.032940786 0.1666224 -0.016071167 0.07888155 0.15553561 0.0049288324 -0.095077366 -0.1461928 -0.085709095 0.15574992 -0.033452895 -0.21714304 -0.162498 0.0137741715 0.037199978 -0.14316967 0.10354256 0.041311417 -0.028983759 0.100763895 0.035942122 0.0030123452 -0.07910223 -0.02398849 -0.16289163 -0.059818264 0.023862017 -0.026564805 -0.10947754 0.077784635 -0.0061631794 0.020411188 0.14556049 0.014182692 0.023588829 -0.043923333 0.00029090096 -0.046662346 -0.048675664 -0.012795458 0.026968248 0.005574958 0.09289936
10 0.03063034 -0.09554567 0.01942405 -0.038940072 0.0360629 -0.10415891 -0.015013686 0.07257165 -0.011648511 0.0736357 0.20390686 -0.024542363 -0.1503746 0.055128228 -0.08107456 0.0057236864 5.0340634e-05 0.06902466 -0.10736296 0.13372721 0.21811138 0.015848903 0.08952505 0.024078686 -0.065250546 0.026778093 -0.19795644 -0.030467926 -0.02623071 -0.06912426 -0.15506156 -0.023740746 0.065987736 0.04915653 -0.0031376376 0.054981075 0.2558363 -0.00037384237 0.20127672 0.035015874 -0.050110064 0.11413287 0.02593368 -0.16114317 -0.05027088 0.0146503365 0.009078055 -0.011634805 -0.010266894 -0.003019534 0.02449727 0.0075890007 0.07105801 0.036820155 0.18488681 0.08020637 0.15419175 -0.1460979 -0.003955854 -0.004302477 0.094513945 -0.121224806 -0.04000998 0.0119724255 0.051841296 0.024758363 0.18655679 0.1296927 -0.0774896 0.040306512 0.06401281 0.05086144 0.0031270955 -0.04934679 -0.04139495 -0.0390188 0.013133885 0.057121616 -0.02696397 0.1122917 -0.0041478644 -0.06783809 -0.026218927 0.08140443 -0.026839206 0.03522078 0.15331416 -0.024249855 0.055458568 0.1840186 0.029810987 -0.07760067 -0.15981443 -0.11542521 0.19924308 -0.06816858 -0.26999387 -0.18418218 -0.010115957 0.02750491 -0.115607925 0.08076306 0.026305167 -0.04197416 0.0824279 0.035838563 0.025548158 -0.051682603 -0.0192253 -0.16725329 -0.040307008 0.010382671 -0.02127708 -0.09315603 0.09773367 -0.002865077 -0.053207915 0.17211215 0.025071165 0.018495802 -0.048301246 -0.021485904 -0.05291464 -0.015274566 -0.0039903307 0.03593794 -0.035275467 0.10491465
8 0.01728523 -0.079105675 0.056315903 -0.033372108 0.040139753 -0.13418418 -0.035329968 0.108933516 0.023757907 0.073160976 0.17584321 -0.020813461 -0.104011975 -0.018489808 -0.13270254 -0.026871815 0.041156817 0.088231586 -0.072054274 0.14521933 0.20192842 -0.025696404 0.110611506 -0.027498143 -0.062248513 0.015681032 -0.2028928 -0.026230238 0.021916902 -0.0962999 -0.13284762 0.048156403 -0.0060450104 0.054584663 0.03289186 0.085332006 0.23402184 0.020866375 0.18151814 0.039264474 -0.014894353 0.119304135 0.0015591058 -0.15065753 0.015570699 0.036201477 0.0116056865 -0.019317854 -0.04619497 0.043578483 -0.020635206 0.0338128 0.06835589 0.05865532 0.1865524 0.04920814 0.09825312 -0.086557485 0.0134249255 -0.023301449 0.09401094 -0.10260215 0.01845156 0.035047654 0.053212713 0.010818646 0.16576871 0.116857536 -0.041083697 0.034363113 0.017088886 0.018588759 0.00936402 -0.055802952 -0.02878335 -0.066122904 0.024454303 0.04746342 -0.03018238 0.11512444 -0.03732761 -0.056366738 -0.0035257326 0.07600747 0.041918237 0.044190194 0.16551651 -0.005171561 0.06922863 0.16540541 0.018538784 -0.1105623 -0.14765185 -0.08922693 0.14264278 -0.045286395 -0.20575848 -0.17683841 0.01331529 0.043716073 -0.14317124 0.09015627 0.013497282 -0.037004907 0.100490965 0.01932818 -0.026454851 -0.07954586 -0.011870806 -0.14689836 -0.08357215 0.00860941 -0.010550963 -0.099990845 0.05637226 -0.015653351 0.016660234 0.14288229 0.017678462 0.02965062 -0.05324699 -0.023270978 -0.04865476 -0.04598485 -0.0061870757 0.04718359 0.011944082 0.09941527
