1879 128
26 -0.11446214 -0.09375257 0.36753887 0.14970087 -0.25521696 -0.074325606 0.05002851 -0.049816627 -0.12746911 -0.0723908 0.524593 0.13395625 -0.17423305 0.036879677 -0.10070917 0.002038966 -0.0068668625 -0.10292007 -0.17775299 0.100101694 0.2368 -0.05468487 0.0070157964 -0.09468878 -0.2379451 -0.04398166 -0.121855155 0.44675168 0.070366435 -0.15992896 0.15908673 0.24317405 0.1752398 0.096128106 0.10175588 -0.14786635 0.020005737 0.2432985 0.26059338 -0.010261533 -0.3329236 0.23008639 -0.20847812 0.068004094 0.13274524 0.21137862 0.3506673 0.2032968 -0.32612583 0.4779598 0.07137296 0.13801894 0.004085922 0.03271821 0.2740145 0.25309655 0.2966198 -0.14835046 -0.12365975 0.01185071 -0.28774488 -0.016452627 0.2534136 0.067512505 -0.08249868 0.2704959 0.062582105 0.06832248 -0.13648261 0.064571835 -0.17984357 0.11694711 0.15173663 -0.28133208 -0.25516453 -0.15639752 0.55817354 -0.0063265604 -0.019208075 0.2901992 0.04211324 0.051345985 -0.018251026 0.1141968 0.1609413 -0.17981079 0.1279064 -0.025234312 0.029260758 0.22447598 0.1972717 -0.09787868 -0.20513195 -0.5950531 0.006720645 0.23477253 -0.021713527 0.24708588 0.20619126 0.044423755 -0.24449864 -0.13712594 -0.3950819 0.12683366 0.036930118 -0.12311494 -0.06610021 -0.22545512 -0.1698619 -0.07997512 0.13514891 -0.09593779 -0.11764928 -0.080038644 0.0059853923 0.15466847 -0.018249357 -0.12111227 0.07583413 -0.3664422 0.09019875 -0.35171992 -0.02894771 0.2904837 0.2926043 -0.31516737 -0.07026651 -0.089538164
28 -0.14287977 -0.16048467 0.38578016 0.12424407 -0.3221049 -0.10430096 0.05105644 -0.12571748 -0.09846908 -0.029957995 0.5956541 0.18977757 -0.18567377 0.042966217 -0.06356851 0.031381343 0.10180498 -0.1870711 -0.22813472 0.14939415 0.17996076 -0.07456979 0.00010629621 0.013554807 -0.22645271 -0.09258644 -0.11140337 0.39261243 0.02819195 -0.1133162 0.11902823 0.23891862 0.101496324 0.12516312 0.15378296 -0.14153057 0.068227604 0.23914072 0.26367214 -0.0034472821 -0.2305265 0.3231413 -0.19550394 0.01756576 0.13935615 0.19225913 0.38374734 0.23695746 -0.31962672 0.45811749 0.116830185 0.08567682 0.024044124 0.16661195 0.23950052 0.22916332 0.28891125 -0.20476274 -0.111453936 0.031453323 -0.37240836 0.018407427 0.25454742 0.030701771 -0.0021227044 0.22400114 0.001575195 -0.055233754 -0.1061928 -0.0026504276 -0.21102527 0.1971891 0.1246401 -0.19472699 -0.3103292 -0.09921239 0.575836 0.07393578 -0.0060725044 0.34562618 -0.11937007 0.043310843 -0.10212484 0.16117854 0.10258359 -0.17299776 0.016467545 -0.09780997 0.012579681 0.2677742 0.1839826 -0.10374086 -0.20130433 -0.4899041 0.02488475 0.30119622 0.035616037 0.1677465 0.23281834 0.121311806 -0.31010318 0.0057805316 -0.4068618 0.13796648 0.0029115626 -0.14480267 -0.07480193 -0.20576227 -0.20620337 -0.08048459 0.14109175 -0.15010445 -0.09897456 -0.08113529 0.033371665 0.13772301 -0.015996916 -0.20623215 -0.02879337 -0.4162454 0.16426484 -0.23379277 0.042661004 0.23525415 0.27846473 -0.23748516 -0.09803363 -0.105081946
24 -0.13670431 -0.09258089 0.32574564 0.1447343 -0.2908163 -0.11576235 0.06742277 -0.035255563 -0.15352842 -0.14752395 0.5379324 0.15362315 -0.18592237 -0.010795416 -0.07275165 -0.020565549 0.07345395 -0.16645868 -0.24036254 0.077288866 0.11644481 -0.029171497 -0.076852925 0.031026185 -0.30247226 -0.12958045 -0.097432576 0.37420297 0.023599483 -0.11345376 0.12815163 0.18407139 0.14127295 0.2191906 0.17497708 -0.096296385 0.012954891 0.17104003 0.28069934 0.021202678 -0.3221738 0.33091956 -0.23696159 0.08823796 0.070275255 0.27914706 0.3893491 0.2566919 -0.25540397 0.3537358 0.0774843 0.15047407 0.077581026 0.085071705 0.24153633 0.18392055 0.14967643 -0.15746456 -0.10924407 0.006718749 -0.3106018 0.04785806 0.21465099 0.0178376 -0.0056920187 0.2755828 0.021103853 -0.030733224 -0.07982842 0.043216206 -0.14740695 0.16155775 0.13945521 -0.24395595 -0.2894002 -0.21418057 0.5935528 -0.005934088 0.0811372 0.39587113 -0.061359156 0.010737727 -0.027206164 0.06389411 0.10498132 -0.27067748 0.041134577 -0.09537026 0.023510007 0.1824673 0.21811481 -0.10262951 -0.24971372 -0.6462101 0.029404612 0.1870723 0.052003615 0.086903706 0.1576014 0.09691694 -0.16575229 -0.1319027 -0.44747952 0.13040107 0.0054586316 -0.14131522 -0.059240203 -0.28409505 -0.2375394 -0.052304514 0.16463868 -0.059210803 -0.13377528 0.04136777 -0.025633197 0.08024872 -0.045089614 -0.16130194 -0.025802879 -0.3597832 0.11015647 -0.25095958 -0.05532365 0.17721651 0.32474604 -0.19194268 -0.06405002 -0.085367955
33 -0.15020771 -0.10164682 0.42427894 0.11240396 -0.23815769 -0.09036259 0.02425464 -0.07949589 -0.12711029 -0.048267648 0.5111213 0.21834837 -0.16765647 -0.015725749 -0.10265454 -0.026555277 0.055643514 -0.17527987 -0.25788325 0.06655392 0.15515348 -0.07885277 -0.058464285 0.077080384 -0.22015165 -0.114792064 -0.15948169 0.3711896 -0.012116427 -0.17274037 0.13125555 0.26416108 0.11492983 0.10029135 0.11370981 -0.1740835 0.059919912 0.20560978 0.39697275 0.05199313 -0.2527015 0.29770213 -0.22877751 0.04509038 0.15482588 0.24433272 0.3761014 0.24375515 -0.23981063 0.42026415 0.09374336 0.14519002 -0.0018417677 0.1282582 0.23575377 0.2584713 0.24164848 -0.087515 -0.16468272 -0.0011345744 -0.25557873 0.038521536 0.21431266 0.07790977 -0.054516334 0.3278315 -0.07349558 -0.0041821147 -0.1651584 0.083249 -0.14724556 0.17354718 0.15463173 -0.24800052 -0.25692478 -0.159677 0.54014 0.007807013 0.02015963 0.36734268 -0.055769082 0.03178654 -0.016334426 0.07711474 0.15606306 -0.2631188 0.03570517 -0.021463534 -0.023925148 0.22007443 0.24431351 -0.13484937 -0.19888067 -0.5003273 0.0085440595 0.19154744 -0.07746467 0.15608944 0.21619369 0.04434762 -0.21661204 -0.014040137 -0.32406226 0.10929605 0.017932944 -0.20744775 -0.03196339 -0.21379495 -0.27366272 -0.11101287 0.06114825 -0.14860322 -0.09144798 -0.0799125 -0.0011826181 0.081759125 0.01381541 -0.19704552 0.07341692 -0.3901973 0.10827015 -0.26531252 -0.040569622 0.34179023 0.2946175 -0.22862911 -0.02202917 -0.07131607
27 -0.10333023 -0.14125001 0.40119258 0.14025381 -0.35641146 -0.111958355 0.06306959 -0.08342906 -0.17531343 -0.05023757 0.48663235 0.18316631 -0.11607908 0.04626323 -0.07324378 -0.063147806 0.008660781 -0.14568976 -0.1672014 0.09113185 0.23805533 -0.037598345 -0.03248692 0.0342098 -0.20056558 -0.05428938 -0.15011725 0.4638559 0.04577591 -0.08457507 0.16532531 0.24858952 0.13404034 0.07732976 0.11338355 -0.1684726 0.08368986 0.23370235 0.2175731 0.08574825 -0.30903333 0.24765821 -0.24825987 0.09046349 0.12737457 0.21584249 0.4176419 0.1524393 -0.28830934 0.43937612 0.09017507 0.117022224 0.10610247 0.06574805 0.20698527 0.24360004 0.2862577 -0.17205887 -0.17615841 0.08081968 -0.2740132 0.022341842 0.19921795 0.047265295 -0.014175284 0.25279027 -0.032111723 0.08727948 -0.15952067 0.08926687 -0.1423206 0.14829412 0.124114074 -0.22158056 -0.27747175 -0.16496232 0.5386021 0.028750204 -0.028961798 0.34528232 -0.03512625 0.09745776 -0.0073736235 0.11094881 0.1352368 -0.24713658 0.1196608 -0.068435095 0.0069022644 0.26344374 0.2915032 -0.14286807 -0.24627645 -0.49363875 -0.054236624 0.22162111 -0.07269214 0.20913847 0.17522062 0.09715007 -0.26436508 -0.09527434 -0.3876567 0.19311465 0.027273558 -0.16224444 -0.04959128 -0.1946084 -0.14817041 -0.060017455 0.0940591 -0.23500517 -0.07712841 -0.090152375 -0.03238341 0.008291121 -0.000870509 -0.1794403 0.044576995 -0.35203984 0.13027138 -0.2272087 -0.008402255 0.38932452 0.23790625 -0.23848698 -0.082998455 -0.12839586
31 -0.16311313 -0.021013362 0.3843123 0.1504076 -0.40699273 -0.052686173 0.07537088 -0.063849375 -0.21566917 -0.082491875 0.5514724 0.14786917 -0.18566792 0.051476687 -0.1050093 -0.020015286 0.047419295 -0.16626905 -0.19468355 0.10072123 0.21077996 -0.15659776 0.0028980956 0.020087807 -0.20469317 -0.05954523 -0.17976736 0.48105234 0.059850797 -0.10561816 0.13182291 0.24547063 0.064441696 0.119556464 0.15835573 -0.16508527 0.013638638 0.20237726 0.22861727 -0.014867718 -0.30162162 0.28335547 -0.21702816 -0.002205505 0.11640439 0.20288913 0.41915077 0.21767356 -0.3516899 0.38773778 0.12427305 0.09254539 0.0132711595 0.108502686 0.28514546 0.23131263 0.1894414 -0.06081954 -0.07956563 0.116120525 -0.22846597 -0.09846752 0.23013905 0.088200554 0.028151097 0.20233051 -0.06717818 0.011909769 -0.14354248 -0.022955 -0.1794296 0.12273586 0.15130489 -0.29706055 -0.27789083 -0.14282818 0.55480695 -0.02780077 -0.028828803 0.34645075 -0.07885581 -0.0222709 -0.0046893205 0.14062344 0.08801946 -0.19522128 0.014503619 -0.06540132 0.05503292 0.20128137 0.28714895 -0.07441616 -0.1979755 -0.5247268 0.020145586 0.2061029 -0.09377103 0.21989653 0.2192588 0.14624593 -0.2752216 -0.08096306 -0.48339957 0.1364697 -0.028634153 -0.1655498 -0.065364845 -0.096540235 -0.20578966 -0.031801965 0.13573547 -0.1537323 -0.072537445 -0.034135856 0.027382059 0.09542905 -0.041560605 -0.21519482 0.09757961 -0.35563242 0.064567 -0.2055013 0.010650074 0.34037086 0.23880121 -0.18568283 -0.047806475 -0.09958787
32 -0.11607861 -0.15942319 0.40019053 0.1554273 -0.3432388 -0.09275135 -0.0009303143 -0.06448865 -0.123011954 -0.08521483 0.5101946 0.19287366 -0.16667213 -0.045009464 -0.009632935 0.015296249 0.024873255 -0.1904007 -0.116231464 0.08671429 0.21328701 -0.108088985 -0.025240583 0.04849383 -0.15772401 -0.14125064 -0.0902353 0.40828496 -0.04376148 -0.15065438 0.082703896 0.16925356 0.11085762 0.113467485 0.17323628 -0.15962544 0.0065647145 0.2728762 0.3274884 0.09647537 -0.27251092 0.27935708 -0.15458763 0.08793747 0.13536905 0.22247586 0.4132742 0.22277342 -0.23507638 0.4129393 0.1297291 0.25252938 -0.025499519 0.15901339 0.22798754 0.23927845 0.2273802 -0.15264033 -0.11560677 0.054289702 -0.3126669 0.008901515 0.2192809 0.051475145 -0.029378965 0.35148 -0.0103715565 0.015187455 -0.042831767 0.0042990777 -0.13517478 0.1651412 0.14408469 -0.2752387 -0.30085364 -0.14800636 0.6009675 0.026728947 0.07120365 0.39019543 -0.07573054 0.014385543 -0.119267836 0.11941352 0.13792706 -0.211591 0.07753567 -0.03627197 0.06221241 0.19487509 0.18364881 -0.16085938 -0.1520069 -0.5954778 -0.056356978 0.23644689 0.010578834 0.15361647 0.21381947 0.13158122 -0.28807697 -0.053050943 -0.40171784 0.20743994 -0.015680848 -0.12602806 0.008813761 -0.17809545 -0.21805532 -0.04138595 0.10923721 -0.1458345 -0.042051498 -0.081552565 0.09715969 0.09333321 -0.0073835896 -0.26631552 0.08172685 -0.3799688 0.057941966 -0.29706794 0.036224313 0.31124222 0.25028786 -0.23503095 -0.042100817 -0.08453846
29 -0.16971922 -0.092044465 0.40682328 0.15806136 -0.27676463 -0.09751388 0.028671296 -0.14027892 -0.09933889 -0.08974201 0.5281084 0.10350742 -0.13104787 -0.04417024 -0.0829443 -0.0053165206 0.046231575 -0.18230875 -0.24181685 0.053587254 0.21434654 -0.12427769 0.13978253 0.003232939 -0.24413902 -0.07701831 -0.17196982 0.34733805 -0.01274152 -0.11379732 0.13804309 0.19164772 0.17375782 0.109988935 0.21006559 -0.14130154 0.075617775 0.19816323 0.27352473 0.016540186 -0.35787433 0.34170884 -0.32224345 0.035971515 0.17180626 0.24623932 0.35727194 0.21411614 -0.2761166 0.48035565 0.12927903 0.16256852 0.046329618 0.15233117 0.22952895 0.23907124 0.29438555 -0.1566539 -0.08941204 0.08896856 -0.3454726 -0.020928523 0.22694384 0.011632982 -0.122844815 0.2672605 0.00014692725 -0.0012546958 -0.17978667 0.04382269 -0.11164896 0.13921198 0.07530375 -0.20412344 -0.24935822 -0.15445532 0.5150118 0.0024948735 0.033462323 0.38428822 -0.079490975 -0.005801414 -0.022831315 0.118096836 0.13739142 -0.18838726 0.05595463 -0.07405966 0.009810377 0.17207141 0.21522829 -0.109766 -0.1989883 -0.46323526 -0.038351472 0.16441678 -0.020758094 0.14284366 0.14018711 0.17600124 -0.31937736 -0.060093384 -0.43304864 0.14871192 -0.02546538 -0.17203064 0.034577593 -0.30147082 -0.25013864 -0.0073371367 0.119704805 -0.1279294 -0.06532006 -0.08636397 0.05709 0.11391735 -0.052801356 -0.17064908 0.0032706559 -0.33015695 0.12498449 -0.31674933 -0.009092794 0.3121202 0.29102984 -0.23006107 -0.07807251 -0.10826631
25 -0.07277949 -0.054758646 0.4183225 0.12383771 -0.40631744 -0.1321827 0.040849157 -0.09770047 -0.14156121 -0.07334707 0.5204564 0.21790469 -0.16226617 -0.013231321 -0.053536497 -0.011095266 0.048071 -0.120201185 -0.24306142 0.18280658 0.1969024 -0.026341667 -0.09827615 0.038648576 -0.14518511 -0.06784923 -0.14744344 0.44070944 0.032522976 -0.100366764 0.07936138 0.24729633 0.10271629 0.1429954 0.16616882 -0.20162016 0.014114435 0.16280314 0.29394236 0.060513545 -0.28686824 0.2719588 -0.2040899 0.07360187 0.13279064 0.21969311 0.38376614 0.17869857 -0.25220278 0.48039952 0.12992367 0.18106802 -0.10224391 0.104439564 0.16992012 0.30460787 0.3083441 -0.10683641 -0.028067335 -0.09552848 -0.25192127 -0.012393212 0.24665412 0.05325201 -0.022626167 0.21838914 0.07663604 -0.046058543 -0.05200667 0.041282225 -0.17742057 0.23462977 0.15406397 -0.29420543 -0.23785743 -0.1447586 0.53627336 0.03889533 0.058713924 0.3387708 -0.055679943 0.037432294 0.065458395 0.14253105 0.09399536 -0.25034943 0.06748273 -0.05670293 0.050061148 0.14487858 0.19728923 -0.13792437 -0.21547677 -0.48219562 -0.060580082 0.18778645 -0.003982389 0.1408674 0.1357836 0.16012952 -0.34169698 -0.1090274 -0.42390397 0.1390165 -0.019627254 -0.19906314 -0.02793263 -0.22144347 -0.22282751 -0.07642637 0.1842664 -0.15990919 -0.10931681 0.015179511 0.10194778 0.09280479 -0.07024423 -0.16201594 0.05649907 -0.36256972 0.10740439 -0.27970436 0.035482273 0.16783202 0.29072493 -0.25889733 -0.08684082 -0.08728212
30 -0.12882201 -0.05985648 0.3505831 0.177862 -0.2877156 -0.11905113 0.118816234 -0.017636409 -0.123829104 -0.07328174 0.50329053 0.22487375 -0.11407908 0.026821269 -0.12984164 -0.027476072 0.03595637 -0.1631173 -0.22079384 0.09103203 0.2423395 -0.098120525 -0.015842445 -0.04332683 -0.15827473 -0.056373425 -0.13435853 0.4324275 0.11092727 -0.17149416 0.045469727 0.2251205 0.13589281 0.2233678 0.18673538 -0.1514538 0.07357151 0.12042777 0.22144218 0.03387376 -0.3490881 0.2283737 -0.19800183 -0.003910491 0.1614105 0.24271657 0.3553889 0.20473617 -0.25193048 0.47798193 0.19237325 0.11393883 -0.03950193 0.120970726 0.25952563 0.31973112 0.3066459 -0.1896754 -0.1962949 0.040093392 -0.31242222 0.0012837402 0.2669964 0.028202262 -0.09406875 0.25432146 0.059483483 0.021091774 -0.11582484 0.10489133 -0.22297078 0.098633036 0.17823458 -0.22656561 -0.27762994 -0.13983606 0.605604 0.04926664 -0.035369206 0.40434235 -0.09356398 -0.027120035 -0.022144629 0.08154329 0.0626435 -0.21275942 0.044624064 -0.052382644 0.086072445 0.21875475 0.19191961 -0.12143137 -0.22633646 -0.52771086 -0.021602878 0.23114479 -0.015292665 0.11933693 0.07081719 0.1366876 -0.26950014 -0.0624712 -0.40103567 0.18918894 0.05225982 -0.116590045 0.02546594 -0.21178183 -0.13235207 -0.010997489 0.069549166 -0.12906997 -0.07102784 0.06491371 0.061769776 0.1746668 -0.052750763 -0.204326 0.10266248 -0.40172294 0.028482627 -0.23861253 -0.053361587 0.25425747 0.253563 -0.20896578 -0.08477086 -0.0813954
561 0.09708998 0.06779725 -0.042447027 -0.042199403 -0.0023865 -0.35352024 0.18953024 -0.21215443 0.16499338 0.14070192 0.050145708 -0.10615446 0.20918106 0.13108966 -0.028113002 0.1489452 -0.04440393 -0.2472801 -0.22063132 0.09605209 0.031485576 0.15110287 -0.12957086 0.27518585 -0.09705388 0.45967054 -0.09010408 0.038617365 0.04965992 -0.31003976 0.11549496 0.10568962 0.41693482 0.07904975 -0.16645764 -0.2991674 0.0767779 0.16059929 0.17876956 -0.20584998 0.12654649 -0.19639799 0.019336317 -0.06829332 0.08898419 0.04151987 -0.14895451 -0.11527981 0.18540183 0.38729617 -0.4199979 0.088169724 -0.009288622 0.1053982 -0.16139767 0.069326654 -0.21827152 -0.10613257 -0.43701702 0.02594093 -0.087876156 0.15787385 -0.053244084 0.602252 0.24365072 -0.16487455 -0.07508809 -0.26181105 0.029667497 0.00809002 0.41431203 0.0946031 0.015726525 0.08704447 0.12180809 -0.009763241 0.10682405 -0.2562299 0.115914255 0.39132884 0.08891757 -0.27535298 0.10437332 -0.169198 -0.15317635 0.11991123 0.042668473 0.2444674 0.11471104 -0.16239151 0.028846659 0.003220794 0.033818584 0.05371013 0.0017120941 0.3229506 0.17904466 -0.067824356 0.30192965 0.12940042 -0.29777095 0.21761186 0.0030517562 0.28837118 -0.24767329 -0.004917459 0.2913267 0.014586896 -0.031141885 0.16607791 0.18337102 0.12418264 0.08972624 0.17985027 -0.054496203 -0.12121223 -0.3167535 -0.01300605 0.1512226 0.11728752 0.0048708105 -0.19236156 0.23163496 0.10274168 0.08230158 -0.24512005 0.18370785 -0.16183355
633 0.10893991 -0.037728664 -0.050831255 0.015311141 0.004892543 -0.32834312 0.11861325 -0.10327963 0.20806418 0.24927592 0.044659965 -0.08525768 0.23065901 0.16220975 -0.124510266 0.06303672 0.000979598 -0.18346184 -0.21263397 0.11014832 0.013032907 0.13414504 -0.120250635 0.32463485 -0.12847562 0.48586714 -0.097480215 0.04317671 0.034254022 -0.2784408 0.12292991 0.017765414 0.441298 0.008452482 -0.1599237 -0.18271865 0.12782907 0.26505134 0.08864874 -0.23015057 0.09567978 -0.12069625 -0.045315713 0.026399298 0.108210586 -0.040122338 -0.09070371 -0.14424111 0.24539118 0.4654933 -0.4161768 0.10592255 0.026697636 0.045349333 -0.18269843 0.12178728 -0.26431525 -0.018557712 -0.28888303 0.020452626 -0.099489056 0.04873519 0.0022854186 0.59533626 0.21880224 -0.23033674 -0.06270616 -0.22187197 -0.014928146 -0.038546935 0.2916332 0.056487262 -0.052259684 -0.0038902073 0.118944235 0.025046667 0.19705012 -0.27485698 0.111161724 0.31660968 0.0022416187 -0.3402584 0.06797512 -0.1527193 -0.18436712 0.21474142 -0.04309678 0.22512211 0.09988083 -0.17391409 0.018841261 0.1126852 0.07633677 0.09398339 0.014594144 0.33990997 0.08898455 -0.046121128 0.20663117 0.22820655 -0.31487012 -0.01683864 -0.16360533 0.18803868 -0.2709867 0.051954098 0.2440364 0.06685417 0.017955745 0.1512637 0.23286733 0.08490453 0.1271401 0.13419197 -0.18774721 -0.18403742 -0.31502378 -0.1499568 0.16332904 0.12737142 0.019493744 -0.05454639 0.18363175 0.050916735 0.1864735 -0.2744688 0.17732559 -0.13234852
619 0.04547217 0.111403435 0.014233779 -0.12951331 0.121948145 -0.30767065 0.15425171 -0.09039179 0.16972494 0.17211547 0.0167897 -0.08985618 0.20371886 0.14135131 -0.08308419 0.016401198 0.051322885 -0.26601648 -0.21236275 0.046862923 -0.01889945 0.13341513 -0.13197401 0.33663058 -0.10697256 0.4352541 -0.072620474 0.039589208 0.13106538 -0.3296806 0.15754464 0.00807753 0.32476762 0.09712545 -0.22566696 -0.22964862 0.0983778 0.23461577 0.10229375 -0.16253604 0.1292625 -0.047674686 -0.04164615 -0.006794114 0.07318301 -0.014350045 -0.11547177 -0.11489351 0.26318944 0.35736626 -0.34776005 0.108642206 0.08407261 0.15015946 -0.12620881 0.056275416 -0.35006014 -0.0665363 -0.38442412 0.050175864 -0.041890804 0.06128528 0.00092010526 0.59672683 0.28035107 -0.16033357 -0.10833351 -0.205934 -0.0869137 -0.053791486 0.30880514 0.10863864 -0.065816194 0.10920519 0.09498002 0.05223951 0.16836038 -0.31783238 0.12196493 0.3789226 0.04916059 -0.3070099 0.05107544 -0.2356894 -0.21357045 0.21276687 -0.028940082 0.22705904 0.15105945 -0.13444917 0.068341635 0.044153556 0.11531698 0.04425058 0.0515566 0.28962836 0.077601954 -0.04247217 0.17698199 0.22857098 -0.26371297 0.058830157 -0.22593337 0.29551008 -0.25327712 0.0872751 0.26157257 0.0344839 0.027081614 0.15491153 0.23038115 0.13150011 0.08086846 0.22815472 -0.17971317 -0.10747033 -0.26120126 -0.10779607 0.12213104 0.16338466 0.1161588 -0.15481664 0.14759836 0.02246139 0.2593492 -0.25470877 0.15833345 -0.21888775
587 0.1247915 0.014269811 -0.13845497 0.025491988 -0.0124789495 -0.3438184 0.18334647 -0.09478979 0.20157276 0.17012046 0.05007203 -0.12321983 0.19594254 0.12405225 -0.057610817 0.14792496 -0.10904304 -0.31865567 -0.27386466 0.02197454 -0.061105866 0.12922208 -0.102698505 0.33690497 -0.1849902 0.43539423 -0.14519842 -0.009323744 0.05460309 -0.31855002 0.20149511 0.073224075 0.3883182 0.14445488 -0.11954073 -0.30815572 0.18487005 0.14910975 0.16253528 -0.13297513 0.15387368 -0.16999081 -0.017864678 -0.092636056 0.18969369 -0.042357977 -0.17160222 -0.21708658 0.24747342 0.43538466 -0.29496852 0.123238035 0.0022858223 0.07494168 -0.17511706 0.15177582 -0.2374595 -0.103730746 -0.34106398 0.07738922 -0.09891483 0.18210629 0.010074604 0.49283877 0.3343355 -0.08069381 -0.045157026 -0.2714907 -0.021097263 -0.034462426 0.3392174 0.15582849 0.02479371 0.07912458 0.1655463 0.09088207 0.1802185 -0.19294582 0.13249579 0.33307827 0.046744797 -0.32222217 0.049675185 -0.16997014 -0.2056608 0.1956931 -0.04358445 0.21969286 0.12065633 -0.16848914 0.08109387 0.0009490223 0.05152319 0.0238192 0.0031110668 0.25154588 0.12336986 -0.114374176 0.2006051 0.15574545 -0.29579946 0.1332872 -0.08142132 0.2595627 -0.21275446 0.091864 0.28476527 0.053459603 -0.055870857 0.21888264 0.15879208 0.15020397 0.17976488 0.114310935 -0.10918925 -0.17055218 -0.24019179 -0.11160783 0.14477752 0.12680489 0.08343725 -0.12437865 0.1825555 0.051260304 0.2594968 -0.225306 0.15759216 -0.18172665
603 0.055584233 -0.002670773 -0.12682217 -0.02814708 0.057829756 -0.35272965 0.113926 -0.16863371 0.18501164 0.13045497 0.055152014 -0.12133581 0.25476125 0.1955454 -0.019231124 0.11812014 -0.105505995 -0.29258415 -0.22111009 0.09117413 -0.029702637 0.06757374 -0.16899942 0.3881833 -0.101463966 0.46554977 -0.13091546 0.042623483 0.028849432 -0.2621217 0.17555366 0.021457035 0.29160568 0.04549198 -0.24344818 -0.27505872 0.13882954 0.24300148 0.079786815 -0.14604478 0.09739673 -0.033163093 -0.04915955 0.0013077324 0.122600704 -0.013924016 -0.062322896 -0.09028694 0.1616295 0.40729177 -0.3448027 0.12884413 -0.08243503 0.0627948 -0.13527097 0.070804864 -0.20077877 -0.0858945 -0.3347794 0.11285484 -0.15099877 0.17579669 -0.048983723 0.53288805 0.24033527 -0.15711959 -0.04123675 -0.19561324 0.0744848 0.056604177 0.26962668 0.051565077 -0.004935473 0.078469425 0.1949305 0.13207206 0.10748674 -0.228124 0.11261676 0.38393128 0.1420942 -0.33576846 0.07522332 -0.08996705 -0.17672145 0.17216867 0.0235812 0.2784811 0.075142324 -0.25844145 0.008067184 0.034358636 0.042406127 -0.046735622 0.0728775 0.26468995 0.057807073 -0.013432977 0.18205963 0.14007264 -0.3077884 0.13230264 -0.12280585 0.24096513 -0.26348925 0.14495933 0.21115601 0.07052879 0.10461609 0.25565067 0.21305557 0.20731167 0.25024328 0.21213028 -0.14317976 -0.16607383 -0.30891636 -0.06828802 0.10956144 0.14484587 0.08346427 -0.1273485 0.08442156 0.03797372 0.11797362 -0.2945306 0.17708942 -0.21843979
605 0.067800775 -0.0071328618 -0.09187515 -0.0683963 -0.026731974 -0.31145972 0.09651491 -0.15109605 0.12934305 0.20248814 0.14942218 -0.08932515 0.23251219 0.13131443 -0.12752253 0.08206684 0.0292819 -0.24604112 -0.2727289 0.081243396 -0.03042421 0.09493757 -0.105522685 0.31976375 -0.1418524 0.46528205 -0.14378974 0.037790176 0.07754708 -0.33776832 0.2154555 -0.049942717 0.4155831 0.11288222 -0.22193013 -0.3226115 0.100492924 0.13206698 0.091308266 -0.25602424 0.16944417 -0.06794253 -0.050716292 0.038146798 0.16756046 0.03636402 -0.17472811 -0.14828908 0.25845382 0.46762893 -0.35308313 0.13918145 0.028839244 0.072707 -0.14207461 0.052089047 -0.30103377 -0.011350807 -0.34872565 0.08942447 -0.054716364 0.16352962 -0.016429832 0.5088115 0.29798898 -0.15276067 -0.0933175 -0.17915532 -0.015249057 0.0105487015 0.26033214 0.0633416 -0.06749441 0.060111023 0.17720063 0.12986001 0.19509457 -0.24400006 0.12694576 0.35634318 0.12417344 -0.309447 0.12342698 -0.14311658 -0.16272204 0.19303538 -0.06479141 0.26779553 0.17609407 -0.26552364 0.08497168 -0.03959189 0.12671603 0.05492039 0.109752856 0.24724497 0.15553685 0.04522838 0.24047048 0.14246798 -0.3049661 0.1065972 -0.17113322 0.25039113 -0.19347322 0.075188085 0.22126101 0.08199397 0.025261069 0.18275154 0.1717281 0.19729842 0.15995057 0.07545613 -0.23577347 -0.21025608 -0.26614046 -0.09696997 0.12187751 0.11213898 0.096672155 -0.16878799 0.14938731 -0.002402082 0.13357809 -0.26623082 0.18699245 -0.051486652
585 0.04627738 0.043524675 -0.09021416 -0.010117484 0.04714939 -0.32604963 0.15773138 -0.17634358 0.12725721 0.19027397 -0.022563834 -0.1491007 0.1458 0.22038035 -0.119560465 0.09469741 -0.0818286 -0.30473244 -0.24539332 0.10761547 0.035380483 0.24402158 -0.11647084 0.27616528 -0.10896053 0.48618123 -0.07237266 -0.00541361 0.114320815 -0.36487514 0.1528296 0.001484798 0.34526038 0.1360698 -0.24493328 -0.27563047 0.15271603 0.21162254 0.17581207 -0.1549988 0.15596893 -0.22856869 -0.03127973 -0.0192662 0.033192854 0.0536266 -0.10845077 -0.1458051 0.25009185 0.41931874 -0.40357238 0.0444932 0.0059041097 0.18186833 -0.14835857 0.16026531 -0.38304684 -0.06772556 -0.34454492 0.06490837 -0.12757967 0.1950459 -0.08244269 0.5373388 0.18339771 -0.09928231 -0.103749536 -0.24960682 -0.08017747 0.0010213127 0.31419504 -0.014577832 -0.030137358 0.0252624 0.1881435 -0.0006259801 0.1287957 -0.19423398 0.086402364 0.37558937 0.06641234 -0.29712594 -0.0003146083 -0.16893812 -0.059078313 0.18478164 -0.017690921 0.27819288 0.027536718 -0.24732164 0.10297395 0.026055308 0.060674332 0.019179681 -0.013254659 0.26078737 0.07352722 -0.05361708 0.3182757 0.13475522 -0.35167134 0.13993622 -0.078987285 0.29598248 -0.09504417 -0.03041824 0.30412975 0.070226364 -0.033318568 0.15260212 0.1788322 0.10641241 0.087792 0.14129037 -0.19662234 -0.16556813 -0.3266213 -0.11713399 0.15916717 0.0490435 0.0073465793 -0.10977922 0.1802811 0.017683016 0.13379246 -0.25369933 0.1947221 -0.16654631
631 0.04729144 0.007690536 -0.095960535 -0.09683545 0.0060118176 -0.35249493 0.1349918 -0.07419452 0.21367092 0.16126907 0.010162145 -0.029629456 0.2541536 0.13937116 -0.11060838 0.11805215 -0.021941733 -0.3024811 -0.2153798 0.043218397 0.011176988 0.04118631 -0.2014757 0.32437617 -0.089211985 0.3312555 -0.042242 0.01835021 -0.015568697 -0.30243137 0.06434683 0.020655867 0.30381098 0.0401258 -0.19372325 -0.22435649 0.0030363605 0.21535319 0.10937078 -0.19572121 0.1304016 -0.08577428 -0.06281169 0.0062379804 0.17701279 -0.027399248 -0.09105994 -0.13899657 0.22239272 0.40566927 -0.38636646 0.11520773 -0.011018766 -0.022302318 -0.13001208 0.11418124 -0.24370532 -0.034243673 -0.37034178 0.09017463 -0.09689556 0.15997127 0.043957822 0.5631452 0.25489813 -0.21602201 -0.018859247 -0.13623874 -0.017391179 -0.033219047 0.39349326 0.12512535 -0.057566956 0.008447633 0.17430325 -0.018136965 0.28870592 -0.2878729 0.14620724 0.23476726 0.0954151 -0.38340855 0.09848233 -0.17761888 -0.12346204 0.18792164 -0.101574294 0.25763765 0.06127067 -0.23935392 0.03688216 0.113487355 0.026387902 0.013062422 0.06049352 0.2683587 0.041139297 -0.026591118 0.19762343 0.24067666 -0.26729456 0.0996029 -0.22029908 0.23230569 -0.26676837 0.09004876 0.24217235 0.12738474 0.086506024 0.116449006 0.2056048 0.1650869 0.040973976 0.2361594 -0.25352585 -0.20878588 -0.3751653 -0.05599308 0.14177893 0.08865917 0.07708837 -0.16663437 0.20222996 0.064493895 0.16510093 -0.26647356 0.14694528 -0.13292247
629 0.07594559 0.035263486 -0.06436566 -0.030646361 0.06734343 -0.38320193 0.12580168 -0.070486106 0.16097005 0.18977538 0.03720983 -0.0838965 0.15716939 0.048427306 -0.034985665 0.15224521 0.009240369 -0.3277976 -0.104974896 0.105035424 0.0063608717 0.04370877 -0.17564994 0.2925035 -0.07828586 0.4268394 -0.06252258 0.06985665 0.09848575 -0.3250487 0.114992805 0.10239751 0.2960668 0.049606588 -0.2013836 -0.27957442 0.039974134 0.2640656 0.09356636 -0.18739107 0.10948722 -0.1310838 -0.035330728 0.09560961 0.16680902 -0.030008532 -0.13567403 -0.17872863 0.22799246 0.42132568 -0.38214472 0.093382135 0.092476554 0.12389251 -0.17633507 0.065783545 -0.34055716 -0.09707388 -0.32194096 -0.0386921 -0.14442456 0.05819496 0.03962466 0.52449614 0.15617274 -0.16043435 -0.1218209 -0.25723314 -0.017367277 0.0020219411 0.37151107 0.11399258 -0.07264701 0.044492636 0.1595413 0.06157414 0.20613784 -0.28090972 0.12462234 0.33307678 0.0949243 -0.3321796 0.035713825 -0.21773857 -0.24700174 0.19846432 -0.05786498 0.20008807 0.05652772 -0.16863133 0.06369856 0.12807214 0.016691918 0.042092316 0.08533578 0.30986798 -0.043874975 0.0746534 0.18667214 0.23893826 -0.2613961 0.20990342 -0.15199238 0.23909326 -0.20245956 0.021451829 0.32320923 0.06892484 0.011056002 0.18162537 0.2126282 0.18373975 0.030626286 0.19509985 -0.18479858 -0.14246118 -0.34992206 -0.07237226 0.105257064 0.14891998 0.13489127 -0.1190245 0.13527563 0.023348134 0.13595225 -0.35289165 0.13314764 -0.15062912
623 0.027692752 -0.0092381025 0.013969046 0.018152058 0.015256519 -0.2998198 0.11826414 -0.21834664 0.20141937 0.13774382 0.04048249 -0.104244865 0.14453211 0.16486268 -0.06415314 0.09006796 0.017301023 -0.32969734 -0.20413603 0.095018685 0.019456051 0.1655581 -0.011975395 0.32745826 -0.13098441 0.39711937 -0.110296614 0.016687999 0.06413191 -0.21015158 0.17385978 -0.0036673972 0.36668888 0.025456287 -0.20241703 -0.26342252 0.16063151 0.25092143 0.074677944 -0.1820549 0.12123935 -0.17956817 -0.023504471 0.027270399 0.14426468 -0.014189835 -0.02539612 -0.1725265 0.261342 0.38646382 -0.27534345 0.08115081 0.018377915 0.024036603 -0.25866836 0.09173468 -0.340636 -0.053360503 -0.34359068 -0.009815157 -0.067480065 -0.00036471768 0.0053058444 0.4650541 0.27137432 -0.1313991 -0.0871257 -0.26922724 -0.073184505 -0.08337438 0.29474306 0.16207609 -0.060826976 0.055731572 0.2277955 0.09841468 0.15763007 -0.25820908 0.09073548 0.32970303 0.04342807 -0.36395895 0.06194228 -0.21688078 -0.19107035 0.21495643 -0.026779514 0.20036834 0.11506812 -0.32612923 0.09994536 0.08800014 0.08144883 -0.015644658 0.10258231 0.42057976 0.11802889 0.0420431 0.17655168 0.15649194 -0.26677257 0.20080872 -0.13787165 0.21670882 -0.3102153 0.06620873 0.24408865 0.09564802 0.050331116 0.13884273 0.19244894 0.1452551 0.05724852 0.12773615 -0.13648516 -0.18280727 -0.3320194 -0.047886882 0.15089145 0.10361472 0.010578028 -0.10216957 0.19416313 0.06229361 0.16243221 -0.3389749 0.23055294 -0.20775005
621 0.07539193 0.049930267 -0.028195955 -0.020081148 0.103709474 -0.27500543 0.12499006 -0.21877688 0.2076017 0.14063722 0.08337255 -0.03860652 0.16369262 0.061464768 -0.07233375 0.06752842 -0.051620975 -0.22166717 -0.17414793 0.07212463 0.023176054 0.092681415 -0.09625562 0.22420846 -0.10485577 0.4935655 -0.1335034 -0.032390226 0.074161954 -0.3193801 0.1495067 0.08086767 0.33368203 -0.0017015695 -0.19466256 -0.28716102 0.082475096 0.23706324 0.17047384 -0.20534422 0.19435167 -0.14651462 0.009609629 0.0057897186 0.12667313 -0.07995318 -0.08631002 -0.09166387 0.28260523 0.43684882 -0.3153998 0.08586491 0.033410978 0.026174415 -0.17821081 0.13013731 -0.3101234 -0.10882737 -0.31503394 0.046114914 -0.17568634 0.029851137 0.015617101 0.5585169 0.31180438 -0.09775377 -0.108319424 -0.2708835 -0.064464115 -0.06582754 0.29629633 0.055478252 -0.042729 0.11559466 0.15747239 -0.002404311 0.23277594 -0.20120458 0.106993034 0.3507019 0.070958875 -0.38041434 0.19421561 -0.16204265 -0.18855362 0.24686591 0.009711824 0.2132797 -0.011778367 -0.2540047 0.11853504 0.12603833 0.055047445 0.01619332 0.04151377 0.31453705 0.041033003 -0.025269074 0.2003611 0.25601545 -0.3046176 0.10310983 -0.17190267 0.16321073 -0.21641472 0.08628515 0.23122816 0.15648608 0.0733584 0.17727166 0.18211778 0.19786976 0.0041436334 0.12425054 -0.23016368 -0.24188155 -0.42496973 -0.03594156 0.09863446 0.076133974 0.077791005 -0.11277517 0.1796943 0.06542383 0.16228756 -0.27615517 0.13782789 -0.14516771
573 0.13624963 0.052020103 -0.053939704 -0.021370836 0.034340836 -0.29405245 0.11318598 -0.17724577 0.1557963 0.1495748 0.10496491 -0.1119186 0.09982243 0.20501854 -0.047248553 0.09054817 -0.06935934 -0.24444836 -0.25819233 0.044865627 0.031565953 0.07858725 -0.20104899 0.34433007 -0.22728205 0.46936345 -0.11454277 -0.0006699505 0.015405262 -0.3370197 0.10889399 0.15852802 0.41772306 0.07847547 -0.24740422 -0.21670456 0.123870485 0.2336998 0.06158789 -0.1914591 0.10347771 -0.16896936 -0.04187994 -0.05423123 0.09474555 0.0030197846 -0.1463748 -0.20180035 0.15160072 0.38561657 -0.3958424 0.023306452 0.0045590615 0.04591791 -0.18248595 0.15922628 -0.25968754 -0.05962551 -0.3747289 0.07986223 -0.13833427 0.09777218 -0.044250946 0.5524364 0.25591183 -0.11714898 -0.099352196 -0.21301776 -0.061928075 -0.07534851 0.24642992 0.05553025 0.030059554 0.07105845 0.13425764 -0.03927185 0.12999873 -0.24089773 0.13646907 0.41967598 0.050073273 -0.30861235 0.107670814 -0.25923702 -0.31951487 0.14935783 -0.014633789 0.21454865 0.08564788 -0.1944005 0.07739818 0.018445821 0.0875746 0.025834613 0.009746185 0.30970588 0.09041706 -0.03882114 0.26039743 0.20172116 -0.27949604 0.15347798 -0.07829761 0.23886187 -0.20931105 0.026551312 0.31785858 0.08850469 0.050135955 0.16021581 0.12600367 0.16770397 0.11551577 0.16782407 -0.22954968 -0.16704527 -0.30618533 -0.051689837 0.13230433 0.12094436 0.05962993 -0.16129112 0.15653314 -0.011730598 0.13696922 -0.2565012 0.24689387 -0.15427881
658 0.046303187 0.108776085 -0.0903301 -0.0027468372 -0.05000001 -0.38186178 0.03295513 -0.15615769 0.17469479 0.15716487 0.012959018 -0.15914099 0.3811959 0.26203156 -0.027899982 0.108059175 -0.060025174 -0.18554178 -0.32594833 0.13645706 0.020585723 0.26952407 -0.120535836 0.21636735 -0.100480415 0.48458067 -0.17635511 0.14090411 0.24281088 -0.34773242 0.19234055 -0.035267096 0.5394269 0.21244812 -0.11839561 -0.30537763 0.15968752 0.18730807 0.11628176 -0.21515967 0.065120526 -0.057171136 0.04261978 0.03531333 0.11189562 -0.1249176 -0.13426355 -0.13065939 0.2453979 0.37265578 -0.30777568 0.03478423 -0.012900615 0.043029066 0.01768252 0.07606175 -0.27659684 -0.11268682 -0.22234485 0.0098055415 -0.0026453964 0.18689789 -0.047015138 0.52516 0.2610421 -0.21356535 -0.1304406 -0.2642619 -0.11331179 0.026999285 0.29550633 0.016216386 0.04899129 0.16099839 0.15734625 -0.03243478 0.21887998 -0.26750022 0.052347038 0.21119726 0.06353764 -0.2714501 0.1957025 -0.23811543 -0.17889746 0.20039192 -0.019927148 0.32069245 0.05883611 -0.1746656 0.07270042 -0.04985128 0.017662594 0.12193789 0.075056635 0.2512394 0.16869627 -0.021566374 0.24777871 0.10081194 -0.28550747 0.121742286 -0.109149836 0.21785231 -0.28175288 -0.03806516 0.26892006 0.06294841 -0.07142381 0.11904002 0.21813655 0.24908412 0.20336285 0.14942032 -0.20981957 -0.19455153 -0.30375004 -0.10092847 0.10743413 0.06555209 -0.032293286 -0.17787321 0.21281534 0.0279951 0.15609272 -0.20945008 0.23906651 -0.12528127
627 0.03278124 0.12348735 -0.029747909 0.014099459 0.02133217 -0.22685267 0.12183802 -0.122851714 0.17735991 0.078151345 0.058782972 -0.06511796 0.10348094 0.12763698 -0.069517046 0.06248538 0.01836798 -0.32028118 -0.08740495 0.07410493 0.030822534 0.083024405 -0.15616298 0.29964474 -0.18809102 0.39023852 -0.10183303 -0.04249874 0.06339438 -0.26862392 0.08132722 0.024214305 0.36429533 0.010948387 -0.22996259 -0.23535278 0.10155904 0.32474107 0.14385386 -0.1456153 0.11811776 -0.1263008 -0.0016462953 0.033784304 0.15934528 -0.03054209 -0.16057959 -0.09304498 0.20875938 0.45646712 -0.31531206 0.1212653 -0.0056306343 0.029121231 -0.20147094 0.10038664 -0.3276126 -0.106356 -0.408858 -0.01891749 -0.12164546 0.10723058 0.02665629 0.547333 0.26795542 -0.14104122 -0.13398503 -0.21231589 -0.04280417 -0.11846006 0.32068327 0.041162837 -0.110771544 0.115199156 0.14557368 0.09121271 0.24512078 -0.24628717 0.15813105 0.32789165 0.1201134 -0.3600537 0.11205397 -0.1823509 -0.26137245 0.1676082 -0.08959718 0.10891384 0.11328076 -0.30708793 0.10598071 0.1109268 0.09824399 -0.016450014 0.08212461 0.34512126 0.032153673 -0.010010793 0.24566783 0.29719442 -0.35805312 0.1429654 -0.15097262 0.21058325 -0.23610495 0.10719088 0.20780975 0.14177667 0.09442665 0.120687865 0.13524465 0.2386508 0.0744037 0.16510782 -0.19012609 -0.1721179 -0.32677072 -0.07074816 0.10684403 0.17156154 0.057930484 -0.10256642 0.17042017 0.10374283 0.2039786 -0.2964393 0.14648704 -0.12978698
625 0.067464024 -0.0165105 -0.077749826 -0.008367681 0.033375353 -0.34487256 0.19854824 -0.12588465 0.19046639 0.063449845 0.09136955 -0.05795473 0.20351474 0.047220957 -0.073407285 0.06240801 -0.0035498918 -0.26946175 -0.25025657 0.094505206 -0.08678198 0.025033664 -0.08972116 0.35626146 -0.21321836 0.45469072 -0.090571895 0.00071666756 0.08541015 -0.26048192 0.045829866 0.023538228 0.28989097 0.055428416 -0.16770166 -0.26543337 0.072689384 0.3322472 0.08329703 -0.16097444 0.16010119 -0.161442 -0.0968504 -0.0008976088 0.2172184 -0.054043494 -0.1403193 -0.10356563 0.21671455 0.43247694 -0.28230476 0.111214586 0.024437614 0.01945205 -0.2811169 0.103303656 -0.36475268 -0.08180902 -0.3209625 -0.00033207677 -0.12774391 0.07106591 0.021349862 0.505644 0.22111405 -0.1762466 -0.13223465 -0.1594261 -0.108138196 -0.019516658 0.30498403 0.12817627 -0.0065948027 0.07869025 0.15712707 0.04133875 0.119762145 -0.31969407 0.1077314 0.41613555 0.11306516 -0.45334113 0.032650646 -0.15195443 -0.18627474 0.1485462 -0.15016311 0.21898293 0.19902797 -0.32403064 0.005505362 0.008047609 0.05424575 -0.046898823 0.12622103 0.2960818 0.070281364 -0.018729182 0.17556997 0.3023823 -0.21430644 0.11088304 -0.18911316 0.21908307 -0.28047624 0.042423952 0.2992988 0.04986218 0.057844523 0.14651051 0.16447161 0.17780983 0.11196665 0.07018243 -0.18503368 -0.209932 -0.31107423 -0.05636756 0.09053802 0.13822815 0.044808175 -0.19919218 0.048122324 -0.009477162 0.1859189 -0.21469739 0.20479037 -0.16728199
564 0.065057196 0.0711476 -0.05782002 -0.06379637 0.076413035 -0.29072887 0.14833525 -0.1574825 0.13108265 0.19099246 0.055591065 -0.020481927 0.18407185 0.1501271 0.0051114736 0.09494518 0.029458059 -0.3260814 -0.26271728 0.04607315 0.021313973 0.087050796 -0.12662841 0.35060292 -0.14360178 0.4931767 -0.12276418 0.056485698 0.02656718 -0.2937818 0.13232252 0.052335326 0.3386504 0.084413685 -0.24858825 -0.2491404 0.06771788 0.17337245 0.16715774 -0.14188978 0.16117346 -0.1269038 -0.04319828 0.105702266 0.23744921 -0.029325832 -0.033651475 -0.10831024 0.255123 0.3494436 -0.3610106 0.054980256 -0.046639137 0.037248284 -0.18055439 0.10632947 -0.3004644 -0.06757498 -0.38894925 0.0061253062 -0.14030527 0.102277294 -0.025379242 0.6123238 0.25533667 -0.10988477 -0.11866522 -0.29273692 -0.07608366 -0.052639075 0.3488413 0.10764325 -0.021014256 0.010387225 0.16865766 0.09191131 0.12251247 -0.21203099 0.07626823 0.31031525 0.17538252 -0.31461447 0.073206976 -0.25571805 -0.15687925 0.08069615 -0.012627475 0.19821812 0.11023342 -0.23219347 0.0041807904 -0.04177034 0.10695094 -0.0051293354 0.05524077 0.35106087 0.10296383 -0.054058578 0.22074965 0.15106 -0.26021898 0.13382219 -0.15608129 0.27615184 -0.24765655 0.05798675 0.23212062 0.065845676 0.0935455 0.1007455 0.23930958 0.13674654 0.08456811 0.109292075 -0.17887731 -0.2070354 -0.30722672 0.0054667937 0.19213353 0.21016999 0.020964647 -0.16525319 0.17012389 0.1029595 0.18157876 -0.26008505 0.1605296 -0.07331353
575 0.06485931 0.049281128 -0.17299102 0.019907143 0.11980356 -0.32667893 0.21253464 -0.12639864 0.13611378 0.0895372 0.092394575 -0.031854693 0.15101412 0.17754771 -0.025820008 0.13295291 -0.0060142204 -0.25462875 -0.22275099 -0.030133907 -0.022989027 0.07809887 -0.17520194 0.3247975 -0.07680342 0.48732233 -0.045715615 0.03376254 0.041605264 -0.37252855 0.15903082 0.09899829 0.32665837 0.16599554 -0.27662167 -0.32706314 0.1619837 0.21289553 0.109851725 -0.10064591 0.10012259 -0.16859129 -0.06677623 -0.031235885 0.17855732 0.060126908 -0.1255888 -0.115937956 0.25776786 0.49159545 -0.3942653 0.1299468 0.0068599596 0.07805799 -0.16694832 0.14142966 -0.19460061 -0.030577913 -0.3806794 0.0965468 -0.10579965 0.117968425 0.014914638 0.5625447 0.29470265 -0.12610474 -0.12956965 -0.23214689 -0.08109038 0.028889965 0.30546597 0.029133458 -0.011936435 0.12748504 0.16918492 0.090259634 0.10109522 -0.20921136 0.15269837 0.38596702 0.1596694 -0.34300503 -0.045214523 -0.17547174 -0.18788145 0.19809902 0.011528089 0.25370598 0.08086291 -0.2895046 0.074018106 0.009053358 0.037044697 0.047291134 0.027532296 0.29850376 0.1145715 -0.02959924 0.17662163 0.22113422 -0.26944017 0.09933861 -0.1375714 0.23093574 -0.26093155 0.020491488 0.20516582 0.082564645 0.029244056 0.20300628 0.1488514 0.05940544 0.12090789 0.20152067 -0.10847286 -0.22159171 -0.26979402 -0.06866052 0.15560481 0.15242761 0.08576443 -0.16245314 0.11625085 0.04164203 0.17347391 -0.15601748 0.13777293 -0.11424556
589 0.0349337 0.049127277 -0.016680032 -0.053282864 0.090849146 -0.20781316 0.10032516 -0.16938409 0.14261411 0.11716386 -0.069405295 0.024184378 0.15320075 0.14210533 -0.12920117 0.030771416 0.015420294 -0.29942492 -0.056068342 0.03486641 -0.026628729 0.117933765 -0.077467285 0.40586418 -0.22517028 0.39542753 -0.05805895 0.015355672 0.011328375 -0.2428874 -0.007601652 -0.033122085 0.29824305 0.023382211 -0.080680795 -0.24385825 0.14196967 0.21668544 0.14523244 -0.11606415 -0.030755635 -0.07912328 -0.056108326 0.062202923 0.20950629 -0.03790851 0.019184055 -0.10578463 0.18074174 0.3776964 -0.24375384 0.02591059 0.09896331 0.09667862 -0.2518846 0.09490966 -0.32072556 -0.024010098 -0.45198637 -0.042537823 -0.12604076 0.032719973 0.024877533 0.555145 0.3504292 -0.12602834 -0.105398 -0.1816707 0.10018008 -0.030867685 0.37907183 0.1109087 -0.015297288 0.060492277 0.18761198 0.068392076 0.2025223 -0.3222889 0.16105206 0.3682901 0.11932621 -0.34074783 0.12373399 -0.3224164 -0.27047426 0.24920094 -0.028512707 0.14091913 0.033119723 -0.2119585 0.14901245 0.09611564 -0.011280414 0.01580162 0.08207943 0.29325473 0.04818034 -0.01974435 0.21307816 0.24180274 -0.25664198 0.1258309 -0.23120892 0.20794882 -0.29312983 0.16675457 0.112042725 0.1419804 0.0014408907 0.17301583 0.13367203 0.16683795 0.10341716 0.10865651 -0.292209 -0.18068513 -0.3426809 -0.02711795 0.22425604 0.21450488 0.12398283 -0.13136145 0.13375159 0.029575253 0.16514124 -0.35730413 0.18077108 -0.3215866
583 0.06831939 0.025029175 -0.05520009 -0.0806806 0.0351374 -0.23239538 0.21294223 -0.1588621 0.19920735 0.12918738 -0.012546849 -0.0050209276 0.22420397 0.0072766673 -0.16138601 0.04183467 0.026809055 -0.3207965 -0.10875423 0.043266404 0.08637655 -0.0035847668 -0.090988606 0.38671657 -0.15731354 0.38689616 0.016116655 -0.0050821886 0.092610694 -0.23944688 0.12103516 -0.0804803 0.3109204 -0.0028790534 -0.11024478 -0.17664142 0.14895116 0.28502738 0.03573797 -0.18115355 -0.011131513 -0.16071 -0.058769103 0.00083490723 0.28115767 0.119441144 -0.050639614 -0.1349146 0.23139471 0.39617187 -0.3021655 0.1117345 0.022154242 0.1104619 -0.23654316 0.065012634 -0.33237037 -0.06109762 -0.37869725 0.045267943 -0.033398114 0.0023971233 -0.0016068186 0.62308794 0.15881145 -0.09393666 -0.19834405 -0.16107173 -0.086466074 -0.08930323 0.34777257 0.08695311 0.004438715 0.107800305 0.24575211 0.07090091 0.19351235 -0.37178233 0.17584722 0.34996936 0.06571722 -0.39034832 0.14346604 -0.26415315 -0.26631778 0.18804912 0.07086678 0.19527811 0.16222821 -0.17979783 0.14493957 0.12032982 0.040081397 0.026469095 0.07434131 0.2655646 0.006723443 -0.05949099 0.25501955 0.1833509 -0.19219454 0.24467716 -0.20035774 0.319557 -0.28189766 0.09688527 0.22373697 0.09947816 0.03655222 0.030269945 0.1808342 0.15121095 0.07958467 0.24111718 -0.23125929 -0.16906261 -0.27843592 -0.10251879 0.1357368 0.12594925 0.12164959 -0.15648477 0.19443315 0.008240918 0.20335053 -0.293869 0.19509213 -0.23367457
607 0.033230133 0.0047095385 -0.028136903 -0.006428801 0.041298654 -0.27849793 0.3154192 -0.14672183 0.1590216 0.044683333 -0.029051466 -0.096954875 0.124353595 0.11133662 -0.120106876 0.00873436 -0.0054535368 -0.27322584 -0.17288111 -0.041750237 -0.048027527 0.10713958 -0.038015574 0.35628772 -0.2312656 0.38371414 -0.012459221 -0.013703169 0.06939636 -0.22085644 0.05535964 -0.015831139 0.34083712 0.017258974 -0.09273559 -0.21023446 0.13589069 0.28543496 0.07686391 0.011307821 0.047113635 -0.043305494 -0.04412243 0.037704736 0.21243569 0.0109496955 -0.04715514 -0.16950744 0.17807433 0.34225798 -0.24947563 0.068678685 -0.00802985 -0.036657088 -0.29873544 0.16367432 -0.3167648 -0.15643346 -0.3692794 -0.03491375 -0.06411793 0.13131979 -0.02351624 0.5842546 0.34612277 -0.13248685 -0.1409101 -0.08125265 -0.055330396 -0.042993866 0.38775873 -0.01189289 0.032096986 0.046218075 0.2854965 0.118172854 0.2606143 -0.2112733 0.1940141 0.29625824 0.00051535905 -0.4269924 0.15584171 -0.16556959 -0.19626795 0.18874143 -0.05124973 0.14651003 0.09506891 -0.2533036 0.14416079 0.046478737 0.21802762 0.06665653 0.10852254 0.2768399 0.039023504 0.08765595 0.1875373 0.2677568 -0.18010963 0.11696373 -0.36614522 0.3455425 -0.36201292 0.099197984 0.22705136 0.102959156 0.1234045 0.0036786778 0.106411755 0.13335279 0.13946474 0.27256125 -0.27467188 -0.18866332 -0.36312917 -0.048708353 0.08906475 0.21564718 0.10513952 -0.14697078 0.15933122 0.00026246687 0.1345331 -0.39466763 0.21229464 -0.18734398
601 0.07186631 0.09119373 0.011509126 -0.046125732 0.12699021 -0.3122145 0.22063285 -0.11253448 0.2065717 0.061847497 -0.022816624 -0.09901781 0.20255046 0.13490981 -0.1230922 0.0029123768 0.074109405 -0.28946412 -0.12089224 -0.025827197 0.024119036 0.07155586 0.016080245 0.43682086 -0.19048576 0.37582326 -0.037435777 -0.037596498 0.010387911 -0.19649202 0.032126762 0.07718862 0.2218794 0.014715653 -0.16277012 -0.27153304 0.17556888 0.32112795 0.17316368 -0.12112384 0.014032521 -0.13016464 -0.054394655 0.055003934 0.23155302 0.033835687 -0.033426657 -0.17124003 0.16193017 0.42584598 -0.26363924 0.0033187415 0.04921388 0.052618954 -0.28701276 0.14238971 -0.3791515 -0.16429102 -0.45395908 -0.016948512 -0.018989142 0.06370766 -0.086094745 0.5573566 0.25038838 -0.028365541 -0.18954498 -0.23681279 -0.08689682 -0.09627365 0.27649269 0.036733568 -0.011504518 0.19083217 0.21893847 0.046049003 0.23168108 -0.29004312 0.2929702 0.28356683 0.05736119 -0.47968778 0.096396394 -0.18286997 -0.22901715 0.13440402 -0.049564414 0.10832332 0.077731654 -0.25829005 0.14804727 0.08248209 0.04230314 0.059785746 0.119224176 0.3313989 0.17889267 0.020559348 0.16303869 0.23776096 -0.24354099 0.23680797 -0.31070015 0.15407012 -0.27336383 0.10134692 0.16585056 0.10953672 0.053850215 0.059538748 0.14819692 0.16920213 0.1465268 0.090542726 -0.31742096 -0.06425876 -0.35909155 -0.1219686 0.15284473 0.22876228 0.058271047 -0.10216752 0.050872393 0.08482688 0.11546612 -0.32069427 0.11369867 -0.23121528
560 -0.15853526 -0.31109735 0.06325167 0.31343836 0.036957476 -0.07568285 0.01668391 -0.11850037 -0.20026802 0.27239183 -0.14529055 -0.24374214 -0.005712371 -0.09305547 0.03407219 0.09619985 -0.018727358 -0.103902176 -0.04756734 0.118563466 0.1688423 0.09473226 -0.5565855 -0.10644339 -0.10777147 -0.17461959 -0.52273023 0.14226636 -0.10218424 -0.40932003 0.18851261 0.24177855 0.17010613 -0.17306511 -0.14511658 0.06899066 0.09837985 -0.10368854 0.10671144 0.10435756 -0.34765476 0.0009462291 -0.0022437458 -0.15574338 0.22874515 -0.09716949 0.05122243 -0.081407726 -0.3293861 -0.12202597 0.109064326 -0.040408753 -0.3910237 0.19354728 -0.31055295 -0.055548735 -0.22956489 -0.15416077 0.02852825 -0.14223294 -0.06486835 0.11606921 0.34146398 0.17554156 0.27376148 -0.13076116 -0.4028033 0.13459426 0.18682127 0.100246385 -0.29946062 -0.18886308 -0.66935444 0.08712461 0.084825285 -0.48487025 0.027869549 -0.21750127 -0.13331035 0.16311619 0.005984693 -0.55347115 -0.028025262 0.04469474 0.14289406 0.35712418 0.14571619 0.15327449 0.21336618 0.0020543386 -0.09625715 -0.52930665 -0.13378422 -0.14909329 -0.0037929679 0.2700083 0.28906795 0.012118593 -0.30324128 -0.15885745 0.1311382 0.105667494 -0.29081428 -0.2129633 0.16054785 0.044758882 0.14489505 -0.0019192211 0.036064386 -0.053706113 0.30889156 -0.07407803 -0.02016606 0.24857937 -0.169011 -0.112077534 0.3260506 0.044379298 -0.083895825 -0.39784643 -0.21104272 -0.20576014 -0.009918828 0.38373622 0.04972545 -0.21804102 -0.20292984 -0.07528042
657 -0.19885579 -0.31436613 0.047208562 0.33216652 -0.17120512 0.10701476 0.101234555 -0.21130076 -0.12786089 0.24492142 -0.18868795 -0.2373717 -0.08336066 -0.22123532 0.049503185 0.13516335 -0.027579976 -0.09497238 -0.108465336 -0.054882813 0.17291081 0.1719191 -0.508039 -0.047433984 -0.09516842 -0.1223747 -0.49536392 0.059111208 -0.09382513 -0.42918333 0.21988623 0.16457994 0.11792034 -0.12988143 -0.17261732 0.062054425 0.08150055 -0.0069858665 0.09041404 0.23083921 -0.187022 0.016019993 0.069612704 -0.198203 0.4130068 -0.1442343 0.03168282 0.07202199 -0.4882833 -0.1322329 0.086190015 0.011853731 -0.13742958 0.15178229 -0.31774637 0.030699212 -0.30088636 -0.11935926 0.046702325 -0.0877714 0.1225106 0.16422246 0.46879062 0.23198053 0.35057622 -0.31718087 -0.30796418 0.016999057 0.17544389 0.19344318 -0.34116063 -0.20846009 -0.66686624 0.024125863 0.083501324 -0.56720704 -0.03891182 -0.14949957 -0.08163384 0.2589054 0.097750954 -0.4096265 -0.031337693 0.12286041 0.25240237 0.39772034 -0.031752855 0.119383074 0.25102878 -0.010423908 -0.079495504 -0.44889843 -0.14451572 -0.2633489 0.085041955 0.33671957 0.24730864 0.03238733 -0.36977595 -0.022711797 0.07993679 -0.022641271 -0.46895522 -0.13414142 0.1761943 -0.03336665 0.04441374 0.08317845 -0.0007060593 -0.007989632 0.26725334 -0.0477617 -0.010759899 0.20736441 -0.18191263 -0.08117553 0.29736528 0.02266537 -0.1911074 -0.35264686 -0.0063477624 -0.098141074 0.06952962 0.3692266 -0.048670713 -0.104996055 -0.24069156 -0.09296173
618 -0.13748845 -0.2562659 -0.069828734 0.23534077 -0.052815456 0.077796906 0.02400928 -0.21400367 -0.18873933 0.2337165 -0.22193862 -0.26841897 -0.06696352 -0.2222298 0.13497865 0.15751018 0.044726506 -0.15179326 -0.02843184 0.1010069 0.20129068 0.11540657 -0.4862308 -0.11980199 -0.21773648 -0.24751996 -0.5165859 0.21756859 -0.06579959 -0.30761912 0.06712516 0.1840821 0.08856482 -0.10070323 -0.1933786 0.03725139 0.16574252 0.0131841125 0.09193477 0.1665515 -0.2941631 -0.047386076 0.038735654 -0.10182026 0.40151173 -0.12739603 0.045345463 0.10434985 -0.33305615 -0.15337285 -0.0553033 -0.0007731216 -0.3065869 0.096235424 -0.26513392 0.02386848 -0.20446129 -0.1899143 -0.03540609 -0.09802662 0.07995308 0.06864339 0.42090753 0.078741 0.20747451 -0.2250377 -0.363811 0.05356982 0.16860628 0.06803419 -0.2992782 -0.240825 -0.78497016 0.022793073 0.12463494 -0.46467584 0.07082195 -0.23170593 -0.13512881 0.2691116 0.07844757 -0.49244612 0.015557331 0.14512777 0.27903885 0.41861108 0.06396523 0.06838223 0.19149764 -0.014545636 -0.16173089 -0.5456102 -0.17270228 -0.2168506 -0.014872023 0.33998513 0.20891318 -0.04180688 -0.18779853 -0.051202312 0.12295989 0.0148020405 -0.32700527 -0.10867168 0.19705719 0.032201357 0.115758754 -0.040178955 0.067944795 -0.007329403 0.2629881 -0.12247016 0.12792054 0.18552704 -0.28001636 -0.0997314 0.20976005 0.086932704 -0.1601401 -0.32649532 -0.046073783 -0.1425931 0.056761593 0.40928057 -0.1217485 -0.1907871 -0.082359746 -0.19645597
572 -0.10136432 -0.33207586 0.058038965 0.26300445 -0.099263795 0.022017945 -0.04720009 -0.13540532 -0.2505813 0.22967473 -0.15702038 -0.3787766 -0.014372016 -0.18217233 0.14416526 0.12873214 0.023032349 -0.10371787 0.0005673461 0.093336485 0.13190275 0.091815494 -0.60136604 -0.13756181 -0.18808772 -0.22555438 -0.57215625 0.18400407 -0.019470578 -0.3508746 0.12593868 0.093735926 0.12394906 -0.19795972 -0.10896535 0.050075237 0.10637105 -0.19385037 0.07668382 0.19051975 -0.20412432 -0.07775263 0.09718974 -0.14114894 0.29206482 -0.123913795 0.053521436 0.002783215 -0.29617253 -0.08665366 0.0216213 -0.024413507 -0.29451445 0.18404846 -0.3256399 -0.006064631 -0.23984987 -0.116868265 -0.011624971 -0.12786523 0.029276846 0.11895256 0.5256942 0.11165958 0.24479267 -0.13316332 -0.3551405 0.053912614 0.19814257 -0.0016099119 -0.3340581 -0.20467529 -0.6776183 -0.061394423 0.14180793 -0.4375192 0.048078433 -0.14486259 -0.028421158 0.1314101 0.082925685 -0.560009 0.0059814877 0.15344171 0.2230488 0.35248324 0.18825902 0.19203615 0.31130806 -0.08077134 -0.08673774 -0.49954095 -0.21429145 -0.20875932 -0.040423553 0.35603324 0.2298248 -0.059431393 -0.14571403 -0.03306699 0.17668435 0.099827014 -0.3668457 -0.058923315 0.2359855 0.053893175 0.14468332 -0.0903169 0.012943688 -0.1427138 0.17128755 -0.12619045 0.03975363 0.17428583 -0.23693456 -0.037430286 0.3102095 -0.03824475 -0.11601 -0.28034443 0.010106776 -0.14806347 0.030576006 0.391634 -0.059241317 -0.21934137 -0.15324569 -0.1540364
632 -0.16743213 -0.271152 0.046249937 0.23724526 -0.055308282 0.05480715 0.018479839 -0.12833437 -0.2103714 0.31959307 -0.13133846 -0.29967427 -0.0074508404 -0.15919149 0.13068075 0.14793992 0.034737352 -0.1338289 -0.042490162 -0.009773216 0.23056453 0.19328783 -0.5610058 -0.09397625 -0.22081824 -0.2529184 -0.5779894 0.25168306 -0.041042518 -0.28735986 0.11558698 0.18421297 0.12592138 -0.111642934 -0.1857539 0.06740648 0.10397164 -0.045810733 0.030040586 0.09832651 -0.30863294 -0.10373682 0.10821372 -0.16666417 0.33496988 -0.14467697 0.029808648 0.0479664 -0.33314803 -0.11275133 0.060886424 -0.11953105 -0.15334083 0.12272304 -0.33276984 -0.057021752 -0.2104971 -0.051267702 0.07219352 -0.10179239 -0.0031953643 0.08810265 0.38543862 0.18031721 0.3394987 -0.2022441 -0.3420787 0.09527161 0.18275867 0.08394247 -0.2671641 -0.2118072 -0.597869 0.08193049 0.066804655 -0.38924405 0.123005584 -0.23452526 0.018721567 0.1930431 0.0033721544 -0.4911061 0.055023726 0.12585999 0.29124174 0.39044318 0.11205036 0.1388195 0.30015936 0.041458935 -0.15981182 -0.56190217 -0.14609139 -0.24674581 -0.03986494 0.31433514 0.34230918 -0.06519193 -0.22526589 -0.06907041 0.11702527 0.084649794 -0.38712382 -0.16028439 0.036206543 0.0090655275 0.13069633 -0.03697211 0.054608464 -0.025124786 0.23514144 -0.052271523 0.016758015 0.29055488 -0.1312385 -0.097705744 0.3017013 -0.0028942178 -0.13260068 -0.40622276 -0.121717565 -0.13647723 0.0099278465 0.37663415 -0.14153118 -0.12623963 -0.16594481 -0.15920702
630 -0.08921803 -0.25329104 -0.014155688 0.30374065 0.0194096 -0.0025793023 -0.07027387 -0.13068412 -0.09566631 0.30798474 -0.2475715 -0.27849042 -0.10714315 -0.16498972 0.13135374 0.17317905 0.0036442606 -0.2307831 0.035548456 0.016994454 0.16279571 0.1977169 -0.56491333 -0.08048917 -0.30193514 -0.22208266 -0.45701167 0.23500535 -0.051590174 -0.33721212 0.17534111 0.21037884 0.161417 -0.15512699 -0.25804114 0.03821207 0.10646028 -0.08850854 0.099462435 0.16277052 -0.28277713 -0.08052522 0.02359913 -0.10786121 0.27412894 -0.06394003 0.018476972 -0.052811716 -0.37711117 -0.12784751 0.008811841 -0.07160929 -0.27858806 0.29176906 -0.35697243 0.024285976 -0.17212021 -0.13604082 0.07142449 -0.19333428 -0.0013595857 0.07333907 0.42558348 0.100513265 0.2161981 -0.25719503 -0.4063534 0.11995377 0.106717214 0.09992366 -0.37082517 -0.28624833 -0.6673986 -0.066005774 0.10890669 -0.3812482 0.07633053 -0.17654416 -0.04048322 0.23029922 0.0960575 -0.48273763 0.03997323 0.11705249 0.21747862 0.31110623 0.10292364 0.19579369 0.2845401 -0.015980925 -0.08395444 -0.46838808 -0.19730803 -0.2709823 0.008433279 0.40447617 0.23173906 -0.11629361 -0.2054372 -0.14843161 0.15371783 -0.05356297 -0.3133122 -0.13479745 0.1888758 0.004376661 0.121549815 -0.02016532 0.058585875 -0.12157711 0.2557373 -0.046229217 0.0051330524 0.13717848 -0.25028655 -0.03791706 0.25303718 0.066065624 -0.11745651 -0.28671232 -0.15869024 -0.14392364 0.096713535 0.40250978 -0.036897432 -0.23137368 -0.24175727 -0.11017081
620 -0.11631289 -0.3563762 0.028741444 0.28894183 -0.05054069 0.08820196 0.038517203 -0.13332798 -0.14717862 0.38464263 -0.23799168 -0.3324965 -0.022576116 -0.17962214 0.2241886 0.022651289 0.019702265 -0.13643575 0.06672079 -7.450761e-05 0.19014357 0.09635404 -0.581772 -0.052812006 -0.1756064 -0.17915672 -0.43799946 0.2152063 0.02721613 -0.27213287 0.186024 0.13818325 0.16896816 -0.13886966 -0.124971665 0.0019592238 0.110642485 0.0024105655 0.06128128 0.14058499 -0.295949 -0.08105505 0.031386573 -0.16784953 0.26461467 -0.18142574 0.043029 -0.0035027275 -0.33886644 -0.09790622 0.022728706 -0.02289754 -0.18904546 0.19984812 -0.310247 -0.08777527 -0.15378352 -0.08357195 0.03356358 -0.11431191 0.054061685 0.09716258 0.46567994 0.06971082 0.38204297 -0.1540042 -0.33532566 0.008116463 0.13664326 0.06684472 -0.3376885 -0.2419078 -0.75903636 -0.0027811388 0.11801145 -0.47159573 0.054480027 -0.24168074 -0.06339648 0.25234663 0.020818086 -0.4015166 -0.006436243 0.09212716 0.16856568 0.34134927 0.12514482 0.11626493 0.30297926 -0.03142522 -0.09680978 -0.5170836 -0.18729384 -0.23003577 0.041406047 0.42304033 0.21527901 -0.106492706 -0.16276315 -0.03845737 0.15847991 0.061297745 -0.40847275 -0.08368497 0.11749929 0.02937371 0.17078324 0.041315842 0.018444564 -0.076524414 0.2758528 -0.13486587 0.015850618 0.2579138 -0.13847664 -0.09933048 0.37908015 -0.05167342 -0.12842147 -0.33918968 -0.03772108 -0.1506033 0.031227125 0.36083218 -0.18725953 -0.15340655 -0.20048246 -0.13595058
622 -0.17283107 -0.2842122 -0.079276614 0.2662925 -0.09643521 -0.058451287 0.017494213 -0.15502714 -0.16598935 0.2794843 -0.10779515 -0.32221454 0.007809278 -0.14555477 0.07661069 0.021112299 -0.0019241631 -0.22675964 0.0949672 0.032951932 0.060248893 0.19028172 -0.5696046 -0.09801525 -0.17232795 -0.28392324 -0.58431816 0.14639279 -0.021233032 -0.38026446 0.12404704 0.17401356 0.13608721 -0.120822795 -0.21403453 0.03831916 0.19068924 -0.076910354 0.08663171 0.22863892 -0.2427093 -0.04258676 -0.00853985 -0.084614374 0.20017152 -0.09688714 -0.051949617 -0.0029956524 -0.36346295 -0.098100714 0.003466796 -0.10734826 -0.29114437 0.09086671 -0.30013567 -0.009493758 -0.22737259 -0.08298731 0.014356459 -0.14003402 -0.027928619 0.038800772 0.3473596 0.0955223 0.3353365 -0.16892707 -0.36756143 0.10118783 0.19393845 0.0714171 -0.31228277 -0.29770088 -0.6838156 -0.07616146 0.18358482 -0.47638136 0.015469395 -0.20500654 -0.10411259 0.16168207 0.091876194 -0.5146941 -0.03497699 0.15503278 0.1864936 0.33718154 0.06982748 0.13685672 0.23248379 -0.012316847 -0.126949 -0.5254083 -0.18359151 -0.23130152 0.026427735 0.3221758 0.2380955 -0.009821509 -0.17968296 -0.06220387 0.09051743 0.013765646 -0.3819007 -0.078123465 0.19612248 0.07060962 0.17140424 -0.052227654 0.10196648 -0.09934564 0.20556425 -0.12218423 0.09770352 0.16736618 -0.3064757 -0.102251224 0.3148425 0.075622 -0.16255409 -0.34342995 -0.033439856 -0.14358771 0.08406307 0.40075046 0.046737306 -0.19703057 -0.18093249 -0.07277721
588 -0.08178103 -0.36048242 0.061458 0.2509865 0.0027161688 -0.016180532 0.03626091 -0.12253684 -0.2898249 0.35320115 -0.12475253 -0.33780137 -0.02243738 -0.12981841 0.120219305 0.06844905 0.062049184 -0.095515706 -0.057537235 -0.0053138677 0.12852897 0.108595625 -0.5066783 -0.13636 -0.14687432 -0.2153433 -0.54515123 0.19162364 -0.037837107 -0.31240946 0.19784285 0.2919816 0.116962135 -0.17799915 -0.17786057 0.0103174485 0.084645584 -0.06570051 0.01683934 0.06403269 -0.2770278 -0.086704046 0.043728136 0.027393257 0.28927875 -0.0434032 0.09434385 0.03641686 -0.29171512 -0.17230274 -0.011710515 -0.03922546 -0.26327828 0.122511744 -0.35409117 0.021014463 -0.23765646 -0.24730898 0.1251823 -0.0921913 0.047260243 0.12882179 0.5402579 0.17454839 0.22413646 -0.12232278 -0.30196902 0.046462793 0.18004309 0.035079643 -0.387113 -0.32670578 -0.7058809 0.013382584 0.057084944 -0.37450787 0.06464302 -0.21040541 -0.0037268978 0.28881666 0.08054231 -0.47466958 -0.03627986 0.0801454 0.26948932 0.27992493 0.104788385 0.08120294 0.32789704 -0.04478734 -0.21459943 -0.43726563 -0.23525769 -0.1847431 0.03167312 0.36423132 0.20049757 -0.085457146 -0.24873057 -0.032472096 0.14495584 -0.0007589412 -0.32661948 -0.15450366 0.1426721 -0.009395356 0.18738389 -0.019464241 0.12693438 -0.16929671 0.2896078 -0.1260389 0.026629498 0.24592502 -0.1907946 -0.13685755 0.26514482 -0.025239203 -0.115062565 -0.2689777 -0.15132801 -0.2233223 0.003388811 0.35161394 -0.12132985 -0.14990588 -0.18942513 -0.17379881
628 -0.13782448 -0.24513179 -0.03244435 0.31304005 -0.015946649 -0.031129418 0.043844525 -0.08119092 -0.08041243 0.33096585 -0.16213235 -0.30417097 0.0187592 -0.20008206 0.07131473 0.056583785 0.011332802 -0.10754304 0.0116611775 -0.07755558 0.16094653 0.14765511 -0.53409976 -0.1250176 -0.17259672 -0.2442795 -0.5197249 0.13478485 -0.080053866 -0.4550566 0.20095252 0.12443795 0.066508606 -0.19624162 -0.19121566 -0.078547336 0.1381212 -0.04473202 0.06559932 0.072375976 -0.260025 -0.11034453 0.010926566 -0.14289832 0.2233862 -0.038034346 0.07268432 0.08396355 -0.41475567 -0.22674555 -0.048465103 -0.0904485 -0.2875786 0.18369766 -0.28518346 -0.014178101 -0.1445368 -0.11151684 -0.019007912 -0.012758047 -0.040874142 0.0948504 0.43101585 0.17247862 0.22639917 -0.14554095 -0.38164738 0.09907736 0.2227642 0.10602606 -0.32848743 -0.18820722 -0.67859036 0.0113894185 0.20857681 -0.40903974 -0.0025940137 -0.25226372 -0.051068857 0.12560493 0.059092104 -0.45855188 -0.012643016 0.24569543 0.1484042 0.22804603 0.15990432 0.09465405 0.3574544 -0.03724998 -0.12667532 -0.50376284 -0.1595464 -0.26171392 0.061970856 0.4095928 0.2574926 -0.10788691 -0.23571414 -0.01707925 0.12353325 0.12997968 -0.3693408 -0.077519365 0.16913156 0.088579044 0.0644449 -0.059171997 0.07088187 -0.05726014 0.22269785 -0.039411344 -0.010931367 0.22835836 -0.21158601 -0.011160978 0.31912437 -0.019044468 -0.17070946 -0.34177163 -0.08973292 -0.24522017 0.019434625 0.39547336 -0.019346692 -0.12855354 -0.19748119 -0.10071262
582 -0.14067633 -0.28586033 0.14096487 0.27776805 -0.044251285 -0.06612382 -0.09643897 -0.17877644 -0.121318474 0.29001603 -0.26645547 -0.2863 0.04941723 -0.20990849 0.0895607 0.11179392 0.103617676 -0.17326656 -0.06295952 -0.06770332 0.16531752 0.05487582 -0.51615894 -0.118977785 -0.18964167 -0.17090155 -0.53757495 0.13211855 -0.07838832 -0.3089614 0.25637767 0.1758437 0.10887613 -0.053514857 -0.17628029 0.010279005 0.12136158 -0.11167474 0.10551324 0.15451968 -0.22124863 -0.10781421 0.008072193 -0.007887803 0.35883728 -0.02866812 -0.02663879 0.03773836 -0.38478974 -0.09081502 0.03313721 -0.056007553 -0.34556556 0.10807764 -0.2351067 -0.035694398 -0.15742236 -0.1229178 0.05528677 -0.09823796 -0.08363446 0.0679757 0.5089158 0.116668135 0.24193662 -0.15906931 -0.42448348 0.0733903 0.2590129 0.087616526 -0.39949247 -0.3192202 -0.64793855 0.071143426 0.22476213 -0.4553333 -0.005128471 -0.20233636 -0.059046417 0.17213714 0.046023257 -0.49681315 0.014972742 0.12949419 0.26296404 0.3426436 0.14846268 0.07892088 0.30406347 -0.068681225 -0.096443474 -0.5378731 -0.16110629 -0.20379686 -0.03602751 0.3528004 0.28175223 -0.025109362 -0.12628663 -0.0059270873 0.103046305 0.061461464 -0.39160985 -0.07865103 0.09370183 0.06720456 0.16943242 -0.030742934 0.012461412 -0.114289284 0.20459166 -0.16389294 -0.12424387 0.21070121 -0.20819874 -0.11576338 0.30808347 0.044796612 -0.13194668 -0.3035511 -0.1022044 -0.15310411 0.014142417 0.42522398 -0.09030321 -0.079528145 -0.24204683 -0.13270618
602 -0.06527987 -0.25888342 0.06287209 0.26750493 -0.13818413 0.13779862 -0.05604596 -0.07733813 -0.11746064 0.2924948 -0.18103506 -0.28722113 -0.046069745 -0.24851586 0.053543337 0.23572142 -0.01975019 -0.20493968 -0.064122595 0.09017554 0.14555275 0.14633216 -0.45172387 -0.10116051 -0.10639492 -0.11851187 -0.5620415 0.049818177 -0.12032079 -0.5211443 0.117789276 0.2318479 0.03740387 -0.15471464 -0.211295 0.10302437 0.21863836 0.04652875 0.15602756 0.14576599 -0.13048264 -0.08956349 0.09230272 -0.28232673 0.3831807 -0.045853067 0.112429805 0.19258535 -0.5509927 -0.13337362 0.0051114857 -0.066524565 -0.25336194 0.2617663 -0.27863848 -0.054744065 -0.28800926 -0.050057605 0.0040112548 0.10497371 0.019214604 0.10145951 0.43158177 0.14525542 0.36078623 -0.31824097 -0.37062696 0.023680052 0.23823148 0.1953891 -0.2310966 -0.22184381 -0.6497092 0.054950945 0.116705716 -0.52953565 -0.0068894015 -0.12138707 -0.10918329 0.23300809 -0.06511205 -0.49290445 0.059629206 0.08081777 0.33041495 0.28646743 -0.0075816084 -0.027787283 0.18255308 -0.03172964 -0.102797784 -0.5421933 -0.14799447 -0.3207016 -0.053077847 0.37265417 0.35663128 0.0628075 -0.29027507 0.012407079 0.09839741 -0.09792905 -0.39946902 0.018769277 0.093081914 -0.058420658 -0.014468176 0.06366178 0.01239931 -0.15517448 0.2866389 -0.029122766 -0.049579326 0.19381912 -0.08841297 -0.0052976483 0.32061645 0.1404752 -0.017565886 -0.35649338 0.02214185 -0.08326742 0.1573401 0.38233757 -0.01405746 -0.050854526 -0.14510302 -0.06942684
563 -0.1211436 -0.28561598 0.0884748 0.23768136 -0.0004379628 -0.07556472 0.05317525 -0.09782338 -0.20756446 0.32895023 -0.17201358 -0.30974412 -0.05043602 -0.22357312 0.113497674 0.048804898 0.06176265 -0.12112979 -0.0094502475 0.013796656 0.110634185 0.044049457 -0.5538121 -0.08883306 -0.19918552 -0.30043527 -0.5959377 0.16581427 -0.008349639 -0.33117655 0.1419825 0.12975925 0.062825985 -0.104060054 -0.07365513 0.010892946 0.15350495 0.048091978 0.10122509 0.24659625 -0.17064291 -0.06995693 0.045830127 -0.10002805 0.2092039 -0.061507873 0.04110909 -0.014553827 -0.3304679 -0.14860353 0.022962041 -0.07610227 -0.2596046 0.20268226 -0.266845 -0.08735784 -0.21634938 -0.17393385 0.01343421 -0.08495288 0.022938918 0.048693355 0.41820747 0.14818299 0.20544975 -0.13938047 -0.32359248 0.18962355 0.23675497 -0.056443755 -0.41205108 -0.23028326 -0.6418532 0.07732988 0.082562074 -0.43551213 0.05929338 -0.21423118 -0.07634373 0.2349981 -0.01608165 -0.49789944 -0.0265104 0.13913026 0.13553908 0.33932394 0.10816025 0.16706495 0.38475952 -0.101272196 -0.12363322 -0.4561082 -0.15453544 -0.22705525 0.022361552 0.34701324 0.18345815 -0.09933162 -0.19272265 0.04373466 0.21773301 0.08073503 -0.3543727 -0.10262429 0.18878733 0.025188863 0.13639721 -0.015670585 0.09296447 -0.13062297 0.3300987 -0.12653346 0.054749183 0.12461365 -0.16460913 -0.16861427 0.32964882 0.034037374 -0.12979297 -0.2994095 -0.06051465 -0.22353555 0.18098213 0.37960652 -0.019080626 -0.21335274 -0.18633837 -0.24091299
574 -0.1722298 -0.17111741 0.11413267 0.2612111 0.030426154 -0.073911965 -0.12650648 -0.15012668 -0.14672299 0.32066217 -0.149349 -0.27891472 -0.0072935415 -0.25810334 0.18464032 0.080398 -0.02705763 -0.14549018 -0.10153937 -0.029852483 0.20904928 0.040759988 -0.576593 -0.15827984 -0.16008127 -0.25821954 -0.56144506 0.13871615 -0.07983746 -0.29828745 0.1896629 0.19274096 0.24334173 -0.19525887 -0.17099 -0.03437571 0.0907364 -0.12858729 0.06453015 0.22044222 -0.24421184 -0.107908115 -0.053540062 -0.010558498 0.3537997 -0.009042289 0.065110795 0.03316902 -0.32517534 -0.122047365 0.09458642 -0.0045169247 -0.22714558 0.055676676 -0.37871653 0.05884108 -0.16649695 -0.16521949 0.0027400083 -0.12730063 0.107372925 0.05788132 0.37730256 0.17780411 0.23114598 -0.16210386 -0.3862413 0.11659935 0.15305543 -0.06886511 -0.31570393 -0.23712964 -0.7557843 0.08466412 0.180453 -0.38294503 0.073120825 -0.2291218 -0.019749615 0.11469675 0.086877495 -0.42176774 0.044841718 0.11253426 0.14845957 0.40394905 0.060337283 0.13714921 0.33555987 0.064263955 -0.12285782 -0.5361402 -0.1905909 -0.20411174 0.0020023002 0.30867586 0.22236924 -0.09135235 -0.16582508 -0.11179161 0.07835866 0.0924352 -0.37410104 -0.012170645 0.20259088 0.05552363 0.1304182 -0.059306826 0.055996455 -0.009653136 0.24488641 -0.06117705 -0.015209069 0.19829781 -0.16441183 -0.018306924 0.32740018 0.04368278 -0.13025814 -0.2861037 -0.16977932 -0.17816901 0.043725826 0.33480448 -0.11394382 -0.12013654 -0.19754751 -0.16825148
584 -0.11169949 -0.31609422 0.124579996 0.19515795 -0.12667301 0.086307645 0.026801096 -0.051036675 -0.10441922 0.19298513 -0.27726516 -0.29919523 -0.056781404 -0.22886863 0.046886887 0.2746097 -0.08325634 -0.23988725 -0.10330505 0.012037473 0.21688928 0.20961976 -0.5045367 -0.15730324 -0.15844807 -0.1762017 -0.53556436 0.14738315 -0.074865945 -0.46896353 0.12595746 0.21814544 0.09124091 -0.13734628 -0.18850696 0.027589625 0.16129762 -0.002922346 0.14024255 0.22114365 -0.23861355 -0.09140402 0.009472029 -0.23106268 0.36453688 -0.17155884 -0.035555825 0.13495448 -0.42364302 -0.16281945 0.09734489 -0.073688805 -0.14978653 0.30819425 -0.19092269 0.0061303237 -0.24127878 -0.011355184 0.027312418 -0.0074367104 0.08580201 0.044027008 0.39991337 0.26382896 0.31262982 -0.24959691 -0.22220908 0.051446784 0.22429283 0.2522438 -0.2271411 -0.14882156 -0.677409 0.12480696 0.07282417 -0.5859353 -0.018493125 -0.060722616 -0.06576875 0.2815944 -0.002774161 -0.5008271 -0.071164176 0.038887043 0.3103347 0.266592 0.05994752 0.12539469 0.25537932 -0.03337133 -0.13664101 -0.4644767 -0.1281706 -0.28387764 0.047555026 0.36848602 0.3615408 0.014704678 -0.2982927 0.012273118 0.19698678 -0.035453364 -0.46584663 -0.0878531 0.18671724 -0.18345696 0.04480286 0.042754643 0.06295573 -0.13967353 0.25610688 -0.024307586 -0.022241136 0.24347185 -0.13332255 -0.025045479 0.21631005 0.07761755 -0.107761145 -0.35377035 0.011274581 -0.1841635 0.24776419 0.30753016 -0.06260746 -0.06055758 -0.14929017 -0.09695505
586 -0.10610445 -0.32065812 0.1237216 0.30992886 -0.09795903 0.24151164 0.024813266 -0.16841695 -0.18783966 0.22658488 -0.2136591 -0.1786031 -0.070613384 -0.28073916 0.12159798 0.23833095 -0.066126585 -0.30100197 -0.09283686 0.045339093 0.24230757 0.10977937 -0.48205096 -0.11656041 -0.089502595 -0.086251155 -0.56449646 0.10470836 -0.08491357 -0.44989878 0.17107156 0.172863 0.12420712 -0.0709477 -0.2869231 0.0005869781 0.16716208 -0.0011938204 0.13370132 0.045767337 -0.19947867 -0.07831119 0.0806188 -0.18727708 0.392761 -0.112012275 -0.00794611 0.09046978 -0.45647192 -0.20867285 0.110134 -0.11936098 -0.22468936 0.26240453 -0.17992902 -0.0652133 -0.23189166 -0.0946655 0.077084854 -0.04386384 0.0056842826 0.054217137 0.33481905 0.26091242 0.29388365 -0.261596 -0.21394168 0.08825028 0.21721338 0.25174353 -0.16984473 -0.31293428 -0.659651 0.023615899 0.10716527 -0.5445077 0.04242519 -0.15706949 -0.059168648 0.28668168 -0.05444201 -0.5628678 -0.017080296 0.06486103 0.31527054 0.35513273 -0.020384068 0.090736605 0.21813962 -0.055596884 -0.20465918 -0.46121886 -0.16031015 -0.3188497 -0.013315116 0.32939073 0.27907184 0.057943095 -0.3195611 -0.04276353 0.17205814 -0.076900415 -0.37848008 -0.030599572 0.106532805 -0.032890774 0.02554383 0.12842655 0.03145701 -0.17672805 0.30446792 -0.040032305 -0.090861335 0.22493684 -0.13757743 -0.09086762 0.1303433 0.12873794 -0.05322773 -0.44152817 -0.024523836 -0.15316689 0.11809277 0.40115595 -0.09102702 -0.0812593 -0.19224918 -0.058076017
624 -0.13418289 -0.30044508 0.07413529 0.3051659 0.09776845 -0.035243534 0.0367871 -0.10866435 -0.16133583 0.26093403 -0.10940032 -0.33144456 -0.061620526 -0.26078945 0.13619031 0.071633995 0.039447583 -0.1415111 0.04297352 0.027713135 0.11271629 0.13044778 -0.5638854 -0.091992505 -0.18733625 -0.2826841 -0.5894965 0.26293677 0.025763346 -0.37228394 0.14619498 0.08574812 0.14304477 -0.19170615 -0.23007333 0.02196092 0.113771364 -0.028706582 0.02605772 0.17041163 -0.35266593 -0.13768275 0.05498223 -0.09212731 0.28251562 -0.030612009 -0.0051991064 -0.009306117 -0.4156915 -0.10465245 -0.03359634 0.0130458865 -0.25806808 0.24618171 -0.31335685 0.07818579 -0.24271996 -0.18307288 0.07668055 -0.1296499 0.019206159 0.12943137 0.35709217 0.14310922 0.20896225 -0.07648771 -0.36792755 0.09022016 0.16329262 -0.09298026 -0.3793714 -0.3703544 -0.6946923 -0.086929716 0.1608048 -0.39662033 0.054846685 -0.17981151 0.029480482 0.17376728 0.050698277 -0.3911798 -0.007594486 0.20198181 0.18744953 0.37880954 0.11688795 0.097400345 0.27377045 -0.05827358 -0.14201841 -0.522552 -0.20220119 -0.2958449 0.008014289 0.41711912 0.26411748 -0.062421516 -0.19843791 -0.07573755 0.14665341 0.043885347 -0.25582495 -0.09230573 0.29143512 0.18020122 -0.005427774 -0.056126 0.122280896 -0.11853354 0.19683927 -0.07050481 -0.006891009 0.29479143 -0.26554462 -0.18333231 0.22856143 0.12056463 -0.1192935 -0.27008334 -0.078866065 -0.23946735 0.06808045 0.3643476 -0.02753055 -0.28974226 -0.10901024 -0.06813083
600 -0.11912246 -0.28668338 -0.01090397 0.27229977 0.067149915 -0.00038657003 0.0476672 -0.079067126 -0.16273592 0.27576888 -0.15103742 -0.3434274 -0.0018331264 -0.1379094 0.12147548 0.062259287 -0.025308222 -0.18371819 -0.034063082 0.0007095184 0.03678036 0.13859373 -0.5345009 -0.08720353 -0.091415055 -0.19735932 -0.6644236 0.21715699 -0.017625002 -0.46071303 0.07716051 0.13474046 -0.034029 -0.18933453 -0.106219195 -0.05129134 0.043650128 -0.03576262 0.12073052 0.16262574 -0.2428675 -0.029767325 0.020623382 -0.06978803 0.26032037 -0.15641017 0.03541706 -0.028181868 -0.34194914 -0.08380977 0.07694209 0.018397868 -0.18336968 0.15793914 -0.2340542 -0.0014968085 -0.21930847 -0.10446057 0.10059704 -0.13143623 0.009381373 0.066681914 0.45658517 0.18151762 0.24886967 -0.06322467 -0.2680024 0.061763067 0.15577185 -0.063768916 -0.4104611 -0.31998998 -0.65891373 -0.017918449 0.14350137 -0.39831373 0.042123146 -0.26743808 -0.10186091 0.22071905 0.00041475586 -0.42524534 -0.009239448 0.09978118 0.18876426 0.31402904 0.102434665 0.1021819 0.3484487 -0.10794159 -0.20298077 -0.55782 -0.15851058 -0.21971309 0.009626426 0.45516086 0.24154556 -0.11309453 -0.15324043 -0.06876752 0.13853586 0.041495554 -0.3160217 -0.10850027 0.21986167 0.16601537 0.10890072 -0.07073021 -0.016335135 -0.14938837 0.20233089 -0.08329083 0.044458497 0.19601518 -0.19632149 -0.07023052 0.3691107 -0.031742133 -0.034319915 -0.27676913 -0.132618 -0.25084248 0.025239155 0.3981776 -0.04696781 -0.24101453 -0.13080859 -0.021796953
626 -0.16630507 -0.31902733 0.020364217 0.25135335 0.020628091 -0.0030776858 0.008488966 -0.09409758 -0.1570949 0.28528628 -0.15421069 -0.31856614 -0.04755598 -0.12257203 0.15116283 0.1615263 0.048035137 -0.12745741 -0.1239787 0.036248304 0.2374662 0.07726085 -0.593167 -0.029829947 -0.20297624 -0.2419187 -0.49578425 0.1559242 0.09827344 -0.31456363 0.09410355 0.09948438 -0.053962808 -0.18301687 -0.09537743 0.044222176 0.16138184 -0.07228486 0.112032406 0.16545068 -0.33297673 -0.044584792 0.015397824 -0.13821526 0.33150935 -0.0920388 -0.064712316 -0.025125138 -0.32415992 -0.04864452 0.05847249 -0.053111248 -0.20071068 0.16439064 -0.22619207 -0.007639038 -0.19317032 -0.12286418 0.10576646 -0.13563123 0.02402906 0.0032927536 0.48415184 0.2301578 0.28096583 -0.047486044 -0.3624438 0.12193712 0.17292818 -0.041448563 -0.34541053 -0.3957238 -0.639604 -0.035737894 0.1658175 -0.41977277 0.115316 -0.28502023 -0.027447738 0.20395933 -0.034599237 -0.5036831 0.07354149 0.09638683 0.17481314 0.29603815 0.117065996 0.18518102 0.31717613 -0.043351885 -0.14626035 -0.5350726 -0.13636574 -0.19286947 -0.01442524 0.33229318 0.18585546 -0.14642131 -0.2218726 -0.0370486 0.086191 0.061794426 -0.29343864 -0.03478672 0.19918041 0.07291561 0.06464577 -0.015709696 0.19878834 -0.090141855 0.21087603 -0.090768375 0.16567811 0.23047225 -0.2168748 -0.0766336 0.33478692 0.020063188 -0.1471834 -0.27804396 -0.071419574 -0.26724166 0.07765877 0.3097243 0.00032756166 -0.14611368 -0.2889945 -0.074139826
606 -0.11735235 -0.21390767 0.0077671288 0.27626795 -0.05935456 -0.021519944 0.036226507 -0.12543288 -0.18887831 0.32513306 -0.12956318 -0.2982166 -0.11896702 -0.18617834 0.17953974 0.097324945 -0.0253686 -0.13709246 -0.102769956 0.018404992 0.15957955 0.10931059 -0.54550683 -0.12011304 -0.15650791 -0.19796576 -0.5754165 0.2503629 -0.058658563 -0.34566447 0.13301767 0.23799267 0.12907837 -0.27068138 -0.1058218 -0.049544644 0.09761861 -0.07500401 0.09577751 0.1699874 -0.3220449 -0.07709001 0.037026346 -0.02792659 0.22335719 -0.15820345 -0.0048314 -0.0077574714 -0.27277485 -0.1449363 0.07764623 -0.10408969 -0.22146027 0.12168816 -0.2940105 -0.089416645 -0.23418503 -0.1212523 0.0072922795 -0.1206188 0.021681739 0.16278496 0.53167504 0.11106463 0.273967 -0.11020521 -0.26194054 0.10632143 0.22391187 -0.08538738 -0.3329886 -0.3270963 -0.6777144 -0.0024224443 0.18127443 -0.5141788 0.15970281 -0.18837528 -0.03457027 0.19221056 0.061371658 -0.45513034 -0.0055843117 0.10247742 0.2592072 0.3680549 0.060301706 0.15156987 0.2925382 0.017558325 -0.12301082 -0.4948486 -0.20528053 -0.29393017 0.045968752 0.41071495 0.14634606 -0.093508825 -0.13768916 -0.08759548 0.101081304 0.1054138 -0.26834244 -0.07330899 0.13746284 0.060835168 0.073628366 -0.043259256 0.13163954 0.034116585 0.12847762 -0.054059904 0.01610228 0.17535599 -0.25892654 -0.07289182 0.331763 0.08263699 -0.035922635 -0.270177 -0.17130113 -0.20310542 0.1327068 0.3393852 -0.11164341 -0.1667408 -0.23335823 -0.12632182
604 -0.10748177 -0.35249564 0.109373555 0.32109377 -0.08226061 0.15024242 0.006415607 -0.17097446 -0.18131877 0.4091138 -0.19821219 -0.2577073 -0.13851872 -0.1452377 0.10756159 0.0338304 -0.030459879 -0.20390874 0.059393626 -0.008679987 0.20691338 0.10264244 -0.50710416 -0.10560358 -0.04526756 -0.095302135 -0.5012092 0.042481802 0.06800162 -0.5145417 0.22707155 0.2764093 0.07983221 -0.1670293 -0.19706142 0.10432986 0.22308794 0.03530992 0.15057844 0.19145398 -0.11615895 -0.1301287 -0.00026397425 -0.17699851 0.40274033 -0.0077331965 0.045717694 0.10380632 -0.4785955 -0.14310448 0.08693087 -0.14960018 -0.1699179 0.29429325 -0.13680348 -0.11064914 -0.17323922 -0.14714003 0.007707167 -0.025723374 0.019626038 0.037713952 0.45308408 0.32456985 0.24910915 -0.21568233 -0.30776456 0.07242024 0.24242215 0.16779009 -0.2233457 -0.1494309 -0.5720971 0.07671577 0.09553691 -0.57206076 0.014519765 -0.16627009 -0.07232226 0.13817039 0.0045106155 -0.5118685 0.008189754 0.09881959 0.40899542 0.32708576 -0.06247979 0.034335516 0.15387054 0.024487684 -0.10053462 -0.52626246 -0.1687066 -0.31122744 -0.007828705 0.3479665 0.2584183 0.05768843 -0.24420781 -0.0029683583 0.16088094 -0.010002826 -0.36611506 -0.007877299 0.23418567 -0.037388816 0.16256966 0.027894063 0.12815636 -0.13088243 0.30703694 -0.08190701 -0.14260928 0.23140064 -0.17473957 -0.081733055 0.33003694 0.022622112 -0.13725156 -0.31326422 0.03471092 -0.10117675 0.1871971 0.38651717 -0.063300356 -0.115825295 -0.11615752 -0.06656572
656 0.10134406 0.1099137 -0.1262076 0.1318764 -0.06387419 -0.13048299 0.051030792 -0.09087412 0.20380637 0.05532656 0.23948313 0.12936758 0.038060125 0.16957197 -0.1198303 0.08574219 0.035433184 -0.29833648 -0.22860253 0.020332733 -0.07044213 0.062338695 -0.1903166 0.30506197 -0.08313662 0.6148305 -0.15101449 0.009315002 -0.015707927 -0.23834805 0.17576367 0.1766755 0.3085714 0.18188122 -0.27642193 -0.1699246 0.0057718763 0.07570783 0.26767197 0.037146904 0.086158104 -0.12716675 0.018768681 0.0014155752 0.16975732 -0.07201182 -0.074365504 -0.14794861 0.359529 0.38472575 -0.27364153 0.07404378 -0.07101204 0.26339203 -0.38863903 0.04911958 -0.18350421 -0.06744119 -0.32168654 0.03283821 -0.041712467 0.0142076 -0.07332179 0.4769648 0.29389155 -0.034505416 -0.1790848 -0.21160428 -0.12972274 0.09457144 0.42951623 -0.0054089124 -0.15118405 0.033451762 0.2011662 0.25587806 0.2464118 -0.17373848 0.21187772 0.4330535 0.18790649 -0.26674476 0.22617728 -0.19264819 -0.2338568 0.19518201 -0.17500274 0.24064268 0.07516746 -0.043404296 -0.09273407 -0.06086554 0.11872571 0.06427074 0.25506464 0.2153716 -0.029901097 0.032694336 0.23079918 0.16404295 -0.43905354 0.12972239 -0.15103573 0.25987476 -0.28069955 0.2691659 0.2310332 -0.12530905 0.17861119 -0.019171916 0.29981545 0.10119912 0.30309957 0.21988411 -0.12628105 -0.15204911 -0.37450546 -0.012442252 0.12345151 0.22376563 0.068662606 -0.102600485 0.16458918 -0.019074468 -0.012602344 -0.32229915 0.043357667 -0.30069214
15 -0.38349405 -0.039731238 0.36060026 0.38514677 -0.17908838 0.083027594 0.20355037 -0.18164802 -0.15527402 -0.08644599 0.43928826 0.025517436 0.07597681 -0.03161934 -0.13362697 0.05268334 0.035893444 -0.10271944 -0.20181625 -0.03350043 0.22552867 -0.03279466 -0.20444667 -0.1332557 -0.2966451 -0.38081816 0.12029139 0.30199936 0.22206657 -0.21671768 0.32036662 0.09547212 0.04949245 0.23774602 0.13963677 -0.25060382 0.012983202 0.1777336 0.08455822 0.0726614 -0.2568114 0.32492238 -0.08743194 0.41405237 0.2941886 0.29828864 0.32640633 0.20463586 -0.17526974 0.26349583 0.26002514 0.08774947 -0.012860754 0.08477598 -0.15120691 0.17766309 0.21489365 0.09246912 -0.32523236 0.1027347 -0.3142721 0.043729242 0.070944406 0.050147504 -0.23417829 0.30098742 -0.037399396 -0.06654986 -0.15898204 0.07312585 -0.07023399 0.09514594 0.15335335 -0.13268833 -0.3345527 -0.2568785 0.40809837 -0.032607544 -0.06760451 0.31877592 -0.12454528 0.0024002925 0.11552188 0.31704575 0.061973374 -0.095882796 -0.051236402 -0.16153546 -0.056899402 0.1370462 0.06591055 -0.120833375 -0.23515879 -0.6609464 -0.080661505 0.43049946 -0.06914613 0.22760938 0.32356817 0.1866414 -0.34360912 -0.19522393 -0.4664098 -0.11061652 -0.23712417 -0.27926585 0.0574637 -0.024154052 -0.268904 -0.056138836 0.12439795 -0.15742658 0.02202335 -0.059673563 0.12888885 0.24226938 0.04878846 -0.16418321 -0.017547574 0.04947657 0.059456777 -0.3256564 0.03476745 0.18794882 0.33427703 -0.4260903 -0.31208372 -0.13376701
16 -0.35843247 -0.15153256 0.42574683 0.39992633 -0.2680404 0.115119234 0.17632669 -0.13710384 -0.061347954 -0.041221887 0.37775987 -0.02469975 0.07515326 0.15583567 -0.17875826 0.074912414 0.036283497 -0.17365295 -0.17426758 0.060897272 0.13349968 -0.16757542 -0.32506102 -0.1067424 -0.11342512 -0.3662772 0.13391888 0.3465421 0.24222091 -0.20270571 0.34285995 0.15212463 -0.034484964 0.2878309 0.104669236 -0.24114046 0.11008209 0.22790273 -0.0252742 0.15242448 -0.3375102 0.31698528 -0.16635834 0.28333238 0.2973157 0.14359619 0.39211017 0.23490818 -0.12200625 0.37054732 0.34762996 -0.037107863 -0.22133401 0.23953724 -0.07115217 0.17385095 0.23214284 0.103522405 -0.32531938 0.111948416 -0.34225765 0.121686734 0.1297044 -0.034891255 -0.1432867 0.19657652 0.06441402 0.0315826 -0.079241805 0.09451436 -0.1009842 0.0832078 0.13970506 -0.11016565 -0.31951967 -0.16718528 0.43654734 -0.11107208 -0.22114845 0.37833264 -0.04103192 -0.063747935 0.16589977 0.23904997 0.11385169 -0.11279429 0.101689555 -0.14178708 -0.073177606 0.11584368 -0.0071453545 -0.0034621316 -0.31898177 -0.6496522 -0.15692657 0.46718568 -0.120591156 0.15844136 0.30431622 0.13390926 -0.34107944 -0.14690518 -0.34865344 0.02549515 -0.09842698 -0.18552159 0.08991224 0.00046779125 -0.35528302 -0.14895682 0.06312545 -0.05271105 -0.08311953 -0.16026193 0.15084599 0.17258026 -0.07807735 -0.22107491 0.062998325 -0.02675431 0.07912953 -0.36307344 -0.030756015 0.11379403 0.52918243 -0.27380687 -0.26912788 -0.07015294
655 -0.061973035 -0.2853505 -0.052855883 0.34584796 0.024026485 0.08378894 -0.03722475 -0.09629641 -0.14784633 0.19668375 -0.14292255 -0.21672447 -0.06803781 0.043977268 0.13888228 0.054259125 0.06611895 -0.19410804 0.06902204 -0.14000808 0.05346231 0.27370733 -0.3768238 -0.122625165 -0.21526672 -0.4125433 -0.34428275 0.23000878 -0.118063554 -0.44917113 0.16194533 0.3323635 0.39311844 -0.18204802 -0.15205342 0.10043164 0.117008284 -0.061387442 0.21001361 0.43650043 -0.08071997 -0.04021045 0.09314918 0.075973436 0.1463773 -0.032223977 0.037966155 0.19688745 -0.307564 -0.03379574 0.019926976 -0.13612925 -0.13523082 0.08497983 -0.4293332 -0.03862511 -0.07828909 -0.1697981 0.19916214 -0.11656403 0.050584447 0.1270222 0.52173936 0.2409479 0.43329534 -0.097311184 -0.451305 0.026848981 0.24350843 -0.04323205 -0.38279223 -0.40630797 -0.66502345 0.006359497 0.0041385833 -0.41329354 0.12319387 -0.39811388 0.037848458 0.20257469 0.0344786 -0.24408293 0.02341323 0.1163102 0.13356717 0.34840074 0.01296283 0.20190074 0.43682364 -0.041734118 -0.15103003 -0.3939998 -0.24568152 -0.25605005 -0.063395254 0.2821376 0.18363525 -0.06250967 -0.046734087 -0.1578174 0.12726873 0.35343453 -0.27557144 -0.3048489 0.2464576 0.20450082 0.053262465 0.09294207 0.14868805 -0.21354388 0.19930714 0.08045006 0.11734919 0.13278416 -0.26884267 -0.17333597 0.3593807 -0.07708315 -0.08677948 -0.42135438 -0.031710196 -0.25364164 0.14540556 0.47838813 -0.23620564 -0.18763538 -0.19039857 -0.32064867
17 -0.36071962 -0.07997463 0.3808029 0.32144126 -0.26300338 0.071374685 0.3189871 -0.08710772 -0.11065113 -0.049203284 0.4055072 0.12776157 0.07381823 0.067819305 -0.14136815 0.13121015 0.023602223 -0.047698613 -0.21432902 0.009274379 0.12563108 -0.1188332 -0.2461614 -0.13606864 -0.2871407 -0.30384088 0.13064425 0.32433167 0.29603443 -0.1265943 0.37204838 0.16142751 -0.016195213 0.3432013 0.07340333 -0.22668898 0.19818264 0.10187032 0.10612633 0.08875951 -0.2836479 0.34618303 -0.09914798 0.27590162 0.20700425 0.2155938 0.31780067 0.14452721 -0.117566094 0.3959399 0.29302847 0.06778952 -0.116474345 0.1292058 -0.13801567 0.27697673 0.26266453 0.03456388 -0.43475375 0.19895577 -0.27690583 0.20251837 0.087532476 0.023303363 -0.2490376 0.1690678 -0.019335382 0.06676541 -0.08344452 0.13125175 -0.078108855 0.07396691 0.17390513 -0.1944071 -0.43387526 -0.072239585 0.48038867 -0.07507581 -0.18683332 0.28392816 -0.08251227 0.007885908 -0.025258578 0.26400572 0.044476252 -0.071602404 -0.050880637 -0.060386516 -0.16216463 0.1132898 -0.10987013 -0.12430893 -0.29276094 -0.50277007 -0.06613157 0.46622306 0.03915935 0.27162057 0.26598966 0.13842128 -0.39903566 -0.07677424 -0.31430453 -0.08514054 -0.14950295 -0.23397684 0.08539317 0.058876626 -0.34784892 -0.11741107 0.199895 -0.15472081 -0.043091305 -0.06554431 0.13842188 0.12550785 0.104656555 -0.31206694 -0.049594253 -0.018382467 0.04142618 -0.31361076 0.005830775 0.335081 0.43954405 -0.35293266 -0.13939595 -0.023285674
20 -0.40416747 -0.0073714037 0.39963114 0.14466262 -0.21045788 -0.028611438 0.19617212 -0.15591933 -0.040730592 -0.05514491 0.46602878 -0.06974614 0.10165727 0.0067867283 -0.09330836 0.11588444 0.06724658 -0.062523335 -0.11086325 -0.0457808 0.06335919 -0.10241392 -0.24669592 -0.1171018 -0.30048856 -0.30991942 0.1089415 0.3989713 0.2220118 -0.14399488 0.36017266 0.09395673 -0.084170535 0.2712253 0.18578386 -0.24063186 0.12533738 0.13818747 0.104981974 0.04714014 -0.36986628 0.32973295 -0.13952409 0.2923235 0.32306224 0.2303301 0.29568386 0.20186053 -0.1137188 0.2853797 0.28728256 0.054796997 -0.051463205 0.11288832 -0.08466 0.18068092 0.2913334 0.098876186 -0.38867632 0.18767935 -0.32212836 0.16692002 0.15747415 0.010814184 -0.15302086 0.21666706 0.039370324 -0.01395948 0.020519918 0.16327485 -0.09943289 0.13166696 0.08488753 -0.10669014 -0.38171262 -0.14079107 0.42104766 -0.09351877 -0.12923448 0.42945313 -0.1504085 0.04657938 0.077529386 0.27082908 0.16524273 -0.21353553 0.062442984 -0.009802775 -0.019930402 0.07598375 0.12138423 0.0033472693 -0.2850338 -0.66806084 -0.1532003 0.43886262 -0.00028768784 0.27246138 0.3680674 0.16469559 -0.28981593 -0.15068626 -0.3712627 -0.105289854 -0.18274626 -0.19806997 -0.01971663 0.06544161 -0.30322796 -0.08425732 0.18300667 -0.12707648 -0.0041040964 -0.09777318 0.048048925 0.21245995 0.030058274 -0.18266205 0.0049684593 -0.09747829 0.10343308 -0.41086045 -0.076112755 0.29066756 0.47001654 -0.33843055 -0.311112 -0.07505858
18 -0.2592326 -0.059927586 0.3291758 0.31029567 -0.1783782 0.119504556 0.28165653 -0.1485765 -0.13696912 -0.034968644 0.4440383 0.09342625 0.17392898 0.069900036 -0.09330155 0.114412375 0.013993719 -0.08085418 -0.23524325 0.052596856 0.0997585 -0.11536622 -0.2511071 -0.17557831 -0.26580495 -0.27541327 0.07374864 0.28059533 0.27062544 -0.16477081 0.28580984 0.12385145 0.045767482 0.25803295 0.19368638 -0.29168004 0.07659715 0.14344451 0.119203046 0.038552966 -0.34512332 0.29814854 -0.11113335 0.20788836 0.2199282 0.24381311 0.30573788 0.2358222 -0.12948795 0.29679734 0.3022218 -0.024947014 -0.06536596 0.14410032 -0.141306 0.24249835 0.24456131 0.09829777 -0.47088724 0.13280451 -0.25916067 0.14578396 0.08134283 -0.037103705 -0.26144782 0.21518236 0.016149877 0.027814314 -0.0383419 0.19396275 -0.08135087 0.052315306 0.16743489 -0.26692513 -0.4133107 -0.17741552 0.4875161 -0.14064442 -0.018832305 0.37991768 -0.17091191 -0.09388466 -0.047814086 0.23833668 0.09710354 -0.13748968 0.086422995 -0.19868931 -0.12312673 0.16628315 0.021504337 -0.12859565 -0.28986087 -0.5477235 -0.09145455 0.4281681 -0.04775793 0.27318385 0.30039182 0.14297855 -0.3712064 -0.2134058 -0.3003556 -0.02172031 -0.11397755 -0.18551692 0.017606799 -0.10292771 -0.35364503 -0.08887778 0.17721164 -0.12209785 -0.007280029 -0.21067534 0.030737665 0.14662762 0.025823936 -0.2036578 0.011473412 -0.07173916 0.033888277 -0.33251837 -0.059905518 0.27242497 0.42810783 -0.3395026 -0.2235072 -0.13388732
14 -0.3296927 -0.08455694 0.3806293 0.24234018 -0.22055404 0.07143589 0.10297884 -0.18014103 -0.09132525 -0.09860683 0.38090584 0.06126057 0.112415716 0.1335424 -0.0987198 0.10477849 0.01305819 -0.0945982 -0.14227512 0.08141093 0.14514418 -0.06474096 -0.35900447 -0.122190446 -0.25430232 -0.35545248 0.22048594 0.2524749 0.2708172 -0.25385806 0.38284385 0.2068308 -0.07477712 0.18535912 0.1547904 -0.29137453 0.09492856 0.1782862 0.08163231 0.119607866 -0.28080264 0.3426306 -0.038259752 0.30482414 0.20290084 0.25455758 0.3373141 0.191976 -0.19666885 0.3105363 0.37222898 0.0029412233 -0.043982685 0.15096612 -0.05533158 0.2523382 0.19028123 0.1570545 -0.36573407 0.12919708 -0.3071544 0.12646617 0.104481675 0.0788126 -0.26459983 0.20508233 -0.0593559 0.016286451 -0.009347789 0.185768 -0.19967258 0.05594813 0.16933101 -0.16196194 -0.31784382 -0.088715374 0.4449362 -0.07175593 -0.042056575 0.42810002 -0.076413244 0.030839225 0.15201254 0.31137565 0.10046922 -0.18301351 0.05766847 -0.14008649 -0.02296851 0.15622012 0.11948677 -0.13422567 -0.25653562 -0.5943835 -0.08085464 0.36003342 -0.034809034 0.19305134 0.24476463 0.1542311 -0.46302792 -0.15137964 -0.37902704 -0.06902111 -0.11865197 -0.17355976 0.17622286 -0.0085799275 -0.3780824 -0.10283658 0.1329681 -0.13564844 -0.058716606 -0.21257396 0.037703 0.13790901 -0.043004237 -0.22714575 -0.08264391 -0.09059069 0.10001565 -0.40236083 -0.04792999 0.20278767 0.40221825 -0.34054857 -0.14474566 -0.099621594
13 -0.3619485 -0.098652646 0.38863364 0.3236396 -0.28481224 0.1328137 0.21087681 -0.17197903 -0.02766327 -0.025762618 0.3149106 0.12027117 0.17493016 0.16112085 -0.17279296 0.11261424 -0.060357578 -0.062484615 -0.18562208 -0.016155586 0.21282692 -0.14857651 -0.26841217 -0.19569984 -0.2274254 -0.36887142 0.18341681 0.311735 0.23854151 -0.2056356 0.32094488 0.102722 -0.03702202 0.27396315 0.05269926 -0.32200924 0.07323497 0.280039 0.16529888 0.0964613 -0.28997517 0.27051082 -0.11197614 0.25710317 0.32131502 0.36140564 0.4845442 0.21774194 -0.07049365 0.37099367 0.25972924 0.14773647 -0.15533541 0.11812101 -0.10672282 0.12459748 0.14952067 0.13583618 -0.34171784 0.07576237 -0.35379887 0.107155405 0.14552425 -0.02592831 -0.22631751 0.19216813 0.057008836 -0.0636051 0.01976459 0.18791878 -0.1476128 0.14451317 0.26043543 -0.25691372 -0.28817788 -0.1359882 0.5611409 -0.023040347 -0.15837166 0.2432485 -0.072935514 -0.04192286 0.12939277 0.27724764 0.07170505 -0.010836007 0.027330235 -0.15436077 -0.13191216 0.04172397 0.020701064 -0.20213273 -0.19631024 -0.62238395 -0.0982336 0.3605589 0.053249303 0.21295851 0.40248433 0.06652011 -0.43441027 -0.1403479 -0.41559854 -0.11167944 -0.046659015 -0.18217437 -0.023312258 0.05513031 -0.40200347 -0.066609785 0.117804185 -0.089625284 -0.09957067 -0.11146065 0.09692265 0.1936544 -0.013762238 -0.12707983 0.029117577 -0.080226794 0.021312267 -0.38926086 -0.015529123 0.17561162 0.33642107 -0.39790472 -0.23634034 -0.12627701
21 -0.3066825 -0.09131988 0.41274995 0.24685605 -0.17869642 0.13195992 0.17794643 -0.1586615 -0.11068851 -0.121025465 0.38601866 0.058988735 0.057197634 -0.010752995 -0.14133285 0.050790753 0.041152585 -0.04750663 -0.155476 0.17799282 0.20578633 -0.14267974 -0.32951006 -0.19624418 -0.20415254 -0.29174203 0.19087054 0.22331445 0.11202228 -0.26058963 0.3246805 0.153643 -0.038137898 0.27414778 0.120197006 -0.2721678 0.012652157 0.10127104 0.009819911 0.22846286 -0.2801634 0.2975002 -0.13554052 0.22538292 0.23584217 0.30337173 0.276701 0.21267168 -0.06656262 0.32133088 0.37701926 0.14112104 -0.09032738 0.097268485 0.013121455 0.16233301 0.16869539 0.060546644 -0.33541712 0.20082723 -0.42785606 0.10612167 0.13861208 0.12417454 -0.16755073 0.30167398 -0.030299004 -0.021015443 0.012658617 0.23713665 -0.1057594 0.0695733 0.11309324 -0.14732052 -0.26762012 -0.25485104 0.64062214 0.018097932 -0.1907688 0.27616283 -0.12280534 -0.04131622 0.104996964 0.32742718 0.06300946 -0.10671952 -0.037269264 -0.16171399 -0.05249516 0.04884785 0.120356984 -0.07250901 -0.29853824 -0.6434138 -0.14950095 0.43007234 -0.038461305 0.22245824 0.29964328 0.08822396 -0.33610556 -0.075200856 -0.38725987 -0.029221514 -0.12438119 -0.22456495 0.05516329 -0.0034656194 -0.41345677 -0.034814287 0.15475541 -0.15845412 0.05805143 -0.10412295 0.028660905 0.13703711 -0.05696094 -0.25615263 0.029443052 0.014475367 0.13206956 -0.3665691 -0.057519067 0.21128729 0.41304535 -0.25126758 -0.23547894 -0.12264356
19 -0.36358145 -0.030968808 0.30158597 0.21771897 -0.20072249 0.13998197 0.25475058 -0.17999493 -0.07306377 -0.07776663 0.52078444 0.06239686 0.15661709 0.044002615 -0.100822166 0.09168333 -0.021140667 -0.012321153 -0.10857111 -0.0486921 0.016547775 -0.14989933 -0.3000857 -0.11675019 -0.20970233 -0.24583405 0.10736932 0.36483222 0.27809227 -0.16255182 0.32696226 0.22900108 0.14330897 0.27486846 0.14174753 -0.23032148 0.06568977 0.19190602 0.06797467 0.09872466 -0.2657823 0.34758216 -0.21369089 0.24060312 0.33695212 0.2650513 0.39780354 0.15665057 -0.0083466945 0.27668232 0.33140066 0.093446836 -0.026495822 0.13130385 -0.035111573 0.28513554 0.13409129 0.09917276 -0.4153843 0.14928855 -0.38305157 0.09553877 0.20634642 -0.005827653 -0.15915984 0.25533766 0.033591673 0.0718066 0.0072163893 0.22788401 -0.19346812 -0.018832667 0.10766714 -0.22023425 -0.3503373 -0.10975292 0.45019 -0.06964672 -0.16724005 0.3900645 -0.091029815 -0.010084722 0.07867435 0.33761773 0.053103328 -0.14889014 0.035508074 -0.044003982 -0.10691357 -0.036429655 0.07198004 -0.16680197 -0.2773847 -0.5810485 -0.061635397 0.46710607 -0.0101900585 0.24710561 0.30141628 0.036349032 -0.35012627 -0.08094787 -0.3288549 -0.012755407 -0.123822615 -0.15931572 0.0870145 0.046355754 -0.39688596 -0.09812047 0.0140103735 -0.15164451 -0.024471687 -0.14641698 0.08339684 0.3002246 0.0350391 -0.22833435 -0.0097742705 -0.043188617 0.08646205 -0.3762156 -0.12969291 0.23975956 0.39408484 -0.39972562 -0.13524811 -0.07937517
23 -0.37607855 -0.12794366 0.39077508 0.2936324 -0.19055204 0.0938742 0.26908585 -0.18430586 -0.11627383 -0.11390556 0.42538357 0.081384584 0.10349095 0.055408627 -0.11219913 0.046926707 0.022844322 -0.06564219 -0.18669358 0.089310266 0.057059757 -0.130677 -0.33988762 -0.056832198 -0.23256746 -0.29675204 0.07223625 0.30434883 0.09301235 -0.26261026 0.18771079 0.11474207 0.012887191 0.26182023 0.26998785 -0.26011404 0.073328525 0.17045794 0.115837194 0.14965886 -0.345901 0.2402927 -0.13914077 0.2946528 0.2998934 0.27865285 0.36720848 0.2510937 -0.038656976 0.30866793 0.45129648 0.07243771 -0.061636742 0.26255748 0.013204351 0.25915653 0.15613677 0.1532921 -0.40579355 0.12250604 -0.23331021 0.15973864 0.093175694 0.06483917 -0.24865344 0.18960199 0.037801478 0.07391583 -0.072189786 0.12928037 -0.03715816 0.06850816 0.2783311 -0.20763779 -0.31233838 -0.14940244 0.45217922 -0.15828799 -0.15783039 0.38392293 -0.09717275 0.003943538 0.047745124 0.3019069 0.04526408 -0.09976201 -0.06148425 -0.04816963 0.0370255 0.08774608 0.08747367 -0.08418887 -0.32032457 -0.6820336 -0.074629 0.4084347 -0.027464967 0.26873907 0.28523147 0.07897849 -0.32091773 -0.03276204 -0.3554384 -0.06877081 -0.011711964 -0.3519717 0.05146886 0.05134812 -0.34161964 -0.0636563 0.16931082 -0.21326894 0.031677675 -0.09707296 0.08368262 0.22305928 0.049963538 -0.13968198 -0.017571371 0.0059449137 0.11390852 -0.29840818 -0.064626165 0.21489254 0.34517506 -0.37899756 -0.1550254 -0.14062423
22 -0.45702752 -0.12318111 0.34864745 0.25120476 -0.21122482 0.10887497 0.3562613 -0.09056893 -0.13257219 -0.056229517 0.4388431 0.046418358 0.09064437 0.04322313 -0.12222856 0.012108251 0.08952417 -0.1022621 -0.20692222 0.19190964 0.10932169 -0.20775229 -0.33701926 -0.05768885 -0.21377386 -0.2863541 0.14289157 0.32382816 0.15348445 -0.19446623 0.40432352 0.120011374 -0.07472249 0.3164419 0.11211726 -0.33587456 0.10484309 0.16498666 0.08492222 0.09915763 -0.24402916 0.3639865 -0.038726844 0.2068611 0.29644167 0.27841046 0.28962603 0.2448625 -0.029166294 0.3250823 0.30776066 -0.013263742 -0.10060835 0.20642632 -0.08223323 0.18497474 0.16151364 0.18431722 -0.32465023 0.16154714 -0.32704362 0.15008968 0.12736785 0.022132484 -0.16150853 0.22688766 0.06569122 0.039745856 -0.01704354 0.17903924 -0.14784825 0.103554904 0.21079853 -0.2500597 -0.2895799 -0.15619004 0.4294186 -0.07552064 -0.16997792 0.34056216 -0.117942184 0.08330172 -0.010535156 0.3244827 0.13564587 -0.20729853 -0.0629357 -0.16452631 -0.020920878 0.14153667 0.1232349 -0.16695704 -0.35692367 -0.637856 -0.046400227 0.48336095 -0.08510467 0.1938936 0.2593755 0.14806336 -0.3440094 0.04091849 -0.43206766 0.010250102 -0.19835278 -0.19433594 0.08790441 0.016515855 -0.24858348 -0.09429292 0.124539584 -0.1709679 0.052788362 -0.16040714 0.06448537 0.08136784 0.109638624 -0.24069785 0.07411526 -0.0012747349 0.065048255 -0.33272782 -0.11670665 0.2553432 0.4826868 -0.38958985 -0.25398627 -0.039748322
12 -0.34582156 -0.049532212 0.39813027 0.31588045 -0.23842686 0.11309541 0.24364144 -0.13326564 -0.09832096 -0.05890151 0.45904517 0.035934974 0.21743414 0.055945832 -0.022286924 0.15115179 0.052582946 -0.07554087 -0.22622353 0.053345997 0.21854638 -0.1284594 -0.3154525 -0.0053708 -0.2821503 -0.3211307 0.12497683 0.33431408 0.21321006 -0.14955659 0.30097684 0.07949813 -0.05026271 0.21704315 0.117231146 -0.24680863 0.09961945 0.16145743 -0.024060046 0.15592527 -0.30632952 0.30773407 -0.1760461 0.24272129 0.1925447 0.36978927 0.34342557 0.19623657 -0.08942433 0.27067652 0.3420236 0.049652018 -0.044579457 0.17088117 -0.12885295 0.2349113 0.14206335 0.20324607 -0.38622004 0.13076861 -0.282115 0.12534365 0.1395465 -0.0029348673 -0.19026414 0.23576656 0.0560594 -0.1023475 -0.04674642 0.16970845 -0.1603197 0.054967575 0.21642002 -0.19858961 -0.39777043 -0.21123555 0.46252343 0.01158057 -0.08382654 0.43652248 -0.11492264 0.048843265 0.010287918 0.26619565 0.12787238 -0.09968727 -0.1350725 -0.12723953 -0.08285281 0.093487725 0.056879707 -0.024603045 -0.3730528 -0.6170063 -0.16592027 0.45749384 -0.0063134725 0.29844895 0.34354728 0.16018581 -0.3002547 -0.084193684 -0.40163404 0.02741409 -0.087685116 -0.1250286 0.09883263 0.053080853 -0.3410137 -0.095199294 0.13832204 -0.1465176 -0.01838821 -0.03875081 0.12326787 0.13565049 0.10551947 -0.2833721 0.016921367 -0.07761551 0.027961507 -0.32666913 -0.06403123 0.15482466 0.30694228 -0.34186742 -0.1304941 -0.06554628
665 0.10729505 0.054252055 -0.112644896 -0.08271234 -0.03178808 -0.2920558 0.059657786 -0.2718684 0.23008487 0.14239872 0.074923605 -0.19540566 0.2106905 0.043448992 -0.036262836 0.18382013 0.062443282 -0.0969697 -0.27839705 0.10855788 -0.09524793 0.15203467 -0.06987886 0.2564531 -0.13923176 0.60349494 0.0525289 0.065115735 0.13031991 -0.39584824 0.049102165 0.017059052 0.3593035 -0.059634082 -0.20956407 -0.36095336 0.083774306 0.17297582 0.15173863 -0.15541814 0.039537366 -0.13706708 -0.012660842 0.03170542 0.19332743 0.06938178 -0.034597114 0.029077997 0.13412645 0.3475559 -0.43403947 0.13819514 0.06616884 -0.04480804 -0.26155436 0.052592754 -0.3091916 -0.00268833 -0.38218147 -0.0023430109 -0.29219565 0.19126147 0.020155499 0.64332473 0.14767611 -0.17067957 -0.044800207 -0.30296364 -0.041850965 -0.047525804 0.26531935 0.11024005 -0.1763308 0.17993625 0.010395033 -0.061830126 0.20120597 -0.20390017 0.1534329 0.30955613 0.30099487 -0.27355856 0.11933263 -0.12600943 -0.26327336 0.112359405 -0.17579247 0.20823586 0.10473731 -0.3343417 0.123668715 0.12031812 0.04464281 -0.020042641 -0.0037087596 0.21022558 0.14579166 -0.05347793 0.18586531 0.16391988 -0.1331127 0.19511922 -0.26617563 0.22083573 -0.26685584 0.08158687 0.27039722 0.018750992 0.011615573 0.1240779 0.03273808 0.19324379 -0.099675976 0.117472455 -0.19161765 -0.11269241 -0.2830342 0.0036929927 0.114893734 0.18973441 -0.0061746184 -0.07447069 0.09039827 0.039130002 0.15979365 -0.36151126 0.13336937 -0.16937704
