20 128
5 -0.13438267 0.14746614 -0.040119983 0.40912476 -0.17395405 0.023929028 0.33423653 0.041164607 -0.04378445 0.13071705 0.040771227 0.05709332 0.115645416 -0.06883353 -0.22948359 0.16115269 0.23600696 0.15226983 0.12282236 -0.08834034 -0.06950962 0.29319608 0.057160825 -0.15518178 0.10710454 -0.24364892 -0.078423455 0.029151382 -0.13320576 0.053094286 0.02797543 0.13234204 0.027074322 -0.11219625 -0.07202801 -0.06533981 0.10793978 -0.21173353 -0.02969483 -0.16794612 -0.005552618 0.00084549765 -0.03302923 -0.16099441 0.013399082 0.087578095 -0.31332704 0.124213755 -0.15752456 0.15204813 0.019963104 -0.040451366 -0.16981034 -0.074860394 0.08645491 -0.4031088 -0.11210869 -0.07732162 -0.026307983 0.019329298 -0.10533469 0.0061667114 -0.03717636 -0.13184908 -0.18295015 -0.20445842 -0.23767875 0.14763401 0.025234794 0.054200914 -0.07755285 0.31057113 -0.02985277 0.08300347 -0.029012656 -0.022050029 0.16286293 0.033394065 -0.19130145 -0.16379763 -0.09900041 0.29868424 -0.06670499 0.015358667 0.13626716 0.007531177 0.22291449 -0.012488672 0.06600754 0.24264334 0.04990735 -0.11979607 -0.05212575 -0.06171444 0.18360855 0.074026324 0.2365333 0.062235318 0.10949719 0.20668301 0.1482036 -0.021698175 0.08472717 -0.120735615 -0.011192211 -0.12644307 -0.037781015 0.5422733 -0.0006978641 -0.008515826 0.07569167 -0.08354486 -0.10172446 0.15763003 -0.0033865473 0.13975981 0.37176308 0.08356485 -0.20984156 -0.058674105 0.1263474 0.018350203 0.09281036 -0.2667479 0.21213679 0.017241815 -0.056879368 0.086682536
13 -0.15336661 0.1919085 -0.049446173 0.4616019 -0.18995793 0.08373961 0.40120724 0.02668299 -0.024486277 0.13701926 0.030390408 0.07204243 0.11118795 -0.068938784 -0.30095738 0.22333843 0.25297955 0.115575425 0.1559452 -0.0977456 -0.09668741 0.31946963 0.064216495 -0.22461496 0.10922092 -0.2651991 -0.06929609 0.029028064 -0.1503549 0.08917336 0.09310475 0.14832442 -0.01517328 -0.12260105 -0.07500064 -0.07055553 0.13103254 -0.21743023 -0.036425244 -0.21381961 0.0017885468 -0.0025200683 -0.026037322 -0.21127115 0.03791377 0.07806327 -0.33400658 0.121248536 -0.21871932 0.13995314 0.032633618 -0.06429737 -0.22357449 -0.08080156 0.09381266 -0.49219623 -0.07573669 -0.0770214 -0.016031487 -0.04711564 -0.14188962 -0.035151508 -0.042049043 -0.17634474 -0.22770211 -0.19072367 -0.271858 0.1762785 -0.027768688 0.07269396 -0.10181312 0.3370117 -0.02495601 0.13549906 -0.031364985 -0.0116777355 0.19115351 0.017253974 -0.20465775 -0.22217064 -0.11910592 0.33552274 -0.105570525 -0.022177609 0.14100678 -0.01992181 0.24522246 0.007198458 0.09211232 0.28106898 0.05281747 -0.14002468 -0.051020645 -0.10354625 0.17875302 0.070440136 0.29279172 0.102640286 0.11269689 0.2479071 0.17624207 0.0007099241 0.07182672 -0.14127101 0.02098551 -0.14004457 -0.057434816 0.5869935 -0.03023179 -0.008957599 0.07706387 -0.08001557 -0.1297484 0.13907264 0.046792306 0.19436309 0.43968883 0.10680322 -0.22202857 -0.088024125 0.17832878 0.03351244 0.10685545 -0.29730654 0.24409279 0.00826881 -0.0655566 0.098424606
8 -0.08460988 0.0840659 0.14451733 0.035633422 -0.09970115 -0.20185125 0.0656176 0.1114286 0.00027845052 0.062454317 0.23881245 0.025219822 0.07407668 -0.09538143 -0.0831094 -0.0742036 0.041724592 0.16563046 -0.008098992 0.028968956 0.059905842 0.09180797 0.09679419 -0.037092924 -0.019577097 0.011989042 -0.12700436 0.04374934 0.01959598 -0.022022046 -0.20555197 0.10645911 -0.09001429 -0.061298884 0.03569157 0.042154904 0.20219369 0.07907916 0.15233943 -0.11556982 0.010532373 0.17170581 -0.061976027 -0.07052087 0.12548915 0.14272657 -0.12563984 -0.048886497 0.02553696 0.12989642 0.018742034 0.082447805 0.039242443 0.03358041 0.20703892 -0.0063248393 0.0034875493 0.014963668 -0.020395102 -0.008850792 0.020087484 -0.067796186 0.027413774 -0.0063464614 0.07905656 -0.076603584 0.03821695 0.04441603 0.097374655 -0.042418685 -0.023108063 0.052337393 -0.067170635 -0.085250005 -0.06079208 -0.01712842 0.13160488 0.087651074 -0.043887258 0.1329961 -0.027778376 0.039002355 0.060391914 0.15938182 0.08340647 0.022950577 0.18957458 -0.06752853 0.066225275 0.096235126 -0.0739241 -0.09597187 -0.13226314 -0.0056139617 0.1254185 -0.0034825774 -0.14074993 -0.10237434 0.092217006 -0.0005666691 -0.20766298 0.01481921 0.12197839 0.07013019 0.027435275 -0.0051345862 0.02070671 -0.06129461 -0.051681016 -0.118707046 0.043151684 -0.01542174 -0.048683736 0.014358982 -0.04475826 0.00969816 0.038629804 0.077918686 -0.0042171227 0.086046085 -0.031995267 0.0011757612 0.052586474 -0.10048563 -0.013711854 -0.07881479 -0.05202159 0.00081262866
1 -0.08229333 0.058615614 0.14100093 0.057389285 -0.10614961 -0.21331893 0.058171477 0.112551115 -0.009829913 0.0696055 0.24248312 0.021338167 0.073200054 -0.10896232 -0.09059982 -0.09731913 0.04078988 0.17261226 -0.023467 0.0042599165 0.05863886 0.086195715 0.097774826 -0.014354343 -0.014016276 0.015321185 -0.13047533 0.045494962 0.024673779 -0.031359207 -0.21194245 0.109053604 -0.084541254 -0.054929554 0.03166787 0.034839302 0.19315733 0.05364846 0.16471413 -0.09153022 0.013592939 0.168743 -0.0733236 -0.060841985 0.10962093 0.12006524 -0.12832913 -0.041972395 0.032667726 0.12575687 0.03245161 0.0552808 0.040099796 0.034196854 0.18742642 -0.00035994183 -0.008502712 -0.024310216 -0.033091977 0.033172455 0.046877906 -0.053762466 0.02561572 0.01975988 0.06694094 -0.101877995 0.037023686 0.054461423 0.1228282 -0.05381106 -0.022964794 0.057607774 -0.078531645 -0.10927943 -0.062220678 -0.03325525 0.13539392 0.098569185 -0.038961597 0.1443236 -0.058318842 0.040421743 0.08212504 0.15699399 0.07963679 0.035359114 0.19173807 -0.056666654 0.0721801 0.11647376 -0.05689039 -0.09148767 -0.13453878 0.0037345982 0.13861454 -0.01945551 -0.14891955 -0.13850763 0.10011636 0.016247835 -0.20397441 0.015343528 0.11568543 0.059698507 0.028550107 -0.022460181 0.01296109 -0.05975622 -0.026870433 -0.1154964 0.06070103 -0.03746844 -0.026958823 0.048905265 -0.06439514 0.012323959 0.037719306 0.09872328 -0.0011398768 0.09678022 -0.040178422 -0.012297906 0.053379573 -0.10132592 -0.012438 -0.086346455 -0.075433135 -0.007802636
4 -0.05664247 0.017456084 0.117401004 -0.021640297 -0.06880214 -0.20615955 -0.016667854 0.105691746 -0.008607899 0.056332607 0.2235186 -0.0017287418 0.049368873 -0.115298666 -0.037415322 -0.15191987 0.02063434 0.16130573 -0.04068887 0.008664012 0.05050668 0.020561408 0.08727917 0.028420765 -0.029897861 0.05216838 -0.11164027 0.025611032 0.083473176 -0.057885982 -0.23461719 0.11555335 -0.11149132 -0.048492298 0.03677356 0.06780791 0.18561469 0.10234544 0.18199934 -0.07521401 0.03735512 0.1757375 -0.0817029 -0.04187777 0.12258837 0.0959072 -0.109018154 -0.073134676 0.06232611 0.11919289 0.027064886 0.04605666 0.092730865 0.050113544 0.1627205 0.06755579 -0.022887317 -0.02153111 -0.030717464 0.04191774 0.07423467 -0.031637147 0.04656695 0.07140627 0.08451403 -0.098910406 0.0629376 0.032201216 0.14700362 -0.082495175 -0.016625991 0.033405244 -0.09275508 -0.13514882 -0.07548221 -0.03695179 0.13440849 0.14063255 -0.02044564 0.23264624 -0.078597255 0.010505652 0.1203684 0.17020738 0.10116635 0.033368774 0.22445725 -0.0570671 0.108099736 0.11545409 -0.072955005 -0.12529485 -0.16473931 0.012669406 0.15035957 -0.020627169 -0.19984376 -0.19193527 0.12989654 0.012642181 -0.25665063 0.034183294 0.116127394 0.086778276 0.0639756 -0.027314529 0.009404125 -0.12981984 -0.019992743 -0.12631913 0.079950176 -0.036757585 -0.0065954546 0.073587984 -0.104156524 -0.00833714 0.04392681 0.11981576 0.026983498 0.1667342 -0.034534644 -0.022227153 0.048835605 -0.11382819 -0.0035201614 -0.11576548 -0.08377621 -0.02122936
19 -0.06918278 0.05574112 0.14168712 0.07846621 -0.11041492 -0.18173482 0.079784185 0.099379115 -0.013372616 0.049579985 0.20426089 0.021215305 0.057380527 -0.0991645 -0.105502866 -0.08073041 0.05104169 0.14614335 -0.020851873 -0.016081607 0.05060343 0.0846918 0.1067806 -0.03438914 -0.000593806 0.00797055 -0.11317536 0.048589814 0.025473071 -0.043087266 -0.18321875 0.11534908 -0.08754078 -0.067973316 0.02636009 0.03648292 0.21361092 0.050820395 0.15709871 -0.10129037 0.0224137 0.16452593 -0.080580294 -0.067693844 0.12654224 0.12149501 -0.13408081 -0.050561227 0.014101635 0.13392358 0.024645628 0.06089878 0.017828224 0.034629736 0.18880005 -0.031197093 -0.0037635684 -0.03312483 -0.029593091 0.019533226 0.046678193 -0.059627384 0.036452238 0.031359192 0.033387017 -0.08911961 0.030257955 0.05853711 0.09715921 -0.04314825 -0.017812064 0.06813584 -0.06993791 -0.09367626 -0.041594293 -0.013512172 0.13158529 0.08184203 -0.03868131 0.0973713 -0.053575624 0.055387978 0.08448731 0.12416776 0.07293569 0.031857457 0.17714548 -0.049589146 0.06592377 0.1167373 -0.06128173 -0.08352885 -0.10936937 -0.005712384 0.11889704 0.0002711565 -0.1285118 -0.1305794 0.095085725 0.031350408 -0.17674491 0.04068551 0.11168951 0.05961955 0.057697088 -0.026499655 0.0056218873 -0.05620807 -0.017988458 -0.10208313 0.046340454 -0.027519304 -0.033311307 0.03842421 -0.04486724 0.027280627 0.06303719 0.09455248 -0.0014657276 0.096100286 -0.0077066505 -0.0066819107 0.05427813 -0.104958385 0.008233236 -0.075555064 -0.07653835 -0.0005784472
3 -0.061929222 0.050776463 0.13647692 0.06033732 -0.09382298 -0.17986307 0.053344514 0.09643295 0.01896824 0.061158743 0.2115601 0.010749446 0.0575783 -0.10243337 -0.11984209 -0.07315327 0.033284947 0.15164064 -0.019962389 0.01277165 0.06655397 0.077981465 0.11269063 -0.026936691 -0.02229918 0.024702448 -0.12519552 0.04046202 0.031677112 -0.032769997 -0.18386571 0.11138015 -0.0965021 -0.045517325 0.030377215 0.040889733 0.19595581 0.053174287 0.16967408 -0.08727156 0.0007972829 0.16329487 -0.07308841 -0.083072186 0.11949125 0.10647956 -0.11010377 -0.04382162 -0.005378259 0.11470132 0.021364417 0.0465378 0.024888182 0.04070788 0.1679044 -0.013551735 0.008265172 -0.02260021 -0.03401315 0.0056628264 0.03419489 -0.05761894 0.036067754 0.024930434 0.053220924 -0.09011659 0.035122458 0.054807022 0.10793299 -0.031148566 -0.02943491 0.0692033 -0.07179191 -0.0786486 -0.057408784 -0.031143937 0.12927642 0.10905399 -0.046455625 0.120354116 -0.06787008 0.052015748 0.07734306 0.119934864 0.0822699 0.025526632 0.18749417 -0.052662726 0.07113372 0.13567609 -0.04891016 -0.1055016 -0.13465926 -0.021083001 0.13687351 -0.0267501 -0.13107403 -0.13826972 0.10608191 0.037802394 -0.1918203 0.0322734 0.09056244 0.0489427 0.046395313 -0.027105357 -0.011164111 -0.041818768 -0.031557016 -0.11073014 0.044202607 -0.04416419 -0.03978591 0.048795454 -0.04895188 0.02521431 0.07435829 0.10375771 -0.00030278493 0.095804624 -0.014848418 -0.016193563 0.04697071 -0.106682956 0.014060825 -0.08391112 -0.0826984 -0.0008931329
2 -0.069039695 0.054088753 0.14558135 0.031098317 -0.10919295 -0.22017357 0.0238729 0.1206427 -0.022504808 0.039235167 0.24584925 0.017952258 0.056317933 -0.12928893 -0.07465655 -0.12133458 0.030286144 0.16119811 -0.044428617 0.016101936 0.057616457 0.047901034 0.11025406 -0.008405468 -0.019678555 0.058944963 -0.14501473 0.029247288 0.06652372 -0.04763662 -0.2581657 0.14355984 -0.11353778 -0.06868643 0.06069469 0.05903496 0.23419303 0.10271516 0.17292531 -0.08991632 0.031664554 0.19396079 -0.07235778 -0.040569905 0.13543722 0.10836307 -0.14138637 -0.07913999 0.05307108 0.12342345 0.05400744 0.04952899 0.067568466 0.06046477 0.18750569 0.038524434 0.012638979 -0.024996348 -0.03641807 0.017549353 0.05144471 -0.07259955 0.044201452 0.026329173 0.061831843 -0.071782984 0.08959637 0.044782538 0.11894329 -0.077257 -0.018612733 0.0077536046 -0.09262216 -0.12958784 -0.061925158 -0.011142609 0.13785532 0.07919784 -0.0144199375 0.15992813 -0.06833352 0.00604291 0.122948214 0.16659293 0.07072909 0.029223846 0.18916604 -0.024390223 0.09312466 0.11545744 -0.08219509 -0.09230224 -0.13971752 0.017032053 0.13620248 -0.010027171 -0.18548802 -0.14506246 0.13569792 -0.00272386 -0.25086573 0.03552681 0.13472275 0.08641637 0.08888035 -0.031792093 0.041702125 -0.1327242 -0.04725865 -0.15071684 0.08786309 -0.02584688 -0.023037866 0.03818431 -0.045279372 0.002084622 0.047243893 0.10922721 0.024292301 0.14623387 -0.023463976 -0.02676739 0.06695818 -0.13138047 -0.0152379945 -0.11955355 -0.08855991 -0.01735324
6 -0.059036445 0.06404279 0.16666424 0.010351944 -0.0729834 -0.22911789 0.022105455 0.109805934 0.037498638 0.062108926 0.24069965 0.016324678 0.09907322 -0.13556549 -0.07502138 -0.10470278 0.020843709 0.1747486 -0.026814768 0.03178053 0.06609178 0.070640504 0.12672947 -0.0047806716 -0.026575165 0.05874577 -0.10987785 0.054475434 0.062320113 -0.041494068 -0.22273783 0.11472648 -0.10032722 -0.04252907 0.01755919 0.049062874 0.19789349 0.10134318 0.19057786 -0.09460088 0.010060063 0.17780654 -0.08455456 -0.07037539 0.1315786 0.13902825 -0.08614172 -0.068449214 0.024256054 0.12908915 0.021384109 0.0866875 0.062496804 0.05758983 0.17205663 0.04520947 0.0089192875 0.010964017 -0.035522148 0.00085974 0.033798385 -0.04013649 0.05443253 0.0408212 0.101708606 -0.0975475 0.07109105 0.024584277 0.14235404 -0.03696077 -0.027825017 0.06155273 -0.06935249 -0.08852614 -0.07102853 -0.020611344 0.13246697 0.14057651 -0.045189332 0.1770382 -0.047145333 0.03405177 0.08396812 0.14463963 0.09583688 0.044776056 0.18211004 -0.083555594 0.053213116 0.105799116 -0.08535932 -0.11131251 -0.13947675 -0.010805987 0.11295 -0.031799205 -0.15732609 -0.15511955 0.12804596 -0.011842153 -0.23522583 0.011138191 0.11255253 0.07953592 0.029670343 -0.02431232 -0.0022224458 -0.10410397 -0.02485271 -0.10295591 0.04522136 -0.024531571 -0.04329118 0.045746032 -0.08033698 -0.016238308 0.020090902 0.07576065 0.016685547 0.12967016 -0.042889327 -0.025721617 0.056174643 -0.096219495 -0.011896378 -0.10035771 -0.08466123 -0.019681353
7 -0.064161606 0.11181036 0.15088166 0.0023058364 -0.0872274 -0.15603063 0.024335 0.0907788 0.033094533 0.038634088 0.20106478 -0.005762716 0.066106156 -0.09034286 -0.07441694 -0.072894655 0.005043175 0.12209968 -0.021681981 0.038442563 0.037905216 0.07858717 0.09596746 -0.06168959 -0.06313766 0.039195362 -0.11179479 0.034423 0.02540015 -0.00526248 -0.18969175 0.11766769 -0.15093033 -0.06111285 0.05762447 0.056532025 0.20022716 0.1378955 0.14854078 -0.11308462 0.006555197 0.15548587 -0.043301813 -0.0715831 0.1372416 0.14452869 -0.09849682 -0.071110204 -0.004246454 0.10362261 0.0011078013 0.08115689 0.045855768 0.044872075 0.18586652 0.0038608867 0.017688863 0.058499802 -0.029631283 -0.060854908 -0.010196481 -0.093139365 0.058971085 -0.00069608685 0.094086185 -0.056981616 0.032711193 0.0208516 0.072468214 -0.06218726 -0.041350707 0.053308062 -0.09533361 -0.06411731 -0.06454992 -0.016287396 0.16458191 0.11069661 -0.055379715 0.15676667 -0.024726998 0.05846235 0.08221708 0.1539173 0.104514286 0.009992673 0.23684384 -0.04518144 0.09761397 0.1170754 -0.101651445 -0.13874455 -0.16412437 -0.01539683 0.14483605 0.006654461 -0.16552265 -0.110702544 0.119396426 -0.004077541 -0.2579774 0.016555697 0.15485457 0.11838353 0.050172497 -0.025656478 0.022717549 -0.0929591 -0.082919024 -0.14115143 0.043097366 -0.014954643 -0.05245076 0.025876505 -0.04757836 0.04548369 0.080405496 0.10510791 0.009387721 0.12721261 0.020095874 0.007858249 0.08321898 -0.12905826 0.03361516 -0.12355366 -0.044282917 0.0051269787
11 -0.12979165 0.16070063 -0.13381091 0.39432785 -0.12666506 0.1301341 0.2982812 -0.015733927 -0.042825557 0.14264907 -0.06660696 0.036446422 0.13150401 -0.05462046 -0.15015338 0.18108264 0.24210362 0.12641142 0.14860417 -0.07726657 -0.14940922 0.29636854 -0.019436037 -0.16097818 0.07830093 -0.2914699 -0.042396706 -0.00491723 -0.1529976 0.08216562 0.09293831 0.117871016 0.001049497 -0.112214684 -0.07387275 -0.05764084 0.040796828 -0.20801471 -0.073696606 -0.1526515 0.018162327 -0.058650736 0.008816008 -0.1415283 -0.026933558 0.0991528 -0.31531963 0.13065554 -0.17619842 0.12996852 0.013338581 -0.05360411 -0.14462134 -0.10626673 0.030272113 -0.41492698 -0.18982033 -0.027695756 -0.021653716 0.013480379 -0.13637012 0.03646536 -0.020832293 -0.10790422 -0.18895611 -0.26144016 -0.30691028 0.13486765 0.03826967 0.023949092 -0.11005866 0.36713418 -0.060977332 0.10683226 -0.049625967 -0.046617694 0.20091042 0.079126276 -0.23557295 -0.0963227 -0.096894324 0.36438215 -0.06326476 0.041417886 0.21737775 0.0084483 0.32181594 0.003256678 0.12338237 0.27178198 0.039600365 -0.19472927 -0.11090304 -0.05066453 0.24163306 0.10647565 0.2552993 0.044878017 0.16613552 0.21065518 0.13540967 -0.059426002 0.15505852 -0.10041587 -0.04173098 -0.1614116 -0.027009403 0.6249692 0.0058025713 -0.01392578 0.10959669 -0.07981016 -0.092755005 0.22608978 -0.075812995 0.15164842 0.4559842 0.107121274 -0.24510981 -0.0018829032 0.16935788 0.043882154 0.12914488 -0.3368387 0.28999686 -0.017571917 -0.024770534 0.095380194
18 -0.060776334 0.05665551 0.11028939 0.014568838 -0.079834126 -0.17174986 0.00990294 0.09527886 -0.0067694234 0.052854646 0.18790826 -0.0014267879 0.06631266 -0.103639446 -0.03871365 -0.11099315 0.03064636 0.14258026 -0.02474625 0.013468857 0.02489931 0.053179372 0.06579479 -0.0109148305 -0.03112851 0.018621081 -0.10995213 0.020488232 0.046913326 -0.028611017 -0.19454412 0.12166544 -0.114393555 -0.058723018 0.04475983 0.05298819 0.18125384 0.09924524 0.14654738 -0.081034675 0.03415869 0.15229481 -0.05511229 -0.042076554 0.11164114 0.11412104 -0.12580211 -0.060199406 0.038188025 0.11936802 0.021059422 0.05498349 0.06812124 0.035513557 0.15809116 0.025072448 -0.03085728 0.0064943377 -0.030729301 0.016988626 0.039132018 -0.04926413 0.04673053 0.037135612 0.074960046 -0.10829349 0.030686546 0.030759387 0.12655036 -0.08096849 -0.03461549 0.05741204 -0.099457316 -0.10764678 -0.06784487 -0.03821439 0.15242705 0.12061712 -0.044781674 0.19466895 -0.06487784 0.046611074 0.104696415 0.1678536 0.115493394 0.035781004 0.23931892 -0.038571224 0.110392205 0.13225555 -0.083764784 -0.13170551 -0.16841777 0.014173098 0.15605761 0.0054986416 -0.16114922 -0.154319 0.1348176 0.015834972 -0.24042867 0.015084664 0.14887734 0.086556904 0.04758089 -0.04211791 0.021358287 -0.07142409 -0.03768787 -0.12694542 0.08109972 -0.029950134 -0.019975979 0.07591677 -0.095176615 0.014921339 0.08230483 0.11671953 -0.0035118656 0.15222013 -0.0071463296 -0.013412776 0.07235643 -0.14787196 0.027914645 -0.114091136 -0.06559869 -0.002488813
15 -0.006215035 0.0021514301 -0.07741351 0.36955777 -0.05655822 -0.012014185 0.22252315 0.046974268 0.022290926 0.12903777 -0.06359138 0.023139464 0.13360845 -0.17217247 -0.19927359 0.07299353 0.22005518 0.16365506 0.062279087 -0.13144754 -0.013777465 0.17128974 0.1699547 -0.019767098 0.15740815 -0.14622828 0.009857544 0.059393417 0.06709293 -0.058731988 -0.008027734 0.1584306 0.05727049 -0.04953172 -0.19777124 -0.039363462 0.12107479 -0.19437598 0.09620655 -0.08329932 0.04301186 0.0063979416 -0.12836154 -0.17318901 0.003582271 0.054105617 -0.23059924 0.05486003 -0.15183817 0.15620941 0.011610593 -0.08594488 -0.09822185 0.028872674 -0.0084309485 -0.2648119 -0.11677788 -0.19435827 -0.07270072 0.08693532 0.015274133 0.14376855 0.04729334 0.05954709 -0.18199636 -0.26766872 -0.12283123 0.11392629 0.13427505 0.074739836 -0.058074627 0.3500906 0.0028816483 0.0744225 -0.047686476 -0.025287269 0.059443682 0.14877063 -0.16664939 -0.07362019 -0.17540285 0.24559243 -0.028333541 -0.12288098 0.16397846 0.08331107 0.120984636 -0.04982559 0.014898132 0.23403794 0.07316173 -0.12338249 0.017874608 -0.07082706 0.08332561 -0.004751507 0.23017621 -0.10656279 0.1693726 0.21615514 0.184682 0.03781486 -0.022479802 -0.17360839 0.027263157 -0.1958696 -0.13869722 0.4284846 0.14943309 0.09908023 0.035146527 -0.11182165 -0.052319344 0.24258326 -0.07591746 0.04411915 0.3154129 0.081192635 -0.12000229 0.037205637 0.07567811 -0.08142517 0.026974548 -0.1917272 0.20029548 0.014924502 -0.14625502 0.030389123
9 -0.049624328 0.053849537 0.11946885 0.035897605 -0.07982078 -0.18348895 0.028049087 0.11407419 0.00698624 0.051837865 0.19201183 0.00148134 0.0695808 -0.12457064 -0.07674415 -0.10956787 0.03007155 0.1445321 -0.048154257 -0.005343784 0.05341197 0.04874885 0.116712905 -0.014594833 -0.019298766 0.03361462 -0.10758059 0.04373975 0.079535045 -0.045693554 -0.2248807 0.13431746 -0.11103342 -0.059482414 0.02150062 0.05884506 0.20147996 0.093435645 0.17052706 -0.08359841 0.033725865 0.15562911 -0.076642826 -0.058765065 0.11535516 0.114020534 -0.118327044 -0.07243029 0.027570052 0.11878955 0.022799222 0.04693608 0.05643239 0.053509746 0.17032813 0.01746335 0.0028787558 -0.023416406 -0.039991345 0.009697275 0.044884067 -0.042645603 0.052451573 0.046128042 0.06064481 -0.09612455 0.058682837 0.04501419 0.111399606 -0.06526966 -0.0253313 0.07122799 -0.088748485 -0.097786434 -0.060051914 -0.029981999 0.13829575 0.110220276 -0.032538757 0.16219237 -0.063863456 0.037645474 0.0950594 0.12930955 0.10117069 0.039806295 0.2025068 -0.039101604 0.09106397 0.11645581 -0.062225167 -0.11261472 -0.119104855 0.0027565104 0.12138219 -0.008966464 -0.15122192 -0.16179974 0.12113116 0.019424845 -0.2079412 0.042644378 0.116472974 0.07450911 0.07106128 -0.05548952 0.004771244 -0.089698784 -0.017996877 -0.10287787 0.055396147 -0.031595718 -0.021982579 0.06497461 -0.061583124 0.019211901 0.066239275 0.1161507 0.021787293 0.1345066 -0.0067514298 -0.023222137 0.06465366 -0.1142513 0.018708605 -0.09919779 -0.07604861 -0.01205756
14 -0.0016778142 0.031514164 0.037807122 0.3884017 -0.09956894 -0.07565969 0.2653961 0.039365306 0.058102056 0.07211038 -0.015078587 0.050042834 0.15764478 -0.2018044 -0.2209684 0.10031877 0.1790646 0.15579168 0.06355509 -0.12662931 0.011540172 0.21743448 0.22975983 -0.04614512 0.15639326 -0.062357116 0.024206916 0.10240409 0.08289883 -0.07057353 -0.04662913 0.15743104 0.050544247 -0.052493382 -0.21126054 -0.037311427 0.19681467 -0.155398 0.14255373 -0.12747458 0.031539783 0.04493606 -0.12753314 -0.1825319 0.06149697 0.09197495 -0.19411814 -0.008053833 -0.16799197 0.1364098 0.055063345 -0.055002708 -0.14029431 0.06828788 0.017167995 -0.27742216 -0.04332984 -0.19222197 -0.091974705 0.009567308 0.002505993 0.089450024 0.06906941 0.053233135 -0.18610145 -0.21973096 -0.07228024 0.10611808 0.12181198 0.11361505 -0.027590211 0.32592928 -0.003043831 0.120006524 -0.03236577 0.056305215 0.047954895 0.12560014 -0.14133869 -0.13890369 -0.13948639 0.2450516 -0.012977179 -0.1636073 0.11171651 0.08090121 0.036019254 -0.08280858 -0.04278767 0.2042165 0.026475567 -0.06173724 0.0611983 -0.091293655 0.04144722 -0.009352995 0.22682428 -0.073017225 0.17660342 0.17648923 0.19283742 0.06483562 -0.015107017 -0.15769759 0.041296706 -0.16677134 -0.12125846 0.3685556 0.13632458 0.106578864 0.029759496 -0.07152596 -0.10124237 0.19682987 0.002563871 0.039980367 0.2736182 0.029212968 -0.09562187 0.01818789 0.09502497 -0.07005201 0.025574176 -0.15327452 0.18147102 -0.023076218 -0.18119885 0.013357957
10 -0.0485195 0.058221363 0.10280997 0.0390378 -0.077321604 -0.14763308 0.020424379 0.07454777 0.02604116 0.06406229 0.17339186 -0.008033759 0.07627217 -0.105487674 -0.08427758 -0.07395726 0.02286208 0.14374334 -0.021381786 0.011510817 0.042340033 0.08109184 0.097380884 -0.010153471 -0.03167847 0.02709626 -0.10914115 0.026350537 0.04300614 -0.021166032 -0.18870848 0.11311175 -0.10699328 -0.046113327 0.030270707 0.042939495 0.1688835 0.07534577 0.15610294 -0.07563577 0.005089561 0.13498254 -0.059958376 -0.06425089 0.10109741 0.10732595 -0.10610109 -0.047393523 -0.0006235433 0.10292712 0.013377371 0.0436772 0.044988535 0.036739253 0.13132991 0.009565823 -0.009971545 0.0023661887 -0.042858012 0.004393343 0.018499274 -0.04067822 0.04625192 0.02834467 0.071641944 -0.111376226 0.021870201 0.028872704 0.12461479 -0.053054027 -0.0407403 0.08157735 -0.093425244 -0.07205705 -0.07512076 -0.044648975 0.139355 0.13945816 -0.058164388 0.16575961 -0.06948744 0.06398287 0.087095335 0.13785951 0.10926935 0.03637809 0.21346653 -0.048667192 0.08808446 0.14182097 -0.06354151 -0.1283482 -0.15298931 -0.0051846677 0.15116094 -0.021977762 -0.13404664 -0.14198612 0.12789607 0.029683474 -0.2091058 0.012356617 0.11061593 0.069106795 0.03156185 -0.049447834 -0.0014137956 -0.031296488 -0.037375636 -0.111385845 0.062189598 -0.053313363 -0.03280739 0.08197841 -0.081904106 0.02307362 0.08793063 0.1116382 -0.0054063094 0.12555006 -0.004835401 -0.024688128 0.057141818 -0.12494541 0.034452114 -0.11057063 -0.08639761 -0.0049982173
17 -0.06755118 0.06520458 0.1325021 0.022915455 -0.094237864 -0.19121948 0.035484534 0.12121848 -0.0059377253 0.05179732 0.2011595 0.0074932203 0.05979339 -0.09516733 -0.07603635 -0.110462144 0.03248637 0.14784142 -0.029003182 -0.005422491 0.053815972 0.047616567 0.097782426 -0.025309617 -0.016414557 0.010430541 -0.1072048 0.045874793 0.049426015 -0.031641256 -0.19856928 0.118543364 -0.11156406 -0.06506092 0.03886798 0.048345603 0.18225917 0.08729124 0.14802577 -0.09500678 0.026183264 0.16574593 -0.0819845 -0.055022225 0.12495193 0.12558575 -0.12681939 -0.052241743 0.0336143 0.12874031 0.0003006193 0.061100833 0.045438237 0.040889937 0.1904377 0.0061859856 -0.016887302 0.001406294 -0.028189927 0.01350324 0.040663775 -0.047307663 0.043188132 0.026302587 0.073234305 -0.08329985 0.033138976 0.03801846 0.108689636 -0.06937102 -0.029667268 0.048066147 -0.08123176 -0.11297458 -0.05539426 -0.03421662 0.1394598 0.094588526 -0.034367558 0.14906941 -0.0512145 0.03595125 0.09192351 0.1521594 0.101319246 0.02555811 0.20586988 -0.051531095 0.088015705 0.09992279 -0.06566222 -0.109862044 -0.124746464 0.011422428 0.12178425 0.00013868758 -0.14831011 -0.1380143 0.100744456 0.019767292 -0.2230771 0.03492976 0.12119352 0.08247034 0.049819272 -0.029600572 0.0046393545 -0.09504533 -0.035944324 -0.112322174 0.043715253 -0.037597556 -0.027636027 0.046783667 -0.06779901 0.027945375 0.06598362 0.10449753 0.012490674 0.11100923 -0.02206971 -0.008076658 0.06338867 -0.11100418 -0.0012976094 -0.08755978 -0.05809552 -0.011286088
20 -0.052072827 0.043150976 0.12700103 0.07698328 -0.08926627 -0.199636 0.06139488 0.11557556 0.0027402642 0.062746435 0.19699638 0.018190118 0.06708533 -0.12631853 -0.098349266 -0.09537964 0.053957686 0.15630183 -0.032864515 -0.014459044 0.058575343 0.06688793 0.12966958 -0.0075271735 0.0109636085 0.024725523 -0.09719709 0.057045024 0.0676019 -0.05783068 -0.1944125 0.12588477 -0.07654961 -0.05564274 -0.0081002405 0.036160752 0.20272015 0.051007967 0.17446975 -0.08146762 0.023086317 0.1586914 -0.09086272 -0.07861957 0.11333453 0.10953237 -0.12762873 -0.046899937 0.013883314 0.13518606 0.019163834 0.04544156 0.03815777 0.05553195 0.15722196 -0.0049729487 -0.0053202044 -0.05471452 -0.035317246 0.032074023 0.058423232 -0.028021755 0.040769584 0.05141275 0.042159475 -0.10517658 0.049840547 0.053562257 0.11592474 -0.03967073 -0.021860085 0.081273094 -0.061144646 -0.09304432 -0.05096354 -0.022716781 0.11118122 0.113127574 -0.039422315 0.12790638 -0.07858612 0.04032108 0.078906216 0.10234589 0.080788374 0.042221345 0.17062216 -0.051561397 0.06666381 0.12480324 -0.05319903 -0.09872099 -0.10255137 -0.009192807 0.10275958 -0.019793866 -0.11686862 -0.15755041 0.11456298 0.03732608 -0.17629215 0.04221235 0.08964527 0.04439994 0.058183473 -0.04907238 -0.009013083 -0.058584858 -0.0013624583 -0.08180947 0.046787713 -0.037436284 -0.025760433 0.062464986 -0.05529806 0.006198853 0.05923436 0.09977769 0.011572865 0.10654688 -0.022244489 -0.03368337 0.04779552 -0.100162774 0.006767333 -0.080540724 -0.08655155 -0.015611142
12 -0.08916414 0.095046066 0.11578233 0.03550065 -0.09104639 -0.1594143 0.05104634 0.10342189 0.00070298254 0.061362714 0.20061564 0.017719068 0.07016935 -0.09218862 -0.07306344 -0.07685336 0.04586638 0.13467744 -0.0091545405 0.00936927 0.020613106 0.07712138 0.073902525 -0.051372662 -0.025025863 -0.0043257335 -0.100755036 0.035399336 0.009997077 -0.01353237 -0.16235916 0.104548246 -0.11267819 -0.06475524 0.04011574 0.047684383 0.16854177 0.084613055 0.124416165 -0.108345136 0.016757755 0.13644981 -0.05723067 -0.064229794 0.11471011 0.12408973 -0.120885864 -0.033658672 0.0138274 0.121796794 -0.0016375742 0.07227144 0.038388498 0.02513084 0.17398696 -0.023517791 -0.016457407 0.029386036 -0.014587322 -0.005813483 0.004400924 -0.058684673 0.03330246 -0.007713857 0.06866233 -0.07328591 0.006614369 0.04273072 0.07567128 -0.060520742 -0.037098106 0.05900221 -0.070685335 -0.08232004 -0.05418561 -0.030995565 0.15158314 0.089268535 -0.050331242 0.13598369 -0.04135751 0.0577629 0.061446607 0.16105394 0.09834324 0.017610785 0.22723922 -0.044650715 0.09346014 0.10576164 -0.07270413 -0.12166558 -0.13394606 -0.001625588 0.13079904 0.014227619 -0.1268613 -0.10807089 0.10508408 0.013898435 -0.22156669 0.008847074 0.13893163 0.08893876 0.039647873 -0.034067206 0.015662905 -0.050764367 -0.05690071 -0.11806822 0.047828745 -0.022200909 -0.038463116 0.04277265 -0.06581146 0.034136795 0.081391096 0.10045217 -0.013897726 0.10324534 -0.0041607707 0.0030768898 0.08235695 -0.13718057 0.02079697 -0.091967806 -0.033864494 0.004819195
16 -0.04817295 0.055205904 0.11869237 -0.0083174575 -0.050918765 -0.18597172 -0.01197409 0.091462776 0.017880369 0.05021428 0.19582613 -0.011385123 0.086202666 -0.12768967 -0.022281867 -0.12010447 0.023808246 0.14817134 -0.026531305 0.033420544 0.029694462 0.05125088 0.084604576 0.009472327 -0.03787523 0.054241527 -0.09543889 0.033267397 0.06993556 -0.03743411 -0.20976347 0.12146378 -0.12318514 -0.04588821 0.026433324 0.05406429 0.17965977 0.12093683 0.17086299 -0.08259611 0.02816388 0.15580718 -0.059218906 -0.04533088 0.11615921 0.12062288 -0.09632411 -0.067077436 0.040631175 0.11535564 0.016413182 0.06394247 0.090041146 0.054013148 0.1387631 0.05677787 -0.021431949 0.020379435 -0.037923053 0.00709014 0.037917186 -0.036168624 0.0631667 0.048805166 0.10352785 -0.11082945 0.05260934 0.009855834 0.14805362 -0.067845106 -0.03235758 0.052185133 -0.096265145 -0.09901891 -0.07754553 -0.031579997 0.14395614 0.1490147 -0.04872973 0.22771351 -0.062240776 0.035428222 0.102029175 0.16135293 0.11822403 0.04384707 0.22266012 -0.054751687 0.09500088 0.121407 -0.093930684 -0.145142 -0.17424008 0.009824007 0.14289899 -0.013686633 -0.16955347 -0.16345693 0.14697753 -0.0022074915 -0.25648794 -0.0011013006 0.1379101 0.09952544 0.042189784 -0.043405663 0.014546205 -0.09873339 -0.031329587 -0.11982719 0.07779594 -0.02924792 -0.021206437 0.07567214 -0.10640648 -0.010300767 0.05751548 0.10003135 0.008738028 0.16153714 -0.02199253 -0.022171728 0.070763975 -0.13313869 0.020544525 -0.12755655 -0.07201591 -0.0132164
