1813 128
1222 0.14561346 -0.25513583 0.15994614 -0.049166843 0.13892509 -0.17003731 0.007047062 0.1796189 -0.034879267 0.04469939 -0.029387891 -0.019792026 -0.13198401 0.03158149 -0.11545924 -0.010822449 0.15794967 0.20669593 -0.011065669 -0.36964315 0.61832714 0.17098153 -0.05889121 -0.124843076 -0.1840897 -0.07343593 -0.13262154 -0.00916445 -0.052762713 -0.64253837 0.020533934 -0.14613692 0.057986733 0.28441727 -0.5622173 0.13859701 0.29104736 0.124531366 -0.058992986 -0.29073688 0.23512879 0.29452792 0.4498985 -0.045372065 -0.13514014 0.27232584 0.41634473 -0.15067604 0.62956405 0.15776509 0.014430384 0.005407255 0.00011695048 0.0965232 -0.2017293 -0.15188242 0.11221427 -0.11662247 -0.049667176 -0.053178426 -0.25822192 -0.20743816 0.11043186 -0.015582664 0.32772785 -0.13586667 0.15922594 0.036207527 0.1948901 -0.09351483 -0.02186687 0.0118128555 -0.013164382 -0.29795364 0.15981823 -0.025277631 0.08351192 -0.20924866 0.2932547 0.4366573 0.029113209 -0.27192318 -0.105494976 0.14829965 0.29742292 0.22758417 -0.25663954 -0.3847983 0.31382817 -0.009033785 -0.102731586 -0.16933799 0.16332564 -0.20088226 0.05278728 0.2557252 0.059581853 -0.11659147 0.009107977 0.4253254 -0.6482441 -0.09591808 -0.23408477 0.331525 0.072767526 -0.31872407 -0.045628585 0.26293355 0.50675404 -0.2013629 -0.09774795 -0.19630861 -0.24372464 -0.07562518 -0.06810268 -0.17118926 0.24693367 0.13706625 0.5306688 0.1917192 -0.5180279 -0.014632502 0.35181585 -0.05230063 -0.6062803 0.12846898 -0.51141673 -0.41611794
865 -0.49269503 0.18645315 0.48511353 0.11800587 0.31012583 0.10594828 -0.13845198 0.5852232 -0.15067685 -0.2809661 -0.12046963 -0.15837103 -0.12279271 0.08309556 0.14783525 0.06349148 0.022265807 0.28860334 0.37272078 -0.05547224 0.36409035 0.012327872 0.28953734 -0.24766241 -0.31233698 -0.047205333 0.0027139492 -0.14970806 -0.16409817 -0.24193718 -0.13625598 -0.08746957 -0.13692954 0.30509654 -0.21032704 -0.023986064 0.34808964 0.039402653 -0.36563188 -0.6199609 0.07045519 0.5274511 0.14332761 0.26547557 0.13712344 0.11218568 0.33274487 -0.31395042 0.42063355 0.035770122 0.0615813 -0.10613315 -0.074318245 -0.033827838 -0.29152903 -0.010537729 0.56495225 -0.30153126 -0.49077767 -0.39871338 0.2409726 -0.049437277 0.28610688 -0.18296613 0.35890982 0.40775025 0.03572216 -0.19070701 -0.03619137 -0.26957583 0.13766815 0.0793009 -0.058762964 -0.27164328 0.18221472 -0.20044798 0.3126677 -0.1803935 0.500943 0.067571536 -0.11702448 -0.21498974 0.23484622 0.3495582 0.09870402 0.10748527 0.030520076 -0.32853252 0.26061508 0.08194632 -0.070056215 -0.30718932 -0.052646033 0.060106784 -0.02813989 0.29827148 0.08842717 -0.09496693 0.047716342 0.6419521 -0.09421301 -0.11835741 0.2063014 0.26220122 -0.12984562 0.074653536 0.12802677 0.11850342 0.61994815 -0.54213387 -0.0358197 -0.12217882 -0.32074186 0.01510341 0.3175195 -0.009092146 0.35123637 0.1227406 0.46162462 0.0366781 -0.658431 0.07990523 0.16832119 0.36390936 -0.2521689 0.16835088 -0.18943074 0.177717
1467 -0.470664 0.12599924 0.3835565 0.19890486 0.35222638 0.03177827 -0.1287702 0.6246168 -0.15144418 -0.21315265 -0.08881118 -0.17951417 -0.12755534 0.04919063 0.19549723 0.18830255 0.003308368 0.30640343 0.32859826 -0.029063776 0.32080957 0.13553615 0.26688376 -0.14098758 -0.2935034 -0.026814893 -0.09522861 -0.23672862 -0.04193664 -0.18220632 -0.11398557 -0.12113938 -0.108043365 0.38225567 -0.13825214 -0.11914065 0.34746686 -0.02388652 -0.42860657 -0.6231005 0.0032736324 0.4794563 0.2006732 0.23431554 0.117183104 0.06530701 0.4042231 -0.32849598 0.4454146 0.04354209 0.087167054 -0.1545408 -0.05304777 -0.007953825 -0.25016385 -0.05020549 0.5103026 -0.3164419 -0.52675605 -0.39175797 0.261316 0.0030210929 0.19663596 -0.14597136 0.48731372 0.39633298 -0.09592896 -0.15332823 -0.068335466 -0.28786904 0.14865413 0.06151746 -0.024684835 -0.25823325 0.14654136 -0.2705487 0.24899736 -0.16372953 0.4719156 0.2212085 -0.12859169 -0.26958448 0.20690198 0.3170495 0.07802161 0.024518574 -0.022648972 -0.37478682 0.26474556 0.043201 0.017998252 -0.19885613 0.08488181 0.016545512 -0.103250444 0.23821667 0.20112756 -0.03815932 0.045021765 0.64320153 -0.13303348 -0.16870196 0.07035176 0.27757135 -0.19135262 0.07802356 0.10327881 0.12513824 0.59307736 -0.5685625 -0.05573456 -0.077393144 -0.43170488 -0.015296698 0.27669743 0.07740591 0.32613423 0.06928763 0.5329565 -0.003875997 -0.61159396 0.115124516 0.2640085 0.39057317 -0.25148705 0.20834364 -0.22300062 0.18914248
831 -0.52602726 0.114326656 0.4947616 0.18296702 0.2939768 0.023486774 -0.29994318 0.6514337 -0.08980234 -0.2441397 -0.043023217 -0.083170146 -0.059099786 0.06488112 0.20824404 0.102450386 0.066631675 0.259767 0.38277906 -0.09263908 0.32524964 0.14507444 0.21371402 -0.1964728 -0.2927247 -0.023079822 -0.035013705 -0.13866588 -0.106916614 -0.21142432 -0.22143373 -0.14269447 -0.15365458 0.38175276 -0.13843572 -0.07213323 0.301422 0.04426301 -0.4307033 -0.6467088 0.12225154 0.5369833 0.19920754 0.2245679 0.15685548 0.06299067 0.37092957 -0.25591382 0.40924263 0.048306156 0.08971472 -0.03759529 0.0022306321 -0.053415027 -0.2404648 -0.056847945 0.54949814 -0.23338851 -0.53386784 -0.3779852 0.22534296 -0.048459798 0.2955293 -0.15626992 0.37473467 0.42180705 0.03553332 -0.17231554 -0.03944377 -0.336151 0.15765697 0.08068199 -0.12984604 -0.23877029 0.16151147 -0.26734102 0.23639517 -0.22246556 0.53509754 0.091103114 -0.12245166 -0.29704794 0.23818426 0.24322428 0.05930464 0.092233464 -0.112436876 -0.37039444 0.3094801 -0.019155579 0.034587584 -0.2492586 -0.040429648 0.15002878 -0.08193536 0.26094806 0.10994568 -0.11534658 0.060230803 0.5724599 -0.061234064 -0.11707684 0.08527946 0.2505896 -0.09219581 0.09091121 0.13559869 0.12888134 0.48914868 -0.5760511 -0.092363074 -0.16265519 -0.3520961 -0.022207897 0.34981266 0.0746788 0.30574417 0.029918902 0.4871412 -0.052673195 -0.68575037 0.110387444 0.21198915 0.32788536 -0.24600583 0.126499 -0.17194228 0.091663994
667 -0.45316118 0.11015045 0.44326758 0.124487035 0.2808008 -0.011283788 -0.16759796 0.5777092 -0.19828628 -0.1710485 -0.12482377 -0.10788845 -0.14987537 0.056127287 0.26553506 0.15310466 0.08754244 0.1565968 0.4631093 -0.07249779 0.27883738 0.09887667 0.26323095 -0.23990826 -0.2921944 -0.02002859 0.009056714 -0.17116046 -0.11319533 -0.2287194 -0.23567347 -0.13816153 -0.14172392 0.2550441 -0.14854676 -0.021228015 0.31310153 -0.013289684 -0.50166506 -0.5883257 0.121059015 0.53676593 0.10573504 0.23051402 0.11492629 0.042576183 0.3984189 -0.25131252 0.40413627 0.057628483 0.050793316 -0.051728074 -0.03169895 -0.054011527 -0.22191462 -0.061428424 0.50510406 -0.29186794 -0.47365177 -0.35421008 0.13189986 -0.032302525 0.22851191 -0.2590785 0.37658516 0.38858408 -0.03835368 -0.23423454 -0.068161555 -0.1710468 0.11005843 0.03992764 -0.09243478 -0.2878772 0.12480364 -0.1610928 0.31901777 -0.20492952 0.5777762 0.035669617 -0.21283844 -0.2854331 0.23835619 0.35792834 0.038922023 0.1020907 -0.047063828 -0.3013892 0.32556027 0.007516894 0.019997736 -0.20909068 -0.10023116 0.09758765 -0.05157029 0.23584536 0.1728945 -0.09434181 0.058389705 0.62449116 -0.19169652 -0.13363667 0.15120387 0.27861452 -0.11238244 0.064834334 0.15533014 0.12609172 0.56886107 -0.62093866 -0.01127362 -0.103712864 -0.24491142 0.019395323 0.38956508 0.06948528 0.39401597 0.010797106 0.4866305 0.011574432 -0.5855395 0.10043578 0.2905769 0.36289242 -0.17965591 0.18832032 -0.32639396 0.097177036
161 -0.07148944 0.28612575 -0.057124052 0.10998246 0.45596817 0.041929528 0.007420254 -0.35317066 -0.4652404 -0.18241613 0.058131598 -0.14054988 -0.23097889 -0.40929872 0.074431606 0.019578813 -0.27361465 0.093201764 0.24513271 -0.2572038 0.4811005 -0.16724193 0.0715077 -0.20184793 -0.4668177 0.08031419 -0.089891806 0.12198353 0.08634858 -0.1310168 -0.11914977 0.080092505 0.2916955 -0.14383411 -0.28492177 0.31180102 -0.17414922 0.2533842 -0.05400162 -0.49897754 0.13388403 0.42223176 0.256116 0.37006834 0.24016722 0.054492872 -0.013678389 -0.092208914 0.42232156 -0.20167573 0.21308523 -0.03912139 0.27951533 -0.32502294 -0.23082365 -0.5281702 0.28609064 0.049950026 -0.2380456 -0.04981892 -0.29122466 0.06382503 -0.020422187 0.2640934 0.29540214 0.010681893 0.1481669 -0.2860078 -0.0544685 -0.3573401 -0.5470895 -0.014097196 0.21026643 -0.3999085 0.23505743 -0.13867728 0.2725941 -0.22019157 0.075169474 0.3857204 -0.08923671 -0.4720529 -0.021282477 0.66590345 0.24753554 0.24219479 -0.045311175 -0.19710597 -0.08908241 -0.5698783 -0.143398 -0.42944047 -0.0288695 0.34720764 0.20420334 0.39041498 0.19709514 -0.2523218 -0.03500887 0.075148635 -0.27667722 -0.4234907 0.16565154 0.17029811 -0.33205196 -0.124226496 -0.18220808 -0.011974939 0.34469292 0.14995126 0.2583292 -0.34263152 0.11895178 -0.031231333 0.2781167 0.3754883 -0.41312468 0.22535825 0.018667618 0.1533862 -0.33238152 0.12249592 0.17575218 0.09699536 -0.863955 -0.19369118 -0.68522877 -0.111404665
1377 0.06416965 -0.18763012 0.15042631 -0.17166398 0.016047426 -0.2245286 -0.08199573 0.1982338 0.032125935 0.02088414 -0.067756906 -0.1413651 -0.042784907 0.00014000245 0.0362345 0.040635657 0.24921218 0.28548455 0.039137498 -0.37510726 0.55634177 0.30691946 0.04246475 -0.20239495 -0.19363618 0.027713327 -0.10485991 0.022195635 -0.09064954 -0.58407235 0.0140330335 -0.14661174 0.120554216 0.25538728 -0.64088416 0.15282774 0.2486995 0.1368462 -0.07912443 -0.25223112 0.25398916 0.29007468 0.4590862 0.0056791804 -0.10626392 0.27767846 0.34829465 -0.0731637 0.55637115 0.13749468 0.04094382 -0.057735883 -0.035859186 0.081005804 -0.2117574 -0.13157557 0.04150282 -0.018361727 -0.17027801 -0.035001747 -0.2770393 -0.116005294 0.122670524 -0.04294847 0.35661727 -0.14628924 0.17433408 -0.022282822 0.19832647 -0.1140396 -0.11922102 -0.067440614 -0.056626216 -0.25511593 0.2584382 0.031349953 0.0628411 -0.26778796 0.2597845 0.4188468 -0.011957591 -0.14056383 -0.11984454 0.027125018 0.26891702 0.12191484 -0.28034008 -0.45202604 0.37878492 -0.05738629 -0.030947573 -0.13392262 0.10612266 -0.14039548 0.0514588 0.2421925 -0.0043697413 -0.016472444 -0.11525816 0.43937388 -0.59215933 0.003793541 -0.15404844 0.32522732 -0.05747203 -0.19460146 -0.001224803 0.19295894 0.49884194 -0.29608554 -0.09184708 -0.30028123 -0.15577902 -0.09275884 -0.15389912 -0.102756724 0.2941961 0.28632578 0.610973 0.16853352 -0.50950795 -0.087953955 0.3116002 -0.117989376 -0.7205161 0.15714388 -0.53736484 -0.34397337
286 -0.11934377 0.27534083 -0.007318711 0.14770275 0.4076882 -0.09446176 -0.10170325 -0.3976689 -0.46665198 -0.12628451 0.18271372 -0.1278876 -0.28180054 -0.4055641 0.04049943 0.086328655 -0.29574707 0.17020819 0.33537692 -0.24908043 0.4174791 -0.04680704 0.022022888 -0.38220578 -0.5353105 0.11038448 -0.10877875 0.01775788 0.18605661 -0.20492356 -0.13071704 0.11981018 0.24178125 -0.0014317012 -0.24728623 0.34573525 -0.21962336 0.36419696 -0.053315636 -0.531551 0.12155698 0.3871298 0.21949105 0.393295 0.22193114 0.07819383 -0.022282135 -0.0012063129 0.3309865 -0.20828961 0.15028386 -0.13387771 0.26692742 -0.32716823 -0.1874566 -0.48540342 0.34022048 0.10707864 -0.11938312 -8.977442e-05 -0.3336765 -0.0686999 0.04060724 0.18655804 0.27725962 -0.013589831 0.24967602 -0.21086131 0.0047940034 -0.3454301 -0.6615341 -0.13794917 0.22879401 -0.42201042 0.115930185 -0.05929576 0.2126623 -0.26265043 0.072983705 0.399024 -0.06624705 -0.4115427 -0.12439528 0.6647166 0.22126776 0.27229422 -0.08779895 -0.27895898 -0.121284686 -0.5239115 -0.13103627 -0.28315794 -0.06884635 0.40627372 0.10254936 0.29193887 0.28057832 -0.2512889 -0.06686142 0.21032937 -0.31975332 -0.43790457 0.15642332 0.19177653 -0.30995604 -0.0017394227 -0.16906719 -0.04160455 0.32482556 0.13385907 0.15072763 -0.48466617 0.15364614 0.078083165 0.37596002 0.4295376 -0.3903702 0.1617004 0.15885207 0.14571053 -0.38676283 0.19880691 0.17755163 0.09358805 -0.87751245 -0.23472856 -0.6811335 -0.048024055
294 0.13431157 -0.18242577 0.2527125 -0.2107499 -0.012703191 0.019120494 -0.40085703 0.27128178 0.20594928 -0.048079737 -0.039462313 -0.04157168 0.04239666 0.16945954 0.36010203 0.45383695 -0.1906757 0.46286333 -0.110373564 0.22561291 0.36138228 0.025462171 0.06562743 -0.26894268 -0.3224813 -0.08053207 -0.19962122 0.049942277 0.016010145 -0.19404498 -0.25900778 -0.15658323 0.25035366 0.17916274 -0.3425477 0.10692498 0.05794824 0.11661207 -0.23904808 -0.6089828 -0.09214653 0.52318966 0.13900046 0.038550146 0.35324603 0.09691289 -0.018252127 -0.39816457 0.48869222 0.1995635 0.0921479 -0.07090242 -0.06995502 -0.30187586 -0.25286892 0.30360925 0.68245876 -0.06856889 -0.13050105 -0.25169337 -0.43602082 -0.34616524 -0.00058470573 -0.32844058 0.10450603 0.2568309 0.21540345 -0.16625232 -0.0326396 -0.1727119 0.032262105 0.1651096 0.08606932 -0.42600235 0.35003996 -0.40493798 0.32922655 -0.059944637 0.21628404 0.30839804 -0.24562071 -0.321407 0.06458938 0.29774585 0.57689565 0.2029548 -0.37282628 -0.27661556 0.24111158 0.07575232 -0.12286789 -0.021313181 0.11121868 0.042171855 -0.026025362 0.07107017 0.085669704 0.14574331 -0.20426841 0.36826977 -0.49651113 -0.17394578 -0.09337707 0.17572646 -0.026719846 -0.09985054 0.14176154 0.31294075 -0.094450854 -0.3555923 0.08171605 -0.05752857 -0.089917146 -0.09318913 0.18033607 0.00049356575 -0.091569565 0.023827601 0.22531028 0.14468905 -0.2961282 -0.05756659 0.03194293 0.26969138 -0.81022024 0.26637957 -0.6364802 -0.49546883
357 0.040040437 -0.20676607 0.35387337 -0.2329617 -0.08272668 -0.037429664 -0.41803095 0.25437465 0.25902712 0.0016824246 -0.11363773 -0.06802473 0.015314505 0.13570775 0.2878913 0.5387539 -0.22553548 0.4622866 -0.18875144 0.25385812 0.2911621 0.06192362 0.022819532 -0.20517524 -0.2624776 -0.031907137 -0.1560109 -0.0013840087 -0.019987911 -0.19245093 -0.23761122 -0.11809255 0.28061444 0.17340843 -0.3015506 0.16407728 0.024222309 0.030449325 -0.18966354 -0.67459935 -0.12146182 0.44707865 0.21052593 0.12274469 0.37352052 0.13923647 0.013337499 -0.32545668 0.4285393 0.14659145 0.16532707 -0.12025541 -0.109117515 -0.23062757 -0.24662986 0.2666557 0.69664824 -0.087302275 -0.19048075 -0.28704107 -0.36422122 -0.33322886 -0.010365618 -0.24540985 0.12091624 0.2771414 0.25386783 -0.19710834 -0.07016069 -0.091610275 0.08342115 0.16138981 0.076824345 -0.43214837 0.324759 -0.43649858 0.23802236 -0.123001 0.2236468 0.2877935 -0.21939455 -0.3375138 0.04227339 0.32204005 0.6384175 0.22314401 -0.37307888 -0.264452 0.18139428 -0.0015506118 -0.07764294 0.026344286 0.05295893 0.03789074 -0.06384615 0.19232674 -0.0025242514 0.1499692 -0.19700694 0.30592015 -0.50859016 -0.19323903 -0.13409828 0.1796349 -0.060328335 -0.13064866 0.10482586 0.32526705 -0.08071593 -0.31152934 0.016559592 -0.12705268 -0.074016556 -0.10142684 0.142878 -0.0216189 -0.104183786 0.02954657 0.23207045 0.1228731 -0.31480202 -0.08268324 0.048041023 0.22207196 -0.83861375 0.2822489 -0.6503052 -0.45565373
354 -0.0871489 0.3792186 -0.054480072 0.086332455 0.37620145 -0.06939482 0.022531914 -0.31866977 -0.4932672 -0.160328 0.11204473 -0.13157307 -0.15850112 -0.471055 0.08292216 -0.019960877 -0.29754835 0.1827994 0.30602908 -0.2668515 0.42519644 -0.19282147 0.04865335 -0.37251967 -0.5084474 0.03591449 -0.07201722 0.07988548 0.19362226 -0.14925824 -0.17655227 0.09753214 0.15768705 -0.09653318 -0.2097975 0.33626822 -0.2320981 0.27656922 -0.03351553 -0.5462412 0.09953339 0.4764638 0.31659737 0.45464066 0.29972607 0.10082447 -0.06545829 -0.098763846 0.3507394 -0.2566865 0.24576525 -0.051443566 0.22933248 -0.21406223 -0.2459014 -0.58336157 0.30596206 -0.007435121 -0.22663885 0.012687257 -0.34019944 0.061413463 -0.030815208 0.24084347 0.25853434 0.04789151 0.2223041 -0.27142867 0.013366277 -0.32870683 -0.54944783 -0.11895375 0.17366922 -0.35029644 0.12289592 -0.13796929 0.24290808 -0.18323235 -0.034486134 0.3875806 -0.054294083 -0.42508256 0.026132334 0.620629 0.2888847 0.2863512 -0.10031438 -0.23964804 -0.12793952 -0.48384032 -0.0710964 -0.31598815 -0.067961074 0.41692853 0.11282254 0.38323736 0.17167988 -0.063532874 -0.022414738 0.24900955 -0.27043438 -0.3886515 0.16462702 0.17757617 -0.32025546 -0.0936298 -0.11962071 -0.041214433 0.41145435 0.23208366 0.1636258 -0.4094701 0.15568085 -0.0392047 0.3114723 0.28008935 -0.37156537 0.2684679 0.1497353 0.14453803 -0.29977804 0.26053873 0.21002242 0.04893373 -0.90799665 -0.24595414 -0.5899982 -0.08559555
24 -0.07828559 0.07492503 0.26597047 -0.24989457 -0.018955557 -0.2626234 -0.17854872 0.18824138 0.23401478 0.16563718 -0.1376602 -0.2573667 0.09125663 -0.09863699 0.2781187 -0.05739883 -0.31115943 0.5997573 0.26440358 -0.30139875 0.58054817 -0.34892687 -0.11346765 -0.20559011 -0.4423073 -0.25125945 -0.006392919 -0.073547736 0.24133164 -0.28679365 -0.009873594 0.4674381 0.23619413 0.43813762 -0.21692443 0.4431803 0.14991172 0.084696986 -0.15281713 -0.35869816 0.056939114 0.32085562 0.009123262 0.051420912 0.40357867 -0.29604265 0.106256515 -0.3675986 0.7008594 0.2587001 -0.19914116 0.30392313 -0.44131783 -0.16407217 -0.14351358 0.035758495 0.20816432 0.041919358 -0.045946438 -0.35391268 -0.18922795 -0.21332017 0.26295033 -0.108925566 0.2839791 -0.17390017 0.103045635 -0.4552084 0.008828087 -0.24543579 0.19415025 -0.05337364 -0.20173553 0.008993363 0.1275837 -0.53830904 -0.05683634 0.0104559455 0.57437336 0.12619469 -0.2517822 -0.28080183 0.21624073 0.07898226 0.6457654 0.43258032 -0.17355132 -0.7868088 0.01674432 -0.10608884 -0.32016242 0.36910447 0.09985667 0.23243052 0.34740043 0.59218276 0.1291759 -0.05477034 -0.25026804 0.39238662 -0.7266865 -0.14838552 0.04466337 0.1853759 -0.1571363 0.18816727 -0.29492223 0.2913954 -0.054281898 -0.025215402 0.036311515 -0.016870854 -0.20398732 0.15982528 -0.019121932 0.4545117 0.16626532 0.2779503 0.35182413 -0.06266384 -0.35268238 -0.654047 0.111855164 0.03419894 -0.6415112 0.36991683 -0.40540922 -0.086870275
283 -0.1373077 0.2555839 -0.0022294854 0.17760162 0.3260717 -0.08747302 -0.15301089 -0.32401428 -0.3313138 -0.1765668 0.26969874 -0.05038458 -0.32257804 -0.2724929 -0.10967164 0.048458207 -0.25390682 0.027806632 0.16815397 -0.16113688 0.5115952 -0.23934951 -0.05323303 -0.26782933 -0.62728786 0.016467683 0.046498448 0.043393973 0.27056655 -0.30919582 -0.21502 0.14913018 0.16517739 0.024223004 -0.20832591 0.2729219 -0.15887323 0.3903466 -0.081923224 -0.47695222 0.2008079 0.38957724 0.29300088 0.48939377 0.33051553 0.053652905 -0.09284748 -0.08900838 0.24089052 -0.11062459 0.29324892 0.10138104 0.15450849 -0.2712976 -0.24252494 -0.38057175 0.25849885 -0.07963137 -0.22452006 -0.02215519 -0.39521128 -0.16408023 -0.037956875 0.24861115 0.29182693 0.0631519 0.22649059 -0.29801732 -0.06693367 -0.3467239 -0.49246618 -0.06003849 0.07626479 -0.25081044 0.099246174 -0.08589056 0.23851423 -0.25519365 0.067589045 0.4152777 -0.046965424 -0.48636413 -0.0072827516 0.5952947 0.19636045 0.17645866 0.03864533 -0.4272886 -0.06018764 -0.48401943 -0.007566791 -0.25777477 -0.019472498 0.33909672 0.17591676 0.3702621 0.08821928 -0.10192124 0.0036924528 0.13692853 -0.063325845 -0.39890683 0.10708238 0.2603743 -0.34682766 -0.15214162 0.0056041246 0.013016917 0.32400352 0.25810865 0.2191665 -0.44445145 0.15853375 0.10262741 0.35109383 0.29347754 -0.31795782 0.20302916 0.14990483 0.13655373 -0.41923597 0.32669824 0.11229899 0.047211405 -0.87400573 -0.26448894 -0.70002 -0.16389538
67 0.12504931 0.050076637 -0.34148696 0.24882942 0.053569153 0.14544412 0.016615734 0.30691582 -0.16616869 0.23119216 -0.2815042 0.015634453 0.15802376 -0.45850903 0.44040787 -0.16294785 -0.7340067 0.2975585 -0.48416066 0.5312488 -0.3806187 0.41607252 0.2040865 -0.21781394 -0.21321528 0.27541155 0.079982154 0.2758763 -0.29347062 -0.3827311 -0.4951879 -0.28836668 -0.70457006 -0.036539067 -0.35927832 0.43878594 0.22103007 -0.20456092 0.5498704 0.3839003 0.23615022 0.069261804 -0.082022816 -0.118388765 -0.35490382 -0.18914735 0.37857756 -0.11792413 -0.15300423 -0.22683448 0.33772954 0.2871835 -0.046593282 0.41005984 0.22385116 0.14048189 0.25684255 -0.3778503 -0.07054115 -0.405278 -0.12708353 -0.1314545 0.5936306 0.27868122 0.17683944 -0.1851662 0.39115554 0.3219473 -0.29969957 -0.37618357 -0.20226069 -0.35889688 -0.17152905 -0.06897115 0.11412518 -0.6771414 -0.48573622 0.09640891 0.0057716514 0.038884774 -0.2396814 -0.07913468 -0.16528262 0.21384683 0.052699253 0.49587923 0.18798707 -0.5146969 0.0045729233 -0.0132105015 -0.07408785 0.2492463 0.47845957 0.074703775 0.4426282 0.023187188 -0.024165846 -0.18973507 0.11547155 -0.1092112 -0.38713676 0.037935678 0.15229899 0.27994195 0.01919037 -0.022131674 0.16461377 0.022178328 -0.26814875 -0.07391976 0.4142343 0.07922196 0.060659535 0.45515075 0.34234688 0.49552146 -0.018492006 0.32046488 0.43731493 -0.37481967 -0.064884804 -0.27832073 -0.52492464 0.5099355 -0.24520424 -0.30136946 -0.1063114 -0.7349593
6 0.16396493 -0.038084786 -0.29347697 0.32645273 0.07541549 0.17794515 0.05468259 0.31936008 -0.18919793 0.3359973 -0.26533216 0.07839577 0.115410864 -0.44419974 0.4877531 -0.1328505 -0.7837083 0.2961222 -0.49722803 0.49151444 -0.3962673 0.35468373 0.20782468 -0.3350013 -0.18788727 0.23154435 0.029097453 0.2620457 -0.29371047 -0.33200368 -0.4458017 -0.3166801 -0.6780492 -0.035805475 -0.34873557 0.4436329 0.214661 -0.13805862 0.5682862 0.37667993 0.22658384 0.06433385 -0.02055507 -0.03669717 -0.23589067 -0.20275915 0.3699335 -0.06820188 -0.1526823 -0.22094019 0.31779924 0.20950133 -0.1011066 0.362928 0.19259074 0.13402414 0.24166183 -0.3562246 0.00276314 -0.39691466 -0.13386628 -0.14286827 0.52560365 0.21796031 0.2017538 -0.20534597 0.39041293 0.32124054 -0.23708043 -0.47251284 -0.15353261 -0.33887076 -0.17393337 0.0117893 0.032103896 -0.6725479 -0.50361323 0.044521686 -0.03505692 -0.01067944 -0.19629376 -0.09277567 -0.16877674 0.22871916 0.04967773 0.46390235 0.14239605 -0.44391477 0.03986395 0.0030675281 0.02361988 0.27386776 0.50096405 0.06405132 0.44765437 0.009884271 -0.029251404 -0.22544292 0.07453246 -0.08960377 -0.41277197 0.057942573 0.10489899 0.2631776 0.021535205 -0.008118375 0.15784764 0.08765557 -0.25002518 -0.08552009 0.40178138 0.0649718 0.10649154 0.5088138 0.41557914 0.51127124 -0.027872628 0.2770445 0.42493403 -0.38132808 -0.001066475 -0.30273384 -0.49439216 0.554113 -0.27631474 -0.2584776 -0.042321704 -0.7017074
2 0.13845848 -0.06637244 -0.35998416 0.29143506 0.09071655 0.03162034 -0.028970696 0.29908067 -0.22159708 0.41124177 -0.2518317 0.037930083 0.25156295 -0.43116176 0.42668447 -0.10984588 -0.740506 0.35337988 -0.42559835 0.4403198 -0.3951823 0.42675734 0.17110412 -0.25814936 -0.23295099 0.28103954 -0.113160364 0.28409103 -0.24542144 -0.30191234 -0.48817357 -0.35459572 -0.6765262 -0.0809304 -0.32647288 0.43683112 0.1848457 -0.26329684 0.5426827 0.2710321 0.21342921 0.10777506 -0.10010773 -0.059759997 -0.35279197 -0.14849462 0.43630183 0.00075989147 -0.108441174 -0.2715948 0.3272265 0.24993256 -0.075511865 0.38318896 0.204305 0.06333992 0.29242128 -0.39547902 0.044456504 -0.4221029 -0.15946704 -0.15199532 0.6455584 0.3081075 0.18097565 -0.17513902 0.3546435 0.3028115 -0.26587188 -0.37530148 -0.23216514 -0.31541896 -0.15813686 -0.026607582 0.026957506 -0.5939506 -0.4277343 0.060939953 -0.023171086 -0.06677917 -0.20619774 -0.03361343 -0.14057799 0.25210312 0.05709775 0.5736633 0.17658702 -0.42256755 -0.07559658 0.03866514 -0.11175601 0.19909388 0.50342315 0.070438534 0.347004 0.0027389617 0.0679 -0.2129216 0.07043035 -0.07589823 -0.37707984 0.026536824 0.08658327 0.25259387 -0.021077035 -0.044710442 0.120681904 0.07588815 -0.21104582 -0.071774244 0.38295835 0.19967026 0.10309335 0.3948515 0.34773564 0.54609025 -0.009919888 0.22756816 0.35284317 -0.49969795 0.017501364 -0.3350905 -0.42013296 0.5260435 -0.22238919 -0.25288737 -0.09400585 -0.7040004
53 0.11045133 0.0073029106 -0.32403508 0.22748 0.102792755 0.13115461 0.022576049 0.36542866 -0.29349405 0.35073417 -0.26028058 0.052192688 0.17918259 -0.45125568 0.519496 -0.11483429 -0.7734084 0.22897115 -0.46024936 0.48423314 -0.36323544 0.3330613 0.102331735 -0.3696591 -0.20609355 0.20070896 0.0021322528 0.19186072 -0.2670976 -0.33549857 -0.4789221 -0.38942358 -0.62973225 0.013767013 -0.18505599 0.4607778 0.18613213 -0.23232761 0.5556362 0.41226268 0.27365583 0.11640827 -0.13508584 -0.11290086 -0.35151386 -0.20116891 0.34888855 -0.01769216 -0.17306553 -0.22853424 0.3455857 0.17119929 -0.0021375518 0.3336167 0.20798798 0.08263532 0.34020734 -0.37231863 -0.00088421995 -0.37080136 -0.1442431 -0.20541865 0.54475653 0.23104675 0.19703698 -0.16046402 0.53031695 0.25394657 -0.32883626 -0.3778717 -0.18619777 -0.32302853 -0.16817664 0.0053806733 -0.06805776 -0.58469796 -0.48117402 0.07929673 -0.08021172 -0.043490954 -0.2797108 -0.097489275 -0.12627982 0.16482322 0.029595232 0.48811206 0.14285095 -0.4180893 -0.003248468 0.044348728 -0.103107974 0.19585395 0.52195513 0.13108118 0.4129122 0.009730551 -0.06643612 -0.24908505 0.021759838 0.042346373 -0.335532 0.04496592 0.15239751 0.3229082 0.056346316 -0.019609347 0.102381304 0.04031286 -0.20428182 0.00043827636 0.40010044 0.023664804 0.12052078 0.43954593 0.32832682 0.47482294 0.01684689 0.25292495 0.43869835 -0.40653673 -0.11886789 -0.28797135 -0.4469557 0.56044835 -0.2528231 -0.21592978 -0.119668975 -0.73105466
8 0.11776872 0.029259609 -0.33678186 0.29907864 0.116815455 0.09838048 -0.009444718 0.31548515 -0.16997887 0.3145619 -0.32316872 0.09765706 0.18726042 -0.42272064 0.46160904 -0.119778164 -0.78805035 0.28368646 -0.4824837 0.475907 -0.31287807 0.37338042 0.0839366 -0.2968816 -0.12938532 0.21389996 -0.053500388 0.3673981 -0.25300732 -0.36132088 -0.4357309 -0.37640426 -0.6198591 -0.067466155 -0.26489812 0.42682114 0.18308796 -0.23129885 0.5664701 0.35063934 0.22044413 0.0901096 -0.08619199 -0.07852459 -0.3912959 -0.1972299 0.36370757 0.0077353143 -0.13737212 -0.32689142 0.3091845 0.17422949 -0.040942747 0.3252336 0.19133581 0.086817145 0.38502222 -0.47506544 0.04029989 -0.40192696 -0.10849142 -0.108274475 0.5519574 0.18842778 0.18855694 -0.2076914 0.45818907 0.31092754 -0.30414897 -0.3820626 -0.24606623 -0.30827808 -0.1644268 0.034738645 -0.065549955 -0.6610521 -0.4605304 0.11739624 -0.11680761 -0.07179419 -0.25331792 -0.13137291 -0.1181667 0.21823621 0.0345195 0.540355 0.19628973 -0.45985678 -0.03876472 0.09050943 0.011327262 0.18749483 0.52312523 0.12641348 0.4024204 0.018944087 0.0037197387 -0.2060233 0.013031337 -0.021317549 -0.41152462 0.13373077 0.13017567 0.25736654 -0.069794044 -0.09062851 0.18539593 0.071923405 -0.1770227 -0.091259055 0.3892066 0.05965382 0.0761543 0.42393643 0.3577451 0.47938263 -0.07710296 0.26370442 0.47687736 -0.44653225 0.0027417499 -0.30041584 -0.44055784 0.5255324 -0.2562884 -0.22575983 -0.08358752 -0.73757887
72 0.12242185 -0.04259406 -0.3319105 0.30267933 0.04413269 0.07167134 0.056837697 0.33406976 -0.21686408 0.2385291 -0.32574266 0.035391804 0.26376277 -0.49151304 0.44454688 -0.15272248 -0.7172726 0.25660852 -0.46333224 0.50692046 -0.320771 0.4094547 0.19845112 -0.341164 -0.21620671 0.19804871 0.007951737 0.27317047 -0.25335494 -0.31648582 -0.4277201 -0.37901932 -0.682365 -0.028080164 -0.29692554 0.5023289 0.12872596 -0.22163069 0.58849645 0.35223213 0.2148613 0.1571169 -0.12483716 -0.07511667 -0.31954488 -0.15895972 0.39972627 0.0012439485 -0.21324225 -0.279672 0.27567232 0.1842031 -0.070553906 0.30238348 0.15992299 0.095677815 0.22435543 -0.45229107 -0.035194013 -0.46399856 -0.2100264 -0.25642785 0.5857109 0.27999717 0.08521814 -0.2003532 0.38508868 0.26505122 -0.2413497 -0.39298418 -0.14277427 -0.35361546 -0.23832726 -0.04805853 0.0475589 -0.6004349 -0.45926824 0.074828185 -0.054521013 0.04628798 -0.25720188 -0.1481052 -0.21725123 0.21037138 0.06830188 0.4951908 0.17858948 -0.4164547 -0.007592986 0.010139679 -0.06997304 0.20634016 0.53403395 0.05671799 0.42751306 -0.00023591056 -0.00061343657 -0.25983882 0.017232848 -0.12470936 -0.37436724 -0.01685771 0.17626308 0.28657305 -0.009122897 0.040860604 0.14997181 0.035879765 -0.24792281 -0.011357084 0.39186707 -0.005907164 0.10974946 0.3651553 0.37541842 0.5043283 -0.04030381 0.25773758 0.51208854 -0.4160152 -0.0062766913 -0.35631856 -0.47394145 0.5331457 -0.21500744 -0.23059143 -0.09110575 -0.75673145
1045 0.20088054 0.20152465 0.4164075 0.00587933 -0.0214556 -0.21956536 0.1522197 0.4906338 0.07259524 0.0014727098 -0.015332522 0.26820567 0.26858592 -0.47991157 0.15034755 -0.022339143 0.20922036 0.23749174 0.2293637 -0.004731279 0.018610574 -0.18621846 -0.28988385 0.06763443 -0.42269903 0.2084015 -0.1858111 -0.10131192 0.13276213 -0.41435623 0.019494247 0.13542888 0.061891817 0.4384794 -0.6957835 -0.0013271231 0.11211922 0.18521254 -0.4013917 -0.20853521 0.31846794 0.007821381 0.4947585 0.17323849 -0.11795294 -0.15884902 0.18022741 -0.13308084 0.32892978 0.38587102 0.16970593 0.0872612 -0.17117715 -0.17583516 -0.35680792 0.38939333 0.31419417 -0.13879262 -0.094275594 -0.0037374876 -0.14664091 0.0014692022 0.026360733 0.059713453 0.47526902 -0.21724357 0.25045723 -0.33331993 0.34883475 -0.3805107 -0.094774716 -0.0034337426 -0.021020899 -0.044822752 -0.041188505 -0.073593676 0.24519739 -0.30752566 0.23708792 0.42372108 -0.03446403 -0.35855106 -0.46793833 0.26494825 0.14473054 0.26048133 -0.48441932 -0.3089398 0.37724277 -0.043425426 -0.05045815 -0.1565802 0.0605858 -0.19329931 -0.18829961 0.26588553 0.24820407 0.11051712 0.019733459 0.02304106 -0.43795872 0.039418023 0.18724163 0.3312744 -0.14362696 -0.07885241 0.24745136 -0.1412996 0.4771825 -0.27796176 -0.28587368 -0.27009553 -0.24094968 -0.04140966 -0.42873487 -0.20312823 0.26663387 0.021328699 0.5651501 0.020421179 -0.7192565 -0.17617954 0.19679728 0.15647352 -0.74633706 0.2701086 -0.5532663 -0.011540571
347 0.019752946 0.19567063 0.03158581 0.17343801 0.24541558 -0.055619456 -0.13007677 -0.26640755 -0.35058826 -0.074789084 0.25934353 -0.12143239 -0.2508966 -0.26225975 -0.019606981 -0.10399236 -0.09206213 0.081817396 0.24991253 -0.05338407 0.48233333 -0.20141529 0.05731042 -0.3686869 -0.65723044 -0.09274378 0.0016114975 -0.04115573 0.25258392 -0.24996798 -0.23644464 0.13807832 0.18878505 -0.059939783 -0.28299 0.32974082 -0.23339488 0.30886573 -0.012968227 -0.57142824 0.25448874 0.3220783 0.2917442 0.50888664 0.3015425 -0.006560631 -0.1367171 -0.055073947 0.31548175 -0.19471408 0.38269314 0.043821514 0.27680308 -0.2416523 -0.32036334 -0.393256 0.18794334 -0.07525034 -0.2455892 -0.06240195 -0.2819737 -0.11313647 0.008331049 0.18431185 0.27014908 0.05374054 0.3356693 -0.28473365 -0.1476196 -0.2699988 -0.5495401 -0.013908505 0.124030136 -0.3104629 0.1665975 -0.09831877 0.19299832 -0.3616792 0.107546486 0.4317983 0.087363526 -0.42770293 0.007803287 0.6112519 0.12516059 0.16783668 -0.06904415 -0.45310336 -0.10501715 -0.43294182 0.047716536 -0.32698962 -0.020677654 0.4541461 0.11796784 0.44173384 0.13809039 -0.126742 -0.068894446 0.11762669 -0.22416538 -0.35488424 0.080163226 0.1772377 -0.46675965 -0.18462433 -0.0667667 0.0017416653 0.42249307 0.2628458 0.1973202 -0.46675605 0.06260464 0.09496325 0.25094947 0.21499148 -0.32262796 0.24486914 0.0915465 0.09776189 -0.4610352 0.2438554 0.07539438 0.040278554 -0.839104 -0.27428225 -0.6234635 -0.19438475
700 0.19584656 0.19394013 0.39611045 -0.1083817 -0.015267905 -0.30591625 0.07543885 0.5441245 -0.010540918 -0.035484653 -0.10204566 0.23770988 0.24181168 -0.53494537 0.0940341 0.003850568 0.17584312 0.18552573 0.26837778 -0.0016316288 0.1297452 -0.20512636 -0.30139685 0.022628328 -0.41695994 0.11963774 -0.16779847 -0.08096221 0.14666201 -0.3699852 0.15462665 0.12495676 -0.011125381 0.3972132 -0.7942078 0.052721806 0.06314832 0.080708824 -0.43427518 -0.32593578 0.3766105 0.039290052 0.44323495 0.1454142 -0.1955977 -0.08011309 0.0728437 -0.06515551 0.34496856 0.21688741 0.15676984 0.056388233 -0.13475776 -0.03430818 -0.457359 0.43275625 0.25088885 -0.03573778 -0.081973866 -0.006143964 -0.14412025 -0.1373363 -0.029948717 0.021032859 0.5397799 -0.16561863 0.29949445 -0.3922623 0.3410462 -0.3357779 -0.0715356 -0.017947901 -0.06736077 -0.05423367 -0.07394391 -0.08805634 0.1740459 -0.34809196 0.3302023 0.32258502 0.049736775 -0.29557702 -0.38464674 0.23218076 0.21302949 0.31003672 -0.48290092 -0.3716744 0.45418027 -0.04383362 -0.051810578 -0.15309626 -0.044463508 -0.20874542 -0.22602367 0.25577074 0.27329448 0.0882945 0.065923296 -0.034607977 -0.4464243 0.009799336 0.23987612 0.18641566 -0.12603799 -0.12666659 0.22737701 -0.10626014 0.55557805 -0.27475533 -0.13713464 -0.2337333 -0.20535819 -0.043374665 -0.40652525 -0.06220833 0.2698584 0.04940544 0.64688987 0.11529358 -0.6171542 -0.23023066 0.030975971 0.056701574 -0.68245536 0.19246037 -0.6026046 -0.07624916
104 -0.40112945 -0.030266125 -0.16861399 -0.09235744 0.20814842 -0.25006333 0.191382 -0.07996918 -0.47011918 -0.1171755 0.19892533 -0.049320657 -0.0075473236 -0.13771792 -0.0031669168 -0.13557422 -0.048166897 0.27020273 -0.16924398 0.28747174 0.07431496 -0.20819905 -0.3346091 0.055409353 -0.33735207 -0.4098735 -0.09056229 -0.12449742 -0.6589931 0.2528667 0.0056219045 -0.017532293 -0.34551138 0.089998946 0.12538664 0.58381873 0.022974294 0.023903271 0.2935329 0.2158917 0.020151757 -0.10630945 0.6120787 -0.2590234 -0.48813635 -0.0998428 0.46324077 -0.06870608 0.24914959 -0.057141453 0.44569376 -0.14446045 -0.34437612 0.01578094 -0.21338268 -0.007984554 -0.13205498 -0.44827065 -0.031512093 0.35551196 0.051241003 -0.06078994 -0.00811938 -0.20794125 0.17070751 0.14614144 -0.29907307 -0.42580494 0.08592935 -0.3626176 -0.17568415 -0.55291015 -0.027346266 -0.5178283 0.47575852 -0.38750142 0.054236967 -0.34883454 -0.11965865 0.09192622 -0.28856686 0.24738817 -0.14106289 0.10016607 -0.2987942 0.42267635 -0.36175275 -0.5230827 0.2790899 -0.19088574 0.011720821 -0.1327598 -0.05464905 0.21434219 -0.12981302 0.32081527 -0.17993961 -0.07004731 0.35010508 -0.0637461 -0.12847582 -0.41292897 -0.03138239 0.02224675 -0.42775524 -0.06507977 0.18698716 0.25310794 -0.25273007 -0.13192873 -0.15166394 -0.15195103 0.47935435 0.17362909 0.09860278 -0.06732191 0.33157802 -0.1776164 0.07723076 0.0027690765 0.24807163 0.12835595 -0.22448291 0.46906725 -0.36086416 0.4274476 0.3525229 -0.4435819
34 -0.4147449 -0.023824403 -0.21069483 -0.08498991 0.23615748 -0.21774848 0.24447706 -0.0057966667 -0.415718 -0.08269328 0.23577034 -0.08272647 0.031900547 -0.14466368 -0.04883928 -0.13764466 0.025373887 0.28146905 -0.1371617 0.30358216 0.018821787 -0.20552683 -0.2549141 0.18958879 -0.31201234 -0.3414814 -0.15975681 -0.042194396 -0.6627005 0.3062676 0.023975734 0.05180498 -0.3618557 0.0023687903 0.08647114 0.5027493 -0.033768687 -0.013616258 0.3124411 0.24100097 -0.11005685 -0.0946187 0.52350265 -0.25745776 -0.5527555 -0.16517174 0.45493957 -0.08763749 0.34616876 -0.12826687 0.50625926 -0.12507166 -0.29578534 0.045131665 -0.17651409 0.06156252 -0.081737064 -0.45303085 0.07680147 0.24549778 0.0013770026 0.01426732 0.046079487 -0.16257322 0.2304042 0.102433324 -0.28247803 -0.36927214 0.14311591 -0.34591752 -0.1848226 -0.5072252 0.010565127 -0.5562712 0.4959898 -0.37860388 0.118909284 -0.34736785 -0.0026015711 0.11738298 -0.31691578 0.16208771 -0.12278066 0.083170325 -0.21625233 0.3713777 -0.34448886 -0.5991951 0.3570166 -0.22354142 -0.07218211 -0.19115156 -0.15017377 0.17334652 -0.23286675 0.34040937 -0.09454664 -0.06808362 0.3281015 -0.07160723 -0.07208418 -0.3992869 -0.07291884 0.027054964 -0.50431365 -0.0958202 0.13460271 0.22826105 -0.20840985 -0.08562208 -0.121915534 -0.105524994 0.49476787 0.17035335 0.019967474 -0.08679779 0.27882564 -0.14016926 0.09373632 -0.06607696 0.2847895 0.22773725 -0.1874338 0.53059644 -0.3426837 0.46206078 0.36091322 -0.40577686
697 0.19515526 0.2943789 0.38337594 0.045004874 -0.04081761 -0.25790918 0.11896857 0.5238381 0.15373442 -0.027084745 -0.095531374 0.26323953 0.28523055 -0.42536518 0.15325826 -0.055220127 0.15583321 0.23944761 0.2749214 -0.019780805 0.010782584 -0.17488204 -0.3163176 0.068058275 -0.47267482 0.17026141 -0.18295097 -0.09184563 0.12465039 -0.40153793 0.12823674 0.13511616 0.08044783 0.42442098 -0.71684533 0.03221739 0.11183039 0.18853055 -0.4790285 -0.2888598 0.44503322 0.013140225 0.4574366 0.18764496 -0.06730167 -0.021201877 0.0342847 -0.23077506 0.27320167 0.32281226 0.19617084 0.06655142 -0.14636756 -0.07928972 -0.43616387 0.46747148 0.28534266 -0.16398413 -0.12589476 0.027926251 -0.18057387 -0.026897982 0.074685775 0.029473934 0.5646211 -0.17564623 0.1903714 -0.35604453 0.37528422 -0.2948819 -0.09144197 -0.03609414 -0.037392046 -0.0024165371 -0.043953776 -0.047974292 0.22550927 -0.28574446 0.2730997 0.403761 0.0006788244 -0.3058131 -0.39745888 0.22189772 0.24118592 0.3050786 -0.44517747 -0.47800618 0.3843918 -0.1074746 -0.01935728 -0.14989513 0.01365164 -0.20271286 -0.20561379 0.1999996 0.27072647 0.109448336 -0.0140866265 -0.016947592 -0.43567297 0.07794447 0.09211439 0.17282839 -0.16813277 -0.091689125 0.17807856 -0.13510586 0.4039861 -0.24684604 -0.17199396 -0.28051132 -0.2574679 -0.008436231 -0.35743597 -0.0696523 0.2997036 0.08427474 0.5829157 -0.009169075 -0.66359663 -0.19286525 0.12673964 0.14120382 -0.713457 0.17445245 -0.5479652 -0.07038401
1665 0.17087159 -0.48335105 0.21999553 0.37253132 -0.069273524 0.27130905 0.16751355 0.07181797 -0.2679507 -0.09870939 0.3088353 -0.37480757 -0.3870374 -0.41959786 0.17543651 0.34420383 0.025137655 -0.060602635 0.15944934 -0.058602553 0.00932339 -0.15658504 -0.2754622 -0.28371394 -0.13889267 -0.0052668704 -0.39083707 0.39484572 -0.22173278 0.14916639 0.2860434 -0.052424222 -0.0260684 -0.16146518 -0.2691453 -0.14531343 0.023799194 -0.010311351 -0.103178374 0.42716688 0.09734607 0.17191759 -0.012916146 0.12814875 -0.18871914 -0.5631902 0.1267073 0.7088103 -0.17345104 0.46768203 0.1697556 0.101180345 -0.057500497 -0.16848654 -0.41352737 0.15973534 0.17487603 -0.08728761 0.022998987 0.33877736 0.0062355325 0.38037083 0.32423797 0.5765345 -0.07546596 0.098040186 0.6392716 0.08518481 0.038937863 -0.04294127 -0.30003905 -0.65621054 -0.17274697 -0.6029302 0.15139176 -0.10360328 -0.110490665 0.22625507 -0.5155985 -0.27644458 -0.30157194 -0.1592487 0.037243042 0.43765432 0.07713349 0.6669278 0.08005424 -0.5746387 0.04209428 0.06763315 0.10106437 -0.02515901 0.08915651 -0.023582852 0.034321755 0.49804586 0.54106957 0.090978995 0.34672573 -0.035237506 0.25286254 -0.055425074 -0.34141663 -0.04421469 0.16812971 0.2878861 0.3917274 0.58471996 0.13426025 -0.25285876 0.40902966 -0.56577474 -0.28061205 -0.31648603 -0.11838967 0.25423002 -0.03554338 -0.06848815 0.123369984 -0.2860903 -0.12723657 -0.23296832 -0.67859507 -0.3306499 -0.6143937 0.32722571 -0.04803628 -0.21957405
399 -0.45812201 -0.05148166 -0.20984499 -0.08819992 0.22734411 -0.2831985 0.22844455 0.0043525775 -0.45590305 -0.115158096 0.25675315 -0.04428342 0.01906765 -0.16997199 -0.04396725 -0.16384532 -0.04899652 0.20689282 -0.18718532 0.33545208 0.08009225 -0.19497514 -0.2425043 0.027212046 -0.35554072 -0.35647985 -0.108468644 -0.12170176 -0.66180867 0.24967535 0.02663863 0.04986485 -0.384549 -0.0023410993 0.14191422 0.42662892 -0.0068553723 0.00392012 0.34352142 0.23708403 -0.04125455 -0.12128952 0.46778145 -0.22029322 -0.4654038 -0.09892344 0.45180723 -0.14901142 0.3051256 -0.15118152 0.4929257 -0.08716074 -0.28401548 -0.011148827 -0.18656676 0.08896576 -0.066235505 -0.47963667 0.02739672 0.2902393 0.0025175188 -0.0640021 -0.023076268 -0.16391034 0.22416328 0.107398175 -0.2507642 -0.37689427 0.11184038 -0.34219277 -0.18664667 -0.5442593 -0.049777996 -0.53538203 0.51554716 -0.31376398 0.09383967 -0.28346854 -0.08918261 0.121893264 -0.23593731 0.1344381 -0.134966 0.109576225 -0.2258726 0.36654475 -0.3524863 -0.62217075 0.32198203 -0.18013693 0.022725057 -0.12688322 -0.1578686 0.15846923 -0.15334517 0.3496611 -0.105714716 -0.055330552 0.3269573 -0.045755923 -0.08811058 -0.32669598 -0.075505815 0.024593579 -0.53985256 -0.13950773 0.20778225 0.2760991 -0.17972554 -0.123550214 -0.113071196 -0.041875884 0.48190764 0.17809166 0.026128056 -0.12480418 0.29997003 -0.15528752 0.09536132 -0.021139806 0.3361742 0.16328703 -0.2555415 0.49860436 -0.35721487 0.43967143 0.38616115 -0.39676213
48 -0.4287258 -0.022518912 -0.1903582 -0.12480303 0.12586373 -0.28726882 0.23566206 -0.116977416 -0.466757 -0.07698564 0.17364275 -0.07568404 -0.003922335 -0.1661581 -0.06636816 -0.16341929 -0.05450156 0.25024873 -0.08212434 0.29272428 0.047256466 -0.08666699 -0.30110526 0.054203853 -0.37228072 -0.4014357 -0.15624234 -0.16830799 -0.64859205 0.2299235 0.064049914 0.010714906 -0.349285 0.07385413 0.115312755 0.5046679 0.053767513 0.036165725 0.30085313 0.22220737 -0.004339711 -0.14230329 0.46917084 -0.25002503 -0.5436618 -0.09691606 0.4620404 -0.13500366 0.2677035 -0.16361327 0.5193513 -0.14449671 -0.289799 0.0053384844 -0.21203397 -0.046351403 -0.035713904 -0.4192077 0.0038912804 0.30230233 0.023015449 -0.07654938 0.01737191 -0.18207808 0.22109023 0.08451936 -0.20687748 -0.4445319 0.12713304 -0.32931843 -0.2689973 -0.50067407 0.06610701 -0.5954249 0.44548288 -0.37968284 0.06885307 -0.31536213 -0.106913984 0.07795702 -0.3511567 0.1515231 -0.08086026 0.07587188 -0.27466956 0.34057078 -0.3132092 -0.55827755 0.24645056 -0.28508368 -0.011707237 -0.14012079 -0.16873617 0.17179312 -0.21755369 0.34867227 -0.15925224 0.0024827674 0.3201267 -0.007008254 -0.11437139 -0.37467217 -0.15951963 -0.03153737 -0.3443764 -0.069931425 0.1742477 0.28505868 -0.16084057 -0.16050589 -0.17586753 -0.095293194 0.49155822 0.14675777 0.05216395 -0.11566911 0.29663062 -0.19924709 0.07980111 -0.013565639 0.33968785 0.22375283 -0.18958661 0.5300916 -0.37403342 0.45045742 0.3873443 -0.4126476
69 -0.0154608805 -0.09262451 -0.062922895 0.32332346 0.1958736 0.25441265 0.07485327 0.06811438 -0.19763736 0.69820094 -0.10525301 0.105599284 -0.25871596 -0.40274295 -0.3237597 0.35931656 -0.33162677 0.355275 -0.34674093 0.84084266 -0.38244477 0.22801647 -0.05708312 -0.60154396 0.09985872 -0.16776223 -0.34669006 0.4707197 -0.49282908 -0.15327434 -0.35286853 -0.5375902 -0.5070827 0.25933185 -0.37616265 0.7092609 0.06004789 0.06425157 -0.04987195 -0.14713186 0.13514698 0.23993412 -0.39904028 0.031941656 -0.28951105 -0.14426285 0.3803148 0.2899855 0.36715385 -0.27370998 0.6467489 -0.059370045 -0.075641334 -0.35840398 -0.09219444 0.24009255 0.32961532 -0.34319314 -0.29115474 0.29708913 0.19514006 -0.2151952 -0.1246359 -0.01699701 0.17534432 -0.036084473 0.065090165 -0.003639327 -0.10721506 -0.09493985 0.18003573 -0.1814451 -0.44730285 -0.1427788 -0.17817946 -0.08070337 0.047921736 -0.5950143 -0.11650944 0.32272223 -0.43115908 -0.25171432 0.12649418 0.32432064 0.11703888 0.42970327 0.6272751 -0.05713217 0.25052002 0.122978374 -0.45706514 0.3291786 -0.026025835 0.37126255 0.15295456 0.19231826 -0.55665404 -0.34891504 0.19906572 0.16629915 0.0032112233 0.5006812 0.09328216 -0.0028123888 -0.2420342 0.030695526 -0.19001569 -0.036073834 0.17133358 0.35271013 0.24803679 0.14730524 -0.27663726 -0.30297714 -0.24729812 0.46250305 -0.025486637 0.37502593 0.06306551 -0.104518175 -0.12725946 -0.2709072 -0.1499389 0.32569706 -0.44805095 -0.48374495 0.2529601 0.17663588
62 -0.44741273 -0.06274871 -0.2363699 -0.108498186 0.14019388 -0.19982027 0.23954271 -0.030185055 -0.5582051 -0.093835175 0.25435063 -0.03877397 0.029096182 -0.14986391 -0.030659381 0.009331657 -0.12485552 0.2705922 -0.055808455 0.2751409 -0.017289106 -0.07693279 -0.18910676 0.085204504 -0.35552385 -0.37544864 -0.12013507 -0.09628393 -0.6696478 0.2554525 0.05258555 0.006993371 -0.30550238 0.044112593 0.062515244 0.616345 0.06708561 0.10722809 0.33171466 0.2599642 0.026477922 -0.10525278 0.53308743 -0.26035967 -0.52970386 -0.066190064 0.45136526 -0.1083432 0.300106 -0.08721253 0.44075912 -0.12867016 -0.40083677 0.0037777072 -0.27756882 0.028332308 -0.1170413 -0.41923952 0.035362076 0.21182041 0.068975255 0.01687849 -0.1115734 -0.24354461 0.19446094 0.13865462 -0.2435646 -0.3035114 0.14643805 -0.4412804 -0.28832257 -0.40457705 0.03214697 -0.5674999 0.46222487 -0.37350982 0.082628176 -0.30804372 -0.068092465 0.12431308 -0.4332057 0.26860783 -0.13013016 0.058598824 -0.27589893 0.32955036 -0.42456824 -0.57575023 0.2670989 -0.2017222 0.053594157 -0.010595622 -0.3353099 0.1334075 -0.21630374 0.4093588 -0.019056326 -0.10857944 0.2260866 -0.069136634 -0.22531621 -0.32656986 -0.16595414 0.09757395 -0.49183163 -0.048026275 0.16252099 0.3086135 -0.16432256 -0.105773024 -0.17774004 -0.08778279 0.46613553 0.19695848 0.048502088 -0.14168793 0.2816168 -0.09367256 0.055629957 0.031913355 0.39653438 0.17979228 -0.25177076 0.50258553 -0.33313608 0.46022034 0.41048333 -0.3945779
171 -0.50461626 -0.08277758 -0.27755272 -0.090222046 0.112835 -0.26870647 0.22835 0.028195307 -0.46444336 -0.044891782 0.18839015 -0.057783242 0.06821591 -0.09117108 -0.08898256 -0.0467032 -0.046514414 0.2863857 0.00044518922 0.40660036 -0.040105414 -0.17439319 -0.29235393 0.07131015 -0.34485993 -0.40654927 -0.09081054 0.0826666 -0.5788395 0.16760603 0.07203593 -0.04960903 -0.3452294 -0.07310489 0.025981672 0.5287958 0.07345878 0.10345753 0.30830854 0.19504921 -0.09826671 -0.057406314 0.5752419 -0.29001105 -0.4924387 -0.083809935 0.4798568 -0.09533217 0.3683398 -0.0364176 0.43394107 -0.17020357 -0.346097 0.0435682 -0.18313429 0.028242633 -0.19066356 -0.336014 0.075062476 0.27124482 0.05635591 0.03858346 -0.012950236 -0.22722742 0.16918528 0.074730314 -0.276188 -0.3743765 0.112912506 -0.26254034 -0.19954619 -0.5539125 -0.058692966 -0.5440448 0.4148683 -0.3703979 0.19025744 -0.1911392 -0.13318622 0.15100537 -0.2772223 0.22562645 -0.106759794 0.09983464 -0.2703769 0.31232315 -0.34083068 -0.6114332 0.35280722 -0.281801 0.021274382 -0.13997489 -0.16729486 0.1472244 -0.30174366 0.3618743 -0.07176326 -0.030142978 0.26862562 -0.08914675 -0.16337477 -0.41039065 -0.08935421 -0.009687997 -0.5717767 -0.077082746 0.13238354 0.27704048 -0.16238645 -0.055953216 -0.12989315 -0.114332765 0.41798177 0.09156615 0.068184316 -0.040767778 0.23134117 -0.0615179 0.080723286 -0.04246631 0.35980308 0.18570594 -0.21388629 0.5489968 -0.24534497 0.36899182 0.32553476 -0.39789402
35 -0.018612716 -0.074377395 0.0119362725 0.32679647 0.26090765 0.26114503 0.073843874 0.113309406 -0.15938962 0.56742543 -0.11717057 0.15597454 -0.3115517 -0.4371573 -0.23981535 0.30848515 -0.3965775 0.37331912 -0.36423793 0.82578105 -0.43598706 0.19020517 -0.1052862 -0.7357014 0.12662916 -0.115884006 -0.33782804 0.4610606 -0.44503975 -0.24649563 -0.32024413 -0.57449013 -0.5652021 0.27763504 -0.44886073 0.728934 0.017584806 0.08385498 -0.059658114 -0.14826182 0.1764065 0.1879038 -0.4452135 0.0075135445 -0.23332521 -0.09200279 0.3413304 0.34393287 0.3203432 -0.21213849 0.6944172 -0.17731439 -0.09916082 -0.31831625 -0.040448673 0.1659035 0.24861468 -0.30873382 -0.35802072 0.35599905 0.23343088 -0.15184169 -0.19409357 0.05014582 0.18480942 -0.045368124 0.028328571 0.02478615 -0.042677242 -0.15092432 0.2071332 -0.1651405 -0.48727688 -0.16854689 -0.12739573 -0.08576769 0.14741226 -0.5596773 -0.123103715 0.34021908 -0.38495976 -0.20037097 0.16601062 0.37352258 0.13372754 0.4287756 0.6507425 -0.008520095 0.34228033 0.13895045 -0.46237987 0.3053601 0.007951234 0.35499504 0.17490724 0.2301277 -0.47307304 -0.30564144 0.18441013 0.17760244 -0.012319065 0.41907793 0.04414457 -0.043385096 -0.29194307 0.105921365 -0.20938492 -0.005259141 0.25507832 0.3444083 0.1498297 0.13507663 -0.25895277 -0.20464286 -0.21101847 0.43653297 0.029507946 0.40744802 0.10719608 -0.12496399 -0.06651459 -0.27629268 -0.14329225 0.29141697 -0.45634326 -0.45568255 0.32177323 0.110107884
15 -0.41885126 0.061682455 -0.07616712 0.21216634 0.17156179 0.1510069 0.19977762 -0.0061598564 -0.042505577 0.19511768 -0.4634429 0.17134467 -0.14884524 0.17680225 0.1596477 -0.2572167 -0.10781171 0.11708468 -0.006502802 0.0491297 -0.03572144 -0.030934397 -0.120749466 -0.3285259 -0.074654326 -0.13909282 -0.13491249 0.14404756 0.0031081073 -0.13864863 -0.2492347 0.011287265 -0.15861458 -0.052562933 0.33597568 0.42710438 -0.40833896 0.47103733 -0.5584627 0.20800325 -0.27105 0.25282204 0.04424651 -0.062093593 -0.39006943 -0.025749503 0.110952176 0.28692883 0.2750965 -0.03162157 0.443702 -0.063527934 0.049094472 -0.0036293832 0.1593241 0.14004979 -0.18519692 -0.18758461 -0.14215873 -0.32376042 0.10371952 -0.09917799 0.13903847 -0.20495372 0.42387915 0.12367541 0.273356 0.118954554 -0.10844598 -0.13950342 -0.37549004 -0.22917908 -0.14905787 -0.20608552 0.16315685 0.06764328 -0.008393205 0.17662308 0.18174171 -0.027264485 -0.14522743 0.12303493 -0.18396573 0.16158691 0.38175777 0.19875969 -0.2531985 0.18869163 -0.1641642 -0.013117179 0.6366195 0.17411621 -0.03507374 -0.187629 0.24332713 0.09040096 -0.031467423 0.043964818 0.5618028 -0.04507345 0.1997851 -0.2964475 -0.26178232 -0.00721055 0.13972604 0.084548794 -0.07330155 0.29294077 0.010260998 0.097610645 0.28480574 0.25983185 -0.14820927 -0.40981263 -0.30934808 0.119041264 0.23514266 0.30337822 0.36618587 -0.18832494 -0.3118836 -0.0031764605 -0.2625284 0.19430919 -0.34432504 0.1703182 -0.14055268 0.11518486
21 -0.08808211 0.41978496 0.07003911 0.050089486 0.4775298 -0.020802388 -0.00535552 -0.349398 -0.36950654 -0.04370751 0.12592272 -0.05905769 -0.24078764 -0.45002556 0.12091802 0.10125763 -0.25659817 0.12757735 0.13217132 -0.33468187 0.3705709 -0.17024028 0.14345565 -0.41422808 -0.42987037 0.17293169 -0.07304647 0.16876794 0.20888896 -0.12077337 -0.08727108 0.21687329 0.2697933 -0.11019861 -0.21892545 0.29174635 -0.16865776 0.36343294 0.042538457 -0.49991912 0.117278814 0.41935974 0.20763448 0.3929068 0.19968033 0.14311515 0.0650042 -0.11869001 0.4062534 -0.34023938 0.16587962 -0.16364317 0.27195498 -0.22193225 -0.3223061 -0.42564973 0.26879168 -0.07049258 -0.29260737 0.055128448 -0.47716054 0.05544026 0.10433287 0.20059687 0.28633285 0.1613073 0.16132529 -0.19541936 0.1586141 -0.3860464 -0.52675235 -0.02273546 0.33162525 -0.3882966 0.26549572 -0.12143179 0.23571399 -0.21474843 0.035931338 0.486604 -0.018334188 -0.49433163 0.03737148 0.6866028 0.21817273 0.25487438 -0.037514 -0.2566342 -0.17264122 -0.5630181 -0.115674905 -0.2707667 -0.008818911 0.3404437 0.11484156 0.37637165 0.20510769 -0.19755626 -0.090169154 0.11273471 -0.25925076 -0.32087174 0.14439408 0.17381701 -0.30258763 0.08646039 -0.18971293 -0.004810003 0.28014588 0.037399724 0.2170364 -0.20052004 0.0003114111 -0.059395205 0.29398304 0.338678 -0.36312562 0.22057027 0.13455537 0.16080602 -0.3462868 0.21415879 0.0816136 0.15413748 -0.8372542 -0.12558405 -0.619452 -0.032399867
237 -0.39498383 -0.047828253 -0.20072973 -0.03605057 0.19746889 -0.23648873 0.21272863 -0.045473408 -0.4195562 -0.18991281 0.28043512 -0.109274596 -0.054846663 -0.15156975 -0.098764345 -0.21708217 -0.041933052 0.2220156 -0.1661026 0.33658004 0.073884875 -0.13417116 -0.35827336 0.117131576 -0.2854166 -0.40162894 -0.08273894 -0.152132 -0.7484003 0.20745128 0.089639165 0.104891405 -0.33619907 0.05402129 0.15758905 0.54087037 -0.05703422 -0.0064474316 0.28408378 0.21988885 0.017870646 -0.07881425 0.44249472 -0.25293928 -0.44076034 -0.11064273 0.4581913 -0.1361635 0.28497165 -0.21171696 0.48086056 -0.042891733 -0.23317438 0.09760271 -0.18485677 0.14652915 -0.03492115 -0.41802496 0.034089424 0.25538138 -0.026074482 -0.09514025 0.089724466 -0.12646681 0.19991207 0.10182891 -0.25013322 -0.38316652 0.15090674 -0.26884228 -0.13952647 -0.5215983 -0.0653841 -0.48869547 0.5341121 -0.33652857 0.058335792 -0.33181775 0.012732092 0.07158805 -0.3974358 0.27519923 -0.25542396 0.060622998 -0.25133047 0.39012155 -0.3144392 -0.64391565 0.3631491 -0.2586328 -0.050772365 -0.1940458 -0.05611913 0.21229254 -0.18482228 0.31856456 -0.1100523 -0.08740323 0.4063425 -0.11756504 -0.12993383 -0.35990813 -0.06479328 0.009724969 -0.51023644 -0.15407062 0.119607136 0.35259798 -0.24965952 -0.11506454 -0.12555408 -0.109272115 0.54607505 0.10147168 0.040711585 -0.07600436 0.3572929 -0.22769836 0.046833582 -0.025213907 0.26148498 0.093648955 -0.18245721 0.43140998 -0.40599167 0.33896214 0.36431757 -0.40919027
13 -0.43797395 -0.07303122 -0.16166393 0.26805678 0.21265022 0.20647573 0.14126945 -0.028685387 -0.089170456 0.15333083 -0.432037 0.1689676 -0.19056751 0.13365422 0.17596002 -0.31847125 -0.17731327 0.2099764 -0.14443535 0.09545338 0.11166843 -0.11767957 -0.24926043 -0.32235333 -0.08383527 -0.13033833 -0.17822357 0.20517452 -0.0412253 -0.24260752 -0.1393518 -0.13328741 -0.18644923 0.044151742 0.36235663 0.30367213 -0.27153042 0.4972607 -0.5024656 0.15581 -0.32204682 0.29601175 0.1178293 0.040790785 -0.36076012 0.061236363 0.105861776 0.36778948 0.24028154 0.08530455 0.50262845 -0.15372351 0.01645674 -0.049233407 0.10338438 0.14148128 -0.16711082 -0.081802905 -0.08936751 -0.41120473 0.004968019 -0.1499249 0.10017163 -0.28007475 0.36355108 0.14563003 0.27750304 0.0603888 -0.03919793 -0.23452185 -0.40552938 -0.16581692 -0.0064359936 -0.19832548 0.071839735 -0.018513158 0.05869421 0.18181957 0.19531661 -0.06364481 -0.19790062 0.16429876 -0.14985839 0.1900934 0.34390238 0.09471804 -0.22568966 0.25223768 -0.19214706 0.0405632 0.6037324 0.06305126 0.016460108 -0.19662733 0.27176917 -0.100078456 0.057994887 0.068773866 0.5397793 -0.22922988 0.1079775 -0.3020036 -0.2890064 -0.068544164 0.088208735 0.14994512 -0.10378102 0.35227248 0.0838971 0.17571852 0.26302898 0.2523355 -0.067374 -0.46890938 -0.22439681 0.12842463 0.31135955 0.28226694 0.30762583 -0.31589398 -0.26272833 -0.024061874 -0.019668415 0.21932954 -0.2930469 0.030736353 -0.061672322 0.060391907
16 -0.5748775 -0.089549854 -0.2548045 0.27641505 0.052186538 0.1296956 0.26686272 -0.10046047 -0.12275007 0.12240972 -0.33325523 0.106550016 -0.12101786 0.21625914 0.23041028 -0.31832257 -0.14496854 0.1348082 -0.10438988 0.035890944 0.03282386 -0.004883211 -0.16432504 -0.36521202 -0.07376661 -0.20673953 -0.20692533 0.20353039 -0.06794057 -0.22389711 -0.078557596 -0.13004845 -0.20380679 0.1109289 0.27471343 0.3247355 -0.30017173 0.50520235 -0.5415434 0.18636255 -0.24201457 0.2348655 0.11282177 0.006594791 -0.40961722 -0.017108437 0.10156953 0.28402248 0.061350666 0.052646928 0.49131033 -0.11349308 -0.014014356 -0.057537608 0.1859972 0.15662761 -0.16873366 -0.13550359 -0.12660797 -0.40465006 0.057746813 -0.22681062 0.072803594 -0.2776675 0.40667322 0.056946974 0.21578923 0.057905823 0.00035441146 -0.21979176 -0.35988584 -0.19033165 0.015429433 -0.21572986 0.12623997 0.03371505 0.13270228 0.25334588 0.24221164 -0.02952365 -0.17280853 0.14596193 -0.14514545 0.15941079 0.3579214 0.15354936 -0.1819568 0.22994503 -0.13338557 0.018539071 0.6028807 0.13292053 -0.035753388 -0.049710754 0.30629122 -0.114129834 0.0203181 0.10097167 0.46592322 -0.16210328 0.11756097 -0.38708392 -0.24662204 0.059386328 0.11660879 0.09008723 0.0013525872 0.31212366 0.044076405 0.21048349 0.33874372 0.2852245 -0.097768664 -0.53566825 -0.21012731 0.13376959 0.26127213 0.3236441 0.32464853 -0.29509735 -0.31882873 -0.070735395 -0.09609402 0.17319882 -0.35315433 0.10080877 -0.09656714 0.09249311
244 -0.05967862 0.38745043 0.05642896 0.08553467 0.5453275 -0.043740395 0.080112785 -0.30588287 -0.479032 -0.21979192 0.17105742 -0.030728707 -0.3655044 -0.37180635 0.19272937 -0.022430476 -0.2839843 0.1364926 0.2088368 -0.36797142 0.4021282 -0.20834269 -0.02970279 -0.33195332 -0.42236295 0.00092171866 -0.11830102 0.1876245 0.03360635 -0.1019684 -0.13611384 0.137384 0.19487439 -0.04611689 -0.26403263 0.24649377 -0.1411588 0.28569338 0.012580724 -0.55388004 0.11185665 0.44147533 0.3438955 0.37609446 0.27732772 0.0989321 0.096768 -0.02268726 0.3909393 -0.23067285 0.266199 -0.104911834 0.25880325 -0.26571417 -0.25539315 -0.49056602 0.28726915 0.20996675 -0.25328407 -0.065276034 -0.32337886 -0.011640072 0.013886349 0.29423526 0.28424564 0.021058807 0.28219348 -0.15890184 0.055126004 -0.36167943 -0.49065912 0.09848523 0.21102665 -0.5077037 0.21794344 -0.16796571 0.20440933 -0.22215736 0.10074867 0.29938018 -0.16000164 -0.47384107 -0.05310188 0.58269787 0.29195374 0.25212106 -0.020234024 -0.21516961 -0.17030036 -0.6753057 -0.122748606 -0.32105377 -0.024330053 0.40605414 0.08005661 0.26369488 0.22625154 -0.22464474 -0.08364903 0.1122798 -0.20095766 -0.46054566 0.20946889 0.23867664 -0.24037753 -0.041079395 -0.3029317 0.07343794 0.33043844 0.13190144 0.19569929 -0.3820091 0.13182604 0.01642921 0.21123461 0.3547941 -0.46179238 0.1826786 0.089113295 0.1889956 -0.36413106 0.19529812 0.23159944 0.10640274 -0.8637159 -0.1924104 -0.6006009 -0.087872006
27 -0.0028910514 -0.12119953 -0.037634585 0.26519406 0.19072397 0.22865567 0.15828575 0.041043032 -0.14628646 0.5564316 -0.120156534 0.16708983 -0.24490272 -0.4178854 -0.283737 0.23205423 -0.37826994 0.39114645 -0.3408944 0.9114988 -0.4667822 0.21286443 -0.110352896 -0.6021347 0.041333556 -0.1367735 -0.3678974 0.5674157 -0.4410916 -0.18764827 -0.34364033 -0.58904517 -0.6027307 0.32215202 -0.43337584 0.5612468 0.07099386 0.12746094 -0.08605219 -0.10677385 0.12740088 0.14739229 -0.34960118 -0.020579912 -0.1996292 -0.06457417 0.4002907 0.26321843 0.33913174 -0.22410442 0.7267466 -0.12517884 -0.12725852 -0.29314405 -0.019298203 0.1677916 0.3129731 -0.3094186 -0.26307604 0.23049231 0.31887498 -0.22131184 -0.2098166 0.100455746 0.14724311 -0.03160155 0.064799786 -0.02783498 -0.1454152 -0.07929396 0.1762055 -0.16041386 -0.49369612 -0.23156145 -0.2074586 -0.109544925 0.10659344 -0.6185621 0.008822735 0.22457363 -0.5256953 -0.1633619 0.07287383 0.30686238 0.19533324 0.39229825 0.6008558 0.038037375 0.2826989 0.06445745 -0.432888 0.23673445 -0.036738694 0.34708336 0.17162701 0.113533504 -0.44701228 -0.29374117 0.17138214 0.16549835 -0.0016615464 0.42955545 0.16111018 0.025853787 -0.21607904 -0.02438446 -0.20534739 -0.015985105 0.20448765 0.34188664 0.28143284 0.08672463 -0.2908377 -0.23546027 -0.269086 0.51774096 -0.0063715563 0.3973733 0.041349318 -0.059994623 -0.07519636 -0.23257309 -0.102004685 0.2967975 -0.42478138 -0.45270753 0.23522645 0.14642827
95 -0.4514876 -0.05686825 -0.22402401 -0.11788192 0.22025377 -0.3547431 0.25602067 -0.000710162 -0.53529394 -0.20200965 0.29262215 -0.08278781 0.043391366 -0.104150794 -0.10087112 -0.123997815 -0.109895095 0.2797227 -0.0974824 0.34792048 0.01732284 -0.14139675 -0.2813827 0.15487541 -0.38018292 -0.4727258 -0.17603494 0.03157885 -0.653877 0.23759855 0.026049158 -0.05799192 -0.3280612 -0.04782639 0.03260759 0.5233142 0.053677205 0.13360436 0.36000988 0.23475657 -0.01707876 -0.11763322 0.6131558 -0.19789083 -0.49116004 -0.17562072 0.51870966 -0.12122829 0.31419456 -0.067148305 0.47981963 -0.13823193 -0.3810819 0.050748385 -0.26962742 0.040043388 -0.14123209 -0.3165411 0.034084275 0.16897357 0.08183239 -0.066537365 -0.12443841 -0.19306786 0.19757217 0.011882743 -0.2813921 -0.3064475 0.082779534 -0.3120586 -0.17924407 -0.4161059 -0.012072105 -0.61652035 0.3921067 -0.3317409 0.110187314 -0.1968229 -0.048503987 0.06983914 -0.37462574 0.23106794 -0.10056927 0.048496887 -0.168711 0.35540146 -0.32104418 -0.68462616 0.3322978 -0.24334049 0.107676245 -0.14784804 -0.21507767 0.15595248 -0.20818366 0.28893748 -0.040141355 -0.101455614 0.2577368 -0.10959126 -0.14271006 -0.4106072 -0.062482163 0.011329143 -0.5023088 -0.13361272 0.07720339 0.37254828 -0.18645263 -0.12725867 -0.1531101 -0.19630493 0.44217327 0.094114654 0.051115677 -0.12598372 0.29237878 -0.08666598 0.0065106004 -0.006076264 0.36661667 0.17631188 -0.21469104 0.56667125 -0.34709054 0.3845563 0.41743928 -0.3643793
18 -0.43824446 0.008760862 -0.17703153 0.13479586 0.14048532 0.1313368 0.20839722 -0.011647196 0.022669706 0.14897846 -0.34908485 0.14520586 -0.05328636 0.20890161 0.13737354 -0.15934311 -0.28099748 0.28932205 0.01165361 0.071842894 -0.014990481 -0.007014488 -0.047689445 -0.3301388 -0.11781764 -0.16211668 -0.15126228 0.24586482 -0.03561918 -0.30749404 -0.12363404 0.017127777 -0.14611919 -0.092275806 0.27980757 0.37118775 -0.39441144 0.35526305 -0.55245554 0.11864095 -0.31096658 0.34645763 0.09047472 0.016541673 -0.43886498 -0.019475868 0.083671406 0.3354925 0.19442388 0.015491602 0.4305427 -0.11246872 -0.038714226 -0.04857531 0.164887 0.1414165 -0.14616108 -0.040766835 -0.14991878 -0.24405514 0.067649774 -0.07595588 0.1714983 -0.27012974 0.3889456 0.14687966 0.16403137 0.06685082 -0.0956253 -0.32617214 -0.40799022 -0.21164985 -0.024497459 -0.18984616 0.19516715 0.09289666 -0.03823654 0.19948743 0.099164516 -0.043580554 -0.08653111 0.08026436 -0.23219204 0.13184951 0.4158645 0.21211855 -0.19955142 0.21869953 -0.14115137 -0.0033006703 0.6368232 0.12827924 -0.0506743 -0.17378967 0.30360433 0.047007695 0.022421245 0.11209255 0.60541433 -0.12834898 0.301965 -0.25777006 -0.26305172 -0.081577405 0.1226418 0.07850909 -0.14082907 0.39716044 0.07161777 0.08339325 0.32468814 0.21314739 -0.09398339 -0.39245737 -0.1680627 0.11916975 0.3248416 0.3822762 0.22109906 -0.22176169 -0.24961166 -0.034271475 -0.022382347 0.29156482 -0.30253503 0.19958858 -0.15248306 0.1334706
1 -0.47062054 0.05972992 -0.16541617 0.14434499 0.14952055 0.06752133 0.23145701 -0.016875077 0.0010608721 0.21593894 -0.38087016 0.16523604 -0.13342334 0.16724232 0.18764764 -0.18961777 -0.15976804 0.1199871 0.10583161 0.08525938 0.04035958 -0.052753028 -0.10691485 -0.33701664 -0.065409325 -0.09185486 -0.1373668 0.1486032 -0.04244633 -0.1917845 -0.13040283 -0.025919382 -0.19300099 0.01863485 0.33724535 0.42460933 -0.41184294 0.39812142 -0.538728 0.15453573 -0.28699484 0.26439142 0.05985122 0.038618732 -0.44888216 0.005558683 0.055741563 0.2996756 0.2989962 0.049642097 0.46554446 -0.069571465 -0.022839 -0.095827304 0.12665085 0.063918516 -0.21000585 -0.09236903 -0.07166551 -0.31898692 0.07718292 -0.07204807 0.1766464 -0.25552765 0.40145817 0.095146075 0.3481936 0.122252315 -0.10626019 -0.30940673 -0.32665527 -0.25072864 -0.1130484 -0.19852878 0.13495049 0.059667602 0.028575966 0.124915116 0.124405056 -0.095364526 -0.1235661 0.14897226 -0.18722552 0.16517147 0.33812016 0.2958319 -0.21582876 0.34521377 -0.20144786 -0.047537446 0.643978 0.15282136 -0.04476651 -0.17428829 0.2586853 0.053442903 0.013391772 0.11667873 0.5132929 -0.14513229 0.1273568 -0.30651948 -0.27293494 0.010561718 0.13613102 0.13451685 -0.04509561 0.3020546 0.09997971 0.116336875 0.3299665 0.2669421 -0.09238055 -0.45367914 -0.20306839 0.07492877 0.23616219 0.36041075 0.22358154 -0.22278596 -0.28803036 -0.0185827 -0.068007365 0.29938442 -0.3254554 0.16604121 -0.09971208 0.062393215
205 -0.45219678 -0.04371869 -0.19821592 -0.09793375 0.2743498 -0.28092685 0.18628602 -0.071467765 -0.4442004 -0.08938223 0.2752085 -0.09025342 -0.082387306 -0.17689514 -0.0669374 -0.21548936 -0.04371773 0.26675844 -0.15204254 0.31419262 0.077662624 -0.15187196 -0.32830235 0.070054986 -0.27248803 -0.3665906 -0.10993498 -0.14435212 -0.671581 0.28893644 -0.0076562385 0.06403793 -0.31634822 0.090610325 0.08799175 0.48288155 0.0026174842 0.041482605 0.26240927 0.22516914 0.028917773 -0.1315438 0.4903586 -0.25039196 -0.5320078 -0.14648145 0.45593315 -0.036092076 0.2813134 -0.17759624 0.519361 -0.09889651 -0.19682074 0.063409746 -0.17508976 0.055704407 -0.07244737 -0.40640578 0.040470116 0.2950097 0.039483923 -0.06250465 0.066564925 -0.2325487 0.15416145 0.13805528 -0.29599598 -0.38640967 0.1370686 -0.2558292 -0.19321214 -0.5040817 -0.0112487525 -0.51205564 0.54642093 -0.41698176 0.019101936 -0.31402096 0.0052280426 0.13454111 -0.3099891 0.16715741 -0.2156303 0.046278063 -0.23668942 0.32321683 -0.33160144 -0.62263846 0.25940222 -0.2253765 -0.028422743 -0.12877472 -0.10739202 0.25116125 -0.20162536 0.32394093 -0.15215622 -0.063454054 0.33593953 -0.040536024 -0.12093915 -0.38546634 -0.08685157 -0.031995915 -0.49842995 -0.04399151 0.1680192 0.26895836 -0.16570662 -0.16691427 -0.10070855 -0.032530576 0.55692 0.19465595 0.01257029 -0.037373528 0.28869638 -0.19002514 0.12092525 -0.07255746 0.29889894 0.16180494 -0.15120295 0.4666424 -0.44031435 0.39135793 0.34916174 -0.42846555
1131 0.17878577 -0.49535236 0.05401574 0.33493122 -0.24027066 0.4263769 0.12014882 -0.003501491 -0.27574453 -0.048987586 0.27763095 -0.24855277 -0.52666223 -0.4574787 0.17227429 0.4483658 0.011593024 -0.051825948 0.13124846 0.058287244 0.04965259 -0.06150666 -0.32200646 -0.12872685 -0.19834034 0.022925034 -0.36388543 0.34735158 -0.17859997 0.10872838 0.34509695 -0.024304869 -0.021131126 -0.10118486 -0.28606045 -0.11718805 -0.041537244 0.02198493 -0.13218719 0.45817164 0.11888834 0.21019322 0.08129629 0.30503896 -0.15987474 -0.53263724 0.2223862 0.6165139 -0.20256604 0.5523133 0.18526639 0.1515701 -0.14526317 -0.0015498773 -0.45488083 0.1788398 0.08590654 -0.24650271 0.03389018 0.2538191 0.058954574 0.2667562 0.26616642 0.43732318 -0.074403115 0.16240317 0.5256236 0.030235915 -0.018211454 -0.010532825 -0.41309956 -0.55304444 -0.21729413 -0.6064221 0.14464904 -0.088817045 -0.20880859 0.17624368 -0.44228247 -0.25111824 -0.4016312 -0.09986283 -0.10243503 0.44737712 0.15923734 0.6467317 0.18167572 -0.41243547 0.105905056 0.048593435 0.16687256 -0.046934452 0.13512327 0.07151449 0.01133919 0.43744132 0.66424495 0.0879506 0.2378807 0.015676389 0.29524222 -0.03568123 -0.23522538 -0.070477754 0.20629123 0.18785079 0.23649217 0.48550612 0.14534402 -0.19498087 0.38318285 -0.6463614 -0.3135935 -0.23594834 0.028130403 0.32702067 0.11915887 -0.031166285 0.004060368 -0.22845335 -0.16998532 -0.18810518 -0.6503703 -0.33558986 -0.5020062 0.35416883 0.004495586 -0.21473758
19 -0.4381655 0.027855722 -0.2218699 0.1615533 0.04102085 0.111574136 0.21958625 -0.008934121 -0.07945338 0.13225731 -0.4791054 0.107141554 -0.061701763 0.23586433 0.13492715 -0.28019866 -0.1138568 0.14806275 -0.032120977 0.10480279 -0.009842324 -0.10720737 0.034469064 -0.3048799 -0.105751224 -0.1240775 -0.24026164 0.19316013 0.024347384 -0.25486147 -0.17302069 -0.120773636 -0.17871733 -0.09931237 0.33175096 0.4341229 -0.32125515 0.39628282 -0.5710896 0.20208779 -0.31756398 0.19419095 0.043928254 0.029501975 -0.3926293 -0.10097295 0.11125859 0.281847 0.20154399 0.00014261094 0.43116388 -0.06310663 -0.08269558 -0.06365449 0.13613465 0.086463496 -0.19251727 -0.076926805 -0.057510037 -0.2812537 0.07040682 -0.10520029 0.14866136 -0.19038993 0.40558913 0.13012733 0.28413635 0.024929347 -0.09522187 -0.1871998 -0.4703619 -0.30090445 -0.15366653 -0.29326728 0.1382 0.057643432 0.008813516 0.06465958 0.06138153 -0.043301288 -0.18569686 0.10084312 -0.19580832 0.24632236 0.33702374 0.18392783 -0.2355578 0.26412565 -0.22533248 0.09742109 0.6636917 0.21625942 -0.023008835 -0.11970181 0.28243113 0.05558849 -0.062309556 0.11703838 0.53327596 -0.13493168 0.1402231 -0.3520079 -0.2768386 0.04214345 0.14326285 0.061392207 -0.070496164 0.29784 0.14415567 0.09171723 0.38018793 0.28420743 -0.05028627 -0.37892938 -0.2420063 0.16469811 0.28975245 0.355113 0.27182588 -0.1951844 -0.3033354 -0.042885415 -0.17326343 0.19490136 -0.3319787 0.22965097 -0.18070838 0.21629936
131 -0.44152424 -0.06790153 -0.15138291 -0.08672131 0.2802058 -0.26806852 0.29364228 -0.090758175 -0.41762763 -0.107792296 0.25936309 -0.07922116 -0.023441162 -0.21025278 0.024521109 -0.25854942 -0.10100632 0.2684273 -0.1864442 0.31644234 0.011986838 -0.13879798 -0.294255 0.08699535 -0.26508915 -0.3804733 -0.14072914 -0.18107344 -0.5578478 0.2601767 0.06164782 0.026720557 -0.27045783 -0.01253514 0.12346527 0.52200055 -0.02700996 -0.049579833 0.2620138 0.21729337 -0.026330896 -0.131252 0.4406687 -0.15118508 -0.5011906 -0.09470203 0.49472222 -0.030173652 0.21154864 -0.16050085 0.44003734 -0.09073345 -0.31651038 0.12432839 -0.29087418 0.12793581 -0.12356292 -0.4592335 -0.0024456817 0.2626967 -0.00046491946 -0.07933393 -0.008371105 -0.19067177 0.2412844 0.113964655 -0.34070793 -0.3936978 0.12687367 -0.2741005 -0.20518652 -0.5569285 0.009490249 -0.5250067 0.5414134 -0.24623351 0.11325769 -0.30633467 0.0052082394 0.17956021 -0.33503535 0.18609047 -0.1463689 0.08951325 -0.2518921 0.38176128 -0.23741722 -0.6183989 0.33447114 -0.18105267 0.014031763 -0.07862849 -0.027066816 0.18556745 -0.19057715 0.3223797 -0.11242511 -0.09695711 0.31220987 -0.041490797 -0.15456055 -0.32390592 -0.10066467 0.08671811 -0.51557267 -0.17526577 0.13725302 0.31405687 -0.23449276 -0.11834365 -0.17558955 -0.09975694 0.5066507 0.13538116 -0.0025794276 -0.05014065 0.34678334 -0.21233305 0.038967077 -0.019657541 0.27918378 0.18265715 -0.15342423 0.44588673 -0.38761616 0.41833502 0.27610907 -0.42514914
1020 0.2770455 -0.4622906 0.11081964 0.27342412 -0.15385254 0.42386484 0.13497774 -0.038619734 -0.30190042 -0.025388386 0.29365253 -0.23451866 -0.39833 -0.46348768 0.14959444 0.37209237 0.0012657313 -0.037426606 0.15306275 0.050562132 0.07803856 -0.05429389 -0.39160216 -0.16630183 -0.14842427 -0.0057221144 -0.38091126 0.3944758 -0.15880093 0.06039221 0.2866977 0.014977166 0.008144393 -0.09305302 -0.21767883 -0.10624757 0.020600276 0.046774197 -0.0927275 0.52331036 0.09357621 0.1714915 -0.0071599404 0.2670494 -0.13090587 -0.57555604 0.18585831 0.67547345 -0.13375303 0.5324249 0.24322022 0.12687983 -0.12573327 -0.0651138 -0.4541531 0.07547092 0.18466339 -0.19852778 0.08369267 0.20522298 0.10530543 0.29510975 0.3689596 0.4852688 -0.11593843 0.1732651 0.5152681 0.020256937 0.08418919 -0.010999463 -0.2556355 -0.6548875 -0.19757596 -0.67754906 0.20885561 -0.12114634 -0.16747725 0.09994971 -0.4951406 -0.23861587 -0.31173447 -0.10306356 -0.11000883 0.46948525 0.18238203 0.571966 0.14078632 -0.45819104 0.030040804 0.04182029 0.10708261 0.026198491 0.12624447 0.11693736 0.017406167 0.45281255 0.639801 0.061224196 0.25612155 -0.063664585 0.26964632 -0.1260215 -0.23484842 0.023886234 0.15595649 0.2168922 0.30521476 0.56179297 0.16506693 -0.27944538 0.49824083 -0.5351124 -0.3447045 -0.309429 0.08123062 0.29045618 -0.039984047 -0.12601112 0.059811924 -0.26047355 -0.14499585 -0.21008219 -0.7133193 -0.37024173 -0.5369523 0.36298013 0.008338121 -0.17466009
389 -0.40156397 0.100348644 -0.22198167 0.16086207 0.18686676 0.21370246 0.22830823 -0.018518379 -0.013239614 0.15135163 -0.5125391 0.11746582 -0.17951965 0.19762585 0.12662843 -0.35896084 -0.15680993 0.17016084 0.046367187 0.17040588 0.033891466 -0.04908087 -0.14765306 -0.24509604 0.062234644 -0.15006554 -0.18122812 0.11984906 0.0108301295 -0.17758892 -0.21641237 -0.05747267 -0.13598758 -0.021017008 0.30697036 0.38179365 -0.37924647 0.40367174 -0.63194126 0.07086585 -0.2827071 0.23214526 0.07283171 -0.06621703 -0.37567756 -0.019207511 0.11150693 0.2684442 0.19168462 0.015984694 0.53022164 0.026503278 0.03393478 0.04811869 0.15945077 0.013562686 -0.16008233 -0.061151166 -0.09420751 -0.20434283 0.050847907 -0.043491025 0.1888873 -0.33159524 0.44885895 0.11322412 0.28279722 0.064881146 -0.052948587 -0.18582682 -0.39069587 -0.29740888 -0.081793934 -0.21023348 0.18455042 0.035367552 -0.03380156 0.06696984 0.18943563 -0.098918535 -0.20888148 0.014895789 -0.17389126 0.085485205 0.36667445 0.21478939 -0.12031532 0.17671427 -0.2704547 -0.059267636 0.6179843 0.27555776 -0.041814767 -0.20555198 0.23351449 0.0038149708 0.015043043 -0.0021094165 0.5551939 -0.12449615 0.19862813 -0.34328753 -0.308408 0.047926392 0.24471669 0.12209385 0.04206048 0.3224323 0.029031605 0.04668424 0.40389347 0.24323379 -0.10142996 -0.3893086 -0.27050215 0.19014186 0.27326018 0.3300823 0.2967793 -0.23477007 -0.30725604 -0.070078254 -0.12132064 0.20087802 -0.37966487 0.18498372 -0.10040401 0.13144164
37 -0.38465643 -0.1112048 -0.16042566 -0.07369348 0.25843406 -0.28368628 0.1769386 -0.12165211 -0.45097384 -0.1959948 0.2733589 -0.15291592 0.0030070671 -0.15653616 -0.17272872 -0.18146972 -0.08115009 0.17371114 -0.18954495 0.3409825 0.05213288 -0.10436452 -0.34121615 0.05712046 -0.31138504 -0.40261889 -0.04657841 -0.2723295 -0.73005736 0.2504477 0.07162505 0.15932822 -0.2850891 0.045493 0.16303858 0.5307293 -0.11616587 0.02412092 0.23067155 0.1934846 0.11875375 -0.09422106 0.4899178 -0.19304274 -0.52307415 -0.06609557 0.45906335 -0.10591924 0.28772202 -0.08210503 0.42831564 -0.03681741 -0.16652301 0.048669945 -0.2808674 0.08941111 -0.01190544 -0.40199724 0.042002957 0.3521777 0.0449981 -0.08007782 0.024892129 -0.22735171 0.18565962 0.07814196 -0.23595652 -0.35422462 0.1776636 -0.33196014 -0.13645892 -0.57344383 -0.025564292 -0.4965121 0.58940136 -0.3518133 -0.025412293 -0.35995182 -0.0001217055 0.0886727 -0.2789786 0.20344198 -0.2435209 0.030641813 -0.34034288 0.37601158 -0.27046165 -0.5705119 0.3156101 -0.20550472 -0.03140322 -0.17072801 -0.0206145 0.22163339 -0.11434194 0.33129054 -0.098450996 -0.08050916 0.45933712 -0.09068212 -0.09284045 -0.31104854 -0.1197282 0.017573752 -0.47713253 -0.10135984 0.15423347 0.3308989 -0.17995998 -0.19374977 -0.14023666 -0.004960835 0.55818707 0.21466659 -0.0045550293 -0.086048864 0.34672365 -0.12308363 0.09040176 0.040995136 0.19963127 0.08515418 -0.17726812 0.5504409 -0.51155627 0.37442583 0.35881436 -0.48946562
11 -0.037345394 0.018203096 0.036349714 0.2701192 0.22995591 0.21851814 0.14231868 0.009846022 -0.08284326 0.51717 -0.1072526 0.11562921 -0.24400143 -0.38848346 -0.32940686 0.3079788 -0.33015224 0.36515537 -0.32068968 0.80287135 -0.41599903 0.20263404 -0.168848 -0.6309486 0.057204463 -0.047729883 -0.35185117 0.5876602 -0.48319054 -0.15430373 -0.40256867 -0.5265513 -0.52770585 0.25668645 -0.44138193 0.6579124 0.06749865 0.09665195 -0.015294012 -0.05041633 0.13502689 0.15970384 -0.41630086 -0.07245907 -0.25518748 -0.1580734 0.43334177 0.26633438 0.3449948 -0.23393571 0.69800866 -0.0878657 -0.12941116 -0.33125216 0.08797543 0.2346307 0.28936902 -0.27065337 -0.25064826 0.2775632 0.26944104 -0.18443264 -0.12427562 0.12171245 0.14616594 0.017223379 0.07097957 -0.012344606 -0.119845904 -0.14885433 0.14269125 -0.15545966 -0.520448 -0.1472538 -0.11425888 -0.11933409 0.019958392 -0.6758354 -0.016123049 0.33769372 -0.44448933 -0.23911324 0.16185407 0.33216095 0.15310787 0.43348458 0.6765943 -0.02982484 0.19242881 0.05464502 -0.5110817 0.32524905 0.015938047 0.341389 0.19317278 0.10754973 -0.5203018 -0.3032104 0.21448658 0.19678447 -0.024757005 0.49004743 0.14768624 -0.001530965 -0.23445097 0.058028147 -0.1317155 -0.0757506 0.3402042 0.33930257 0.28376728 0.10142086 -0.26903912 -0.23766536 -0.2625403 0.44486734 0.019922456 0.45722985 -0.0079440195 -0.09571122 -0.07985468 -0.19109875 -0.16094889 0.3245029 -0.52914435 -0.4237318 0.25672123 0.14183986
77 -0.58099616 -0.095202975 -0.29819018 -0.0751831 0.19465517 -0.27720645 0.2731779 0.065360405 -0.4972375 -0.07776694 0.29676813 -0.08184659 0.040829588 -0.18420076 -0.08263309 -0.018576575 -0.061714023 0.26685917 -0.067157835 0.39040366 -0.06253512 -0.14905775 -0.26668912 0.13136277 -0.34220076 -0.31624925 -0.15754357 0.0053968304 -0.6278059 0.21391797 0.06222444 -0.023711503 -0.23166052 -0.02850499 0.11424239 0.45176825 0.13773249 0.12460395 0.3767122 0.2053067 -0.044314373 -0.106504425 0.654748 -0.24107839 -0.5005943 -0.08615123 0.51845574 -0.059682578 0.31271982 -0.081370085 0.42785475 -0.14273715 -0.37141335 0.0060033603 -0.19434044 0.039754808 -0.056403916 -0.35235304 0.08446244 0.16619377 0.10796067 0.022549555 -0.07973121 -0.19822504 0.23028511 0.033370692 -0.2653312 -0.33883575 0.08685023 -0.35312903 -0.28753042 -0.4954378 -0.059437647 -0.6147428 0.45459062 -0.35306394 0.107734784 -0.31579456 -0.104143076 0.11246295 -0.2636988 0.22811657 -0.19922464 0.09208563 -0.27681804 0.3137261 -0.45445585 -0.60912925 0.22598682 -0.23141289 0.041870516 -0.04429342 -0.2298527 0.15850072 -0.24429893 0.38092136 -0.055557363 -0.144745 0.20204082 -0.07019191 -0.27604404 -0.35134417 -0.1484463 0.08953787 -0.48574585 -0.029468495 0.05843594 0.26053238 -0.1508159 -0.008939089 -0.14823282 -0.070349805 0.40421167 0.15344055 0.029787248 -0.15258789 0.21023996 -0.055497073 0.12811212 -0.04844317 0.4138802 0.18651742 -0.2040223 0.6022927 -0.28859732 0.43678138 0.3995433 -0.37869814
47 -0.39299488 -0.029699806 -0.20992789 -0.07899039 0.21778692 -0.2994502 0.18003334 -0.06683897 -0.47170904 -0.15205394 0.3302264 -0.054505188 0.0042178975 -0.16276398 -0.057971086 -0.14177585 0.0036239547 0.3023755 -0.1759595 0.38827142 0.10245284 -0.14078075 -0.35117987 0.032761503 -0.35055372 -0.38038576 -0.13978982 -0.22908174 -0.61509585 0.29065397 0.06875591 0.10331956 -0.34939864 0.05291462 0.13184915 0.5128314 -0.10035497 -0.07067778 0.22702517 0.34660184 0.042580895 -0.044794362 0.51922333 -0.2148842 -0.5525036 -0.12433656 0.49783093 -0.08504476 0.23663026 -0.18396631 0.5152428 0.037287697 -0.2446382 0.08825388 -0.116027534 0.14101674 0.00413315 -0.45173335 -0.04873337 0.29772958 -0.035072934 -0.052427106 0.0765709 -0.11669464 0.21450743 0.09503115 -0.23544176 -0.4104376 0.19101758 -0.24148893 -0.14508799 -0.5977398 -0.061179165 -0.45874673 0.59520686 -0.35333344 0.121225074 -0.37672347 0.0075588967 0.10329441 -0.3300651 0.20295589 -0.1627272 0.13336325 -0.30680498 0.316234 -0.3595583 -0.614835 0.30561715 -0.26258835 -0.020963434 -0.20109752 -0.09467279 0.18329035 -0.16881339 0.27457523 -0.16725035 -0.067213036 0.35340732 -0.047659993 -0.10061431 -0.26236957 -0.1621185 -0.06558039 -0.4402161 -0.076102406 0.1638076 0.26603475 -0.22979718 -0.08301386 -0.11026045 0.031248458 0.5597401 0.21284276 0.103634976 -0.06538377 0.40281576 -0.13422368 0.030359413 -0.0056803585 0.22293487 0.10254016 -0.051692754 0.44307345 -0.400621 0.409768 0.34061852 -0.55098253
317 -0.4805724 -0.07692097 -0.24316251 -0.06806208 0.11622273 -0.40422037 0.19603516 -0.009179404 -0.48842663 -0.13994576 0.20042567 -0.025761545 0.042789835 -0.10661605 -0.17294593 -0.07979122 -0.07757736 0.24104005 -0.023223685 0.429827 -0.009383372 -0.14698288 -0.21582142 0.05447325 -0.37561634 -0.34436628 -0.082500786 0.021754075 -0.60588783 0.16022067 -0.01408446 -0.065852925 -0.27173725 -0.02038425 0.02638629 0.54933643 0.026036475 0.1198774 0.32253492 0.18836425 0.027321272 -0.12581126 0.6111598 -0.21926135 -0.5536487 -0.046129975 0.4302662 -0.081748866 0.3694334 -0.0024649526 0.37537256 -0.11178649 -0.45947677 -0.01246831 -0.23272869 0.021124443 -0.104826644 -0.3917868 0.07243281 0.2160947 0.05461547 0.04575127 -0.0610609 -0.2725154 0.2129172 0.068533905 -0.23951997 -0.3312213 0.048001822 -0.2852698 -0.24490902 -0.42634502 -0.049633447 -0.6087455 0.38940957 -0.28596473 0.037192233 -0.19106779 -0.13598114 0.13712776 -0.35332343 0.33394632 -0.08903898 0.061904933 -0.24601135 0.45563772 -0.38123596 -0.55053383 0.33471605 -0.30279616 0.12305444 -0.1457632 -0.21435627 0.17087056 -0.17583211 0.336329 -0.03517324 -0.11461597 0.30244052 -0.11219356 -0.25489584 -0.3631936 -0.1420337 0.027162304 -0.45692325 -0.10316197 0.06336618 0.29754484 -0.22412625 -0.06840899 -0.1197018 -0.11803103 0.55632526 0.19395229 0.060414515 0.009157541 0.25674847 -0.039598335 0.033094615 0.030354766 0.37598166 0.20536694 -0.1351532 0.5640877 -0.28527966 0.40775415 0.4458517 -0.4134138
1403 0.28564227 -0.45980933 0.08100597 0.37481225 -0.2740774 0.48730657 0.084995836 0.036136564 -0.3247881 -0.09208314 0.28788444 -0.20683119 -0.34369376 -0.46800348 0.13953483 0.3959758 0.052766725 0.06970767 0.0743455 0.08445274 -0.011695226 -0.05701172 -0.3349116 -0.22804049 -0.1876799 -0.037075717 -0.37513384 0.31055728 -0.17270364 -0.046610657 0.3084078 0.043962996 0.10172938 -0.13906315 -0.19289489 -0.21584032 -0.03758139 0.0009232379 -0.09410146 0.5232611 0.035746653 0.25935906 0.041081022 0.26662672 -0.16000268 -0.5173026 0.21766004 0.7711885 -0.18701045 0.6082569 0.19713461 0.110125795 -0.20474944 -0.11376449 -0.4637412 0.18420334 0.27521992 -0.21254641 0.09243264 0.20553148 0.09709024 0.2534587 0.3730487 0.40171367 -0.06530525 0.19802749 0.5513913 0.028270125 0.011398643 -0.08556807 -0.4349623 -0.68029064 -0.21013911 -0.575628 0.13579348 -0.03490937 -0.25438368 0.036365375 -0.5154193 -0.24918158 -0.20599519 -0.11416856 -0.07779346 0.5166194 0.17757612 0.58917373 0.1570062 -0.54746646 -0.047061402 -0.011841464 0.036603898 -0.0069447053 0.083945185 -0.011311718 0.057343166 0.46589482 0.5789548 -0.0013220652 0.2471896 -0.095893934 0.36430266 0.00075593585 -0.2887055 -0.029760463 0.11033325 0.21243735 0.20534658 0.5292226 0.17703211 -0.26549736 0.43777975 -0.54199207 -0.3782484 -0.19638465 0.10964681 0.2975043 -0.0008296538 -0.081602596 0.008710558 -0.13660897 -0.093568295 -0.17955755 -0.7051917 -0.34785488 -0.581234 0.37094802 0.0016484711 -0.18834242
28 0.018639777 -0.1298858 -0.057443857 0.22169054 0.24869074 0.17573543 0.13926364 0.0555766 -0.10549959 0.53857875 -0.10531355 0.15129136 -0.30233648 -0.39793918 -0.32405123 0.24254066 -0.36936045 0.3321533 -0.36351877 0.8021677 -0.3688948 0.27540603 -0.20223898 -0.6322274 0.05376457 -0.095419645 -0.3803305 0.59761226 -0.5491642 -0.18152717 -0.3454052 -0.46673015 -0.559766 0.34073764 -0.3938061 0.60373217 0.032005806 0.13796717 -0.0876177 -0.09683083 0.13271466 0.16061094 -0.35730723 0.021661894 -0.28386778 -0.15134405 0.4094898 0.21606286 0.31490004 -0.2959402 0.67788047 -0.1920063 -0.10049318 -0.35740837 0.098369814 0.29570508 0.29039592 -0.28977674 -0.27917215 0.23430239 0.32024363 -0.2514009 -0.15568908 0.098780386 0.1548575 0.006177601 0.08551786 -0.018463057 -0.108799666 -0.05356036 0.19055192 -0.1839954 -0.5116995 -0.12824811 -0.15420076 -0.1542572 0.0086427 -0.6023211 -0.04263527 0.29536766 -0.48446098 -0.20320575 0.17735295 0.3729976 0.1954489 0.37675983 0.6013386 -0.09654596 0.2915448 0.07186122 -0.44864833 0.30015033 0.020419039 0.41904688 0.20447746 0.11156357 -0.4729153 -0.32220256 0.18731427 0.1462896 -0.074646145 0.4585667 0.123449534 -0.043136872 -0.16736677 0.02520629 -0.20177716 -0.033933796 0.23044811 0.30789933 0.25879735 0.08613319 -0.28395468 -0.17258625 -0.25488353 0.4550614 0.014626257 0.38076046 -0.026042195 -0.06966197 -0.13734628 -0.1476056 -0.17239375 0.24835023 -0.47988334 -0.4256521 0.3178286 0.07142451
44 -0.43400726 -0.024482317 -0.0970042 0.20103002 0.14165476 0.27782744 0.17316157 -0.088366136 -0.06256025 0.21859495 -0.4399707 0.22157209 -0.12418494 0.20821479 0.11501492 -0.29925698 -0.18933423 0.1272007 -0.09573284 0.032545723 -0.00097423943 -0.13043082 -0.054687355 -0.27649012 0.007639394 -0.05557181 -0.286087 0.17032644 -0.083690286 -0.2366174 -0.12798806 0.012016746 -0.22407724 -0.0054667545 0.35133862 0.34023324 -0.3810288 0.45956188 -0.5867635 0.12912431 -0.24822061 0.29403052 0.069865875 -0.017009795 -0.40022436 -0.079734035 0.09556371 0.24298944 0.24895522 0.0062498003 0.42315724 -0.082865395 0.012216585 5.8786558e-05 0.17501342 0.16248083 -0.084555216 -0.15011908 0.0017626624 -0.32131323 0.11673949 -0.17690781 0.18101262 -0.23858899 0.4869169 0.20810452 0.35178936 0.1069323 -0.1030287 -0.12507185 -0.38692388 -0.33475742 -0.055010945 -0.19089243 0.12829311 -0.03182535 -0.042934652 0.12897551 0.13885297 -0.046446826 -0.14517546 0.008360681 -0.14275573 0.18770185 0.38548335 0.10867316 -0.19046612 0.16877025 -0.21593009 -0.04471141 0.5425019 0.25426307 -0.1282134 -0.1615181 0.17403537 0.10392028 0.095467806 0.07121305 0.5451533 -0.11663772 0.28154668 -0.2725549 -0.33524206 0.05453402 0.27130714 0.07235414 -0.13906352 0.30629456 -0.0090580825 0.14092807 0.30484346 0.27791074 0.0052126506 -0.24375632 -0.27569595 0.15158658 0.28035948 0.41981852 0.35502124 -0.085753374 -0.34248796 0.015893053 -0.10558829 0.12369009 -0.323449 0.094577186 -0.14545661 0.1374362
54 -0.522807 -0.11052512 -0.2484789 -0.18242748 0.1532507 -0.3055666 0.19061564 0.019329922 -0.49889553 -0.12554212 0.3080261 0.0738261 0.1382515 -0.113301314 -0.08457891 -0.039548036 -0.09670867 0.2544675 -0.107974276 0.36784723 -0.12051098 -0.18905 -0.29784125 0.050943423 -0.39195502 -0.43222302 -0.13164893 0.07290826 -0.63021547 0.14616115 0.15193072 0.031661097 -0.25464997 -0.008933434 0.059426636 0.43630654 0.016692229 0.11725864 0.2880534 0.20331064 -0.02944245 -0.060552195 0.58141637 -0.21696314 -0.4918798 -0.10853553 0.5183006 -0.08521984 0.32223186 -0.09221661 0.4351112 -0.17129877 -0.2983351 -0.07678697 -0.2124801 0.018863974 -0.0912737 -0.4165381 -0.0024765984 0.21803351 0.15439391 -0.035623726 -0.11210591 -0.20987864 0.17017841 0.082343236 -0.32919884 -0.37683925 0.07797482 -0.31327522 -0.21223769 -0.45099086 -0.026987601 -0.52580273 0.46031561 -0.41872212 0.12934092 -0.16917191 -0.08805656 0.103224374 -0.3108364 0.22074683 -0.09616667 0.15614773 -0.22685723 0.42625374 -0.34674513 -0.5834954 0.34876537 -0.32160282 0.044034366 -0.010741292 -0.23704286 0.18430144 -0.257786 0.31239626 -0.0062693097 -0.08923748 0.2632766 -0.107947506 -0.25799748 -0.40370786 -0.15562493 0.04975859 -0.4870573 -0.094905175 0.05993255 0.33324248 -0.19910666 -0.09843104 -0.12989274 -0.1367915 0.4496134 0.1465468 0.082494624 -0.071971595 0.2999533 -0.09360794 0.08966873 -0.058153585 0.36021867 0.25230813 -0.24473082 0.6009495 -0.2581855 0.3610406 0.41112837 -0.39254636
7 -0.5220257 -6.769742e-06 -0.07671818 0.23375307 0.2122926 0.22595246 0.20936604 -0.07304702 -0.082670435 0.16106836 -0.44801494 0.09552818 -0.18478729 0.19612825 0.18425128 -0.35051396 -0.19587785 0.053649187 0.017647622 0.15817133 0.028667798 -0.07805622 -0.11431387 -0.31309295 -0.0030293262 -0.032705415 -0.185584 0.094790764 0.037632987 -0.110981844 -0.11839595 -0.08395089 -0.19413905 0.054823406 0.37958014 0.47350794 -0.3438609 0.40552303 -0.5634258 0.020376002 -0.24605648 0.3455272 0.1744939 -0.0011565712 -0.34615153 -0.09178737 0.16236718 0.20940731 0.3270409 0.08529531 0.3845387 0.00017566905 -0.015849322 0.035174105 0.1519824 0.19847399 -0.06693548 -0.08943127 0.008832045 -0.19998357 0.051198952 -0.026932264 0.19226792 -0.2252117 0.44479477 0.13861032 0.32826552 0.13848738 -0.085329026 -0.0739401 -0.40059817 -0.22039771 -0.032804713 -0.23835577 0.17479205 -0.020019155 -0.0041699903 0.06542024 0.1457014 -0.04090535 -0.03558891 0.029378688 -0.1158394 0.15892404 0.34101212 0.11923474 -0.18310983 0.21373385 -0.24307157 -0.033206683 0.5638208 0.18797451 8.478836e-05 -0.26264048 0.2639241 -0.084064886 -0.06314996 0.08091593 0.6102341 -0.22415963 0.24497324 -0.2762818 -0.32913795 0.058580246 0.18206641 0.10990377 -0.06211734 0.35026595 0.07783114 0.22177134 0.32916683 0.27801767 -0.0018681354 -0.39008725 -0.26552975 0.1454692 0.2656242 0.30839893 0.34698114 -0.16846733 -0.24846034 -0.079351924 -0.16196692 0.10901511 -0.3795852 0.084690586 -0.16964677 0.09926773
3 -0.4564565 0.0033709288 -0.16777194 0.19739056 0.070963494 0.17352621 0.17327659 0.0014845094 -0.047976255 0.069987096 -0.42546815 0.115815036 -0.023156034 0.19339933 0.108646266 -0.2527505 -0.12378089 0.13700254 -0.007069485 0.116592124 -0.03518536 -0.051644493 -0.08693962 -0.34968463 -0.118036464 -0.06634837 -0.16795571 0.3020159 -0.052942026 -0.17536436 -0.16458248 -0.048554406 -0.16013603 0.014241011 0.35529009 0.3329473 -0.44848067 0.40610838 -0.53952914 0.21696721 -0.31179503 0.28275064 0.03336412 0.0054789223 -0.4413437 -0.07691531 0.055841357 0.373231 0.2731018 -0.028503234 0.43230698 -0.09137218 0.06555052 -0.09107908 0.1301743 0.10247664 -0.14975773 -0.08564477 -0.099554054 -0.3400555 0.17843297 -0.059065018 0.2365795 -0.24065186 0.40470466 0.08107835 0.27135903 0.02562816 -0.06936319 -0.24065134 -0.36407205 -0.23127463 -0.16361181 -0.22955966 0.22633128 0.032161534 0.061032847 0.08600323 0.17811419 -0.18722902 -0.14033979 0.10965437 -0.2585844 0.1633391 0.38363457 0.2194744 -0.2769782 0.22509365 -0.17425817 -0.03445064 0.6257122 0.065945804 -0.10223 -0.14056543 0.29525846 0.028897418 -0.061226204 0.091849476 0.44691426 -0.2437553 0.18574615 -0.25348386 -0.29407367 0.008075559 0.15996437 0.13857779 -0.094776295 0.37282273 0.07581602 0.13531247 0.37610573 0.3134003 -0.03131218 -0.34841898 -0.16901627 0.15832888 0.26528493 0.3568569 0.33141002 -0.14997844 -0.22218251 0.046210986 -0.053243045 0.21755022 -0.32365623 0.17757264 -0.15274096 0.15734534
1322 0.33537972 -0.54115754 0.07465995 0.3120734 -0.15836 0.41821983 0.06462422 -0.0014777312 -0.2469531 -0.11682807 0.30698422 -0.21699062 -0.4459289 -0.3779653 0.10523963 0.4489456 0.031045513 0.14619629 0.14452408 0.1404574 -0.017455207 -0.01651167 -0.3940427 -0.20686056 -0.18066537 0.06838494 -0.37201795 0.26143306 -0.2307216 0.012286562 0.36036617 0.03087703 0.07286455 -0.07217957 -0.2298923 -0.22862771 -0.09829477 0.0036081958 -0.07766204 0.47050053 0.18394707 0.3168502 -0.024000922 0.24945699 -0.15273686 -0.5128321 0.20232151 0.7224654 -0.120961905 0.4808905 0.18501912 0.07558622 -0.17629035 -0.016625308 -0.42998812 0.03425606 0.20576139 -0.3094996 0.1261253 0.19753411 0.16295493 0.35438368 0.2700763 0.39619526 -0.10106886 0.10603972 0.6206587 -0.06212262 0.03875512 -0.082680695 -0.40389746 -0.5318712 -0.15720311 -0.58446807 0.04406619 -0.07981254 -0.25131902 0.06978604 -0.49984524 -0.21099024 -0.2802127 -0.09776167 -0.09567817 0.4724733 0.21899453 0.60271955 0.18173774 -0.5211124 -0.004401994 -0.007062239 0.07147391 -0.020598201 0.09728938 -0.0013913583 -0.011719788 0.44387114 0.6312206 0.15649094 0.2295398 -0.21850827 0.34115887 -0.012476556 -0.39127243 -0.031307153 0.12761743 0.23399438 -0.034266163 0.5871665 0.15597929 -0.2070316 0.52725184 -0.62289464 -0.30751318 -0.16895972 0.10362386 0.31020075 0.025564572 -0.018009044 0.10666541 -0.18429376 -0.15589899 -0.03352993 -0.6813979 -0.29847944 -0.51425594 0.37737504 0.025378225 -0.1909481
1079 0.16916722 -0.46733505 0.079774484 0.30976737 -0.16241914 0.44187772 0.12871796 0.019744929 -0.2620286 -0.15073696 0.25592858 -0.21469054 -0.4101736 -0.45773274 0.12428049 0.3955752 -0.011959614 0.024532873 0.1530632 0.09995368 0.062440988 -0.04979958 -0.24878985 -0.18915263 -0.18458383 0.05377813 -0.38315108 0.20106538 -0.1692132 0.05567519 0.3309447 -0.015429861 0.09124171 -0.16228004 -0.27485 -0.3022631 -0.051147774 0.028787859 -0.15088525 0.5080629 0.101949096 0.18058282 0.0761322 0.265332 -0.14690961 -0.6305047 0.29106578 0.64834034 -0.12652433 0.5477995 0.15526393 0.016568903 -0.091489665 0.06270099 -0.45661342 0.084444605 0.18679848 -0.26334938 0.019219866 0.2596703 0.06869675 0.24347082 0.33907092 0.51058567 -0.04928411 0.13338056 0.5456355 0.018437725 0.007742969 0.036912523 -0.3375027 -0.66240454 -0.2547846 -0.6749442 0.08396977 -0.13239445 -0.21793097 0.11514289 -0.41713196 -0.19448091 -0.23542994 -0.1811124 -0.1600243 0.4664484 0.17222653 0.62125707 0.16999486 -0.3971857 0.0646931 0.0043730866 0.05914449 -0.03564318 0.15181679 -0.033092707 -0.007302265 0.45749146 0.48544052 0.06059327 0.29720032 -0.058677122 0.2917929 -0.07356982 -0.27278763 0.050620113 0.17032318 0.24070923 0.15372685 0.57985705 0.24617778 -0.33240795 0.46523064 -0.5567657 -0.27237105 -0.30259487 0.10838566 0.21275665 -0.013116434 -0.008182136 -0.049146328 -0.08660528 -0.11963894 -0.3405186 -0.7709028 -0.32298982 -0.5841281 0.32438588 0.0039901 -0.17095745
17 -0.44780636 -0.00217883 -0.16088597 0.13012406 0.12844348 0.16481912 0.14833818 -0.24506478 -0.04389682 0.20377125 -0.35742864 0.17839548 -0.021741794 0.15461093 0.22670846 -0.31892875 -0.17268392 0.12856215 0.049912 0.10719001 -0.07432353 -0.10430479 -0.178827 -0.28351513 -0.09480496 -0.09868992 -0.24317342 0.18340257 -0.06641362 -0.20141035 -0.07320713 -0.058737222 -0.14415441 -0.0326557 0.27541965 0.36598143 -0.33731163 0.5774527 -0.5183349 0.12371725 -0.27155754 0.24630928 -0.043459825 0.010305089 -0.45965737 -0.034369685 0.12924224 0.4017415 0.16550696 0.063823 0.37749228 -0.13461246 0.05298178 0.03144515 0.11148629 0.15200268 -0.18622348 -0.12490474 -0.036389876 -0.4103519 0.07278549 -0.28741536 0.25292996 -0.2753466 0.40591508 0.19944273 0.2974527 -0.0069625503 -0.0052880463 -0.32815298 -0.3468595 -0.24344411 0.07298513 -0.14514983 0.15239617 0.020506453 0.006074675 0.082286894 0.24213895 0.043499727 -0.14450076 0.10172258 -0.22947478 0.15563257 0.36762103 0.20296003 -0.061016086 0.14121953 -0.12706913 0.13088362 0.6170724 0.19421248 -0.15665708 -0.08308577 0.34290886 -0.010096119 -0.0073993504 0.069566324 0.59849966 -0.16975819 0.26337403 -0.34331566 -0.23277533 -0.08289178 0.3048105 0.1884581 -0.061628617 0.3152741 0.10866354 0.15407386 0.27776048 0.32970226 -0.075353675 -0.34678033 -0.1323532 0.18425429 0.33227918 0.28040254 0.3332905 -0.13226195 -0.30270693 -0.07273939 -0.03833639 0.2635346 -0.24195965 0.14150833 -0.24233918 0.0138132535
181 0.1548815 0.36698332 0.118323006 0.1050894 0.12153561 -0.03985529 -0.097907595 -0.14924748 -0.4870985 -0.1141569 0.21428555 -0.11494103 -0.33200547 0.027004339 -0.13568345 -0.07372627 -0.16399169 0.010753962 0.24867862 -0.026738606 0.573364 -0.2743491 -0.035317186 -0.26594308 -0.71687627 -0.008955057 -0.1764038 0.08577815 0.19778614 -0.34398952 -0.30302742 0.15209177 0.1726325 0.05595598 -0.45628366 0.07209419 -0.1428734 0.41619384 -0.089659594 -0.5080704 0.13294853 0.28859618 0.20120843 0.52504516 0.30943805 0.12029879 -0.10895226 -0.071639284 0.38514128 -0.107562065 0.23029989 -0.019164452 0.24991775 -0.26370028 -0.17517069 -0.23190588 0.12425636 -0.22686625 -0.19067895 0.03116745 -0.2265613 -0.19655792 -0.0055734767 0.23684666 0.44002572 0.013107901 0.16452323 -0.32623094 -0.1366427 -0.32482818 -0.4499859 -0.16878854 0.1252101 -0.18703826 0.14169282 -0.07039162 0.15334955 -0.17334229 0.11148617 0.5796929 0.20764095 -0.32012182 0.11018819 0.6864338 0.27529386 0.029853264 -0.0027292469 -0.48658553 -0.10023595 -0.3698788 0.14582442 -0.3964086 0.025062945 0.505176 0.10492347 0.42962238 0.058479935 -0.20201391 0.053153023 0.23767292 -0.10118716 -0.36979243 0.020712934 0.21205261 -0.36094463 -0.19959784 0.009683131 -0.032370597 0.23869045 0.10056203 0.24286135 -0.35731772 -0.12126007 0.2523255 0.27944604 0.19022375 -0.19108601 0.40018383 0.008942367 0.13133469 -0.36991727 0.37133232 0.062437087 0.03821385 -0.8666489 -0.28321564 -0.6573983 -0.08153368
31 -0.5376727 -0.10099399 -0.1551463 0.14914761 0.1429898 0.22756968 0.14382018 -0.11862308 -0.026341053 0.22917607 -0.36000794 0.18389826 -0.0757016 0.15323363 0.24070777 -0.29368916 -0.08533974 0.15576178 -0.024627062 0.11768151 0.06648167 -0.062313512 -0.16333249 -0.40287572 -0.046830066 -0.13730364 -0.19771472 0.16350047 -0.07399978 -0.10228307 -0.22474211 -0.028555708 -0.2443838 0.050746504 0.34212938 0.3317721 -0.3560026 0.54297715 -0.37852663 0.11440747 -0.32057923 0.290399 0.057909157 0.03937617 -0.38004497 0.047068063 -0.00016988783 0.3668112 0.24684632 0.11126063 0.47841358 -0.122501425 -0.053525444 -0.009536722 0.111847535 0.094690196 -0.13139077 -0.13380596 -0.12355807 -0.34798682 -0.0043806294 -0.29666126 0.16003121 -0.2790948 0.385008 0.19155623 0.31711105 -0.025200194 0.029080069 -0.2615441 -0.29907313 -0.3274809 -0.0783016 -0.15804589 0.15535301 -0.023429342 -0.02185847 0.22884148 0.06443581 0.03618953 -0.13201964 0.16603889 -0.25002992 0.17847289 0.37247944 0.13512604 -0.089427724 0.21518205 -0.20643821 0.1047704 0.6165286 0.14188312 -0.004208149 -0.22264254 0.23771927 -0.051987287 0.029056182 0.1476519 0.5101895 -0.110410675 0.1750112 -0.29135606 -0.27730227 0.030682636 0.14278796 0.20451199 -0.075327 0.27100497 0.083966315 0.1961124 0.23302388 0.29477277 -0.10159346 -0.4191316 -0.20530507 0.14588347 0.28485334 0.32238033 0.29147896 -0.2335496 -0.35064125 -0.0508411 -0.018791897 0.21407871 -0.27164835 0.1304222 -0.1830207 0.061086476
30 -0.3809424 -0.00069452677 -0.2286055 0.18111128 0.3385491 0.19170168 0.24075761 -0.08346555 0.033260312 0.18922621 -0.43396574 0.15442497 -0.026892392 0.23610471 0.05314346 -0.2564537 -0.23779765 0.23275614 -0.029208478 0.12720145 0.03952757 -0.07072814 -0.15601347 -0.33011255 -0.110122435 -0.17618047 -0.14129546 0.028419008 -0.0064951396 -0.2324539 -0.097312 -0.038828637 -0.23646697 -0.12834683 0.19249992 0.48625872 -0.3722264 0.38188386 -0.71719027 0.19262873 -0.28698462 0.21643496 0.027198248 0.008896639 -0.41724136 -0.2003686 0.028467523 0.260033 0.27755967 0.030918505 0.3874802 0.031825855 0.0112556005 0.07876248 0.022830276 0.022989599 -0.10799501 -0.111780584 -0.08229276 -0.35073358 0.040330734 -0.07471341 0.2258618 -0.40506244 0.4021918 0.2999963 0.29352775 0.26281056 -0.010359504 -0.13684417 -0.46504444 -0.2363325 0.0045982623 -0.25195068 0.1480161 0.08809468 0.13656315 0.10428307 0.13400067 -0.1276094 -0.03737201 0.12467014 -0.1954312 0.12489704 0.2706933 0.25151652 -0.018464249 0.16800082 -0.19643421 0.01840296 0.61073565 0.09699805 0.033647515 -0.1982075 0.40728453 0.10219081 -0.008162256 0.09028756 0.4885756 -0.1930882 0.077236064 -0.30721745 -0.20280376 -0.0026856742 0.20259751 0.20048085 -0.05622346 0.3463205 -0.038182743 0.10220741 0.31188765 0.2572677 -0.062340517 -0.4353293 -0.31828806 0.18333048 0.34337088 0.25253028 0.24224938 -0.21645257 -0.40985614 0.047095418 0.055089355 0.2092195 -0.30556718 0.18082544 -0.05235943 0.122291476
10 -0.3647358 0.031657625 -0.11533902 0.12794523 0.23067349 0.19945824 0.150252 -0.10031991 -0.024375895 0.21023548 -0.4567891 0.16807686 -0.038246945 0.26565596 0.15031403 -0.16225721 -0.2555457 0.27130023 -0.025972044 0.095002085 -0.0043796054 -0.03363251 -0.12247858 -0.3311738 -0.035498906 -0.13207072 -0.06850911 0.21671787 -0.017056886 -0.18136619 -0.08699454 -0.050650604 -0.31235656 -0.11722941 0.29084682 0.43471855 -0.44573417 0.37706897 -0.65584695 0.08995291 -0.26356077 0.21274613 0.14925559 0.005555796 -0.3982706 -0.096632056 0.11411642 0.21458249 0.28487578 0.0624184 0.3936141 -0.118126795 -0.0071226824 0.017524432 0.00041517962 0.09672358 -0.07490848 -0.058123536 -0.137143 -0.22108075 0.08194827 -0.10742101 0.15492001 -0.34047386 0.3710868 0.24091867 0.24192064 0.25554726 0.008199148 -0.14207457 -0.45893356 -0.3558689 0.011521826 -0.1540545 0.12677677 0.024952395 0.05064082 0.15635036 0.09639975 -0.1224437 -0.043256216 0.05726999 -0.2488732 0.0069680484 0.30424765 0.18661772 -0.09734641 0.16067554 -0.1720324 -0.004028522 0.6455076 0.10873343 -0.064925805 -0.25704753 0.34892184 0.13906573 0.08760482 0.024287809 0.56865865 -0.13144365 0.13454135 -0.30958292 -0.22826947 -0.12578219 0.13251685 0.1849226 -0.09935607 0.40027878 0.0912034 0.13554396 0.3606945 0.2428041 -0.015637463 -0.44822413 -0.14549515 0.09034851 0.30931658 0.35054752 0.20616741 -0.19178516 -0.3755877 0.04376385 -0.01005246 0.26713252 -0.2642597 0.12147468 -0.08395256 0.027159298
468 0.21847565 0.30685788 0.2401361 -0.40001982 0.21648155 0.21148357 0.3922721 0.20631157 0.14177452 0.061152015 0.43904468 -0.07962614 -0.35018674 0.26882645 0.19299386 0.35174167 0.034111895 0.38839763 -0.08833649 0.025108878 0.5689574 -0.10316227 0.00517844 0.046263985 -0.78539675 0.056303952 0.2104226 -0.16057236 0.10798699 0.14172171 0.12532015 0.40880045 0.17235535 0.31118277 -0.67241716 0.45391017 0.36341187 0.46055672 -0.33802763 -0.67126 0.17328964 0.48362678 -0.11668399 0.5659962 0.16460587 -0.15233657 0.28186443 0.07657431 0.14962842 0.21091194 0.12502229 -0.25346646 -0.048500773 -0.26396817 -0.4640743 0.17051634 0.1770117 -0.29975384 -0.047100443 -0.24796712 -0.20089713 -0.21775283 -0.3418179 -0.14712709 0.35024798 0.39272878 0.34664375 -0.5320947 -0.2700165 -0.41138 -0.2615426 -0.8227552 0.04038808 -0.12602362 0.08903307 -0.041335348 0.80808246 -0.0124837095 0.2648702 0.332007 -0.17198369 -0.36540186 0.12960297 -0.34146795 0.72355926 0.26663905 -0.1450463 -0.567454 0.12370007 -0.68773794 -0.38622415 -0.10329865 -0.026557265 -0.006159237 0.19945325 0.6068604 -0.123493835 -0.10878692 0.35402957 -0.11243816 -0.67507696 -0.25323465 0.010696566 0.64813477 -0.14473231 -0.1640736 0.14561655 -0.10599873 0.82578063 -0.17505246 0.20347087 -0.07274695 0.20889479 -0.39537764 0.22612062 0.533217 -0.2362446 -0.23273583 0.763816 -0.3176628 -0.34275624 0.381529 0.18340826 -0.33930898 0.1740775 -0.09853844 -0.35543427 -0.040953495
