1813 128
1222 -0.041040905 0.22782114 0.40977642 0.04309019 0.10170725 -0.34597716 -0.112805195 0.26968127 -0.008518875 -0.79414177 -0.12249978 0.0052439254 0.04272248 0.05815933 0.12257587 -0.011389185 0.12776604 0.29473656 0.092826314 0.20354415 0.21390721 -0.067296624 -0.022729177 -0.4994159 0.05017113 -0.5306903 0.26963457 -0.29406336 0.17612466 -0.117150865 -0.60445523 0.27067885 0.4914955 -0.24517709 0.027605752 0.23614085 0.62554634 0.20423825 -0.2512047 0.09221059 -0.24648276 -0.051687464 0.169843 0.057614844 0.18444462 -0.27804214 -0.11291742 -0.13441446 -0.3706665 0.4655981 -0.042325005 -0.12650523 0.57038426 0.17727253 -0.10227902 0.3406143 0.22885944 -0.28624985 0.07067715 -0.017911518 0.054162897 -0.21171688 0.105478354 -0.16762865 -0.10718442 0.050834257 0.39624804 0.24177651 -0.077483036 -0.2451334 0.13866287 0.09361411 -0.5225895 -0.31348455 0.18191645 0.21339235 -0.032820098 -0.22162992 -0.1357815 -0.08292507 0.0028330968 -0.030968992 0.46617585 0.68311614 -0.09804716 -0.055810276 0.13466434 0.11645697 0.34217796 -0.16405715 -0.26044786 0.14269553 0.09823935 0.22124605 -0.08360071 0.07118349 -0.12030633 0.26041016 0.09971789 -0.31513596 -0.07025347 0.00053782586 0.043321926 0.12802143 0.014147876 -0.13550402 0.2673419 -0.21276253 -0.1819956 0.2053422 0.055582456 0.123284206 0.17226443 -0.13527828 -0.19270366 -0.10397858 0.17321002 0.1801661 0.1297703 0.07117333 0.050074443 -0.29184955 0.26343784 -0.1344672 0.23242858 0.0950219 0.030962707 0.15416378
865 0.08261443 -0.0026941954 0.07722614 0.19636029 0.28731996 0.051067274 0.16157936 0.13539293 -0.20183657 -0.3901379 -0.20832878 -0.086280465 -0.18301919 -0.34269676 0.3530878 -0.27768153 0.119958796 0.20069507 0.08783038 -0.09297531 0.17164351 0.16182603 -0.09011328 -0.8102311 0.2983416 -0.62042964 0.12838398 -0.17623834 0.38137987 -0.05819146 -0.50168616 0.17900157 0.2730219 -0.28917253 -0.11407617 0.4349695 0.008937446 0.20350617 0.19586512 -0.17385092 0.00749232 0.17320134 -0.2650143 0.0383448 -0.07089957 -0.46911132 0.026333688 -0.3457838 -0.16222286 0.08548869 0.26791546 -0.02704398 0.28653482 0.37040803 0.093692355 0.7385582 0.24613355 -0.2513463 0.08610215 -0.041171744 -0.42904544 -0.29962307 0.086555116 -0.24825269 -0.05684739 0.038186356 0.4712702 0.2601397 -0.2453133 0.04212574 0.09659253 -0.3142527 -0.27039096 -0.2220327 0.2526462 0.015333861 -0.2191474 -0.11158801 -0.2787608 0.19248623 0.24471086 0.15275705 0.5351529 0.79464364 0.36258826 -0.11496753 -0.07447979 0.023140881 0.33738878 -0.018655667 -0.3526079 0.14026266 0.006621753 0.55400664 0.26553345 -0.04208497 0.27304658 0.24505441 -0.016259091 -0.27443996 -0.3018915 0.42091334 0.26933324 -0.49048233 -0.1544009 0.018580858 0.31427777 -0.22650482 -0.062108077 0.10836962 -0.267379 -0.12615407 0.08540676 -0.038055085 -0.06878246 0.050011314 0.023179423 0.36679295 0.10970555 0.13937706 0.21964322 -0.15417442 0.14215136 0.2556832 0.051854484 -0.19338441 -0.17451389 -0.22327411
161 0.47739583 -0.042355977 -0.062909506 -0.09587521 0.2306574 -0.3786783 0.22354773 -0.38104907 -0.1112221 -0.64637136 0.13855405 0.23028947 -0.19234562 0.09324776 0.20538375 -0.23461574 0.12220569 -0.3343381 -0.04481154 -0.14620937 0.048549067 0.3734518 0.06805417 -0.34089315 -0.35441017 -0.32287598 0.18770535 0.07755295 0.018168135 -0.25993964 -0.4518318 -0.10939322 0.35932696 0.16036205 0.06657734 0.41023383 0.37130865 -0.027038109 0.29561993 0.2511703 -0.3396959 0.51426244 -0.15200454 -0.11979331 0.075466596 -0.23454672 0.05349597 -0.15640084 -0.3069855 0.36248443 0.143248 -0.13878822 0.47439784 0.07013883 -0.12191284 0.5308562 0.33581352 -0.26692063 -0.28145754 -0.0983885 0.21672533 -0.06433368 0.17066516 0.06703565 -0.04103809 0.14793444 0.13171405 0.4616922 -0.11205349 0.15376116 0.5316691 0.021108247 -0.48154008 -0.20676069 0.18869443 0.02115864 -0.29232323 0.042694815 -0.40018657 0.11876939 0.023008145 -0.026365643 0.36507645 0.761066 -0.38662016 -0.013941142 -0.22790402 -0.6311131 0.08061765 0.08049756 -0.2093326 0.03761974 -0.006346022 0.2994203 0.38586202 -0.10669087 -0.15857296 -0.011357086 0.19780146 -0.29381472 -0.430002 -0.12173577 -0.33090952 -0.11204016 0.25081778 0.049327258 0.4050743 -0.36864406 -0.33703843 -0.19133237 -0.25857192 -0.015000107 0.09031005 0.12552539 -0.17613126 -0.2587151 -0.22400807 0.6415357 0.39811653 0.36005026 -0.08487025 -0.5114473 0.055024978 0.14392276 -0.06040785 0.0234854 -0.0919551 -0.15604362
667 -0.007251836 0.022379247 0.08136786 0.23477237 0.28407064 -0.019197052 0.17096372 0.07425851 -0.17409082 -0.42610946 -0.21903491 -0.110811196 -0.10333429 -0.4037175 0.23468739 -0.2097995 0.00037245118 0.121777885 0.07035877 -0.048053056 0.27660948 0.12310448 -0.14170249 -0.7597672 0.21741098 -0.5947435 0.06572424 -0.19595507 0.36797985 -0.008508705 -0.5437719 0.17738438 0.238637 -0.2531328 -0.10751611 0.46798262 0.020078152 0.26931348 0.05487649 -0.16511093 0.035741743 0.17659213 -0.30342323 0.039993737 -0.12049437 -0.389625 0.03966376 -0.3225991 -0.1107514 0.108717166 0.14879304 -0.10176022 0.3700089 0.35004032 0.08725479 0.73416847 0.21947233 -0.28616747 0.18865621 0.007955668 -0.4024887 -0.26905298 -0.039407883 -0.1791036 -0.07875616 0.0001979483 0.49481222 0.32481372 -0.19075145 0.04268618 0.08136997 -0.25456738 -0.2790867 -0.25215998 0.18776836 0.045942586 -0.22749159 -0.15202664 -0.29825288 0.049425907 0.2556385 0.14543898 0.62191707 0.83188885 0.3764053 -0.011338811 -0.1450932 0.0508917 0.35467547 0.010873236 -0.35081783 0.18049112 -0.08166868 0.49143836 0.3008838 -0.06014811 0.31710935 0.14442644 0.021514859 -0.3152723 -0.29602683 0.44543925 0.20949738 -0.48540437 -0.15327793 -0.00028449282 0.34191236 -0.31642225 -0.059293017 0.034480356 -0.2246446 -0.21317811 0.056131095 -0.027454494 -0.102491744 -0.0039152782 0.07676231 0.39095178 0.07461749 0.07771318 0.14135097 -0.15598169 0.061854463 0.24245128 0.09202575 -0.183256 -0.120367594 -0.21481574
1467 0.04687569 -0.011132733 0.10416957 0.20778252 0.27425167 0.010518371 0.13534579 0.07255678 -0.2669884 -0.43510407 -0.24518648 -0.100071885 -0.10578969 -0.34577444 0.33217892 -0.2470152 0.12622936 0.12381615 0.041028783 -0.116619095 0.18368271 0.20739843 -0.1360371 -0.7868498 0.22602946 -0.61608523 0.04713378 -0.1821366 0.468671 -0.021958865 -0.47812045 0.13874345 0.24008404 -0.09597196 -0.17880508 0.46144003 0.020463308 0.17557175 0.23315197 -0.18063276 0.06545184 -0.0042741606 -0.15829103 0.06712978 -0.10823106 -0.42999494 0.032152403 -0.33660772 -0.18346775 0.017914087 0.27636075 -0.05494794 0.38763532 0.36955765 0.15064083 0.781289 0.22953252 -0.1431933 0.13487625 -0.16013661 -0.32108602 -0.29572785 -0.05102959 -0.14821099 -0.049985975 -0.007046264 0.49319333 0.31164673 -0.18154414 0.023224948 0.07818642 -0.29118168 -0.18834156 -0.30504352 0.24206024 0.016191602 -0.24854177 -0.14606842 -0.2706788 0.17242752 0.20246576 0.15855439 0.4939186 0.8404026 0.45980805 -0.05455474 -0.20588727 0.060118582 0.3682773 0.008573504 -0.40291238 0.12219299 -0.10110276 0.46948144 0.3067132 -0.0013135226 0.14319901 0.28903368 -0.017397843 -0.2695958 -0.30149862 0.28900576 0.37292823 -0.4512096 -0.08547419 -0.10825235 0.34997764 -0.33214822 -0.12051246 0.12094865 -0.25060233 -0.09717993 0.056426853 -0.035111196 -0.082976915 -0.05354898 0.10124158 0.31329116 0.045175757 0.037280038 0.23629414 -0.22048385 0.08254586 0.26582164 0.06334074 -0.17751665 -0.11176285 -0.2561761
831 0.085819766 -0.015978865 0.07811215 0.22437546 0.33507696 -0.0064086136 0.19992478 0.17003992 -0.16993766 -0.40936014 -0.22597817 -0.1031403 -0.107026495 -0.34511802 0.31667587 -0.2789882 0.0655252 0.16439019 0.05595237 -0.099272445 0.25371835 0.19924037 -0.096967 -0.78105307 0.24081537 -0.53751063 0.07217761 -0.14552552 0.38618612 0.051482625 -0.48787415 0.15090334 0.23583871 -0.20329686 -0.10465008 0.43066677 -0.010190326 0.24810456 0.13438594 -0.14923903 0.017468778 0.17556898 -0.22660956 0.03463331 -0.09533545 -0.42903098 0.009617208 -0.3969341 -0.14827201 0.02311367 0.08911704 -0.04821395 0.39219958 0.40787965 0.12768273 0.71387273 0.14982148 -0.18298498 0.1214916 -0.07996187 -0.40447187 -0.2989293 0.021218194 -0.19210851 -0.0728354 -0.0403467 0.48872298 0.32742268 -0.19234173 -0.03655734 0.0734916 -0.3488022 -0.30525422 -0.27432784 0.27995002 0.08752898 -0.14052913 -0.15705353 -0.28325653 0.10428147 0.17800277 0.111486346 0.53578687 0.76163685 0.3467338 -0.061957452 -0.1852714 0.036852594 0.37040377 0.046216123 -0.3510119 0.1405238 -0.06984857 0.41642252 0.31614614 -0.05019458 0.26626143 0.26201433 0.045251273 -0.35259366 -0.2746016 0.31374085 0.26748917 -0.43251672 -0.08179358 0.034579813 0.34846246 -0.25574696 -0.11705024 0.025496487 -0.29548082 -0.07029842 0.114212096 -0.0014773235 -0.09363495 -0.001998961 0.026270714 0.3892451 0.06542833 0.03360867 0.19391538 -0.1947444 0.0025514297 0.27311835 0.060167428 -0.2706724 -0.16387591 -0.23365927
286 0.4432185 -0.1374002 -0.1315832 -0.08204831 0.23577645 -0.3496359 0.23213966 -0.25923276 -0.124010146 -0.69176036 0.063702464 0.30821714 -0.20890279 -0.00065057114 0.22484402 -0.19760872 0.16444406 -0.29259664 0.030082947 -0.14279863 0.027276855 0.3931076 0.07910331 -0.2719684 -0.28002444 -0.23073177 0.11476424 0.025730895 0.0013425276 -0.33894807 -0.531831 -0.15070319 0.327 0.15305288 0.045322128 0.34524575 0.45100078 -0.062145937 0.2432772 0.25595784 -0.37387446 0.5152172 -0.10961855 -0.1816177 0.15117536 -0.14053965 0.031154377 -0.12681143 -0.2584391 0.26068175 0.10806166 -0.123332255 0.44971806 0.12628137 -0.119449 0.52265203 0.29096487 -0.24469277 -0.23485069 -0.15950589 0.23955624 -0.07614818 0.058379382 0.09431 0.0032594302 0.21518683 0.05605743 0.38859507 -0.012449949 0.15866247 0.51125365 0.0064574936 -0.46453217 -0.20408078 0.117748484 0.13148981 -0.28586453 0.12248179 -0.49023622 0.13245426 0.13607773 -0.0076339277 0.39863947 0.7951758 -0.42464697 0.020818565 -0.20417428 -0.5695534 0.18048598 0.16751733 -0.14253512 0.0037623916 0.039683484 0.13599898 0.37551084 -0.12187609 -0.055490334 -0.064205036 0.20066912 -0.1926566 -0.3896826 -0.19013676 -0.22468056 -0.14751251 0.1740583 0.11443162 0.52754754 -0.3733648 -0.30859748 -0.12646478 -0.24132942 0.048742704 0.06987172 0.19576545 -0.20434837 -0.24971464 -0.14336011 0.65281665 0.4935097 0.36315283 -0.1806205 -0.49365097 0.05173389 0.1882164 0.04424891 0.036860406 -0.1522457 -0.12683508
1377 -0.1268933 0.26223704 0.49708417 0.072842166 0.10406942 -0.3926572 -0.03895566 0.3130687 0.016625397 -0.7255713 -0.247182 -0.055241406 0.036511943 0.0889682 0.078389175 -0.024776848 0.25217137 0.3907329 0.14187881 0.2531087 0.17050043 -0.026085151 -0.1396647 -0.3392253 0.01867023 -0.5591688 0.18546441 -0.2386625 0.21327743 -0.1728829 -0.5198043 0.2649571 0.4683841 -0.23574957 0.013947235 0.17450368 0.6613279 0.22274418 -0.2251008 0.139842 -0.264187 -0.09518092 0.13094382 0.07448666 0.29057327 -0.25544268 -0.13120775 -0.20943289 -0.44775 0.47170016 -0.037151862 -0.094981104 0.5306505 0.20251502 0.013694188 0.2655177 0.11284827 -0.38213804 0.09597612 0.047528442 0.068479486 -0.094838396 0.18766394 -0.18614472 -0.05243337 -0.08422895 0.44200826 0.25811294 -0.06853377 -0.14892171 0.1868206 0.11627336 -0.39820826 -0.3407545 0.19238286 0.20964664 -0.12255495 -0.2492742 -0.2320557 -0.078234315 -0.09140918 -0.044915415 0.4592041 0.73830867 -0.12407251 0.033878792 0.04698014 0.13757148 0.37446007 -0.28084558 -0.19655071 0.038323164 0.16003293 0.17784342 -0.09038545 0.08147759 0.0368253 0.20884466 0.16236721 -0.3534466 -0.13292271 0.039149877 0.048654884 0.04709364 -0.006222693 -0.1269901 0.31704682 -0.29826432 -0.19474316 0.24201617 -0.03740763 0.079721056 0.15959904 -0.07118075 -0.1994183 -0.07633276 0.12302927 0.18059464 0.23296675 0.10077039 0.052535057 -0.22637811 0.28245798 -0.12929392 0.17032543 0.065179326 -0.0011788084 0.15518992
354 0.44682533 -0.12698713 -0.051637396 -0.14119546 0.19825822 -0.28472328 0.21748658 -0.32260308 -0.21975292 -0.66386753 -0.00011938699 0.22204928 -0.14255905 0.05236536 0.13810886 -0.16662359 0.16822359 -0.26870665 0.1003713 -0.1251801 0.07108658 0.3980606 0.13847007 -0.28193736 -0.37319562 -0.17417087 0.21883726 0.11635276 0.06400837 -0.21052489 -0.50677556 -0.17068836 0.30028898 0.15890343 0.030407172 0.4510229 0.43361086 -0.039226003 0.263622 0.2872599 -0.31014872 0.4390291 -0.16949192 -0.13346733 0.13575102 -0.15678985 0.04960783 -0.16211446 -0.193429 0.346403 0.12780501 -0.17152807 0.47840598 0.17727572 -0.10660899 0.5719202 0.28909245 -0.20873581 -0.29213154 -0.13621011 0.22073194 0.03515634 0.15736362 0.12932384 -0.05371925 0.21523689 0.14591144 0.40924254 -0.06932766 0.2802849 0.45943093 -0.013126096 -0.5246905 -0.201388 0.14513503 0.06742339 -0.24293804 0.1557854 -0.3994533 0.0847761 0.102466576 0.07454579 0.43814322 0.8605066 -0.41941208 -0.08618447 -0.24282588 -0.57894754 0.07662451 0.14783862 -0.12661505 0.0019918738 0.038818143 0.22983511 0.40860415 -0.006415674 -0.0806632 -0.052449394 0.20803359 -0.24924362 -0.36651114 -0.11614959 -0.37469953 -0.045218796 0.1696583 -0.0555166 0.39141566 -0.3032009 -0.27943704 -0.18367964 -0.25215018 0.050557666 0.1027294 0.10980477 -0.21748684 -0.22017948 -0.13539438 0.6548824 0.45886526 0.32790765 -0.17077307 -0.49174786 0.033669647 0.17982838 0.014698178 -0.013593535 -0.11747429 -0.14446218
283 0.4389792 -0.14740214 -0.011036553 -0.29401165 0.21113098 -0.462599 0.23654248 -0.30960473 -0.030149411 -0.64675844 0.021600936 0.22563274 -0.23786664 0.027438762 0.22146839 -0.09779526 0.16366403 -0.40449116 0.19621874 -0.10921815 0.12240523 0.25118038 0.07323171 -0.16635616 -0.26078972 -0.17555067 0.11461907 0.021301506 -0.065100625 -0.23037966 -0.571991 -0.14242876 0.36094028 0.073681004 -0.06202915 0.56303483 0.38082764 0.05035141 0.3160541 0.2516269 -0.37597725 0.4273633 -0.0013504894 -0.16102357 -0.14873195 -0.1574384 0.0437622 -0.11692811 -0.09774941 0.28217384 0.18275097 -0.06919692 0.3198999 -0.0040146685 0.046705786 0.40823 0.27639043 -0.17073804 -0.15440898 -0.17496236 0.13396674 0.056370802 0.069875956 0.13873933 0.08211603 0.28847185 0.18498908 0.5541124 -0.17250676 0.20084614 0.50788224 -0.13335931 -0.5498027 -0.20804694 0.06642011 0.25741604 -0.3396437 0.15765876 -0.5119759 0.115001276 0.086407974 -0.031347986 0.4671186 0.8362471 -0.24155058 -0.085889935 -0.2601808 -0.43138182 0.10004346 0.03037026 -0.06776703 -0.04683762 -0.15383907 0.37728253 0.441269 -0.11941138 -0.14472984 -0.07792958 0.24021664 -0.34771368 -0.47450766 -0.10424988 -0.24164987 -0.115256086 0.29132006 0.14872395 0.4227457 -0.31654552 -0.22150673 -0.15187109 -0.10986228 0.07402475 0.106719166 0.2020256 -0.23090082 -0.33395976 0.016398886 0.61964446 0.33632794 0.34489837 -0.18616576 -0.49190024 0.14798431 0.17676206 0.047524672 -0.04989035 -0.18442184 -0.05130695
24 -0.077792 -0.16511329 0.18255188 0.5697487 0.32931638 -0.28560954 0.13601157 -0.31277135 -0.21679041 -0.62281704 -0.031215204 -0.13417543 0.12407811 -0.18141758 -0.0065694638 -0.04817637 -0.03823189 0.1848481 -0.23765048 0.2771175 0.34058928 0.76705 0.095044024 -0.17386678 -0.20204441 -0.29028302 0.15003444 -0.35597983 -0.15048854 0.006111107 -0.24959019 -0.16615902 0.4493802 -0.5110124 0.34661984 0.36700353 0.40180603 0.32678413 0.0042245025 0.23606032 0.025592111 0.52564853 -0.43655404 0.19116184 0.42754197 0.20443363 -0.23875508 -0.50461125 -0.5164412 0.6630435 0.338151 -0.14408846 0.41695076 0.29749304 0.48468107 0.45464736 0.17220013 -0.5620712 0.3189784 -0.099260494 -0.111898534 -0.40871474 0.26880646 -0.027758919 -0.23925368 0.3495542 0.30205718 0.30011818 0.1967572 0.27634943 0.23662214 -0.2705899 -0.0326127 0.11022661 -0.15292723 0.23405512 -0.13197 0.11997112 -0.47027987 -0.08249661 0.160354 0.26391518 0.32580632 0.35880515 0.5498483 0.031975687 0.1832993 0.11651498 0.39388916 0.004041745 -0.23676786 -0.08302653 -0.098245226 0.49803483 0.3758611 0.22657292 0.06263497 0.18039551 0.124013595 -0.25805935 -0.16095896 -0.06977425 0.5502764 0.18143527 0.21409005 -0.08387554 0.23600726 0.25633544 -0.28029284 -0.10552782 0.025343234 0.011491098 0.1390209 0.012220247 -0.328874 -0.14328466 0.66728175 0.2912 -0.055773012 0.20240703 0.28709185 0.1749303 0.21440747 0.03994411 0.13685368 -0.28236526 -0.12440415 -0.1469815
6 0.103711955 -0.12668025 -0.071052685 0.20343187 0.26080734 -0.017819613 0.013150049 0.30624753 0.051833425 0.15624589 0.08763502 0.25797358 0.6135135 -0.07232722 0.35136664 -0.0055399644 0.12020365 -0.3653938 -0.11730598 -0.49647948 0.18162721 0.7376765 -0.9243865 0.0831862 -0.20154034 -0.32753935 0.06368321 -0.43839583 0.16262658 -0.19913882 -0.5046772 -0.0957178 0.20171973 0.050853696 -0.31580663 0.14917196 0.34239033 0.19370574 0.28195298 0.03414933 0.22005086 -0.14460382 -0.3166045 0.31776455 0.033345044 0.31162655 -0.47935975 0.19722593 -0.4419578 0.41246298 0.19138396 0.11434308 -0.1118034 0.19720753 0.006701592 -0.27463773 -0.040604543 0.21870546 -0.05540266 -0.013952418 0.06989398 0.14903603 0.5304726 -0.5160286 0.3557937 0.08154253 -0.05454423 0.25394028 -0.041599862 0.21316214 0.5314429 -0.39783183 -0.7302978 0.45350885 -0.4224233 -0.006959466 0.12692031 -0.33735698 -0.0004812692 0.18014891 -0.18060903 0.116033286 -0.0152408695 -0.046309695 0.03134688 0.21022315 0.16722652 -0.31895256 0.5468761 0.24170686 0.30822203 -0.27833188 0.29106697 -0.48560312 0.032474544 0.16290799 0.029588178 0.5461164 -0.63188297 0.16103256 -0.38611472 0.30230308 -0.17517376 0.137258 0.5702662 -0.035110414 -0.26797843 0.33291316 -0.51525706 0.075863875 0.38354912 -0.010461695 0.10077319 0.09008802 -0.059292573 0.39195505 -0.14720598 0.3313779 0.68560183 0.017790772 -0.36506653 -0.46832794 0.3804551 -0.09431819 0.13775001 0.2997178 0.07688676 -0.062284663
2 -0.0069048777 -0.113248385 -0.106777176 0.3088243 0.23241031 0.03805541 -0.017831996 0.3246884 0.008299223 0.1998409 0.18397489 0.24699563 0.6501481 -0.056517437 0.34891406 -0.09018617 0.14322264 -0.5134933 -0.07456176 -0.4714783 0.16163617 0.63342375 -0.9450391 0.073861204 -0.21128227 -0.2707995 0.08340432 -0.51106685 0.08732542 -0.115595154 -0.3476398 -0.12977186 0.20136654 0.10640472 -0.33511034 0.13652302 0.33311513 0.24179804 0.24510545 0.026593708 0.17062269 -0.1124859 -0.30585015 0.4019738 0.002221007 0.3349984 -0.451636 0.10724895 -0.50196606 0.49433237 0.20992915 0.21274218 -0.1161244 0.20500799 0.02754426 -0.28699067 -0.019786175 0.14042495 -0.011661634 -0.03394585 0.06129118 0.10197388 0.5245735 -0.49196738 0.38833573 0.02844003 -0.080973886 0.36751258 -0.046621986 0.16729335 0.49416184 -0.32420602 -0.78676426 0.47435772 -0.4089995 0.013868593 0.14784253 -0.3870682 0.03246077 0.109119534 -0.18918218 0.17656928 0.069628105 -0.020742552 -0.06544831 0.1691504 0.11190086 -0.3118896 0.5796607 0.24714398 0.38709205 -0.30918455 0.2891248 -0.34058857 0.0045928527 0.17433654 0.007525702 0.49644387 -0.52684724 0.13862625 -0.44517782 0.29304036 -0.18004847 0.13492028 0.58758533 -0.09943281 -0.16240695 0.43050498 -0.47332647 0.045097884 0.4502159 0.022311486 0.17158602 0.03521601 -0.11770108 0.36541438 -0.1939268 0.27557722 0.645906 -0.07016555 -0.33938488 -0.44471487 0.44909096 -0.19437686 0.08992841 0.33356872 0.06789119 -0.094996944
67 0.036404476 -0.1582163 -0.03293329 0.26156548 0.22071366 -0.0146914115 -0.045143224 0.34146538 0.017824788 0.19848844 0.089085795 0.16180365 0.61177903 -0.07411794 0.3037261 0.03601197 0.14349154 -0.4644092 -0.05395409 -0.5030017 0.21925418 0.61269593 -0.9400977 0.08320742 -0.20415644 -0.36817884 0.10635506 -0.44937006 0.1263655 -0.16466995 -0.52151006 -0.16963378 0.14606382 0.034637813 -0.3298138 0.15993136 0.31590375 0.1940195 0.28382096 0.092406884 0.20571582 -0.18186422 -0.30431372 0.33830315 0.06400755 0.31489307 -0.43240124 0.15035887 -0.39638633 0.5324006 0.22615062 0.17851135 -0.13866825 0.20825054 0.055627618 -0.35037854 -0.018671157 0.18558967 -0.025379134 -0.061711036 0.042412512 0.10647948 0.52669513 -0.5020511 0.30920824 0.08591157 -0.05298316 0.30955765 -0.026803 0.20490943 0.613991 -0.3877286 -0.7988329 0.45065624 -0.45569074 -0.08723727 0.050174233 -0.37129486 -0.072266765 0.16041325 -0.17171454 0.20483918 0.055182625 -0.06143336 0.025390904 0.22152598 0.22552696 -0.34060588 0.56961334 0.22296321 0.27514735 -0.31464896 0.3021569 -0.4048228 0.02117069 0.19229062 0.0022544924 0.47871682 -0.6063026 0.15252686 -0.41393545 0.25565282 -0.18051048 0.101333335 0.62157893 -0.09330529 -0.2771146 0.3342481 -0.5042634 0.034144085 0.44880423 0.02533676 0.16540807 0.09738587 -0.06400947 0.3929539 -0.16750722 0.37972757 0.5990115 -0.021162111 -0.33241153 -0.42552543 0.41388008 -0.16659524 0.18148604 0.37491128 0.067442365 -0.109451786
294 -0.076990634 -0.031430814 0.09508775 0.11050236 0.15474565 -0.23660576 0.1320348 -0.4706181 0.08623141 -0.8061609 -0.28456825 0.37931812 0.039616376 -0.19164377 0.09872756 -0.1603032 0.11994492 -0.07194324 -0.32756752 0.006340152 0.0802658 0.41689184 -0.5534411 -0.76232773 0.05960245 -0.9455937 -0.025852641 -0.23814666 0.108086355 -0.072803624 -0.07492761 -0.2796239 0.5247205 -0.07493925 -0.2054128 0.041685026 0.49666288 0.102591164 -0.10054851 0.027217155 -0.12394769 0.1511864 -0.0010619536 -0.044135455 0.3277503 0.26521105 0.014307813 -0.32482663 -0.31270146 0.65235066 0.24972834 0.10918884 0.3192754 0.20848788 -0.0812727 0.349297 0.32567942 -0.510014 0.08408669 0.05744901 0.19289358 -0.09414561 0.12632112 -0.13322534 -0.2987312 0.038733948 0.4545703 0.14754878 -0.051541433 -0.018798178 0.46272576 -0.38094917 -0.23987332 -0.10332295 0.2256894 0.19729799 0.107321896 0.28446567 -0.1584264 0.13471778 -0.036917865 0.026767638 0.14454651 0.4305238 0.0778772 0.08651203 0.08036373 0.05187432 0.17829256 0.053174514 -0.3397761 0.030311475 0.023167724 0.6233121 0.0067896447 0.19730483 -0.15457311 0.08514033 0.045739412 -0.174097 -0.042351518 0.05909143 -0.005269656 0.16971593 -0.10737183 0.20571409 0.34611323 -0.066775 0.12040014 0.5486366 0.1026966 -0.14651015 -0.033521842 0.016251964 0.032820303 -0.11844693 0.24205028 0.401506 0.07578472 0.25535065 0.01394809 -0.20690778 0.0045461264 -0.18097109 0.41923213 -0.3533091 -0.089179814 0.009881253
53 0.06136604 -0.09671539 -0.07391032 0.25452536 0.23783746 0.008291911 0.0027807893 0.3331641 0.010172548 0.19350682 0.12488877 0.19572915 0.62912714 -0.011424886 0.29359686 0.027302476 0.16569583 -0.45836982 -0.087963626 -0.40329155 0.2416023 0.68049836 -0.9547755 0.06478612 -0.23454826 -0.3156559 0.08124496 -0.42696583 0.111828014 -0.18425491 -0.45388055 -0.13491587 0.14069495 0.09056591 -0.38797686 0.12622626 0.38779294 0.24897002 0.26825106 0.044496678 0.14348762 -0.100502096 -0.35587868 0.45210716 0.026363539 0.3603285 -0.5080642 0.14833947 -0.50396067 0.49752945 0.1973235 0.2022534 -0.122824244 0.21190764 0.08494655 -0.26670662 -0.027195195 0.23112747 -0.08119858 0.009199811 0.022721685 0.16259462 0.4710675 -0.5386374 0.36899844 -0.043795474 -0.12945016 0.3005415 -0.030122537 0.19899589 0.5710955 -0.39794502 -0.7406756 0.4735145 -0.39521244 -0.06529866 0.06319347 -0.39154863 -0.08766294 0.0773448 -0.1673032 0.12863134 0.027132003 0.0030369337 0.085203715 0.25830773 0.13895865 -0.26971918 0.53473246 0.20790409 0.27455357 -0.2632715 0.29256976 -0.38997823 0.043873362 0.12501378 0.11049869 0.56932926 -0.5300823 0.16655046 -0.47595492 0.28733358 -0.19765823 0.07896609 0.65100724 0.0004725507 -0.2588333 0.370625 -0.48652968 -0.00023917221 0.49796352 -0.016390739 0.13984576 0.03373439 -0.06120098 0.42947328 -0.13859484 0.35141262 0.64650714 0.020150455 -0.29686308 -0.5052149 0.40014127 -0.15442584 0.17328973 0.34619024 0.12078852 -0.07309649
347 0.4271067 -0.21290697 -0.056706477 -0.16445269 0.13860752 -0.3665305 0.176587 -0.27799284 -0.0017481076 -0.7638886 -0.01754397 0.25228947 -0.2123664 0.024730943 0.3690973 -0.14801496 0.13796446 -0.25526777 0.17037366 -0.11126312 0.10063475 0.34143847 0.097675286 -0.18207134 -0.2219975 -0.1277103 0.088543214 -0.020042853 -0.06136697 -0.3055288 -0.42536747 -0.18232176 0.24406846 0.03068815 -0.04333483 0.53141093 0.29043576 0.16501601 0.2677134 0.25157017 -0.41339657 0.37495017 -0.0855866 -0.1224429 -0.098620445 -0.03266245 -0.027947014 -0.17779389 -0.091261715 0.35254765 0.13981207 -0.07690787 0.38562676 0.013838217 -0.06151046 0.47727346 0.4060902 -0.21704465 -0.14988719 -0.10809179 0.12338238 0.0252204 0.029597566 0.058919217 0.10239406 0.47321457 0.22036943 0.50274104 -0.13573013 0.19441877 0.5101713 0.009247161 -0.62086797 -0.20927806 0.0054574935 0.11958586 -0.36302757 0.19942464 -0.5262035 0.04671105 -0.04867793 -0.11920621 0.39038515 0.7965589 -0.21389967 -0.11427927 -0.24412757 -0.47992828 -0.033886112 0.056189068 -0.07514404 0.008409251 -0.22442083 0.2924057 0.4457001 -0.032289054 -0.1064495 -0.028776765 0.19135322 -0.26505813 -0.5528238 -0.14880963 -0.093854375 -0.1492159 0.20106804 0.01852871 0.3121814 -0.3817541 -0.24156384 -0.22796482 -0.11155962 0.051290173 0.08835699 0.09004117 -0.22290646 -0.16182013 -0.043525096 0.47679013 0.32745415 0.4326766 -0.16757059 -0.44678816 0.052045945 0.13131468 0.018465491 -0.07951365 -0.21334389 -0.24771444
697 -0.2936474 -0.02946998 0.5011409 0.1911772 0.57083094 -0.20746681 0.059061907 -0.09100487 0.22541887 -0.41896698 0.068560645 -0.04574002 0.117105395 0.025965314 -0.116379045 0.118084066 0.43145096 0.39539924 -0.08999731 0.35883483 0.23711348 0.4744313 -0.2274033 -0.44466537 -0.016689928 -0.15704186 0.48399553 -0.25916964 0.176347 -0.1500912 -0.4602776 0.25107113 0.644575 -0.22659765 -0.22616461 0.031048607 0.49917895 0.33970937 0.050277267 0.12873498 -0.32162055 0.040415164 0.08575291 0.14208347 -0.12783591 -0.09403376 0.15169372 -0.5443373 -0.59047264 0.22075564 -0.12077102 -0.33514464 0.4249608 -0.04001206 -0.05646109 0.1774292 0.26181525 -0.587472 -0.09650101 -0.04127354 0.07685322 -0.2179615 -0.0061343387 -0.100625 0.19963852 -0.21471804 0.42813858 0.015245764 -0.09898101 0.18765855 0.023798974 -0.08893008 -0.46064332 0.20751671 0.06754183 0.4749637 -0.39531934 -0.061468937 -0.46961382 0.089760244 -0.19424933 0.04333794 0.63498217 0.78585565 0.22433637 0.046048205 -0.06315179 0.112659 0.48940405 -0.16925876 -0.13808024 -0.32076734 -0.36645547 0.08576851 -0.33901417 0.14069074 0.31588227 -0.053741105 0.028007774 -0.2918514 -0.18753353 0.031616066 -0.00620453 0.18288273 -0.06340183 -0.21452749 0.054729752 0.12330534 0.1098916 0.43772975 0.07277972 0.04643446 0.48571807 -0.27211943 -0.107813455 -0.06005259 -0.15631029 0.19831066 0.36054215 0.078897454 0.08291512 -0.16657086 0.14593662 0.16172934 0.21450587 -0.22153129 -0.10846065 0.18395561
8 0.041267015 -0.081713 -0.047758274 0.2219789 0.23617606 -0.043243017 -0.07123537 0.3626876 0.045602564 0.21541643 0.17113014 0.20776646 0.6348405 -0.03244278 0.31745636 -0.07428268 0.10608478 -0.43007222 -0.10798752 -0.5081811 0.21433702 0.692008 -1.0457287 0.10997309 -0.22178541 -0.29238203 0.13411123 -0.3958882 0.086433224 -0.18337712 -0.46049687 -0.14446227 0.14335318 -0.0013842939 -0.31748372 0.15301993 0.3351815 0.18387336 0.20739843 0.07467245 0.22655915 -0.17070521 -0.2699818 0.34604812 0.03941623 0.37343255 -0.5177498 0.14924583 -0.47389182 0.44610083 0.1923474 0.16022345 -0.14174782 0.19335556 0.026723024 -0.25834614 -0.0450027 0.2073084 0.013278163 -0.038847554 0.1516326 0.1264651 0.47880003 -0.42442247 0.37868097 0.09225028 -0.11204172 0.33476165 -0.086697705 0.19853805 0.5934232 -0.31612843 -0.7239115 0.44601083 -0.4261486 -0.12601241 0.11656078 -0.4352347 -0.006737666 0.14034092 -0.22550258 0.16528033 0.06074219 -0.030438138 0.030314555 0.21961899 0.14407629 -0.28656778 0.5656268 0.23740669 0.26867753 -0.30875307 0.27188188 -0.40987846 0.051717475 0.16423103 0.049398333 0.5663504 -0.579576 0.13989747 -0.4682046 0.20680894 -0.15630773 0.10211028 0.5864619 0.018536963 -0.15879756 0.29954025 -0.53996104 0.06500897 0.44481036 0.05440957 0.15805247 0.06697585 -0.09040533 0.37879097 -0.12009369 0.3309683 0.6632886 -0.10561247 -0.33117273 -0.4698312 0.4097313 -0.12398238 0.24215475 0.3729489 0.08092395 -0.05385378
72 0.04778308 -0.10106186 -0.02736511 0.27592203 0.20932712 -0.0032873827 -0.031160457 0.33472705 0.037278827 0.20412378 0.17321274 0.28364384 0.705518 -0.07153972 0.32793266 0.0014639997 0.16481109 -0.49048045 -0.0895889 -0.49846667 0.27577573 0.70326245 -1.0021492 0.073175654 -0.25195515 -0.2908778 0.16183107 -0.43357265 0.060267314 -0.2025025 -0.35687083 -0.09672874 0.16811298 0.06818427 -0.2944021 0.20000006 0.28301647 0.17872776 0.25543392 0.06938847 0.18968245 -0.13695344 -0.3279788 0.38205937 0.053329017 0.41390306 -0.52121913 0.13562849 -0.46222576 0.51734173 0.12754099 0.23791412 -0.14756343 0.19544579 -0.0043173386 -0.29676196 -0.0010854247 0.25453278 0.010631479 -0.05943399 0.107815884 0.110537685 0.4740524 -0.51104033 0.36785647 0.007652333 -0.12211889 0.3188635 -0.037300285 0.21409886 0.5257853 -0.39173558 -0.7545215 0.40208557 -0.31555212 -0.07158372 0.0023047056 -0.36891922 -0.04493615 0.06698721 -0.2377339 0.13925354 0.017176447 0.028014015 0.044289324 0.24295604 0.16734353 -0.3219908 0.57176316 0.25668126 0.34860227 -0.30817223 0.25404087 -0.4125041 0.06785432 0.1115284 0.026072508 0.45887768 -0.55741096 0.19239543 -0.4678734 0.24778871 -0.19623168 0.06742927 0.590167 -0.05709289 -0.24963255 0.31190088 -0.4918901 0.081933804 0.5025651 -0.03487424 0.21379997 0.045439214 -0.12931849 0.367648 -0.11072179 0.34399652 0.5768208 -0.008896935 -0.3518992 -0.47448218 0.44236737 -0.10334452 0.2078432 0.40665388 0.0816773 -0.061147805
357 -0.16626984 -0.00072250445 0.14461277 0.20378873 0.19330461 -0.24740908 0.14651881 -0.32727775 -0.0068699336 -0.6917173 -0.3250038 0.35298583 0.00042281463 -0.1671883 0.120950684 -0.10067095 0.22650932 -0.004613646 -0.2292722 0.044986606 -0.010186831 0.34084696 -0.5380406 -0.7577967 -0.0029228723 -0.8178864 -0.073627695 -0.32103923 0.11840375 -0.039574195 -0.048011582 -0.271604 0.54161584 -0.08563241 -0.26298416 0.018628364 0.44748813 0.14727111 -0.12123359 0.08382963 -0.13910618 0.10688005 -0.044969972 -0.033073142 0.25728145 0.21505888 -0.030819159 -0.3058348 -0.3824541 0.64195967 0.28637323 0.15189335 0.36361223 0.16418977 -0.11582624 0.33696914 0.38382763 -0.5254847 0.22988236 0.052540194 0.11589469 -0.01608676 0.0016116172 -0.0759366 -0.19165988 0.031230656 0.4246367 0.2969837 -0.073286004 -0.0010155466 0.38762674 -0.35162008 -0.049738225 -0.101677336 0.19986556 0.27833617 0.1318306 0.2766594 -0.10804631 0.08366304 0.0683722 0.12513265 0.1349287 0.45449167 -0.013572014 0.13199301 -0.037015304 0.028068852 0.18174867 0.037971914 -0.26128998 -0.058863107 0.026713248 0.66476476 0.13565287 0.26478198 -0.12501802 0.10757414 0.06073403 -0.15069576 -0.034025326 0.04522262 0.019068236 0.18068159 -0.16265456 0.25838622 0.45750695 -0.11337585 0.09949984 0.4344342 0.07741487 -0.035887804 -0.06301455 0.057137724 0.029266398 -0.09956714 0.18101461 0.4037372 0.19559017 0.17077997 -0.004390564 -0.20101658 0.090150245 -0.13174802 0.43277293 -0.25793278 -0.2509529 -0.0049662204
1045 -0.26394078 -0.12849636 0.5019569 0.15179147 0.5830374 -0.195408 0.020965846 -0.06683659 0.20088448 -0.41188988 -0.003240881 -0.06871133 0.08824556 0.01756133 -0.22785537 0.09727879 0.41426563 0.26148218 -0.109144576 0.2756909 0.07541446 0.35262698 -0.18958439 -0.284684 -0.01787928 -0.12269504 0.4248894 -0.32807764 0.11739036 -0.23795019 -0.48035172 0.20035496 0.70966846 -0.280597 -0.22918841 0.07328474 0.49199104 0.43867403 -0.051897485 0.07662662 -0.37344944 0.005187092 0.102139995 0.17762193 -0.031020101 -0.10448367 0.050387878 -0.46760613 -0.5577567 0.12142215 -0.13060132 -0.31205127 0.49249795 -0.04166887 -0.07069815 0.15354091 0.31135532 -0.675921 0.048588667 0.026436085 0.038715914 -0.17666899 0.053168498 -0.14487337 0.24964504 -0.21023956 0.35569417 0.11810664 -0.14595473 0.21092151 0.057878003 -0.12836058 -0.39404714 0.04864904 0.070873134 0.46969205 -0.40696883 -0.12020577 -0.43380582 0.12078093 -0.21155053 -0.0078283865 0.621167 0.6654796 0.13137455 -0.022249553 -0.10227897 0.16124357 0.5126421 -0.16655758 -0.21516965 -0.25946844 -0.43912768 0.08535065 -0.3809593 0.11952441 0.3216009 -0.060899 0.029753001 -0.2963913 -0.1764272 -0.0057547875 -0.019914724 0.19528478 -0.05788496 -0.14247237 0.1295786 0.08769825 0.06156023 0.40851563 0.015852232 -0.0043074037 0.36040372 -0.32983562 -0.12705946 -0.11949701 -0.24500342 0.16810678 0.5072836 0.07567913 0.1327975 -0.21813804 0.26605573 0.17426704 0.27295902 -0.2714107 -0.06544556 0.17449729
700 -0.30951172 -0.12920643 0.58300483 0.15630588 0.59564126 -0.19331127 0.16262397 -0.0742802 0.20573992 -0.3410083 -0.04140514 -0.13325305 0.032958608 0.06606854 -0.15152127 0.09548207 0.35436457 0.30368462 -0.16128173 0.3122534 0.15850362 0.43136585 -0.3428327 -0.29785058 -0.015309696 -0.095979005 0.37197998 -0.34035417 0.11523076 -0.3208437 -0.48498115 0.122699834 0.71326756 -0.3337515 -0.16156933 0.0961859 0.5702732 0.32544658 -0.07655603 0.1419971 -0.3587767 0.041966517 0.13917182 0.11182783 -0.11602344 -0.17162085 0.110121176 -0.48508194 -0.5609871 0.14253135 -0.054911572 -0.3170513 0.47586662 -0.08498303 -0.05854986 0.11149802 0.24768233 -0.59709007 -0.023506854 -0.0030859602 0.0055933213 -0.092115186 0.11044646 -0.16345567 0.17592779 -0.16227272 0.37346596 0.11619126 -0.21051568 0.1961198 0.074137405 -0.06825268 -0.39562008 0.06286569 0.12637702 0.5498575 -0.4247596 -0.0639845 -0.39013702 0.09895936 -0.19420421 -0.010678605 0.61977315 0.72726667 0.12390117 0.016068598 -0.12264264 0.046606828 0.39846662 -0.13217047 -0.21178801 -0.3075025 -0.40418825 0.023699157 -0.39261693 0.19389483 0.35183096 -0.1187431 0.013815236 -0.2607952 -0.12999167 0.053773444 0.024138782 0.17805848 -0.06368379 -0.13213295 0.06985569 0.06812487 0.0059097763 0.42855966 0.04655414 0.013624804 0.38327822 -0.25383687 -0.16764498 -0.06443031 -0.1791204 0.31120676 0.41900077 0.14626887 0.16528091 -0.11965108 0.29125515 0.18493232 0.18541284 -0.25493565 -0.11808409 0.1302636
104 -0.08040981 -0.5131167 -0.12961528 0.2114073 0.05470617 0.5744054 -0.18511985 0.21112157 0.26065287 -0.13205916 -0.11618191 0.27420402 -0.048192393 -0.034987316 0.43363336 0.17850909 0.19717827 -0.21324857 0.037088823 0.39454052 0.04536783 0.014180805 -0.4084103 -0.56239724 -0.22122715 -0.11793418 -0.20323649 -0.04551457 0.093491 0.008848549 0.011502602 -0.0781164 0.16960888 0.052741725 -0.059694137 -0.04777333 0.30048195 -0.46349755 -0.25362524 -0.031992946 -0.13762501 -0.04094027 0.21127109 -0.16057093 0.17112309 -0.15152356 -0.124220125 0.057945263 -0.09420373 0.40441734 -0.09126766 0.0035481397 0.4476552 -0.08020431 -0.040638488 0.2794184 -0.06284859 -0.17692892 0.21007726 0.15787159 -0.14656068 0.20778741 0.42060658 0.09807942 0.32724965 0.26085624 -0.20554969 0.22070038 -0.30738196 -0.05199303 -0.24515319 0.05670502 -0.28444842 0.12177127 0.37423274 -0.50363356 -0.5733791 0.431307 0.22305128 0.46562314 -0.045284305 0.14733301 -0.039867256 0.5668408 0.46507818 0.023002435 0.03387456 -0.025597772 0.78264725 -0.04135955 0.2667862 0.008461955 0.47298175 -0.2453124 -0.15114452 0.1751788 -0.25938544 0.1149637 -0.27085522 -0.1589154 -0.2257286 -0.010044251 -0.10060735 -0.13983575 0.28134772 0.36256257 -0.20275886 0.3964436 0.2004206 -0.22194748 0.25987586 -0.23368694 -0.10058049 -0.03970263 -0.15601453 -0.16616924 0.45225465 0.15819807 0.32996202 -0.7130758 -0.34981927 0.17032613 -0.4225564 0.23118867 -0.4753051 0.05370958 0.0002360078 0.05365417
399 -0.059326254 -0.39421627 -0.16673884 0.2620143 0.096060894 0.5385054 -0.116019264 0.18072996 0.28028646 -0.14590734 -0.059070945 0.26385456 -0.08680878 -0.0103306705 0.3884731 0.1318593 0.2616618 -0.23451543 0.0630735 0.39498958 0.01828386 -0.107217565 -0.33882537 -0.555716 -0.2316745 -0.18831837 -0.27525264 -0.062429246 0.06354517 0.1218588 0.037153035 -0.09744111 0.119602285 0.042830806 -0.14111245 -0.053273994 0.3111854 -0.359004 -0.21946163 0.03593039 -0.15807901 0.02945088 0.29656178 -0.16150568 0.16514206 -0.11287037 -0.06923709 0.011427468 -0.11191863 0.4720067 -0.13456692 0.038904764 0.47418773 -0.0937491 0.006249252 0.2027302 -0.0964195 -0.11228597 0.24641024 0.22876574 -0.18543118 0.18723182 0.3603465 0.16294232 0.32736728 0.3269629 -0.25997046 0.20313321 -0.25258532 -0.09087349 -0.32902667 -0.011695161 -0.24153906 0.24030186 0.31251785 -0.50980836 -0.6354769 0.4280344 0.21388198 0.46474603 -0.012132941 0.12700467 -0.08245317 0.67657024 0.5271186 0.047327105 0.030856423 -0.04138543 0.70163983 -0.052793592 0.22668546 0.03760458 0.5536295 -0.22159445 -0.17461133 0.29129487 -0.21281609 0.0868862 -0.3537816 -0.23295148 -0.30059195 -0.021003302 -0.124545544 -0.14072378 0.34818467 0.4185469 -0.22930266 0.3417974 0.18503541 -0.23073718 0.20776077 -0.16087021 -0.04154899 -0.11993999 -0.17306896 -0.105220065 0.4349125 0.15331832 0.30915067 -0.6606214 -0.3679309 0.15174931 -0.38542175 0.21864791 -0.4975025 -0.07063279 0.047519542 0.052170027
48 -0.17022575 -0.5108499 -0.16083704 0.28545833 0.09112793 0.529684 -0.19064948 0.19295682 0.34256503 -0.13942747 -0.12457313 0.22151451 -0.006705942 0.07420726 0.44171134 0.25123724 0.23930848 -0.2756198 0.09154312 0.39255276 -0.02601816 -0.010079282 -0.37103602 -0.62375045 -0.24970913 -0.110789314 -0.1641888 0.03675033 0.10248288 0.10175346 0.050396122 -0.058252435 0.20882961 0.02336846 -0.048747133 -0.03279752 0.30843377 -0.42868048 -0.14989552 -0.05126163 -0.15602723 -0.006443696 0.24253087 -0.12849824 0.18614024 -0.1470747 -0.07609085 0.035900056 -0.0484965 0.30055752 -0.0076698954 0.0034343365 0.42163184 -0.015886746 -0.024367403 0.09176689 -0.094153054 -0.18679687 0.2421941 0.1804745 -0.13052125 0.22635294 0.37384683 0.10687469 0.30121046 0.2978595 -0.21841931 0.24923372 -0.31248057 -0.15454939 -0.20631674 -0.0060326103 -0.2263225 0.11077954 0.34145537 -0.54721206 -0.6316596 0.4457279 0.10435934 0.42970586 -0.15502697 0.16542956 -0.08327806 0.693595 0.4989761 0.10654717 0.021009255 -0.075359434 0.7345372 -0.03502547 0.21419242 -0.090670295 0.4995098 -0.21370298 -0.13869412 0.23950303 -0.23147355 0.06047587 -0.32935274 -0.19707029 -0.24128258 -0.03550473 -0.11344615 -0.16909857 0.39134616 0.42666018 -0.12710513 0.299596 0.1785551 -0.26480207 0.20251688 -0.21068846 -0.087020114 -0.06606378 -0.12540047 -0.21271506 0.44210297 0.14773263 0.35479802 -0.62793607 -0.33720806 0.21087177 -0.46123368 0.18621762 -0.46552604 -0.0405676 0.09395717 -0.00072805263
34 -0.07744239 -0.5097032 -0.22048964 0.21669398 0.15177497 0.531227 -0.27309263 0.17332266 0.2594544 -0.19234113 -0.13018678 0.30774727 -0.005911694 0.002080509 0.48028922 0.2069032 0.21488978 -0.19320704 0.012506251 0.34131306 0.040803853 -0.089016214 -0.44391385 -0.60171115 -0.17793128 -0.038315177 -0.2216075 -0.01637627 0.110796325 0.14132828 -0.047524948 -0.08183269 0.16641854 0.0023680963 -0.19684747 -0.05206293 0.2983708 -0.40634584 -0.24095811 -0.017138924 -0.1435109 0.027126728 0.19907565 -0.21174178 0.25949082 -0.13656607 -0.017758137 -0.016855588 -0.14280376 0.4388916 -0.102745235 0.04598531 0.44669828 -0.11119482 -0.028217893 0.21537676 -0.12159027 -0.12529399 0.1816618 0.19666709 -0.07836704 0.2938959 0.34276527 0.09205397 0.30862468 0.32698986 -0.20467892 0.20555429 -0.31857082 -0.1388309 -0.35000366 0.0069644563 -0.2516343 0.23994529 0.27776024 -0.5076207 -0.5881881 0.4486891 0.19516557 0.4536863 -0.062187467 0.10002794 -0.08344625 0.7091119 0.47475564 0.056117646 0.029848302 -0.0060291006 0.76095057 0.0265721 0.23782663 0.024143374 0.4686357 -0.27494204 -0.189862 0.24266058 -0.1971068 0.23392911 -0.22445033 -0.10164995 -0.26612782 -0.0037308256 -0.14161552 -0.15532385 0.28563792 0.44166422 -0.20901036 0.27310038 0.21123172 -0.25055638 0.21127267 -0.25567695 -0.04684559 0.018958244 -0.190028 -0.21466666 0.451945 0.055175252 0.37204027 -0.7218999 -0.34879047 0.12793896 -0.43649903 0.13700794 -0.45360526 -0.0003538075 0.023375278 0.09548053
1665 -0.072040044 -0.18893984 0.38397637 -0.007873575 -0.037339386 0.45678952 -0.414286 -0.41220772 0.014210666 -0.4195904 -0.11258567 0.23345542 0.17351773 0.49578995 -0.03641746 -0.16377142 0.033740517 -0.15586957 0.59470487 -0.41072786 0.09625659 0.028438509 -0.19898742 0.05895323 0.10204387 -0.013722579 -0.27448142 -0.20765619 0.1798152 0.033845417 0.27103338 -0.27946818 0.31516412 0.00018197576 0.2042381 -0.18437001 0.12045458 0.33446902 -0.019046118 0.8690718 -0.057612263 -0.5030543 0.20979819 0.0815481 -0.44703957 -0.20776106 0.32083952 -0.21202224 -0.002633838 0.3952421 0.17611858 -0.07592849 0.46559772 0.30633116 -0.032652974 0.067439266 -0.19673845 -0.52880526 0.22986619 -0.11316297 -0.32004204 -0.40676987 0.41672692 0.18222156 -0.28701222 0.12897694 -0.00057469367 0.01423586 -0.214696 0.24872984 0.24997877 0.061010588 0.0018366053 0.3376784 -0.55204886 -0.1943974 -0.29043007 -0.04303117 -0.265588 0.4680416 0.043670703 0.014177029 -0.35557672 -0.11145686 0.30969545 0.10439259 0.26590976 0.3529338 0.8227883 0.08704169 0.040996466 0.114656895 -0.11067954 -0.2588596 0.4149963 -0.15423305 0.14278167 0.5306832 0.26619127 -0.114189215 -0.47495404 0.5374228 0.1767707 -0.07190633 -0.02871892 0.5930968 0.04970366 -0.13772066 -0.49012306 0.3080302 -0.042782117 0.2127289 -0.09546446 -0.5327494 -0.1923522 0.14555435 -0.17590883 0.6068918 0.2640603 -0.16517006 -0.24385333 0.24438608 0.21955197 0.29741538 -0.11992124 0.17404711 0.27463633 0.03210813
237 -0.06155373 -0.49109888 -0.2002038 0.22516254 0.16522385 0.58157444 -0.22681047 0.13973698 0.35520333 -0.09202721 -0.086479045 0.2701987 -0.046591107 0.033303287 0.41069442 0.20444861 0.27209482 -0.26582476 0.07265017 0.470111 0.05764105 -0.070975706 -0.35479018 -0.56233877 -0.30947357 -0.15527347 -0.24704672 -0.031118367 0.16855113 0.12978359 0.021788057 -0.064838864 0.16840458 -0.037688527 -0.1335011 -0.03693949 0.36455113 -0.40704402 -0.2012934 -0.048265453 -0.062293343 0.066758245 0.22795697 -0.263333 0.22729506 -0.19640389 -0.10175036 -0.042043258 -0.08499172 0.42208347 -0.12296314 -0.014850901 0.41406235 -0.046747167 -0.02488848 0.07545581 -0.07303464 -0.16209476 0.24555962 0.25135076 -0.13092503 0.24482957 0.4494531 0.17005506 0.27269617 0.20402035 -0.20836125 0.16905326 -0.32493052 -0.05129547 -0.2326187 0.047262814 -0.26535517 0.23624028 0.31032014 -0.4855247 -0.62083954 0.32237878 0.18530856 0.46782476 -0.013805207 0.097428955 -0.08443793 0.67463684 0.47139832 0.06522882 0.004992602 -0.102897406 0.7977817 0.042268492 0.15913026 0.0064670467 0.5650039 -0.25516888 -0.21989118 0.3234777 -0.264336 0.16960701 -0.34547916 -0.18179873 -0.24518321 -0.012812378 -0.11195896 -0.120278165 0.3721823 0.36709404 -0.10691817 0.2908086 0.26288044 -0.16517608 0.19507074 -0.21317199 -0.06483189 -0.010169173 -0.14179748 -0.18362826 0.47679922 0.17428225 0.34330058 -0.6417995 -0.3631555 0.14493175 -0.39137933 0.18609975 -0.49247262 -0.03755767 0.08843408 0.11045855
35 -0.2340433 0.11206942 -0.10787973 0.039660692 -0.08183509 -0.052148543 -0.1246682 0.12406986 0.4641332 -0.3502065 -0.3745096 0.21852565 0.38470826 0.092210494 0.34927237 0.09236235 0.0043675965 -0.10565954 -0.3293451 -0.20720735 0.2769579 0.038576365 -0.7384233 0.35509643 0.33089063 -0.61577255 -0.1578113 -0.40270454 0.39226192 0.48845452 -0.020998904 0.072070606 -0.21668684 0.29947224 -0.43519637 0.8783494 0.1081127 -0.24274638 0.49201903 -0.3331693 -0.3208812 0.32106924 -0.27791008 -0.05735338 -0.11131536 -0.30575305 -0.7796582 0.30100903 -0.14221518 0.149178 0.1937265 0.383454 -0.33432314 0.21052733 0.30935082 0.47956052 0.36565217 -0.20950158 0.25012392 -0.35175055 -0.2869247 -0.3744842 0.705247 0.11451662 0.1745961 0.09054789 0.014027372 0.3393281 -0.029215952 0.2792415 -0.1336909 0.1780684 -0.2683285 0.38106072 -0.18420842 -0.071948856 -0.001393711 -0.016979521 -0.116990305 0.009318177 0.012688308 0.18218528 -0.32028943 0.28216767 -0.05113035 0.2964434 -0.042353805 -0.16588186 0.8078604 -0.021321345 -0.020006957 -0.11108708 0.06672419 -0.51305294 -0.31895792 0.13962822 0.09065569 0.14145191 -0.6443155 0.09023001 -0.47859737 0.25941908 -0.2822117 -0.16428262 0.20458846 0.090321414 -0.23665327 0.11053488 -0.12235144 -0.5027997 0.23000301 0.36447376 -0.16074456 0.06661005 -0.3109289 0.08851937 -0.72094613 0.17668569 0.46074885 0.06906492 0.4906837 0.08137893 0.2536155 0.04671773 0.037574418 0.117491625 -0.11244044 0.44423038
95 -0.16911033 -0.580454 -0.18275726 0.16569403 0.18667604 0.46949923 -0.20913815 0.16748203 0.27745458 -0.17983972 -0.030976601 0.33585164 -0.1346302 -0.10788479 0.30784303 0.16330144 0.2290574 -0.21693903 0.006793499 0.33271617 0.050922967 0.06736486 -0.46233502 -0.51166683 -0.23824489 -0.11470807 -0.24575086 -0.054053526 0.10173074 0.08935286 0.0025577212 -0.024595551 0.12744226 0.029980162 -0.052971438 0.027210781 0.24163792 -0.4224522 -0.20214546 0.05608765 -0.17126371 -0.114140585 0.25127766 -0.19628948 0.24551952 -0.13278146 -0.018846026 0.071182795 -0.17381003 0.42183524 -0.037387718 -0.009568149 0.42001066 -0.005973393 -0.0069782217 0.2401729 -0.06296755 -0.16660623 0.2841048 0.17187542 -0.13545273 0.20403032 0.3211073 0.10680745 0.37314332 0.39095613 -0.227314 0.30994502 -0.25136685 -0.17094183 -0.34205496 0.075427294 -0.23833895 0.17132781 0.35843065 -0.6067681 -0.6579601 0.44316223 0.113066435 0.3950155 -0.093401365 0.068370454 0.050443914 0.52826715 0.5215896 0.076804675 -0.0030330645 -0.07742438 0.7184372 -0.07581433 0.26349962 0.01512728 0.49916795 -0.21623452 -0.19721846 0.17809199 -0.20077164 0.03243667 -0.30362847 -0.09712862 -0.26179767 0.076424204 -0.029030481 -0.12473488 0.26388797 0.38101465 -0.2511453 0.3224511 0.11406942 -0.29688284 0.25033423 -0.21152563 -0.15863743 -0.08924528 -0.118638605 -0.17097811 0.4316389 0.07991881 0.28201038 -0.63479626 -0.3772373 0.15575953 -0.4478039 0.21912168 -0.4984154 -0.036386255 0.0868213 0.04341508
1 0.041917477 0.06602329 0.10530941 0.17369533 0.3286912 0.121858194 0.17909727 0.44805276 -0.12560046 -0.51042634 0.09481124 0.10534587 -0.035271384 0.27357948 -0.3249263 0.19862777 -0.07025036 0.0017416622 0.19838543 -0.5710922 -0.1936095 -0.018012866 0.09185688 -0.6430072 0.062088303 -0.036719207 -0.25663924 0.29354608 -0.19915967 0.04188173 -0.12784939 -0.25688326 0.38581002 0.33474943 0.018452603 0.1587314 -0.13564606 -0.3076976 0.12438607 0.06484202 -0.014799192 0.24062854 -0.048743777 -0.1837819 -0.029965589 -0.13278474 -0.24617702 -0.20768568 0.11852042 0.407744 0.10933724 0.033775393 -0.26700962 0.06957625 -0.09012608 -0.01920599 0.052877445 -0.20378906 0.2645611 -0.073298775 0.64424175 -0.39450544 0.453319 0.1644272 -0.061404217 0.25645113 0.12289562 0.40764403 -0.189962 0.01065095 0.03863043 -0.3099913 0.009475726 -0.019971993 -0.24853313 -0.10876543 -0.4469574 -0.31967753 -0.20620884 -0.0332023 -0.09411617 0.062415067 0.02899398 -0.019103989 -0.111885615 0.21804565 -0.18096556 0.02089086 0.10760024 0.3016203 -0.13048811 0.23967096 -0.20711726 -0.26648098 -0.11543225 -0.15265223 0.25647107 0.16649424 -0.31700262 -0.102879696 -0.51618457 0.29199883 0.04420762 0.041696277 0.36287025 -0.124824286 -0.2296765 0.11203147 0.29590806 0.30645314 0.24012771 0.009856366 -0.08458006 -0.073844194 -0.39220598 -0.19369395 0.117087744 -0.25668725 0.20511776 0.03986141 -0.37908888 0.05454832 0.006315821 0.20567928 -0.31897447 -0.013571274 -0.19729353 0.07976148
171 -0.12310714 -0.52943254 -0.25255272 0.18237764 0.24321933 0.44304505 -0.18998805 0.10089443 0.25909105 -0.14406204 -0.14949837 0.2284818 -0.10488258 -0.03990664 0.38811728 0.254679 0.1992395 -0.20308717 -0.05031955 0.35714257 0.023158494 -0.057465635 -0.443125 -0.5317864 -0.23666859 -0.095694594 -0.23918223 0.01825298 0.11389086 -0.020412536 -0.059386883 -0.017986009 0.2470871 -0.013593523 -0.112286106 0.0090480745 0.2759068 -0.44402388 -0.13205633 0.055912398 -0.14578792 -0.04951085 0.22589023 -0.14350776 0.19656022 -0.10746048 -0.044618867 0.012508975 -0.054904126 0.5514991 -0.025177144 -0.020922868 0.4495012 -0.017981429 -0.00370192 0.1415479 -0.052806873 -0.09169789 0.19383593 0.1584475 -0.118188374 0.16559729 0.32735986 0.09164617 0.39842877 0.33663318 -0.17372128 0.22870904 -0.23689602 -0.1789214 -0.34441862 0.021185983 -0.21104582 0.21898092 0.36329612 -0.65175074 -0.6410571 0.46902955 0.076597825 0.4047514 -0.14038016 0.0584225 -0.08515337 0.6360357 0.46239838 0.122483835 0.007660302 -0.06506474 0.7348695 -0.04617328 0.28792542 -0.071498536 0.47772616 -0.21576943 -0.19777463 0.15574092 -0.21808791 0.08198381 -0.32791868 -0.1637999 -0.25634176 0.04007661 -0.07616227 -0.12543808 0.26536605 0.41373193 -0.22100483 0.24334209 0.09925957 -0.31769618 0.24653809 -0.22688203 -0.1081751 -0.009075828 -0.1757688 -0.24268873 0.36073434 0.05711417 0.26935688 -0.7495149 -0.31510293 0.14980687 -0.45536122 0.24935025 -0.38814834 0.06256164 0.06254706 0.04572133
16 0.13962089 -0.116442636 0.13865738 0.2487048 0.27427518 0.046516474 0.09183699 0.3488286 -0.17197491 -0.55962044 0.11428092 0.040550135 -0.07399773 0.26840413 -0.34005806 0.21844795 -0.22803381 0.05719517 0.2049989 -0.47693402 -0.15858626 0.010940091 0.07234694 -0.5832922 0.18980768 -0.047162283 -0.13910076 0.26761568 -0.3675749 0.12547085 -0.13301724 -0.30794126 0.4747684 0.28836918 -0.036312588 0.12510224 -0.02604907 -0.16296527 0.16115381 0.057226498 0.013468266 0.21374844 -0.03203969 -0.27033314 -0.061646197 -0.067075446 -0.2780853 0.011218795 0.11473402 0.37529364 0.14932278 -0.12127557 -0.2819729 0.12153877 -0.097438045 0.088799626 0.07662494 -0.10219967 0.273976 -0.04020834 0.57928896 -0.37713775 0.5862233 0.22608107 -0.13201936 0.1038523 -0.063261114 0.23814747 -0.21748754 -0.07354034 0.074602224 -0.21045654 0.048588507 0.054918233 -0.13346818 -0.12640634 -0.41822055 -0.3701429 -0.19636287 -0.043031108 -0.07007835 -0.018468622 0.07325492 0.025938788 -0.024789669 0.21053593 -0.22255425 -0.18157221 0.11169549 0.2986292 -0.16603738 0.25457692 -0.34984306 -0.13553901 -0.04487331 -0.25175178 0.18482788 0.15907085 -0.4772743 0.017626882 -0.49503675 0.2700963 0.07641759 0.12930915 0.39474085 -0.1278063 -0.24900475 0.074043095 0.27953315 0.2922381 0.19482248 -0.08147507 -0.22617173 -0.13827512 -0.35462317 -0.16623628 0.10777154 -0.16297568 0.28300226 -0.028031977 -0.42032686 0.040472694 0.041577164 0.186966 -0.34611318 -0.051520877 -0.34118173 0.06406825
15 0.13730514 -0.016758205 0.13795547 0.18762939 0.2553002 0.043071356 0.12204332 0.3153789 -0.19277829 -0.534728 0.013023821 0.035334934 -0.09749394 0.2189988 -0.3310897 0.22228529 -0.099494144 0.117278494 0.14413565 -0.5639294 -0.13636498 0.04773593 0.069208704 -0.6561832 0.09487976 0.018511547 -0.27281952 0.24277125 -0.19104551 0.005133037 -0.14632958 -0.3213747 0.32917795 0.42582422 0.047674138 0.14410011 -0.07940813 -0.23634449 0.20099574 0.05707377 -0.10578598 0.14164911 -0.024034478 -0.13491413 -0.024123581 -0.18544866 -0.22220464 -0.104926914 0.10645395 0.40233612 0.1501583 0.012498123 -0.35541558 0.07410657 -0.07037126 0.09360905 0.020178689 -0.16366298 0.19545199 0.049846254 0.6058698 -0.34090337 0.4608149 0.15729819 -0.06569884 0.23035531 0.051774763 0.43822804 -0.15188377 -0.04371525 0.0074611236 -0.25544393 0.020755384 0.111655235 -0.19763218 -0.12738208 -0.44120598 -0.31359884 -0.16087356 -0.053303227 -0.15740654 0.058769647 0.06324864 -0.06526659 -0.16140719 0.29324874 -0.21630473 -0.06860337 0.13488925 0.31514952 -0.1408982 0.20089841 -0.1748555 -0.2614628 -0.10115991 -0.15649481 0.2521162 0.17728676 -0.34461892 -0.11062132 -0.46602932 0.3141879 0.01897269 0.056284435 0.38699841 -0.19262312 -0.24551624 0.00077275845 0.29235363 0.35266882 0.21156268 -0.10269517 -0.1343045 -0.06886012 -0.4909306 -0.15751818 0.1698458 -0.26545808 0.15877238 0.0114361895 -0.38190493 0.11821411 -0.070988685 0.18224466 -0.27485225 0.08791338 -0.20760773 0.056577645
21 0.37113202 -0.10340705 -0.06143415 -0.118557625 0.3981262 -0.3251092 0.12682025 -0.35212013 -0.16205266 -0.6608686 0.048517365 0.150849 -0.18305287 0.106561765 0.19491306 -0.20122628 0.18948205 -0.3327228 0.010726908 -0.110962115 -0.04833525 0.4094188 0.18478781 -0.31882572 -0.44273525 -0.3045192 0.19184494 0.044155113 0.05056311 -0.31878203 -0.47647473 -0.117427014 0.25787765 0.19680674 0.03945182 0.4275459 0.46355993 -0.14140078 0.38334855 0.14605556 -0.2788961 0.44401348 -0.15700758 -0.14443335 0.15452349 -0.13541922 0.061527714 -0.008716223 -0.28315955 0.28337118 0.11577776 -0.07689176 0.438698 0.20782332 -0.14364831 0.5961683 0.26801696 -0.28072655 -0.29800564 -0.05287287 0.19522825 -0.016664218 0.11822058 0.04373039 0.10163111 0.22286177 0.077222906 0.32747898 -0.033760194 0.1872671 0.5714492 0.06276002 -0.47682136 -0.09472387 -0.010155309 0.03454855 -0.28754833 0.054602806 -0.37027693 0.08549188 0.09995969 -0.053604037 0.42231324 0.8344516 -0.36748034 0.015453787 -0.26923645 -0.6090776 0.18144543 0.09413801 -0.24102452 0.1379634 -0.0646796 0.16320637 0.4201088 -0.024572432 -0.1753971 -0.064704314 0.11204884 -0.3311801 -0.29660228 -0.08061665 -0.28330293 -0.061140243 0.18699473 -0.02648465 0.39031458 -0.37862733 -0.39291134 -0.090805985 -0.28104478 0.0036675457 0.18765047 0.17489335 -0.2261076 -0.39458835 -0.17263065 0.69880116 0.26738888 0.2870386 -0.15079139 -0.45557305 -0.07457965 0.21289268 -0.027410472 -0.014761931 -0.06920902 -0.18673061
13 0.06319643 -0.043565158 0.20504293 0.22678778 0.29872546 0.15916993 0.04740124 0.3562226 -0.18040937 -0.50618285 0.036814474 -0.032599527 -0.1281445 0.29615754 -0.34728563 0.21144451 -0.14963858 -0.014276614 0.24827018 -0.4539734 -0.15959707 -0.14907947 0.035670634 -0.6420622 0.09417682 -0.060876507 -0.24841277 0.25517172 -0.34564927 0.10507988 -0.09751429 -0.38353798 0.40910822 0.17314807 0.010559472 0.20398724 -0.0038268422 -0.07045591 0.17230679 0.010282886 0.03660978 0.25507054 -0.023447609 -0.26432478 -0.04375207 -0.10133819 -0.28800708 -0.08416821 0.2102009 0.30517358 0.10182374 -0.06972774 -0.29057774 -0.060221825 -0.08719136 0.07342907 0.08666888 -0.10026893 0.20068948 -0.03320238 0.5385604 -0.3247262 0.48368955 0.18104614 -0.104965605 0.25525045 0.043468855 0.28459477 -0.18049419 -0.0040384466 0.21209097 -0.22788551 0.06838694 -0.0077552707 -0.11189299 -0.05365882 -0.48791584 -0.38081503 -0.28714848 -0.058182128 -0.11563243 0.031779848 0.008031566 0.001493742 -0.07882004 0.2736569 -0.2948578 -0.23723722 0.21980803 0.20014341 -0.122085534 0.15984961 -0.2844569 -0.23989357 -0.059835847 -0.2636385 0.28473783 0.20589492 -0.36892122 -0.026075564 -0.5102182 0.3241677 0.008303368 0.10087928 0.39206406 -0.2180385 -0.21802816 0.12008522 0.34479964 0.2922435 0.19063441 -0.054614123 -0.22014219 -0.057233896 -0.2949276 -0.17413546 0.09320594 -0.21685274 0.20026931 -0.06789617 -0.41649744 0.014706516 -0.031639703 0.2016449 -0.31512254 -0.010321811 -0.25345308 -0.012052213
27 -0.2582033 0.12281542 -0.033143923 -0.08848676 0.023453478 0.067843445 -0.11511561 0.09416658 0.45476532 -0.4056237 -0.33851224 0.24470681 0.44989985 0.008814293 0.47474763 0.22578245 -0.04449764 -0.037978426 -0.2841106 -0.19653752 0.28328487 0.042857703 -0.7456648 0.29997286 0.36606154 -0.6039112 -0.16702828 -0.39033523 0.33492106 0.35421395 -0.11310235 0.12707251 -0.28686056 0.4281608 -0.39536452 0.85716 0.055712417 -0.19944206 0.505809 -0.31830144 -0.31641033 0.3852697 -0.22601792 -0.11230964 -0.0846151 -0.22241664 -0.75690603 0.40103608 -0.23288643 0.10148645 0.17619273 0.32430452 -0.22675675 0.18411511 0.39022407 0.4884709 0.2767126 -0.12617631 0.20495923 -0.30637887 -0.23553832 -0.4214972 0.77763015 0.076526836 0.18549798 0.22181611 0.13345934 0.26825178 0.03843267 0.29441962 -0.15991399 0.17006512 -0.2119893 0.42923635 -0.22367631 -0.1050077 0.03743871 0.05287317 -0.15958492 -0.0013062761 -0.060652647 0.18200386 -0.24385102 0.22916926 -0.05682288 0.39681992 -0.054911964 -0.11602048 0.7426861 -0.00794353 0.021855693 -0.09680608 0.031534843 -0.52544963 -0.2668844 0.20909405 0.0038440048 0.09751772 -0.7498359 0.0068045994 -0.4333737 0.22894733 -0.33463648 -0.18985364 0.16497403 0.096381135 -0.2419794 0.12045865 -0.13108721 -0.47695526 0.31613517 0.35400465 -0.117481664 0.12664567 -0.33265415 0.13335288 -0.7336041 0.1677168 0.37980056 0.109308414 0.4116962 -0.004315347 0.17644255 0.15343435 0.15379862 -0.011772069 -0.15115118 0.55190945
205 -0.11161251 -0.5031139 -0.12390659 0.25308537 0.11800201 0.614147 -0.2402665 0.16163695 0.29271448 -0.1660931 -0.09503392 0.17150146 0.027744994 -0.045649283 0.4435842 0.2672125 0.18839782 -0.31243736 0.0977567 0.40025866 -0.0042788167 -0.09922773 -0.4183445 -0.6561874 -0.33210397 -0.09456929 -0.27585706 -0.1184089 0.056568567 0.033397328 -0.004820279 -0.043004304 0.061544925 0.074896 -0.117508166 -0.09028056 0.30972996 -0.45741373 -0.12821779 -0.073380634 -0.08416364 0.019107493 0.2821965 -0.16815928 0.20025223 -0.17048898 -0.109181665 -0.019052299 -0.1440458 0.33935732 -0.034271654 0.02649295 0.48613864 -0.054750636 0.030597597 0.16047801 -0.15802237 -0.22028282 0.19319573 0.24528524 -0.09695222 0.21735743 0.46464944 0.08200342 0.19437844 0.24594547 -0.17290883 0.14414184 -0.3467464 -0.07786052 -0.21882994 0.023427464 -0.27739072 0.1677565 0.27325347 -0.46276385 -0.59637564 0.46881205 0.22421059 0.45742628 -0.08015874 0.18564104 -0.068616524 0.6630854 0.3992212 0.06630444 0.035120253 -0.11462404 0.7364937 0.13860036 0.20117852 0.015298395 0.4820838 -0.23140687 -0.15751854 0.34422567 -0.2962127 0.09670527 -0.36109582 -0.3255589 -0.24041976 -0.06566514 -0.16246355 -0.17623517 0.26660538 0.32430583 -0.17517962 0.2514629 0.26071596 -0.17463978 0.28247488 -0.25350985 -0.07454892 -0.011499806 -0.13311684 -0.11984553 0.43979433 0.1703632 0.30649096 -0.73625785 -0.39312342 0.15992735 -0.4247993 0.18860258 -0.4509813 -0.09543779 0.030318756 0.10468571
19 0.073838316 -0.01023524 0.084015235 0.14946656 0.35332543 0.12793206 0.19843762 0.43459675 -0.17326395 -0.55737776 0.13281237 0.08091972 -0.102791816 0.22643258 -0.3005045 0.18904923 -0.131863 0.13454442 0.12978674 -0.56963086 -0.18610017 0.03638148 0.11361865 -0.68425447 0.04237924 -0.02233238 -0.19414449 0.28172567 -0.18076813 0.057974547 -0.12741005 -0.33856985 0.39258596 0.29123458 0.10940311 0.22927822 -0.13499805 -0.20997633 0.21185984 -0.006630948 -0.056007445 0.25144526 0.008557873 -0.27184105 -0.08112833 -0.11073876 -0.28244817 -0.034943324 0.12116548 0.36632863 0.16545458 -0.0681994 -0.21751952 0.02525141 -0.114585295 0.103288226 0.0006039909 -0.180122 0.2166985 -0.004711774 0.5640468 -0.40546829 0.46834028 0.08741641 -0.08373307 0.24066168 0.04483895 0.36804843 -0.2476563 -0.041876055 0.10147609 -0.29525465 0.040890336 -0.0062498082 -0.2602216 -0.13004138 -0.41051278 -0.30240783 -0.19198091 -0.12249821 -0.10319698 0.080022894 0.110843636 -0.094908185 -0.14456505 0.22273377 -0.21679643 -0.069440566 0.09850309 0.24024233 -0.084868714 0.13686942 -0.21179721 -0.28522965 -0.14565532 -0.13878003 0.2950133 0.15913832 -0.34089845 -0.079200126 -0.501825 0.25375706 -0.00354884 0.10834708 0.36103874 -0.11371648 -0.2193295 0.08836101 0.25851664 0.34027427 0.22339772 -0.03716143 -0.16305251 -0.0937534 -0.39769086 -0.14116566 0.0791899 -0.20735571 0.20381846 -0.019500075 -0.4405388 0.113444746 -0.006903763 0.14186461 -0.39200944 -0.030813415 -0.2144657 0.057824355
69 -0.18161665 0.13297662 -0.042227652 -0.020841824 0.055988926 -0.0153683275 -0.15627736 0.18804379 0.47025418 -0.3741019 -0.4828424 0.17032869 0.39264166 0.11371503 0.45447198 0.18762718 -0.08649054 -0.1272303 -0.29454812 -0.23201431 0.28229296 0.02834251 -0.74038833 0.31001633 0.35389808 -0.6715359 -0.18488446 -0.35397798 0.34349284 0.40613395 -0.010147716 -0.00885485 -0.37100387 0.3493865 -0.4560967 0.93701 0.09207097 -0.23492134 0.5889724 -0.31287962 -0.35021448 0.39180237 -0.2715232 -0.034310378 -0.052735794 -0.19009344 -0.66001165 0.3861096 -0.18531911 0.09838116 0.13461088 0.36781526 -0.22544001 0.12569815 0.33344036 0.42559457 0.31158876 -0.20300587 0.18377207 -0.39608723 -0.3100492 -0.3814985 0.72982997 0.004546988 0.15568689 0.16307166 0.102863826 0.25899437 -0.027592348 0.28074217 -0.10143371 0.2211342 -0.23739696 0.46518224 -0.18774989 -0.063286126 0.0024308914 0.034528323 -0.14039467 0.0020260462 -0.0044216365 0.07589119 -0.28452042 0.2737972 -0.094532356 0.36430636 -0.11273419 -0.1059097 0.8536022 0.038570028 0.052607898 -0.04207941 -0.04935567 -0.45265567 -0.19713002 0.1373071 0.020631928 0.16828269 -0.702989 -0.05010195 -0.43922147 0.24587403 -0.2784261 -0.24202543 0.21275368 0.14613965 -0.32024732 0.20530394 -0.08004436 -0.5316247 0.34249178 0.3699848 -0.16192992 0.122719884 -0.36105698 0.06871697 -0.7420731 0.09406988 0.3890314 0.09329572 0.45388156 0.12449079 0.22121036 0.115640745 0.08405598 0.106636986 -0.11068819 0.49785036
62 -0.10226284 -0.45659488 -0.21540195 0.18777165 0.26980495 0.45825484 -0.18283217 0.13372946 0.3338178 -0.1220412 -0.13800615 0.2281551 -0.15973507 -0.0829271 0.41131043 0.1945846 0.25428063 -0.22853267 -0.02263836 0.3345039 -0.0012532137 -0.033247277 -0.398539 -0.5577856 -0.18883419 -0.11754566 -0.24878635 0.025737165 0.07398776 0.0635745 -0.013609472 -0.1002998 0.18332833 -0.017953921 -0.11238735 0.010719398 0.14942898 -0.4238999 -0.14047372 0.018648524 -0.17160602 -0.012372568 0.20944116 -0.16230632 0.15350804 -0.106772885 -0.05264662 0.046126056 -0.023572406 0.5172372 -0.03887582 -0.052437928 0.51579547 -0.079784386 -0.0404863 0.19690119 -0.0873152 -0.21452953 0.1493165 0.22181112 -0.1341463 0.1422206 0.34014148 0.10262075 0.35024443 0.4358382 -0.20875525 0.2359419 -0.2617134 -0.16215512 -0.35950252 0.028591428 -0.30937493 0.1771541 0.3558996 -0.6267594 -0.60482746 0.3955491 0.11888474 0.31587002 -0.100496344 0.097646855 -0.036375433 0.51702213 0.49039003 0.013706828 0.028079633 -0.0022853913 0.6943686 -0.044172175 0.25648224 -0.10361141 0.46575794 -0.14664426 -0.2659371 0.22386003 -0.26713997 0.1358821 -0.35012275 -0.18206662 -0.26285556 0.02283709 -0.09635146 -0.14677574 0.29185492 0.4366973 -0.25630677 0.34215227 0.07801198 -0.31468084 0.27323788 -0.19931588 -0.06159589 -0.045718487 -0.13464609 -0.18563847 0.33264968 0.09939424 0.3601727 -0.7744314 -0.31217888 0.16733377 -0.47642305 0.3186156 -0.46118972 -0.011973895 0.022495974 -0.012225258
244 0.4646763 -0.14630994 -0.0698233 -0.10298651 0.20946245 -0.36003143 0.12106747 -0.3474145 -0.24853219 -0.6865534 0.03325932 0.25405523 -0.2032384 0.07192457 0.21842398 -0.20244783 0.26893762 -0.41387835 0.041781843 -0.26200604 -0.0011428213 0.434735 0.12668744 -0.3381246 -0.3336723 -0.24473344 0.23268677 0.16815475 0.09770306 -0.22110511 -0.49546286 0.013095909 0.41983086 0.14500666 0.036893323 0.4437351 0.5016118 -0.07983165 0.31988025 0.2806913 -0.29020858 0.4225432 -0.11303296 -0.20848837 0.11440102 -0.16800384 -0.008895721 -0.13615997 -0.22099347 0.25429302 0.11262926 -0.017611342 0.29838628 0.17198756 -0.092068054 0.6537484 0.2719762 -0.29367408 -0.31177503 -0.038436156 0.2269365 0.011054894 0.15707995 0.18645306 0.11002224 0.19877212 -0.030864539 0.30130544 -0.012760072 0.166768 0.56207865 0.11508088 -0.5142352 -0.21971117 0.062835574 0.04046806 -0.28811812 0.076970816 -0.33524448 0.17285879 0.06463643 -0.03599931 0.42858997 0.7894359 -0.41015953 -0.10505527 -0.16396244 -0.5599134 0.11818663 0.07254802 -0.1676207 0.18084058 -0.014369595 0.31835827 0.45747414 -0.049593516 -0.17505585 -0.074600935 0.1439657 -0.16401644 -0.3112256 -0.13936637 -0.2598487 -0.105226316 0.1928969 -0.08270055 0.40249017 -0.34960893 -0.29241127 -0.126977 -0.22186193 0.0754129 0.09361338 0.10705114 -0.22583525 -0.32705936 -0.23383762 0.6902432 0.4477284 0.2456988 -0.1640663 -0.5124938 0.11933758 0.19424747 -0.033007264 0.03273937 -0.10007651 -0.13970372
131 -0.09355166 -0.4990927 -0.14538358 0.24162792 0.07093527 0.5595387 -0.2748229 0.14544693 0.2260648 -0.15144566 -0.093452945 0.18099825 0.005385224 -0.028919265 0.45936742 0.21383524 0.25165465 -0.30356064 0.069821425 0.3330452 0.057190616 -0.040704343 -0.37725264 -0.54471356 -0.23134871 -0.15017669 -0.20638031 -0.039756916 0.1887291 0.0266665 0.04727759 -0.011478165 0.12197413 0.025805978 -0.16568358 -0.10132818 0.37196952 -0.43953764 -0.2457777 -0.0155730685 -0.11785847 0.006217045 0.28804365 -0.21788822 0.16768153 -0.1470122 -0.16365655 0.0027903267 -0.12043424 0.34028247 -0.076064676 0.0019131786 0.4268258 -0.111751646 0.0018924944 0.15206619 -0.124668956 -0.18299934 0.1921338 0.20190872 -0.15811579 0.21555845 0.45243418 0.18327616 0.20028359 0.27617955 -0.19286744 0.25878164 -0.308774 -0.07457107 -0.18320675 0.08300834 -0.31353202 0.09167109 0.37758178 -0.42602637 -0.59291446 0.4486803 0.20568655 0.45848703 -0.056352045 0.11627046 -0.01985913 0.5907404 0.50923187 0.012213501 0.032442234 -0.017248206 0.76619923 0.08698075 0.16154964 -0.0013400244 0.48651743 -0.19696073 -0.2162778 0.2672456 -0.29784814 0.12005944 -0.3502538 -0.15075764 -0.2651396 -0.061574288 -0.113997884 -0.14184278 0.27366173 0.36578214 -0.15054622 0.335413 0.2953359 -0.19681384 0.26159665 -0.26100746 -0.13274339 -0.05287132 -0.12049456 -0.17344633 0.48375058 0.21909277 0.36144245 -0.748382 -0.3892021 0.18098703 -0.34729606 0.14829949 -0.5086206 -0.05634784 -0.0017093463 0.114053585
18 0.0390678 0.06678282 0.06620698 0.13830717 0.32154396 0.09902072 0.15121298 0.41364977 -0.2059346 -0.5248499 0.054596607 0.06750481 -0.071829975 0.1933904 -0.34765851 0.14576878 -0.08885584 -0.036874678 0.26986796 -0.6579211 -0.14153984 0.07930409 0.009410582 -0.6114303 0.09585658 -0.036561318 -0.20765218 0.42242667 -0.17053671 0.10304264 -0.06750807 -0.21975447 0.39353165 0.31563684 0.015043195 0.16005075 -0.06586355 -0.24806017 0.14325212 0.06502425 -0.018056974 0.18898061 0.017583901 -0.16669618 -0.041276917 -0.047438852 -0.257585 -0.13172962 0.11663765 0.4223768 0.11266596 -0.017208865 -0.33456534 0.016031006 -0.08424258 0.0313274 0.00075350265 -0.108229004 0.27161586 -0.054733492 0.58603644 -0.38957107 0.4369804 0.18721685 -0.017322512 0.20093901 0.025754998 0.42348284 -0.1362527 -0.04928983 0.012453803 -0.31283236 -0.0006920528 -0.07529499 -0.13522051 -0.053499136 -0.4552615 -0.30493915 -0.21564938 -0.027720336 -0.045107093 0.011442223 0.03444951 0.02379298 -0.111014746 0.21604396 -0.13340436 -0.008529104 0.16114697 0.30991346 -0.15118757 0.21979283 -0.17361973 -0.2613841 -0.12008843 -0.18068567 0.26637805 0.09387515 -0.33198923 -0.020672508 -0.45652115 0.3407614 0.0050178273 0.082079336 0.37915754 -0.1915842 -0.2236409 0.09636972 0.33843702 0.28389817 0.29342297 -0.014781119 -0.1223241 -0.124873556 -0.47106636 -0.20793667 0.2052393 -0.16320518 0.23878556 0.1001034 -0.42072898 0.114647724 0.038550396 0.25001648 -0.32998756 0.046372633 -0.20700261 0.05012632
11 -0.25556508 0.03927822 -0.111072235 -0.10421777 -0.1465035 0.13746355 -0.19429281 0.0759241 0.47614202 -0.38019362 -0.33595532 0.24768354 0.33365154 0.098591946 0.4229869 0.11717464 -0.04680335 -0.16076213 -0.34356335 -0.22940987 0.28544527 0.095608145 -0.6810691 0.3152889 0.4592882 -0.6993905 -0.13745646 -0.26539913 0.36258283 0.3952932 -0.020212285 0.060131554 -0.255468 0.3223979 -0.473937 0.80469966 0.056881618 -0.16987042 0.5768853 -0.2885157 -0.3562077 0.3735031 -0.2853959 -0.0700748 -0.124381125 -0.25777102 -0.7303455 0.42559737 -0.1968527 0.1566659 0.19782026 0.31125003 -0.3150211 0.14785758 0.26455685 0.39266762 0.2657461 -0.16771658 0.17274061 -0.33732912 -0.20376538 -0.32218972 0.8715158 0.14162809 0.09870028 0.21040417 0.09704923 0.33969718 0.08506654 0.29699236 -0.10311801 0.17039925 -0.2847867 0.37015554 -0.12855983 -0.046596114 0.042414498 -0.0283115 -0.12819034 0.031980418 -0.020281956 0.07373833 -0.29082564 0.28699747 0.063327685 0.35088056 0.059049666 -0.14145829 0.82242966 0.049648568 0.007825694 -0.07695524 0.09035905 -0.4476243 -0.3423796 0.1450781 0.09901976 0.047323465 -0.66158116 0.073466614 -0.4595362 0.2444908 -0.3436175 -0.17370424 0.21005173 0.109182954 -0.1448615 0.24904053 -0.12147456 -0.46209976 0.24211635 0.29206353 -0.11939949 0.057552997 -0.20254715 0.15074752 -0.79011923 0.14206907 0.400606 -0.07216249 0.45464087 0.03498308 0.24932526 0.044653807 0.11595242 0.072184995 -0.090125576 0.51816905
28 -0.24948534 0.021631481 0.009705731 -0.014657195 -0.01672332 0.013360386 -0.18906532 0.12492817 0.43621308 -0.4040747 -0.29108074 0.24940197 0.3433183 0.105417706 0.545101 0.09511797 0.0020935868 -0.11569303 -0.26833826 -0.23426431 0.30907166 0.1639581 -0.65745133 0.33983892 0.3234711 -0.72491753 -0.23104636 -0.3135081 0.3594518 0.32637948 0.01861018 0.027820481 -0.2854146 0.3336888 -0.53209853 0.8047986 0.020696234 -0.13751034 0.49640992 -0.35134572 -0.37779638 0.2780399 -0.23704332 -0.063368596 -0.080279 -0.24731016 -0.785391 0.41654146 -0.083936505 0.08763577 0.24977687 0.3587167 -0.28026596 0.14681065 0.32041746 0.4739476 0.27317894 -0.09399466 0.06436626 -0.38269392 -0.23671709 -0.32058138 0.8564298 0.09074328 0.1584853 0.2274879 0.17931595 0.3746052 0.055128634 0.34465748 -0.18279862 0.21086976 -0.23299076 0.30894652 -0.13926123 -0.007563097 0.09785395 -0.023303159 -0.08505811 0.03147941 -0.05754245 0.044786975 -0.3560856 0.28090256 0.051816758 0.35025606 -0.022106972 -0.16876616 0.8153428 0.065963656 0.020195803 -0.011455128 0.046847638 -0.52870053 -0.35847512 0.16229133 0.05094822 0.08529335 -0.7111114 -0.016831897 -0.37464455 0.19278854 -0.26744527 -0.1481662 0.1647694 0.09196754 -0.16610762 0.21471849 -0.047237616 -0.3837894 0.29568395 0.28793478 -0.14005122 0.09442996 -0.27727678 0.17264439 -0.7041948 0.15833868 0.42389813 0.0047158776 0.37437364 0.021817813 0.21274592 0.15806413 0.13881102 0.04994036 -0.14732397 0.48508778
77 -0.17861257 -0.5233925 -0.2606114 0.17049788 0.29253525 0.4342711 -0.20126323 0.15649356 0.23923977 -0.14735165 -0.11015684 0.21717747 -0.122158624 -0.10601718 0.4039935 0.17334448 0.2857545 -0.28888875 -0.027330536 0.3164561 0.039296426 -0.018597491 -0.49451444 -0.5752021 -0.20784868 -0.061750285 -0.26282188 0.076084845 0.10186361 0.07406635 0.023983793 -0.043604042 0.19168565 0.015648486 -0.11062369 -0.009602495 0.27845365 -0.41286215 -0.19358413 0.06295134 -0.12834616 -0.06635582 0.21572235 -0.14782742 0.22303908 -0.13321726 0.012842518 0.101120725 -0.10428333 0.52268136 -0.043049954 -0.010142038 0.50770104 -0.09175756 0.012617932 0.24255365 -0.031609837 -0.17742723 0.17558895 0.20745903 -0.12660304 0.17084531 0.33497316 0.06722529 0.34166902 0.374039 -0.24209799 0.25173235 -0.30753887 -0.20575465 -0.29585388 0.06996847 -0.28502336 0.14695449 0.34701073 -0.64822406 -0.6585367 0.36053273 0.15134662 0.3622655 -0.13169363 0.016506737 0.010702198 0.48027566 0.5161839 0.0570836 -0.011603998 -0.028898932 0.61133105 -0.12550268 0.22434591 -0.024586413 0.4634029 -0.18252328 -0.29516432 0.19955617 -0.19573368 0.053817373 -0.35311076 -0.1965205 -0.18601122 0.06289261 -0.032562878 -0.118407995 0.29104576 0.38875696 -0.23354863 0.31888714 0.1368157 -0.30876312 0.24036472 -0.19119208 -0.08318759 -0.14116849 -0.19893573 -0.23573191 0.32557568 0.16902314 0.32364634 -0.6708095 -0.34922978 0.12762298 -0.42610934 0.31004852 -0.439405 0.008132372 0.092224844 0.14879367
1131 -0.023410626 -0.11922414 0.32918626 -0.011708452 -0.010043713 0.47532147 -0.57255375 -0.39671114 -0.011908316 -0.39322457 -0.09893403 0.10530126 0.2238438 0.38407892 -0.001795761 -0.04415646 0.036775135 -0.14161068 0.58682585 -0.384139 0.11362417 0.18499509 -0.23382048 0.040605806 0.1404995 -0.08254932 -0.22543915 -0.15309969 0.10807389 0.035751846 0.37998572 -0.1763442 0.42964932 0.036001362 0.16113165 -0.1477228 0.075122364 0.3474365 0.09035047 0.78985876 -0.09931939 -0.5526374 0.13555671 -0.024154646 -0.50712186 -0.16499294 0.29732615 -0.26695222 -0.032313187 0.4013816 0.09551077 -0.034604236 0.52698344 0.251963 0.07853804 0.17974196 -0.1411664 -0.4493355 0.18569575 -0.15727451 -0.27623376 -0.465372 0.4194627 0.2696435 -0.2927639 0.1202798 0.015046883 -0.04442634 -0.19138049 0.24915971 0.28673658 0.03703787 -0.067153394 0.20907524 -0.57099766 -0.11254251 -0.41034055 -0.01564564 -0.18827987 0.4624057 -0.0040647546 0.046864886 -0.38936055 -0.17906845 0.2958757 0.116734006 0.115283206 0.43662715 0.82741123 0.06681633 0.055824235 0.15701151 -0.21659714 -0.31019136 0.41162732 -0.13077691 0.07651995 0.62225574 0.19091071 -0.12577541 -0.34177765 0.54766566 0.017333005 -0.053270053 -0.10655597 0.52459073 0.04000511 -0.08343237 -0.5011857 0.37351757 0.00976849 0.13749106 -0.082732886 -0.55250615 -0.10969062 0.069358416 -0.10986385 0.5617665 0.28915498 -0.19816768 -0.41044518 0.1874915 0.24125826 0.1750977 -0.08102708 0.09254376 0.21649611 0.1770257
389 0.02497139 -0.031883933 0.040179346 0.12879337 0.29327294 0.033923842 0.10184023 0.44708112 -0.09615147 -0.5031415 0.185639 0.15271267 -0.13997963 0.21701446 -0.2681268 0.12088473 -0.134016 0.020834053 0.21434194 -0.6230801 -0.19371262 0.0066253315 0.17188941 -0.7492305 0.12609713 -0.10352414 -0.22017545 0.27142766 -0.14911719 0.18298979 -0.11934917 -0.2666351 0.35492724 0.29476073 0.0018289739 0.11206627 -0.042309076 -0.1505784 0.1604267 0.12259627 -0.15047914 0.2675277 -0.093124576 -0.25068885 -0.073180445 -0.068095624 -0.2238662 0.006943413 0.11724491 0.4045548 0.06559211 -0.042209268 -0.32572562 0.054143403 -0.042365003 -0.030462684 0.091638565 -0.15062033 0.25064948 0.00966595 0.5652018 -0.31474134 0.3834462 0.23682739 -0.11640273 0.15401462 0.06932736 0.42765325 -0.13455257 -0.004594235 0.0223828 -0.27662474 -0.029053764 0.04482995 -0.16707985 -0.06479901 -0.46210405 -0.33187965 -0.2891194 -0.0483766 -0.09970365 0.12657282 0.18448646 -0.07744894 -0.104404375 0.27284682 -0.13693444 -0.012554294 0.17626886 0.26863042 -0.2292247 0.24576454 -0.1715336 -0.2552087 -0.050900117 -0.17876813 0.24026683 0.16001782 -0.39757073 -0.06433401 -0.43944013 0.25876638 0.018181106 -0.039362703 0.4503562 -0.1718509 -0.24916507 0.07347302 0.3151087 0.3766255 0.122116275 -0.021425167 -0.10981136 0.0061218115 -0.3927951 -0.13442758 0.09249462 -0.2856382 0.21589346 -0.044822063 -0.50063413 0.13303849 0.06352239 0.18121032 -0.3048865 -0.029321289 -0.19213392 0.0031443317
317 -0.06630238 -0.430121 -0.3119619 0.19318433 0.18786784 0.43307245 -0.22494254 0.1447803 0.2600083 -0.1927688 -0.12574194 0.2982542 -0.15893713 -0.0719857 0.458012 0.1749559 0.30512214 -0.2344524 -0.04082735 0.32501268 0.0027564333 -0.017678404 -0.40817654 -0.5363656 -0.10750582 0.0009419049 -0.22662315 0.04754521 0.09373988 0.122526206 0.0033197084 -0.04261844 0.2519378 -0.043280832 -0.17263208 -0.0035637873 0.22130564 -0.46768183 -0.2689376 0.04465915 -0.15452687 0.07733105 0.21797949 -0.1571429 0.18214402 -0.114682965 -0.12687884 0.09146834 -0.07538891 0.68398935 -0.055132877 0.0020489192 0.60346955 -0.13275363 -0.080473766 0.18438753 -0.014705011 -0.18316853 0.2428224 0.18265697 -0.19685183 0.14854869 0.34767747 0.04723825 0.35022202 0.3388456 -0.22517116 0.19542606 -0.269764 -0.11539494 -0.3044229 0.04582989 -0.2158552 0.13821484 0.39540294 -0.71487993 -0.5975116 0.4412782 0.09307353 0.38193312 -0.09657398 0.05732495 -0.022935558 0.5472276 0.45853394 0.0321798 -0.005681463 -0.054299287 0.6464115 -0.09810017 0.20716776 -0.100549065 0.5227751 -0.26605046 -0.18400943 0.23956755 -0.30310735 0.08016832 -0.33011004 -0.06335477 -0.21864179 0.10233967 0.01027357 -0.11532349 0.28951618 0.39475337 -0.17401764 0.31467015 0.09997583 -0.32528067 0.25761425 -0.24103425 -0.037289772 -0.09006961 -0.18674627 -0.1711456 0.28647655 0.05179303 0.34339103 -0.72854257 -0.28930283 0.21411306 -0.45066786 0.3329435 -0.4697151 0.07518198 0.056217976 0.116229095
54 -0.13585177 -0.5120288 -0.1681905 0.2050501 0.24049942 0.45874763 -0.11440095 0.123043664 0.28273246 -0.1734478 -0.11063274 0.27613965 -0.1930805 -0.03859432 0.511406 0.2107551 0.18258244 -0.2572535 -0.018193709 0.295339 0.05209586 -0.087639496 -0.48571125 -0.50982946 -0.16014299 -0.18375461 -0.2018737 -0.00047801732 0.18338469 0.05895076 0.011348892 -0.071083955 0.17867638 0.019942401 -0.10854122 0.04995493 0.16198573 -0.45151475 -0.19132084 0.031237341 -0.13425702 -0.09079865 0.296694 -0.13827936 0.30284062 -0.16095291 0.03389523 0.056538116 -0.08912883 0.56730413 0.00772199 -0.03216475 0.47457865 -0.024445666 0.012524219 0.07408221 -0.151023 -0.17322764 0.17805529 0.22386996 -0.054342847 0.20085105 0.33823746 0.083360605 0.2837904 0.43182933 -0.21243317 0.22504827 -0.25094748 -0.21074565 -0.41333923 0.06172734 -0.28102466 0.21255122 0.42682 -0.59437025 -0.5978782 0.4400871 0.063649155 0.38694733 -0.076743804 0.11052546 0.038227398 0.53309745 0.53256756 0.016422544 0.023105621 -0.13298304 0.69466823 -0.10878507 0.27697194 -0.06372641 0.5317099 -0.1802259 -0.1970157 0.18383919 -0.23179865 0.15359364 -0.26960787 -0.16982707 -0.24625643 0.025807254 -0.07437758 -0.050907508 0.3039013 0.4483722 -0.21033148 0.2182723 0.09318053 -0.2706201 0.2378209 -0.1892098 -0.18179621 -0.10492546 -0.20518701 -0.20174712 0.33959982 0.13511029 0.39223918 -0.7769066 -0.22225846 0.13187517 -0.3947908 0.39732713 -0.4860807 0.06937984 0.12598723 0.044508677
37 -0.14542867 -0.53189147 -0.18204938 0.19707726 0.118419364 0.54985356 -0.20500015 0.23320273 0.38854292 -0.12780891 -0.05897186 0.19811873 -0.016301438 -0.06178915 0.44868317 0.25995982 0.111480154 -0.35728544 0.056635585 0.4100587 0.04759926 -0.05334736 -0.2959215 -0.60270613 -0.32326493 -0.12522078 -0.20848028 -0.06246472 0.14740957 0.08323879 -0.0076034237 -0.091549635 0.1272359 -0.054219916 -0.16877803 -0.11027664 0.4041318 -0.46774608 -0.17790748 -0.040138904 -0.18709171 -0.07676608 0.30338782 -0.18113044 0.2773577 -0.29272744 -0.12947385 0.05642194 -0.18509172 0.39831388 -0.08928716 0.008542946 0.46596995 -0.023924481 -0.022683559 0.14677723 -0.20910752 -0.1588179 0.1949477 0.1968857 -0.18370783 0.17776269 0.5145145 0.09891455 0.22759846 0.2905368 -0.1356715 0.24438503 -0.33369246 -0.10684294 -0.2525643 0.00628842 -0.21308418 0.139507 0.3522543 -0.45431098 -0.5983056 0.39059782 0.23003033 0.44149795 -0.1088992 0.11997414 -0.12830138 0.5991917 0.3929319 0.052557766 -0.04622191 -0.10049196 0.78125566 0.10078266 0.10658389 0.011506102 0.5024621 -0.22195102 -0.16056232 0.3119326 -0.33452362 0.1685651 -0.30020556 -0.291336 -0.24702191 -0.08552688 -0.14338243 -0.13039584 0.3014009 0.33212996 -0.21730666 0.32932717 0.29632944 -0.15197295 0.27514425 -0.16766046 -0.12271351 0.003311242 -0.16844231 -0.13830754 0.44977394 0.15084511 0.3556019 -0.68182284 -0.4215961 0.20479035 -0.43164754 0.28160867 -0.3657274 -0.056417793 0.19785136 0.06288825
47 -0.10532784 -0.43953335 -0.065443695 0.29024518 0.09471434 0.5356899 -0.23558998 0.120190166 0.25252527 -0.08643113 -0.097734906 0.18689318 -0.019430023 -0.0036426887 0.395982 0.21885626 0.16773075 -0.3451995 0.091349445 0.35270223 0.014619937 -0.067920215 -0.29807818 -0.54747254 -0.3584862 -0.15646778 -0.26743147 -0.107850626 0.15965042 0.057614904 0.041521423 -0.10710247 0.06775736 0.07499958 -0.1849634 -0.11630903 0.3536103 -0.4753245 -0.18797605 -0.088263966 -0.20867907 0.02802293 0.3287308 -0.14151013 0.272308 -0.27343586 -0.075226046 -0.026575038 -0.08901538 0.47761387 -0.03651781 0.0567872 0.4415934 -0.038051125 -0.0008931125 0.15549876 -0.12628277 -0.1500036 0.1579858 0.2173719 -0.17624903 0.23501596 0.48813123 0.074158326 0.31000367 0.2626724 -0.18359298 0.27211347 -0.36610124 -0.10677634 -0.25607365 -0.004547923 -0.19702081 0.2497331 0.38906315 -0.46782482 -0.5185546 0.36957726 0.31611583 0.44267663 0.0071970453 0.03459834 -0.06865645 0.7152526 0.4040287 0.15208948 0.07338175 -0.11004723 0.7604894 0.15953854 0.17139423 0.0056561846 0.5873117 -0.20356281 -0.117283225 0.35027987 -0.15429194 0.11460859 -0.30453795 -0.26091063 -0.25005075 -0.015720978 -0.13489793 -0.15424268 0.2854511 0.37631455 -0.14445965 0.38347048 0.29601902 -0.18222173 0.25021365 -0.27741495 -0.14419706 -0.055155985 -0.1964801 -0.14656845 0.4319782 0.2060217 0.26571232 -0.72571635 -0.38971502 0.14780694 -0.45589918 0.1958454 -0.38813043 0.006762513 0.12101414 0.09191265
44 0.073210865 -0.067545585 0.11869755 0.15598996 0.25115764 0.103732266 0.08641888 0.385195 -0.16182615 -0.41482544 0.07492872 0.026599057 -0.19697532 0.14767313 -0.40703195 0.11187485 -0.11808946 -0.0043476336 0.22093734 -0.5282977 -0.16759549 -0.03705697 0.10859026 -0.6729725 0.10858633 -0.0602363 -0.2524292 0.2599702 -0.31273603 0.23004393 -0.09348804 -0.34160295 0.33676168 0.30766782 0.036139 0.14746718 -0.035552677 -0.1523294 0.20970023 0.08625645 -0.023486437 0.19814745 -0.048163023 -0.109759666 0.051372558 -0.14921549 -0.16107242 -0.013941944 0.15088496 0.29101303 0.035497498 -0.045566395 -0.34242776 0.062489666 -0.099147186 0.07047022 0.12879908 -0.072973125 0.24199069 -0.017340738 0.6653644 -0.31672928 0.48025724 0.17877893 -0.097424224 0.24948825 0.1088166 0.34306765 -0.15239114 -0.007970411 0.07916092 -0.24943782 0.028424352 0.15874536 -0.16929954 -0.098426156 -0.50120854 -0.3737629 -0.2073589 -0.09007292 -0.14065176 -0.06307664 0.16124725 0.03718183 0.0029791733 0.34010515 -0.13498159 -0.11113486 0.2428389 0.31171846 -0.24298784 0.1947451 -0.2908347 -0.26535186 -0.06929504 -0.16823734 0.18933548 0.17223608 -0.38538843 -0.030677274 -0.5033312 0.2540787 0.15376122 0.04995287 0.46443826 -0.15168591 -0.17529944 0.012313566 0.23992425 0.36532354 0.22569671 0.047772657 -0.15256937 0.025276793 -0.4167005 -0.10460264 0.120373085 -0.22707495 0.27306435 -0.07147777 -0.36138555 0.11329037 0.07895888 0.16464648 -0.3574112 0.024018843 -0.2488284 0.07509088
7 0.0066081025 -0.08272837 0.05902978 0.18085976 0.2526991 -0.0021356395 0.13009018 0.410924 -0.116098434 -0.47295374 0.07824127 0.104436204 -0.17357206 0.113953896 -0.32269633 0.08443068 -0.14585012 0.04311007 0.33746356 -0.5461388 -0.14402881 -0.03438827 0.17709468 -0.70987934 0.06075432 -0.17099795 -0.30247143 0.24254143 -0.24171662 0.14510949 -0.10461779 -0.25670528 0.43976432 0.2500452 -0.009689654 0.11720453 0.011284253 -0.22365546 0.1639529 0.13612375 -0.037959043 0.25919104 -0.07852453 -0.17456667 0.006781264 -0.032006655 -0.19557436 -0.10407752 0.11118068 0.34507865 -0.020253915 -0.099453114 -0.35011956 -0.008199942 -0.13095039 -0.03326613 0.12096428 -0.01282619 0.2821248 0.03543279 0.5676617 -0.39190456 0.35437936 0.25531945 -0.11860329 0.16049853 0.002116751 0.39399496 -0.09864903 0.0066446695 0.06842162 -0.29802504 0.12592041 0.07249636 -0.20739606 0.007988943 -0.49552935 -0.4079272 -0.19552949 -0.011810435 -0.023835689 -0.04839737 0.18599062 -0.018032286 0.0015101801 0.38289315 -0.2118307 -0.11650025 0.23156622 0.23006336 -0.117019914 0.21650463 -0.23011392 -0.31943598 0.0019600159 -0.2401175 0.22518297 0.22499914 -0.33394012 -0.055298187 -0.49989483 0.15154885 0.053877424 -0.018773345 0.48192587 -0.1817429 -0.21535921 0.05781102 0.2399693 0.2859547 0.18173811 0.03501246 -0.18664514 0.043336023 -0.3962226 -0.21277004 0.03396285 -0.19399652 0.27458027 -0.08856865 -0.40023822 0.08119898 -0.0050984463 0.1428542 -0.25878042 0.08262981 -0.21847601 0.031722303
1020 -0.06664107 -0.117298625 0.2603057 -0.097024985 -0.024490932 0.4846317 -0.3715614 -0.49493918 0.034000594 -0.482542 0.026848821 0.2531201 0.18208468 0.34972912 -0.09219867 0.011963975 0.048228193 -0.1771831 0.5972089 -0.4438964 0.11869256 0.10595689 -0.2213264 0.1340131 0.13347705 -0.027200684 -0.24990273 -0.21025477 0.1433321 -0.013235034 0.30993855 -0.22597182 0.42209497 -0.06589995 0.20172633 -0.14078265 0.03489368 0.31398374 0.0906547 0.8242223 -0.14122595 -0.3550686 0.232441 0.019601125 -0.45822924 -0.23941876 0.19241446 -0.2291621 0.049415674 0.44270077 0.060232084 -0.049142346 0.5535598 0.16653807 -0.025982426 0.19210312 -0.2114344 -0.42476237 0.16238841 -0.122152604 -0.25481313 -0.5674899 0.4725426 0.11242123 -0.2840615 0.14926217 0.038077038 -0.21218662 -0.25183615 0.27256638 0.21813639 0.0061996453 -0.024896596 0.25310296 -0.49205422 -0.14529513 -0.39954117 -0.053989284 -0.1859233 0.41439423 0.020607594 0.09094978 -0.3610807 -0.14117245 0.2929135 0.07520005 0.14105918 0.3676401 0.84112644 -0.0049489024 0.08005302 0.14889392 -0.15418942 -0.33924696 0.4568834 -0.10083283 0.15463243 0.57370526 0.28691244 -0.096173555 -0.29635623 0.6045704 0.08471769 0.02445232 -0.09157306 0.5373187 0.07257155 -0.045092817 -0.5750978 0.34404293 -0.0074063363 0.093089394 -0.05567057 -0.5278301 -0.10171132 0.1849087 -0.12520923 0.49821877 0.29777274 -0.24478164 -0.34769738 0.29676235 0.2651169 0.28599155 -0.07472942 0.16694029 0.28071198 -0.010689528
181 0.40102193 -0.0420695 0.017199354 -0.24233848 0.20317589 -0.37550938 0.14756623 -0.4193587 0.053399555 -0.7439796 0.06856448 0.20113398 -0.23131797 0.022102762 0.4515238 -0.24201283 0.0147137 -0.45145983 0.33700076 -0.035022393 0.11859839 0.24963543 -0.008869423 -0.22182927 -0.24202703 -0.16190855 0.12793653 0.08412802 -0.15305215 -0.31859788 -0.5959595 -0.17401433 0.22043425 0.0021482587 -0.1535063 0.41166428 0.08403212 0.18314195 0.1827816 0.272429 -0.4979309 0.42936102 0.08913355 -0.13299523 -0.056477677 0.018507335 -0.21284394 -0.17450358 -0.25548935 0.3562287 0.057553843 -0.024837134 0.1573066 0.115661874 0.08621774 0.36703166 0.2611916 -0.24291378 -0.16994844 -0.20357642 0.13204572 0.10299663 0.052935835 0.11850653 0.12132711 0.42882758 0.3944135 0.52536315 -0.1278102 0.10644412 0.5430108 -0.1398137 -0.69041693 -0.1291987 0.028376859 0.14937973 -0.38446453 0.25525606 -0.49089962 0.016229413 -0.035497002 -0.123372905 0.36430246 0.9239277 -0.14304212 0.008425774 -0.19317032 -0.18052343 0.013594656 0.09743629 -0.17975086 0.07331848 -0.16255333 0.451152 0.41916597 -0.090143114 -0.10269671 -0.06852202 0.32795906 -0.3384851 -0.61834866 -0.23835194 -0.08792493 -0.18020779 0.16389498 0.14115076 0.39522523 -0.4108261 -0.17539406 -0.1580238 -0.097514585 0.059982777 0.2307828 0.09319553 -0.14801355 -0.17304105 -0.0065262965 0.3918494 0.3003323 0.3727588 -0.20213021 -0.39127526 0.049410135 0.11905777 0.005678722 0.042393476 -0.27525508 -0.013437796
17 0.1015546 -0.032337125 0.20533526 0.1572162 0.36822477 0.13250409 0.15538293 0.38930714 -0.14732291 -0.5202588 0.06896485 -0.031637117 -0.030912513 0.24345881 -0.31540048 0.1502433 -0.1594233 -0.0069369995 0.25281808 -0.4668571 -0.2576223 0.090760805 0.07290778 -0.661673 0.12092034 0.0025624505 -0.16005217 0.32469705 -0.17290382 0.28034884 -0.09315262 -0.41232926 0.41584793 0.27677503 -0.009192449 0.26529008 0.032843478 -0.23668763 0.14949767 0.09673383 0.10586661 0.22489418 -0.018432256 -0.17687412 -0.053404585 -0.020861708 -0.3257026 -0.040473606 0.13559869 0.38447893 0.17678356 -0.12978517 -0.21995041 0.07701414 -0.11478779 0.05896625 0.12804931 -0.06684318 0.18299018 0.00066869106 0.471267 -0.23633736 0.62126404 0.15179317 0.02981842 0.2730152 -0.031113997 0.41848785 -0.1818978 0.020754999 -0.011085321 -0.22585328 0.13090257 0.041125093 -0.1455667 0.05087155 -0.43269444 -0.46068594 -0.24728502 -0.10331311 -0.100328565 -0.028665537 -0.028744303 -0.02654947 -0.17244034 0.22938359 -0.19329116 -0.029798865 0.16052395 0.15386337 -0.2514975 0.23929223 -0.37408137 -0.11745001 -0.027757632 -0.24935795 0.17290871 0.28384882 -0.35285988 -0.06686692 -0.51453847 0.26674992 -0.017471418 0.07143371 0.37229258 -0.12534156 -0.14907141 0.011048515 0.36941507 0.3292205 0.29560104 -0.0374475 -0.18181445 -0.14806099 -0.40229622 0.0010921609 0.12979293 -0.24224557 0.22418842 -0.070949495 -0.51318455 0.076778755 -0.019759508 0.21351871 -0.33054236 0.0007966107 -0.24702513 0.09101882
31 0.102473386 -0.048904076 0.1858671 0.24607085 0.36858955 0.19112524 0.11903995 0.34244803 -0.14393274 -0.6117893 0.097695895 -0.007908141 -0.08008661 0.23376828 -0.38271022 0.11643467 -0.10701653 -0.021084145 0.19953501 -0.5473034 -0.13920785 0.019120786 0.0650411 -0.60619617 0.13141832 0.051814087 -0.19846123 0.3091154 -0.23372848 0.13119946 -0.15325461 -0.35087475 0.4176964 0.24406385 -0.014806932 0.24067375 -0.06930926 -0.20315161 0.14134721 0.083028704 0.046864573 0.22217557 -0.12818551 -0.26008272 0.0036175314 -0.13550644 -0.31586605 -0.08327565 0.091976814 0.3782685 0.033378676 -0.020630686 -0.24500342 0.019018453 -0.22563656 0.093614176 0.043187153 -0.050640006 0.24604584 -0.07909631 0.5640386 -0.29769427 0.47654843 0.13926809 -0.10793668 0.21273394 -0.07854108 0.3115729 -0.25644723 -0.087024815 0.03159527 -0.24687253 0.07038738 0.0074929814 -0.102482475 -0.08314683 -0.40677324 -0.40474504 -0.27614412 -0.124452464 -0.094645545 -0.006084147 0.08980085 0.041480977 -0.041532256 0.2157646 -0.13284445 -0.06628362 0.047949236 0.26057386 -0.10694748 0.15769604 -0.3475029 -0.21162547 -0.09261973 -0.19142582 0.21442735 0.2137824 -0.35052565 -0.016629428 -0.575254 0.30506033 0.032548018 0.15570728 0.36582568 -0.06951198 -0.17349157 0.08738361 0.2937792 0.21533534 0.17781731 -0.11054258 -0.20054972 -0.16630328 -0.35739425 -0.22898106 0.09567349 -0.26895276 0.2462324 -0.04622628 -0.47336775 0.09070963 0.030845497 0.24427314 -0.3183629 -0.059882753 -0.08734795 0.08857149
3 0.08065177 -0.016742155 0.0901427 0.24532244 0.25622538 0.10656896 0.15544063 0.42175454 -0.10798839 -0.4825237 0.11635844 0.10790938 -0.15947741 0.2549165 -0.31992838 0.1975729 -0.09435987 0.034608174 0.15657882 -0.5253675 -0.16287707 0.04336534 0.12663467 -0.58309877 0.074590944 -0.057890117 -0.1936977 0.30972567 -0.24665004 0.08149999 -0.13680968 -0.27791956 0.37684348 0.2875207 0.0491579 0.21406774 -0.07529772 -0.1853931 0.26801935 0.09078468 -0.087005384 0.13496152 -0.075215355 -0.19011435 -0.058975242 -0.13677509 -0.26619798 -0.14652927 0.20346625 0.3340568 0.1411694 0.01571374 -0.3678104 0.045464505 -0.11701541 0.102765374 0.01826118 -0.1705586 0.3145682 0.0056418707 0.58853817 -0.35616097 0.49896702 0.23238593 -0.04791081 0.13456786 0.016072571 0.44232807 -0.16687265 -0.034151427 0.06847408 -0.3076577 -0.04492268 -0.043276645 -0.19983032 -0.06709512 -0.4400636 -0.388486 -0.20440204 -0.07749909 -0.13387664 0.059386246 0.03318038 0.008026865 -0.11777545 0.20249887 -0.069150895 -0.08351003 0.18486221 0.25723448 -0.1452963 0.26351026 -0.108124696 -0.2222789 -0.11073625 -0.1952108 0.19303115 0.16530335 -0.34569788 -0.05405592 -0.44350278 0.265703 0.0033263562 0.0018063899 0.3862227 -0.2559286 -0.24614222 0.10843405 0.35690287 0.29897627 0.17067404 -0.062583596 -0.1403495 -0.14977546 -0.43511096 -0.16520764 0.113294564 -0.23949368 0.20771354 0.04595054 -0.44174618 0.08769721 0.0120166335 0.16371973 -0.35396236 -0.0018992767 -0.18855709 0.011275642
10 0.08738142 -0.008154015 0.08161842 0.17286792 0.42281854 0.15586488 0.06886498 0.39950028 -0.14660995 -0.55902815 0.10301687 -0.096692756 -0.15687773 0.23581213 -0.34390068 0.1953571 -0.117293224 -0.033308234 0.19468966 -0.60549176 -0.1243142 -0.0036177011 0.15151143 -0.6338676 -0.028015714 0.074057184 -0.25890893 0.38129252 -0.1479483 0.10945365 -0.07626181 -0.36066148 0.30583864 0.25290954 -0.06565727 0.19457597 -0.07990981 -0.22192656 0.0076932707 0.06331065 -0.070835166 0.12398728 -0.053077735 -0.3002218 -0.051137034 -0.048769787 -0.31936797 0.009916554 0.18606873 0.46957064 0.13006516 -0.021445261 -0.3419293 0.06832992 -0.07981738 -0.0092944205 0.10435877 -0.08747251 0.35350028 -0.0699647 0.5259268 -0.26055053 0.4472211 0.15969642 0.008090568 0.31876746 0.0016205515 0.52278006 -0.2208359 -0.012094732 0.018470265 -0.41748017 0.07359756 -0.02258512 -0.21828723 -0.05963318 -0.41363347 -0.40079844 -0.242975 -0.01691045 -0.06568169 0.145431 0.13637277 0.028391164 -0.10131973 0.2295133 -0.1510245 0.04083994 0.18561348 0.21259415 -0.2774362 0.14598146 -0.080284 -0.3191051 -0.21264525 -0.072197035 0.24902128 0.19836761 -0.38086882 -0.15276775 -0.48879823 0.14849667 0.05752544 0.09266642 0.24194954 -0.107912354 -0.13486604 -0.07362777 0.22811033 0.25854027 0.10117432 -0.0007790917 -0.16424717 -0.08544151 -0.26954275 0.005730854 0.11518613 -0.2196755 0.19971578 0.063528076 -0.3747008 -0.041004416 0.104488105 0.24409351 -0.2877867 -0.093291074 -0.20486033 0.19051991
1403 -0.022269754 -0.020137448 0.30164778 -0.013923447 -0.09269991 0.50975376 -0.48936144 -0.4223 0.043396566 -0.39351138 0.032962546 0.23468354 0.06147631 0.3288124 -0.12662125 -0.042683613 0.041190933 -0.0842298 0.54585624 -0.47889724 0.13278991 0.15946783 -0.30762118 0.16040242 0.0852508 -0.0425086 -0.22789176 -0.22060405 0.11266623 -0.01829504 0.42132932 -0.15743354 0.4960487 0.014910352 0.19388404 -0.11584446 0.018946854 0.31295165 0.13139734 0.83396006 -0.15541323 -0.34170374 0.14942504 -0.08407423 -0.61862105 -0.19491018 0.22263917 -0.19789268 0.035823148 0.45140198 0.07020192 -0.13498373 0.58801633 0.05888123 0.02546015 0.18658003 -0.14791921 -0.49837583 0.21277751 -0.14105734 -0.20858407 -0.46727127 0.42904013 0.102100365 -0.32532525 0.044898998 0.07045847 -0.09316688 -0.27566436 0.30260086 0.21394509 0.008231816 -0.08864812 0.28697369 -0.5692759 -0.15346923 -0.41052282 -0.03573196 -0.16684468 0.3595831 -0.048159365 0.048619725 -0.32857093 -0.122174084 0.31959876 0.021780076 0.107012294 0.38300002 0.8062157 0.034906834 -0.00944857 0.019340318 -0.10215538 -0.36816895 0.49116358 -0.12913622 0.103678204 0.56923497 0.18097514 -0.15587233 -0.32083762 0.557201 0.14544718 0.0042424332 -0.11628284 0.47300977 0.05033386 -0.064557195 -0.56206876 0.30248162 -0.0028615827 0.023790307 -0.03221159 -0.5262244 -0.090808354 0.13722198 -0.13831857 0.47937855 0.25299454 -0.24095921 -0.371139 0.22765994 0.28849015 0.10656667 -0.13739987 0.20180014 0.2102923 0.031164985
468 0.2741812 -0.1340981 0.33008876 -0.06380831 0.44536594 -0.43642837 -0.14181276 -0.41332102 -0.33776858 -0.55548704 0.19135407 0.09661985 -0.528262 0.11415903 0.21857458 0.008340535 -0.21615097 -0.000113669106 -0.54690665 -0.27195093 0.53992176 -0.20625706 0.28547955 -0.4669009 0.107855655 -0.12966615 0.6329148 -0.2618406 -0.15662195 -0.17696753 -0.3782974 0.21304187 0.6979396 0.68038064 -0.27555028 -0.13836695 0.11793136 0.29695112 -0.014536424 0.17474718 -0.093096904 0.5847643 -0.006152899 0.23538168 0.18951987 -0.11618755 0.2770099 0.0015782677 -0.46723312 0.449465 0.677146 0.51943654 0.29122275 0.39141732 -0.28037265 0.44087455 0.27194887 -0.09996578 -0.07316427 -0.048391514 -0.57581997 -0.33870265 0.38256794 -0.19752468 0.095708705 0.12978742 0.5577035 0.4126675 -0.4397949 0.494824 0.6525705 0.22149892 -0.15816428 -0.45131165 0.32278335 0.22027224 -0.60681605 -0.14310464 -0.5950459 -0.059462544 0.13926685 0.057241537 0.1288836 0.4262424 0.31707436 0.095575206 0.13758653 -0.26100168 0.5230846 0.28374442 -0.09364393 -0.6402447 0.093178645 0.064334534 0.24382043 -0.200137 0.20317586 0.2686916 0.058258418 -0.48913336 -0.5686169 -0.13223687 0.39607975 0.10543985 -0.31526673 -0.2415636 0.163652 -0.27973527 -0.74845505 -0.18289855 -0.006210325 0.0026925604 0.32177547 -0.12952685 -0.22726299 -0.50066614 0.35891947 0.26414192 0.5435235 0.16565806 0.22028634 0.028317545 0.18171842 -0.1157173 0.34836963 -0.70426226 -0.19493702 -0.16974173
1079 -0.018754251 -0.106079035 0.33087003 0.04876257 -0.068353266 0.4999432 -0.51381874 -0.4327974 0.015417374 -0.40885943 0.032495588 0.20413998 0.124599084 0.37593198 -0.11053586 -0.17771089 -0.07906827 -0.056954343 0.6201071 -0.31197768 0.15646508 0.18425493 -0.25403345 0.053014833 0.18941516 0.021514503 -0.20234828 -0.21865615 -0.012566876 0.013717929 0.39274746 -0.12487499 0.46489796 0.0277441 0.19130069 -0.14088598 0.017193364 0.28832796 0.08139113 0.8920626 -0.19797154 -0.46141547 0.1832239 -0.046038475 -0.57794815 -0.1631512 0.14268059 -0.27790326 0.13833992 0.44165587 0.10521764 -0.05758731 0.54987824 0.16082127 -0.04823911 0.1044492 -0.00864109 -0.45452574 0.22490555 -0.14514282 -0.2732131 -0.56018525 0.33503327 0.105309226 -0.322705 0.045416597 0.12586173 -0.031185115 -0.13418563 0.23939304 0.19745222 0.028279737 -0.06794395 0.32556695 -0.4750698 -0.1438398 -0.35030112 0.012188287 -0.25485536 0.35302466 0.029070582 0.09772753 -0.34585038 -0.14368005 0.29489067 0.09461105 0.13379116 0.3697014 0.84448963 0.027077256 0.0015991676 -0.011015423 -0.040439133 -0.42515135 0.4830716 -0.092226274 0.15441951 0.5593004 0.12312451 -0.15759766 -0.35613468 0.56384224 0.05939512 -0.07294442 -0.10799455 0.48305157 0.07717245 -0.10411417 -0.59707093 0.29444292 0.018970996 0.08256799 0.015591865 -0.44737384 -0.045438737 0.12095418 -0.094117634 0.54771644 0.31573942 -0.23789163 -0.37936404 0.3197561 0.1354458 0.14609732 -0.107466094 0.22300419 0.13057137 0.040709674
134 0.18629724 -0.1344211 0.08450378 0.10449069 0.4224846 -0.55732554 -0.06855979 -0.4170573 -0.28288957 -0.5609007 0.2809065 0.18053702 -0.5475925 0.060083568 0.26510394 0.11232485 -0.25886384 -0.016028438 -0.4604438 -0.28184593 0.41583323 -0.09633537 0.1874355 -0.37601966 0.040751148 -0.19444743 0.44275567 -0.20055798 -0.026260814 -0.1602156 -0.37422374 0.116405465 0.64469343 0.63304013 -0.2678666 -0.09755061 0.15066484 0.32950962 0.120498 0.29751772 0.0046692635 0.53248405 0.02757018 0.18095618 0.16061312 -0.17516536 0.1870296 -0.08587434 -0.6169216 0.437586 0.6949734 0.48492467 0.22435373 0.42590356 -0.52906936 0.40175894 0.2268163 -0.030977672 -0.12167812 -0.06043888 -0.6347627 -0.46053523 0.43012586 -0.25918937 -0.046055783 0.19354798 0.53575414 0.32806683 -0.53374517 0.44366673 0.69567525 0.3626888 -0.0056374567 -0.38274857 0.42346635 0.19562513 -0.584685 -0.22291863 -0.51516604 -0.06919612 0.14105637 0.07852049 0.07433458 0.4825568 0.2990987 -0.037022006 0.14413589 -0.19609131 0.48025388 0.14942706 -0.17129399 -0.6289079 0.07345375 0.014036915 0.20677309 -0.2741186 0.13240515 0.33862898 0.049103897 -0.5752777 -0.7360803 -0.18679178 0.3894872 0.050076425 -0.31284952 -0.1620925 0.20177047 -0.30413505 -0.6700435 -0.22600022 0.04367159 -0.07583133 0.2743262 0.054782707 -0.06006094 -0.38469645 0.2852047 0.3966132 0.46721512 0.2718248 0.13709684 0.08727401 0.23429102 -0.077355236 0.31143156 -0.73796445 -0.18029961 -0.18113929
1322 0.070125 -0.07134381 0.30143285 -0.023946695 0.040228855 0.41266322 -0.4880702 -0.4421398 0.13340534 -0.41423145 -0.041213833 0.24908505 0.19967343 0.3143013 -0.1413921 0.06249242 -0.003878344 -0.18025674 0.55268294 -0.41424793 0.13557018 0.14566752 -0.25771627 0.11885863 0.18364407 -0.08977679 -0.311116 -0.20671661 0.11085339 -0.025504077 0.4108199 -0.049672637 0.38085833 0.039809905 0.16896233 -0.19317496 -0.008511277 0.2942389 0.1416436 0.8481812 -0.03934718 -0.30082902 0.25069728 -0.061750434 -0.5628405 -0.20919521 0.18104583 -0.27767017 0.04494252 0.44141355 0.05788633 -0.12476143 0.5486142 0.13544148 -0.017855031 0.17893648 -0.15932095 -0.43050176 0.19860469 -0.10243888 -0.29325217 -0.5101145 0.36903688 0.12304905 -0.38218006 0.12891717 0.08557167 -0.03984807 -0.15023394 0.35687804 0.22284216 0.024111211 -0.0155557925 0.17558177 -0.52149355 -0.07085596 -0.34533828 -0.013947427 -0.15951455 0.39528173 0.054342285 0.07190578 -0.30384687 -0.1013226 0.40725783 0.13381784 0.11144696 0.39183062 0.7845054 -0.031191953 0.033936456 0.061386466 -0.10574691 -0.4096977 0.4474918 -0.18963489 0.10930259 0.5406915 0.17109582 -0.09017299 -0.3679578 0.4346848 0.11359897 0.029882926 -0.113203906 0.6028552 0.0655138 0.029793316 -0.58750963 0.358908 -0.011407493 -0.012882776 0.02441129 -0.5442757 -0.10548146 0.17881973 -0.13582438 0.45132008 0.29643068 -0.27817234 -0.40735406 0.24953473 0.24023059 0.14732337 -0.10949687 0.1968345 0.17128316 -0.01523923
