200 128
42 0.03860674 -0.17391941 0.62323576 0.2913896 -0.13231815 -0.056846716 -0.24388324 -0.040442105 -0.22249913 0.48991126 0.25049597 -0.04157257 -0.27850673 -0.03240341 -0.15672411 -0.24321204 -0.28225967 -0.15899509 -0.33077985 0.24007384 0.36365372 0.12775417 -0.0050437413 -0.34830847 -0.34683776 0.32370836 -0.25280282 0.39004114 -0.0036624093 -0.089500606 0.2675876 -0.16246203 0.079167716 -0.28871524 -0.10690069 -0.072420724 0.10001127 -0.11990812 -0.08031961 0.02694987 0.07971758 0.07606461 -0.16771537 0.06587621 0.12104073 0.42526683 -0.24150315 0.2792126 -0.15743726 0.14798266 0.17432259 0.0386479 0.081896394 -0.2074725 0.04668836 0.19692363 0.106277935 -0.22518413 -0.114642836 -0.08740268 -0.09973599 0.21898845 -0.05222752 0.2779552 0.14678298 -0.31243488 0.05308062 0.42552504 -0.42574346 -0.43997797 -0.19570857 -0.13297902 -0.2807934 0.17626452 -0.3445943 -0.017374752 0.15321408 0.010554495 -0.1056996 0.112228036 -0.15243763 -0.25682375 0.4320226 0.09438122 0.1470593 0.14202604 0.44885638 -0.21425952 0.059942365 -0.106989175 0.05561117 -0.09221473 0.2967594 -0.13609155 0.2282857 0.6670173 -0.37034935 -0.56360775 -0.1895071 -0.06536232 0.09896608 -0.06116849 0.27176854 0.6827618 0.4739612 -0.1252659 0.2318341 -0.057936642 0.24815255 -0.0068385806 -0.01881316 -0.14212413 -0.013639342 -0.012452812 -0.33445624 0.2026552 -0.18725105 0.09608039 -0.08277009 -0.174377 -0.0006042628 0.14378972 0.2983054 -0.13662705 -0.010486893 -0.04168692 0.2652116 0.22439273
110 -0.02006835 0.0020456195 0.65805614 0.3233154 -0.019297972 -0.14744519 -0.2782609 -0.1261328 -0.4105642 0.5112115 0.42836872 -0.44816586 -0.09838038 -0.13801168 -0.094563685 -0.11661257 -0.37081718 0.013216433 -0.23915762 0.35522696 0.20599343 0.44744128 -0.2761312 -0.45117167 -0.43271562 0.21860245 -0.13857885 0.45180425 0.09346624 -0.08221765 0.13106132 -0.267301 -0.05133978 -0.14656988 0.10067852 0.0057769218 0.06893842 -0.14386727 -0.20753388 -0.12306385 0.07477483 0.038097054 -0.13645715 0.059101272 0.2929695 0.3006762 -0.15368383 0.14321634 -0.3316547 0.04577491 0.13726394 0.20804657 -0.024286138 -0.26270592 0.14220096 0.12384882 0.20165071 -0.012956935 -0.08605697 -0.11064018 0.09266106 0.18899523 -0.1459462 0.17801934 0.3194919 -0.2655245 0.091268614 0.27778488 -0.17113566 -0.52195776 -0.2099499 0.008687179 -0.07582064 0.35644066 -0.093781054 -0.2179985 0.07525176 0.04553031 -0.10348681 0.19881278 -0.26935208 -0.08921528 0.23301323 0.197282 0.058980037 0.007656077 0.31149158 -0.04498985 0.19699714 0.0321325 -0.0626091 0.05236282 0.13919784 0.027272327 0.22830161 0.341393 -0.332679 -0.19858722 -0.3210753 -0.12618864 -0.043610785 0.14848377 0.1804827 0.64016193 0.08028077 -0.05673267 0.20347351 -0.094799414 0.28533196 0.19522461 7.313349e-05 -0.013209977 -0.09942892 0.11954594 -0.2450707 0.050890386 -0.1337686 -0.09938424 0.0825999 0.03751055 -0.1729563 0.18176532 0.056610174 -0.0051644677 -0.05120992 -0.3250467 0.06783364 0.37421936
17 -0.013961522 -0.024549138 -0.3582444 0.1517007 -0.25976127 0.19891109 -0.14884934 0.0019155167 -0.11171513 0.08747182 0.124818616 0.2793703 0.15962371 -0.09998453 0.2890351 -0.10529074 0.026381446 0.02048356 0.060703136 -0.086475015 -0.34054574 0.08697601 -0.020998444 -0.05769038 0.34222323 0.1568572 0.16383517 -0.21410249 -0.4236657 -0.37136158 -0.067538336 -0.15522432 -0.19151291 -0.14502884 -0.042861503 0.19330579 0.193245 -0.02628678 0.044193625 -0.2736452 0.08665623 -0.030525537 -0.48955962 0.2270349 0.34170943 0.48160627 0.22576153 -0.09675082 -0.07748424 0.3644074 -0.027781526 0.2905581 -0.20410022 -0.073309 0.3031836 -0.1265338 -0.194629 -0.09254098 -0.10305909 -0.5454711 0.0019319503 -0.36189464 0.2459404 0.13399817 0.11212408 0.08056609 0.19946696 0.04284242 -0.075916424 -0.0037384178 0.19187494 -0.15304789 -0.07909345 -0.5119047 -0.14274077 0.35643673 -0.31431246 -0.25910577 0.102784455 0.12447449 0.19395912 0.035938438 0.23282361 -0.34263417 -0.22657585 0.0073104184 -0.1219765 -0.17321764 0.41443318 0.027856894 -0.1564622 0.16516009 0.03536557 -0.3067944 0.4284187 0.5230893 0.010392588 -0.05238466 0.084262945 -0.4982368 0.13226482 -0.03194702 0.29154205 0.60658693 0.05320128 -0.06127514 0.09029818 -0.23153697 0.1985815 -0.41393682 0.0062406952 0.53508896 -0.16481248 0.21438538 0.040822454 -0.16583496 -0.2758808 -0.3215929 0.017816497 0.1634524 0.26141912 0.16397126 -0.12800416 0.063272536 -0.0058805197 -0.23978567 0.14867222 -0.12199242
87 -0.014864956 -0.110737905 0.59099543 0.1731285 0.084039815 -0.24094048 -0.1642065 -0.25390664 -0.31029892 0.595479 0.2944487 -0.41138017 -0.22026077 -0.10484231 -0.08698393 0.10417535 -0.35646728 -0.14441755 -0.17722616 0.28083795 0.13045716 0.4117062 -0.34393466 -0.36822486 -0.3581116 0.22989595 -0.10651909 0.32488742 0.014601987 -0.06958544 0.14567332 -0.34966195 -0.19398542 -0.18773793 0.026173063 -0.010179287 0.04718559 0.04582958 -0.1199344 -0.027603714 -0.04039967 -0.03712865 -0.11426301 0.09501487 0.34976318 0.29876676 -0.07850555 0.08005182 -0.32954174 -0.05663387 0.23070738 0.17380436 -0.029862333 -0.29579967 0.21751736 0.19740699 0.3412493 -0.20612355 -0.017477224 -0.12752494 0.025260057 0.18367521 -0.12589097 0.2059196 0.31993404 -0.42290977 0.1365655 0.28066638 -0.1877464 -0.6093123 -0.19431563 -0.13262069 -0.1819051 0.3278394 -0.17985108 -0.30294654 0.00039263835 -0.0064539993 -0.007679362 0.27311376 -0.21864219 -0.12201079 0.29753178 0.045731172 0.011599195 0.07631559 0.34702462 -0.12817374 0.20243801 -0.049589317 -0.09864506 -0.010668142 0.2336161 0.10584628 0.21196264 0.3128657 -0.27249244 -0.0545433 -0.31885338 -0.036636513 0.0881897 0.10286389 0.106488384 0.33090103 0.081976414 0.0046950546 0.19117108 -0.06880962 0.24791533 0.06931226 0.10116991 -0.043804273 0.023508126 0.038288437 -0.3009417 -0.025858063 -0.2238046 -0.12086259 0.042015284 0.043657996 -0.2457039 0.13665543 -0.0044286405 -0.05228231 -0.046504177 -0.2880149 0.14472438 0.31946892
14 0.028440813 -0.03642694 -0.32140344 0.16797024 -0.265083 0.1372945 -0.14494509 -0.045364752 -0.10415697 0.01620468 0.06963991 0.33276692 0.06507489 -0.22708616 0.35596114 -0.045357753 0.09993303 0.04492216 0.14375241 -0.007981921 -0.38846207 0.14104748 0.036870997 -0.123470075 0.4488548 -0.011115181 0.2884132 -0.20137703 -0.3023488 -0.24180236 -0.2071478 -0.1093969 -0.088444486 -0.008186636 -0.017484346 0.30482653 0.28737745 -0.08894526 0.14851545 -0.19590078 0.20376454 -0.085756354 -0.61298054 0.27997237 0.29786414 0.5684238 0.21015143 -0.072037466 -0.13713096 0.37729993 0.05517012 0.18300605 -0.4279611 -0.14103141 0.16645971 0.010725118 -0.25431725 -0.07194614 -0.13097584 -0.61050165 0.02449762 -0.36390182 0.27241746 0.059061754 0.15507083 0.0749172 0.21115822 0.18128517 -0.06985515 0.1146738 0.17844748 -0.13620217 -0.0067446055 -0.46057987 -0.100750424 0.44718036 -0.3760306 -0.14383565 0.078375846 -0.0103130825 0.10315127 0.042980585 0.18989478 -0.24074289 -0.27008057 -0.022836415 -0.08259044 -0.26666066 0.44742736 0.012578511 -0.32066137 0.26639774 0.14858674 -0.48075902 0.53330266 0.46300673 -0.12577128 -0.017197195 0.16595332 -0.4923173 0.051832035 -0.177145 0.244858 0.5889996 -0.036599502 0.028958365 0.14362524 -0.33009732 0.16361131 -0.49881533 0.06414916 0.48959905 -0.14511156 0.15925065 -0.13852921 -0.20357913 -0.28308955 -0.35973454 0.08944785 0.17279163 0.346095 0.18710843 -0.20216984 0.25148904 -0.029301766 -0.3358471 0.22320162 -0.019971661
28 -0.013016372 -0.1404386 0.5202692 0.16024475 -0.20303774 -0.08945382 -0.28126502 -0.022987278 -0.16462414 0.29962894 0.25589186 -0.1560402 -0.3553897 0.009007688 -0.1462798 -0.3490754 -0.3588875 -0.1141388 -0.2791372 0.3517398 0.26673162 0.095825 -0.072980516 -0.32116908 -0.3949268 0.25169566 -0.3118584 0.20215996 0.04227229 -0.15965696 0.18568142 -0.07186288 0.08138207 -0.09910169 -0.039482575 0.034491464 0.24363168 -0.14812066 -0.10822289 -0.059692852 0.061993513 0.1194894 -0.15259919 0.06914865 0.11034687 0.3980811 -0.2168625 0.2559521 -0.27251557 0.1415105 0.24210487 0.12916365 0.033086993 -0.13702981 0.12978074 0.23859762 0.17816089 -0.22524907 -0.05018014 -0.12771867 0.0064526773 0.192502 -0.05209702 0.41689485 0.26071385 -0.24833624 0.20001414 0.36542785 -0.43866858 -0.66117704 -0.23975605 -0.00884826 -0.10982276 0.20450856 -0.3645662 -0.12901722 0.22347546 -0.007137981 -0.1019484 0.23428702 -0.17048886 -0.23767678 0.3114661 0.11636936 0.13421112 0.2072808 0.45455858 -0.24287783 0.14624211 -0.2035696 -0.046067152 0.009394877 0.2929804 -0.04736498 0.28986517 0.54952604 -0.25719345 -0.43086213 -0.22934896 0.00081540574 -0.014046185 0.032358088 0.21472183 0.65799475 0.32242307 -0.056339275 0.3122073 -0.057176575 0.29083663 -0.03208671 -0.07286512 -0.20149787 -0.0971758 -0.109258495 -0.2794674 0.22058168 -0.2058499 0.122822575 -0.07428171 -0.059669018 -0.007391128 0.10740991 0.17625664 -0.128724 0.030110056 -0.17424463 0.18470405 0.24869068
15 0.18871099 -0.4709575 -0.12972686 0.75815964 0.16138716 0.28375936 -0.039267853 0.11088 0.06949647 -0.027225547 0.17117724 0.24347894 -0.26495004 -0.07408057 0.24919838 0.45618182 -0.34280026 0.19241361 0.017261773 -0.054842766 -0.0557888 0.22334322 -0.36397415 -0.28110054 -0.24268225 0.14492595 -0.045419842 -0.16744348 -0.27225262 -0.29305097 -0.18432222 -0.04723458 0.20611675 0.6112925 0.07324892 0.3166264 0.34573373 0.11854066 -0.11175901 -0.2965552 -0.25038323 0.07066029 0.032614235 -0.14942354 0.163438 0.27011156 0.042178407 0.1315696 -0.1252499 0.46496773 -0.13131595 -0.12727706 0.1690362 0.2047941 -0.030920036 0.19319692 0.35536796 -0.20338257 0.07479086 -0.16190365 0.10680875 0.24328901 0.42950255 -0.018245226 -0.20080313 0.36197948 -0.0043938416 0.40151653 0.0968311 0.26352373 -0.07953299 -0.17614804 -0.41592827 -0.28538033 0.17705403 -0.1084888 -0.10603116 0.24440643 -0.04941099 -0.19382732 0.04086879 -0.37473735 -0.22308706 0.3439936 0.45061624 0.2208403 0.1398654 -0.08840184 0.3013786 0.052264094 -0.21751267 -0.25679 0.21267147 -0.18835735 -0.08515974 -0.053020332 0.20889857 0.013989915 -0.16741598 -0.2083895 -0.11529519 -0.10369273 0.08273798 0.34060997 -0.090252034 0.05864729 0.0007386306 0.30144978 -0.0060945875 -0.37461117 0.17134185 -0.30658895 -0.05781758 -0.024722133 -0.16100368 -0.38485864 -0.026395448 -0.071022004 -0.1397274 -0.50446546 -0.46542075 -0.19944663 0.15790062 -0.017224878 -0.044526163 0.0016120418 -0.19683541 -0.107383065
8 0.17776865 -0.036973808 0.5837291 0.21485788 -0.32292533 -0.013510675 -0.2501237 -0.022054855 -0.16588403 0.39270273 0.20933208 -0.17065015 -0.34024733 0.0016239879 -0.24390608 -0.25011292 -0.39624912 -0.09716193 -0.29244176 0.23494834 0.43167982 -0.02581577 -0.07362606 -0.33667603 -0.3881167 0.23523279 -0.295753 0.19499107 0.10937509 -0.0671139 0.114024736 -0.03198083 -0.03732808 -0.35809922 -0.052508198 -0.106541105 0.133127 -0.020640513 -0.110687636 -0.0098978635 0.02353164 0.11432827 -0.19523403 0.122671306 0.22400782 0.522504 -0.21602029 0.26494431 -0.3976948 0.12778223 0.20325957 0.111603566 0.065373406 -0.07950463 0.19367152 0.17304388 0.281635 -0.37093908 -0.028430862 -0.07582454 -0.08476129 0.3323544 -0.001800432 0.37174338 0.15582304 -0.2550463 0.16724908 0.27880794 -0.35957238 -0.49368 -0.23002021 -0.042104974 -0.22594276 0.19785087 -0.37678128 -0.065941826 0.16910063 -0.088793464 -0.093280934 0.14035727 -0.14827724 -0.19521092 0.3231752 0.06889336 0.122651495 0.14170417 0.42593473 -0.119017646 0.015754852 -0.1721689 -0.0033937313 0.01609543 0.34430426 -0.025036804 0.12178518 0.62395895 -0.38756824 -0.5888607 -0.16000357 -0.05253484 0.07165171 0.06682752 0.33556283 0.67596906 0.44713542 -0.057413634 0.3010645 -0.018573992 0.26059628 -0.036021445 -0.04161952 -0.10288663 0.011155955 0.11442705 -0.33643284 0.057131846 -0.15157281 0.020013293 -0.026309488 -0.07320112 0.030252973 0.08685792 0.14959706 -0.08932206 -0.20706531 0.0006963936 0.18982708 0.29034755
1 0.25645342 -0.055175327 -0.055049725 0.31207952 -0.08709954 -0.21201456 0.30576476 -0.44905362 -0.04435167 0.26324022 0.1085791 0.11671265 -0.020998565 -0.41522276 0.2041583 0.3971968 -0.12722015 0.06430991 -0.08194049 0.42655817 -0.6327761 0.17739993 -0.0872152 -0.034180053 -0.29506242 -0.02926313 -0.46447334 -0.09237949 -0.35384956 0.056989573 0.12512751 -0.25489688 -0.090785116 -0.00043869234 -0.17232229 0.20508324 0.11489544 -0.06175753 0.34471568 0.25132334 -0.2366913 0.044929385 -0.48326117 0.023611695 0.1451827 -0.12484107 -0.0436148 -0.02293791 -0.5093509 0.02266326 0.29021055 0.15008913 0.23741099 -0.27275097 -0.16052033 -0.17422052 -0.0065232785 -0.21773034 0.29712504 0.1341984 -0.43895352 0.046826314 0.09336505 0.2593725 0.19917001 -0.008297195 0.13874123 -0.2220472 -0.040155467 -0.25891784 0.16563018 -0.19541427 0.39836535 -0.05197449 0.20046943 0.41447595 -0.13138272 -0.04206171 0.094596095 -0.12456799 0.38619235 -0.17324 -0.07748163 0.16353929 0.10593243 0.26833898 0.009071725 -0.07077888 0.21057515 -0.06369214 -0.10453605 0.31459898 0.19192068 -0.3099436 0.079586096 0.25874212 0.22141422 -0.22780447 0.50625825 -0.71377236 0.115933195 -0.00992677 0.22521302 0.28400177 0.10862692 -0.08471919 -0.03981269 -0.2351797 0.16710702 0.0015659656 -0.1744209 0.21564089 -0.23673102 0.3074162 0.3222754 0.39261168 -0.090662636 -0.31883663 -0.14626804 0.14133266 -0.118072934 0.17884581 0.09286013 0.25611025 0.12010702 0.055349033 0.16804378 -0.373172
21 -0.096032396 -0.4146559 -0.30800334 -0.038706694 0.24874723 -0.0069844536 0.0057401513 0.05701215 -0.25252545 0.059840534 0.19930907 0.3459438 -0.10446222 -0.19482423 0.3061369 -0.046733707 0.19236168 -0.11614571 -0.19889818 0.027336994 -0.45469147 0.1312836 -0.059975777 -0.29303905 0.11286198 0.1168572 0.0404645 -0.057810653 -0.19476688 0.07561163 0.172008 -0.025620721 -0.23589472 -0.06922643 -0.028752495 0.083012335 0.2828256 -0.30105117 0.096572585 -0.0023232608 -0.13152279 0.0790918 -0.5784807 0.206004 0.29930922 -0.0013216167 -0.12510395 -0.072306626 -0.344776 -0.015948484 0.35470447 0.28706786 -0.17286421 -0.068722606 -0.011900484 -0.0059642023 0.32053688 0.15378675 0.101719365 -0.5022173 -0.33988371 -0.1565588 0.18091309 0.36179888 0.4896685 0.19918926 0.18782808 0.027093437 0.12197218 0.08176674 0.32934788 -0.21289104 -0.015226717 -0.15817739 0.30549565 0.19758251 -0.51523185 -0.23912741 -0.062336963 -0.022995688 0.10898724 -0.13117167 0.044168714 0.017742096 -0.22300808 0.2132348 0.08276075 -0.31723112 0.25015798 0.0016430458 -0.11149795 0.17881714 0.14172702 -0.48208463 0.1623577 0.29487205 -0.12952521 -0.042218458 0.149811 -0.49490806 0.110182606 -0.13470396 -0.049419798 0.12632477 0.042996623 0.091224544 -0.3008517 -0.008134342 0.09056983 -0.08856448 -0.051720504 0.2668757 -0.1611995 0.42711857 0.29290736 -0.061373193 -0.019628225 -0.23518774 0.17148791 0.015899781 0.37494504 -0.12204905 -0.20309362 0.39268893 -0.16724427 0.07002479 0.16198327 -0.0010862328
38 0.030917471 -0.028642353 -0.38065702 0.08851483 -0.25717667 0.16987857 -0.037424218 -0.07269843 -0.14029849 0.08248946 0.15495978 0.31700608 0.16715887 -0.1340547 0.16864567 -0.07686883 0.18548916 0.007520919 0.06312301 -0.09702585 -0.40172908 0.031273138 0.08911023 -0.11224699 0.45392606 0.065104984 0.15234998 -0.2032154 -0.31820023 -0.3008125 -0.061017573 -0.17310601 -0.085934274 -0.02442801 -0.104341045 0.3154568 0.3233998 -0.05983454 0.11074766 -0.22138175 0.15946549 -0.043797906 -0.3823842 0.18554603 0.25080395 0.38722354 0.29097173 -0.11754082 -0.20334385 0.35354164 0.010228807 0.21791615 -0.29183498 -0.10921036 0.15683636 -0.15231033 -0.19044441 -0.21254553 -0.12978473 -0.5114809 -0.01866814 -0.28077313 0.23275128 0.12573601 0.11694693 -0.027600933 0.21634722 0.12705643 0.007457144 -0.019998917 0.25292847 -0.17576127 -0.075386554 -0.44500226 -0.09685157 0.41062528 -0.3195516 -0.19651513 0.11136764 0.06893061 0.21853763 -0.08082571 0.15532835 -0.3039979 -0.2028057 0.11967249 -0.06279699 -0.22801779 0.5199217 0.013194172 -0.22765575 0.29431757 0.064045966 -0.37554747 0.45639646 0.5470597 -0.029763527 -0.012288847 0.097914286 -0.4365039 0.1795568 -0.20565443 0.24794681 0.4180245 0.10059815 0.0020694528 0.06427893 -0.28051198 0.16656192 -0.40095583 0.04907064 0.48883447 -0.056547634 0.1780708 -0.035681013 -0.34504429 -0.22331649 -0.38399187 0.091493286 0.13308512 0.3229474 0.14645396 -0.28599882 0.12747008 -0.017961688 -0.2783996 0.1697544 -0.050423887
19 -0.09942502 0.015826155 0.6757348 0.32781008 0.029604178 -0.27866814 -0.21746647 -0.0760412 -0.26427156 0.6004708 0.3595234 -0.35743496 -0.16771427 -0.045905136 -0.11911289 0.12229343 -0.3264204 -0.10186889 -0.118716866 0.32592446 0.16929978 0.323856 -0.3714917 -0.41606852 -0.4389286 0.18085876 -0.25680953 0.30094364 0.08920431 -0.14094189 0.26075384 -0.29429495 -0.16573818 -0.19006255 0.07388535 -0.00937119 0.10127227 -0.091822766 -0.12130763 -0.05835604 0.15276605 -0.07094249 0.0046578255 0.16163357 0.28855234 0.24162105 -0.16853783 0.11186573 -0.3928317 0.016509159 0.33416775 0.0698843 0.0804418 -0.26029748 0.44022402 0.15257606 0.28755668 -0.2552001 -0.09148537 -0.030067775 -0.056960702 0.2299294 -0.09405034 0.2172295 0.28102902 -0.25401714 0.1273773 0.16497345 -0.04808311 -0.3276249 -0.13297121 -0.0927367 -0.220514 0.100918755 -0.2093647 -0.18238695 0.02589378 -0.018921088 -0.05215481 0.33682042 -0.32617754 -0.14789394 0.24833196 0.06346962 0.10629217 0.1364616 0.43132424 -0.23557414 0.22710368 -0.0025555182 -0.04210307 0.015435208 0.23103504 -0.010619744 0.26818156 0.36254334 -0.36339337 -0.2383236 -0.25776488 0.06096622 0.055995982 0.15721735 0.08106329 0.36361352 0.14855713 0.022142716 0.27265307 -0.12282143 0.23015162 0.14304623 -0.050843555 -0.12855697 0.022412287 0.08225025 -0.2788213 0.07405796 -0.23110655 -0.1334614 0.03187138 0.074693345 -0.22856495 0.21970141 -0.12830834 -0.04040376 -0.0006068761 -0.29473796 0.30069634 0.51784813
74 -0.04861946 -0.11024084 0.21665205 0.2375871 0.105243675 -0.14096256 -0.2855791 -0.070860416 -0.22248773 0.61922896 0.1586506 -0.4023792 0.049818166 0.15814285 -0.27698186 0.18459772 -0.014192904 -0.11081787 -0.058642745 0.32615495 0.27104533 0.52352005 -0.17934614 -0.4816345 -0.30577976 0.3916445 -0.2513671 0.2721173 0.02066826 -0.2921638 0.2125171 -0.52201504 -0.13281557 -0.21907783 0.036010385 0.01243606 0.06307167 0.078277566 -0.22423843 -0.056690294 -0.04001875 -0.04202381 -0.10722044 -0.0064981515 0.33273447 0.3443147 -0.16991395 0.05866631 -0.45034707 -0.27059674 -0.10842407 0.17173614 0.009486529 0.0049327053 0.3168027 -0.071549386 0.33398944 -0.051321283 -0.076354235 0.007081042 -0.15337253 0.2394502 -0.14942512 0.46941403 0.16218223 -0.26564026 0.02650858 0.2392206 -0.3821655 -0.16651928 -0.09807267 -0.114690594 -0.10769238 0.2526234 0.016823186 0.060752 -0.22681473 -0.11773554 -0.24346025 0.27424768 -0.24084085 -0.14609365 0.04264206 0.103685506 0.10094768 0.017818801 0.24452603 -0.18154648 0.28939542 -0.060751162 -0.040801212 0.24030809 0.11621613 0.037717614 0.35202223 0.16621096 -0.1354026 0.2204299 -0.15060481 0.06077997 0.047563087 0.12312709 0.099766694 0.40759528 -0.0017872085 0.043216202 0.33493024 -0.058531005 0.08817146 0.19467714 -0.24312964 0.08141894 -0.08662608 -0.13976191 -0.45495757 -0.13249776 -0.05773521 -0.13215946 -0.007320426 0.11034426 -0.2933508 0.08151414 -0.0811222 -0.109095834 0.21263279 -0.3809945 0.059413735 0.24871543
105 0.03881534 -0.18072589 0.60761505 0.28831863 -0.07531918 -0.19944954 -0.2103444 -0.24421266 -0.36646056 0.5571939 0.360912 -0.5756235 -0.1661195 -0.058849543 -0.06510217 0.089381725 -0.32524675 -0.20596202 -0.25241858 0.14817782 0.1882158 0.3756723 -0.25299403 -0.30916893 -0.43477336 0.23909123 -0.23855801 0.40877193 0.11155097 -0.1579957 0.19353423 -0.27253094 -0.2691639 -0.12146622 -0.020095687 0.12030087 0.17842771 0.020990508 -0.1792954 -0.039787836 -0.05194617 0.04460601 -0.06779153 0.081351556 0.37196502 0.26741517 0.0019162388 0.06599409 -0.36952627 -0.03573459 0.13479786 0.22117312 0.053801853 -0.24877271 0.23401736 0.05374204 0.20345639 -0.016186789 -0.04427878 -0.20241375 -0.02739862 0.11374884 -0.1580261 0.2412826 0.25755003 -0.26703194 0.11823888 0.27979934 -0.19624928 -0.37972927 -0.17070925 -0.12957914 -0.1339136 0.34563273 0.016244149 -0.17424457 -0.031154439 -0.15086968 -0.033935998 0.22926562 -0.25086617 -0.15875287 0.28952795 0.005096567 0.07952004 0.019121794 0.39103612 0.06917942 0.19661942 0.05373202 -0.0915217 -0.076861195 0.36539906 0.13888279 0.25728014 0.2932013 -0.266244 -0.07252674 -0.35464284 -0.02446517 0.12488114 0.18224736 0.28197554 0.44430456 0.15759794 -0.0647047 0.20316732 -0.07958982 0.14610137 0.13483654 0.023660256 -0.10547199 0.034796264 0.017362295 -0.1930013 0.044911228 -0.11501693 -0.009155838 0.04718547 0.0172813 -0.23674412 0.14601837 0.048642866 -0.08260263 -0.021337343 -0.4028087 0.19977301 0.41373888
5 0.39244324 -0.10136288 -0.021780364 0.17163013 -0.13850991 -0.11940141 0.26911098 -0.40009624 -0.11438745 0.29087135 0.31047714 0.09973764 -0.035744917 -0.42590785 0.2506313 0.2988938 -0.011192911 0.11282604 -0.1070493 0.25449896 -0.49815574 0.11647597 0.033154707 -0.020735245 -0.2800745 -0.09781596 -0.45446944 -0.12680784 -0.20823272 0.03922541 0.10566937 -0.16705358 -0.11961178 0.017017601 -0.27717265 0.21978556 0.21337596 -0.06626085 0.3061291 0.2586636 -0.26460895 0.053022303 -0.3840116 0.034338765 0.20263006 -0.15737182 0.026749142 0.026132643 -0.56049925 0.02977707 0.21396561 0.13189135 0.17705931 -0.18680532 -0.17736265 -0.17219462 -0.04603322 -0.17039853 0.26511636 0.19882566 -0.44392818 0.13140802 0.029702427 0.13424282 0.36639544 0.05642904 0.14900874 -0.2908213 0.09223673 -0.22200635 0.2253048 -0.14848115 0.45476085 0.013212302 0.2328448 0.37937084 -0.066100314 -0.049789246 0.031038001 -0.04236219 0.406016 -0.1600286 -0.10094463 0.16935974 0.1847403 0.27881238 0.007774493 -0.13043196 0.243574 -0.16268562 -0.22868666 0.28729492 0.2849492 -0.19693524 0.11532717 0.19035473 0.29753646 -0.16228606 0.42499608 -0.7605296 0.14988707 -0.17595431 0.26078272 0.44786254 0.12476555 -0.0029010342 0.02330233 -0.22089238 0.11415237 -0.09807292 -0.18802114 0.16139011 -0.22567025 0.40673932 0.40419784 0.26387283 -0.099892594 -0.46585026 -0.036264602 0.12129234 -0.18752164 0.24392137 0.10618491 0.28033474 0.12628382 -0.025186945 0.22294702 -0.36638507
122 0.22263467 -0.31355333 0.028744644 0.72646874 -0.006602151 0.34323058 0.02270458 0.07923655 0.015213276 -0.06855027 0.12168746 0.09704568 -0.18781255 -0.20600934 0.28020427 0.5349907 -0.34657118 0.07622322 0.04934907 -0.015728176 0.10411847 0.29271683 -0.24326824 -0.34404567 -0.20471084 0.13850556 -0.07586936 -0.20720641 -0.15436995 -0.49979395 -0.2684625 -0.012705995 0.2668793 0.57418776 0.06491767 0.29825273 0.40218478 -0.043999717 -0.08219363 -0.2664067 -0.18090826 0.058295913 0.038797628 -0.133612 0.07081763 0.10586467 -0.03645895 -0.04089991 -0.09207182 0.38555235 -0.060826067 -0.05280412 0.31352916 0.2085214 -0.17699213 0.19984691 0.06592648 -0.11800323 0.06793746 -0.12143368 0.0007335938 0.20252743 0.5742994 0.050159495 -0.058472592 0.34903565 0.038452033 0.27425745 0.08795601 0.110360995 -0.14520335 0.050695572 -0.5381367 -0.37020805 -0.025900899 -0.1526427 -0.24666363 0.22387095 -0.03942727 0.06948502 0.12984061 -0.26167873 -0.1487843 0.33429343 0.414082 0.15247348 0.23831224 -0.081470594 0.23927788 -0.08558743 -0.16269645 -0.33609942 0.2778252 -0.0030040506 0.051199872 -0.1721361 0.24189991 -0.053705804 -0.17870125 -0.33501938 -0.025150828 -0.017085394 0.06056521 0.3631047 -0.2002347 0.06632267 -0.015926627 0.4162871 0.046426136 -0.20971887 0.17228146 -0.21927868 0.018605372 0.052857693 -0.25955108 -0.5804665 -0.026758568 -0.22586417 -0.11092704 -0.40314195 -0.46263564 -0.09730721 0.2465758 0.043993462 -0.15502094 0.20849499 -0.20675826 -0.2238538
6 0.04777722 -0.09198088 -0.30026987 0.18355495 -0.3926541 0.17649853 -0.043117188 -0.028371144 -0.04450922 -0.033342864 0.19331323 0.3698004 0.18170734 -0.16655879 0.3142784 0.0763594 -0.005975711 0.056494348 0.07527963 -0.11915619 -0.34072253 0.18163665 0.0884429 -0.10989298 0.38450506 0.102025904 0.2139725 -0.25741518 -0.4142611 -0.29006976 -0.15716504 -0.17751496 -0.22282264 -0.16154191 -0.08623302 0.2312077 0.24105103 0.0063322755 0.08359663 -0.24925418 0.13883659 -0.029044643 -0.51145065 0.3199583 0.298001 0.548764 0.27662414 -0.11957692 -0.11964006 0.42657268 -0.09046117 0.3215446 -0.34906936 -0.090224236 0.23869397 0.009924391 -0.3433117 -0.08035144 -0.23360321 -0.5919847 0.033743754 -0.32628992 0.28105298 0.049749717 0.22216897 0.029897068 0.12008275 0.12725219 -0.033855207 0.1286491 0.20126061 -0.069921404 -0.21700196 -0.3614946 -0.075249635 0.3815311 -0.43777972 -0.2601182 0.10387866 0.05739966 0.19517843 0.06870765 0.2124421 -0.34090802 -0.24254951 -0.0014170111 -0.13695303 -0.27678898 0.43078575 -0.04729687 -0.28456256 0.26176125 0.097099215 -0.3416251 0.50370705 0.50985754 -0.055925775 -0.087889716 0.076061524 -0.44853 0.0313783 -0.06668969 0.2750325 0.55931115 -0.011682895 -0.019705696 0.16893242 -0.33618742 0.24542913 -0.31444278 0.038407326 0.45340312 -0.14963256 0.2504324 -0.070738405 -0.2622619 -0.3575875 -0.50859845 0.082674116 0.24765123 0.32497737 0.2796507 -0.1473642 0.17864719 0.026861265 -0.30955428 0.20241947 -0.056604277
10 -0.044874333 -0.096910894 0.61525595 0.20417848 0.0072152535 -0.30093664 -0.16791663 -0.15550554 -0.42120066 0.5733886 0.29576603 -0.36946666 -0.18986428 -0.050440133 -0.15904388 0.06448248 -0.28832677 -0.09138776 -0.2913529 0.19709285 0.11851825 0.43839544 -0.14536041 -0.47591785 -0.3311258 0.27695915 -0.17125711 0.41734457 0.03877842 -0.119329676 0.15997532 -0.40876406 -0.14688182 -0.19950244 0.05663871 0.090366215 0.14986408 -0.1194645 -0.10622622 -0.048504043 0.021032179 -0.004544642 -0.1789145 0.09509372 0.30835596 0.28771275 -0.078233 0.13170089 -0.37265927 0.019449288 0.18124695 0.14715919 0.0258488 -0.22336674 0.25148606 0.09574893 0.22287352 -0.21188152 -0.039028037 -0.107562445 -0.034185663 0.1824441 -0.13843077 0.22826923 0.14858012 -0.38966817 0.12659363 0.37751314 -0.19554196 -0.3986593 -0.31991437 -0.13315429 -0.13376816 0.26869592 -0.13878988 -0.28931332 0.011211498 0.08245061 -0.055061698 0.263199 -0.24843767 -0.10434324 0.2710683 0.030405654 0.02670812 0.048773218 0.3205203 -0.0998827 0.15491544 -0.026352772 -0.080520324 -0.019818684 0.27148426 -0.009022784 0.109512225 0.23702621 -0.2509715 -0.0869683 -0.21459715 0.043383293 0.010515104 0.044067707 0.1970393 0.29023296 0.09594523 0.0024930537 0.20060948 -0.11109539 0.06188858 0.03143822 0.071865834 -0.07414008 0.105408505 -0.0054105036 -0.21489549 0.07094971 -0.14531814 -0.087291576 0.058416266 0.07476738 -0.18256247 0.15048806 0.01608562 -0.03899944 0.0015858662 -0.32845303 0.19383003 0.25026873
62 0.045649182 -0.06450004 -0.26870644 0.07132599 -0.2469756 0.1960623 -0.15117635 -0.021227935 -0.11794744 0.069222964 0.18763842 0.36136052 0.1645509 -0.23673901 0.3828155 0.016603447 0.11034962 0.060314883 0.070547916 -0.05531993 -0.42050835 0.20332243 -0.014336281 -0.19902486 0.34400898 0.014686254 0.2338738 -0.35887083 -0.40125254 -0.35483462 -0.13642612 -0.0046599014 -0.04304601 -0.048929818 -0.06852355 0.2098897 0.34031987 -0.0682071 0.07248243 -0.25742248 0.17057726 -0.10651724 -0.44351685 0.23229259 0.30152112 0.45506504 0.16776131 -0.080443405 -0.1732735 0.32839975 0.030865075 0.34263098 -0.18002108 -0.07317256 0.09167189 0.03708995 -0.25388747 -0.06936594 -0.11018305 -0.42609024 -0.012175996 -0.2656311 0.22487406 0.10418187 0.17918234 0.01328866 0.23370016 0.12004757 0.058391917 0.10907946 0.19656593 -0.14701632 -0.07009145 -0.32382932 -0.12118193 0.49225962 -0.3994537 -0.2700905 -0.006710013 0.012158788 0.18159497 0.014804723 0.16003239 -0.2824298 -0.26481828 0.041486092 -0.05688663 -0.33651704 0.44861683 -0.123550035 -0.17742422 0.17447804 0.058799725 -0.37338775 0.5509565 0.51550066 -0.079586215 0.10122076 0.089741334 -0.39159584 0.14951113 -0.06700426 0.24341351 0.43347263 -0.0030265057 0.052563377 0.16440336 -0.31857973 0.16307856 -0.37594888 -0.020001868 0.7178165 -0.11945247 0.24987079 0.001973498 -0.30349475 -0.3588422 -0.40526164 0.14784084 0.35309502 0.40730205 0.2299433 -0.23434313 0.1094525 -0.06927613 -0.2700271 0.31775144 -0.075724676
26 0.06486535 -0.3219484 0.13977084 0.71201074 0.08365822 0.2570659 -0.072047964 0.09036043 0.011904235 0.019483821 0.096784234 0.10199245 -0.07464168 -0.029109944 0.32063836 0.6509896 -0.22974248 0.037923798 0.070295565 0.13428122 -0.10137575 0.28313503 -0.16338967 -0.2560443 -0.02626164 -0.0013494133 -0.010143746 -0.3007767 -0.19739862 -0.35373026 -0.32229146 -0.016217979 0.45615274 0.6851164 -0.04576284 0.23959374 0.41957915 -0.13952863 0.08364656 -0.0572093 -0.22687283 0.010888375 0.18051726 -0.19112821 0.04422362 0.31330094 0.038536876 0.011332373 -0.04385834 0.35559237 -0.1293581 -0.08972002 0.15259592 0.1377675 0.07950911 0.32603803 0.18355724 -0.16127896 -0.008853201 -0.15488525 0.024280807 0.1678257 0.5392074 0.0023834263 0.0065080053 0.38624918 0.11365494 0.24413222 0.037982475 0.14079994 -0.082555756 0.13366446 -0.5456621 -0.1601306 0.07179384 -0.23028103 -0.103894025 0.20660853 -0.020533746 0.032070078 0.13181522 -0.22883387 -0.11522028 0.4249793 0.32773995 0.30465868 0.16266207 -0.065981895 0.18193133 -0.043611664 -0.19483396 -0.22170216 0.18198398 -0.17407878 0.0098287845 -0.13758078 0.27128625 -0.047132645 -0.1377857 -0.3400372 -0.061415352 -0.06761566 -0.035031635 0.31145257 -0.11031993 0.20961307 0.0092217885 0.41793254 0.19187282 -0.32837597 0.10055462 -0.25163436 -0.08880401 0.10735836 -0.40302187 -0.38235402 -0.08210196 -0.17468077 0.010624837 -0.44003767 -0.39671037 -0.058549058 0.30119625 0.029073939 -0.20765753 0.18461463 -0.16109721 -0.16115817
117 0.2091879 -0.29929364 0.08683617 0.77500135 0.19853084 0.318077 0.028901655 0.05018 -0.00093639264 -0.20362596 0.008382085 0.07548671 -0.10219402 -0.073491715 0.2205243 0.5689376 -0.34054834 0.13421655 0.06240535 0.08857364 -0.11351002 0.27524373 -0.17472634 -0.29933912 -0.070380524 -0.117479734 -0.12308279 -0.10190832 -0.23199522 -0.3656115 -0.32238844 -0.06745091 0.42036253 0.66461605 0.07804574 0.25763842 0.49278527 -0.15347803 0.026873428 -0.16443714 -0.19049722 -0.046270125 -0.0403599 -0.13002533 0.16513436 0.20661198 -0.03927912 0.0092606675 -0.12772088 0.36245534 -0.046812773 0.045368634 0.24456133 0.16948445 -0.07105687 0.2293818 0.26252043 -0.25956947 0.04494019 -0.329062 0.03903366 0.14807272 0.5706678 0.08133804 -0.15003234 0.23214437 0.038418856 0.35034487 0.13230287 0.069873 0.002722947 0.018740337 -0.3355483 -0.3984962 0.012427517 -0.14808176 -0.16728836 0.24820769 0.051701713 0.02347065 0.19646966 -0.2959293 -0.110108 0.38967827 0.34413806 0.16220559 0.20043556 -0.055799764 0.24335328 -0.013862188 -0.014737947 -0.21399243 0.16531329 -0.013814196 -0.0060086576 -0.1503857 0.18805291 -0.05214519 -0.17236552 -0.43735424 0.020269388 -0.005873302 -0.014056434 0.35320133 -0.20062192 0.115736976 -0.02174351 0.47057396 0.035769407 -0.2779386 0.18792874 -0.27643427 0.03519541 0.061708502 -0.3086546 -0.5194843 0.03850338 -0.030790454 -0.023732344 -0.39652088 -0.31331444 -0.025490064 0.19167146 -0.035261966 -0.06655248 0.15593436 -0.23355964 -0.17445019
57 0.16372295 -0.41666085 0.04253483 0.7043822 0.11038872 0.26154524 0.053240806 0.10711264 0.051568177 -0.09613307 0.13807377 0.14926009 -0.15575676 -0.03487463 0.21252413 0.57645077 -0.33534402 0.2043419 0.031740595 0.07659715 -0.03156285 0.3514835 -0.2337708 -0.33199912 -0.045824517 -0.00227369 -0.11868759 -0.23473483 -0.16812778 -0.42658958 -0.27419648 -0.019204726 0.31903607 0.54678804 0.054878294 0.3129512 0.44238603 -0.13176723 -0.090051204 -0.19464967 -0.196234 0.007707889 0.006904865 -0.086000465 -0.028572787 0.12527119 0.005414048 0.008978743 -0.19291815 0.47825658 0.05529474 0.028039336 0.30997482 0.14766222 -0.11274809 0.19258386 0.059629854 -0.21703282 -0.10321378 -0.12402403 0.0592982 0.18764755 0.55167675 0.08418109 -0.15972659 0.27958608 0.10423007 0.3312807 -0.014812166 0.14471744 -0.07496403 -0.00972451 -0.5262788 -0.384469 0.004206067 -0.09876754 -0.29817876 0.08957265 -0.022960775 -0.02403057 0.08582409 -0.27102026 -0.19046272 0.27702275 0.30579674 0.15910295 0.22164242 -0.15759256 0.23756027 -0.03607996 -0.079221554 -0.22577995 0.18283981 -0.07633969 0.017625848 -0.15858878 0.2594445 -0.08873112 -0.1724934 -0.3389244 -0.05951502 -0.050917506 0.08591616 0.2749129 -0.19468969 0.09937505 -0.010114718 0.39546475 0.11633522 -0.21564853 0.20887749 -0.22303951 -0.07051683 0.06683965 -0.40006888 -0.5894831 -0.12598863 -0.11523039 -0.06640328 -0.45940056 -0.32186192 -0.11879239 0.27214786 -0.038298797 -0.14190169 0.11876121 -0.24969055 -0.18273161
51 -0.05684191 -0.2195071 -0.19955553 0.044241644 0.20200688 0.08458642 0.15614638 0.26619053 -0.28468004 0.10864199 0.21702549 0.30132213 -0.17230119 -0.23746032 0.3207023 0.068836346 0.10014317 -0.1647005 -0.29908544 0.03681518 -0.44067222 0.14967348 -0.09868186 -0.40196106 0.07840759 0.0729551 0.02258131 -0.13774458 -0.116287865 0.103560634 0.059270166 -0.044361353 -0.18658121 -0.055845164 -0.17067945 0.079444386 0.3211194 -0.27140465 0.14974503 0.005501142 -0.04535164 0.062962726 -0.5245191 0.18226053 0.27447012 0.14241816 -0.08647237 -0.099181995 -0.23362726 -0.04585406 0.20501189 0.28384387 -0.13498667 0.046973128 0.089306876 0.022585506 0.2901102 0.14175537 0.23489876 -0.5292652 -0.20728372 -0.18437392 0.055762146 0.246781 0.607142 0.1550833 0.23474355 -0.05114913 0.17084171 0.044990025 0.35791343 -0.16824128 -0.02179279 -0.112894975 0.23567033 0.243042 -0.4877029 -0.3089141 -0.1657573 0.0013858816 0.11175661 -0.17656656 0.038718615 -0.06485801 -0.24572614 0.20994434 -0.030329734 -0.24989085 0.17373677 -0.026763117 -0.12593216 0.118118204 -0.016824007 -0.48004758 0.06794201 0.3036873 -0.012676365 -0.08290841 0.22400886 -0.5377798 0.17912944 -0.048750732 -0.049257696 0.14644748 0.016871642 0.04390877 -0.32834354 0.104311585 0.13324328 0.012825109 -0.052937496 0.46162185 -0.003569262 0.37785456 0.19857238 -0.1335711 -0.14913271 -0.21869956 0.10886495 0.05832123 0.23930457 0.006493928 -0.20986778 0.48728457 -0.17581646 0.17847939 0.13308114 -0.08759996
24 -0.016482715 -0.2569936 -0.12362382 0.13354479 0.3086894 0.11083829 0.041149873 0.21666695 -0.30574033 0.1441485 0.31027615 0.3586988 -0.150468 -0.3533059 0.43020982 0.0023763364 0.13806069 -0.13060121 -0.20492543 -0.018036474 -0.452967 0.03252961 0.057945978 -0.23319317 0.042975895 0.062589124 0.21209167 -0.17221619 -0.14833799 0.15507056 0.25198394 0.06285396 -0.20815136 -0.03652071 -0.23962069 0.09381054 0.34746435 -0.38996738 0.014265344 -0.06151075 -0.12400339 0.06269156 -0.63409394 0.21851727 0.2557136 0.032891884 -0.005072063 -0.05429806 -0.38517657 0.038069114 0.35213023 0.27160832 -0.14502673 -0.09530391 -0.032609206 -0.21723384 0.24170725 0.12105549 0.11109071 -0.52867544 -0.4215931 -0.14520724 0.08927713 0.347302 0.41295588 0.101187535 0.2502387 0.034352485 0.09413377 0.11829333 0.20778807 -0.19382207 -0.11490395 -0.093056016 0.16327414 0.26612213 -0.46404076 -0.30564776 -0.15716161 0.07395081 0.16704588 -0.052395884 0.033467494 -0.084501885 -0.33032572 0.13061507 -0.038736437 -0.3338483 0.20133139 -0.16087179 -0.013996181 0.16867806 0.048291653 -0.40461367 0.04280469 0.4649099 -0.14836268 0.029158603 0.19318824 -0.44337928 0.049055547 -0.17847349 -0.13518454 0.09530738 -0.059433654 0.08797798 -0.28606072 0.0711285 0.14023255 0.028005889 -0.12323188 0.393313 -0.2325357 0.5890464 0.15660836 -0.15461756 -0.074559845 -0.34532788 0.21840395 0.008464951 0.26365578 -0.06504208 -0.1382172 0.43391642 -0.23383449 0.12896211 0.100792974 -0.08803071
34 0.057930183 -0.024015488 0.6419807 0.5010232 0.13837112 -0.14914791 -0.21017349 -0.16093782 -0.42412224 0.52228034 0.18252085 -0.49041307 -0.21778199 -0.040951487 -0.10627457 0.14264104 -0.1447916 -0.12999786 -0.11097977 0.18196672 0.2656129 0.3472142 -0.20089702 -0.39562336 -0.37999028 0.19118197 -0.2641538 0.2938342 0.109355494 -0.06678875 0.2124907 -0.2687849 -0.24135257 -0.17825393 -0.021621823 -0.09656036 0.14701533 -0.112916976 -0.21749033 -0.082245156 0.029216701 -0.13714448 -0.17032447 0.018370433 0.40619114 0.33731914 -0.1111322 0.20333743 -0.37431592 -0.0063492293 0.23110306 0.06905552 -0.048565887 -0.22651824 0.16279666 0.037806515 0.29429477 -0.09475992 -0.10250975 -0.082700215 -0.08994206 0.18067592 -0.09607499 0.23830745 0.2735716 -0.3162111 0.2094379 0.21709992 -0.09039925 -0.43699062 -0.24504742 -0.16049807 -0.03596831 0.30719525 -0.17835209 -0.14880966 0.020028668 -0.07188065 -0.06819889 0.27867967 -0.3152194 -0.08615506 0.26411843 0.017422626 -0.017460471 0.073776074 0.3958287 -0.1783883 0.21728961 -0.14274079 0.015680261 0.004071854 0.19562627 -0.030618869 0.24388263 0.44966188 -0.29738837 0.054571174 -0.28280604 0.13190895 0.13962308 -0.11575542 0.090778306 0.41358635 0.08180229 0.05980848 0.30204612 -0.14607601 0.08971192 0.023828747 -0.049725313 0.037722036 -0.033177488 0.06278362 -0.32523435 -0.13283582 -0.015512607 0.0026315502 0.094610915 -0.0012541882 -0.17671086 0.12981871 -0.00845049 -0.07035397 -0.069579095 -0.26801527 0.24363993 0.36476424
153 0.44424567 0.024479644 -0.00081297016 0.18819427 0.008983518 -0.14510296 0.30975056 -0.43814614 -0.06490827 0.25403407 0.27179503 0.0029967069 0.032294966 -0.44292936 0.27919465 0.3782621 0.02301655 0.0579639 -0.066591255 0.41860214 -0.5177408 0.17919847 0.07144058 -0.009778631 -0.21012628 -0.087252066 -0.4078376 -0.09694886 -0.22483917 0.06687907 0.133853 -0.18410976 -0.09732532 0.002467036 -0.17075664 0.12770815 0.08991678 -0.06481174 0.25640604 0.3605809 -0.2917513 -0.014102807 -0.3950236 0.0011574487 0.29572603 -0.16166306 -0.05635089 0.14006874 -0.6734783 0.014194229 0.26804796 0.1432371 0.15759869 -0.20270948 -0.12976226 -0.1018604 -0.023081055 -0.13874651 0.33027607 0.13337365 -0.430219 0.07675518 0.020018717 0.27191892 0.25891396 0.03375677 0.08486262 -0.23084366 0.051007975 -0.112760745 0.162604 -0.17187649 0.5398451 0.0060997987 0.18595317 0.33092418 -0.003250816 -0.091006495 -0.04649855 -0.16691203 0.36050162 -0.22303627 -0.21422675 0.18727934 0.2016242 0.32330918 -0.005040072 -0.13764389 0.22550982 -0.08183607 -0.22950429 0.33567053 0.24952102 -0.28389773 0.11818564 0.2896302 0.2568147 -0.18241696 0.44938046 -0.7403484 0.2593169 -0.21469326 0.27382016 0.43922874 0.094151825 0.030167136 0.009183063 -0.21838275 0.09747737 -0.071055315 -0.262536 0.23461509 -0.2257016 0.4379172 0.30413067 0.19632182 -0.10839154 -0.403623 -0.070567705 0.1083908 -0.12224291 0.24508353 0.08201032 0.28949332 0.11212521 -0.015236942 0.16916546 -0.4335141
140 -0.015347268 -0.11941247 0.63509953 0.28253618 0.09592776 -0.27559802 -0.21911253 -0.16145457 -0.37594217 0.6214611 0.41151538 -0.2859152 -0.17835395 -0.045480724 -0.13682471 -0.06820874 -0.2779171 -0.09078933 -0.19952056 0.26277354 0.18599032 0.32013974 -0.331952 -0.3915974 -0.5467181 0.25584605 -0.22111264 0.3770415 0.022724595 -0.031325556 0.14141898 -0.2929788 -0.03067648 -0.18885525 0.108107515 0.08144191 0.02663013 -0.041012775 -0.17180258 -0.057594173 0.03288897 0.021427818 -0.1749793 0.16632798 0.36343467 0.3801254 -0.1271128 0.14727278 -0.30472383 0.039018426 0.2300341 0.19457147 -0.046510726 -0.32727286 0.37815693 0.19389446 0.18556601 -0.18350609 -0.17353146 -0.19461517 -0.0024202552 0.18443242 -0.17258427 0.35774162 0.23902383 -0.2709927 -0.059234966 0.25063053 -0.18047966 -0.4398964 -0.17599662 -0.12691785 -0.07489174 0.26309055 -0.05193795 -0.3155001 -0.027468983 0.054529965 -0.048036452 0.22249834 -0.32159793 -0.054606967 0.19566198 0.08160932 0.12366751 0.006196101 0.29582238 -0.16241671 0.12063665 0.05631186 -0.052885145 0.074544124 0.19466032 0.12014768 0.15857004 0.31640616 -0.3278139 -0.13407451 -0.28016192 -0.11557209 -0.062001225 0.19773105 0.18766488 0.48612183 0.10139788 -0.012459932 0.2847088 -0.12986176 0.25010446 0.11739562 -0.014143364 -0.13807312 -0.047168933 0.13711712 -0.30274796 0.09508517 -0.051866017 -0.14336142 0.06972592 0.01872389 -0.236773 0.22276764 0.017404536 -0.111036435 -0.10345182 -0.41242206 0.17555146 0.41686627
69 -0.07532723 -0.1370861 0.31423348 0.049319964 0.13199301 -0.13430493 -0.25464323 -0.21440905 -0.21255413 0.7932126 0.18834509 -0.25771365 0.06713298 0.12671757 -0.23752916 0.20971572 0.019290395 -0.17594299 -0.03519785 0.25300547 0.28869262 0.45149925 -0.18401667 -0.4999685 -0.31945604 0.34400195 -0.1426642 0.32395864 0.039638564 -0.35444936 0.1904911 -0.50065106 -0.18644753 -0.22472784 0.08929345 0.063600205 0.024666563 0.020167671 -0.31616032 -0.037680157 -0.15094712 -0.05874724 -0.0072884406 0.0008365828 0.3488783 0.25620675 -0.085388 0.084748805 -0.3853692 -0.31802323 -0.010283464 0.13282737 -0.029150998 -0.0838458 0.32988247 0.039970867 0.3136492 -0.13140729 -0.12899554 -0.016370079 -0.16405123 0.1880185 -0.01905858 0.35572538 0.13279952 -0.30872086 0.03082424 0.27078307 -0.2961473 -0.14493707 -0.13997501 -0.12541984 -0.1794897 0.27281943 0.0031977564 -0.14717254 -0.22819424 -0.06664108 -0.15160371 0.20379849 -0.18297534 -0.11352458 0.00657324 0.14750181 0.041813467 0.09292989 0.19268702 -0.100993335 0.16665415 -0.0046573007 -0.03951509 0.11786237 0.22994 0.10479882 0.2239144 0.08432041 -0.2505207 0.08296043 -0.1791651 -0.08691985 0.1944106 0.055594806 0.12898508 0.39856064 0.15720509 0.15446447 0.2529422 -0.038850017 0.11045269 0.028271176 -0.14107811 -0.0134081375 -0.03783365 -0.11598681 -0.47422138 -0.15264477 -0.03813102 -0.26279935 -0.038310297 0.029284727 -0.43517107 0.16125992 -0.047256067 -0.041932978 0.15379786 -0.33613023 0.1701243 0.3978821
35 -0.11160637 -0.051795095 0.32192943 0.29895443 0.025396353 -0.07502606 -0.2072229 -0.27039513 -0.23386045 0.6548155 0.12291008 -0.39533034 0.13469236 0.045867782 -0.27880722 0.04452097 -0.16155455 -0.11459963 0.03615137 0.34358677 0.24841532 0.5673928 -0.27173576 -0.47319975 -0.28707924 0.414173 -0.11196005 0.37180606 0.078524165 -0.28504494 0.24122202 -0.5228434 -0.14844006 -0.13670696 0.051250312 0.08433989 0.021929538 -0.045367263 -0.29209888 0.15370448 -0.13922249 -0.15453863 -0.09498206 0.0032191777 0.43304858 0.27175513 -0.11918478 -0.0039185756 -0.40211144 -0.2893458 -0.050627224 0.21706404 0.04278955 -0.15726705 0.16103998 0.08571702 0.24745467 -0.03820401 -0.068369895 -0.0928527 -0.02520119 0.21422954 -0.07802761 0.47254026 0.34192118 -0.25120464 0.03386777 0.2827948 -0.32731676 -0.2772066 -0.049548276 -0.1586107 -0.11092802 0.3273466 0.042692896 -0.035287168 -0.2692833 -0.1682508 -0.14573258 0.33538207 -0.13356219 -0.13906983 0.0471245 0.2529646 0.02106309 0.04599493 0.2657343 -0.14857791 0.17278557 -0.08109721 0.063358575 0.23614335 0.26218468 0.050571647 0.31627694 0.1937258 -0.2583583 0.21110308 -0.24033166 0.12486183 0.14212912 0.04380496 0.041876744 0.2780679 0.016882997 0.07436083 0.2689534 -0.09324674 0.15809518 0.18790898 -0.07446943 -0.11831011 0.09313902 -0.110235274 -0.4162276 -0.16038416 -0.04778817 -0.21863256 -0.045702178 -0.02442015 -0.4197624 0.28337687 -0.0037176101 -0.016679557 0.12150449 -0.36633176 0.07780197 0.30095196
36 0.15604347 -0.3700038 0.05550093 0.63029015 0.09813723 0.1929428 -0.008057431 -0.100054964 -0.032057837 0.029336577 0.088311724 0.18103433 -0.14429493 -0.111946054 0.153197 0.4704222 -0.18867485 0.12427888 0.051985465 0.15716985 -0.049497355 0.29929394 -0.23255302 -0.37550393 -0.08699229 0.096177585 -0.09549118 -0.21073264 -0.27451614 -0.35222837 -0.21843316 -8.5013744e-07 0.38427886 0.64469826 0.15516648 0.21626374 0.42149216 -0.14908312 -0.031371772 -0.11149273 -0.24755251 -0.043096367 -0.0036089418 -0.161831 0.16946532 0.1904602 -0.12371378 0.02837194 -0.05358717 0.29698727 0.057421032 0.0062193577 0.21087196 0.23584011 -0.05377229 0.27446207 0.11154922 -0.20505188 -0.117078416 -0.1675668 0.1351039 0.09156342 0.6116044 0.09293446 -0.1834281 0.2972017 -0.09067338 0.32892832 0.029782334 0.20252708 -0.072158046 -0.06389634 -0.38353032 -0.34823713 0.0659237 -0.12889002 -0.16778168 0.064180635 0.08254798 -0.044921316 0.10441365 -0.25714207 -0.1757422 0.36460596 0.40245774 0.09763615 0.25361368 -0.039227765 0.2158124 0.119187154 -0.09710207 -0.13795362 0.22502364 -0.07735167 -0.06715632 -0.22215703 0.19777393 -0.06373107 -0.1525707 -0.4564665 0.02134971 -0.11644822 0.051095527 0.26875314 -0.15982202 0.22357681 -0.022923188 0.4005547 0.20465592 -0.3311669 0.19257222 -0.30117366 -0.07443645 0.107998334 -0.40861017 -0.47075525 -0.0657102 -0.096258484 -0.012285871 -0.43654424 -0.3257054 -0.1232102 0.37144518 -0.11329268 -0.24299757 0.16294847 -0.21053733 -0.22784422
3 0.086193256 -0.53465563 -0.29853776 0.3960855 -0.23870693 0.25966346 0.33697563 0.12716882 -0.4792816 -0.23353985 0.3040021 0.107674174 -0.1742375 -0.1064053 0.3043932 0.69756854 -0.13868998 0.15868892 -0.06821647 0.60876334 -0.19925076 0.594202 -0.5066537 -0.36983278 0.10966922 -0.24092606 -0.30111244 0.21846245 0.10503499 -0.35793215 -0.08753627 -0.070827425 0.27235553 0.5681161 -0.20123506 0.2481982 0.81268543 -0.51572645 0.18151176 -0.07857818 0.3799664 -0.056362446 0.25889313 -0.11442226 0.1399986 0.29727268 0.033711415 -0.16882612 -0.09121421 0.15851295 0.16346823 -0.19004053 0.25619063 0.10713691 0.34798804 -0.070612594 0.11539004 -0.28471273 -0.32998735 0.0665186 -0.32749104 0.02601061 0.3899877 0.386424 -0.15095527 0.32065132 -0.23290074 -0.010375441 -0.540617 0.00068349164 -0.2298982 0.11461669 -0.5042414 -0.12355521 -0.18128249 0.022383397 0.13145362 -0.20809028 0.0402406 -0.014278675 -0.0783646 -0.10687417 0.0049366234 0.026729599 0.5009975 0.068851866 0.34169045 0.46232766 -0.034045756 0.19947477 0.12413255 -0.42242852 0.18613507 0.3299859 -0.05584185 -0.016193705 0.06676844 -0.1154213 -0.091609426 -0.20625053 0.096665956 -0.10174953 0.25969976 0.25627458 0.007206917 -0.047621045 -0.1067104 0.13858882 0.06355974 -0.31262168 0.08292249 -0.0376519 -0.1255318 0.6889394 -0.20058323 -0.43264753 -0.037640054 -0.060871202 0.07310839 -0.4113344 0.1661279 -0.04341752 0.20253289 0.15134461 -0.4898889 0.1267737 -0.093662746 -0.2744
53 -0.29016903 -0.1882826 0.00852814 -0.17637484 0.1875015 -0.27411827 -0.35988486 -0.024722211 -0.15931337 0.50537467 -0.16417179 -0.29611394 0.07658128 0.22760299 -0.42233977 0.1311371 -0.14103442 0.07555417 -0.109280884 0.09597241 0.10881754 0.5254736 -0.118419886 -0.46047407 0.046299998 0.36148956 -0.26212543 0.38095385 0.0018892888 -0.14230652 0.12275568 -0.64257413 -0.048703056 0.09438455 0.0018872613 -0.17747772 0.10180136 0.20389034 -0.12897669 -0.29864153 -0.27470133 -0.23114875 -0.102221034 -0.043451604 0.3226574 0.3305346 0.101165675 0.12436955 -0.6602902 -0.07214373 -0.09646412 0.15729603 -0.06774633 0.03839348 0.33846033 -0.23854074 0.47273612 -0.24353462 0.08357428 -0.019418195 -0.27773485 0.12451972 -0.19345233 0.11471536 -0.04391819 -0.23803957 -0.018902712 0.28485218 -0.51789176 -0.07685006 -0.29006538 -0.25008532 -0.08593601 0.15903649 -0.20955332 -0.004950402 -0.2360753 0.090493485 -0.30462456 0.20098135 -0.15191446 0.0913768 0.3537747 0.005103411 0.03614046 0.105043344 0.24705362 -0.4301037 0.2764621 -0.31114683 -0.01981451 0.12798023 0.20738494 0.10523753 0.36382905 0.046854388 0.014757095 0.2313703 -0.10513311 -0.09806055 0.04670172 -0.018916557 0.16003338 0.44836876 0.15288283 0.1280701 0.35342363 -0.23382129 0.038842488 0.09099072 -0.14943747 0.17423642 0.044987004 -0.10485955 -0.459367 -0.024699656 -0.19704744 -0.22854204 0.011233465 0.064368464 -0.42079383 0.15777668 0.11819371 -0.09571093 0.21571928 -0.32200116 0.06621815 0.13287519
136 0.42659453 -0.11402981 -0.10713841 0.17802554 0.06282436 -0.020218305 0.22633907 -0.41432416 -0.07409409 0.27156192 0.13422588 0.09458218 0.015395603 -0.42302886 0.36945242 0.272878 0.027373 0.13661471 -0.11677808 0.3540638 -0.581903 0.21346623 -0.06491398 -0.1143966 -0.21362418 -0.07141263 -0.35360903 -0.15771884 -0.29219866 0.050344653 0.039639182 -0.09178276 -0.04673592 -0.040265135 -0.16422582 0.13967264 0.1950787 -0.10946691 0.33803558 0.30690694 -0.30256477 -0.008033038 -0.45097703 0.019213453 0.2758897 -0.07756842 -0.086797625 0.22428359 -0.5570376 -0.14926359 0.43315396 0.12260499 0.15624663 -0.16638836 -0.113607906 -0.10604067 -0.016616894 -0.19480033 0.30270487 0.10697407 -0.36859366 -0.018442452 -0.09761053 0.26280752 0.27641416 0.071668886 0.089027636 -0.16629249 0.038047366 -0.15436436 0.1893256 -0.31787464 0.4927888 0.07062185 0.15215243 0.34300137 0.05328396 -0.13445494 0.02977167 -0.16507363 0.34915024 -0.149245 -0.16096477 0.1987287 0.14643295 0.20654646 0.033291224 -0.1206319 0.24943006 -0.09081632 -0.16824773 0.3552406 0.27773204 -0.2794526 0.052166063 0.17626178 0.34169474 -0.21846528 0.4719539 -0.78869396 0.15377998 -0.25747076 0.33113593 0.34873793 0.15178157 0.1427181 -0.037009664 -0.2860812 0.10254687 -0.14267361 -0.19326554 0.24789341 -0.23085356 0.46181 0.35668525 0.32563072 -0.10416924 -0.36446357 0.007146797 0.13418935 -0.06528943 0.21785036 0.046625715 0.26558712 0.019837027 -0.11377349 0.21713538 -0.37393463
144 0.053537216 -0.6609992 -0.33271125 0.6542284 -0.12953767 0.21073978 0.29862404 0.090947844 -0.32384923 -0.34712029 0.21835147 0.15700553 -0.25710928 0.012996104 0.31608796 0.8008979 -0.25935182 0.2486345 0.046078064 0.6161766 -0.22505754 0.6585362 -0.5042306 -0.3099543 0.12803537 -0.28005037 -0.26325628 0.3353386 0.17270227 -0.23228231 -0.17519377 -0.17978975 0.33279133 0.6220913 -0.25265953 0.19429047 0.6989492 -0.38742828 0.20177165 -0.104328424 0.46566415 -0.14074576 0.2714782 -0.04498705 0.0810055 0.34247205 0.05083805 -0.0664105 -0.15678108 0.17048143 0.25807062 -0.23491532 0.2046291 -0.022020124 0.33346048 -0.012880671 0.08316921 -0.2885678 -0.3508848 -0.03492973 -0.34104368 0.0089915935 0.34328297 0.40055296 -0.110070586 0.2883964 -0.23390691 -0.027507478 -0.5899525 0.008738994 -0.037558313 0.09841714 -0.4779832 -0.2365779 -0.05947937 0.13924022 -0.024789842 -0.22668411 0.11359872 -0.061364427 -0.012250465 -0.0978831 -0.003561673 0.036866944 0.40268198 0.08265852 0.34498453 0.3645658 0.0013851749 0.23913407 0.036723685 -0.35283056 0.1801066 0.26191545 0.15022705 -0.007419116 0.088776015 -0.11608994 -0.10245096 -0.19401206 0.04215127 -0.051811855 0.17616418 0.15389849 -9.95423e-05 -0.079151966 -0.07755155 0.16415985 0.14774781 -0.12110939 0.08574016 -0.23256081 -0.1464419 0.5364694 -0.28787094 -0.3535824 -0.020610768 0.0209129 0.12701854 -0.456131 0.20370738 0.0488489 0.19950381 0.1586719 -0.39087167 0.041285552 -0.19231233 -0.17397252
172 0.094184764 -0.6450741 -0.43657377 0.35919204 -0.30958167 0.22160031 0.40305758 0.10395507 -0.36684576 -0.23111689 0.28778175 0.35065892 -0.28388616 -0.22151037 0.27439263 0.6105816 -0.17268145 0.21002561 -0.018968977 0.6307283 -0.08103183 0.61255175 -0.45765638 -0.5286978 0.16688728 -0.17844525 -0.44584036 0.1825477 0.0924486 -0.2750657 -0.18328944 -0.18260804 0.4221194 0.67702633 -0.2564654 0.23193657 0.78594846 -0.4415838 0.28116313 -0.14241658 0.47454923 -0.10623976 0.33617333 -0.046948873 -0.048060887 0.30489132 0.03978061 -0.17717123 -0.08213958 0.074896015 0.2969869 -0.2738531 0.17205814 -0.020163726 0.2155233 -0.041879438 0.07022101 -0.35740685 -0.30447286 0.1026024 -0.2945083 -0.09899073 0.24291982 0.35838816 -0.21573274 0.33489978 -0.2962837 0.10251201 -0.6040997 -0.04772767 -0.14523353 0.06957161 -0.56505 -0.22407478 -0.14921112 0.15868753 -0.08736902 -0.2543854 -0.03303196 -0.17556393 -0.1378902 -0.16224909 -0.051205575 -0.04491833 0.45721564 0.07412944 0.2947789 0.34624392 -0.023755893 0.21898301 -0.015188867 -0.34696934 0.13650265 0.28223354 0.09895214 -0.15824187 0.019283196 -0.19042483 -0.1335196 -0.12746818 0.1148164 -0.05335913 0.3065691 0.26805145 0.058139194 -0.039561618 0.009559156 0.089767255 0.09748217 -0.17113014 0.080564395 -0.05782437 -0.13843994 0.6779867 -0.35165334 -0.45869082 -0.08265724 -0.08749122 0.14363082 -0.38033372 0.18249078 0.021538747 0.18153374 0.21618798 -0.5385718 0.17657404 -0.12314502 -0.17576177
104 0.08133596 -0.59446454 -0.3977713 0.43354344 -0.23189029 0.15822287 0.23708202 -0.0098863095 -0.3754692 -0.23369278 0.24350394 0.18848716 -0.087177694 -0.10870016 0.21512009 0.5659966 -0.21175534 0.17032073 -0.0289535 0.5421774 -0.13495034 0.6177566 -0.40774894 -0.34279683 0.11822858 -0.15429364 -0.27777308 0.3163163 0.13490355 -0.33456773 -0.13592379 -0.17847772 0.31375203 0.607962 -0.15529658 0.24421594 0.7806755 -0.45345595 0.28382164 -0.11661225 0.484378 -0.15168025 0.20311634 -0.05968909 0.22325158 0.36765528 0.07221491 -0.1589348 -0.045288663 0.108623445 0.20506375 -0.2086907 0.22860613 -0.005603969 0.23448974 -0.025636194 0.068329535 -0.37500456 -0.20844981 -0.004847893 -0.3408455 -0.02000901 0.35603034 0.43003145 -0.21880975 0.40960032 -0.27369156 0.03783122 -0.3853786 0.013850374 -0.13631597 0.011151896 -0.5316992 -0.23136254 -0.13595486 0.043386687 0.050834015 -0.1868671 0.08955336 -0.061584324 -0.018198846 -0.13206555 -0.042853937 0.020455107 0.5343584 0.061295256 0.3367936 0.50062317 0.0014281188 0.2454295 0.10209834 -0.37968925 0.16086829 0.29079017 0.08339955 -0.0033802562 0.08274837 -0.10128789 -0.19722936 -0.19491506 0.09682266 -0.04671139 0.29696313 0.21488282 0.04527211 -0.024034085 -0.06036525 0.14614834 0.010717551 -0.21777987 0.14199409 -0.14730936 -0.099350646 0.6469606 -0.20953108 -0.48623458 0.089748204 0.030174822 0.08978536 -0.49991563 0.11060632 0.015183317 0.15335985 0.14453374 -0.5568128 0.1170651 -0.2545126 -0.20001824
49 -0.050927136 -0.39173675 -0.25530404 0.014494457 0.2289321 0.079438 0.020871485 0.07600067 -0.165873 0.22767152 0.23763743 0.3457607 -0.17385647 -0.28424087 0.24014866 -0.0087013645 0.040781017 -0.11166449 -0.16483124 -0.051293015 -0.50416976 0.08433733 -0.1259793 -0.29002872 0.034589306 0.17109835 0.046084065 -0.09059441 -0.23061469 0.13197434 0.17126052 -0.07931901 -0.19311933 -0.005781602 -0.10091058 0.15629621 0.2499101 -0.20485999 0.16521676 0.052172605 -0.18832214 0.1889103 -0.6017588 0.1867123 0.23914936 0.05902089 -0.06474556 -0.07008458 -0.292517 -0.0020729592 0.24304496 0.322172 -0.31581715 -0.09075059 -0.014352144 -0.07399708 0.3066454 0.1187279 0.121801354 -0.571107 -0.2943754 -0.22140677 0.081791915 0.34761122 0.4997602 0.15715423 0.105470896 0.009254908 0.110769525 -0.06489676 0.34758434 -0.25416014 -0.10154851 -0.14809354 0.2040386 0.13775207 -0.54905707 -0.20829965 -0.015077846 -0.054177158 0.20699336 -0.12736596 0.059781753 -0.010660326 -0.22795296 0.20993157 -0.030732902 -0.2537795 0.14766839 0.03465495 -0.018768799 0.12512839 -0.0413806 -0.31517932 0.13159624 0.304734 -0.0024386314 -0.056639973 0.14756998 -0.6358783 0.14155497 -0.020460263 -0.032718576 0.14148253 0.09812063 0.0022408403 -0.30322576 -0.108984634 0.13851881 -0.04637604 0.076958776 0.36247864 -0.073617525 0.3723958 0.31129885 -0.08347757 0.007928776 -0.30978516 0.055398457 0.06833889 0.30472586 -0.08075722 -0.17949794 0.35751766 -0.21995331 0.13021387 0.080820315 -0.05045343
95 -0.02132688 -0.18380383 0.5289487 0.3811995 0.0651271 -0.23340054 -0.24724042 -0.18915467 -0.30741978 0.5960216 0.34255612 -0.35869694 -0.2026966 -0.07920401 -0.2123025 0.08934802 -0.19465926 -0.16503817 -0.21448275 0.14134113 0.2445047 0.36018226 -0.20905374 -0.5194411 -0.3940892 0.29030293 -0.24696846 0.28882334 -0.006106454 -0.021649003 0.20164861 -0.4195335 -0.0373151 -0.13338713 -0.056796115 -0.040653095 0.12390754 -0.045551725 -0.013657754 -0.06542867 -0.0034536168 -0.044236843 -0.06925188 0.051696863 0.28080505 0.27608213 -0.1485874 0.19524387 -0.27889377 0.043247044 0.2401251 0.038401645 -0.14538684 -0.30544865 0.10555843 0.16461219 0.16048566 -0.2105795 -0.08182495 -0.02866991 -0.06473211 0.22648261 -0.17088762 0.24647057 0.22112991 -0.40665194 0.074041754 0.31281182 -0.061739992 -0.47113612 -0.1888439 -0.09965519 -0.14159673 0.2981912 -0.07830256 -0.20742463 0.046110973 0.025676304 -0.038294334 0.20805292 -0.30324286 -0.20928997 0.30745542 0.029010937 0.018561669 0.13294621 0.44800255 -0.21498431 0.21383938 0.020076983 -0.09127921 0.13671845 0.117611036 -0.042530112 0.31653738 0.36167154 -0.22971721 -0.13605961 -0.32112342 -0.02575324 0.11344518 -0.037056707 0.063348465 0.38715044 0.11013987 0.05610404 0.25680983 -0.18724187 0.19128396 0.12018077 0.053613238 -0.11956782 -0.0076745343 -0.037254468 -0.42569318 -0.11348644 -0.1077753 -0.040576603 0.1326543 -0.07078884 -0.10510819 0.059000593 0.031639606 -0.1781058 0.020155892 -0.23797628 0.13079254 0.41085708
41 0.39847007 -0.16284579 0.077867664 0.20839043 0.055651046 -0.15356046 0.31681213 -0.4707285 -0.10074123 0.14309971 0.17828134 0.14417619 0.041632365 -0.36349797 0.168727 0.27502728 0.14322625 0.08383572 -0.15108803 0.47252834 -0.5704375 0.15749872 0.035976224 -0.09711734 -0.2694659 -0.026771283 -0.3267479 -0.124067105 -0.37562636 0.17576833 -0.0026342687 -0.0911275 0.046074927 0.19344364 -0.06749952 0.073626265 0.10398041 -0.18975496 0.19930704 0.3079897 -0.3083683 -0.022543218 -0.41862693 0.079383396 0.2404846 -0.152996 -0.1453911 0.028939417 -0.40418568 -0.02204476 0.26526958 0.11623481 0.047614284 -0.26398006 -0.20629692 -0.043946747 0.093643375 -0.15291928 0.21308577 -0.12597328 -0.38586873 0.064583644 0.037796646 0.27642792 0.29702502 0.16861138 -0.029328752 -0.17263904 0.048064854 -0.10751111 0.3147169 -0.08012283 0.3768514 -0.19677827 0.2988888 0.4093226 -0.017805532 -0.05223603 0.036758482 -0.22908628 0.2919334 -0.19006822 -0.11357674 0.2201191 0.15450113 0.14828892 0.08142639 -0.17675734 0.15054971 -0.10748457 -0.14587384 0.34274876 0.28078228 -0.24556948 0.2233545 0.16753587 0.13766593 -0.12513758 0.49457934 -0.7904876 0.13715905 -0.12090777 0.21162571 0.48568603 0.12497162 0.08883819 0.066780664 -0.38129517 0.19579187 -0.01693457 -0.351766 0.28514588 -0.41237816 0.44579455 0.33884102 0.46992183 0.051811397 -0.36637914 0.021339627 0.17725557 -0.11435907 0.22547716 0.066716805 0.22749741 -0.007326511 -0.046823937 0.24824098 -0.38762993
7 -0.01489085 -0.3497906 -0.24082007 0.08284543 0.043433774 0.00094431156 -0.227415 -0.061808158 0.022904728 0.20275474 0.32548282 0.4427486 -0.025988303 -0.34823993 0.27967858 -0.030479841 0.05093781 -0.118481144 -0.048829626 -0.10723642 -0.31636772 0.2007586 0.09966068 -0.37596533 0.12222399 0.16942002 0.104475416 -0.18785396 -0.29019672 -0.19142225 0.07483998 -0.11704756 0.023483472 -0.053276867 -0.13434255 0.0074711996 0.23292035 -0.029738564 0.075478084 -0.059905995 0.029537875 0.004386353 -0.32612717 0.19675526 0.28628647 0.4263065 -0.04358833 0.0479153 -0.09384582 0.12693337 -0.12924337 0.26595408 -0.28351602 -0.15540072 -0.080214165 0.14897193 -0.07737219 0.037891746 0.13385506 -0.37551877 -0.16614175 -0.28158468 0.12888925 0.23261587 0.28153786 0.12694176 0.077787615 0.04290392 0.16755697 0.14600617 0.30715773 -0.24015602 -0.08825325 -0.32817915 0.022700164 0.37620974 -0.52515 -0.28407294 -0.112573035 -0.048236206 0.24512626 -0.13834521 0.047458686 -0.21962598 -0.23501132 0.23851684 -0.13730107 -0.27385858 0.17639843 0.18057692 -0.10843571 0.10841349 -0.08170283 -0.46797985 0.41712624 0.49951112 -0.13258465 -0.006798575 0.11678487 -0.34355712 0.33088315 0.019490417 0.07643175 0.11797289 0.0058435267 -0.09508018 -0.13960773 -0.17499317 0.086354524 -0.18302195 -0.004851456 0.48132423 -0.04594239 0.3830082 0.17542847 -0.2190719 -0.1710808 -0.3300262 0.22495528 0.10302665 0.42505366 0.00646706 -0.21956901 0.25213256 -0.15521495 0.055890996 0.15710999 -0.03582446
54 0.43183976 -0.19764602 -0.2523186 0.21278904 -0.041064445 -0.098947264 0.26822993 -0.47482544 -0.10051768 0.32589474 0.21655001 0.10090567 -0.0012762494 -0.53263587 0.20367847 0.28321725 -0.031580314 0.16694914 -0.020866433 0.34561646 -0.6418565 0.16364072 -0.07097318 -0.055804595 -0.25635883 0.04031507 -0.55092126 -0.10709254 -0.3082602 0.08432538 0.064653575 -0.3184555 -0.04495163 -0.098376565 -0.12075672 0.14600842 0.13932806 0.0060620587 0.38653362 0.29324144 -0.20913334 0.034513813 -0.3727692 0.050393034 0.16637881 -0.09902887 -0.0858492 0.18385674 -0.56062686 -0.0529818 0.2705478 0.13795063 0.0579275 -0.2328483 -0.15350154 -0.16408445 -0.07381835 -0.1249809 0.38865262 0.18323553 -0.39359325 0.106534526 -0.047457468 0.21096812 0.17943306 0.044792417 0.09511324 -0.14354345 0.17130288 -0.1570574 0.1590788 -0.18921661 0.5356791 0.103893615 0.2262361 0.31136256 0.013877264 -0.042133845 -0.037514225 -0.23446606 0.2978674 -0.22500901 -0.1567417 0.2463979 0.121715166 0.2692445 0.026297983 -0.12953532 0.1378175 -0.1121827 -0.2928542 0.32226968 0.20771806 -0.35517767 0.06353278 0.1730159 0.26600066 -0.23336588 0.45573708 -0.71534365 0.16548882 -0.11234574 0.27053198 0.4888629 0.19890562 0.11762231 0.001125754 -0.23240575 0.14240843 0.010005913 -0.21562558 0.20478828 -0.2646319 0.3878738 0.35182193 0.20885246 -0.06466189 -0.49465486 0.048683193 0.12685002 -0.088137805 0.23725712 0.07958142 0.2856452 0.037295714 0.06115971 0.08712447 -0.36097327
165 -0.036134932 -0.5465315 -0.29459903 0.4082539 -0.2839554 0.2254112 0.32152215 0.11905673 -0.49250668 -0.2707445 0.22908603 0.1413169 -0.14487101 -0.14696774 0.28916055 0.6685131 -0.10180535 0.20809512 0.14618586 0.6427656 -0.19390012 0.5634516 -0.53347105 -0.29228497 0.0870659 -0.23017977 -0.39072192 0.26957408 0.11682938 -0.42974302 -0.13890032 -0.20459545 0.25954154 0.7091963 -0.25355223 0.24818873 0.82192373 -0.44232062 0.15864387 -0.21506977 0.45403194 -0.11426862 0.35028812 -0.10142657 0.23508954 0.36669555 0.109881975 -0.1868626 -0.033591293 0.13288014 0.20877858 -0.33263162 0.21669757 -0.021405008 0.3196138 -0.03191125 0.23209251 -0.25379872 -0.25305483 -0.027315043 -0.35249123 -0.041938566 0.39843425 0.3879332 -0.047404844 0.40719917 -0.23692542 -0.117154665 -0.63302577 -0.15285021 -0.12332662 0.19546205 -0.52434266 -0.23245995 -0.10870456 0.094997756 -0.025188224 -0.13793221 0.05406734 -0.0048084203 -0.060518306 -0.12817466 0.051251974 0.0058277003 0.53323287 0.2078829 0.22536096 0.43175888 0.00069479755 0.16972724 0.09925464 -0.5006566 0.13868701 0.34249383 0.07638664 -0.019996235 0.22622208 -0.019455122 -0.07912612 -0.2107917 0.13205548 -0.15391728 0.19019327 0.2435398 -0.03412046 -0.051432792 -0.14689401 0.21237709 0.02715447 -0.3424661 -0.060510054 -0.09501735 -0.15597415 0.64451873 -0.19864593 -0.51676095 0.019777862 -0.06382778 0.0074350806 -0.46414903 0.0069693686 0.104965486 0.14894988 0.21801089 -0.39957616 0.22014987 -0.05801353 -0.27835113
66 0.42359257 -0.13599177 0.092983924 0.1701711 0.19460359 -0.040254015 0.3590118 -0.3149399 -0.1626512 0.16918072 0.13124543 0.15421863 -0.107732825 -0.5200245 0.18138707 0.16397317 0.17823647 0.054172862 -0.11789054 0.3689532 -0.5159379 0.01864372 0.019944163 -0.041400332 -0.30311784 0.01700085 -0.46130246 -0.1864563 -0.24087691 0.11987258 -0.02796027 -0.00087211875 -0.050798886 0.15131524 -0.17439853 0.12975186 0.13230787 -0.06392003 0.17704196 0.29933044 -0.24081331 -0.04024253 -0.38187167 0.04233884 0.29338378 0.028459549 -0.04452808 0.0461769 -0.43953785 -0.12881616 0.29429588 0.034387615 0.09812125 -0.32461807 -0.21675165 -0.03749476 0.07873365 -0.17177945 0.23109052 -0.013242477 -0.39482683 -0.017707447 0.0032902434 0.17193785 0.3391304 0.13754542 -0.012242873 -0.16151518 0.018931758 -0.3456065 0.28520176 -0.12453099 0.4073208 -0.10279789 0.1945328 0.33079347 -0.08272334 -0.029072702 -0.05700942 -0.17572777 0.16941585 -0.23318091 -0.12602177 0.05576157 0.17211753 0.1975079 -0.12638007 -0.14752698 0.21104065 -0.0081297215 -0.2431233 0.28864667 0.11680877 -0.28587314 0.18265899 0.21039866 0.1903911 -0.13257468 0.43670273 -0.8042867 0.17750369 -0.11542745 0.30431575 0.59779805 0.14446558 0.025411362 0.015162083 -0.3194888 0.13368304 -0.12599039 -0.38076678 0.3210982 -0.36387873 0.40194106 0.32550064 0.2857043 0.01637397 -0.3591696 0.007761553 0.13622719 -0.21508075 0.21637225 0.04685053 0.3257525 -0.029628925 0.02795388 0.2540105 -0.27111635
91 0.27644953 -0.10684453 0.12042436 0.18700314 -0.03265688 -0.124062955 0.2766771 -0.44671413 -0.09731337 0.19963741 0.03444372 0.24056722 0.005781737 -0.39129224 0.12222411 0.230103 0.108568534 0.08575942 -0.00057187484 0.17894752 -0.48358095 0.071418874 -0.10697905 -0.058904234 -0.25859576 0.0008601102 -0.401436 -0.13409777 -0.21467236 0.14670344 -0.0513143 -0.14360406 -0.047354065 0.07939997 -0.115351975 0.108085066 0.19380662 -0.14737856 0.25138277 0.11765848 -0.30803773 -0.07132577 -0.3707801 0.038094107 0.4037277 -0.13235652 -0.18108764 0.06439988 -0.4027909 -0.059370726 0.39089525 0.026286094 0.11652459 -0.203013 -0.18070833 -0.088136405 0.08943341 -0.1670973 0.33797118 0.002334903 -0.3940036 0.124797694 0.022278892 0.26027352 0.4244011 0.10299939 0.050900757 -0.30846867 0.107945 -0.23246326 0.29430985 -0.12451801 0.34812242 -0.1699743 0.24202149 0.32781655 -0.18452735 0.030586975 0.11495003 -0.06914071 0.27537188 -0.13731833 0.02359813 0.15440111 0.1669334 0.22213612 0.0632416 -0.085477866 0.047801346 -0.12727001 -0.037508283 0.18094885 0.20610332 -0.22654665 0.17470331 0.15998195 0.31783903 -0.13846685 0.48130235 -0.77357996 0.37237546 -0.10916395 0.22017989 0.4099997 0.17061694 -0.028430121 -0.093712546 -0.3167701 0.10290879 -0.050748248 -0.19623283 0.29839844 -0.079738475 0.33526406 0.4120731 0.19836545 -0.011078006 -0.47575882 -0.041904505 0.1436953 -0.085521474 0.33741987 0.043874733 0.17227113 -0.04239688 0.08419292 0.30335793 -0.432068
40 0.012440639 0.037027113 -0.3276714 0.06380786 -0.27490473 0.10671047 -0.1266087 0.0085112285 -0.08050279 0.16530848 0.1220261 0.32557285 0.20517838 -0.2506891 0.345234 -0.061474998 -0.021525484 0.05481701 0.054282397 -0.12512144 -0.3204262 0.27264237 -0.003113301 -0.16088352 0.3119093 0.15593067 0.23766415 -0.217607 -0.39616352 -0.28552783 -0.16173936 -0.20034297 -0.13447623 -0.0657369 -0.13540451 0.22231224 0.3075967 -0.117760286 0.1545582 -0.19530007 0.1831341 -0.16456617 -0.5004501 0.25311008 0.28698775 0.6411178 0.12237432 -0.12358983 0.009104622 0.3090985 -0.074747145 0.2820269 -0.28799772 -0.066354364 0.21915337 0.0459827 -0.29028118 -0.026718348 -0.14835069 -0.5090291 0.06600851 -0.35898426 0.28691807 0.083047226 0.29181218 0.024401268 0.15258926 0.08662536 0.0015028749 0.11005836 0.2153411 -0.09499694 -0.14229262 -0.4034302 -0.04767071 0.4561635 -0.46046793 -0.28470796 0.08312244 0.0919807 0.11242533 0.016845161 0.2190959 -0.32993788 -0.2510207 0.029646616 -0.11472527 -0.2902504 0.3710018 0.06337649 -0.26157007 0.28421387 6.521049e-05 -0.46057773 0.44998342 0.47561902 -0.055209167 -0.09930557 0.20919432 -0.4478964 0.120960966 -0.03343664 0.23588198 0.46379575 -0.10491305 -0.034071073 0.09364909 -0.2516928 0.1926339 -0.35058522 0.09888965 0.52722204 -0.13905245 0.34803832 -0.02285318 -0.121921 -0.38193235 -0.38418067 0.1585466 0.20552473 0.28797215 0.17428981 -0.108166076 0.17234798 -0.084700376 -0.25022188 0.122968815 -0.13329846
50 -0.08183386 -0.2341698 -0.24843672 0.011244317 0.18337025 0.021196572 -0.12153477 -0.051637396 -0.019604988 0.08901718 0.34828436 0.44761184 0.011720251 -0.46366113 0.34322783 -0.030474482 0.07933111 -0.14207952 -0.008212447 0.04088623 -0.4002144 0.1292884 0.024100635 -0.28428277 0.13008223 0.10278374 0.024288787 -0.19510853 -0.30479354 -0.18071325 0.09480284 -0.11736442 -0.07390827 -0.054841634 0.0026659688 0.07240626 0.21726054 -0.082147986 0.1413305 -0.10609172 -0.08538227 0.03397876 -0.45467272 0.20809889 0.35569683 0.38949612 0.06110252 -0.050124492 -0.14044046 0.012579435 -0.05045585 0.22658226 -0.33834085 -0.2129776 0.044911236 -0.07450891 0.07777316 0.018548671 0.18240367 -0.5372529 -0.18662478 -0.39830762 0.10812236 0.054648455 0.32540208 0.052591518 0.14636473 0.00344761 0.11509343 0.07687731 0.26824582 -0.29180568 0.01986626 -0.45114958 -0.14936286 0.3645719 -0.5249408 -0.17100534 -0.04822885 0.16827105 0.21985102 -0.05298406 0.15207459 -0.17219238 -0.24585807 0.20617908 -0.057937894 -0.23963816 0.18994695 0.18354014 -0.012149865 -0.017737808 -0.017204238 -0.42825842 0.30770004 0.4542716 -0.14001577 -0.11423953 0.13669777 -0.41194952 0.34595633 -0.066286795 -0.019501237 0.17464614 0.021513853 -0.12904714 -0.2521367 -0.077134416 0.1647637 -0.29640067 -0.06576119 0.41735986 0.025684418 0.29594842 0.11818184 -0.20253007 -0.15449175 -0.3066256 0.106746644 0.104777455 0.2618499 0.013244758 -0.17896056 0.23090121 -0.08561073 0.096825786 0.18968026 -0.034673423
77 -0.093552135 -0.021577505 0.38153967 0.21188092 0.10965106 -0.21019478 -0.18815205 -0.1872918 -0.28374687 0.71322274 0.009846176 -0.34496716 0.10809202 -0.018809747 -0.18780757 0.13376908 0.015575891 -0.12196892 0.11478001 0.18849473 0.2893526 0.37122294 -0.21275316 -0.38508603 -0.44174367 0.35238644 -0.26762185 0.3266258 0.033408273 -0.26651657 0.196531 -0.48416206 -0.24228805 -0.1916113 0.0536169 0.05054005 0.061232954 0.058204032 -0.28420007 -0.15526924 -0.1263818 -0.19978327 -0.0727107 -0.06827499 0.53969216 0.46519598 -0.1094921 -0.012264891 -0.3701831 -0.22334978 -0.0654861 0.15786895 0.018221652 -0.1594028 0.24859214 -0.045129694 0.29106888 -0.05404118 -0.07661314 -0.033805385 -0.16341344 0.20200776 0.040571038 0.27721143 0.10212573 -0.39247382 0.009779983 0.17071119 -0.30930936 -0.19465652 -0.2334928 -0.029180048 -0.20651707 0.3769642 0.09242962 -0.09995318 -0.33967623 0.07816806 0.015986525 0.33569738 -0.1370584 -0.071243495 0.19744177 0.1320578 0.12000554 0.084077016 0.17553438 -0.109887645 0.19962968 -0.011107368 0.016858386 0.13909441 0.27307335 0.00616919 0.1623687 0.19508138 -0.22246732 0.22051463 -0.18256101 0.0536003 0.16890074 0.03151974 0.1532677 0.39163792 0.031337302 -0.00080668426 0.26076958 -0.04094008 0.08243205 0.0101656 -0.20963754 0.016691223 0.004032617 -0.031170962 -0.5091569 -0.20222919 -0.024179986 -0.2903363 -0.026736917 -0.049339153 -0.45294407 0.27454868 0.030050185 -0.0729493 0.09895862 -0.30382517 0.23879828 0.3390688
162 0.4417667 -0.17503984 0.10687683 0.19157803 0.1066289 -0.16044477 0.26303807 -0.4161366 -0.047306493 0.27026182 0.097938366 0.13769925 -0.044269763 -0.30674344 0.26448318 0.24750674 0.20737672 -0.018973222 -0.15963973 0.3709233 -0.5425496 0.07766202 0.08108763 0.091045566 -0.23059797 -0.094018064 -0.31450757 -0.07336114 -0.23491935 0.17610186 0.02826359 -0.03046896 0.017843595 -0.059703127 -0.16864148 0.14270157 0.18768798 -0.16362396 0.31589988 0.18740244 -0.335599 0.006916888 -0.40471992 0.06928717 0.22324254 -0.029331936 -0.13474262 0.1358947 -0.42806244 -0.008717007 0.25392935 0.14554197 0.053831637 -0.2685386 -0.22186916 -0.14124167 0.044645928 -0.12268925 0.33300662 -0.029174533 -0.42967555 0.017236322 0.083273456 0.2460587 0.32933015 0.09647203 0.13009465 -0.14796585 0.11694013 -0.14885953 0.14796397 -0.2550598 0.18862207 -0.18963535 0.1853232 0.23519462 -0.11624974 -0.06487812 0.08197981 -0.062430255 0.3216214 -0.13962762 -0.07221506 0.11480414 0.13464606 0.20228253 0.07287232 -0.114587925 0.06108046 -0.008942599 -0.14225915 0.29262078 0.14950833 -0.33884984 0.17274903 0.22235891 0.2560832 -0.18289529 0.38862687 -0.88800937 0.22030902 -0.12154448 0.28732094 0.48233938 0.25215858 0.07730508 -0.057300042 -0.27368268 0.110350214 0.012272374 -0.17209327 0.3677044 -0.35467273 0.47592682 0.39786595 0.29675105 0.01514505 -0.43982038 0.021053104 0.11874495 -0.1522835 0.16248722 0.032590743 0.15528762 -0.060296323 -0.06820013 0.14478692 -0.3589618
175 -0.024627006 -0.59592664 -0.23343356 0.45152164 -0.32032207 0.16277723 0.26549178 0.119014226 -0.3947358 -0.3330537 0.2531112 0.15591335 -0.19199744 -0.050525364 0.33743253 0.7441513 -0.12568195 0.15836824 0.05730699 0.74104404 -0.2903067 0.64156944 -0.35943893 -0.37738606 0.13714477 -0.31385726 -0.28597188 0.23711501 -0.02848458 -0.35460743 -0.19708627 -0.16283453 0.36922547 0.6290234 -0.25291708 0.22135198 0.76624 -0.4365415 0.22498257 -0.07123158 0.51214975 -0.10938528 0.24289724 -0.0266871 0.07994505 0.37021804 -0.022021169 -0.09371644 -0.10212713 0.06811254 0.2598062 -0.264041 0.30618525 -0.0928705 0.3201683 0.089176305 0.1710905 -0.27050883 -0.21332002 0.035751224 -0.29765138 -0.013478033 0.3585942 0.41376528 -0.13540263 0.2472639 -0.19011673 0.033486675 -0.5890277 -0.0854246 -0.11760292 0.099231444 -0.50923586 -0.26748165 -0.096112356 0.050963525 -0.080513805 -0.22006065 0.029977519 -0.05704257 -0.097325526 -0.1416517 -0.017452441 0.09060269 0.40976703 0.1490753 0.38479835 0.38079026 -0.07639257 0.16547069 -0.0065397625 -0.4318659 0.13833602 0.32043955 0.12661028 -0.074918345 0.08867804 -0.07379547 -0.12886468 -0.16739999 0.085740186 -0.045642357 0.18267818 0.13798836 0.01611477 0.0557093 -0.07393826 0.21518058 0.06302812 -0.129562 0.026102446 -0.17686649 -0.20746614 0.59939206 -0.31441116 -0.483094 -0.096303925 -0.060122173 0.10588207 -0.3773156 0.08183055 0.054482836 0.22859013 0.17963238 -0.44677806 0.15705322 -0.17993551 -0.2887789
32 0.06731056 -0.54150164 -0.33043164 0.37353152 -0.24836022 0.20816424 0.39987367 0.026250212 -0.38141334 -0.24426608 0.17650543 0.13516875 -0.13639875 -0.11519917 0.15592493 0.6414873 -0.2489454 0.2020292 0.12873638 0.4746108 -0.04533985 0.59075767 -0.54116905 -0.28714073 0.055684384 -0.2342584 -0.48907346 0.3092493 0.20181577 -0.29775307 -0.16048858 -0.19913462 0.25016707 0.6142513 -0.35113132 0.28264832 0.81487566 -0.46937057 0.28553385 -0.07796153 0.48713908 -0.09022888 0.3360029 -0.10153783 0.08876181 0.355034 0.11290329 -0.16326061 -0.15896979 0.21091418 0.24427699 -0.26124197 0.15037048 -0.11311795 0.28280503 -0.04164617 0.094293326 -0.3263645 -0.40458283 -0.043951437 -0.4569968 -0.05089856 0.4048891 0.49185556 -0.20816046 0.36975932 -0.24879923 0.0043746918 -0.582818 -0.12175004 -0.1445463 0.16845906 -0.61792064 -0.1284543 -0.11802022 0.06432503 -0.11701795 -0.15169893 0.1484073 -0.09839367 -0.015112203 -0.115640685 0.043881074 -0.03161285 0.45044932 0.19998232 0.20643127 0.3755155 0.0420946 0.1374908 0.02195309 -0.46871662 0.10061853 0.3051031 0.09514462 -0.056895114 0.21433246 -0.08452056 -0.21939749 -0.2125081 0.15257525 -0.092126004 0.27519408 0.24008249 -0.0046128514 -0.08620629 -0.09729525 0.16709708 0.06574315 -0.2372279 0.0847296 -0.09818052 -0.17435369 0.70289266 -0.27814347 -0.56880784 0.022244222 -0.1126084 0.064271316 -0.47413197 0.03326305 0.0260097 0.1912492 0.17984071 -0.537595 0.16650335 -0.14159974 -0.099640846
93 0.16291673 -0.37677792 -0.09449851 0.5401462 0.19300185 0.24869812 0.07944772 0.0021251217 0.003821499 -0.10851846 0.073544584 0.08816892 -0.12139696 -0.0545515 0.18584108 0.5313782 -0.2666907 0.17198019 0.048111927 0.036392484 0.0063339756 0.33196926 -0.26373312 -0.40644887 -0.14084725 0.09808037 -0.13740698 -0.21153478 -0.23593181 -0.4019595 -0.25374255 -0.14424269 0.23307204 0.4156141 0.18042123 0.2593093 0.34468424 -0.14029078 -0.12966666 -0.20255889 -0.21222934 0.0031218056 -0.06906131 -0.11737995 0.08107862 0.20188358 -0.090572536 0.036547936 -0.0798504 0.42509124 0.033731885 0.0007858772 0.14849524 0.13156576 -0.08041333 0.1970645 0.1510909 -0.22362292 -0.080552645 -0.17451368 0.0686553 0.1708924 0.64225125 0.05828054 -0.14532883 0.3369847 0.060309477 0.2914797 0.09725862 0.05691984 -0.13281022 0.0011468915 -0.43523064 -0.4030821 0.025975615 -0.21558839 -0.15916778 0.218793 0.07425899 -0.08887563 0.084240906 -0.24571927 -0.18551847 0.34539822 0.3260881 0.11879113 0.2293906 -0.019777767 0.16016147 0.0049307337 -0.15055099 -0.25165436 0.24491923 -0.07686872 -0.105263814 -0.17801386 0.28204116 -0.08452906 -0.19434649 -0.4171524 -0.041338693 -0.11496807 0.14234781 0.40061757 -0.1767873 0.14465727 -0.051357694 0.3870688 0.13093136 -0.32189736 0.2474035 -0.24043298 -0.111531325 0.11392655 -0.34043494 -0.5053532 -0.0046646106 -0.17258026 -0.05055413 -0.49413428 -0.40299943 -0.20497696 0.3392131 -0.009776513 -0.2012285 0.15176442 -0.28684235 -0.2336671
22 0.12354169 -0.59771264 -0.4375293 0.51060194 -0.27595666 0.32194614 0.35918564 0.095495485 -0.42686918 -0.28248596 0.16120397 0.12802093 -0.25929523 -0.15490781 0.24825361 0.6167978 -0.15775485 0.1866082 0.06589346 0.58392423 -0.12774245 0.6323752 -0.44405743 -0.367306 0.032063093 -0.28089207 -0.43853024 0.33283046 0.057669446 -0.41724497 -0.16363072 -0.22667474 0.37585515 0.7039188 -0.22302972 0.33904722 0.8603061 -0.5167736 0.24168637 -0.1952 0.4663638 -0.17849146 0.35676697 -0.11616003 0.04904903 0.3692081 0.06649144 -0.07012539 -0.08003074 0.12573233 0.30162928 -0.21201877 0.15883182 -0.00013705713 0.22865462 -0.11173231 0.068463795 -0.27247417 -0.31331626 -0.083384834 -0.34742635 -0.1168288 0.3566154 0.3685293 -0.2630349 0.22681737 -0.30339968 0.13704331 -0.56868315 -0.012424514 -0.24531667 0.063824646 -0.5359868 -0.13628446 -0.18475823 0.009413369 -0.02387315 -0.14381811 0.17220426 0.0419408 -0.01683427 -0.10007141 0.024566935 -0.024247412 0.47957358 0.06540147 0.26065755 0.29109928 -0.0026007644 0.22564344 0.089344114 -0.37927872 0.16918762 0.36104593 0.05992036 -0.15425432 0.11869376 -0.11166043 -0.10958816 -0.2711625 0.14220695 -0.21928816 0.31922853 0.25434425 0.0020351915 0.015604643 -0.032641947 0.12657261 -0.034193844 -0.23589405 0.013065972 -0.110031664 -0.19575185 0.73740983 -0.2122197 -0.515051 0.10694625 -0.10107947 0.12736116 -0.42622295 0.15115868 0.07462386 0.13904059 0.21628572 -0.4697006 0.13145125 -0.13490245 -0.23571408
79 -0.031827953 -0.4082097 0.009151831 0.7165391 -0.18356913 0.26767159 0.21131754 0.12914464 -0.34556437 -0.13660644 0.07523499 0.09509539 -0.20562056 0.015778782 0.26920086 0.5226292 -0.15236145 0.18078856 0.06633744 0.368951 -0.04946444 0.33625764 -0.36291403 -0.3167972 -0.058252446 -0.17346402 -0.17491019 -0.013857038 -0.0353932 -0.3579007 -0.21502452 -0.050993223 0.22062238 0.42891908 -0.1394178 0.15040521 0.5444394 -0.27540728 0.017167976 -0.11685626 0.21627268 -0.24445578 0.16045982 -0.14288446 0.22968718 0.40452507 0.115363955 -0.16613345 -0.026510742 0.06933037 0.16828029 -0.14770952 0.2571679 0.1482056 0.3625211 0.014625378 0.16447423 -0.36994895 -0.12559693 0.004585165 -0.21104003 0.012750541 0.5432252 0.28082708 -0.1559582 0.32689187 -0.0019100937 -0.061833028 -0.4199241 0.062744915 -0.14588629 0.15449949 -0.3826242 -0.33124146 0.12967359 -0.030410422 -0.008863294 -0.13711922 0.1907488 -0.013801527 0.036742054 -0.059998274 -0.01884403 0.10531197 0.3639454 0.017471934 0.24138966 0.48377267 -0.011743729 0.16487673 0.050342996 -0.13135043 0.3578888 0.10117458 -0.034192573 -0.12338149 0.19603968 -0.028658092 -0.06816721 -0.29091987 0.0915585 -0.14920013 0.23412538 0.21962392 -0.10921162 0.15496299 -0.139699 0.34466556 0.012999153 -0.26651344 -0.015672907 -0.14901184 -0.11397405 0.477669 -0.3980616 -0.5159443 0.12906253 -0.028733362 0.101906024 -0.5421816 -0.12054053 0.13594641 0.26937604 0.14818767 -0.4979704 0.1473911 -0.12228529 -0.16964334
73 -0.0117695555 -0.51766294 -0.03820349 0.7542127 -0.08235119 0.39623442 0.027923087 0.18623726 -0.06150658 -0.16281024 0.07302252 0.25384638 -0.08944411 -0.0253185 0.2142471 0.5320225 -0.2495195 0.1739636 0.13965106 0.14092888 -0.18508579 0.2222216 -0.35848367 -0.50183374 -0.23660555 0.03409378 -0.13899301 -0.24208349 -0.3472141 -0.44702268 -0.2164085 -0.029886786 0.32535282 0.48021653 0.099626616 0.19157363 0.366424 -0.21897541 -0.10496619 -0.04307387 -0.007220206 -0.060808692 0.14934987 -0.2137739 -0.01584525 0.22633018 -0.11222683 -0.015388201 0.112398915 0.1906193 -0.025378743 -0.010802878 0.118046805 0.20364667 0.28937533 0.24895887 0.10516689 -0.25098318 -0.12943237 -0.11832656 0.06608492 0.15113392 0.67293125 0.117520876 -0.083995104 0.20042692 0.036534354 0.26131988 -0.06275307 0.022047646 -0.153776 0.11344824 -0.45264602 -0.43515208 0.12065389 -0.31866804 -0.061080314 0.21001218 0.19530241 0.079614714 0.12019448 -0.18006638 -0.16046321 0.5282727 0.32055464 0.20146997 0.37987325 0.032880142 0.12117509 0.07995756 -0.057302143 -0.11053602 0.3858883 0.05281156 0.043506436 -0.23639555 0.18032111 -0.0026690143 -0.062199093 -0.46569297 -0.001923553 -0.022965789 -0.026975464 0.29871234 -0.065411635 0.3037758 -0.034629323 0.3542603 0.15416595 -0.2379572 0.12790096 -0.27277842 -0.1236906 0.22760524 -0.37165117 -0.47445622 0.079259224 -0.36217263 0.06368111 -0.42223483 -0.3922487 0.035383333 0.25298482 0.008206272 -0.2158763 0.1207617 -0.19973376 -0.2544117
149 0.012363994 -0.42052752 -0.11333651 0.58068055 -0.18690771 0.2312547 0.19215661 0.19287004 -0.40128773 -0.3024773 0.16731589 -0.023868557 -0.1956321 0.08081829 0.32211003 0.62851316 -0.07645996 0.17224395 -0.021105468 0.55120033 -0.24255748 0.44770494 -0.30665007 -0.34273633 -0.10410828 -0.22835295 -0.25051156 0.05688533 -0.019807559 -0.43308353 -0.1840435 -0.08622819 0.21621083 0.47117648 -0.13345636 0.12448815 0.5756906 -0.35853183 0.035465166 -0.12406991 0.38395217 -0.19596456 0.20832425 -0.14290683 0.22510253 0.43685618 0.011763401 -0.12858844 -0.024249097 0.0924191 0.13847628 -0.14471082 0.2415971 0.1156689 0.35414815 -0.04706054 0.12446674 -0.2933402 -0.18821384 0.08627175 -0.21797208 0.102197036 0.45055178 0.16971277 0.028150447 0.28007668 0.020088952 -0.08946903 -0.36583826 -0.026122093 -0.14698577 0.18994163 -0.41468474 -0.30303928 0.07834498 0.0017186068 -0.011739697 -0.1467646 0.17302899 0.123897955 0.017537754 -0.079536855 0.001947314 0.21138732 0.46145073 0.08235152 0.40641978 0.4032297 0.065169916 0.16400914 0.06884876 -0.2608239 0.37396443 0.19254223 0.043037836 -0.07340563 0.19804356 0.05176555 -0.1154998 -0.2724806 0.011932755 -0.1415842 0.22108586 0.16136852 -0.14359213 0.07781634 -0.14927042 0.3735575 0.0497236 -0.28289235 0.009127316 -0.08059481 -0.14565778 0.60668284 -0.31737226 -0.553105 0.09812409 -0.087447055 0.15473655 -0.4872905 -0.020576756 0.038796294 0.25663888 0.17853343 -0.4838555 0.109979846 -0.1677543 -0.3117628
31 -0.0016855908 -0.3978001 -0.31824625 0.00025416672 0.26035818 -0.015631272 0.04540724 0.27099398 -0.2502575 0.21235277 0.30188617 0.2393386 -0.08573683 -0.22761175 0.31749585 -0.022404851 0.16585746 -0.06866769 -0.21819422 -0.027760722 -0.49042812 0.118509665 -0.06861633 -0.23641735 -0.08228135 -0.0016012883 -0.05481612 -0.14556085 -0.21956953 0.10168022 0.17388348 0.028992822 -0.13902026 -0.08223066 -0.2954681 0.072678275 0.3600204 -0.2071627 0.17789485 0.06949102 -0.12166275 0.11848749 -0.54370517 0.12946254 0.14169042 0.2699397 -0.012934153 -0.057245098 -0.079234414 -0.034667842 0.17879404 0.35697234 -0.21546747 -0.012083501 -0.047763865 -0.09278028 0.13740715 0.1678091 0.26850304 -0.4510293 -0.23841342 -0.20210102 -0.077522874 0.2795212 0.58061254 0.10236515 0.18942547 -0.019087119 0.0728327 0.087309316 0.24144669 -0.28889483 -0.08029546 -0.06387241 0.3079643 0.197245 -0.53128755 -0.40415633 -0.11036555 0.025326977 0.18232588 -0.2092712 0.020099258 -0.024205077 -0.20219442 0.18752307 0.098918736 -0.30084875 0.09430411 0.10574516 -0.018627403 0.102895655 0.07576676 -0.37530848 0.05618361 0.36145943 0.018168105 -0.0572067 0.20489545 -0.6288207 -0.008421038 0.005273576 0.018909894 0.13061525 -0.048789732 0.11259361 -0.3075897 -0.0012862956 0.020111317 0.06631779 -0.01424048 0.43405044 -0.13158327 0.55162483 0.18110447 -0.12519322 0.044027634 -0.28449988 0.13005263 0.010778332 0.06480356 -0.05104338 -0.12543666 0.34154525 -0.2156304 0.027769888 0.07863883 -0.028168995
23 0.04901196 -0.38244116 -0.2677744 0.06464845 0.22874856 0.0058985315 0.1193618 0.06936351 -0.26157334 0.08046628 0.13678116 0.28797132 -0.18266487 -0.2727665 0.2658304 0.016628524 0.09107014 -0.16103931 -0.26362032 0.0015555689 -0.3732381 0.002663354 -0.053069975 -0.28248903 -0.089640014 0.14211947 0.019933911 -0.07488004 -0.17083812 0.17957753 0.11755385 -0.10415294 -0.15070434 0.003636274 -0.18020718 0.19284631 0.3085021 -0.18778594 0.07135937 0.017374247 -0.15938485 0.1316217 -0.5435563 0.2099866 0.18730873 0.13024536 -0.0008824644 -0.18851659 -0.1760885 0.0072747087 0.19061951 0.24613406 -0.2651829 -0.076709464 -0.10805439 -0.06835938 0.2792802 0.099691086 0.22108941 -0.60124224 -0.24403949 -0.15553366 0.076256506 0.29912105 0.5789063 0.1484456 0.20447963 0.05204151 0.0952729 -0.02448129 0.34472048 -0.15128246 -0.18461812 -0.16549061 0.34453058 0.26389694 -0.5832956 -0.23405008 -0.047191318 -0.008088488 0.14983882 -0.26911888 0.098444074 0.0074339136 -0.21989179 0.23506519 0.024115963 -0.21125148 0.07138379 0.0068961196 -0.05456275 0.12513602 0.16919664 -0.40919253 0.03414509 0.31573057 -0.1257284 -0.09928185 0.2949099 -0.5326782 0.07043939 -0.026424667 -0.038785852 0.14757939 0.01681845 0.06110173 -0.35926795 0.029614957 0.11008604 -0.001428893 -0.1270656 0.35407314 -0.13421331 0.5755594 0.2576562 -0.017353285 0.048457794 -0.31398344 0.13703336 0.041761156 0.30042917 -0.060064103 -0.25635663 0.5592657 -0.20498566 0.20025715 0.15166223 -0.015175265
25 -0.10294535 -0.13978064 -0.23475379 0.04550085 -0.08734019 0.04660895 0.03621934 -0.019300478 -0.1169766 0.06268874 0.35339734 0.34229127 0.043496367 -0.34943253 0.40408218 -0.04636098 0.025116045 -0.13196352 0.1335296 0.007780356 -0.4188968 0.19873153 -0.008559788 -0.31269073 0.18051122 0.04961985 -0.04811451 -0.12546284 -0.16854352 -0.24635932 0.13130501 -0.030465188 -0.019587347 -0.021854427 -0.03110987 0.06391967 0.27592346 -0.047895182 0.10727943 -0.1663467 0.112369604 0.028521018 -0.37363273 0.11767086 0.30314788 0.38220462 -0.12676385 0.017777074 -0.25997216 0.08440223 -0.1521495 0.323053 -0.28262153 -0.11903948 -0.0442968 -0.0027831886 0.1071648 0.16417141 0.075907715 -0.47245234 -0.21187903 -0.25896704 0.18024372 0.15755244 0.4173706 0.0757498 0.2119042 -0.11534978 0.30082732 0.07636697 0.29040903 -0.09980095 0.079458766 -0.3202048 -0.05220027 0.36987358 -0.41701615 -0.072067514 -0.043159112 0.16669273 0.29228315 0.08398124 0.055971205 -0.07834192 -0.26227096 0.20096329 -0.12744021 -0.21225184 0.25797275 -0.028178612 0.0042954558 -0.0025720838 -0.046667147 -0.36634818 0.40038073 0.35394585 -0.11623191 -0.005801123 0.15042476 -0.34332624 0.17807023 0.055915393 -0.15329313 0.19079477 -0.016104544 -0.12515786 -0.092163846 0.031049931 0.21321096 -0.12229799 -0.049459193 0.3402112 -0.03451913 0.17378445 0.120946296 -0.15679698 -0.19855914 -0.3805921 0.18705525 0.2698389 0.27997202 0.11227262 -0.179275 0.26891237 -0.03751309 0.07892582 0.25697714 0.0069914334
163 0.19022028 -0.023077104 0.53393525 0.080361925 -0.32559657 -0.006154377 -0.25576386 -0.07135854 -0.16490372 0.36805403 0.22364181 -0.12345735 -0.39225134 -0.19712369 -0.12286213 -0.38404265 -0.4211365 -0.02929967 -0.16126578 0.21109352 0.38508847 -0.08997041 -0.05708294 -0.36265662 -0.47174042 0.21899998 -0.3200853 0.14856617 -0.036763225 0.0009913457 0.16425067 -0.04173519 0.1305665 -0.17282453 -0.17379428 -0.007685045 0.25685072 -0.10944605 -0.058831353 -0.023257196 0.23834498 0.12786222 -0.16413338 0.1065039 0.03101705 0.4252845 -0.35386837 0.3201517 -0.35558793 0.20012236 0.288647 0.1613867 0.119588986 -0.09430441 0.104299426 0.29077813 0.17471561 -0.14018749 0.0070127086 -0.18978173 -0.00043883294 0.28954116 -0.029537542 0.42717645 0.027223697 -0.38314703 0.05986094 0.46079633 -0.49009904 -0.5916355 -0.28266746 0.041942324 -0.1035023 0.22917773 -0.422814 -0.02676032 0.19219397 -0.021980021 -0.07716817 0.17176375 0.029819822 -0.34593844 0.35396963 0.20630205 0.11424684 0.21733642 0.5384714 -0.36200407 -0.039057802 -0.31191647 -0.095879644 -0.28148374 0.4443281 0.060996808 0.10510209 0.5826543 -0.43874696 -0.61170644 -0.10166788 -0.09473646 0.23053421 -0.08642263 0.15590453 0.69876605 0.36376747 -0.018409044 0.32641488 0.07525968 0.37083635 -0.05890349 -0.1811701 -0.17149527 0.123689674 -0.009182174 -0.41138017 0.06631309 -0.35191736 0.002081616 -0.028126191 0.004257979 0.14828633 0.33982024 0.37544745 -0.13982971 0.122535706 0.1627491 0.32724226 0.14744177
115 0.08959858 -0.66756755 -0.4323699 0.55927116 -0.3503655 0.22894455 0.3167299 0.16299361 -0.44956207 -0.38616398 0.27385536 0.17342676 -0.2851329 -0.036133237 0.32686085 0.7310688 -0.21320622 0.3012464 0.047285754 0.66094583 -0.24867329 0.62485284 -0.3274754 -0.48998693 0.10938011 -0.2417217 -0.36229572 0.32984656 0.036698148 -0.400835 -0.17915569 -0.30763686 0.32654747 0.6011307 -0.2355277 0.1914575 0.76093733 -0.34353802 0.15369442 -0.2565223 0.5797688 -0.13755691 0.34467405 -0.04168709 0.15941502 0.43760923 0.01813313 -0.015178403 -0.15123662 0.10760075 0.16640481 -0.278753 0.20889933 -0.029912544 0.30313227 -0.09851923 0.18404633 -0.30382192 -0.23692606 0.00808639 -0.33490247 0.058448665 0.25229532 0.30259833 -0.18653199 0.32179466 -0.20316204 -0.023780938 -0.44057766 -0.021996437 -0.058696337 0.21095473 -0.45504406 -0.28275523 -0.09404317 0.10025717 0.11654404 -0.1570217 0.08842703 -0.07527119 0.0038467671 -0.12112068 -0.041659106 0.08415933 0.42430496 0.08857009 0.34947369 0.40346918 -0.09000323 0.18501146 0.100448936 -0.43307814 0.20057227 0.33276927 0.06359289 -0.082221255 0.11432807 -0.09580166 -0.07751807 -0.17918505 0.039986685 -0.13178468 0.19906098 0.18561131 0.026301911 0.036237292 -0.05161087 0.1856613 0.031910334 -0.16240957 -0.05898311 -0.17174704 -0.12597272 0.5669771 -0.1985734 -0.51491165 0.084468156 -0.06012703 0.17077217 -0.389656 0.16026509 0.15156454 0.103010714 0.22062185 -0.34769118 0.10053596 -0.1347949 -0.20118207
39 0.062103808 -0.28782794 -0.29436636 -0.043623358 0.21288325 -0.015223167 0.05000145 0.14393051 -0.30453202 0.24681291 0.5938565 0.34830803 -0.052605618 -0.24254464 0.3573498 -0.0036523296 0.07648718 0.07207724 -0.23497936 -0.059052944 -0.4774203 0.08029565 -0.052575395 -0.27357653 -0.0313438 0.019161113 0.08037581 -0.05177719 -0.2387449 0.16391431 0.15710846 -0.076005034 -0.08813742 0.09094045 -0.20138 0.2540789 0.2708599 -0.273339 0.019712139 -0.022633944 -0.076825276 0.27770334 -0.48450607 0.20673148 0.11090368 0.010697297 -0.016478626 -0.12439536 -0.28910846 0.18542318 0.19200774 0.31450126 -0.27209595 -0.12753204 0.010263608 -0.14694914 0.27528733 0.25543377 0.10372545 -0.56229216 -0.3021184 -0.09264056 -0.06281625 0.34837598 0.39888227 0.15521191 0.17518164 0.04216076 0.027941259 0.032022774 0.3178603 -0.1133098 -0.030996872 -0.16564156 0.4031676 0.21495776 -0.5042903 -0.23942687 -0.18411034 -0.08612396 0.14064279 -0.22234257 -0.0015161261 0.040296596 -0.25874516 0.24578817 0.022616066 -0.38648504 0.024834905 0.013718759 -0.09129161 0.040747073 0.031990185 -0.2416391 0.022175437 0.23513304 -0.122744694 -0.019929627 0.17506711 -0.60094297 0.08219063 -0.0044576037 -0.13859783 0.18507895 -0.0792866 0.04718416 -0.2021719 0.059136346 0.11880766 -0.0028642209 -0.08655427 0.3713344 -0.10907537 0.5180635 0.27975217 -0.13562073 0.049647957 -0.36724022 0.17995253 0.1404916 0.33419192 0.022701155 -0.26510912 0.40663353 -0.15767428 0.033336367 0.13995275 0.015548754
160 0.08860829 -0.5447062 -0.33968782 0.5167035 -0.3262616 0.13898535 0.32456434 0.018409407 -0.47614086 -0.24542962 0.21116744 0.17739253 -0.14785397 -0.08792329 0.33556226 0.82875025 -0.22115012 0.2904526 0.09047767 0.60867083 -0.193584 0.60772026 -0.49024287 -0.4329395 0.11853272 -0.27396765 -0.33078712 0.22957408 0.15055391 -0.18967931 -0.22965124 -0.22481114 0.3104412 0.5778812 -0.2770263 0.1538776 0.7656571 -0.45305473 0.24829109 -0.24242425 0.50903785 -0.16414048 0.25888258 -0.054513466 0.20025468 0.36770436 0.0090425005 -0.14758721 -0.019821534 0.15171131 0.18570615 -0.27744603 0.16438237 -0.010190705 0.30602893 -0.007836721 0.07479732 -0.177 -0.25611323 -0.0019828565 -0.2935352 -0.0049958457 0.41323355 0.33050838 -0.101841144 0.40749162 -0.2057329 -0.116666995 -0.4434479 0.0013068579 -0.089382775 0.24074085 -0.527979 -0.24953139 -0.10509443 0.17802517 -0.0010023783 -0.18527308 0.13908058 -0.0876138 -0.008800184 -0.018179687 0.048504822 0.094091006 0.41894928 0.09152453 0.31349552 0.5249062 -0.1464438 0.09212795 0.06904543 -0.51619226 0.12720855 0.32153434 0.06305837 -0.053498607 0.091122955 -0.09688122 -0.16641486 -0.16216587 0.087926924 -0.025283353 0.16810991 0.3135224 0.029080624 0.0178723 -0.005686917 0.2046838 0.14774664 -0.17440088 0.06430569 -0.1228188 -0.108852744 0.5612998 -0.30411774 -0.43217352 -0.019202312 -0.055979166 0.13490474 -0.365888 0.08784615 0.1830518 0.24645576 0.091201335 -0.4153545 0.1547375 -0.1568114 -0.19340053
85 0.38835424 -0.14581227 0.0076214634 0.16114438 0.058293894 -0.10918854 0.2787496 -0.40777913 -0.017800244 0.20235339 0.18378666 0.21106292 0.019850487 -0.44108468 0.31268585 0.24155933 0.17858015 0.18554483 -0.057597045 0.28178948 -0.5788253 0.12302183 -0.04123537 -0.04578084 -0.24314691 -0.036356844 -0.3577613 -0.1516852 -0.2279424 0.106040575 0.08720473 -0.024418714 -0.05282049 0.09870506 -0.1467922 0.011279356 0.17348634 -0.07067094 0.13162196 0.10315062 -0.307395 -0.09897342 -0.24097843 -0.024921536 0.28642645 -0.226665 -0.14266892 0.16708823 -0.4913373 -0.05363961 0.3180001 0.10926764 0.14575915 -0.19814666 -0.20800458 -0.05795703 0.00023289473 -0.043593027 0.22183277 0.15476437 -0.40732637 0.10669338 0.007987943 0.16825245 0.4283374 0.11024379 0.043856714 -0.23699196 0.07336263 -0.17597057 0.22344 -0.066486806 0.32169917 -0.12487914 0.17414752 0.27714202 -0.023791185 -0.008700909 0.022702072 -0.1476223 0.31580874 -0.17331667 -0.10375152 0.20381778 0.19507185 0.31601372 0.14739048 -0.26756284 0.10815803 -0.1801417 -0.07451417 0.2019461 0.20000568 -0.25058624 0.26633602 0.17656285 0.27618018 -0.14089014 0.40733454 -0.8811843 0.25206962 -0.20612143 0.18092597 0.52259845 0.17602827 0.09718731 -0.07926201 -0.34379873 0.1468161 0.04533672 -0.2982584 0.34098867 -0.27081868 0.48163843 0.366946 0.191724 -0.02758589 -0.49524552 0.0085060485 0.08972202 -0.14741597 0.28681576 0.08116123 0.23854451 0.04496967 -0.06081273 0.30383542 -0.3113988
37 -0.05843453 -0.25352272 -0.17184359 0.011476236 0.12320249 -0.11071989 -0.049838398 0.0686834 -0.30493227 0.33518398 0.3182945 0.4032113 -0.03317667 -0.28328755 0.3408296 -0.079489626 0.17360352 -0.049815223 -0.22538783 0.021654291 -0.5420789 0.07024231 -0.016158855 -0.29791588 -0.04225287 0.013709867 0.04827919 -0.070289135 -0.1571719 0.23002659 0.22095126 -0.03351556 -0.110579915 0.08271026 -0.18377537 0.16966613 0.28587112 -0.38580522 0.041004747 -0.089061745 -0.0794322 0.1514769 -0.46939313 0.17290625 0.26059964 -0.0018371326 -0.09540864 -0.104604 -0.1504522 0.18967494 0.2795152 0.22060136 -0.033944163 -0.030669196 -0.01357723 -0.015123407 0.26604897 0.2912926 0.20145448 -0.50412214 -0.2730694 -0.061385345 0.06891633 0.24107651 0.49606258 0.21511358 0.18626675 0.04802147 0.013533317 0.092978075 0.27084836 -0.11338368 -0.11140199 -0.14721005 0.31724575 0.34354827 -0.5796346 -0.264486 -0.107766196 0.08153198 0.20821148 -0.12573734 0.09905853 0.045537107 -0.26732358 0.22703092 0.053218838 -0.34879503 0.11440963 -0.033487163 -0.023859758 -0.11005264 0.045240704 -0.31844506 0.17503555 0.3066459 -0.11068635 0.06493212 0.13286093 -0.5158604 0.057728402 -0.031056065 -0.1355351 0.06409247 -0.09052216 0.11130201 -0.29556358 0.04989113 0.01927133 -0.07515009 -0.012842091 0.39245358 -0.13854866 0.54913616 0.36158845 -0.13371198 -0.036838744 -0.36849338 0.13080136 0.13223597 0.30530187 0.0643742 -0.22061154 0.3644245 -0.16878456 0.06901208 0.15553686 -0.10679989
82 0.28018558 -0.38552234 0.00488552 0.8197644 0.08927608 0.24466197 0.051087845 0.019048264 0.016364057 0.08241868 0.06816143 0.28376877 -0.13432607 -0.19390571 0.29129326 0.52805305 -0.4425321 0.24831025 -0.05931229 0.029471204 -0.14252329 0.3650178 -0.47939324 -0.36217782 -0.3526047 0.08836435 0.13030015 -0.1971598 -0.24956067 -0.1859955 -0.35191947 -0.041981626 0.33707687 0.45693532 0.050628792 0.2657303 0.31239834 0.10922924 -0.1638933 -0.35121608 -0.20331094 -0.06381744 0.12617213 -0.09958445 0.16543321 0.2852793 -0.001204094 0.16994947 -0.0058459444 0.3631543 -0.18538608 -0.06479977 0.2716733 0.2134139 -0.0900216 0.30006143 0.30895612 -0.23557046 0.20368573 -0.26390752 0.1944607 0.31487945 0.24654846 0.11021923 -0.10770716 0.19056323 0.048867222 0.3788956 0.13850807 0.34448996 -0.055798102 -0.09753812 -0.47907716 -0.08378435 0.06815041 0.16544595 -0.016896121 0.25960854 -0.11230512 -0.17890342 0.14818566 -0.32532814 -0.24377607 0.4138784 0.32453653 0.13629408 0.07769783 -0.025516838 0.24349034 -0.19193986 -0.048313636 -0.3279762 0.18070513 -0.19117425 -0.07840988 -0.077002525 0.3024251 0.13435465 -0.02849206 -0.13130459 -0.20165713 0.036067855 0.06369705 0.24168147 -0.1817937 0.107248716 -0.05057767 0.34994653 0.027301932 -0.24255669 0.19549082 -0.12342716 -0.062924795 0.0062257247 -0.16641532 -0.3296847 -0.17927413 -0.13870662 -0.11847648 -0.37872306 -0.5782374 -0.11913756 0.084532976 -0.074314035 -0.047571354 -0.03091719 -0.24188489 -0.2542484
126 0.20418619 -0.43683037 0.009171362 0.77732015 0.1536051 0.31400093 0.07323077 -0.028336544 0.02645873 -0.087192975 0.09583697 0.2436582 -0.14988972 -0.25386453 0.2781976 0.67093277 -0.39851668 0.14527474 0.116448395 0.01581999 -0.02273395 0.31469557 -0.23347165 -0.4300639 -0.11316965 0.104910836 -0.19439286 -0.15715016 -0.15821303 -0.44777033 -0.2510781 -0.08822273 0.42964804 0.6973305 0.12132185 0.18839395 0.38085014 -0.19043802 -0.077406175 -0.14625369 -0.25968018 -8.546992e-05 0.12586844 -0.17804694 -0.006213966 0.05555869 -0.10802318 0.034479965 -0.1320793 0.26661232 -0.016740635 -0.00026301396 0.32577014 0.13716279 -0.14371942 0.25396207 0.13078557 -0.13852206 -0.06713671 -0.19409604 0.018395064 0.17711379 0.52974474 0.0506974 -0.14865899 0.25180164 -0.014919413 0.2910667 0.13316585 0.11015607 -0.07182236 0.06449442 -0.4984357 -0.35242423 -0.11396964 -0.2182254 -0.23082273 0.31779304 0.05726278 0.13391379 0.22102384 -0.2030252 -0.13233408 0.39656284 0.296668 0.19514695 0.2083822 -0.20174298 0.24819267 -0.0355695 -0.06361399 -0.31198728 0.20040828 -0.013625 0.06436676 -0.20318201 0.16713728 -0.06302134 -0.1888146 -0.34464312 0.031756654 0.038640697 -0.01749976 0.2869607 -0.14240246 0.05482801 0.016708659 0.4387439 0.16489968 -0.27102384 0.19858292 -0.24239247 -0.019506145 0.12823215 -0.25202218 -0.49397498 -0.047939103 -0.25190192 0.012592825 -0.38171345 -0.4233949 -0.08902101 0.20864442 -0.042336524 -0.26734555 0.21853139 -0.19977456 -0.20631403
20 0.14444962 -0.6463054 -0.34493017 0.556323 -0.18064003 0.23230512 0.20501357 0.041349795 -0.49483332 -0.21051346 0.29542089 0.15648137 -0.19423175 -0.08695352 0.2800486 0.64294904 -0.099762246 0.2867273 0.008385942 0.5810704 -0.24413738 0.60893935 -0.32817483 -0.38976908 0.13397583 -0.26001585 -0.2995087 0.31938836 0.10498746 -0.3272302 -0.2338184 -0.22883187 0.41205382 0.6966151 -0.23813047 0.25487182 0.7997506 -0.43530193 0.23263045 -0.21811396 0.5315491 -0.13522774 0.36390805 -0.03703592 0.14968348 0.31199357 0.1167362 -0.06016938 -0.16165468 0.22294784 0.22921619 -0.28975856 0.2752175 -0.049031068 0.23734698 -0.0038995682 0.11772655 -0.2999183 -0.19209735 -0.014494029 -0.3774434 0.057242986 0.36666107 0.31481892 -0.19524795 0.42316815 -0.18852952 -0.00404374 -0.35450608 -0.017830104 -0.07229179 0.16088213 -0.48086986 -0.3091821 -0.15417075 0.032151133 0.08315479 -0.09627721 0.10970051 -0.047195874 0.044440493 -0.12403463 -0.02331324 0.053397015 0.43593612 0.056940768 0.29583657 0.42824867 -0.08843582 0.15804002 -0.015181199 -0.5133172 0.14065704 0.30330887 0.089327596 -0.12843624 0.102229044 -0.11435782 -0.19588153 -0.22509247 0.095453426 -0.18064906 0.24137099 0.2676953 0.05231773 0.080845885 -0.0630882 0.14979209 0.002661894 -0.19744024 0.023209559 -0.1359782 -0.12928545 0.6133917 -0.17231503 -0.48274297 0.08959601 -0.07650576 0.1968001 -0.39170727 0.12025173 0.11264859 0.13052805 0.18323027 -0.48900276 0.11575614 -0.1627146 -0.14457037
