50 128
3 0.019608792 -0.11411169 0.13081397 -0.1665422 0.003905279 -0.19598131 -0.05328199 0.13466668 -0.0824241 -0.0056337025 0.26611772 0.0691152 -0.13761164 0.20164342 -0.028156461 -0.0904643 -0.05337625 0.04694181 -0.09666672 -0.07904259 0.19841732 0.011884385 0.1087745 7.997024e-05 0.0390976 0.067456104 -0.08473889 0.086207785 0.03127941 0.07555081 -0.23305008 0.010790361 0.071917005 0.07001343 -0.0241405 -0.10775766 0.107303195 -0.0403602 0.18273667 -0.082794346 -0.07518901 0.12322851 -0.19336277 -0.08159732 -0.049136233 -0.035651367 -0.0644153 -0.08897359 0.042675197 -0.005314437 0.07343368 0.058648758 0.015713947 0.16180752 0.06096791 0.045424737 0.10276717 -0.08316707 0.07792307 0.11485154 0.18875606 -0.09369233 -0.0126346545 -0.008011163 0.006605341 0.05063854 0.035763662 0.22489977 -0.028849453 -0.08527183 -0.01982657 -0.08788432 -0.0092324205 -0.24373646 0.011158577 -0.00806333 -0.03136398 0.020573039 -0.1446978 0.01730473 -0.051863495 -0.08361234 0.09004893 0.18618612 0.050151132 -0.008991542 0.11896309 -0.20152499 -0.06752867 0.1548769 -0.20037813 -0.056205288 -0.04219545 -0.06402623 0.12366379 -0.072701424 -0.07344982 -0.16842829 0.10748658 -0.14043139 -0.14929752 0.07205628 -0.005733256 -0.015247651 0.015865568 0.040772535 -0.006787119 -0.056193497 0.04880119 -0.17248951 0.041222487 0.051864818 -0.052859675 0.009615451 0.11469819 0.037527762 0.009445264 0.1229637 0.16124521 0.006580912 -0.09869054 -0.021124786 0.054045178 0.05213078 -0.18024068 -0.059886232 -0.16126713 -0.076204106
33 0.0100748 -0.13327235 0.13417548 -0.13139257 0.037343416 -0.11773428 -0.037285637 0.08623362 -0.076877296 0.038116235 0.2276574 0.07734357 -0.16638014 0.061798614 -0.017619671 -0.00027347764 -0.035515465 0.09870674 -0.07118559 0.0005268807 0.121125504 0.01888625 0.05787472 -0.04062548 0.03031673 -0.008241805 -0.06302704 0.10246948 0.0019109789 0.0978258 -0.20916285 0.049102943 0.07631714 0.067196384 0.027961386 -0.11651127 0.06963271 -0.046037793 0.13896567 -0.03536949 -0.022547284 0.074991085 -0.1617048 -0.047995757 -0.034792967 -0.07163059 0.0058877533 -0.042511635 -0.0009554493 0.011698474 0.07074842 0.01573219 0.022479886 0.10440738 0.05427616 0.03137758 0.14152247 -0.06196095 0.013068349 0.13402812 0.046214193 -0.055073626 0.030460013 -0.0028745176 -0.019104702 0.05958204 0.036035653 0.2196454 -0.09512445 0.0087345205 0.018070037 -0.029463131 -0.0656724 -0.20819634 0.018557606 -0.096164435 -0.0705439 -0.028821312 -0.14023907 0.043212466 -0.01920288 -0.08760426 0.090606704 0.19777876 0.06659701 0.08253402 0.09813834 -0.15434828 -0.06647192 0.1843312 -0.11877183 -0.105153054 0.015363955 -0.059423503 0.05310439 -0.048456922 -0.043354243 -0.1647487 0.08629081 -0.087237954 -0.09653336 0.023359733 -0.05819102 0.0024482207 0.072054334 0.04703973 -0.028712995 -0.028143354 0.030317614 -0.20621085 0.035429038 0.024441121 0.01511885 0.053634617 0.08373951 -0.03718386 0.050610635 0.11700886 0.09858752 0.034831166 -0.06472859 -0.031232307 0.06574921 0.11554286 -0.061482426 -0.01663534 -0.07347099 -0.02913646
35 0.022109188 -0.21828319 0.32026967 -0.23529948 0.0932065 -0.2024026 -0.09758326 0.15095761 -0.14528677 0.10835514 0.27490732 -0.0031357051 -0.24175042 0.062188815 0.06749016 -0.07967541 -0.023925722 0.06739573 -0.028919857 0.017917484 0.18831578 -0.04033705 0.0882271 0.0019780288 0.042595103 0.017404275 -0.06817737 0.08237428 0.06706488 0.16585125 -0.2769602 0.025326164 -0.0484025 0.058197815 -0.026571117 -0.017605169 0.07675218 -0.10701793 0.21239002 -0.10668007 0.0071746237 0.06925652 -0.2570493 0.023852617 -0.020893358 -0.0073365956 -0.07425555 -0.14146695 -0.019300768 -0.09368894 0.17869094 0.08116444 -0.049156345 0.032421567 -0.0061149546 0.0020485763 0.0748642 -0.009608738 0.21434191 0.03746245 0.1190144 -0.020075496 -0.016756367 -0.014985138 0.00024931596 0.010722047 0.03501744 0.16440265 0.120782785 -0.022270625 -0.04168023 -0.10447807 -0.023443151 -0.24609642 -0.016085923 0.039596047 -0.0475023 0.04659512 -0.08019271 0.026366344 -0.11061164 0.005842185 0.10989852 0.1364586 0.079829246 -0.07623603 0.08722236 -0.16377357 -0.059188623 0.072239496 -0.21512963 -0.092807814 -0.09173866 -0.073944785 0.037647687 -0.097002454 -0.056556266 -0.08485852 0.078928515 -0.16151233 0.05031112 0.11829355 -0.045807716 -0.042480513 0.08876165 0.109713845 0.00081703387 -0.15564439 0.09523872 -0.1164816 -0.0458626 0.0039845337 -0.005327597 -0.09352066 0.025473436 0.076176725 0.04681006 0.10251575 0.17504299 0.05839058 -0.055856727 0.033207364 -0.009733843 0.14323993 -0.25139317 -0.0073543354 -0.2082907 -0.024680002
32 0.037106 -0.16568372 0.16580927 -0.12621471 0.03575537 -0.18687393 -0.060410686 0.13196573 -0.05072928 0.033354934 0.2566982 0.023065675 -0.1363159 0.11340441 0.023876498 -0.0794941 -0.06658747 0.09783894 -0.10964361 -0.04412487 0.19653046 0.01717479 0.08381102 -0.0040113414 -0.00025971478 0.081085235 -0.06644744 0.13090558 0.056785833 0.11515492 -0.20389397 0.042024057 0.04020146 0.058402438 -0.03497405 -0.045997277 0.12249876 -0.029556453 0.21139328 -0.05697797 -0.079733685 0.14229542 -0.17712648 -0.08211269 -0.020597719 -0.040161405 -0.042229835 -0.09352289 0.023491355 -0.035436522 0.100178435 0.04672312 0.027018648 0.13229413 0.060331654 0.042431988 0.06848713 -0.04483038 0.06273981 0.07671775 0.09901126 -0.024568908 0.00811535 0.005695879 0.045477517 0.05467443 0.03193866 0.15152739 -0.00084679615 -0.038688842 0.013158367 -0.057002865 -0.04624579 -0.1804144 0.05463235 -0.043148138 0.008241502 0.075233445 -0.09845859 0.057623573 -0.032779593 -0.10960702 0.075411335 0.14917174 0.063299455 0.005674345 0.13106649 -0.17534424 -0.039799765 0.11957895 -0.13440181 -0.060267936 -0.054870777 -0.044471428 0.15064439 -0.025408726 -0.100296296 -0.21176769 0.105704084 -0.12952784 -0.14455125 0.039841965 0.008341902 0.01366977 0.0180248 0.054845273 -0.0047910823 -0.1253012 0.037289638 -0.107457645 0.012370148 0.03564979 -0.051716287 0.03718251 0.08941498 0.034135178 0.014100521 0.09203725 0.1463396 0.036629934 -0.07037114 -0.0016715201 0.039790828 0.076869965 -0.11532216 -0.084228225 -0.12994266 -0.055365574
0 -0.012180625 -0.18846317 0.2939704 -0.17513372 0.06611008 -0.15677407 -0.034010693 0.10063416 -0.14312093 0.08821699 0.30841273 0.040846363 -0.19303511 0.04832984 -0.0072662067 -0.058035363 0.021236299 0.0691556 -0.018118478 0.014075637 0.14208634 -0.0040062675 0.09481903 -0.070116915 0.044235382 0.0026689232 -0.07990527 0.04933003 0.014081261 0.12393878 -0.27002537 0.037599344 0.0048277923 0.08374196 0.015485087 -0.07385572 0.041778956 -0.100417264 0.15005723 -0.12730217 0.0152068455 0.07231003 -0.23502448 -0.011056233 -0.020095037 -0.064477816 -0.1012494 -0.10489593 0.019277435 -0.013063243 0.17493154 0.07924254 -0.045449637 0.08261543 -0.021303503 0.0021687753 0.113487214 -0.043374993 0.18341173 0.1229056 0.12546632 -0.06762877 -0.03413967 -0.06821777 -0.045930736 0.030009685 0.01882749 0.24747021 0.07218567 -0.0095280325 -0.08619486 -0.13355432 0.024828443 -0.26329288 -0.03731784 0.023208274 -0.03256568 -0.004049768 -0.12480119 0.014565607 -0.12416865 0.022724045 0.08954424 0.16645734 0.07943165 -0.05504869 0.07906423 -0.17255548 -0.10640678 0.08929263 -0.20728183 -0.07202808 -0.07549763 -0.07870874 -0.01841369 -0.13568838 -0.017346578 -0.03744726 0.08663411 -0.15551682 -0.0030950534 0.114053436 -0.07254742 -0.045602754 0.08963078 0.121435374 -0.006221525 -0.1280281 0.11314355 -0.113950215 0.009764538 0.032157276 -0.034545608 -0.0571626 0.03084875 0.09690548 0.007423413 0.067369305 0.16652645 0.056318358 -0.08356755 0.015205451 0.06810177 0.078250736 -0.27140874 0.0014236155 -0.21467255 -0.06076816
7 -0.0009080525 -0.19804257 0.31185505 -0.24994874 0.07558211 -0.16504022 -0.11697341 0.11044917 -0.12020438 0.07728264 0.28646228 0.08558227 -0.23725906 0.043941397 -0.04319162 -0.053862523 -0.010437629 0.08032144 -0.03082439 0.012248292 0.19567357 -0.049033787 0.07883505 -0.080855615 0.049348664 -0.00925477 -0.10679273 0.029378615 0.03544087 0.17318007 -0.26276132 0.108396724 -0.021701774 0.090655096 0.04603036 -0.07406742 0.04830795 -0.072344065 0.13404447 -0.07212065 0.028306032 0.10552714 -0.22089085 0.034278426 -0.07887094 -0.080935165 -0.04808025 -0.10911553 -0.008570278 -0.03963987 0.16104458 0.09982895 -0.051416706 0.05257463 -0.013823048 0.0121167805 0.119927905 -0.018555684 0.15474892 0.10268359 0.11080677 -0.058478124 -0.03240269 -0.012188089 0.0062763942 0.030250555 0.06232321 0.22915608 0.01502626 0.003538387 -0.05997417 -0.09970657 -0.0821696 -0.24900562 -0.0007519246 -0.034732524 -0.05117697 -0.056494806 -0.11220372 0.053837556 -0.056039013 0.003108196 0.12317724 0.16122958 0.08373879 -0.004142099 0.08557238 -0.16324568 -0.09956483 0.096967034 -0.19028889 -0.13589272 -0.033206392 -0.06795149 -0.018884981 -0.11262803 -0.030378958 -0.059634276 0.07907532 -0.13752946 0.017398698 0.13259573 -0.051035237 -0.006446615 0.12668651 0.13286468 0.0033718161 -0.18669924 0.13929503 -0.08322215 -0.02168536 0.002100838 0.012253732 -0.02987228 0.04769128 0.09034097 0.017070377 0.06653355 0.1942015 0.0882317 -0.038745385 0.005927361 0.11571346 0.09868259 -0.22393599 0.008409568 -0.17395884 -0.062812276
2 -0.00080650084 -0.16634965 0.28447738 -0.050658084 0.06933554 -0.1302002 0.029701112 0.074884444 -0.068028755 0.15036151 0.2224467 -0.09937738 -0.1918964 -0.055245377 0.051503498 -0.026184654 0.10532174 0.07234558 -0.027333634 0.13238212 0.040788066 0.038698632 0.07351036 0.02223012 -0.083484836 0.035324696 -0.051379383 0.095495924 -0.022723418 -0.04844921 -0.19720551 0.0018705264 -0.055367947 0.09522391 -0.06855347 0.07623986 0.15582414 -0.10255765 0.060430262 -0.033973154 -0.18755102 0.008625487 -0.035148658 -0.11668718 0.12961414 -0.0028054123 0.01571053 -0.02154095 0.018858382 0.09852818 0.008628774 -0.02510144 0.148913 0.03440901 -0.004031002 0.10556389 0.09636397 -0.019417966 0.014776466 0.085875385 0.019177722 -0.09541734 0.048228446 0.03399228 0.09140188 0.009854414 0.0046985233 -0.022875115 -0.05102827 0.033885628 0.14263356 0.058070004 -0.09201181 -0.055531096 0.105117224 -0.19154006 -0.013365095 -0.002552332 -0.04207671 0.15971114 -0.053919725 -0.11901586 0.045053184 0.114648975 -0.043507654 0.012256904 0.077645935 0.0108199185 0.08294509 0.03149812 0.06467583 -0.13356785 0.02931051 0.022551194 0.12435908 0.09124819 -0.1524183 -0.18212542 -0.0326644 0.013230645 -0.07312326 -0.09307681 -0.00024452477 0.056019165 0.074821375 -0.01781878 -0.035323367 0.012426671 -0.05125272 -0.14508177 -0.042374186 -0.0128865 0.14463204 0.020596385 -0.017581446 -0.10186061 0.12487228 0.093602635 -0.037053064 -0.0220974 0.032041267 -0.02643769 -0.05721581 0.114004835 0.078048915 0.00520145 0.07189778 0.09467316
30 0.04065801 -0.15044475 0.25168252 -0.2009994 0.06081541 -0.16639584 -0.10389698 0.10156457 -0.1385826 0.015112113 0.148145 0.06596301 -0.21377642 0.045745857 0.024660606 -0.03847268 -0.054352768 0.053193882 -0.011203272 -0.029567685 0.1797679 -0.009409825 0.072622165 -0.017494254 0.08710914 -0.037438326 -0.07280147 0.037107583 0.022671863 0.16057329 -0.24089362 0.037451487 0.023008084 0.053532083 0.01658814 -0.115257114 0.06868048 -0.04956833 0.17814866 -0.046764288 0.038544174 0.058578543 -0.22497095 0.093115635 -0.10824112 -0.0020940206 -0.025281299 -0.10709435 -0.037844297 -0.08321032 0.13122337 0.13608114 -0.09356093 0.079988375 0.028853124 -0.00071448414 0.08305295 -0.035164054 0.16258314 0.07922671 0.16001308 -0.07153656 -0.0081856 0.0049132006 -0.013004861 0.049939573 0.07911658 0.2820242 -0.012608066 -0.060112324 -0.052749824 -0.14867435 -0.08164123 -0.31423762 -0.04389756 0.0145961335 -0.14290741 -0.06679115 -0.14330138 0.032775868 -0.032747973 0.013933332 0.13441886 0.19635577 0.046609443 0.008566597 0.11703852 -0.20128013 -0.0826361 0.16968554 -0.29298314 -0.1108357 -0.011988772 -0.09557201 0.02333991 -0.102441095 -0.04182058 -0.08337877 0.10534746 -0.20114245 -0.0027834843 0.15932804 -0.033991516 -0.045876686 0.07092268 0.11537852 0.039092932 -0.13928261 0.10051286 -0.17825238 0.013189972 0.012317697 -0.056905307 -0.0473988 0.07391467 0.0892039 -0.00804293 0.05426636 0.20695414 0.08191521 -0.085724935 -0.0149239255 0.09171043 0.11855351 -0.275025 -0.040473197 -0.2265868 -0.0827254
15 -0.01963468 -0.1009212 0.10432949 -0.015892 0.010218883 -0.06624075 0.020801077 0.07587178 0.07119159 0.09776485 0.21162876 -0.042702775 -0.020778513 0.0006607983 -0.0035763774 -0.07218192 0.061214723 0.12642695 -0.14269583 0.08876552 0.08459504 0.092429295 0.06930268 -0.070578344 -0.12177831 0.06446081 -0.0966426 0.09499944 0.04394727 -0.019019097 -0.18465176 0.072814815 -0.011158547 0.08234736 -0.090397514 0.047652684 0.14702982 -0.07635978 0.10809229 -0.06146764 -0.22585824 0.0822524 -0.076129556 -0.21919882 0.103335686 -0.031091105 -0.014674644 -0.06504887 0.06250094 0.11668769 0.025313495 0.02338654 0.09144659 0.09766963 0.016277129 0.12453899 0.055087242 0.0061878846 -0.015697999 0.108594485 0.018395303 -0.08193673 0.00045197218 0.009769402 0.12620625 0.06602025 0.030609801 0.05161528 -0.07004289 -0.020691108 0.053944666 0.049133588 -0.08520073 -0.042170294 0.15124981 -0.2079995 0.072987735 0.059425414 -0.0478124 0.14990634 -0.026400391 -0.15662053 0.055886965 0.15770492 0.03965628 0.043847032 0.13596727 -0.102406085 0.029756088 0.08104311 -0.027960932 -0.09632692 -0.029178062 -0.021720016 0.1922587 0.046797533 -0.14322652 -0.23953882 0.040372502 -0.070703074 -0.1896364 -0.03283576 0.012805481 0.05603314 0.0055328114 0.023316532 -0.044008855 -0.08177533 0.0049779788 -0.04119606 0.016601168 0.077683024 0.0700457 0.16512771 0.03132921 -0.037176758 -0.0073029995 0.0799909 0.07267833 0.039337397 -0.026319854 -0.06287971 0.09419868 0.05353622 0.038352318 -0.017567962 0.03829727 -0.01691682
1 0.062281903 -0.17905113 0.20188768 -0.094543636 0.0045386967 -0.19562602 0.018039448 0.10201879 -0.12426257 0.03421931 0.31858224 0.031821366 -0.16147283 0.14145541 -0.036811575 -0.051040795 -0.046508633 0.09247288 -0.14064795 -0.054222777 0.21144117 0.03015811 0.11362443 -0.042804178 0.022664525 0.07250635 -0.09570716 0.10929274 -0.004278302 0.07978679 -0.25842366 0.042474076 0.13259156 0.11130157 -0.028908262 -0.11761503 0.13830322 -0.051463347 0.11271564 -0.048565105 -0.1301787 0.13228336 -0.15100673 -0.11115943 -0.019404175 -0.07827452 -0.066616155 -0.050195444 0.050784767 -0.013133614 0.07056019 7.066156e-05 0.053564105 0.16016853 0.030084195 0.06511653 0.11074178 -0.107865155 0.01613563 0.15166116 0.099941514 -0.06283559 -0.022430375 0.007876722 -0.044955213 0.048192907 0.013329103 0.16937777 -0.09048295 -0.02734795 -0.008284877 -0.04715708 -0.003909563 -0.17593198 0.04643606 -0.046139754 -0.009875047 -0.006504281 -0.13248518 -0.014304282 -0.0481739 -0.13563435 0.09026583 0.16597813 0.015049949 0.039537296 0.08385962 -0.15031396 -0.08296799 0.13856979 -0.12490507 -0.010321685 -0.008509668 -0.027246457 0.0953301 -0.042663246 -0.06342267 -0.16120979 0.099288635 -0.09354706 -0.16747917 0.024882406 0.005770913 0.007040118 0.016344707 0.033413958 0.0062332796 -0.05481989 0.03889797 -0.13901055 0.06929434 0.052619874 -0.035766285 0.03698798 0.14356816 0.023939649 -0.0001656331 0.10113292 0.13677739 0.0028294038 -0.07994813 -0.05183916 0.08643378 0.04971385 -0.13338447 -0.058416422 -0.118520185 -0.08946216
39 -0.019427098 -0.119363844 0.2010891 0.09993213 0.017701766 0.02205306 0.06291538 -0.12574565 -0.06281657 0.07192665 -0.0015528393 -0.13402998 -0.07258482 -0.22261094 -0.0072381306 0.11706489 0.09681893 0.04466252 0.06076316 0.11238951 -0.022212438 0.14350398 0.08685158 -0.1065933 -0.10320489 -0.04668432 -0.074829064 -0.06588215 -0.10149402 -0.07163118 -0.17821085 -0.050292928 -0.10431066 0.1420023 -0.042972773 0.16073553 0.15804075 -0.23226278 -0.0141325835 -0.109875455 -0.16082095 -0.08768284 -0.046398837 -0.06385772 0.21363789 0.14930514 0.016528172 -0.12910774 -0.056878176 0.03235128 0.124306 -0.027330467 0.11230963 -0.07043767 -0.14859687 0.03174009 0.15217367 0.068701655 0.006376939 -0.03459283 -0.02557652 -0.17706504 0.14939688 0.025139851 -0.03508789 -0.09909659 -0.049679052 -0.035108663 0.042273287 0.09836658 0.046504274 0.054988436 -0.19180867 0.010739049 0.061512873 -0.2450483 -0.08972097 0.035840634 -0.10726869 0.15322779 -0.048462953 -0.057939485 0.21130392 0.26154467 0.12964964 0.075383194 0.08723399 0.018199582 0.06864177 0.075636484 -0.02503802 -0.15944335 0.006368838 0.037646804 0.1585326 0.056699056 0.04920478 -0.04773812 -0.069146514 -0.079604864 0.08500061 -0.07316284 -0.017061189 -0.018720048 0.10993189 -0.02039065 -0.033153266 0.10448854 0.041822515 -0.25730425 0.014117431 0.0047903596 0.14439481 0.025989689 -0.05154758 -0.097520545 0.18766792 0.09313717 0.024581673 0.052020725 0.006897582 0.032573972 0.0063844277 0.17735466 0.0011750201 0.008027204 -0.061707336 0.05958685
20 0.015191304 -0.11471701 0.11253772 -0.027324995 0.0117049785 -0.05400864 0.04686009 0.020652544 0.035822507 0.089801244 0.16924676 -0.08919507 -0.05846861 -0.016931452 0.0131604895 -0.061289135 0.052121516 0.14972307 -0.14980035 0.10469555 0.076566584 0.12739778 0.022218961 -0.0031110893 -0.12588385 0.037809793 -0.08575853 0.059685472 0.03204266 -0.05535377 -0.1624324 0.05753794 0.030992612 0.05200263 -0.104677975 0.006594479 0.12241741 -0.014012286 0.04770395 0.031431496 -0.23191704 0.05428662 -0.03885624 -0.16582827 0.08816811 -0.011185884 0.039846163 -0.069770426 0.030136684 0.099942595 -0.060376596 0.04165151 0.065446846 0.06066456 0.013138618 0.13564181 -0.00047094742 -0.024277458 -0.059689943 0.0771952 0.04465125 -0.064423814 -0.0050112167 0.07198165 0.1480495 0.09639051 0.050991856 0.057845496 -0.123535484 -0.09453775 0.106248565 0.024275107 -0.12496567 -0.04381265 0.14647222 -0.15283962 0.018213114 0.004137917 -0.029506119 0.12604095 0.024172256 -0.12502193 0.07207094 0.15414003 -0.036944635 0.06908143 0.10506612 -0.14146663 0.061344273 0.13334526 -0.0976553 -0.07533655 -0.055069417 -0.018583551 0.22474943 0.0668334 -0.23658356 -0.29503772 0.018498499 -0.10239365 -0.17023233 -0.030094467 -0.004196882 0.042456068 -0.02313574 0.07821603 -0.00040309416 -0.12730014 0.001608164 -0.10371621 0.020633014 0.066572376 0.17983828 0.22564313 -0.027718868 -0.07009485 -0.03618298 0.073700994 0.1030177 0.092451066 -0.0033807242 -0.110683195 0.08771222 0.18616608 0.04768264 -0.06389723 -0.018258158 0.031463243
37 0.05878489 -0.09988285 0.11550275 0.08387338 0.025289867 0.0037190274 0.049432978 -0.05794535 -0.01933234 0.041265994 -0.0037198528 -0.12961207 -0.060933195 -0.11157573 0.07630284 0.010493056 0.07421071 0.0775043 -0.045554508 0.13020931 0.04182893 0.16242673 0.08434165 -0.052259374 -0.14972845 0.008546264 -0.066293046 0.03342458 -0.03411022 -0.10595043 -0.20815572 -0.013737423 -0.037251808 0.13885213 -0.13152568 0.06915085 0.20441988 -0.15435784 0.048096586 -0.04784948 -0.22812267 -0.05370365 -0.063012086 -0.09485886 0.15488805 0.10806143 0.0718816 -0.117889866 -0.03549448 0.05228133 0.03701264 0.0001860448 0.1165047 0.028430276 -0.06765065 0.11894888 0.12104706 0.018966708 -0.041988406 0.0026788774 0.020945884 -0.14903419 0.12224449 0.048641317 0.021957947 -0.039409608 0.0064387834 -0.045344274 -0.06089942 0.028240489 0.09298778 0.0797841 -0.20012604 0.036512215 0.091723114 -0.21259695 -0.10187758 0.018204872 -0.06837832 0.14383884 0.023496853 -0.09496819 0.13991657 0.17079826 0.041182894 0.09911436 0.09103272 0.0039766803 0.09472189 0.09537451 -0.030337889 -0.1254838 0.048028916 0.02649628 0.17090943 0.11380416 0.002665672 -0.10120388 -0.07872563 -0.07008474 0.033724666 -0.076963484 0.027074948 -0.028752958 0.05437971 -0.037555978 -0.01564723 0.08393413 0.0046474077 -0.22141026 0.012607628 0.0075742905 0.1036593 0.040363368 -0.0028601962 -0.08890828 0.10423225 0.07322234 0.02645397 0.041233566 -0.00040883367 -0.021691715 0.009659241 0.16270752 0.020944087 -0.01915549 -0.04375738 0.046268374
8 -0.0043673413 -0.10653211 0.13947588 0.052283764 0.012767674 -0.061864864 0.06236131 0.07560581 -0.0073371804 0.11105555 0.19829416 -0.08762771 -0.02075985 -0.03996981 0.073446155 -0.11648123 0.11557907 0.11765192 -0.13005601 0.15678017 0.02096419 0.12739202 0.05094446 -0.06394856 -0.15443599 0.04869979 -0.055182587 0.14456311 0.02164137 -0.12169261 -0.21864726 0.054053955 0.028187381 0.07982703 -0.13324174 -0.032190178 0.17129381 -0.10557789 0.11715658 -0.072281495 -0.25160626 0.03817529 -0.13271967 -0.20078862 0.14774868 -0.04141412 -0.006026417 -0.04736142 0.05970258 0.21677554 -0.004117833 0.043410145 0.105497405 0.15919901 0.002182032 0.16787641 0.07749889 -0.054127764 -0.032137696 0.21809782 0.015005322 -0.11592126 0.058793698 0.00577807 0.08867962 0.106890686 0.032814804 0.09832483 -0.06530872 -0.030748134 0.102067485 0.059207626 -0.06954614 -0.05342618 0.16449615 -0.16131271 0.025839724 -0.0026665803 -0.00408463 0.13011104 -0.07089947 -0.124688365 0.0493836 0.11211216 -0.05704417 0.05793718 0.10430104 -0.01409226 0.07128926 0.038960766 -0.0027748246 -0.07206414 0.012999323 0.00815689 0.135147 0.11162018 -0.16063839 -0.24076186 0.016444096 -0.043810975 -0.20190175 -0.033714112 0.010603988 0.028484613 0.0005911214 0.035505906 0.0059146886 -0.09766254 -0.018493513 -0.044184957 0.0028508618 0.069789946 0.072839014 0.16762471 -0.050292082 -0.025277594 -0.028604032 0.049370736 0.071812354 0.069931544 -0.033186805 -0.116099015 0.10001206 0.090974264 0.0074976976 -0.037533883 -0.017191896 0.02363784
38 0.030657664 -0.10157529 0.2984851 0.16933744 0.045708984 0.020592473 0.17469688 -0.13129717 -0.03408208 0.00333267 -0.10115852 -0.16428256 -0.07129789 -0.3506825 0.07079399 0.14481175 0.1969247 -0.034269802 0.06735345 0.15792836 -0.098415434 0.2577498 0.11768421 -0.14214747 -0.2659758 0.009661532 0.0012667746 0.032121263 -0.09909634 -0.2683841 -0.21322761 -0.09350337 -0.06371101 0.07578111 -0.11483219 0.07610081 0.10275925 -0.15675546 -0.043493427 -0.10707437 -0.10767926 -0.0807558 -0.014469191 -0.038194396 0.19493829 0.13198915 0.06563639 -0.03511292 -0.043330155 0.09093227 0.07505653 -0.037079446 0.109495535 -0.0072621824 -0.049369466 0.04873447 0.20061637 0.01729533 -0.01693454 0.009232279 0.017489534 -0.19115344 0.13394493 0.01692969 -0.04565898 -0.13872695 -0.0563881 -0.05162954 -0.038296178 0.10070993 0.094153 0.13067316 -0.21190783 0.029487485 0.020435099 -0.22468765 -0.08110942 0.020683533 -0.069077685 0.13246228 -0.02454269 -0.106627256 0.21531422 0.2615961 0.1557035 0.096519694 0.14595415 0.027714018 0.15669283 0.123908 -0.03379026 -0.2167216 0.07275497 0.035511456 0.15568995 0.091100566 0.13175015 -0.08164914 -0.09617455 -0.025559237 0.1060046 -0.07391035 -0.014910975 -0.04043065 0.136884 -0.09533644 -0.06659361 0.17283824 0.023630092 -0.34581795 0.020152384 -0.00872239 0.12163259 0.030640457 -0.090152174 -0.16137128 0.26822776 0.19539651 -0.022970693 -0.00077495555 0.018447112 0.008367891 0.015515789 0.20230646 0.062895246 0.017754277 -0.009932813 0.088357516
17 0.06413476 -0.056170903 0.18399844 0.17288584 0.020329885 0.096626475 0.21511708 -0.175803 -0.025928827 0.018327896 -0.11469649 -0.17428267 -0.06167339 -0.2895484 0.04881846 0.16022491 0.20107491 -0.015102564 0.002209491 0.16492178 -0.062179543 0.2671526 0.083254255 -0.11369697 -0.2798676 -0.007917677 -0.041911118 -0.037936326 -0.10364212 -0.27317858 -0.25698495 -0.06646326 -0.03551492 0.12823851 -0.14328024 0.072909415 0.14172038 -0.14085199 -0.06373371 -0.060252167 -0.1794449 -0.077674955 -0.004217831 -0.061710842 0.149165 0.09126816 0.07156931 -0.07374193 -0.033757214 0.06679005 0.03507205 -0.04713246 0.13949741 -0.009907479 -0.034198374 0.10875188 0.21605612 -0.008395998 -0.06896236 0.009919325 0.043005183 -0.19513537 0.071687266 0.036961664 -0.018845815 -0.11317048 -0.020185012 -0.055323213 -0.13948536 0.03475846 0.080947295 0.14404927 -0.2602415 0.0485072 0.0375953 -0.25165766 -0.09873669 -0.023620892 -0.08455885 0.14601365 0.03252813 -0.103917204 0.20615424 0.24273525 0.1071882 0.10097348 0.118915014 -0.017704634 0.15351193 0.1661394 -0.03751463 -0.21632804 0.069530636 0.035005853 0.15720636 0.07763606 0.067465596 -0.050761603 -0.12214928 -0.022629237 0.13537894 -0.07626849 -0.029684026 -0.039147273 0.12142958 -0.06384839 -0.059718248 0.16748776 0.035192385 -0.3249647 0.041783698 -0.014140552 0.1834299 0.047204144 -0.01644263 -0.12610096 0.1860708 0.18412845 0.012951356 0.02104644 0.039679654 -0.018410277 0.036718603 0.21802287 0.052920524 0.025187213 -0.012025225 0.07334684
12 0.01846613 -0.113082424 0.12342696 -0.014450206 0.010135914 -0.09808352 -0.007818967 0.040313903 0.037281994 0.070080265 0.11131175 -0.063411094 -0.03976023 -0.011075089 0.07120835 -0.06081486 0.06863603 0.123038456 -0.08245807 0.10094452 0.05722477 0.14706156 0.056797385 -0.012309838 -0.14505431 0.05227014 -0.067448884 0.1009699 0.0052192337 -0.08279201 -0.18453386 0.011810871 0.015489801 0.07583011 -0.08991947 0.027854059 0.15086126 -0.031765733 0.06516016 0.012517303 -0.1981273 0.04007364 -0.0018246919 -0.12188313 0.07688871 0.030845705 0.027716529 -0.04405862 0.040164545 0.08826135 -0.028898448 0.009991435 0.10737366 0.109263346 0.035931285 0.15266415 0.02196724 -0.029238801 -0.050779935 0.09989717 0.06593184 -0.103432246 0.039752338 0.05889186 0.11811169 0.06397419 0.015670143 0.019259447 -0.08801122 -0.0781813 0.11207938 0.004989594 -0.13796075 -0.07939114 0.12174154 -0.16917956 -0.013570707 0.014905999 -0.069360815 0.14038281 0.0013083656 -0.12764536 0.07221032 0.18242638 -0.030031817 0.051518228 0.1396677 -0.09948895 0.0882991 0.096955135 -0.078171514 -0.11250256 -0.0007185045 -0.004755239 0.24740677 0.08358567 -0.17491578 -0.26755753 0.009731664 -0.06765171 -0.19467288 -0.054261915 0.056059428 0.042687207 -0.038811486 0.018345516 -0.0012356059 -0.056807175 -0.01800589 -0.11531094 0.022072306 0.052894104 0.06274552 0.1330598 -0.0037773321 -0.03854701 -0.018326534 0.04431829 0.047858495 0.020846743 -0.03442647 -0.06633031 0.034808863 0.09408583 0.0068907975 -0.07696297 -0.021594558 -0.012428241
47 0.011131734 -0.10236522 0.12863795 0.029306624 -0.027628187 -0.079605244 0.025564414 0.018619247 0.0017689029 0.07154051 0.15805376 -0.023643352 -0.019124022 -0.0168744 -0.048019897 -0.057570744 0.06455296 0.10775356 -0.13487846 0.059409987 0.0502989 0.12579398 0.07684379 -0.074027695 -0.09586412 0.05457354 -0.0879136 0.037717745 -0.03838668 -0.09599857 -0.17380461 0.07116243 0.04640956 0.118470736 -0.06410125 -0.025919782 0.14921175 -0.04497019 0.033711366 0.008422264 -0.22812718 0.073158674 -0.047583036 -0.14454499 0.09332594 -0.02861404 -0.014152022 -0.0075643165 0.048464634 0.14622843 -0.026392821 0.041819382 0.083688416 0.13941287 -0.027628405 0.14845875 0.04098386 -0.063198596 -0.04503625 0.1938979 0.056326196 -0.10765231 0.004393258 0.07649974 0.117838964 0.11202183 0.039918374 0.11817784 -0.1340883 -0.08578364 0.06471168 -0.0080532115 -0.08572489 -0.13083363 0.16043495 -0.16645639 0.01310972 -0.04215976 -0.08116125 0.104635656 -0.026045324 -0.14466634 0.082002595 0.18504135 -0.08535457 0.100960664 0.10764033 -0.082450226 0.020491349 0.10426655 -0.055909522 -0.078300044 0.020974543 -0.0018108787 0.15864675 0.080363296 -0.16816975 -0.2826414 0.06826249 -0.069857955 -0.2564313 -0.053083375 0.049245376 0.079094775 -0.02416592 0.028262539 0.009235822 -0.08928115 0.0037690508 -0.083198436 0.026223509 0.073446035 0.12945992 0.21699287 0.017737769 -0.041418497 -0.040078226 0.058539648 0.12516996 0.055737287 -0.044112515 -0.1364601 0.15118542 0.09956015 -0.0023189213 -0.059596315 -0.014645643 -0.036817204
36 -0.022102803 -0.10863938 0.17056108 -0.03553934 0.017785948 -0.11634486 0.058819324 0.074092455 -0.018264651 0.116970405 0.20501275 -0.06198459 -0.07680463 -0.0027298804 0.06980483 -0.08287499 0.1245785 0.13815075 -0.08188108 0.14188546 0.03372429 0.14576522 0.04167504 -0.0071449066 -0.11441445 0.018672662 -0.07231171 0.12754913 0.0050081145 -0.10441763 -0.23028484 0.032402832 0.03104919 0.07433314 -0.08573704 -0.02543482 0.14895567 -0.044754643 0.08554502 -0.01582724 -0.2090777 0.02551364 -0.05927828 -0.14466058 0.09158378 -0.008639456 0.010859886 -0.027638689 0.051533587 0.16927275 -0.058821328 0.043488204 0.09074613 0.13215047 0.042955562 0.13698618 0.031066563 -0.04772027 -0.037516546 0.17382155 0.055394597 -0.12011686 0.042513352 0.015884152 0.11813513 0.09947013 0.018957423 0.09186987 -0.10804743 -0.0737436 0.11941908 0.007137977 -0.083914705 -0.10778082 0.1107352 -0.15660521 -0.040076528 -0.044244345 -0.06393056 0.13564906 -0.028186878 -0.11858925 0.024456467 0.15919203 -0.08768885 0.060406122 0.101610444 -0.07913679 0.068083614 0.09609385 -0.037877828 -0.08327277 0.025005925 -0.00079970487 0.16216838 0.0919732 -0.2040964 -0.24420829 0.022040645 -0.05064912 -0.22024871 -0.032626808 0.0015279053 0.036803864 -0.023526378 0.032716546 0.008508905 -0.044827484 -0.050440907 -0.12129492 0.026288118 0.044936404 0.06245283 0.13744621 -0.02017467 -0.027466683 -0.054911237 0.018827083 0.047912665 0.030832218 -0.04891158 -0.10832023 0.05667018 0.06832995 -0.018509362 -0.062061813 -0.021222662 0.013424275
26 -0.04184327 -0.20063059 0.32529637 -0.27435747 0.12953065 -0.17714567 -0.14795582 0.11680698 -0.028751608 0.07596989 0.19076368 0.070801385 -0.18187101 -0.050042335 0.07015714 -0.020322537 0.008024748 0.1282033 0.060691904 0.09648924 0.13947727 0.047850844 0.081490494 -0.084828876 0.022152906 -0.055868957 -0.08056044 0.0948335 0.08461542 0.22708641 -0.2808436 0.0633921 -0.06012101 0.045329556 0.038630463 -0.06583668 0.011699446 -0.043551467 0.20749608 -0.09230723 0.098296784 0.056107894 -0.18423456 0.058657948 -0.09534782 0.004833446 -0.034236807 -0.13811636 -0.008025787 -0.0601954 0.19112116 0.10476614 -0.107238576 0.061535824 0.005538608 -0.0035344863 0.07695588 0.034351557 0.20706655 0.03942266 0.10953166 -0.09046833 0.012025959 -0.085425995 -0.0038164647 0.01487979 0.017362228 0.19700715 0.10698423 0.013686771 -0.04461855 -0.15303087 -0.106213205 -0.24034217 -0.07211735 -0.034420907 -0.09841204 -0.010296155 -0.15124649 0.094430625 -0.076313555 0.05819682 0.100621164 0.22789802 0.13589199 -0.051732775 0.1387217 -0.19762404 -0.041716833 0.10110599 -0.28516716 -0.18374576 -0.07179153 -0.11938262 0.050236385 -0.17748988 0.025315668 0.010657154 0.05424375 -0.18134134 0.06848978 0.16007894 -0.06980856 -0.04927135 0.06568029 0.13002683 0.016938865 -0.15416938 0.113754034 -0.07526125 0.005543883 0.013694221 -0.107669584 -0.08122502 -0.03327927 0.10680001 -0.0021396144 -0.018940503 0.12218996 0.050608825 -0.08552018 0.05677313 0.059675127 0.064201124 -0.27310678 -0.0060798945 -0.22643562 -0.08236215
14 0.025038881 -0.14184871 0.25019813 0.09757472 0.060923982 -0.014641848 0.121500365 -0.100491196 0.012721873 0.019331608 -0.00800193 -0.14494208 -0.08612448 -0.26553902 0.084406674 0.09704544 0.1650478 0.03858685 0.027413962 0.16535555 -0.05804293 0.25152713 0.09971106 -0.10406375 -0.26574382 0.02997324 -0.010300888 0.087839544 -0.05904044 -0.19914189 -0.20994122 -0.06991869 -0.04613208 0.037784588 -0.08927514 0.06609056 0.06117092 -0.07111168 -0.03508014 -0.04071673 -0.08080702 -0.05358858 0.045099683 -0.054362454 0.14790037 0.095561475 0.0883179 -0.025148608 -0.02234184 0.06588069 0.029112408 -0.06747792 0.109586105 -0.009071265 -0.026948964 0.043996558 0.13059385 0.011906916 -0.04820752 -0.023501314 0.0080825 -0.11873019 0.10793428 0.0055017252 -0.0026592223 -0.09867601 -0.07048077 -0.074048854 -0.04776971 0.068737954 0.13114929 0.093444735 -0.18130904 0.043771207 0.03871185 -0.20163235 -0.035906415 0.049063746 -0.053956944 0.1220827 0.0075492347 -0.11673278 0.14224805 0.2177354 0.1329662 0.0859587 0.13433704 -0.024802646 0.13172053 0.12022037 -0.036071073 -0.17100315 0.021547433 0.016287062 0.19521803 0.06686008 0.04079367 -0.16736957 -0.08714999 -0.036582757 0.022317994 -0.0976 -0.009986946 -0.01158877 0.0862395 -0.07072559 -0.063272506 0.10889045 0.0075231325 -0.29016805 0.01910904 0.013460956 0.13106413 0.0764121 -0.08290396 -0.17157662 0.20551617 0.16704205 -0.03956762 -0.02139708 0.008359109 0.006580181 -0.01985296 0.20224102 0.09176372 -0.017349955 0.0012682368 0.0816073
10 0.007863406 -0.070035845 0.1283345 0.06490816 0.024860911 -0.027680999 0.119167425 -0.029675376 0.0136678815 0.051502403 0.047138084 -0.118560836 -0.05415353 -0.13662621 0.050913308 0.059875216 0.10276277 0.055681195 -0.034358058 0.10585098 -0.0018084163 0.16932288 0.048898555 -0.036485244 -0.17058967 0.03555961 -0.049312472 0.039907023 -0.018461213 -0.16118649 -0.17750354 -0.02003173 -0.050849557 0.08496637 -0.117929734 0.10889551 0.13375217 -0.09678517 0.048109513 -0.055216953 -0.19336979 -0.004497787 -0.031096531 -0.12960137 0.18429394 0.074880034 0.056398727 -0.05159595 -0.003245715 0.111956745 -0.0090461355 -0.030606024 0.1255643 -0.0017727234 0.014170012 0.08359504 0.10865591 0.012572344 -0.066360384 0.004318543 0.016959775 -0.12540783 0.07207788 0.045705047 0.118213795 -0.0022408366 0.027243728 0.0009435243 -0.057189327 -0.009726911 0.09252377 0.0847393 -0.15255666 -0.041735183 0.091176935 -0.18963678 -0.0043712556 0.053727154 -0.07443927 0.16204931 -0.0011098515 -0.12633987 0.0871587 0.18652266 0.05200805 0.04623534 0.11763565 -0.07201786 0.12884279 0.13824832 -0.009201469 -0.16493894 -0.018480403 -0.003910001 0.19207071 0.086335205 -0.10252008 -0.23980168 -0.01672602 -0.047024332 -0.06390538 -0.08269674 -0.020168064 0.012360616 0.060210623 -0.011935841 -0.06534965 0.048853707 -0.013126785 -0.2399139 0.0013782929 0.0126063265 0.14356971 0.08710482 -0.02351367 -0.09264053 0.085595004 0.14081818 0.043077618 0.01942077 -0.0037049523 -0.006593786 -0.012123894 0.15413085 0.08725395 -0.009664699 0.017353047 0.08822268
29 -0.04332178 -0.1649734 0.25622177 -0.21929754 0.09651324 -0.13359275 -0.12662938 0.12142243 -0.04728593 0.08146674 0.22447142 0.10081658 -0.17725685 -0.014585584 0.034929775 -0.04375913 0.017890723 0.06608113 0.034509197 0.024843544 0.09926935 0.0041876025 0.10222875 -0.09273429 0.027311837 -0.017956177 -0.06338179 0.05990284 0.0503911 0.15991418 -0.23543014 0.04112112 -0.08057985 0.050799657 0.041450303 -0.057371244 -0.010214521 -0.06579767 0.21489182 -0.11743197 0.13916135 0.06506528 -0.22652446 0.054764714 -0.076082155 -0.030711021 -0.05852059 -0.10889269 -0.013122363 -0.046780087 0.2294069 0.11459032 -0.07851786 0.08425991 0.018721007 -0.0061167446 0.10761759 0.026264774 0.24882574 0.08961187 0.14318496 -0.065585434 -0.0071729464 -0.0665493 0.02465267 0.03799749 0.04557644 0.28962272 0.102698244 -0.028618386 -0.08134824 -0.1627199 -0.033714265 -0.33557504 -0.05484566 -0.024168486 -0.06618602 0.017124666 -0.1617656 0.09697815 -0.09053121 0.036767997 0.07943006 0.21869235 0.14326014 -0.047959737 0.16111751 -0.21627901 -0.09392304 0.12824754 -0.26357734 -0.1764928 -0.07396327 -0.14480959 0.004596546 -0.17065004 0.0076482315 -0.06558132 0.1176734 -0.20570916 0.028102236 0.14396207 -0.059594322 -0.033279337 0.10633 0.119680725 -0.033295434 -0.14892657 0.12746075 -0.114896946 -0.022925159 0.026280522 -0.086673096 -0.08003957 0.007882494 0.11031244 0.01960809 0.04350912 0.17371224 0.06174241 -0.120143466 0.06110375 0.051728155 0.06037412 -0.28703243 0.00539732 -0.1958623 -0.09178865
22 0.042293146 -0.12026304 0.20596275 0.020705584 0.07182852 -0.06074357 0.027571943 -0.011306632 -0.031805716 0.096953794 0.08117396 -0.09753235 -0.12671794 -0.121199235 0.096623145 0.0031879619 0.15259129 0.051467463 -0.00050056155 0.16053928 -0.0067451564 0.17313008 0.10150661 -0.03630952 -0.19726466 0.027008098 -0.036124095 0.074024595 -0.07880344 -0.15534736 -0.22860089 -0.017623257 -0.08281735 0.1315917 -0.111384094 0.08633727 0.14465988 -0.071358696 0.0068848925 0.0048384024 -0.17631732 -0.027700197 0.025539815 -0.045065697 0.14508961 0.053583313 0.0725806 0.0012832711 -0.01290105 0.1274551 -0.021899201 -0.029081259 0.17281319 0.049880534 -0.03607635 0.14609946 0.109289095 -0.01119475 -0.054415632 0.07910079 0.026160713 -0.1333005 0.08981738 0.07159915 0.12802044 0.011922191 -1.6423786e-05 -0.061875645 -0.07551621 -0.026315283 0.13499397 0.030762374 -0.15770707 -0.05374078 0.10156702 -0.18856096 -0.038294386 -0.028788479 -0.059493285 0.17615265 0.014727084 -0.070069075 0.03423805 0.12695266 -0.08810114 0.038936242 0.114161976 0.006442233 0.13633332 0.043873407 0.037778933 -0.19118255 0.052793074 0.011476727 0.1460411 0.11167592 -0.14848955 -0.22201379 -0.053426977 -0.016217066 -0.10122462 -0.11199987 0.04424051 0.070264556 0.039913494 -0.01663678 -0.010310463 -0.00633049 -0.023906687 -0.16624585 -0.042717252 -0.017767642 0.13167809 0.058250736 -0.03561734 -0.0447233 0.0610106 0.054088533 0.031066667 0.00057554303 -0.009734076 -0.043562524 0.00021178102 0.14303218 0.039639898 -0.047486097 -0.009029272 0.054741304
11 0.027724767 -0.11226647 0.33414832 0.14155759 0.043375477 0.013794498 0.21598488 -0.15460217 -0.046602037 0.01962945 -0.04639997 -0.16732351 -0.12712808 -0.3248656 0.061851546 0.1659215 0.24905913 -0.044493917 0.08371228 0.1782447 -0.06610851 0.2786003 0.14414467 -0.14860798 -0.31560552 0.021195455 -0.03997167 0.027650917 -0.113773085 -0.284193 -0.2736323 -0.11007093 -0.10300878 0.1032934 -0.10985676 0.12486971 0.10986614 -0.18558353 -0.103407 -0.1128799 -0.097332984 -0.10097712 0.04620714 -0.03249582 0.1796499 0.153526 0.0716687 -0.037661914 -0.045515016 0.048940767 0.09256641 -0.07346755 0.14455658 -0.05029584 -0.06484664 0.038364634 0.24127918 0.04828314 -0.011380319 -0.052066125 0.032785974 -0.23032913 0.1284921 -0.0074294196 -0.049777783 -0.1958253 -0.08563743 -0.098566815 -0.05515706 0.10999032 0.08479349 0.12788202 -0.22198737 0.06704793 -0.007084648 -0.25827292 -0.08863231 0.0026794095 -0.0813109 0.14072898 0.015551948 -0.10508622 0.18057942 0.24795285 0.18872395 0.077473424 0.12083412 0.028853044 0.14535418 0.11120785 -0.0072284993 -0.20980802 0.087360546 0.047862783 0.13363838 0.05584013 0.17545718 -0.02081762 -0.12651055 -0.019144157 0.15022272 -0.07264065 -0.0129656205 -0.05102803 0.15697877 -0.11786435 -0.07815569 0.22257823 0.03417205 -0.36581895 0.040540762 -0.028294638 0.073452644 -0.04795858 -0.028091801 -0.1321659 0.2872806 0.19209857 -0.028598087 -0.04608835 0.007004661 0.052526128 -0.00812955 0.16513571 -0.010321819 0.026063971 -0.031039208 0.050049342
18 -0.0084420135 -0.19917837 0.13060758 -0.18444273 0.016254215 -0.20558862 -0.048941683 0.12964487 -0.11150478 0.055626623 0.38600892 0.11170375 -0.20226218 0.1753118 -0.033123087 -0.013641638 -0.078763 0.14583611 -0.09173943 -0.051625226 0.18669407 0.017472459 0.050564807 -0.03077505 0.10433671 -0.007816663 -0.0930346 0.16498315 0.002808825 0.19088793 -0.23519574 0.032886032 0.14869778 0.08404491 0.045765202 -0.11275345 0.11083282 -0.08295327 0.13392912 -0.052224237 -0.062352512 0.06285248 -0.13758564 -0.09891811 -0.054389678 -0.074337445 -0.021844784 -0.06944518 0.03058432 -0.034279235 0.10440172 -0.0046369852 0.036307894 0.12690042 0.062478147 0.008269262 0.1297129 -0.0825614 -0.003926252 0.14782436 0.04127261 -0.04079802 0.035789985 -0.05925407 -0.08844962 0.06291531 -0.002186246 0.24839571 -0.11944675 0.032726694 0.028116014 -0.06446354 -0.04892827 -0.19925971 0.024971467 -0.1431627 -0.08754227 -0.014882492 -0.17675924 0.02541484 -0.024176644 -0.12391919 0.08467095 0.21643636 0.10504395 0.089059 0.0812956 -0.17775136 -0.13259871 0.1786804 -0.13443023 -0.017813653 0.027181825 -0.047622453 0.0739638 -0.07595285 -0.013026827 -0.12859714 0.095395856 -0.10670311 -0.13477483 0.02231941 -0.059279222 -0.010411649 0.0375006 0.027024105 -0.007336112 0.020160453 0.0022774157 -0.2007897 0.098176315 0.059642013 -0.07660312 0.05260862 0.13781443 -0.041576583 0.034726817 0.0790338 0.050808586 0.0011388735 -0.0909064 -0.018770581 0.04639228 0.047863558 -0.06596565 -0.047494903 -0.069651015 -0.06513524
27 0.03490312 -0.18463589 0.195272 -0.25616482 0.04327237 -0.241184 -0.09250544 0.17831638 -0.20584762 0.035737555 0.34665388 0.076049976 -0.28788015 0.23912324 0.060070515 -0.09059546 -0.077276185 0.081985116 -0.09363998 -0.043277174 0.23181868 -0.033289146 0.038661733 0.080873184 0.095799826 0.0007732648 -0.06331219 0.18636863 0.04053495 0.16244741 -0.28561702 0.0071615814 0.124195516 0.019776165 -0.0074129137 -0.17152356 0.12582694 -0.07173566 0.24009876 -0.070953146 -0.04132026 0.10053566 -0.24775122 -0.050677698 -0.14277053 -0.08920303 -0.022928163 -0.13140756 0.026433524 -0.023018977 0.10974617 0.07510055 0.051615976 0.16655578 0.13164176 0.038443763 0.14344688 -0.14800139 0.07141054 0.18343519 0.18536687 -0.030800112 -0.00798381 -0.034691352 -0.07959066 0.059693772 0.040970337 0.2932318 -0.08477785 -0.02957496 0.06295909 -0.054006953 -0.063901275 -0.24718453 0.0062487535 -0.030344123 -0.1359242 -0.024229549 -0.14138205 0.036601655 -0.020352729 -0.045702446 0.08792967 0.107037194 0.05916246 0.008920639 0.082926854 -0.18842657 -0.11141321 0.14890938 -0.19096816 -0.03177152 0.021240456 -0.037430067 0.04815557 -0.089176744 -0.082847446 -0.089181595 0.0733054 -0.10204372 -0.06541637 0.0971454 -0.06811303 -0.03778162 0.059647214 0.06758638 0.041830346 -0.031455424 0.032962132 -0.18282138 0.060321737 0.02000513 -0.06515565 -0.030424245 0.13333322 -0.015308309 0.07020077 0.12833889 0.06989424 0.026102291 -0.045070812 0.00081802293 -0.005127164 0.071341455 -0.1090908 -0.07724448 -0.12513864 -0.03770728
4 0.07477092 -0.09410191 0.12613389 0.0140736215 0.02350603 -0.07657291 0.054531552 0.04850433 0.0029936032 0.023693739 0.07943351 -0.067249924 -0.019640354 -0.007495672 0.11827544 -0.076558486 0.094418615 0.044922475 -0.09355777 0.113567024 0.04514142 0.14133474 0.063467 -0.018020809 -0.18788637 0.09443116 -0.0098023275 0.15548654 0.030288331 -0.15418766 -0.1894213 -0.011123674 0.053376976 0.069197655 -0.15870537 -0.05386886 0.15251495 -0.04546405 0.08442338 -0.039600868 -0.20335777 0.03708794 -0.07305748 -0.13134682 0.097484685 -0.0013223713 0.038697198 -0.043225054 0.0356042 0.121921256 -0.0124104805 0.0017414129 0.12647107 0.16934519 0.053236336 0.17931063 0.11986541 -0.06403636 -0.03949924 0.12799387 0.072057195 -0.11799033 0.06644669 0.022376474 0.040594384 0.012208413 -0.004127329 -0.010610071 -0.09431922 -0.0318433 0.12674564 0.08879386 -0.121890545 -0.0056369035 0.10042635 -0.12853372 -0.008423195 0.028992753 -0.015862884 0.08705085 -0.022767412 -0.15142764 0.080903776 0.13834874 0.003357514 0.06339508 0.13057445 -0.055795684 0.11610671 0.08797585 -0.05742188 -0.11595362 0.04511357 0.012971913 0.19060148 0.11032978 -0.055313595 -0.20045169 -0.025306772 -0.016876353 -0.1125697 -0.05709266 0.041235115 -0.01290972 -0.0039562313 -0.037611153 -0.02205572 0.0067786276 -0.027337976 -0.14983517 0.012383362 0.039699417 0.056193173 0.09618867 -0.020837208 -0.104544654 0.10696467 0.1477822 0.00526533 -0.0029313078 -0.014762572 -0.09168373 0.025756227 0.15179114 0.019766804 -0.05657498 -0.034346346 0.032882757
19 0.01036543 -0.23695226 0.22684537 -0.19582433 0.022057185 -0.20806134 -0.02914614 0.09482488 -0.15753119 0.10778195 0.47285533 0.095377415 -0.23462723 0.18830344 -0.10836023 -0.05924638 -0.07948782 0.16139604 -0.12298919 -0.07876268 0.23111016 0.0187106 0.13591659 -0.07562132 0.13648851 0.022686366 -0.15055543 0.06400335 -0.036341816 0.20572205 -0.31334436 0.06667462 0.14378622 0.12824675 0.08548853 -0.12739013 0.029316287 -0.048394404 -0.0011181289 0.011845437 -0.03769516 0.07528279 -0.080925785 -0.049370527 -0.029652573 -0.06435107 -0.075755924 -0.0117757125 0.030754559 -0.075030126 0.054519847 -0.01833379 -0.0032864162 0.062690966 -0.034259837 -0.0032977355 0.047844626 -0.072852135 0.028099576 0.09308238 0.07833702 -0.04165166 -0.042969305 0.0174088 -0.07253167 0.06713967 -8.421808e-06 0.25542143 -0.109431036 -0.058192194 -0.07204766 -0.16770965 0.065612346 -0.2877841 0.0069855293 -0.025922729 -0.04114375 -0.054435983 -0.20341353 -0.084148996 -0.03656566 -0.0964387 0.060412984 0.24694876 0.027099008 0.057966772 0.047827262 -0.22641726 -0.18361329 0.20308055 -0.19470465 0.044537336 -0.039952114 -0.07720729 0.043679062 -0.123295106 -0.06620967 -0.20622855 0.141174 -0.18363665 -0.17552754 0.0035655966 -0.027191937 0.003871448 0.024385454 0.074051015 -0.02006324 -0.03292496 0.07288073 -0.25041625 0.10594413 0.07546578 0.016189387 0.036701385 0.15431283 0.020875404 -0.012085296 0.098925345 0.13996723 -0.019063888 -0.12529297 -0.03615238 0.086159766 0.10513696 -0.18488511 -0.036795065 -0.13793789 -0.12223397
24 0.044849314 -0.18786149 0.2327608 -0.19620596 0.048368104 -0.1948438 -0.011410087 0.1293209 -0.17691924 0.048235007 0.36667794 0.08620842 -0.30562294 0.15136288 -0.03378813 0.006286089 -0.09002222 0.06271437 -0.112314165 -0.09846949 0.2040665 -0.032879695 0.077316195 0.006655836 0.094702944 0.004966169 -0.074002504 0.089084685 -0.01110743 0.15655743 -0.25844803 0.035482433 0.13291432 0.05726108 0.035219546 -0.16228837 0.06449927 -0.025518224 0.17033249 -0.031367607 -0.012435838 0.14888503 -0.20118548 -0.055227976 -0.13445525 -0.14831552 -0.034705993 -0.048504 0.04146869 -0.050558668 0.07389225 0.016465273 0.028899055 0.12322252 0.11962352 0.004457457 0.12041644 -0.13736007 0.036303032 0.1693204 0.13899282 0.010835183 -0.08796252 0.01445724 -0.04821968 0.085568376 0.070165746 0.29811564 -0.14658582 -0.03778123 0.00043117433 -0.051575027 -0.00214436 -0.2818296 0.014046965 -0.022067556 -0.056165945 -0.055598773 -0.1749604 -0.0026535394 0.0018916476 -0.09119868 0.08164216 0.15586711 0.03222259 0.017008003 0.08217678 -0.22570477 -0.12968743 0.21230674 -0.13760325 -0.058731914 0.0058397735 -0.061126173 0.023500452 -0.11596498 -0.12646347 -0.16776672 0.123983905 -0.09948644 -0.10577659 0.05909528 -0.074791215 0.025563288 0.092123 0.08834702 -0.0047476003 -0.046007875 0.06533847 -0.22061266 0.054508287 0.013318462 0.028909802 0.027387189 0.17842636 0.0033899872 0.049634233 0.16674517 0.15303418 0.029694775 -0.058210786 -0.010127867 0.06631189 0.09822388 -0.08080989 -0.03837208 -0.08837023 -0.059436224
41 -0.014446639 -0.117602326 0.10306657 -0.037525203 0.0031783832 -0.08701135 0.0012794756 0.05185066 0.013959583 0.09680769 0.21070898 -0.039322697 -0.03771661 0.045070965 0.037128605 -0.09067091 0.08693752 0.16117305 -0.1141471 0.14113714 0.068714164 0.14448836 0.043355398 -0.014122992 -0.10937227 0.02339544 -0.089212 0.12987186 0.0107984925 -0.031219617 -0.2301796 0.03371384 0.06705585 0.08367654 -0.092859775 -0.03703875 0.17028986 -0.072593264 0.06593588 -0.019270595 -0.2566374 0.016741186 -0.03061352 -0.19808127 0.06993885 -0.02921404 0.002169982 -0.06937128 0.076229334 0.1683414 -0.031579297 0.012415281 0.12507999 0.1562003 0.0034881833 0.1816522 0.06138467 -0.07744273 -0.06660238 0.18699859 0.060236778 -0.14338031 0.03520527 -0.010894805 0.060095005 0.09554467 -0.0036956521 0.07565142 -0.13304818 -0.05747534 0.14071484 0.0074068652 -0.113789275 -0.038070187 0.13998415 -0.20062289 -0.014474508 -0.037104916 -0.05559281 0.13688727 -0.030338123 -0.11334544 0.056520402 0.17022972 -0.049618367 0.059028637 0.10556781 -0.07614284 0.058696732 0.06974948 -0.06969681 -0.07130914 0.018249387 0.0026159144 0.2132621 0.05923956 -0.17442249 -0.22022349 -0.023664603 -0.053194173 -0.21016468 -0.0612759 0.017530642 0.030533778 -0.04569259 0.020171497 0.025317723 -0.029557234 -0.03154473 -0.088325195 0.057551786 0.089386515 0.08754108 0.18973427 -0.033737846 -0.08260376 -0.0031910317 0.035881642 -0.0097101405 0.01914779 -0.015942156 -0.11420297 0.07509272 0.09863746 0.030603968 -0.062262464 -0.016192142 0.0080260215
44 -0.066500105 -0.18404074 0.28092125 -0.22722979 0.114245474 -0.123518676 -0.10832564 0.110873 -0.082529135 0.10372675 0.27326655 0.09711237 -0.21834491 -0.06119407 0.009651852 -0.014779903 0.0012249942 0.13319151 0.022869201 0.06821328 0.079428144 0.01451071 0.052512594 -0.11153489 0.063446246 -0.100577354 -0.06432698 0.076926544 0.03138138 0.2197004 -0.24047485 0.08814155 -0.027503105 0.034193628 0.08379306 -0.11648091 -0.02046508 -0.067990534 0.20041834 -0.09285122 0.124527395 0.041627143 -0.24726973 0.054520667 -0.06644281 -0.05135845 -0.024428044 -0.09980751 -0.03180068 -0.014257689 0.18968129 0.11664437 -0.12589307 0.045004748 -0.011610356 -0.04317021 0.10150259 0.03190439 0.16765584 0.11841023 0.030519677 -0.054973513 0.035986412 -0.07851105 -0.00899678 0.08030965 0.040308572 0.32079667 0.060705468 0.020699112 -0.066974044 -0.15454009 -0.06286005 -0.30745858 -0.047326647 -0.054235768 -0.09421478 -0.05341746 -0.14914517 0.078594245 -0.07510143 0.060229603 0.10405442 0.24206287 0.121838994 0.014218977 0.13092113 -0.19816378 -0.11035096 0.15097147 -0.2516083 -0.1630683 -0.062219195 -0.13550632 -0.030958995 -0.17106394 -0.010812853 -0.0536152 0.10352905 -0.20436326 0.025029013 0.16264659 -0.1293047 -0.023968203 0.11143006 0.16602522 0.0014563309 -0.19153482 0.115505986 -0.119461685 0.003854077 0.019110719 -0.06436854 0.0073746983 -0.035298314 0.11418836 -0.05586458 -0.021799702 0.18358658 0.11854757 -0.10956147 0.007255907 0.13111293 0.09877032 -0.23628597 0.004449185 -0.20490082 -0.06550139
25 -0.009939646 -0.10967349 0.14336155 0.05266005 0.039024435 0.011999585 0.06210176 -0.06412528 0.04401479 0.07210451 0.062023733 -0.081758484 -0.03961338 -0.1677478 0.020786272 0.036406837 0.1357318 0.10854293 -0.01875654 0.16192667 -0.017141316 0.18639122 0.06575828 -0.10177394 -0.18921159 -0.001785498 -0.07137464 0.026232691 -0.043035787 -0.11099957 -0.18097101 0.019688323 -0.052681148 0.11592666 -0.067978516 0.071368515 0.122590154 -0.078629345 -0.0005705845 -0.010809863 -0.17919275 -0.011344462 0.011007484 -0.11307628 0.15501463 0.04232667 0.06499405 -0.04362357 -0.0010114206 0.12049944 -0.004409531 -0.016425215 0.114359945 0.04575666 -0.042440157 0.118309446 0.08998353 0.023709487 -0.07600292 0.058200285 -0.009224497 -0.14646253 0.0866816 0.034685176 0.111208126 0.028856043 -0.0028798059 0.0022200223 -0.09020331 -0.0033504143 0.10360668 0.027349662 -0.1772148 -0.017470714 0.11396752 -0.24299553 -0.021130847 -0.012971505 -0.0737367 0.1807441 0.018581122 -0.08816837 0.07509944 0.19800803 0.015513531 0.09401181 0.114898175 -0.04297907 0.09669409 0.09465995 -0.006253072 -0.1590346 0.00838071 -0.0015371663 0.17981218 0.07396071 -0.095552854 -0.187177 -0.044031102 -0.04824112 -0.10006178 -0.08599368 0.0016149676 0.03922285 0.038454417 0.012737676 -0.033462875 -0.018482603 0.0028925852 -0.14900343 0.011781834 0.025166318 0.12154558 0.13085803 -0.044795856 -0.05572898 0.030280186 0.025296565 0.031140566 0.04188058 -0.012051435 -0.043209817 0.06223978 0.12554589 0.040083587 -0.028628774 -0.00462451 0.027149035
48 -0.0032143523 -0.157314 0.2992793 0.13928586 0.03307609 0.015730826 0.20559883 -0.17787787 0.03461617 0.022877418 -0.0040462036 -0.13100725 -0.104919896 -0.36087474 0.048411526 0.22185802 0.29321748 -0.010883824 0.0784492 0.18529147 -0.108639054 0.3363903 0.15465197 -0.19879387 -0.39126527 0.061723113 -0.039627817 0.04521036 -0.09732388 -0.32893285 -0.27222764 -0.11421352 -0.114759676 0.11008792 -0.08919754 0.16101752 0.07739178 -0.14774525 -0.09723392 -0.11891105 -0.042474244 -0.07005536 0.10270993 -0.09181878 0.16167894 0.09210053 0.06602412 -0.04663958 -0.0054587875 0.029891491 0.15133622 -0.13948907 0.16962022 -0.0101429 -0.019052507 0.039088935 0.24643652 0.037447438 -0.021179087 -0.021707123 0.04182288 -0.16562986 0.09619979 -0.058732096 -0.05704799 -0.18801534 -0.11142961 -0.094749674 -0.061321497 0.10775825 0.08309895 0.12754014 -0.22825149 0.06362471 0.0007984402 -0.3127083 -0.026255608 0.06957062 -0.11508993 0.16116717 0.0026807485 -0.14276175 0.17520776 0.25693953 0.29115593 0.08252341 0.13663617 -0.013632338 0.10940369 0.125742 0.011015213 -0.23825248 0.07072373 0.031854507 0.15689163 0.013568744 0.24880154 -0.0032962575 -0.12412716 0.03261304 0.16015448 -0.11130532 -0.021746734 -0.030631129 0.17431627 -0.15712559 -0.14795169 0.2775439 0.039579492 -0.33997923 0.042099766 -0.0025758038 0.112385824 -0.004537753 -0.020347811 -0.21713297 0.35092106 0.24434009 -0.09779798 -0.09639578 0.009945122 0.08800401 -0.061515838 0.13551377 0.09443965 0.053289358 0.056692876 0.059787046
42 -0.02934836 -0.18478693 0.28718743 -0.24579409 0.10657616 -0.17437588 -0.13212621 0.103141926 -0.025662173 0.037128333 0.2132398 0.14198886 -0.2065978 -0.024960553 0.013370678 0.020017453 8.322445e-05 0.09158469 0.050681707 0.00011405178 0.13496898 0.07575206 0.0959318 -0.123701856 0.03874188 -0.06365883 -0.08659137 0.057131726 0.033557005 0.2065715 -0.23998846 0.051337082 -0.030107623 0.051520023 0.07331804 -0.07274931 -0.026920507 -0.024780639 0.15502468 -0.076827265 0.14639314 0.07025486 -0.13391197 0.080795884 -0.16084309 -0.026398113 -0.030814515 -0.09997448 -0.010969395 -0.09167415 0.21517411 0.09472727 -0.1118495 0.073417835 0.047922384 -0.03764166 0.10124942 0.016049985 0.18497008 0.06205561 0.13961022 -0.07906814 -0.026871856 -0.09092617 -0.032556716 0.019153299 0.03417651 0.2777825 0.03161736 -0.006297046 -0.0975147 -0.18142147 -0.09263367 -0.28966215 -0.10580131 -0.049789198 -0.10522031 -0.04220372 -0.20651591 0.079656005 -0.034839153 0.048548494 0.11170212 0.26990578 0.17706148 -0.03227201 0.17792317 -0.2448137 -0.08537326 0.16813673 -0.29808053 -0.20682307 -0.030167533 -0.14749974 0.039516658 -0.22048798 0.07053255 0.015968092 0.0826012 -0.19837183 0.06162508 0.17637841 -0.07479333 -0.037771 0.08830062 0.112171695 -0.003282489 -0.10511118 0.147957 -0.12502241 0.0473314 0.020472907 -0.12647551 -0.04499607 0.015210991 0.108571015 0.03061966 0.016847964 0.1658788 0.059195824 -0.11815843 0.06453924 0.123212695 0.056279134 -0.2746541 -0.0107142115 -0.22208951 -0.12710173
40 0.013462193 -0.22962177 0.24434067 -0.18919325 0.04017572 -0.23313844 -0.02217901 0.16139747 -0.13479848 0.09973737 0.44001898 0.081022345 -0.24044578 0.13628396 0.0039366786 -0.06072634 0.020159047 0.124456465 -0.12533125 0.00031522964 0.16134624 0.025347754 0.06522427 -0.037328504 -0.0017124776 0.042397175 -0.0752712 0.18721862 0.015329285 0.089326166 -0.27043375 0.07161953 0.091470025 0.055851597 0.02194422 -0.11061423 0.060633127 -0.02208649 0.11003722 -0.03017559 -0.0032016644 0.10114747 -0.12303823 -0.051721036 -0.059412695 -0.13151832 -0.035763558 -0.006364304 0.043111227 -0.0053239223 0.08949684 0.0055463044 0.0363042 0.13264395 0.06312181 0.01565706 0.1051461 -0.09058237 0.03766598 0.1903421 0.056263108 0.021347156 -0.023985714 -0.04347057 -0.014513794 0.07853331 0.0008991307 0.22622806 -0.08746501 -0.00704892 0.022183387 -0.06247657 0.01134301 -0.2307293 0.041502025 -0.058498546 -0.022271601 -0.032082487 -0.110566735 0.013879889 -0.047342874 -0.11465176 0.038945667 0.12912339 0.043885864 0.05492488 0.06272698 -0.16723196 -0.13297887 0.12054861 -0.09339131 -0.03426232 0.010835732 -0.041653354 -0.0040820832 -0.06741834 -0.069108136 -0.18463948 0.110439606 -0.07741917 -0.16292177 0.038372606 -0.054625846 0.029971128 0.07141599 0.05721531 -0.011980662 -0.091405585 0.030468429 -0.13626291 0.037200432 0.039836343 -0.014362841 0.06773785 0.1152485 -0.0130899735 0.024678595 0.11995444 0.13696809 0.021035537 -0.09247661 -0.047073115 0.07410436 0.08680757 -0.12460547 -0.042953204 -0.09272133 -0.06080081
23 0.025147807 -0.08791171 0.13406755 0.13769102 0.024893282 0.034809574 0.106197484 -0.09624241 -0.063988954 0.028915474 0.004298435 -0.10158285 -0.07797865 -0.1766106 8.016205e-05 0.1272358 0.093787715 -0.022712706 0.032334715 0.077998295 -0.042724915 0.10088103 0.09268239 -0.09663832 -0.14391083 0.013836273 -0.012734111 -0.022428678 -0.100407645 -0.16462588 -0.13698375 -0.064736 -0.0647404 0.14880861 -0.06765323 0.11016638 0.13809617 -0.20007458 0.020903444 -0.11578908 -0.11865562 -0.06664143 -0.10467165 -0.050139505 0.22939551 0.08154781 0.04454412 -0.058836874 -0.06682714 0.06086016 0.10044875 -0.058165934 0.13001923 -0.0149336215 -0.109760925 0.03674331 0.2309718 0.026020508 -0.021203209 0.012351919 -0.05385538 -0.12969385 0.16470459 0.03980993 -0.013932067 -0.061163448 -0.013444617 0.0024107813 0.012212464 0.10397409 0.05990129 0.0932055 -0.14296901 -0.048221704 0.06978693 -0.19636118 -0.05351204 0.043303415 -0.084418684 0.111947566 -0.060590953 -0.10706569 0.1805028 0.22038397 0.096515164 0.09628357 0.07951066 0.015212682 0.062041935 0.11015163 0.031695582 -0.18080278 0.032926895 0.025945686 0.094948515 0.09002781 0.04412982 -0.14619681 -0.018497927 -0.026727619 0.03233142 -0.10447973 -0.029743044 -0.016581409 0.14527173 -0.051104378 -0.0765919 0.1128997 0.011842801 -0.3143389 -0.041224584 -0.017344646 0.15599716 0.027240966 -0.011366181 -0.1339847 0.22046739 0.18280314 0.065403976 0.035307966 -0.0024139702 -0.004297195 -0.015776908 0.21822535 0.045080047 0.023435991 -0.048669253 0.11446545
46 -0.014046647 -0.13371775 0.21715176 -0.19320995 0.074651346 -0.11003757 -0.062495783 0.11956243 -0.11644524 0.041902617 0.20219636 0.074850924 -0.18336762 0.014410438 0.021212459 -0.00924953 -0.040321916 0.030615112 -0.0039679734 -0.03528224 0.1398461 -0.008922996 0.047225695 -0.08357136 0.074668445 -0.053661887 -0.062426094 0.015377261 0.061620593 0.16908608 -0.22514759 0.02671208 -0.00088796025 0.023074856 0.012375925 -0.08870624 0.020383792 -0.10923203 0.25738007 -0.16272031 0.08013471 0.07832528 -0.3436457 0.030144615 -0.05983418 -0.041341398 -0.086445875 -0.16560592 -0.040692307 -0.06132607 0.24255945 0.14843138 -0.115450986 0.05869319 0.03006244 -0.02772602 0.14491192 -0.0006024623 0.21249202 0.07960583 0.118769735 -0.06833717 -0.0073103313 -0.054233722 -0.041725434 0.034184262 0.081483915 0.3166118 0.09053535 -0.013983608 -0.11976379 -0.09677238 -0.04816451 -0.28688172 -0.060315866 0.025943983 -0.07383788 0.028811622 -0.11604868 0.034902614 -0.10478847 0.042684216 0.16234082 0.21217452 0.17336921 -0.050404 0.14009194 -0.2308099 -0.08294685 0.16633025 -0.2932352 -0.14322188 -0.094176956 -0.12785524 0.016723644 -0.14724179 0.009548616 -0.03171941 0.11753547 -0.20716473 0.075771175 0.19862404 -0.11226817 -0.08648878 0.109255 0.15481916 -0.012057437 -0.15453409 0.13811758 -0.1344105 0.0030481024 0.034156483 -0.050762415 -0.024909303 0.011178955 0.09834245 0.02565852 0.106949076 0.23924075 0.1441055 -0.078515396 0.025500534 0.1001677 0.13159166 -0.25737768 0.0146043105 -0.2335634 -0.037926484
49 -0.037961826 -0.18323274 0.33796328 -0.29850483 0.16683333 -0.14978552 -0.1603248 0.12700373 -0.07404225 0.0800304 0.20680766 0.09338287 -0.26993313 -0.048087392 0.048641127 0.016314283 -0.047107473 0.08844162 0.07362914 0.048791006 0.12813404 -0.035760544 0.06538282 -0.052018598 0.10853005 -0.09899859 -0.06347146 0.035347257 0.06249308 0.28556564 -0.24170558 0.07916403 -0.06889066 0.04812965 0.05247219 -0.06970763 -0.00044257945 -0.043607794 0.23350273 -0.08707556 0.10304444 0.05402815 -0.22148646 0.06349733 -0.09977576 -0.04020518 -0.012127603 -0.122369245 -0.014453447 -0.044219952 0.16927768 0.10255917 -0.1146281 0.018105373 0.026605273 -0.020876909 0.0806153 0.017921114 0.20447674 0.040901426 0.11311696 -0.055938084 -0.041656792 -0.05819142 0.023252714 0.06879824 0.09145873 0.2819871 0.07216581 -0.0011792976 -0.057396863 -0.16605936 -0.08321374 -0.33898553 -0.08007714 0.0021013678 -0.10315563 -0.048034836 -0.18368362 0.10152858 -0.063993454 0.09589335 0.08353568 0.21467488 0.07684572 -0.085308015 0.14610241 -0.23500131 -0.064388946 0.16163114 -0.28699082 -0.2259615 -0.079708524 -0.16817915 0.012651451 -0.20075761 -0.0819703 -0.047301397 0.09571615 -0.21615286 0.08816839 0.16977938 -0.12605369 -0.033572186 0.13087295 0.2019752 0.008222706 -0.1812245 0.1485001 -0.15616703 -0.024530288 -0.004033036 -0.010118669 -0.09092421 -0.016678868 0.1079523 -0.0060552466 0.023965554 0.16417617 0.08103807 -0.058793753 0.066514835 0.065045044 0.11750754 -0.22886683 0.03700892 -0.20937999 -0.030936142
31 -0.06808134 -0.15538177 0.27976814 -0.21070361 0.13047601 -0.08786321 -0.121641755 0.08495463 -0.013618882 0.06206615 0.1449972 0.080458105 -0.14195247 -0.111917175 0.042948842 0.029511947 -0.019129746 0.091043435 0.076345876 0.05198295 0.09095624 0.0078813555 0.051405482 -0.12280263 0.0625418 -0.09113325 -0.06932987 0.017062878 0.08479217 0.252884 -0.20959596 0.07276813 -0.08221544 0.045470536 0.03178458 -0.022913983 -0.0024457583 -0.08754613 0.23040143 -0.15675078 0.102892414 0.034556337 -0.23332503 0.020896818 -0.054500096 -0.017532792 -0.053845353 -0.16472544 0.0018794105 -0.029285394 0.23849815 0.110577986 -0.13318376 0.041276846 -0.0071798153 -0.017540868 0.08885329 0.050572444 0.22308786 0.04677431 0.08665372 -0.08287431 -0.024484871 -0.11474744 -0.017669003 0.039114278 0.055222914 0.25565442 0.13718773 0.032527342 -0.10116153 -0.13732518 -0.08487318 -0.25335568 -0.06948107 -0.03744417 -0.06631545 0.014871098 -0.1582666 0.11623673 -0.12035018 0.081264116 0.13081709 0.24501263 0.17343733 -0.07897861 0.16010486 -0.21590048 -0.05488383 0.13173331 -0.2995475 -0.21078235 -0.10372766 -0.15460029 0.040704 -0.2078327 0.019848265 0.029818807 0.08552416 -0.22418495 0.106665716 0.19034211 -0.12633549 -0.077890754 0.10669633 0.18777332 -0.0080974875 -0.1708563 0.17006847 -0.08638667 0.007713541 0.038395833 -0.06027632 -0.045904078 -0.049997333 0.11839034 -0.010956707 0.009731298 0.17250788 0.11470794 -0.080299705 0.06314749 0.11492237 0.082843915 -0.2708338 0.04433381 -0.23231755 -0.061722543
6 -0.031185659 -0.14638688 0.2588691 -0.24423772 0.13245572 -0.12498961 -0.12743044 0.06361644 -0.01903117 0.060360618 0.06634272 0.04885177 -0.17177506 -0.09686602 0.097730994 0.050912093 0.0019231869 0.11480172 0.0941415 0.093973435 0.07595208 0.11990041 0.055099733 -0.06341551 0.0068746633 -0.12619191 -0.06846884 0.029200314 0.036318544 0.1895747 -0.23557596 0.011891108 -0.048777577 0.031530093 0.023639733 -0.055409014 -0.0076339617 -0.012590696 0.20355207 -0.05546634 0.095379494 0.0008156536 -0.1580432 0.09300442 -0.10173905 0.06261219 0.0022908659 -0.13337316 -0.03477029 -0.08428499 0.1482648 0.12505223 -0.16022994 0.02330508 0.010114753 -0.014235619 0.024167387 0.055368666 0.19496718 0.009150086 0.11820793 -0.08793281 -0.006992352 -0.054292627 0.023773214 0.057781987 0.033350985 0.23092313 0.07608127 -0.060930863 -0.06819492 -0.20006861 -0.12208056 -0.30607706 -0.09856696 -0.02638606 -0.16213942 -0.03322199 -0.20405403 0.10073803 -0.05011996 0.10182591 0.11242407 0.28830892 0.09907347 -0.048067875 0.1583776 -0.28022555 -0.040766064 0.1881028 -0.39228222 -0.20415309 -0.09004267 -0.16513847 0.08529902 -0.21136537 -0.031909678 -0.015138789 0.08193999 -0.26036456 0.05941542 0.18130642 -0.10847322 -0.07150774 0.0128082605 0.18640216 0.029391333 -0.14238639 0.11977193 -0.15331367 0.03630718 0.033087 -0.085653394 -0.03744161 -0.029580865 0.12411406 -0.084031165 -0.051395494 0.17524733 0.09127398 -0.117684454 0.028897298 0.077584215 0.112547636 -0.29709575 -0.017359775 -0.25694662 -0.09118546
16 0.0020079636 -0.16698943 0.3433448 0.12051251 0.028683964 -0.0097371545 0.19727403 -0.14541993 -0.051542874 0.04795035 0.0039727837 -0.13356258 -0.1513968 -0.31646603 0.029921023 0.21642359 0.20716503 -0.015328425 0.075579025 0.14889291 -0.07711528 0.22157453 0.11623864 -0.14590831 -0.24612865 0.010706792 -0.046234593 0.010006817 -0.11374625 -0.25365338 -0.24080376 -0.10080483 -0.06968343 0.13149981 -0.07206949 0.13834202 0.11626345 -0.20326321 -0.103027545 -0.112758376 -0.10612204 -0.095213264 0.04929462 -0.086099274 0.18359067 0.095718555 0.07058787 -0.04418011 -0.014148045 0.02985321 0.112371095 -0.120737664 0.16118586 -0.048322126 -0.034768455 0.040146478 0.22822641 0.025686879 -0.018591814 -0.007254516 0.009920137 -0.15845919 0.100998044 -0.017154215 -0.08390365 -0.15940352 -0.07477842 -0.08078268 -0.08470138 0.13376296 0.10288393 0.15226777 -0.20166968 0.05374101 0.01825894 -0.29731214 -0.07872895 0.013477837 -0.11280133 0.1331467 -0.005691183 -0.16386153 0.19642417 0.24995112 0.2134176 0.103516765 0.090716444 0.03421552 0.0994376 0.13209754 0.047703966 -0.20471467 0.10913908 0.05551195 0.12500271 0.059625804 0.19539075 -0.002927382 -0.103305504 0.02791207 0.1714669 -0.11066999 -0.03798135 -0.038245607 0.18607625 -0.12280132 -0.11554584 0.2956736 0.017413383 -0.37983128 0.036135536 -0.020623904 0.14623965 -0.037285317 -0.015835429 -0.22832453 0.35219434 0.22298956 -0.103073485 -0.070461884 0.030386217 0.06684484 -0.07027682 0.15069818 0.11302859 0.07788817 0.07926561 0.09432575
34 0.019542886 -0.13214803 0.24643192 0.1050396 0.050552577 0.04295816 0.0918441 -0.137501 -0.07083281 0.093530424 -0.0015152674 -0.1700341 -0.14104688 -0.2744258 0.03049096 0.13336906 0.15463822 0.006482163 0.06423616 0.1468351 -0.032524034 0.16220684 0.13124801 -0.13253193 -0.21540762 0.0076018074 -0.057649586 -0.04074437 -0.103844255 -0.13503757 -0.23103732 -0.06839466 -0.1542107 0.13345988 -0.06079026 0.1931286 0.10273632 -0.20052144 -0.046236742 -0.093617976 -0.07707002 -0.10752404 -0.027268503 0.007909912 0.2200427 0.14559956 0.024151763 -0.07684421 -0.09320772 -0.030426517 0.14750293 -0.067045696 0.107952334 -0.13363865 -0.17826441 0.02333253 0.18019405 0.10193893 0.04752566 -0.109914586 -0.04797053 -0.13234442 0.13564403 0.036951777 0.005256141 -0.1528875 -0.06429627 -0.12811749 0.0708371 0.108145006 0.035992038 0.08178409 -0.1862893 0.019734755 0.042765036 -0.2258254 -0.055841442 0.07593429 -0.057252076 0.13343942 -0.04541445 -0.0677516 0.19505177 0.20960106 0.17295173 0.061389968 0.07490409 0.05025776 0.09229943 0.052061908 0.008537114 -0.18855004 -0.0012593807 0.03729506 0.11191637 0.07794453 0.10908745 -0.08304297 -0.082671754 -0.071872555 0.1621256 -0.116809435 -0.006353074 -0.029807875 0.16199294 -0.056559805 -0.09009076 0.108635694 0.04596304 -0.31157494 -0.05037438 -0.027201185 0.17555457 -0.044140026 -0.040875476 -0.10859954 0.24341503 0.16808717 0.042890027 0.021884535 0.02171814 0.065028 -0.057175573 0.23968698 -0.02149134 0.054198064 -0.042420365 0.09120855
43 0.021036904 -0.16701263 0.26395428 0.10734088 0.056858815 0.020095618 0.074509926 -0.13901289 -0.05074233 0.049076255 -0.010400081 -0.16114563 -0.109509796 -0.27130693 0.099208355 0.122141495 0.19232446 -0.006373603 0.09584554 0.17968066 -0.051101908 0.23138835 0.14342788 -0.16179042 -0.26659554 0.023420794 -0.031937726 0.035845026 -0.078002006 -0.17512815 -0.26598302 -0.11386404 -0.12486056 0.1431362 -0.11265266 0.16387372 0.15640798 -0.24111803 -0.040928937 -0.15181068 -0.1242948 -0.13810936 0.0035189749 -0.057738565 0.24075635 0.15658922 0.04478113 -0.1256619 -0.06486688 0.012111337 0.18477663 -0.116882205 0.17798153 -0.053403202 -0.13730507 0.0702792 0.25654867 0.062089052 -0.008484244 -0.07635592 -0.026272908 -0.19118315 0.20351948 -0.037033528 -0.10814255 -0.20352243 -0.11695148 -0.15554953 0.055596124 0.14760503 0.10011548 0.12784202 -0.24984105 0.108078405 0.025492648 -0.27045414 -0.08055141 0.098877534 -0.062869936 0.1329214 -0.052156657 -0.085849516 0.22347786 0.22599503 0.24403031 0.062124595 0.1159897 0.079581656 0.12175388 0.035441935 -0.00033743636 -0.20123288 0.044332005 0.04616856 0.17722228 0.08038481 0.23670204 0.017560853 -0.15871662 -0.022855917 0.22724332 -0.11778931 0.0037022932 -0.07535661 0.1682479 -0.13424033 -0.08920063 0.2226324 0.03865285 -0.3346806 0.0018875396 -0.00969483 0.11160924 -0.07566421 -0.08570086 -0.18119925 0.35986018 0.20944409 -0.08918008 -0.040538758 0.035319515 0.08875288 -0.09598096 0.22433022 0.041362736 0.045810193 -0.044399753 0.10723854
21 0.048757974 -0.16519758 0.36491343 0.19104068 0.02105758 0.009687337 0.22625868 -0.18292724 -0.15996031 0.057147965 -0.073779054 -0.22592181 -0.11433374 -0.33944055 0.10556644 0.15160903 0.20228253 0.012416546 0.09404874 0.21904601 -0.063720845 0.2759878 0.107653566 -0.17019102 -0.20867307 -0.051257886 -0.063837506 0.01178964 -0.13398694 -0.25634393 -0.31603783 -0.1364523 -0.0021654842 0.15095307 -0.12964505 0.07197344 0.16491316 -0.2956776 -0.16034263 -0.12478192 -0.20844108 -0.20965935 -0.00818387 -0.0404541 0.29954988 0.20969445 0.0594677 -0.07711864 -0.085438915 0.093578584 0.07932268 -0.07795753 0.13105369 -0.08907668 -0.15388224 0.08864377 0.23274331 0.022115316 -0.037639357 -0.030592117 -0.039752197 -0.28016746 0.21091227 0.0053021503 -0.19562316 -0.1943587 -0.09346002 -0.1078331 -0.057489183 0.14114012 0.108127005 0.15479861 -0.20684583 0.12177533 0.0013141889 -0.22215551 -0.18789645 -0.046523526 -0.05712275 0.032568675 -0.061090056 -0.10466839 0.24794231 0.27330917 0.12289134 0.13432184 0.05730413 0.11232447 0.15529227 0.10558058 -0.043199625 -0.11586356 0.105527155 0.07110073 0.13334419 0.14970131 0.21381053 0.019099366 -0.1555901 -0.037061907 0.18972535 -0.100567035 -0.015094997 -0.14995252 0.13234314 -0.10069998 -0.031319335 0.28845707 0.007952373 -0.43586242 0.082226515 0.019739106 0.13260111 -0.050683122 -0.1318289 -0.19740498 0.30111688 0.1679479 -0.097025685 0.00034939745 0.020841727 -0.0128624905 -0.02677879 0.25979024 -0.006679964 0.063339934 -0.06172531 0.11491472
5 0.010573211 -0.14964606 0.3283204 0.12650253 0.032832142 0.010284603 0.16508007 -0.15147464 -0.085142955 0.05658294 -0.033150014 -0.14930658 -0.135645 -0.32181224 0.046418194 0.21012886 0.2036976 -0.023057124 0.10776987 0.17291883 -0.07113252 0.1955454 0.10742672 -0.14023107 -0.21753958 -0.020106077 -0.043019608 -0.008778432 -0.12120059 -0.21235444 -0.23978263 -0.10240259 -0.10597756 0.15806393 -0.07536122 0.16271797 0.16812116 -0.26651856 -0.06559487 -0.1508789 -0.13728394 -0.13624604 -0.020184021 -0.051941175 0.24058066 0.14676213 0.068460435 -0.09769643 -0.06225952 0.034700032 0.15484616 -0.090866774 0.15237404 -0.07561778 -0.09688468 0.034945626 0.27937075 0.06643627 3.5508856e-05 -0.028069915 -0.03538738 -0.21325389 0.18161505 -0.020227108 -0.10625023 -0.1930915 -0.08159555 -0.09888368 -0.018933615 0.18078391 0.088019416 0.1619332 -0.24936889 0.06639429 0.012488272 -0.3146123 -0.123780094 0.014157081 -0.102680296 0.15495487 -0.043035056 -0.12419726 0.25203115 0.27827492 0.21456215 0.106849544 0.09162187 0.07550741 0.115366414 0.10294431 0.03648384 -0.23815109 0.110272005 0.062624514 0.1141543 0.0889689 0.21176693 0.029290212 -0.1322101 0.01491491 0.22260678 -0.1018254 -0.0346961 -0.05983419 0.2024112 -0.1249046 -0.10023036 0.28727373 0.015556715 -0.3953289 0.008043175 -0.03386194 0.1484447 -0.06690729 -0.051344045 -0.21043094 0.3583056 0.20413934 -0.088570625 -0.029322553 0.0457652 0.05188245 -0.0617236 0.19685252 0.0763666 0.081316315 0.022076273 0.12674902
13 0.025817491 -0.09702597 0.30020937 0.18501963 0.036801063 0.0755876 0.208559 -0.15311445 -0.076402575 0.055324297 -0.12492804 -0.17212194 -0.075822406 -0.38263312 0.043014184 0.2090902 0.18743624 -0.035924062 0.10394753 0.16858254 -0.093059875 0.1563973 0.06945799 -0.16530146 -0.19171672 -0.047753107 -0.036430962 -0.080241136 -0.112226844 -0.23881443 -0.18902732 -0.077991135 -0.08820042 0.15633072 -0.0936595 0.16343485 0.14915346 -0.2807134 -0.08801497 -0.14987433 -0.15683599 -0.123124436 -0.068854704 -0.04549027 0.27302808 0.12958652 0.053757533 -0.07010409 -0.08322749 0.0873048 0.12246086 -0.05657055 0.13239725 -0.0974859 -0.08790956 0.06489281 0.2701907 0.07536879 -0.0061239745 -0.024280958 -0.0761754 -0.2400121 0.16020092 0.025241334 -0.081961736 -0.16489425 -0.010317425 -0.08492326 -0.045746226 0.18107091 0.05992556 0.20192039 -0.24742785 0.07351028 0.03284093 -0.29145536 -0.11502708 -0.021012308 -0.07308113 0.15174308 -0.05972512 -0.110285915 0.25233287 0.2809946 0.15112692 0.09786369 0.10689525 0.075955816 0.16414951 0.12636663 0.03820195 -0.2452115 0.09252262 0.052823476 0.10741801 0.13874955 0.12726404 0.003969631 -0.11025559 0.017200012 0.19297412 -0.08200834 -0.04006372 -0.081196584 0.20635389 -0.053808086 -0.0937282 0.20721951 0.031282667 -0.3492285 0.003492198 -0.028784754 0.17705333 -0.037730996 -0.07782507 -0.15259548 0.28882754 0.18423055 -0.03642412 0.04499251 0.05953398 0.0119730625 0.0059901946 0.20635119 0.06909818 0.10956909 0.026870426 0.1464255
45 -0.09447229 -0.14937969 0.25794208 -0.18376663 0.12517522 -0.10586638 -0.105431125 0.16541058 -0.043207377 0.08410643 0.20167239 0.08411584 -0.115378596 -0.07479995 0.078025475 -0.037897225 -0.031919118 0.10614351 0.042351246 0.05583888 0.05741823 -0.024299975 0.031841595 -0.10581587 0.13070351 -0.10848598 -0.045277063 0.08817292 0.09183605 0.2531883 -0.21481718 0.076962754 -0.049784105 0.030561358 0.012392231 -0.06464907 0.03100234 -0.16433279 0.30102378 -0.225497 0.053971063 0.000469522 -0.32900682 -0.04093671 0.013210895 -0.030007135 -0.06402709 -0.14631017 0.0082535865 0.06787721 0.22576655 0.13449782 -0.13531311 0.08921885 0.019806333 -0.030197745 0.0983252 0.032356884 0.22824575 0.13646543 0.039782282 -0.07990216 0.020105535 -0.16265488 -0.054214276 0.09201626 0.06769604 0.34090954 0.1362708 0.06188638 -0.09278408 -0.11706535 -0.0026094362 -0.28328323 -0.06018947 -0.028165128 -0.08214424 0.021045761 -0.15171331 0.100441016 -0.17162858 0.062525384 0.09402068 0.23524943 0.13339457 -0.06443584 0.16631187 -0.18558107 -0.075949855 0.14140494 -0.26927054 -0.16472027 -0.07633676 -0.16550818 -0.0036597855 -0.17022051 0.013406966 0.026164638 0.11546876 -0.22117855 0.057218842 0.19330667 -0.16450737 -0.09423199 0.1134441 0.1791845 -0.0066924463 -0.13554765 0.11743211 -0.095741406 0.008379076 0.054586947 -0.11272802 -0.04238637 -0.07378354 0.10634126 -0.02626957 0.00061734027 0.1459572 0.12569903 -0.114419274 0.02891141 0.118593186 0.047234073 -0.2495033 0.06225189 -0.20871964 -0.0308517
28 0.046927836 -0.18627393 0.30950803 0.11474634 0.058818083 0.0022189273 0.1283734 -0.20366226 -0.026912866 0.0036677339 -0.057879485 -0.15770617 -0.1474018 -0.2931729 0.08241478 0.20050162 0.23547949 -0.00032915658 0.11491254 0.18300325 -0.031575993 0.34295797 0.18237291 -0.13769588 -0.33750317 0.032040816 -0.054078303 0.018402329 -0.13278076 -0.26123974 -0.3195572 -0.16905735 -0.103496306 0.16205262 -0.1338958 0.17672436 0.17312735 -0.20067914 -0.12059097 -0.095040716 -0.15429135 -0.15666799 0.1154787 -0.059401236 0.20415846 0.19781394 0.10100037 -0.10963061 -0.054653674 -0.01574671 0.10046556 -0.13312975 0.20458737 -0.016547235 -0.08270305 0.07236368 0.23526132 0.02525753 -0.056131437 -0.09574928 0.06712067 -0.22366235 0.16698329 0.002498169 -0.09616672 -0.21047829 -0.12384326 -0.15973236 -0.059019066 0.08240587 0.12577926 0.08812865 -0.28360498 0.09519986 -0.013340754 -0.27824128 -0.12148958 0.0520417 -0.11213669 0.14064276 0.03055424 -0.08483917 0.20717882 0.2527449 0.2164354 0.072956644 0.11840476 0.03340871 0.1518259 0.10561791 -0.032700237 -0.21176848 0.08300993 0.060472794 0.22534074 0.056077372 0.21981703 0.013169718 -0.18018964 -0.004412017 0.2030925 -0.14590622 0.020850437 -0.067851916 0.12214928 -0.16331032 -0.08243819 0.32282034 0.020630704 -0.429661 0.039479375 -0.019284375 0.13397527 -0.05361597 -0.0441996 -0.23075514 0.38329053 0.21172974 -0.13520588 -0.10296254 0.045309633 0.07780141 -0.11314342 0.21826236 0.08227367 -0.005967107 -0.0231618 0.09829922
9 -0.028793551 -0.19142558 0.2871521 -0.28809583 0.17530109 -0.17199686 -0.24157754 0.13890937 -0.14093204 0.100447506 0.14107007 0.036116082 -0.26852685 -0.016244162 0.14974375 -0.01219026 -0.1399316 0.10381215 0.108960815 0.011260121 0.12195957 -0.054266598 0.07300132 0.04359372 0.20805013 -0.14247158 -0.034929436 0.02980048 0.044617873 0.37159076 -0.22991978 -0.00947534 -0.10882193 0.06115674 0.0029577634 0.025047082 0.09006132 -0.15136485 0.31787616 -0.12523296 0.03801651 -0.02598923 -0.27530423 0.069990106 -0.0115368245 0.098205216 -0.024213545 -0.19522539 -0.058496196 -0.09324219 0.19505766 0.08104242 -0.08154796 -0.013256213 -0.02178943 -0.028754095 0.032951713 0.03906197 0.22717892 -0.026172044 0.09572151 -0.06510891 0.05378494 -0.032144085 -0.016525147 0.059350647 0.05497895 0.1979505 0.19081603 -0.020494923 -0.024668412 -0.19446102 -0.07158848 -0.32874864 -0.073058024 0.025447892 -0.16603442 0.044193164 -0.19553174 0.106062666 -0.10921144 0.13683903 0.113132924 0.22159594 0.04207814 -0.13022918 0.1505684 -0.18198381 -0.020924937 0.12641948 -0.3048884 -0.17827886 -0.111875154 -0.1484649 0.09844682 -0.16407081 -0.10504937 -0.007950759 0.080769144 -0.26093286 0.13766295 0.13794757 -0.10314088 -0.062023435 0.06826635 0.18068713 0.04927267 -0.124916464 0.0996769 -0.17609751 -0.0407847 -0.01458314 -0.051622383 -0.17896076 -0.054283418 0.1259018 -0.0063235885 -0.034673065 0.12479378 0.08188023 -0.07921045 0.113690674 -0.064303 0.12842114 -0.2472331 -0.00432087 -0.26197058 -0.00046548859
