50 128
3 -0.034894813 -0.09949934 0.12150623 -0.00956152 -0.043157227 -0.14947917 0.0114176525 -0.004529447 0.019262366 -0.010103063 0.16076618 -0.0038813895 -0.022238342 -0.034750443 0.09904151 0.009700029 -0.053664908 0.119033195 0.008559359 0.06503109 0.06497125 0.051183168 -0.021933334 -0.028207073 0.013182324 -0.078579776 -0.096199386 0.074040115 0.077293016 0.017550407 -0.10856801 0.022496246 0.023339666 -0.0048865927 -0.0095519265 0.008043256 0.1814823 0.024231125 0.20493335 0.040806606 -0.022782452 0.06052578 0.035954583 -0.07448281 0.03875869 0.08007618 -0.038431566 -0.026796326 0.14345689 0.09451203 0.060256258 -0.013516547 -0.046374965 -0.014287933 0.026200539 0.17003646 0.05143693 -0.05125279 -0.07927397 0.006122449 0.021886157 -0.067236096 -0.050269324 -0.112529844 0.13952743 0.026852513 0.07543135 0.051812496 0.07952396 -0.07610907 0.10817485 -0.08056092 -0.21436946 -0.17012064 0.05952538 -0.0958933 -0.021594744 0.01842728 -0.012662467 0.14157942 0.011016491 -0.024889505 0.06462195 0.23934859 0.008812408 0.11032523 0.103022255 -0.1328028 0.054408524 0.18459274 -0.11732401 -0.10578164 -0.14327937 -0.033252355 0.23268038 -0.0493069 -0.17854533 -0.13524282 -0.0030387666 -0.07198606 -0.1851845 0.061225686 0.075409 -0.10373101 0.06676335 0.08436569 0.087750405 -0.12468002 0.03139474 -0.16214782 0.12663284 -0.043929435 0.023079319 -0.027137363 0.011293408 -0.051519774 -0.053014785 0.0195142 -0.079368636 -0.02615892 -0.056627903 0.03175214 -0.02778858 0.017780814 -0.09611461 0.10038826 -0.16274811 -0.016744273
33 -0.026259344 -0.0699858 0.14336655 -0.031668514 -0.0054449798 -0.20696165 0.15610334 0.004328527 0.048424277 -0.025561826 0.22630596 -0.03069141 0.012481852 -0.04705354 0.062758565 0.0064827176 -0.06436478 0.17575628 -0.059275046 0.021343501 0.084693775 0.12591368 0.0031420863 -0.06539354 -0.06602098 -0.108947955 -0.120185085 0.03971807 0.076378316 0.049869377 -0.1290446 0.035324898 0.03766458 0.010069634 -0.09917836 -0.011720053 0.23648928 0.08990761 0.24421304 -0.015812105 0.043680377 0.13091527 0.027805937 -0.118118 0.013098522 0.08191038 -0.10535004 -0.07151974 0.15381877 0.0740804 0.04174038 0.025999501 -0.008356784 0.042654872 0.0016955675 0.19360149 0.04293696 0.028377002 -0.096797824 -0.024804685 0.024772743 -0.093439475 -0.052372165 -0.038737543 0.11060775 0.041049615 0.06907671 0.06744551 0.04000134 -0.10674783 0.08857652 -0.07018091 -0.23492701 -0.08906724 0.028039277 -0.05365495 -0.012989107 -0.023052529 0.033321913 0.13407156 0.085293494 -0.028411554 0.058377177 0.18573174 -0.00054432516 0.109258235 0.10090989 -0.13806057 0.059544854 0.18384561 -0.1187529 -0.02516642 -0.17404638 -0.05526437 0.18626921 -0.07974356 -0.14581506 -0.10835123 -0.020089885 -0.06687519 -0.18588649 0.124582075 0.02747847 -0.08681602 0.042080212 0.11537793 0.09038173 -0.15066546 0.041190725 -0.11449494 0.21491009 -0.016414959 -0.016165588 0.038834628 0.041515928 -0.08475391 -0.089267954 0.009656534 0.008133039 0.0057534603 -0.07862751 0.0019879937 0.04514686 0.014421703 -0.061492532 0.09452492 -0.11761199 -0.0060901353
0 0.02175809 0.011117503 0.10370355 -0.0040443065 0.07456529 -0.18790258 0.1544386 -0.004859098 0.02593299 -0.034630697 0.2107522 -0.057341423 0.15470207 0.022856142 0.07961457 -0.03359168 -0.008108222 0.10418344 -0.0049804086 0.06278091 0.058606606 0.023874624 0.0076798033 -0.083758034 -0.01906467 -0.055256687 -0.077094406 0.0134505555 0.07084394 0.01985129 -0.106084 0.024702357 0.0542493 0.15444484 0.0055648675 0.01867409 0.15748234 0.022640862 0.092967175 0.05034546 0.011308732 0.118599206 0.109559536 -0.072616376 0.0035324378 0.055316605 -0.10977398 -0.02674468 0.098433055 0.099273294 0.09571391 0.0507049 0.053129032 0.06322919 -0.07040531 0.22220802 0.039113965 0.11798684 -0.13395986 0.0070931953 -0.08885321 -0.10781938 0.012922915 -0.12432506 0.13091084 -0.042244542 0.053164616 -0.06734654 0.008988375 0.020120652 0.1108676 -0.13886707 -0.1977635 -0.09999582 0.052201606 -0.14675127 0.016328974 -0.13395901 -0.012724342 0.10442633 0.12002453 -0.08153957 0.036515504 0.33148134 0.010847113 0.10984986 0.13748029 -0.11531634 -0.01345481 0.18017556 -0.08052587 -0.059662357 -0.2189621 -0.005704211 0.22985397 0.003796909 -0.15523215 -0.12069417 -0.05771732 -0.10231442 -0.2711533 -0.05191591 0.10492937 -0.06758942 0.13143529 0.020915058 0.111708626 -0.18810412 0.033265423 -0.20784229 0.20742221 0.033544973 0.017933644 -0.1169621 -0.05523744 -0.1292783 -0.07241476 -0.024994891 -0.1112109 -0.12870066 -0.14379115 -0.014269429 -0.013908102 0.12805405 -0.052557603 0.1628459 -0.23612635 0.11776777
35 -0.0044993195 -0.06921936 0.15886573 -0.04322838 0.046282575 -0.22761281 0.07107626 -0.0033030442 -0.007254698 0.006544851 0.30192927 -0.0059526367 0.0874816 -0.026709726 0.0957777 -0.038790263 0.060598757 0.123048045 -0.014557174 0.07490692 0.018734962 0.049558047 0.026834335 -0.10915882 0.008475381 -0.08130309 -0.11639232 0.05638134 -0.0018157078 0.05829164 -0.10248919 0.012911984 0.04865952 0.115282215 0.071884125 0.030440537 0.19132596 -0.003291612 0.10245693 0.069390796 0.019095922 0.10848453 0.113549784 -0.08343096 0.026475012 0.027276043 -0.105888486 -0.036374696 0.104140855 0.10643505 0.1459174 0.065413415 0.023884337 0.05936015 -0.05314188 0.19620708 0.030637646 0.08240258 -0.11386053 0.04644412 -0.049340364 -0.08791224 0.014004291 -0.13956743 0.11199538 0.004827108 0.060671937 -0.028242353 0.049717713 -0.0063944072 0.1067257 -0.17495175 -0.15732965 -0.1484324 0.06413655 -0.11484929 0.07264809 -0.10965754 0.00993962 0.06574349 0.07142785 -0.026572283 0.046119552 0.28916183 0.009933025 0.14902991 0.08242412 -0.10242626 -0.07405229 0.16197243 -0.053989828 -0.009282577 -0.1545256 -0.008855464 0.20062716 0.02969544 -0.15264747 -0.11085296 0.018491836 -0.08564525 -0.27211446 -0.042814896 0.085831635 -0.07084582 0.1178576 0.020633599 0.06869667 -0.17075701 0.01411987 -0.23164901 0.14377463 0.034830905 0.036155645 -0.08799015 -0.023905376 -0.12664749 -0.055987284 -0.019382084 -0.12088819 -0.091560885 -0.13526236 -0.02291629 -0.07304706 0.11026718 -0.083515376 0.107015714 -0.23617308 0.10234927
32 0.009845043 -0.15863703 0.124368235 -0.17103209 -0.0391494 -0.12232305 -0.027266508 -0.007590904 0.03519091 -0.0045725033 0.098130964 -0.033504922 -0.14367649 -0.10317971 0.091764234 0.004569135 -0.062188942 0.14723246 -0.010496777 0.0030083368 0.09990779 0.08107534 0.01435999 -0.005746378 -0.096855015 -0.04082777 -0.12760794 0.026577538 0.095408395 0.019775193 -0.15142803 0.010851604 0.044169154 0.015122423 -0.08365955 -0.0027671005 0.17677979 0.07789553 0.19066057 -0.032190323 0.053571627 0.11414017 -0.044693027 -0.08561104 0.020831881 0.044870112 -0.018765751 -0.0945919 0.14143823 0.11152445 0.044241395 -0.068203695 -0.0029179864 0.08783364 0.03081806 0.18398133 -0.012078069 -0.008636595 -0.10349954 0.05422351 0.015554886 -0.06105129 -0.03249236 0.030736675 0.03898637 0.072119504 0.102921605 0.03817862 0.038145594 -0.09599725 0.08803461 -0.08093205 -0.16608381 -0.10019913 0.014223051 -0.02033687 -0.023427134 -0.015521014 0.016949784 0.10709108 0.039722517 -0.09005083 0.041812815 0.12849265 -0.011990437 0.090471916 0.049077813 -0.07480537 0.057979017 0.15213048 -0.13925241 0.00035112162 -0.11542791 -0.061154496 0.15240689 -0.058993794 -0.10196107 -0.098653644 -0.022136705 -0.07060208 -0.12668727 0.09701167 0.045089327 -0.08977107 0.040049918 0.049810216 0.050352477 -0.12799221 0.029745314 -0.14182597 0.10323223 -5.267556e-05 0.0495272 0.08654262 -0.029571097 -0.05906226 -0.15459596 0.009495818 0.111561894 0.103460886 -0.107566595 -0.06817447 -0.01379777 0.12757719 -0.064151846 -0.027520556 -0.10735587 -0.031336304
39 -0.015963707 -0.03448984 0.01956862 -0.15014236 0.017239733 0.030110115 -0.16853896 -0.0022667996 0.017015642 0.0763802 0.0068175565 -0.05524782 -0.093832135 -0.06821504 0.13818279 0.04174111 0.047907777 0.0833969 -0.017062735 0.04462718 0.11798296 0.18279324 0.09604537 -0.060283672 -0.07929911 0.0025634516 -0.08487867 0.03976491 -0.050319042 0.073905714 -0.120245956 -0.112446904 -0.16111504 0.045568142 -0.12760103 0.017127816 -0.0066565475 -0.10458053 0.11624374 -0.02563215 -0.0535493 -0.028795404 -0.14124988 -0.0035538261 -0.026974885 0.09522471 0.1889999 -0.12595055 -0.21444537 -0.09022038 0.093573086 0.0034731622 -0.022560688 0.15572481 -0.016353711 -0.0027404635 0.15682948 0.010470693 0.04129382 0.107954435 0.11504648 -0.15300308 0.1292207 -0.053451326 0.17446248 0.014235626 -0.11047564 -0.049401514 0.0046598646 -0.1395524 -0.09961197 -0.114329405 -0.06603446 -0.034337956 0.004210799 -0.28306437 -0.14013106 0.18823668 -0.22413927 0.17047594 -0.06497478 0.10090054 -0.015327784 0.029047769 0.06847012 0.051980425 0.04862543 -0.084087 0.07820914 0.022658221 -0.27311048 -0.15021285 0.02058861 -0.061654296 0.07557164 -0.011184257 0.06144273 -0.14146926 -0.19544971 -0.16675359 0.0040458357 -0.07097925 0.05682308 0.06075765 -0.1105415 -0.15000069 -0.1180347 -0.10128325 -0.037158057 -0.13230862 -0.26372194 -0.018534191 0.1782324 0.24148741 -0.09699731 0.23383899 0.0154938055 0.0798316 0.2924097 0.04520642 -0.13164036 -0.07392102 -0.15175499 0.36895376 -0.049447056 -0.36903435 -0.069585025 -0.014456617
7 0.0095430175 -0.047072742 0.07517862 -0.018823368 0.04732785 -0.14537296 0.19191606 -0.03158669 0.07967091 -0.03509507 0.19926786 -0.004943574 0.118461154 -0.0008030664 0.06868348 0.039732873 0.04241666 0.036591455 0.022264814 0.056448326 0.043056175 0.08501705 -0.0019560813 -0.09798036 -0.044422247 -0.018766358 -0.09955854 -0.00078486395 0.08787077 0.021101175 -0.08600269 0.0055664093 0.0112377675 0.12609157 -0.017686065 0.038118962 0.17728351 -0.03142784 0.13318644 0.0014435871 -0.0008891868 0.13791211 0.09450096 -0.11210399 0.0767378 0.08438373 -0.08157346 -0.03454404 0.11041873 0.066661984 0.058562793 0.022250233 0.032868814 0.06289583 -0.010132234 0.1437406 0.04847418 0.15474652 -0.11479583 -0.07736001 -0.07303917 -0.19462934 -0.0024117588 -0.08990179 0.12945084 0.0084619 0.031424757 -0.0064028893 0.004522468 0.006708937 0.08558884 -0.16910277 -0.22619656 -0.09006727 0.068120755 -0.15906064 0.008570267 -0.07194529 -0.01532594 0.07780799 0.081292786 -0.08422827 -0.00295952 0.34168455 0.05364749 0.12038519 0.10504998 -0.11086508 0.036587425 0.22054866 -0.082616135 -0.04774829 -0.17529432 -0.016365053 0.23531963 -0.044800982 -0.09281346 -0.09847211 -0.050602995 -0.064310744 -0.23921715 -0.019714799 0.043866694 -0.104133286 0.11033137 0.06252002 0.05076581 -0.122075155 0.032210864 -0.26240328 0.22381805 0.025620162 0.015108441 -0.09812388 -0.039079364 -0.107833356 -0.04521168 -0.0013115848 -0.078835614 -0.14342107 -0.13967411 -0.01827621 -0.0010195724 0.15749048 -0.08646983 0.078124374 -0.17753974 0.05417305
2 0.041636128 -0.02737043 0.05776327 -0.09904872 0.02814454 0.041770104 -0.12644406 0.03930775 -0.04677624 0.048156355 0.0027120528 -0.017937765 -0.14860384 -0.035841726 0.05067312 -0.04596553 0.07271971 0.11567865 -0.11025887 0.005331767 0.109896064 0.15285683 0.048621833 -0.04436324 -0.21416052 -0.033419736 -0.15341283 0.00042261896 -0.029091429 0.016737623 -0.22920826 0.039800476 -0.04904964 -0.009848098 -0.101420574 -0.007876157 0.16524415 0.028192302 0.18821546 0.00012396739 0.04056742 0.06938878 -0.061573755 -0.017080907 -0.04884796 0.046104338 -0.018685874 -0.087770656 -0.030497454 0.04526707 0.029638898 0.058797214 0.107053705 0.15719922 -0.011546344 0.15730622 0.039835677 0.036191955 -0.0631116 0.09561844 0.07140705 -0.10383924 0.027730027 0.07153186 0.113005586 0.032265566 -0.011621406 0.04515646 -0.054256137 -0.13135548 -0.0026955877 -0.10632043 -0.11377074 -0.12288169 0.02008858 -0.09424631 -0.1375536 0.02192032 -0.06196758 0.13973138 0.0021696475 -0.024157695 0.053767517 0.06309103 0.011921041 0.052661307 0.09150948 -0.046606876 0.05314282 0.10360045 -0.20304456 -0.03968887 -0.08136679 -0.023004545 0.052998714 -0.01579886 -0.007815956 -0.09938452 -0.06431047 -0.1050047 -0.036428727 -0.037993878 -0.042620994 0.013716331 -0.00508595 -0.007972869 -0.00023014036 -0.10251446 0.03518002 -0.065225974 -0.059481956 -0.010040498 0.09934732 0.09824353 -0.07696196 0.051499363 -0.053679395 0.054625556 0.17243427 0.113183774 0.00017360723 -0.056485854 -0.006107794 0.14211226 -0.04505532 -0.13276683 0.012447644 -0.0063395123
30 -0.01000333 -0.028778633 0.16968043 0.0046235532 0.06875652 -0.18588842 0.17245066 -0.04022814 0.020315666 -0.033716146 0.27048793 0.018870614 0.14119737 0.04988623 0.0854384 -0.010095042 -0.0036420238 0.05724987 0.03007101 0.09639161 -0.0016109917 0.04018142 -0.032529365 -0.14004701 -0.013502873 -0.0726189 -0.08002398 0.04594174 0.063680835 0.050259884 -0.13409968 0.030533759 0.034300864 0.15078126 0.04920571 0.042614784 0.1824217 0.0099077495 0.14898331 0.06537976 -0.040141284 0.08834961 0.12037448 -0.07839828 0.050775025 0.07825162 -0.11594435 -0.038681053 0.08515915 0.12662557 0.099365726 0.10492772 0.03495171 -0.021190904 -0.0592667 0.15297875 0.036154363 0.08420889 -0.062052794 -0.058126975 -0.066204205 -0.09214747 -0.01917731 -0.13918002 0.13465138 -0.04243904 0.028219298 0.009516463 0.012275047 0.009900335 0.10533054 -0.115786776 -0.21626845 -0.13790835 0.07011874 -0.15931232 -0.03869584 -0.065490514 -0.040178545 0.14365843 0.071390845 -0.038459685 0.058181364 0.35424012 0.047670983 0.07715353 0.14696209 -0.15449256 0.00700887 0.16848494 -0.08503026 -0.10970261 -0.16965075 0.015432537 0.20520715 -0.022136057 -0.16749121 -0.12976432 -0.022508943 -0.14247626 -0.25158906 -0.056218635 0.05331345 -0.100466646 0.114186615 0.101394035 0.10980264 -0.15334967 0.051785555 -0.19605818 0.20604187 0.026598405 0.00602191 -0.14380886 -0.055837587 -0.12629876 -0.032739922 -0.005299122 -0.13929686 -0.088924415 -0.068348676 0.046972714 0.0024556764 0.121367134 -0.11203752 0.14113495 -0.22999544 0.08369189
1 0.0012827187 -0.07861279 0.16421653 -0.047880676 -0.009826303 -0.22777474 0.023458827 0.0056876075 0.018052466 -0.048815027 0.16425219 -0.01896919 -0.0013342486 0.008226091 0.11373073 -0.0560095 -0.08326859 0.24483852 -0.04696256 0.04701141 0.1621868 0.064396985 0.01760693 -0.058648642 -0.024375675 -0.063707404 -0.121798605 0.0016875598 0.15243204 -0.0379298 -0.1591044 0.09492821 0.038302682 0.065672524 -0.109765686 -0.04761758 0.18436496 0.09457555 0.17413901 0.004764961 0.0072396267 0.08228371 0.026246427 -0.063099146 -0.027717067 0.05938279 -0.05331683 -0.060591433 0.104691215 0.09676874 0.0132015245 -0.018302176 0.011915505 0.11279558 -0.03632039 0.23517174 -0.005282786 -0.05165388 -0.08958945 0.07742714 0.07022481 -0.06051992 -0.03539436 -0.018508056 0.10896553 0.04376149 0.07176678 0.025232831 0.045525193 -0.093163304 0.06268411 -0.047632974 -0.13266467 -0.16371635 0.017639156 0.008049791 -0.050179534 -0.0017950953 -0.026197912 0.12736714 0.00018598586 -0.05862423 0.06948677 0.13995291 -0.057738118 0.037849415 0.07932476 -0.08494298 0.032381102 0.110366106 -0.15890975 -0.08299124 -0.17339386 -0.057687387 0.13153593 -0.056840274 -0.088202864 -0.08056634 -0.017368134 -0.03856994 -0.15023826 0.06343253 0.08109898 -0.06527376 -0.010482783 0.057810843 0.10684503 -0.14395401 0.04515632 -0.080056936 0.054138035 -0.011560004 0.057950314 0.025081938 -0.05665532 -0.046598498 -0.12928425 0.024486301 0.08386199 0.03380382 -0.07883073 -0.029307578 -0.004351775 0.060161453 -0.073338576 0.0317606 -0.14416678 0.0023467105
42 -0.02823407 0.013207182 0.18915938 0.08151643 0.070976384 -0.20822121 0.2503254 -0.029566696 0.009697823 -0.034910917 0.3609467 0.026210753 0.25584525 0.048990455 0.10867429 0.006558354 0.09888848 0.05653824 0.014108681 0.13074486 -0.054526374 0.025777893 -0.057325665 -0.18974887 0.008604554 -0.10390548 -0.07043978 0.06455831 0.00037333783 0.09647323 -0.10338995 0.016318392 0.0013996747 0.13626748 0.13066235 0.101043984 0.19246861 -0.041314937 0.07352875 0.06202785 -0.02789392 0.07669519 0.22758193 -0.07521524 0.06084983 0.042376366 -0.16499427 -0.021300074 0.1011508 0.07439602 0.12549154 0.11844688 0.071874864 -0.021520661 -0.03507962 0.17444733 0.05359051 0.17384249 -0.10568553 -0.07899386 -0.12589034 -0.11357057 -0.04005374 -0.24953605 0.124889776 -0.07951089 -0.012513096 -0.07240893 -0.008550247 0.049313184 0.09112341 -0.16006653 -0.28034186 -0.10908518 0.11004302 -0.26618966 0.07012217 -0.11091016 0.008513176 0.15207721 0.10992997 -0.009118964 0.06886423 0.4377021 0.119214624 0.14312991 0.17010075 -0.16332479 -0.021035427 0.1685346 -0.07944678 -0.10220299 -0.14631383 0.08454349 0.23427927 0.0646811 -0.18017328 -0.119019024 -0.073445365 -0.120988145 -0.2685504 -0.14599395 0.07908029 -0.041829582 0.13381244 0.052648332 0.053592347 -0.15838982 0.023878885 -0.26502544 0.15471263 0.042599395 0.045053996 -0.10974421 -0.01069913 -0.08061383 0.040316034 0.04062536 -0.165364 -0.16138354 -0.050476465 0.040766474 -0.05146031 0.15470582 -0.08651448 0.05301452 -0.17114398 0.12822938
26 0.03936507 -0.04568159 0.13885887 0.037972245 0.03755619 -0.17847013 0.15885964 0.023732912 0.0024137106 0.013224724 0.29252872 -0.06098463 0.17379124 0.011038223 0.12933683 -0.035589427 0.072457425 0.07988419 -0.027606307 0.06960573 0.009302546 0.02296943 0.02956923 -0.12333114 0.007818426 -0.08811128 -0.035185795 0.096486874 0.020852285 0.09137911 -0.065549016 -0.0044799773 0.05491356 0.1248464 -0.04844154 0.011777481 0.24714148 -0.0051459256 0.12844901 0.022723317 0.012591369 0.080545336 0.18365954 -0.15504584 0.02471085 0.01013015 -0.1643941 -0.038390644 0.16747178 0.08631804 0.13410002 0.007777289 0.048715997 0.0245936 -0.058682617 0.2205101 0.044784892 0.11570736 -0.11965856 -0.014498294 -0.07359894 -0.063737914 -0.06783629 -0.27951458 0.12137867 -0.06081564 0.0037203515 -0.093796514 0.060124755 0.0042796917 0.13765903 -0.10121613 -0.21709725 -0.08264701 0.10449536 -0.20947379 0.10471147 -0.100136764 0.031983063 0.14580622 0.08975418 -0.06002409 0.027129354 0.3502784 0.06598347 0.16433194 0.13247308 -0.13169537 -0.03447021 0.15263912 -0.038141824 -0.03250763 -0.14973783 0.04676872 0.21187562 0.050693814 -0.18427616 -0.09283391 -0.062688604 -0.033888992 -0.3042297 -0.0513836 0.1406457 -0.0754042 0.11391434 0.049860667 0.08324904 -0.161225 0.025745764 -0.21774562 0.21183597 0.03365846 0.011522246 -0.08648706 0.049043145 -0.13683735 -0.019000066 0.034888767 -0.17657456 -0.18493548 -0.15715866 -0.0018140533 -0.061441615 0.04713633 -0.06519026 0.17133011 -0.19019914 0.109966084
15 0.102527186 -0.02543903 0.07814754 -0.15438204 0.044555638 0.037962288 -0.18325733 0.07797656 -0.046087835 0.17144291 0.04250719 -0.10637311 -0.17717054 -0.08741745 0.16386051 -0.0871287 0.18492307 0.16274266 -0.19372849 -0.021347431 0.16131471 0.14346981 0.10610708 -0.016359815 -0.17332546 -0.03356446 -0.13593139 -0.05969212 0.04028133 -0.036255777 -0.16710821 0.044538047 0.0013165169 0.024582284 -0.18246388 -0.041564193 0.16393028 -0.006514756 0.13699515 -0.009231806 0.035276648 0.0129461875 -0.05524508 -0.07122744 -0.11578015 -0.020608531 -0.032700993 -0.10056144 -0.12110447 -0.07460964 0.09139225 -0.009895635 0.10545107 0.19902043 -0.04594259 0.16852303 0.056988962 -0.00022653557 -0.09980713 0.13196243 0.07434547 -0.04352111 -0.011879722 0.0800126 0.12250028 -0.026211694 0.013467112 -0.015209644 -0.03383312 -0.12011316 0.077834725 0.006757661 -0.078560546 0.006677225 0.0037026948 -0.054418903 -0.13802536 -0.037112013 -0.006913406 0.12019244 0.029364245 -0.07217562 0.050105486 0.06348149 -0.049794562 0.09408698 0.0473003 -0.042965423 0.032066144 0.04017665 -0.17778187 -0.027047303 -0.14282836 -0.04683971 0.1190446 -0.029786905 -0.031128889 -0.09374578 -0.05579685 -0.05435438 -0.058925662 0.027947372 0.04771776 0.01397876 -0.013461128 -0.089818865 0.079057716 -0.14813602 0.08340708 -0.035863258 0.006377732 0.016953643 0.07322185 0.12661217 0.00017411483 0.02432381 -0.093593396 0.09676772 0.15543205 0.059351034 -0.04038595 -0.15183312 0.013608007 0.14540114 -0.03285069 -0.0820966 -0.01573741 -0.006401838
8 0.1044027 0.020550624 0.080600955 -0.09759476 0.044156637 0.08990103 -0.086534604 0.04193424 -0.010101024 0.08091979 -0.016021116 -0.115328416 -0.06349611 -0.08776082 0.10104323 -0.059139334 0.078121856 0.16219674 -0.21273811 -0.02070394 0.103229545 0.1518649 0.0819347 -0.021773664 -0.2175747 -0.015771875 -0.06753722 -0.02767816 -0.008092047 -0.0022988585 -0.16440585 0.0061397366 -0.075079195 0.011583625 -0.22802506 -0.050127167 0.15055828 -0.02712294 0.19727217 -0.029418498 0.011143535 0.028076263 -0.10008748 -0.05697266 -0.08817804 0.0581572 0.020852458 -0.12680624 -0.14673646 -0.06336481 0.080976315 0.015589695 0.11545975 0.1961543 -0.063330285 0.13581587 0.1328462 0.056459896 -0.077268034 0.09465358 0.058117054 -0.10868823 0.038131487 0.048714366 0.12589967 -0.03726706 -0.06883982 -0.025231699 -0.07546291 -0.12638383 0.029759903 -0.03875561 -0.10297705 0.03445502 0.018419756 -0.13738473 -0.1374489 -0.0045277947 -0.04551838 0.11949299 0.076179385 -0.008931212 0.040969573 0.080323756 0.0014238724 0.108709656 0.06659795 -0.05587387 0.047718823 0.05607592 -0.16088401 -0.02130603 -0.07478891 0.0069731968 0.08167946 -0.0020693613 -0.015181068 -0.084225096 -0.10066887 -0.10572683 -0.06161163 -0.065904364 0.03195891 0.048414975 -0.013835583 -0.07315465 0.034374576 -0.13570695 0.042386197 -0.06819638 0.0033047716 0.0030986029 0.08112273 0.12971124 0.0034250072 0.045770157 -0.01832754 0.044672754 0.10167366 -0.0007959963 -0.028826412 -0.08135449 0.024289731 0.16840151 -0.008296777 -0.096897505 0.0024492943 -0.00796535
20 0.05970618 -0.029353471 0.082634754 -0.053356037 0.0060658935 0.002769551 -0.019378625 0.026263326 0.00032095445 0.06462557 0.0431684 -0.068185225 -0.041994404 -0.05826869 0.098679215 -0.045406602 0.08314325 0.05921952 -0.10818955 0.019912139 0.056079328 0.071677 0.045050316 -0.01053559 -0.13861924 0.0020005004 -0.06321742 0.011662536 -0.0012397813 -2.5446454e-05 -0.11519105 -0.002271804 -0.018231256 -0.02185009 -0.1401502 -0.024884803 0.13506705 -0.023852281 0.1150262 -0.020251337 0.0059561054 0.03505428 -0.04179152 -0.073281966 -0.046860084 0.021107867 -0.023805164 -0.09388615 -0.047356345 -0.03585217 0.054505862 -0.019423265 0.10164618 0.1534228 -0.02872506 0.12023145 0.07369146 0.023126615 -0.084402405 0.07022867 0.049394913 -0.08728644 -0.034547545 0.049970638 0.11116539 -0.04147812 -0.038510762 -0.0119685205 -0.0680467 -0.12960936 0.08327722 -0.006441977 -0.15029739 0.008506081 0.051313102 -0.13825461 -0.1523417 -0.023191465 -0.027622368 0.15103763 0.041219022 -0.06790211 0.057213895 0.102518484 -0.0045549436 0.10936252 0.058143873 -0.04942583 0.075854495 0.06256056 -0.17411193 -0.014915596 -0.08768392 0.019334 0.11849133 -0.006581499 -0.073783666 -0.120885566 -0.09762056 -0.08619209 -0.07245892 -0.03025349 0.06570251 0.01247993 0.013812282 -0.06687451 0.050606254 -0.13512078 0.07081158 -0.08308394 -0.0058922474 0.018039169 0.09943462 0.11893567 0.0057396814 0.058267254 -0.050457012 0.08792395 0.10008216 0.03759257 -0.01492375 -0.10421703 0.015144557 0.18008088 -0.052914195 -0.10452468 -0.010695636 -0.027364017
38 -0.01799033 -0.02297814 0.08620548 -0.15877576 0.030419266 0.11098587 -0.1886676 -0.04712956 -0.006756509 0.09627599 -0.01111318 0.013250172 -0.1528367 -0.08819799 0.07129053 0.052963596 0.0296447 0.034500834 -0.02929003 0.019529639 0.015047088 0.18140525 0.07932664 -0.05553983 -0.1597156 -0.007183863 -0.017395712 0.11033968 -0.14565198 0.13646266 -0.17983645 -0.12810825 -0.23471807 0.032914568 -0.14974472 0.033498157 0.067467675 -0.114831775 0.2578854 -0.03203171 -0.08061009 -0.06933255 -0.21592745 -0.0008883495 -0.045660686 0.16504468 0.2240181 -0.22083646 -0.29225475 -0.06892783 0.15802453 0.07930197 0.0063465177 0.08580005 -0.016660199 -0.04357305 0.22050168 0.02546213 0.07009107 0.04721608 0.08508463 -0.11346675 0.13262588 -0.079748936 0.1824122 -0.012843114 -0.1350848 0.019401414 -0.03877246 -0.12225946 -0.064612776 -0.06690987 -0.09526573 -0.03339076 -0.026260898 -0.21566232 -0.16926838 0.15727285 -0.18004878 0.14615415 0.009743441 0.13920483 0.022712456 0.056705832 0.09585247 0.05777322 0.06220489 -0.14963788 0.02273797 0.020651395 -0.20324312 -0.13262619 0.07319539 -0.002944082 0.042954307 -0.026654443 -0.020501222 -0.15128598 -0.0822445 -0.23314784 -0.040822886 -0.07725307 0.01391669 0.028519072 -0.05738386 -0.047071427 -0.06630665 -0.118978925 -0.01678688 -0.14235301 -0.15054522 -0.04914549 0.09978058 0.16240926 -0.061224435 0.14397487 0.02615175 0.03141869 0.11000189 0.037853036 -0.042922676 -0.002988692 -0.039746147 0.27182573 -0.081431955 -0.22997713 -0.120257944 -0.015839566
12 0.09538705 0.026338767 0.112964444 -0.07687121 0.03998993 0.005779089 -0.12887177 0.091015235 -0.021507692 0.064190604 -0.03788812 -0.12116186 -0.07677623 -0.0047660223 0.15026526 -0.10072468 0.04064404 0.16474058 -0.15347642 -0.030382764 0.16881943 0.093406625 0.07152964 -0.051027037 -0.14548574 -0.018050233 -0.018757306 0.023698011 0.08418029 -0.04880306 -0.17984611 0.030516671 -0.063053444 0.0716062 -0.2813184 -0.084836274 0.14171842 0.012593068 0.18917893 -0.034160264 -0.021632154 -0.033574976 -0.0432526 -0.044390112 -0.094542466 0.07706123 0.023278061 -0.0759292 -0.049222022 0.018895611 0.013029323 0.010743914 0.10328931 0.1402164 -0.031045845 0.15334313 0.053794444 0.011709949 -0.059311423 0.10856013 0.07685253 -0.030074492 0.010567343 -0.01138 0.1518338 -0.067814045 -0.0661278 -0.030868022 -0.06134587 -0.13505843 0.047470786 0.051192373 -0.10027887 -0.040166836 -0.0148936985 -0.09982332 -0.15990408 0.0012123802 -0.070555225 0.16160649 0.029871235 -0.085670345 0.0628812 0.075264536 -0.0026149463 0.019533833 0.13006882 -0.071503036 0.055035725 0.030524261 -0.2114733 -0.12329898 -0.10822502 -0.0016672459 0.072613046 -0.03733411 -0.01707123 -0.083850525 -0.08798888 -0.05531362 -0.12503971 -0.0044253054 0.10740321 0.017305074 -0.056050695 -0.027834151 0.08755597 -0.13406138 0.07945692 -0.011344336 0.033349298 -0.009686308 0.037600633 0.08750228 -0.0975007 0.024735909 -0.09034137 0.07894709 0.1121224 -0.025786946 -0.08498945 -0.089669324 0.10490204 0.082950726 -0.021086402 -0.033012077 0.0057899887 -0.024370959
36 0.11369085 -0.06963895 0.13984174 -0.115985416 -0.04884505 -0.007678993 -0.0798539 0.024769124 -0.017797763 0.038217362 0.036621924 -0.0027639254 -0.14711729 -0.080551215 0.06590605 -0.07206151 0.12273878 0.10972926 -0.117781624 -0.00872688 0.053413663 0.13756646 0.11056075 -0.008710265 -0.23374034 0.04156981 -0.16069654 0.017656155 0.035703152 -0.086158514 -0.1909348 0.0283678 -0.027568497 0.020623576 -0.1585967 -0.056754686 0.19994077 0.013870929 0.16087359 0.018455576 0.03452583 0.09541102 -0.0075409007 -0.095858626 0.025336297 0.034728616 -0.052689534 -0.04356422 -0.009345545 0.058966935 0.0074199997 -0.04022389 0.15543263 0.18181857 -0.041851927 0.15893798 0.0069692386 0.009303208 -0.06267113 0.1405991 0.10021553 -0.10172386 -0.025777439 0.17396304 0.07767877 -0.029938776 -0.041967466 -0.014034252 -0.08418051 -0.17143582 0.102281004 -0.06816617 -0.03756893 -0.07299513 0.04257585 -0.06290752 -0.10894012 -0.004318987 -0.010831567 0.08626839 -0.005508327 -0.108102 0.03166755 0.077821344 -0.05687401 0.07235461 0.050538346 0.045270942 0.087580405 0.09244121 -0.14120238 -0.00068938645 -0.11603503 -0.0011015558 0.07792162 -0.01093941 0.022797156 -0.046091035 0.011298949 0.009416003 -0.19061013 -0.021921141 0.08835503 -0.015307202 0.019375741 -0.037405584 0.10761294 -0.14122193 0.05864089 -0.14902437 0.08722682 0.052581776 0.08745073 0.03754088 -0.052720606 -0.070614904 -0.071105056 0.044802815 0.05942313 -0.011648513 -0.08966582 -0.09981332 -0.025809495 0.18103816 -0.11105798 -0.059036523 -0.05986007 -0.06465609
37 0.034871142 -0.010293607 0.07319621 -0.10439179 0.07030964 0.015495925 -0.044156637 0.006358901 0.018435726 0.1258448 -0.024324507 -0.07229446 -0.073425256 -0.06747264 0.16605987 -0.02119164 0.10907573 0.07548039 -0.06940957 -0.012935887 0.09780406 0.13056883 -0.02280529 -0.047046147 -0.13434578 0.0056133885 -0.013169002 -0.00013269109 0.035537202 0.02815642 -0.15473033 0.018312074 -0.14228795 -0.023807103 -0.24047232 0.003920565 0.10559985 -0.08936816 0.14517932 -0.09507792 -0.06328307 -0.07939396 -0.17346929 -0.047529567 -0.1459196 0.08046008 0.12455859 -0.25367156 -0.20157866 -0.09308273 0.11152695 0.001051042 0.11286131 0.1909672 0.016556205 -0.009690084 0.07940852 0.027671834 -0.0498689 0.049260322 0.071621254 -0.076097816 0.018113665 0.010513384 0.18751688 -0.02864023 -0.091448374 0.036037486 -0.10718621 -0.11322064 -0.00063386065 0.07067648 -0.16667551 0.04016552 0.01712514 -0.14816603 -0.2593119 0.056064084 -0.11271727 0.1750201 -0.004254621 -0.060578037 0.03120231 0.011602164 0.064815775 0.040752605 0.068088256 -0.11919163 0.056324173 0.019488385 -0.23847353 -0.05808497 -0.014398073 -0.008428283 0.08834435 -0.015643075 -0.035923693 -0.18482442 -0.12581754 -0.15906534 0.03354748 -0.018676894 0.02478969 -0.011035547 -0.05606231 -0.05878357 -0.010554823 -0.09955537 0.06014026 -0.027107378 -0.08891549 -0.01351878 0.10826512 0.20037463 -0.0698688 0.11882158 -0.14305027 0.11665152 0.18669605 0.10481919 -0.010114902 -0.11304466 0.09649841 0.20503019 -0.02232528 -0.17695235 -0.014218683 0.020866655
29 -0.026021482 -0.039941315 0.17503384 0.06859158 0.03669163 -0.18884926 0.20228663 -0.062330876 -0.011904332 -0.027700422 0.2871368 -0.008989949 0.24769267 0.07946245 0.12735051 -0.004953441 0.050670385 -0.05278206 0.14740032 0.18497331 -0.1036866 -0.082823075 -0.091320984 -0.13600202 0.038315225 -0.016823797 -0.023477409 0.11613452 0.027481953 0.0664664 -0.10310883 0.0029955585 -0.014989955 0.12252489 0.100520164 0.08216941 0.17509685 -0.015534891 0.014675705 0.075467356 -0.04312885 0.07236265 0.23486513 -0.07876566 0.08650243 0.042041644 -0.19107667 -0.029241668 0.2097981 0.17146419 0.12509975 0.07140869 0.10300909 -0.036369033 -0.062512904 0.20660807 -0.025702208 0.14085141 -0.11256254 -0.06549665 -0.13204189 -0.08742058 -0.06577829 -0.23080938 0.12125334 -0.067957446 0.037013665 -0.103144616 0.008791394 0.006979161 0.14015925 -0.1651487 -0.30693042 -0.1485522 0.1579498 -0.25891283 0.03715981 -0.14092052 -0.020346828 0.18906002 0.066811524 -0.08406583 0.041340146 0.43566898 0.09369829 0.09384236 0.1818247 -0.13262261 0.01574613 0.16087884 -0.10469346 -0.13053793 -0.14916877 0.09528364 0.23883912 0.10640575 -0.24696411 -0.1615265 -0.10510064 -0.13495496 -0.2851975 -0.16012536 0.16217144 -0.076193936 0.19848396 0.07563484 0.08864891 -0.1734622 0.025957791 -0.24732527 0.15507257 0.05804323 0.0964187 -0.20075378 -0.05766859 -0.074102126 -0.019754358 0.018185943 -0.18694797 -0.12516747 -0.067037106 0.052792467 -0.0938247 0.16676524 -0.101143435 0.08639595 -0.21911424 0.119148366
17 0.008407647 -0.053773522 -0.025284879 -0.1124921 0.050331127 0.15153426 -0.17584744 -0.008887218 -0.05272734 0.123163864 -0.06019675 -0.02005823 -0.21542247 0.006460583 0.103163235 0.032717224 0.062162504 -0.11419159 0.04186929 0.053925034 0.04938238 0.13252608 0.10078059 -0.05014197 -0.15714192 0.034259196 -0.018669495 0.20428573 -0.13479954 0.17088985 -0.14860933 -0.15422015 -0.1918067 0.0009216301 -0.15680698 0.0064330436 0.035183627 -0.124741346 0.20517103 -0.009310738 -0.08585478 -0.08505892 -0.17176856 -0.065522276 -0.019619945 0.110069476 0.2086174 -0.19317234 -0.23859958 0.006958015 0.16051655 0.03706908 0.01558402 0.06794658 -0.010696213 -0.044678427 0.20199014 -0.014702162 0.09953556 0.049572468 0.10689074 -0.09633987 0.11165352 -0.177292 0.20688453 -0.03059835 -0.11366838 0.02642237 0.022232335 -0.088862106 -0.037579194 -0.013890436 -0.05198524 -0.07227013 0.033631712 -0.27149948 -0.15707073 0.23899192 -0.22588155 0.20775567 -0.08610486 0.09545853 -0.056010474 0.021495182 0.1426969 0.023847725 0.10704184 -0.1472913 0.0382475 0.061526027 -0.20436601 -0.16899101 0.06278625 -0.03226279 0.068990275 -0.019543039 -0.07624881 -0.23459426 -0.13765128 -0.22936954 -0.10218581 -0.072490245 0.03079422 -0.06709042 -0.041185137 -0.016195446 -0.07418778 -0.13149855 -0.00066563545 -0.15389317 -0.19617933 -0.051264424 0.08798141 0.15092933 -0.08950906 0.16502526 -0.0021312865 0.10298784 0.16140796 0.08595498 -0.121703774 0.005127804 -0.13411334 0.29829478 -0.1380671 -0.20066838 -0.24074428 0.03272108
47 0.09278679 -0.028536927 0.012250756 -0.121838555 0.021982748 0.043184586 -0.16825193 0.038043402 -0.021693088 0.07816877 -0.05222318 -0.089378096 -0.15998754 -0.044319645 0.113404535 -0.058065884 0.06053097 0.0941096 -0.11033258 0.0034450712 0.15397832 0.10774421 0.098404266 0.014761573 -0.17015891 0.03207325 -0.12591253 -0.036847852 0.059880346 -0.054172583 -0.163423 0.035169035 -0.037182808 0.044529222 -0.21163173 -0.060178325 0.1315637 0.012839524 0.15338597 -0.0023894035 0.0043743723 0.04999187 -0.06866757 -0.060401533 -0.081092454 0.018754382 0.022468735 -0.09167701 -0.062189337 0.021635082 0.05884668 -0.07469744 0.08592566 0.18820478 -0.056532755 0.1896617 0.06365229 -0.035254944 -0.08644514 0.13856901 0.0868601 -0.0799247 0.004797521 0.07252969 0.15254216 0.0076985857 0.03897741 -0.0080701085 -0.007585681 -0.13486178 0.056622796 -0.019764015 -0.07347639 -0.081136964 0.015272379 -0.0744192 -0.15435666 0.03663676 -0.10341322 0.13850816 -0.022290101 -0.09200426 0.013985473 0.049122903 -0.06314453 0.0461976 0.05459903 -0.013675071 0.057420637 0.083735354 -0.17372309 -0.08404201 -0.1262728 -0.077259086 0.11364968 -0.050994404 -0.022711072 -0.113727316 -0.06350985 -0.071756266 -0.059358105 0.0057217535 0.051842667 -0.024558408 0.0052363644 -0.06936302 0.07066068 -0.115942314 0.052520514 -0.05212764 -0.014120228 0.0023699529 0.09481385 0.059853543 -0.062871 0.007723514 -0.12687293 0.053124443 0.15163185 0.038783554 -0.093026 -0.09326926 -0.03163788 0.13804923 -0.03894441 -0.00964422 -0.10749793 0.009477343
41 0.07899672 -0.02594572 0.113293275 -0.11249846 0.028692327 -0.041679192 -0.0745126 0.03625056 0.023949161 0.041873164 0.038375355 -0.037069198 -0.042660646 -0.030696746 0.13305008 -0.050518055 0.08173298 0.11662115 -0.11712203 1.7053317e-05 0.12511642 0.17389107 0.08145213 -0.094573826 -0.20501722 0.018082583 -0.11005296 0.008813877 0.04898701 -0.036531784 -0.23563524 0.0042662662 -0.085744634 0.0828713 -0.18083124 -0.037474915 0.10135701 -0.0444676 0.16496415 -0.022803899 -0.06664958 0.013332756 -0.08696137 -0.049629737 -0.027500657 0.09585658 0.05872855 -0.09540739 -0.11952465 0.008639403 0.02276729 0.008258837 0.114823654 0.15717867 -0.022621503 0.055533886 0.03731519 0.04237407 -0.03165846 0.062330842 0.06428095 -0.08563268 0.022662949 0.077458836 0.15625538 -0.03459032 -0.09284191 0.02391595 -0.087487355 -0.14870696 0.019977383 -0.0049377116 -0.0587195 -0.059849672 0.01134306 -0.080909066 -0.18033089 0.036472864 -0.11345715 0.09383133 -0.0056977095 -0.08099889 0.054532304 0.08235553 -0.005077647 0.014983225 0.051050443 -0.042860735 0.063617244 0.04310523 -0.18813266 -0.07700074 -0.08823218 -0.008368404 0.07735918 -0.04638143 0.04799725 -0.0689415 -0.012237654 -0.077274546 -0.08380926 -0.05752375 0.04603649 -0.0002742677 -0.05909439 -0.03858076 0.04887079 -0.06286832 0.064209715 -0.066076346 0.0219895 0.025738586 0.061329145 0.061619706 -0.105116576 0.010063211 -0.072696805 0.039322305 0.1034433 -0.012746927 -0.05552062 -0.07473556 0.08195467 0.14571229 -0.053472295 -0.0802602 0.0024192417 -0.05916294
11 -0.013906372 -0.090988934 -0.0014045597 -0.19361284 0.03671609 0.10835049 -0.28948948 -0.0048420206 -0.024916688 0.130996 0.0055868193 -0.026508514 -0.19109964 -0.06017542 0.13207391 0.045823622 0.09595941 -0.044476904 0.024295887 0.08187685 0.072001554 0.18499045 0.15655081 -0.07536438 -0.14248227 0.022958642 -0.09136624 0.14678074 -0.1961934 0.15358487 -0.17123082 -0.18975103 -0.1908805 0.061959993 -0.04213867 0.061921816 -0.0085730655 -0.1512111 0.15673451 0.024452578 -0.091818124 -0.03301435 -0.17105125 -0.010046246 0.0124049885 0.12355891 0.24743092 -0.12980448 -0.24322079 -0.026617393 0.15059112 0.043576695 -0.033138767 0.099631086 -0.0021243985 -0.048656385 0.20124722 -0.0008239984 0.09576602 0.091240175 0.10180365 -0.15241247 0.16167092 -0.12184475 0.22006513 0.018741911 -0.12439164 -0.028693667 0.032644227 -0.11601234 -0.08662165 -0.1486643 -0.029515332 -0.1081149 0.033511795 -0.3131804 -0.13184689 0.22067577 -0.27731252 0.17797409 -0.08804527 0.13315512 -0.030223213 0.06095287 0.105612725 0.07137195 0.056841545 -0.10380689 0.026329257 0.039724495 -0.23858403 -0.1636215 0.07686304 -0.041455414 0.07601933 0.00042621547 -0.00042554774 -0.20019299 -0.14626992 -0.23453717 -0.039923675 -0.13822483 0.043622267 0.023304308 -0.060774893 -0.14240943 -0.15061916 -0.09517544 -0.025091216 -0.19660324 -0.30829233 -0.029339574 0.18402942 0.17816731 -0.09931547 0.23827794 0.055501457 0.08027943 0.24870048 0.08247602 -0.111749895 -0.048200857 -0.1925675 0.39231485 -0.101753674 -0.35832128 -0.13374169 -0.012399229
4 0.058453564 -0.052646246 0.10530997 -0.13501813 0.04610309 0.025012882 -0.1211328 0.049226966 -0.02124869 0.12454992 0.036888663 -0.073664255 -0.18294877 -0.077243164 0.1370492 -0.045730453 0.10176524 0.088715084 -0.117676996 0.016023494 0.120720245 0.11946665 0.08112936 -0.023405958 -0.19412008 -0.025150923 -0.082670845 0.06302286 -0.01870583 0.04420774 -0.16802275 -0.029679256 -0.061829608 -0.034386612 -0.1843333 -0.047451902 0.12901194 -0.04600034 0.1835132 -0.028694058 0.010606215 0.0003424763 -0.1151447 -0.085835636 -0.08578315 0.06391717 0.04623656 -0.13385737 -0.13534021 -0.022143593 0.086729534 0.026084417 0.09341888 0.1654273 -0.016904812 0.064384125 0.094231896 0.011282879 -0.045892768 0.07784943 0.07338547 -0.069145516 0.016923282 0.034283504 0.122240074 -0.036174912 -0.038017023 0.04300258 -0.035754032 -0.09585136 0.06675277 0.020571973 -0.07154862 0.0027719843 -0.00047844718 -0.065917216 -0.14644273 0.0031284855 -0.023719465 0.11535755 0.02967828 -0.024146654 0.02236566 0.029977767 0.011980394 0.0804533 0.050883114 -0.06516258 0.02721924 0.05991943 -0.14501522 -0.011497486 -0.067281015 -0.0111357095 0.075187616 -0.04694482 -0.057636186 -0.105993144 -0.038798418 -0.08902758 -0.10992395 0.021558601 0.032332696 -0.042779695 -0.017355237 -0.013134177 0.059540406 -0.1379998 0.07591564 -0.07779074 0.007697197 -0.018521631 0.038649373 0.13016644 -0.02266021 0.034507148 -0.07891992 0.077103004 0.11509352 0.064740986 -0.061220225 -0.10661812 0.046305556 0.15963729 -0.085593715 -0.088281035 -0.0899808 -0.015468716
16 -0.025623498 -0.11932692 0.047699783 -0.23258418 0.06277815 0.08324294 -0.34271 0.020126551 -0.015937593 0.119403504 -0.028269798 -0.01537175 -0.3191344 -0.14637865 0.10306483 0.05592516 0.06592374 0.03775652 0.0733191 0.022415694 0.076842375 0.17136566 0.17070477 -0.038086314 -0.10425672 -0.027031047 -0.05120158 0.2041149 -0.19916302 0.16497944 -0.12714298 -0.1928936 -0.18552148 0.05372189 -0.06779716 0.03262799 -0.016868645 -0.16987787 0.16307846 0.015497083 -0.062377404 -0.12969355 -0.20786917 0.002594187 -0.03183122 0.12764451 0.3415274 -0.13681369 -0.2783698 0.0010119374 0.1571878 0.02220787 -0.032580763 0.1253383 0.042513665 -0.033603113 0.23848602 -0.043244783 0.079420306 0.16988152 0.12167242 -0.116865695 0.19429578 -0.15103677 0.21075758 -0.018370464 -0.09849344 -0.019808805 0.01173012 -0.056285027 -0.05205252 -0.093772456 -0.011521473 -0.11948591 -0.037632324 -0.29973838 -0.111709595 0.21775156 -0.24591659 0.15899071 -0.06310501 0.09948968 -0.045892052 0.03591095 0.12872364 0.1121555 0.099159576 -0.0927761 -0.020534752 0.10209658 -0.22544171 -0.16523422 0.07631672 -0.0794227 0.078029566 -0.008028179 0.023235917 -0.21346463 -0.11022289 -0.20587358 -0.061545968 -0.0788372 0.05658293 -0.027499389 -0.06216087 -0.16171864 -0.13331197 -0.12155934 -0.038264684 -0.23489866 -0.26208648 -0.06831791 0.120591536 0.22562833 -0.13235116 0.15679307 -0.028777102 0.07164513 0.19510433 0.06452296 -0.19922437 -0.08943797 -0.12298805 0.34157807 -0.09215692 -0.2507832 -0.2089792 0.037109554
14 -0.06595767 0.024321906 0.019935152 -0.06444025 0.04583044 0.07844591 -0.21231812 0.024867654 -0.031360544 0.09617822 -0.0762103 0.013974988 -0.17654963 -0.050132155 0.019986432 0.011701764 0.09204732 0.04127171 -0.019956889 0.010753312 0.039863843 0.15264842 0.058326866 -0.01852735 -0.13291186 -0.018808438 -0.04536428 0.06115886 -0.15570907 0.0465627 -0.15628527 -0.07035743 -0.21499546 -0.008159854 -0.0838185 0.030629804 0.032772105 -0.11111408 0.15020302 -0.007390286 -0.06411157 -0.12578626 -0.16143732 0.06053447 -0.0832673 0.13576935 0.21868473 -0.12227819 -0.26924184 -0.053057723 0.07043207 0.1202383 0.0847139 0.088405244 0.054030884 -0.0327885 0.16008893 0.0068919207 0.051270753 0.09553522 0.13203713 -0.09735074 0.11519279 -0.027205972 0.24734539 -0.048227016 -0.13027263 0.043572072 -0.08121975 -0.17261781 -0.039131034 -0.047772773 -0.1721889 -0.12141672 -0.0321185 -0.26687664 -0.24529746 0.14179829 -0.18146972 0.23459977 -0.024244133 0.036902834 0.06349266 0.057627387 0.09975959 0.06886815 0.16670531 -0.0807513 0.037990734 0.093092285 -0.26038516 -0.18207738 -0.0034751361 -0.018004507 0.06977226 -0.019015405 -0.0030503273 -0.20172805 -0.109578274 -0.19146189 0.014885677 -0.06358358 -0.014560421 0.036510702 -0.060169864 -0.093956925 -0.08468287 -0.093642764 0.023098689 -0.099682756 -0.18725426 -0.06096963 0.14274162 0.19774649 -0.14128798 0.15847561 -0.04107001 0.1278486 0.20165457 0.08072914 -0.034050632 -0.102094434 0.03591349 0.22983587 -0.059152957 -0.24539672 -0.019170461 0.0034321246
24 -0.06541287 -0.09649561 0.10981823 -0.075487494 0.003983143 -0.24009 0.08339835 -0.04181823 0.07897089 -0.034028832 0.15422374 0.025906514 0.008978339 -0.04620107 0.09070499 0.050173074 -0.05239927 0.10786465 0.061547425 0.06811492 0.043140605 0.09233188 -0.085581124 -0.068827525 -0.03674839 -0.037714593 -0.10373911 0.031280838 0.08823848 0.040421218 -0.15988946 0.032063276 -0.054813314 0.070605926 -0.07499775 0.03607823 0.22660917 0.025506502 0.23101743 -0.0222451 -0.030490141 0.09383296 -0.0016904857 -0.06994521 0.026080733 0.12780783 -0.019997908 -0.13107699 0.14689612 0.1399323 0.076562665 0.018862572 0.012414971 0.01898245 0.044331983 0.1412462 -0.020605177 0.07708537 -0.11071806 -0.055471204 -0.039627906 -0.09870437 -0.018520907 -0.056676056 0.13192205 0.088738404 0.09905009 0.08234983 0.025885522 -0.09469567 0.083549656 -0.10045865 -0.27699232 -0.17056398 0.028069431 -0.020939585 -0.041341726 -0.058501422 -0.010578853 0.08475115 0.046886962 -0.12106491 0.06097158 0.2230096 0.009236191 0.05451362 0.08517803 -0.11658167 0.035012998 0.19888337 -0.11320298 -0.0541985 -0.16260627 -0.052172285 0.19567387 -0.055450127 -0.1391045 -0.11574383 0.038066592 -0.09786147 -0.15969384 0.071650565 0.0153137585 -0.13014077 0.07576194 0.13930926 0.050679807 -0.09916208 0.010704079 -0.15370001 0.19222952 -0.0038799008 0.028599216 -0.06864826 -0.094698034 -0.12440299 -0.19424127 -0.03782918 -0.050534982 -0.010452939 -0.10357555 -0.018435353 0.07589842 0.04841125 -0.06091237 0.120240964 -0.15131009 0.047537223
46 -0.023668047 0.01162626 0.20057195 0.08444093 0.12024483 -0.27064243 0.25673807 -0.031886134 0.016482867 -0.04805135 0.33081132 -0.03680106 0.3273794 0.0985822 0.13769937 -0.04163618 0.029458703 0.09713128 0.043410975 0.12598875 -0.017796965 0.013277616 -0.02561053 -0.20520909 0.08894925 -0.08122428 -0.010759942 0.04613293 0.06814453 0.047574643 -0.08538278 0.023754163 0.014591321 0.21931744 0.058531366 0.05303916 0.12507375 -0.043381177 0.006480382 0.06884807 -0.055940818 0.04327593 0.21346962 -0.07170826 0.03914835 0.060114335 -0.14925092 -0.021916317 0.09638967 0.10506565 0.12570226 0.15494151 0.06991348 0.00095002574 -0.112710066 0.17817988 0.026117563 0.17269042 -0.0774397 -0.0778748 -0.11064971 -0.11709997 0.0034601765 -0.27118397 0.15535241 -0.08053313 -0.0024504787 -0.09210169 0.014151223 0.06542437 0.11071981 -0.16119413 -0.25007632 -0.11417741 0.13121046 -0.2498237 0.05068866 -0.1523201 -0.041041777 0.13564184 0.107256755 -0.0393641 0.034099385 0.46112344 0.0755307 0.10096339 0.20731641 -0.16718148 -0.050523937 0.17012165 -0.07330261 -0.114952035 -0.19181015 0.050274428 0.24405898 0.08615221 -0.1880292 -0.13244058 -0.09474609 -0.13250242 -0.30468953 -0.14383093 0.14498073 -0.07907543 0.14519674 0.05590943 0.09267462 -0.17894606 0.037748624 -0.22421867 0.2189468 0.07020868 0.03384095 -0.19090304 -0.077036746 -0.11871482 -0.0017751703 -0.016386336 -0.20268466 -0.21858287 -0.12760203 0.052020583 -0.028844936 0.13529743 -0.060254775 0.15691234 -0.24896227 0.17634022
22 0.04124563 -0.0204257 0.101151995 -0.082578436 0.0017057222 0.030520193 -0.15302077 0.018487448 -0.032128446 0.13535638 0.056224357 -0.034722038 -0.079722464 -0.064469114 0.15135798 -0.037965685 0.1671759 0.095203 -0.11757474 0.036428563 0.076607205 0.11926668 0.034943074 -0.033282354 -0.16086103 -0.0016940379 -0.08176338 0.02012548 -0.026405789 0.018213853 -0.19137508 0.017938238 -0.13291499 -0.021326732 -0.17564397 -0.013469984 0.14177129 -0.0658755 0.13602981 -0.040003855 -0.03283563 -0.03229957 -0.07241895 -0.033032615 -0.11299069 0.04682124 0.035532445 -0.14570953 -0.1577802 -0.10325611 0.09887845 -0.018614942 0.11921131 0.15376262 -0.0057814354 0.07357957 0.07685193 0.0029859939 -0.058154706 0.09176539 0.092430845 -0.062207013 -0.024582405 0.011723927 0.14628077 -0.03900461 -0.08250158 -0.0060667107 -0.055464596 -0.16184404 0.018758306 0.009958205 -0.15063858 -0.022851652 0.02139769 -0.12787503 -0.17162223 0.03670892 -0.07001941 0.15853852 -0.0053035975 -0.023303617 0.075838365 0.058860503 0.022581777 0.078634895 0.06117508 -0.0711628 0.044820048 0.0020851986 -0.21762091 -0.08521871 -0.039243154 0.024439761 0.09512907 -0.012602235 -0.03922229 -0.12240523 -0.077000104 -0.09186029 -0.0037930605 -0.03980804 0.060925998 0.05365504 -0.039867904 -0.073333226 0.022628477 -0.09793341 0.063796535 -0.04694256 -0.093267985 -0.010350788 0.13772024 0.14348446 0.00039793254 0.107780404 -0.041378234 0.14502138 0.13203184 0.03609077 0.0321649 -0.110597536 0.019832408 0.17517722 -0.05343524 -0.1940547 0.0315572 -0.037120037
49 -0.025262553 -0.044025425 0.19730838 0.040389832 0.072729886 -0.25425473 0.1748475 -0.028574686 0.018871948 -0.014193145 0.33984202 -0.059421375 0.26435256 0.017436294 0.16232674 -0.011359918 0.041133717 0.09178418 0.08354889 0.15081595 -0.017876828 -0.011481635 -0.038410503 -0.17184554 0.089340694 -0.09968644 -0.03460739 0.10350319 0.026221382 0.095911145 -0.08533857 -0.006756033 0.04982324 0.18327011 0.12683049 0.07629883 0.14674866 -0.031159716 0.00043009827 0.084354356 -0.039140187 0.0658788 0.23584671 -0.07317838 0.05876078 0.040908735 -0.15690166 -0.0014954977 0.1888271 0.123215236 0.15368323 0.082075536 0.010907054 -0.02841537 -0.07589452 0.20355715 0.022012847 0.14447922 -0.12451804 -0.057175204 -0.13897134 -0.10797858 -0.02342817 -0.31994325 0.1143463 -0.06776791 0.030692343 -0.12126889 0.04661647 0.071959674 0.12869413 -0.19560249 -0.28365862 -0.12870923 0.13654225 -0.266496 0.10203414 -0.17850238 -0.015759792 0.13450828 0.10794536 -0.050739102 0.045410518 0.46585587 0.0889787 0.15169322 0.17632341 -0.16657023 -0.03335951 0.1789472 -0.09765443 -0.09535974 -0.16838095 0.060977332 0.27116507 0.10031839 -0.20355286 -0.1524845 -0.11536027 -0.13192955 -0.2679662 -0.14325605 0.17236929 -0.06130773 0.150144 0.0041328953 0.058147386 -0.16682068 0.00946338 -0.2454342 0.1518306 0.049443007 0.07576047 -0.14412902 -0.029178416 -0.07201271 0.0051766797 0.0019063731 -0.18976861 -0.18337391 -0.11556081 0.025688775 -0.072125964 0.1599751 -0.057617776 0.10123891 -0.20585093 0.13743097
25 -0.013446282 0.0435086 0.095321625 -0.033189107 0.07241907 -0.00228577 -0.09832298 0.055603288 -0.0521948 0.10051969 0.038611047 -0.09818835 -0.05580206 -0.050456546 0.088935696 -0.06682448 0.039779074 0.1621012 -0.1365052 0.010778731 0.09354506 0.10282915 0.08621995 -0.026257077 -0.06464279 -0.09035576 -0.012921517 0.031867873 -0.09021158 0.06653321 -0.08698949 -0.04321703 -0.052942093 -0.012291342 -0.12752686 -0.02862007 0.032817144 -0.039390847 0.10311093 -0.008261418 3.5046374e-05 -0.07772189 -0.11975421 0.0025698682 -0.14830215 0.03865489 0.08351992 -0.119753174 -0.23896718 -0.10855662 0.1065661 0.09752508 0.045381095 0.14275534 -0.06080454 0.08429264 0.1585751 -0.024228098 -0.0042612427 0.1322671 0.10146984 -0.04468825 0.06544655 -0.06110383 0.15787542 -0.07212089 -0.07434363 -0.024382137 -0.02549675 -0.09446089 0.016718777 -0.00024311405 -0.12262451 0.00921219 -0.00472572 -0.21449071 -0.15207453 0.030513156 -0.079390936 0.21137089 0.047129117 0.0729462 0.071389005 0.07410923 0.02197234 0.107213624 0.12453758 -0.104346395 0.0076397583 0.020108614 -0.18865527 -0.07882771 -0.06220201 -0.011124414 0.0789623 0.013947753 -0.08009901 -0.1534098 -0.15563229 -0.15941194 -0.031670265 -0.02270471 0.05760623 0.060301207 -0.05468357 -0.11734598 0.01525033 -0.18513803 0.043947287 -0.027329197 -0.122850925 -0.016455714 0.099234074 0.22155058 -0.018506063 0.122737885 -0.021900924 0.10091277 0.16613483 0.061211724 -0.04600188 -0.10405752 0.0022240954 0.19921236 -0.016814062 -0.15538122 -0.05645428 0.04971933
10 0.005257753 -0.02115346 0.076438285 -0.13269049 0.0071481075 0.047408164 -0.15684445 0.01393485 0.0025859312 0.11543468 0.009130499 -0.028745426 -0.11214542 -0.1438827 0.09679358 0.007883753 0.14921412 0.08299448 -0.07889093 0.016647713 0.01158669 0.14138673 0.04953198 -0.023502594 -0.1351256 -0.0059024543 -0.06981478 -0.0036929126 -0.07358574 0.020787235 -0.12485705 -0.059424687 -0.11653166 0.0076134475 -0.096490555 0.027853183 0.05290066 -0.09195472 0.08420654 -0.023529192 -0.033163734 -0.043173686 -0.12094484 0.0024651377 -0.055800095 0.07044049 0.11332342 -0.12489496 -0.2179802 -0.10950907 0.1010951 0.0055828136 0.07696465 0.13354447 0.014976908 0.0151712485 0.109806836 0.018993841 -0.023791958 0.08589467 0.076301865 -0.08948277 0.04600027 0.052725676 0.14692415 -0.043912493 -0.08881621 -0.017864343 -0.07167968 -0.170791 0.022510733 -0.05584781 -0.15546742 -0.005465076 -0.008048927 -0.21663864 -0.18474486 0.068987645 -0.10430206 0.15914685 0.01508393 -0.005000152 0.06821643 0.07735843 0.042180043 0.108341716 0.06339851 -0.050492126 0.07517337 0.033955935 -0.22196577 -0.07941664 -0.026969759 -0.009707857 0.109530024 -0.005164511 0.015993513 -0.13909519 -0.087382995 -0.15020871 -0.00095164194 -0.04342686 0.04901233 0.04907568 -0.054093357 -0.13914844 -0.030912021 -0.11464906 0.016403232 -0.124934904 -0.1039246 0.00466552 0.14468707 0.20619422 -0.04638455 0.10142085 -0.047366276 0.100108325 0.16473496 0.03530419 -0.050228912 -0.1431139 -0.003877669 0.28407055 -0.048726432 -0.25069383 0.011037855 -0.030436728
31 -0.013385846 -0.04516462 0.13804604 0.06939485 0.041028846 -0.16342334 0.19289248 -0.022915302 0.046969958 -0.012887334 0.26565623 -0.060914095 0.21051309 -0.030433586 0.10791255 0.030820401 0.08124091 0.01534644 0.080119565 0.11928244 -0.038675282 0.027676024 -0.03762451 -0.108774036 0.010966032 -0.05805368 -0.055758186 0.08627465 0.009623538 0.07218703 -0.07704571 -0.017963158 0.04676252 0.14350258 0.07180705 0.070290275 0.17941442 -0.047275472 0.05210485 0.06525333 0.004268141 0.12179515 0.21459757 -0.07742859 0.089416474 0.06473494 -0.17084713 0.051248718 0.22126041 0.09564356 0.10327798 0.04089664 0.021424534 -0.040709697 -0.037083562 0.1715266 0.04630702 0.186816 -0.13794239 -0.082292944 -0.15160848 -0.17423825 -0.0241387 -0.2587077 0.09464122 -0.05877081 0.008018429 -0.09869793 0.028831577 0.048503384 0.14290115 -0.2405689 -0.32306904 -0.12224437 0.12205711 -0.30546936 0.0635199 -0.15844171 -0.016044293 0.12474353 0.12380778 -0.08419996 0.014709745 0.47593924 0.10834158 0.17956936 0.18623608 -0.13387446 0.036611978 0.22787148 -0.092343576 -0.07782633 -0.15452372 0.06425971 0.28334215 0.04230084 -0.16914678 -0.15766825 -0.1287178 -0.11416627 -0.27082083 -0.10936902 0.13669918 -0.053421102 0.17637987 0.003873195 0.055200826 -0.1492186 0.017964214 -0.2999574 0.21262965 0.012162837 0.056042455 -0.14684165 -0.021109812 -0.081435196 0.029270872 0.016686153 -0.20004131 -0.21786407 -0.12905766 0.0013572678 -0.0319524 0.16440117 -0.07543827 0.09552417 -0.14879563 0.07525951
48 0.010721017 -0.12345472 0.090922035 -0.28748086 0.05188415 0.18760411 -0.31011498 0.0020574045 -0.020277247 0.10958568 0.0033161668 0.060689952 -0.38207278 -0.11839948 0.08172416 0.0940692 0.09445164 0.016805688 0.019715711 -0.010018443 0.067380734 0.19741322 0.14356859 -0.062217798 -0.22509226 -0.033241566 -0.10462857 0.16316998 -0.1688938 0.16195434 -0.17738989 -0.18989767 -0.17574356 0.039216958 -0.017317597 0.07718118 0.048853967 -0.17366195 0.26522568 0.008134353 -0.0143895885 -0.065693155 -0.19068228 -0.028766494 0.029532364 0.10394484 0.2833287 -0.13558322 -0.27272108 -0.011363098 0.13905723 0.063235104 -0.022898652 0.11352494 0.06729196 -0.039719645 0.26135853 0.019978106 0.055662706 0.117838144 0.07273479 -0.14504029 0.1751997 -0.0808583 0.13443787 0.0029524043 -0.0818031 0.031177016 -0.0139701525 -0.016415605 -0.065774605 -0.12009562 0.018843517 -0.08060587 -0.051844355 -0.25320014 -0.081176564 0.2105307 -0.15163642 0.10794028 -0.04884462 0.16662937 -0.044968504 0.0430883 0.16249776 0.09765766 0.06328059 -0.124954954 -0.008831979 0.13452083 -0.18539521 -0.14480382 0.11903893 -0.039153684 0.05347993 -0.059123307 0.025983673 -0.13738571 -0.055649668 -0.18304656 -0.11536111 -0.062443193 -0.054301236 -0.06446284 -0.031102335 -0.045218974 -0.12654382 -0.1113025 -0.013229012 -0.2836156 -0.17212002 -0.08384058 0.039740164 0.20696315 -0.095325485 0.12826751 0.04770602 0.046802897 0.18624625 0.093064375 -0.13201554 -0.042603154 -0.12553309 0.35264394 -0.15208589 -0.2986307 -0.21325971 -0.00835171
6 -0.056845374 0.023884881 0.07992615 0.053193517 0.09822026 -0.094371945 0.12791795 -0.01451287 -0.029930366 -0.033259474 0.21248692 0.034336828 0.13850488 0.08885527 0.08145503 0.021642007 0.08809629 0.03379118 0.044752225 0.06578084 -0.05235352 0.017595664 -0.093105964 -0.16889279 0.036836505 -0.08417942 -0.060026504 0.011472598 0.043543767 0.05853023 -0.09176807 0.019370701 -0.0064091804 0.18143043 0.12005287 0.10662536 0.18127368 -0.029588262 0.09269771 0.068024024 0.033947736 0.065697104 0.23643544 -0.031014387 0.083164744 0.01746565 -0.18751386 -0.002032673 0.1629467 0.1255587 0.11812203 0.18455958 0.08452893 -0.012580774 -0.008439063 0.26180574 0.051976714 0.24473378 -0.15201227 -0.08181741 -0.1529879 -0.14883868 0.02874534 -0.25598162 0.09947398 -0.008310255 0.08681654 -0.03987382 0.0052685104 0.041046567 0.09391889 -0.25554216 -0.32699838 -0.1784537 0.09187347 -0.25152948 0.09613045 -0.1519039 0.042404085 0.11414115 0.1220865 -0.034527708 0.037718773 0.4975339 0.12672006 0.11134129 0.2509255 -0.17527029 -0.036833484 0.2682805 -0.079770826 -0.12607405 -0.20197545 0.032770574 0.2693443 0.07005576 -0.19734316 -0.11837495 -0.08243278 -0.12567173 -0.28765023 -0.11074954 0.007979034 -0.08604549 0.19918898 0.11347513 0.026946211 -0.18053328 0.017030494 -0.26537204 0.24153224 0.0429268 -0.0074663223 -0.19741769 -0.11811426 -0.1127579 -0.00019751501 -0.024221 -0.20629004 -0.18959679 -0.107371815 0.074573874 -0.04651469 0.09038622 -0.051876154 0.1644947 -0.20201333 0.20635784
44 -0.03439728 -0.056113876 0.199666 -0.01488388 0.10999428 -0.14055072 0.11547564 0.0011059034 -0.0042360653 0.01808985 0.27388993 -0.04582834 0.100436464 -0.01585861 0.09305008 -0.01865418 0.041649133 0.05888544 0.016849704 0.07267824 -0.033522427 -0.01683302 -0.007382977 -0.11718449 0.015326568 -0.120172985 -0.0078049633 0.06728712 -0.029509569 0.08572519 -0.06481907 -0.033477843 0.07259756 0.14362234 0.119138375 0.07771135 0.14286602 -0.016662048 0.06241056 0.061916944 0.023281028 0.05863572 0.1527708 -0.057406604 0.042129338 0.041730627 -0.12853861 0.007495966 0.1354452 0.09935203 0.10474247 0.14846505 0.026951259 -0.027052317 -0.031198537 0.17178261 0.07170595 0.14491917 -0.117163315 -0.08064842 -0.12482914 -0.09969549 -0.010200359 -0.21956062 0.09159894 -0.06900189 0.045140114 -0.039371762 0.021246158 0.08186282 0.15533729 -0.15954049 -0.28562596 -0.08853359 0.07697721 -0.22129443 0.044807408 -0.18223871 0.054547336 0.13880824 0.15514511 -0.017159754 0.06078189 0.43022454 0.09932944 0.19340044 0.19902878 -0.17841935 -0.05247786 0.22117212 -0.06144782 -0.06158028 -0.13732105 0.06156345 0.23017702 0.03341982 -0.23521855 -0.15094286 -0.07630501 -0.15370302 -0.26762366 -0.06764525 0.06386864 -0.10433123 0.1754085 0.058521483 0.052703936 -0.19164535 0.06816708 -0.23864445 0.21965441 0.010716433 0.0094425315 -0.09591491 -0.009460362 -0.0982626 -0.0136781745 0.013645839 -0.14409466 -0.09670361 -0.07829939 -0.021553375 0.03667356 0.14153737 -0.08115262 0.11172169 -0.1819739 0.124945104
40 -0.107751325 -0.05680719 0.09045331 -0.08577015 0.039049756 -0.25692257 0.08968173 0.003627761 0.090385444 -0.08676367 0.17332806 -0.0110967215 0.017436879 -0.05619378 0.053615235 0.06776994 -0.15015873 0.28928953 -0.024049368 -0.0018413826 0.15046318 0.094132446 -0.049074337 -0.07293223 0.09252584 -0.15989514 -0.07804129 -0.0570256 0.11777922 0.05340178 -0.03475418 0.030790579 0.03221278 0.08430159 -0.03517234 0.039471947 0.16225822 0.054990333 0.2154319 -0.04988487 0.062489916 0.09523531 0.013048451 -0.03199605 -0.01358462 0.091852166 0.005221695 -0.072757535 0.15552041 0.06343857 0.04868812 0.05967153 -0.12419164 0.04730693 0.051656943 0.18719438 0.06353956 0.06750637 -0.11986067 -0.032372825 -0.037161235 -0.10840416 0.046649765 -0.13830343 0.081936404 0.13974099 0.15228346 0.06734241 0.09715787 -0.010853936 0.012630665 -0.15650578 -0.2546055 -0.1417919 -0.045414213 -0.0430228 0.067723185 -0.04066631 0.017841745 0.077036895 0.109843574 0.015330155 0.05758355 0.23218623 0.013451241 0.123011224 0.09565298 -0.1789396 -0.018952876 0.22680095 -0.13711429 -0.050689224 -0.18344563 -0.11836415 0.20839599 -0.082967274 -0.09202076 -0.07245094 -0.040653873 -0.09053222 -0.1119451 0.1406963 -0.025034968 -0.08928454 0.0037916277 0.08275677 -0.015796077 -0.1345818 -0.017319279 -0.15669861 0.09964615 -0.048524696 -0.0011019106 0.10037673 -0.054625954 -0.04650511 -0.13819595 -0.043001022 0.0971866 0.005840521 -0.16020083 -0.029856812 0.023881972 0.04226221 0.004886254 0.031407114 -0.15558778 0.09204957
23 -0.07599186 -0.07504886 0.12549199 -0.04505991 0.015530784 -0.00028327887 -0.15735118 -0.014420163 -0.036646124 0.103773475 0.1501832 0.068215355 -0.14892185 -0.060244903 0.081211336 0.022912662 0.09854078 0.047278564 0.01589223 0.06902795 0.07564555 0.15321876 0.05812345 -0.05807621 -0.08258353 -0.080964796 -0.129974 0.108139604 -0.09569579 0.117753714 -0.19034673 -0.028757181 -0.11815502 -0.05743075 0.014538985 0.034524206 0.06609754 -0.083985254 0.17471175 0.010764908 -0.04321874 -0.0433458 -0.12021823 0.0146260215 -0.06122656 0.099401 0.12064012 -0.09641562 -0.21715678 -0.09952289 0.093817644 0.046832632 -0.035479438 0.069982894 0.045869887 -0.015324501 0.1604368 -0.09786264 0.044489376 0.07434032 0.15389557 -0.118996136 0.037421767 -0.059660967 0.14913861 -0.0139642935 -0.0850024 0.087877035 0.021930326 -0.080384284 -0.056386493 -0.05258936 -0.114486836 -0.11944334 -0.010288033 -0.1822515 -0.16896845 0.18760741 -0.13112032 0.17902648 -0.08172775 0.13390842 0.05250045 0.059066202 0.09854923 0.1046334 0.09672395 -0.13394137 0.04812135 0.059087213 -0.2481899 -0.15759899 0.024237338 -0.021024177 0.101809345 -0.08123848 -0.028214727 -0.20375001 -0.09844156 -0.17160033 0.020825787 -0.009627918 -0.009813708 0.015105462 -0.07620098 -0.07572659 -0.05650009 -0.11011706 0.04728761 -0.12945828 -0.23792554 -0.09374671 0.14689198 0.22422211 -0.013032203 0.21556589 0.050156165 0.18987052 0.21237074 0.13202022 0.059890904 -0.05491363 -0.03769193 0.2585792 -0.14595984 -0.3090475 -0.052602388 -0.07539865
18 -0.020207314 -0.12912117 0.18025263 -0.1485026 0.0009805146 -0.19748047 -0.0662585 -0.0041456665 0.068284884 -0.00016919052 0.18808293 -0.0019813385 -0.09200592 -0.11389981 0.15555419 0.024741031 -0.049705144 0.26474014 -0.059654843 0.014098959 0.16160549 0.12609063 0.010480092 -0.049461473 -0.015987495 -0.10403725 -0.13446827 -0.020845138 0.15330419 -0.0036776008 -0.14008313 0.047829904 0.036021076 0.089018404 -0.09441619 0.0013939468 0.19510238 0.013241361 0.2467829 -0.005255042 0.006756237 0.06668622 -0.025066126 -0.075852215 -0.023817876 0.06417822 0.01871485 -0.08730644 0.06480716 0.04313704 0.087431535 -0.048153944 -0.083899885 0.07161781 0.011673413 0.17819749 0.0772395 -0.03247907 -0.12074601 0.03703637 0.013842741 -0.07766915 -0.014021275 -0.0698231 0.0865317 0.078652695 0.11848093 0.06597846 0.08572457 -0.03436637 0.07763212 -0.06696709 -0.1479102 -0.12811187 -0.021894908 0.022741323 -0.0022133086 -0.016865963 0.012499049 0.037908394 0.033905715 -0.024496226 0.06034862 0.17424351 -0.047181826 0.096962675 0.017732076 -0.12600662 0.00068987097 0.156844 -0.08507169 -0.058698446 -0.13238654 -0.08939819 0.18099041 -0.1058996 -0.08130282 -0.056806102 0.052072354 -0.047411133 -0.11918158 0.12194376 0.017943973 -0.11029064 0.016567208 0.06306396 0.07332732 -0.11029446 0.027833702 -0.12812746 0.12860972 -0.04887319 -0.006481811 0.025214685 -0.0108280545 -0.09339218 -0.1356032 -0.03851963 -0.009848316 -0.027378762 -0.11802354 -0.023312822 0.025345283 0.021824438 -0.063200876 0.12714584 -0.19717507 0.019489763
27 -0.012329158 -0.139454 0.13939168 -0.09718576 -0.039393615 -0.2598502 0.13112167 -0.047479145 0.13116683 -0.10557822 0.18178247 -0.00177462 0.024097892 -0.08088556 0.088336356 0.07208156 -0.12680484 0.19538957 0.06491675 0.032830395 0.11196727 0.10559833 -0.027139883 -0.059988875 0.0063236193 -0.04678644 -0.10737985 0.03138377 0.18985516 0.015225551 -0.103267655 0.045018867 0.0076282807 0.11698635 -0.1366445 -0.004310539 0.2435629 0.06929964 0.24325526 -0.04046902 0.009984648 0.15114836 0.058285106 -0.11097098 0.07447677 0.11966053 -0.020885453 -0.06002705 0.26321286 0.13759206 0.010929787 -0.10802972 -0.06962544 0.04766358 0.036142606 0.2110244 0.012518908 0.029246164 -0.12180263 -0.02252323 -0.0015031418 -0.14851914 -0.03554143 -0.089570984 0.07051262 0.09980454 0.10151448 0.018633228 0.07057504 -0.047478907 0.054998722 -0.11847582 -0.21466844 -0.14507973 0.002765842 -0.034199115 0.04854482 0.0100500155 -0.025455311 0.06630266 0.036436383 -0.107618034 0.0116765415 0.21412842 -0.0056328755 0.07400286 0.065131046 -0.10832501 0.08307259 0.21518908 -0.13018952 -0.06827055 -0.16987532 -0.09253306 0.20726612 -0.10748152 -0.058958653 -0.0704474 -0.026196426 -0.0150809195 -0.17815146 0.12097533 0.07950244 -0.115425296 0.014711081 0.09144132 0.05166615 -0.10186188 -0.016006703 -0.19324172 0.18152393 -0.02237751 0.020476835 -0.0018766036 -0.04623916 -0.12223633 -0.15635863 -0.03262023 0.0008569548 -0.07137208 -0.19338845 -0.0049172738 0.0004511602 0.06573737 -0.06312249 0.08883306 -0.16978218 -0.006307848
19 -0.061281327 -0.12131342 0.1895751 -0.07344628 -0.020593224 -0.28323403 0.12280335 -0.07038178 0.07647203 -0.14339082 0.20020637 0.03227173 0.0623159 -0.029950434 0.04839495 0.02488474 -0.19895037 0.25203627 0.030917697 0.032046758 0.10439806 0.06863927 -0.084043436 -0.0620841 0.021471495 -0.08540475 -0.094745286 -0.015832918 0.17996784 0.0039494876 -0.16520436 0.104333065 0.02996658 0.12173814 -0.056633726 0.015546418 0.23694138 0.121040545 0.24686716 -0.034027785 0.012354746 0.13510682 0.033406783 -0.032640066 0.016323678 0.10442305 -0.04179433 -0.09236841 0.25794607 0.1563304 0.010639352 -0.03275889 -0.03628351 0.030117806 0.027918644 0.27889755 -0.0040484294 0.007312672 -0.14102913 -0.013257874 0.0017526142 -0.10829065 -0.048482094 -0.07981608 0.06184893 0.1044999 0.13160536 0.064998 0.048210334 -0.0699911 0.045470152 -0.12172275 -0.29048657 -0.19533472 -0.005072591 -0.015435894 -0.010644011 -0.03371652 -0.0071775243 0.12959981 0.059059963 -0.08167615 0.103725456 0.25129083 -0.0075050048 0.06410444 0.11144857 -0.14939298 0.049015496 0.20325297 -0.14959158 -0.08468413 -0.1530851 -0.050842162 0.17862956 -0.09391818 -0.13267876 -0.08654934 -0.022795111 -0.08042896 -0.098580986 0.089139365 0.0031171057 -0.08397038 0.036836654 0.13908842 0.04217481 -0.09759124 0.012641508 -0.11612135 0.1406005 -0.040410426 0.05220546 0.0035708235 -0.06689681 -0.096897095 -0.15871197 -0.021253118 0.035803173 0.039264485 -0.060695935 0.02326504 0.04707859 0.032846548 -0.044743113 0.062435564 -0.11160166 0.010232815
21 0.0021406163 -0.11104682 0.0577548 -0.21533303 -0.008595975 0.14466001 -0.31351838 -0.02998146 -0.0016140017 0.10425907 -0.01711385 0.01734651 -0.25152817 -0.11357327 0.118437864 0.08737268 0.051920384 0.029352263 -0.0071891886 0.053357117 0.059439503 0.19127439 0.12941563 -0.038119294 -0.14208314 0.0021006118 -0.046583246 0.16850366 -0.17485775 0.15235712 -0.14944336 -0.18205535 -0.21422611 0.04061922 -0.11380291 0.050129894 0.061874937 -0.15302823 0.26197174 -0.0033733156 -0.10662478 -0.0709038 -0.18040016 -0.01687124 0.014990296 0.14592688 0.29293022 -0.14775495 -0.23583713 -0.054850116 0.14107941 -0.015082601 -0.072492205 0.03784558 0.039618943 -0.0785476 0.27346244 -0.056018766 0.11449284 0.058212794 0.12569685 -0.1211167 0.12701844 -0.1666466 0.19456945 0.010888419 -0.13991776 -0.0013226725 0.039756566 -0.10915037 -0.0714674 -0.086840846 -0.049160022 -0.096502185 -0.0063336506 -0.2755724 -0.12006095 0.27647135 -0.24557929 0.16495754 -0.07255992 0.15166502 -0.0016442904 0.06116462 0.1145228 0.09176075 0.047295053 -0.14599429 0.0383993 0.06008448 -0.20814653 -0.1901998 0.108478464 -0.026210165 0.08284898 -0.042621113 0.00032062558 -0.1632113 -0.09148546 -0.19813876 -0.025966901 -0.09209371 0.029170346 0.0031690712 -0.08588737 -0.08452857 -0.13663319 -0.06587041 -0.04508019 -0.19839504 -0.25745827 -0.08471582 0.13302729 0.18599774 -0.038326852 0.18397771 0.07567886 0.07305945 0.15046392 0.028430287 -0.088280216 0.0059665036 -0.16033907 0.29310754 -0.11569181 -0.28836653 -0.14716712 -0.04147254
43 -0.006974261 -0.15892118 0.02418525 -0.22299825 -0.03791365 0.17742108 -0.4645997 0.014995003 -0.066768974 0.16125685 -0.02852277 0.03862276 -0.35634243 -0.11092421 0.14216451 0.06879069 0.15587875 -0.067436375 0.07190377 0.015630072 0.0057808035 0.20913108 0.162455 -0.07430319 -0.120605044 0.021372654 -0.09926867 0.22871351 -0.20966344 0.1544833 -0.17683315 -0.2098054 -0.20878117 0.08186609 -0.03931643 0.04717421 0.028865894 -0.16026597 0.19023675 0.046339493 -0.08749601 -0.11409798 -0.09636367 -0.004482882 0.07134675 0.053871743 0.23925099 -0.06712454 -0.16955094 0.013520329 0.148911 -0.019312175 -0.047906544 0.009653328 0.06563391 -0.056433115 0.1810655 -0.05612401 0.1263243 0.14316466 0.14610225 -0.08070156 0.13140398 -0.18576482 0.15649977 -0.0007230015 -0.13231099 -0.018117316 0.052446406 -0.16265582 -0.0645451 -0.14309068 -0.014432033 -0.1874466 0.025195694 -0.35644972 -0.062372323 0.27994594 -0.2615192 0.16931193 -0.1627852 0.10800072 -0.0348419 0.08409227 0.1543287 0.07332582 0.12189103 -0.08537581 0.03041876 0.089157164 -0.2421418 -0.23736452 0.12091706 -0.045860052 0.09269856 0.012130186 0.036912978 -0.19962732 -0.10872823 -0.18755825 -0.079778075 -0.12607911 0.0674643 0.0054828376 -0.06361941 -0.13319363 -0.16902551 -0.05554014 -0.045858596 -0.23915358 -0.25013205 -0.03199225 0.15867844 0.15354285 -0.13705803 0.1774928 0.06643218 0.10963927 0.15256244 0.006790649 -0.18634248 -0.009151955 -0.23192853 0.3188806 -0.13553634 -0.29705992 -0.13371237 -0.034233954
45 -0.040013053 -0.0758745 0.21208575 0.07924626 0.04742074 -0.24589336 0.15923509 0.010836516 0.009682017 -0.011869473 0.31911242 -0.041398544 0.23451158 -0.01022524 0.14154267 -0.025312465 0.09805504 0.03849877 0.08946621 0.13135085 -0.04114411 0.017294742 -0.021208402 -0.19405165 0.06117105 -0.09108392 -0.09272797 0.09205528 0.03396155 0.023059472 -0.11543224 -0.015566222 0.06141337 0.12779741 0.18657227 0.065540604 0.091395214 -0.046160486 -0.06106245 0.101703435 -0.013135208 0.07343949 0.24716455 -0.05139946 0.13398032 0.055681568 -0.19996376 0.089441165 0.22969986 0.15164101 0.074772164 0.12773216 0.033688385 -0.030647017 -0.029664759 0.13338256 -0.044600904 0.1522338 -0.109414525 -0.07396794 -0.11789644 -0.14281625 -0.01834692 -0.17774363 0.10538762 -0.06800307 0.022277342 -0.05120848 0.023723625 0.026567938 0.15511699 -0.25771818 -0.2769636 -0.18031342 0.16406317 -0.27440998 0.0620006 -0.18429668 0.0056194053 0.10519026 0.065106675 -0.07017187 0.045826152 0.48616883 0.107568264 0.17590149 0.20797823 -0.10875289 0.010244279 0.22949304 -0.1348044 -0.085761696 -0.16961414 0.064079046 0.27777117 0.10362511 -0.14287312 -0.15432934 -0.084889114 -0.11808107 -0.29775834 -0.14253943 0.1574346 -0.09203115 0.1587864 -0.0012086506 0.06057652 -0.15083408 0.04914342 -0.28710133 0.1915732 0.07025101 0.07307156 -0.16163781 -0.08596881 -0.05684206 0.015828772 0.018325001 -0.17251712 -0.1812102 -0.11313657 0.0020874282 -0.025739806 0.1766329 -0.09884476 0.06853051 -0.13627523 0.065203056
34 -0.06212577 -0.08230022 0.036345597 -0.1193403 0.036213066 0.03810582 -0.18360153 0.011389265 -0.030532997 0.10028141 0.0692974 0.005780813 -0.19081697 -0.1080698 0.051595345 0.035532627 0.11790662 0.020948209 0.050544154 0.08506094 0.056366455 0.1587914 0.120013036 -0.044173844 -0.17525297 -0.03821758 -0.16968189 0.13078277 -0.20531385 0.13545047 -0.17140864 -0.11831932 -0.15921576 -0.04741647 0.07440475 0.05703142 -0.020306319 -0.11579854 0.052922715 0.03286404 0.0050507216 -0.01711652 -0.13042656 0.022471195 -0.016611384 0.11331558 0.19188179 -0.08427332 -0.22551902 -0.027584063 0.09521688 0.0721095 0.045999844 0.157164 0.04542423 -0.018010454 0.13479196 0.0134393675 0.024397787 0.13590816 0.114122696 -0.17877345 0.1379172 0.0077769565 0.17364839 -0.007899947 -0.09215544 -0.004950462 -0.01212707 -0.09945521 -0.07677703 -0.1728059 -0.08054388 -0.13129959 0.004134102 -0.27816916 -0.10580924 0.15700592 -0.1647908 0.1765281 -0.056099128 0.09815568 -0.011139847 0.02325687 0.12901622 0.1230824 0.09279755 -0.017500104 0.033752803 0.113910705 -0.25495425 -0.1030939 0.036755927 -0.033852864 0.06002515 0.0006510771 0.030493718 -0.20399266 -0.1411073 -0.18140507 -0.008681381 -0.09137997 -0.00062207924 0.011693498 -0.05901322 -0.15645339 -0.14543083 -0.09718115 -0.012321298 -0.21052742 -0.2959317 -0.044924796 0.19596545 0.2494196 -0.093427405 0.2115741 0.0032756757 0.14417118 0.3154904 0.15882304 -0.07411353 -0.14200717 -0.12604143 0.41736722 -0.11412915 -0.42620295 -0.07573277 -0.02932127
9 -0.030582428 0.024950432 0.25900987 0.19652504 0.06638608 -0.20455053 0.30212292 -0.02280298 -0.015791599 -0.028209722 0.3481965 -0.018689545 0.3238277 0.080893196 0.13455139 -0.036375597 0.068200655 0.032981113 0.0629085 0.14762801 -0.06054593 -0.026100265 -0.07054322 -0.16201791 0.013964025 -0.11049163 -0.021027107 0.120109916 0.04129066 0.061105024 -0.14330421 0.028059673 0.025218364 0.09138193 0.14023301 0.089866385 0.14853548 -0.0436528 0.017590554 0.085805744 -0.051845845 0.026301438 0.2501989 -0.07061972 0.036709487 0.045304254 -0.22223848 0.015938507 0.1306335 0.0900191 0.100812465 0.10726272 0.11194697 -0.06481082 -0.05427734 0.18624827 0.034113325 0.11686016 -0.11216654 -0.081631795 -0.12008107 -0.08255134 -0.10091116 -0.2689417 0.15619522 -0.17518148 -0.030351771 -0.088963985 -0.02290625 0.053625397 0.15184641 -0.09576982 -0.35962334 -0.11146238 0.15942939 -0.33414844 -0.012406816 -0.1428821 0.0277148 0.24811806 0.09501085 -0.03926551 0.08724102 0.49113804 0.13981487 0.12717581 0.26119027 -0.16933961 0.025561549 0.17407455 -0.07123485 -0.15975703 -0.1370861 0.15681106 0.255934 0.09034118 -0.26446736 -0.17487517 -0.13354284 -0.121637926 -0.26685393 -0.1664627 0.14192705 -0.06271127 0.17939246 0.0594515 0.12483191 -0.18298593 0.08562417 -0.21877 0.19296356 0.002969769 0.061240017 -0.13923563 0.0041651065 -0.04735559 0.049892288 0.09456544 -0.21900328 -0.16373792 0.01801365 0.059528764 0.013271125 0.12752257 -0.11060038 0.113882646 -0.16039756 0.09237423
5 -0.009320217 -0.14282216 0.078776814 -0.24292646 0.036126267 0.15106237 -0.26440868 -0.020130102 -0.010621785 0.11609619 0.008234864 0.06580499 -0.33951837 -0.051432543 0.1347354 0.09151571 0.065249346 -0.024159765 0.08517112 0.054999717 0.10215778 0.15157764 0.11821223 -0.048124887 -0.17493397 -0.010116013 -0.07647114 0.22959575 -0.12064149 0.18534485 -0.1711758 -0.18079324 -0.21621697 -0.042150103 -0.058931705 0.059406653 0.020414203 -0.20129387 0.2626139 -0.0068645845 -0.08980738 -0.11689803 -0.23617747 -0.0666326 -0.004517808 0.13645318 0.3379103 -0.20316741 -0.3328804 -0.029416054 0.15252276 0.002784095 -0.03864402 0.1216075 0.075051226 -0.09980549 0.26876536 -0.08387756 0.10695949 0.10084107 0.13509855 -0.119449385 0.13763367 -0.13047372 0.20183675 -0.013012983 -0.11614776 0.058937084 0.012579612 -0.026622713 -0.07960317 0.005338647 0.021319043 -0.0742414 -0.017939584 -0.23799492 -0.15890664 0.31915224 -0.21189466 0.16540954 -0.12558155 0.16262136 -0.061487965 -0.025788736 0.17143069 0.059225276 0.04517419 -0.15707423 0.023377094 0.09024198 -0.22220121 -0.19200541 0.11424096 -0.046827026 0.07635299 -0.07029297 -0.01107999 -0.2129842 -0.09783768 -0.19917966 -0.060468815 -0.054246932 -0.008587224 -0.09761504 -0.08182574 -0.052569162 -0.1215541 -0.11387174 0.0017210598 -0.23423041 -0.3085926 -0.112730555 0.09068206 0.26870695 -0.07358281 0.22873506 0.014525184 0.12190283 0.2523155 0.1595389 -0.083676 -0.033013947 -0.15432984 0.37885547 -0.18368886 -0.35598388 -0.25829336 -0.026788458
13 -0.08475666 -0.13748455 0.07545069 -0.12860179 0.018685414 0.07976808 -0.28576863 -0.014320268 -0.055473693 0.08283632 0.04345116 0.103572756 -0.33564234 -0.034121506 0.051123813 0.07936909 0.063251026 -0.03237864 0.16756535 0.09255116 0.055266667 0.09070177 0.11171847 -0.024640756 -0.08959403 -0.03381968 -0.085826084 0.26323405 -0.17509754 0.16065393 -0.13178371 -0.13813005 -0.20932086 -0.044005264 0.043304827 0.06668577 0.018369477 -0.14288788 0.16109867 0.04735263 -0.049548615 -0.1412191 -0.12812148 0.005901496 -0.004775682 0.13764653 0.3199224 -0.09403665 -0.23495577 0.01498875 0.082937054 0.034616172 -0.024788503 0.051857736 0.10655685 -0.06727633 0.22227122 -0.13242726 0.12452089 0.14423007 0.18744265 -0.107641004 0.1363858 -0.15745507 0.20292014 -0.020398512 -0.0991317 0.02592553 0.046787947 -0.03402864 -0.08339092 -0.057641678 -0.015526337 -0.20867239 -0.034645125 -0.27294362 -0.083223574 0.33391413 -0.20403312 0.21840082 -0.16059798 0.15694974 -0.044607487 -0.013993559 0.17785124 0.0708465 0.13779041 -0.09353502 0.00711851 0.13617644 -0.22742544 -0.25528657 0.108582154 -0.049522903 0.0633445 -0.05559833 -0.03522377 -0.24631494 -0.10773058 -0.1555862 -0.08988094 -0.028613947 0.016205058 -0.0772302 -0.07107222 -0.06186989 -0.1322793 -0.12395707 -0.011591168 -0.25654584 -0.3432798 -0.13702692 0.13260722 0.23062131 -0.11418734 0.19510435 0.008261026 0.19154106 0.24325496 0.13781914 -0.11024333 -0.05701463 -0.17465086 0.334977 -0.2034253 -0.34391513 -0.26587406 -0.0014337581
28 -0.07892385 -0.1508701 0.062211346 -0.16220433 0.037588194 0.04708899 -0.26647627 -0.042219583 -0.07415756 0.1252348 0.13063942 0.09786657 -0.24276361 0.0043579605 0.10977471 0.059845094 0.085948564 -0.10930221 0.12626116 0.14092022 0.027467024 0.13141994 0.10223549 -0.087657884 -0.10525284 -0.024708634 -0.13685 0.21845481 -0.23638791 0.22231941 -0.19731085 -0.15737623 -0.19635293 -0.018597946 0.10716101 0.104840666 -0.0071528126 -0.16105823 0.16433738 0.06608301 -0.11928881 -0.072831616 -0.17951909 -0.0061113453 -0.009987951 0.10894516 0.27620453 -0.17159666 -0.2980074 0.0008881912 0.18365674 0.06999258 -0.045978647 0.036677256 0.04582112 -0.09990898 0.18177618 -0.09907107 0.13013546 0.07793266 0.14281154 -0.10332401 0.11348231 -0.15630576 0.23319943 0.021524211 -0.101295315 0.067891404 0.06953463 -0.0760104 -0.095555596 -0.10316442 -0.022448406 -0.20157441 0.04024874 -0.27287915 -0.1428336 0.3049267 -0.27353308 0.2185096 -0.17209198 0.19714062 -0.008201468 0.02390873 0.14654982 0.043880597 0.0695767 -0.13883597 -0.013512864 0.06910691 -0.21529014 -0.19791639 0.11888501 -0.035224985 0.07375379 -0.020075204 -0.08742563 -0.26260096 -0.085047364 -0.27143863 -0.01641851 -0.12047937 -0.037496038 -0.056434654 -0.052304603 -0.055378966 -0.1535388 -0.059667006 -0.012243647 -0.18405142 -0.37288624 -0.07141844 0.17315453 0.16039874 -0.079114 0.2316993 0.04266519 0.14370602 0.24260709 0.20161709 -0.02615042 -0.00047034063 -0.22354963 0.35325566 -0.17968865 -0.33723366 -0.24311958 0.015895078
