50 128
8 0.06536387 -0.060296424 -0.008951016 0.010424787 0.13293557 -0.11515091 0.105285615 0.1422098 -0.021062385 0.09806793 0.14145888 0.04534051 -0.029065311 -0.18714441 0.07801104 0.02556715 0.11732008 0.10255047 -0.13871038 0.14917219 0.011372541 0.06846461 -0.08820537 -0.045067858 -0.08631499 -0.15133815 -0.11884599 0.123303756 0.026060639 0.10884362 -0.20505737 0.10162673 0.083148874 0.05914914 -0.039544873 0.030600863 0.013104501 -0.057998143 0.15175408 0.11238482 -0.08477845 0.0132998675 -0.105317935 -0.024120878 0.035196465 -0.03107894 0.0513665 0.046762437 -0.115397766 0.14054422 0.024592493 -0.06591405 0.14731772 -0.04508754 0.11119931 0.095401704 0.09812145 -0.097587496 -0.039696835 0.13118094 -0.05182375 0.06354565 -0.034141712 -0.04277937 -0.020651095 -0.06414271 0.05032143 0.13736407 -0.1845812 -0.02943442 0.024910973 0.03350145 -0.01647006 -0.10007511 -0.022084234 -0.18179157 -0.017837359 -0.031830747 -0.092231035 0.15158693 0.015897878 -0.08869874 0.017682105 0.13969374 0.05579056 0.10235216 0.08213279 -0.044382118 0.17439312 0.063692376 0.043554097 -0.11204748 0.021509169 0.019231467 0.010781095 0.03096091 -0.073863715 -0.1553374 0.08435236 -0.12218309 -0.093992904 -0.16987526 -0.11765698 -0.050745767 -0.018825 -0.047116723 -0.005529328 -0.0073175994 0.005257591 -0.12028777 -0.015444685 0.070126645 0.12293244 0.080084026 -0.059284028 -0.18211208 0.00036294002 0.07429251 -0.029817965 0.07204833 -0.017861096 -0.047191318 -0.0016880457 0.098425314 -0.014327297 0.05930552 0.14129442 0.0018950362
30 0.039599203 -0.03803096 0.036817785 0.0058067134 0.15549567 -0.13947889 0.07523971 0.20811981 -0.01526907 0.12411916 0.23953602 0.09794405 -0.029387925 -0.12537277 0.16320743 0.08725533 0.08981935 0.104382224 -0.037671022 0.028738882 -0.049432427 0.025888665 -0.17574924 -0.068205684 0.051434346 -0.10655186 -0.09846649 0.061025802 0.07012558 0.1432763 -0.06539135 0.13915786 0.04453703 0.16641828 0.08988753 -0.061477136 -0.004294548 -0.13697965 0.27040958 0.009042347 -0.0001794806 -0.030296776 -0.124898314 -0.057811342 -0.024738926 -0.20964694 -0.0055424725 0.07308127 -0.16992751 0.102956094 0.063386254 -0.2225974 0.14252216 0.08684633 0.2941902 -0.040997814 0.044218853 0.05318153 -0.26338905 0.22675858 -0.24895714 0.11677095 0.07120323 -0.13446853 -0.06594478 -0.04276348 0.0647154 0.1946507 -0.14379218 -0.04605321 -0.15573402 0.1816233 0.00022357778 -0.10211662 -0.1142512 -0.24285133 -0.08781487 -0.061950974 -0.24984334 0.08390404 -0.1897796 -0.09203911 -0.039142273 0.16976742 0.19477582 0.041557357 0.1234743 -0.061599705 0.05400776 0.34025338 0.08922577 -0.27833846 0.07578965 -0.008060967 -0.044110455 -0.157041 0.009682314 0.026833894 0.24931824 -0.008020973 -0.05582044 -0.29210222 -0.2861359 -0.21032819 -0.06849825 -0.02245889 -0.12423703 0.2570258 0.08353989 -0.11660768 0.06830579 -0.058959067 0.045426015 0.10192345 -0.21240506 -0.044970926 -0.019488633 0.07869704 0.006137541 0.1501104 -0.086721756 -0.07583312 0.0337736 0.017683461 0.00079219707 0.035448663 0.09469723 0.07446329
9 0.15653485 -0.14872867 0.016415205 -0.0057157334 0.2639624 -0.055895604 0.11078825 0.13263711 0.0036167149 0.09628117 0.076672405 -0.029344773 -0.09809547 -0.28120404 0.16160731 -0.034971166 0.15102524 0.061965074 -0.17682216 0.2120788 0.096885435 0.08558686 -0.0014108378 -0.07939484 -0.16993587 -0.11930485 -0.09248831 0.18643351 0.039093196 0.09355889 -0.30220696 0.056823216 0.040054645 0.06689529 -0.1266038 0.06421339 0.012637406 -0.029055309 0.076697685 0.0924862 -0.09123566 0.010293105 -0.110133156 -0.03636942 0.0717568 0.043615006 0.124183886 -0.047616035 -0.0811947 0.07798392 -0.030941956 -0.01220828 0.15862542 1.1043128e-05 0.061631057 0.093027785 0.126666 -0.08861973 0.054148547 0.03428118 0.08855842 -0.043764547 0.01139612 0.052714933 -0.030436495 -0.01912974 0.037082847 0.093195334 -0.16702577 0.011507888 0.07686404 -0.016671428 0.026580112 0.0048580333 0.0469738 -0.11068345 -0.05362564 -0.0072129797 -0.038087316 0.106878445 0.07109136 -0.07871221 0.017774869 0.10909452 0.024814809 0.05437442 0.08505296 -0.028880943 0.22082041 -0.023501271 0.0063740993 -0.0856265 0.03709358 0.035625584 0.015423457 0.06862504 -0.093283325 -0.16577731 -0.040279225 -0.1409544 -0.008044905 -0.062196296 0.011683092 0.040234264 -0.016708603 -0.03641067 0.026738381 -0.10842202 0.00036361656 -0.05689646 -0.09080679 0.120826244 0.09568034 0.04116718 0.013113619 -0.09672667 0.0536109 0.07223623 0.01432597 0.07504754 -0.026124295 0.0031401732 0.012262704 0.18798698 -0.025238115 -0.0011253781 0.17181882 -0.00096174754
34 0.031937506 -0.02313975 -0.013323628 0.02409609 0.10494413 -0.05472374 0.051221 0.077348664 -0.037431806 0.074233525 0.10562747 0.08714376 -0.0409929 -0.13339059 0.06991041 0.0076417057 0.04678018 0.10098089 -0.08945266 0.101432614 -0.02612531 0.03710362 -0.046609227 -0.041057196 -0.10258495 -0.113788195 -0.093877405 0.12776409 -0.028200254 0.071567826 -0.16976932 0.07138279 0.088606514 0.118882485 -0.004446838 0.017933857 -0.0026518311 -0.107328676 0.18640615 0.123442195 -0.06704885 -0.0047667096 -0.12667185 -0.045563374 -0.0021265862 -0.06878846 0.09985611 0.04055009 -0.1468301 0.12947077 0.01752628 -0.13884346 0.18139477 0.00973566 0.1952174 0.039395407 0.08938215 -0.064325646 -0.09954939 0.15797774 -0.06399884 0.050503712 0.03115905 0.001720221 -0.02814067 -0.04323253 0.07871676 0.13911402 -0.14009228 -0.0060227616 0.008979837 0.059147317 0.022355221 -0.090763524 -0.0011938318 -0.16188414 -0.049456213 -0.04577197 -0.13457493 0.11360378 0.009401049 -0.09250808 0.00031888165 0.16348997 0.08575276 0.06372919 0.13766901 -0.03521182 0.19686508 0.13372216 0.05162085 -0.20138979 0.034072455 0.040096138 0.043899883 -0.024343343 -0.103050694 -0.16672626 0.10357909 -0.1331246 -0.04651372 -0.2170188 -0.0894696 -0.06350711 -0.061820015 -0.042201992 0.018775113 0.022419795 0.042150784 -0.1079468 -0.06611785 0.023794094 0.109853804 0.06263297 -0.074073665 -0.09831038 0.034271173 0.10132183 0.031345606 0.106098525 -0.06932419 -0.00289037 0.021083293 0.16339062 -0.012702429 0.010006776 0.13155839 0.061816502
10 0.046476007 -0.0842673 -0.020850157 -0.04501674 0.123331696 -0.052461524 0.049391493 0.04616913 0.031262487 0.0074753654 0.01195738 -0.049337715 -0.07652397 -0.19034636 -0.0023455 -0.035966158 0.05545881 0.05573261 -0.13811232 0.11082101 0.05057727 0.05686279 0.03174762 0.012281614 -0.0873918 -0.0546402 -0.050070442 0.07533251 0.032113012 0.025699273 -0.15513608 0.029773489 0.01166428 0.05933732 -0.055271395 0.060553953 0.0022376075 -0.0046740575 0.13537301 0.09551145 -0.039654054 0.007369091 -0.11343798 0.0001642253 0.03537275 0.04312736 0.11795766 -0.026902165 -0.11119747 0.096967965 0.0003615093 0.0039779167 0.13204183 -0.009783372 0.05536342 0.078492984 0.09338286 -0.040338546 0.017361874 0.035743188 0.043435887 -0.024385013 0.059948877 0.026797704 0.022182913 -0.058462065 0.04145193 0.07365773 -0.13910642 -0.011246481 0.04978106 -0.045642186 -0.027290309 -0.030555975 -0.010349358 -0.13677077 -0.055603676 -0.007903034 -0.043996364 0.14797461 0.09565396 -0.118233666 0.009403568 0.13441086 0.100020364 0.100417435 0.12658982 -0.052888922 0.20897405 0.02793987 -0.0026449512 -0.12908903 0.052676182 -0.01171353 0.032330237 0.01461561 -0.08077064 -0.21399474 -0.04462341 -0.17644697 -0.04732822 -0.09197056 -0.08020947 -0.013007677 0.0018514614 -0.065025106 0.004233324 -0.08856517 0.04444003 -0.07180553 -0.078064874 0.08648755 0.114064105 0.0328586 -0.06875202 -0.15427272 0.030814424 0.0772342 0.020386003 0.09429725 -0.03531576 -0.008986284 -0.0032604544 0.19911754 -0.04136347 0.024561366 0.12506364 0.013431735
36 0.17923307 -0.21440372 0.06356663 -0.10431035 0.18940955 -0.05244327 0.036074508 0.004905856 0.06673594 -0.016730223 0.049537633 -0.15859133 -0.13212298 -0.2408782 -0.011035562 -0.10580796 0.059319507 0.031160729 -0.14702904 0.10765148 0.19703276 0.044050902 0.104999594 0.0606824 -0.13264257 0.083106086 -0.073532656 0.071909584 0.10406092 0.028902946 -0.22855736 0.06850544 -0.054648757 0.02136052 -0.1378415 0.043992538 0.06366292 0.03712975 0.08184732 0.02059406 0.0155826835 0.053628452 -0.12159869 0.008299292 0.037632957 0.046830337 0.11700767 -0.12926736 -0.060005408 -0.0017774408 0.041437484 0.04603129 0.11571422 0.052079324 -0.06854599 0.124311306 0.106672406 0.010578126 0.024879768 -0.028780304 0.15011111 -0.10997202 0.12959275 0.10482482 0.047130223 -0.07224164 0.07595865 -0.008539502 -0.060422584 -0.01581037 0.01444444 -0.10703164 -0.105111204 0.0031164899 -0.048520263 -0.11481817 -0.012693835 0.05657114 -0.00083903456 0.14000723 0.091270454 -0.12073177 3.550597e-05 0.066134766 0.12788872 0.067728445 0.10437841 -0.08544223 0.08389529 0.11390216 -0.09092466 -0.06755112 -0.005470471 -0.073080994 0.08222984 -0.032861207 -0.058136407 -0.18327343 -0.06667922 -0.10215471 -0.017375523 -0.012768607 -0.056995943 -0.0017010493 0.046349585 -0.031860996 -0.06408455 -0.14081882 0.07575358 -0.05827922 -0.05037914 0.035544064 0.054104857 0.009846416 -0.06247708 -0.09998911 -0.02804068 0.07328981 0.07140917 0.08713083 -0.04598685 -0.07134529 -0.012609961 0.16907257 -0.056296002 -0.016438326 -0.010482773 0.0066814963
13 0.051359117 -0.11737082 0.18547449 -0.093122505 0.09400647 -0.06873548 -0.020768264 -0.01884222 0.099015355 -0.0761662 -0.018504523 -0.30351654 -0.15194465 0.01172693 0.055785682 -0.06577167 0.038190458 -0.05429877 0.040865608 -0.09617675 0.1377798 0.07601239 0.11416944 0.063096 -0.08770026 0.17660864 0.025795415 -0.033234894 0.11155067 -0.064035825 -0.06923564 -0.051078483 -0.27470002 0.10164558 -0.2037229 0.09292996 0.17462923 0.08931319 0.18599798 -0.07081385 -0.04216195 0.035270773 -0.0662755 0.0014162513 0.07519755 0.096989505 0.08534411 -0.15883483 -0.016446523 0.011329314 -0.03803189 0.13044909 0.17100428 0.16040431 -0.072195664 0.098062344 0.10135504 0.149808 -0.007892229 -0.027183598 0.14639178 -0.14496985 0.20672204 0.0859776 0.16371286 -0.11399489 -0.026974695 -0.049785312 -0.060361117 -0.039373904 0.043900818 -0.07185399 -0.24873614 -0.049216535 -0.025631322 -0.29283056 -0.069849834 0.079198755 -0.07828033 0.22949532 0.06519164 -0.18852946 0.059442732 0.15913099 0.15111004 0.052237634 0.20574673 -0.060259208 -0.030918948 0.15509564 -0.09688864 -0.10281044 -0.055047203 -0.083624385 0.14777926 -0.043503378 -0.045950368 -0.18097496 -0.1469094 -0.10885812 -0.06730106 0.046436284 -0.08128108 0.029049829 0.14643121 -0.072160244 -0.16640915 -0.14345641 0.08533291 -0.114695325 0.030059386 -0.013804752 0.065317445 0.060086392 -0.10717436 -0.068014205 -0.019177329 0.0016499013 0.13380283 -0.00409419 -0.053268123 -0.0695429 -0.0022544113 0.1439437 0.0012364128 -0.07669672 -0.12601252 0.04863078
0 0.09916169 -0.05993791 -0.00535397 -0.038083423 0.1408476 -0.035083503 0.069063984 0.06706722 0.016520737 0.061258443 0.066570476 0.026734408 -0.04113495 -0.19978668 0.0145141445 -0.034699973 0.1371612 0.07294457 -0.12264359 0.16290613 0.024812305 0.009848465 -0.019225135 -0.035482213 -0.12791795 -0.06966827 -0.07707542 0.12409249 0.06847747 0.10560361 -0.19196188 0.13591173 0.016761003 0.06820468 -0.03971442 0.0373511 0.0050211335 0.003643805 0.06764959 0.09945162 -0.05482817 0.0023488903 -0.09232611 0.004848117 0.051172376 -0.009629343 0.061818626 -0.02537485 -0.13072416 0.123744175 -0.001440211 -0.041180573 0.11500024 0.00909386 -0.005876718 0.05832114 0.08884236 -0.028430482 0.025099816 0.010180551 0.030105261 -0.023340123 0.049953707 -0.004672208 0.04672552 -0.0789651 -0.0060542403 -0.006742255 -0.08238768 0.008161688 0.07385246 -0.070395984 -0.08067852 -0.0067443145 0.009177996 -0.14986388 -0.027960883 0.00777671 0.016310474 0.13629526 0.07104191 -0.15466899 -0.0024212603 0.1199719 0.13380447 0.10182652 0.16921845 -0.057900123 0.23749913 0.026306137 -0.030137738 -0.13970168 0.030987555 0.015913194 0.07326604 0.043075196 -0.027063962 -0.23065236 -0.056988474 -0.16234012 -0.0664018 -0.064493 -0.03633065 0.02525783 0.016732408 -0.09826112 0.023297638 -0.17904411 -0.001061995 -0.025367482 -0.076814614 0.06622612 0.07791589 0.047270436 -0.03381904 -0.13195495 0.06574053 0.07650265 0.03235019 0.05538045 -0.006528555 -0.05270646 0.004795175 0.19772437 -0.06593186 -0.026613984 0.058819756 0.026279269
38 -0.042984027 -0.004020268 -0.102077395 0.01890331 0.08379329 -0.10223998 0.048863232 0.13242744 0.010425725 0.0984117 0.19546796 0.07064371 -0.0019640161 -0.18914184 -0.018337008 0.01753239 0.10490128 0.0955234 -0.14762823 0.109052725 -0.06398687 0.035049133 -0.03967715 -0.028865822 -0.09568266 -0.15589106 -0.13092005 0.12814558 -0.04567083 0.11031992 -0.16283114 0.08244221 0.13357039 0.0038328595 0.037526254 0.0108174905 -0.026794668 -0.08275963 0.15115702 0.11273939 -0.017833443 -0.0064755743 -0.071074255 -0.08500191 -0.06332644 -0.07140151 0.011174779 0.14135998 -0.13250147 0.1901195 0.069300346 -0.11851559 0.2176437 -0.009908637 0.14991246 0.059709996 0.12941584 -0.097630836 -0.06647096 0.21515566 -0.10928505 0.105297096 -0.041784942 -0.10968403 0.03373189 -0.07762249 0.046887368 0.14560047 -0.18137734 -0.047599524 0.028244635 -0.0013058278 0.04422242 -0.12035517 -0.049168427 -0.18987079 0.046870567 -0.024936415 -0.11062329 0.13203225 0.023074793 -0.06828613 -0.07759362 0.12645939 0.108305275 0.15133503 0.13252811 0.0023851532 0.15306729 0.115506485 0.034606107 -0.14069296 0.02548336 0.010217447 0.04801062 -0.026520526 -0.08093733 -0.22665976 0.10732607 -0.1812887 -0.15979281 -0.25358734 -0.06524837 -0.025444493 0.021773918 -0.1420868 0.019932793 0.0025970382 0.034497518 -0.12848632 -0.02832942 0.061378703 0.10451694 0.12417723 -0.077493705 -0.14105411 -0.028948719 0.14523634 0.0066850246 0.08995051 -0.09635436 -0.11029059 0.036941517 0.11273954 -0.027062526 0.027051337 0.21052082 0.0005291353
19 0.0911551 0.098014235 0.07553057 0.109526135 0.0917457 -0.06142708 0.08813935 0.18881372 -0.10466436 0.19230613 0.2337507 0.1774538 0.09325263 0.043678258 0.18651624 0.13896322 0.10871193 0.06764665 0.0420152 0.15418346 -0.041535806 -0.086164564 -0.26080963 -0.1279269 0.021913951 -0.14343487 -0.12832017 0.08110191 0.042693943 0.15913683 -0.056245796 0.19953464 0.051633544 0.14849928 0.07350792 -0.06323505 -0.004265678 -0.122524746 0.12641041 0.031060979 -0.13968074 -0.02974274 -0.07060231 -0.05273826 0.017003348 -0.19331588 -0.038482 0.09589976 -0.18742777 0.20966573 0.036161438 -0.13153629 0.17597125 0.028854098 0.16117756 0.010654938 0.052480716 0.06855245 -0.18739969 0.14431639 -0.21461897 0.071259975 0.005828968 -0.14444716 -0.015621312 -0.115307465 0.06605839 0.13708653 -0.21735345 0.026671125 -0.1340872 0.1737407 -0.09176507 -0.11045059 -0.03709215 -0.3495633 -0.07495878 -0.0926058 -0.20117208 0.1782417 -0.13795497 -0.17399934 -0.023848278 0.20542842 0.18283355 0.02094562 0.17746232 -0.0758384 0.035455897 0.24922085 0.048965666 -0.25225583 0.068610616 0.022408089 -0.029110769 -0.021813424 -0.0044408324 -0.056672037 0.16296649 -0.041417155 -0.115392715 -0.27211657 -0.24400356 -0.2131558 -0.02595805 -0.00080280605 -0.105429426 0.19136868 0.035543326 -0.14106084 0.034460258 -0.043079324 0.07081307 0.020584764 -0.14734292 -0.08184469 0.016641451 0.09558997 -0.042250857 0.08921922 0.018831102 -0.11879741 0.05479058 0.009663892 0.010724039 0.08025116 0.06884508 0.102213934
12 -0.028939545 0.08951645 -0.032296572 0.08853491 0.08962154 -0.04957526 0.04566725 0.14737037 -0.045522682 0.118127 0.15152404 0.12948868 0.0073161316 -0.037270304 0.13494447 0.080271125 0.12894277 0.06458967 -0.02588622 0.10492376 -0.12035385 0.035438094 -0.13748851 -0.11919628 -0.115422025 -0.19969393 -0.13473533 0.15916903 -0.027290197 0.13396047 -0.16718574 0.11936141 0.0043225447 0.09853432 -0.028861301 0.0144441165 0.040299796 -0.04079974 0.16684769 0.07737504 -0.120222844 -0.04197243 -0.034669794 -0.07782203 0.019699609 -0.04931828 0.030337567 0.06951313 -0.10823379 0.18405804 -0.037900712 -0.089170076 0.20989437 0.06315337 0.12668112 0.04063061 0.08811333 -0.011722365 -0.06290231 0.14574464 -0.058415804 0.045198753 -0.001782775 -0.062450655 0.06049546 -0.05240525 -0.0086872345 0.109988846 -0.17009836 -0.03801647 0.046879213 0.047079507 -0.016209584 -0.099883854 0.013505781 -0.22017433 -0.052941095 -0.037610237 -0.14516315 0.13178828 -0.010031038 -0.084279515 -0.026364578 0.14547703 0.05405596 0.05988054 0.1287814 0.02589648 0.083066255 0.06444711 0.037059903 -0.16649704 0.016580435 0.032988396 0.04006838 0.008432848 -0.0463937 -0.13009308 0.04649591 -0.14902528 -0.12270099 -0.19724908 -0.080278836 0.0016994099 0.011841197 -0.09788893 -0.012403971 0.024466062 0.0077983537 -0.15434529 -0.010776378 0.024607139 0.109745964 0.10529213 -0.06995332 -0.08844086 0.030900076 0.09515735 0.03521944 0.04826215 -0.065603636 -0.066145055 0.056222044 0.13998239 0.00396133 -0.000709296 0.18049435 0.047496684
40 0.046150614 -0.17765512 0.16298419 -0.16937774 0.064115316 -0.1232862 -0.065467924 -0.10955986 0.16660269 -0.1382298 -0.052937042 -0.41546175 -0.22121622 -0.10222501 -0.059698485 -0.11568572 0.09616964 -0.045690604 -0.004053976 -0.08701253 0.16226095 0.1278982 0.20066056 0.07669874 -0.17361034 0.18245426 -0.009634413 0.0006563143 0.16645704 -0.056058362 -0.15639308 -0.037122205 -0.16173944 0.047509808 -0.17625464 0.08896064 0.14526597 0.073439546 0.11810463 -0.0006725532 -0.03529798 0.0014912791 -0.046904173 0.02381203 0.0718531 0.05816907 0.060407568 -0.122258335 -0.06448153 0.081620365 0.020684592 0.09551406 0.16228779 0.072838075 -0.114098415 0.1838929 0.13445848 0.10291144 0.02309283 0.01261361 0.085780494 -0.054314118 0.15598702 0.01547348 0.18991882 -0.10317509 -0.005155667 -0.12097184 -0.017596282 -0.04790063 0.07815396 -0.12393109 -0.25942388 -0.039696533 -0.025753776 -0.24800514 -0.011302123 0.11007098 0.006573123 0.18186559 0.08127153 -0.16791442 0.034049515 0.107727565 0.17278172 0.12982067 0.18215545 -0.068113156 0.0024793367 0.12411745 -0.13157457 -0.09367476 -0.04604473 -0.06816081 0.16767111 0.00984729 0.008574409 -0.21713912 -0.120194815 -0.13408056 -0.09976797 0.026046958 -0.081274554 0.02603613 0.13877161 -0.080820106 -0.10834353 -0.20865935 0.014264568 -0.11025856 0.022955358 0.012557441 0.025986811 0.065100834 -0.08501123 -0.14543954 -0.0006507694 -0.030649697 0.048643705 0.0018328014 -0.05348806 -0.09285704 -0.048333045 0.10085301 -0.010408944 -0.031379707 -0.11523445 0.038907878
37 -0.0016598725 0.049055185 -0.081013344 0.07625731 0.08533845 -0.118539624 0.08729947 0.20083392 -0.045082986 0.14963175 0.21763748 0.13667196 0.023331948 -0.14272912 0.063889205 0.05370401 0.14823054 0.12065735 -0.18661365 0.097262196 -0.10830482 0.087635085 -0.108414195 -0.055507597 -0.11043919 -0.1836753 -0.08108268 0.13498054 -0.0704777 0.12895136 -0.19902293 0.09729311 0.06728751 0.0974587 -0.08220063 -0.0035154743 0.03766659 -0.06367883 0.21379015 0.079210356 -0.09158176 -0.052602537 -0.077675544 -0.07710883 -0.033397082 -0.10466243 -0.016219988 0.092290975 -0.14718089 0.17470402 0.012244591 -0.14292534 0.21152948 0.044983763 0.09287727 0.03950217 0.10036478 -0.07527296 -0.09752253 0.22005159 -0.08578761 0.16116662 -0.04268447 -0.102182195 0.021004302 -0.09732756 -0.04985609 0.14641874 -0.15192904 -0.07253604 0.11286001 0.069731764 0.019152526 -0.1340748 -0.03983339 -0.1443572 -0.023103483 -0.030389484 -0.1480471 0.08853361 -0.01403681 -0.080381446 0.027296303 0.08959424 0.025791852 0.09352861 0.054793246 -0.0077097686 0.07254922 0.073465824 0.052457377 -0.07276336 -0.038631674 0.048213337 0.016291307 0.008770907 -0.06919799 -0.19249706 0.13359666 -0.19573782 -0.087866 -0.23833507 -0.10332089 0.032595377 -0.005322192 -0.15706106 0.010327442 0.041474853 0.015793012 -0.10656881 -0.010697121 0.06386383 0.12750916 0.18575393 -0.06743889 -0.12729305 -0.054165427 0.13254847 0.0314106 0.067491464 -0.06686609 -0.12159842 0.027319036 0.101863876 0.032399453 0.025064297 0.2350989 0.041068908
35 0.050134208 -0.03183283 -0.038593896 0.007938779 0.13958746 -0.102281936 0.12021288 0.19724353 -0.035168253 0.103423566 0.16993292 0.06176452 -0.034955565 -0.19856943 0.03629996 0.03747989 0.08197012 0.121001564 -0.17783432 0.088391826 -0.05955587 0.07724202 -0.08246592 0.005209133 -0.027604135 -0.14788374 -0.025990818 0.0474063 -0.075500935 0.059816033 -0.0755263 0.03889994 0.096470304 0.0657381 -0.048340928 0.03422838 0.05685647 -0.05249017 0.27102435 0.065813206 -0.00911825 -0.031034201 -0.105741784 -0.057078533 -0.033331335 -0.10265631 0.038566846 0.04229467 -0.10654206 0.08238295 0.04940019 -0.09048301 0.14276347 0.002651047 0.14941375 0.0022742224 0.16309652 -0.09433535 -0.101921394 0.14325845 -0.05131341 0.07998447 -0.0025588274 -0.07755015 -0.019322967 -0.08956238 0.048256755 0.18390356 -0.17666475 -0.008248634 0.077061355 0.11953895 0.050839763 -0.11145324 -0.07118975 -0.18852112 -0.05061801 -0.048304323 -0.1746753 0.18726152 -0.032080278 -0.110687695 0.016038885 0.112999834 0.035468925 0.101622276 0.07544794 -0.046390694 0.18379377 0.13130613 0.05916296 -0.10118448 -0.04794487 0.0127738165 -0.009108556 -0.027559133 -0.13592537 -0.16312173 0.11685258 -0.1288309 -0.039070163 -0.19877282 -0.1842658 -0.034736443 0.01972085 -0.12697102 -0.024903065 -0.0019435671 0.04176567 -0.1027252 -0.013723219 0.041237183 0.15118477 0.14869952 -0.078247964 -0.14067852 -0.07581665 0.11946684 0.050051183 0.13900648 -0.03347595 -0.039773513 -0.0060909465 0.08736143 0.020817582 0.045919653 0.1779546 0.061519165
6 0.11717482 -0.18488306 0.030404253 -0.08547735 0.1882925 -0.064243644 0.07056286 0.024112245 0.05516852 -0.013313244 -0.005497403 -0.165504 -0.138117 -0.2623301 0.04218229 -0.05588251 0.08294062 -0.007844898 -0.17169979 0.09361952 0.17686847 0.08629312 0.11803872 0.027801415 -0.11015858 0.014679441 -0.026721762 0.07914805 0.09105284 0.015507908 -0.21289474 -0.011343293 -0.086144984 0.061171006 -0.1339671 0.07494488 0.051882457 0.015265217 0.098615505 0.036484156 -0.015571167 -0.0047837766 -0.090206064 0.030809633 0.06423228 0.107039064 0.120124824 -0.08558231 -0.07019589 -0.00044908928 -0.0033727628 0.059781887 0.09442718 0.037570313 -0.08609363 0.13378659 0.103758946 0.022486469 0.048425816 -0.03783462 0.11227967 -0.10396728 0.13992657 0.0578562 0.04739935 -0.059321243 0.01419397 -0.019174634 -0.09496762 -0.022619827 0.041721813 -0.10767803 -0.14585856 0.0034554796 -0.015675217 -0.1426276 -0.05759366 0.031491067 0.04692569 0.124210715 0.1229578 -0.10775906 0.039427746 0.11222008 0.10897224 0.09493768 0.10341457 -0.050495163 0.1072762 0.02645521 -0.035710327 -0.08549713 0.05407012 -0.06407023 0.07362359 0.012208662 -0.02729903 -0.18778785 -0.1536582 -0.13088325 -0.00736036 0.06537975 -0.04618327 0.011501493 0.076361775 -0.060101986 -0.056885615 -0.14907524 0.054242216 -0.09083386 -0.07402555 0.062108483 0.072428994 -0.013462641 -0.025630651 -0.1336811 0.030193994 0.0761756 0.049361896 -0.032944866 -0.047148082 -0.037434172 -0.055726934 0.21425706 -0.05089731 0.01987612 -0.014107527 0.020102318
29 0.037970435 -0.14515 0.106755406 -0.13984115 0.17583168 -0.087806426 -0.007240759 -0.008953386 0.14403497 -0.04874477 -0.014181917 -0.30289194 -0.22081669 -0.17018056 0.06385793 -0.046789914 0.15841639 -0.09357382 -0.05056045 -0.07691678 0.13550198 0.14194359 0.15748793 0.005743338 -0.12436695 0.1063 0.017887238 0.037214715 0.15677361 0.0008109877 -0.15753214 -0.052668933 -0.23946567 0.1009263 -0.15094905 0.08475144 0.12046233 0.071370065 0.116270766 -0.078139156 -0.028972868 -0.06893835 -0.023867445 -0.0015271273 0.092953585 0.06485038 0.05362195 -0.12775919 -0.07214547 -0.013149821 -0.039386284 0.078788616 0.11438029 0.14928998 -0.10688136 0.10659813 0.10209757 0.1876344 0.026674332 -0.04208217 0.09130627 -0.09708365 0.21524654 -0.012770695 0.1741036 -0.047890976 -0.10796417 -0.122481115 -0.028775936 -0.079675294 0.067940414 -0.13380745 -0.24842611 0.049026344 -0.033707507 -0.20668004 -0.07485093 0.109549135 0.05427163 0.08118154 0.060408868 -0.12628004 0.024447918 0.086870365 0.18191828 0.084008075 0.15541252 -0.0407209 -0.04925558 0.07135599 -0.08897183 -0.102390185 0.03795896 -0.09950046 0.1372319 -0.01889144 0.06971197 -0.14990208 -0.21294048 -0.12569219 -0.04617442 0.11679076 -0.091446094 0.0755498 0.15282772 -0.12210251 -0.17319089 -0.14887545 0.027911961 -0.10979629 0.00080294476 0.014238999 -0.009489382 0.055591784 -0.08168831 -0.05897105 0.039618798 0.044738874 0.07868761 -0.07003408 -0.08567826 -0.09873587 -0.047443416 0.17250413 -0.024622561 -0.040375866 -0.035285868 0.051423345
47 0.050271478 -0.16368407 0.035719365 -0.12505527 0.15826692 -0.07481793 0.024607131 0.005745698 0.11479379 -0.024904687 -0.020161213 -0.19073935 -0.1496254 -0.23368531 -0.00026098368 -0.072362356 0.10378615 0.021928567 -0.13292626 0.07988298 0.13399251 0.11465731 0.11094938 0.04266714 -0.15334843 0.02163266 -0.038620215 0.09901528 0.08734917 0.030076815 -0.22475955 -0.0011925802 -0.09196867 0.05785184 -0.10678734 0.076607086 0.017476533 0.015404522 0.13883992 0.052042548 -0.042057488 0.02294292 -0.13705827 0.02619551 0.07685099 0.09375992 0.13877057 -0.05173491 -0.09856229 0.08419947 -0.016416695 0.07481479 0.12503922 -0.0082490025 0.010254093 0.106327645 0.08820954 0.045364443 0.049113095 0.024568519 0.052971076 -0.038846795 0.10923072 0.04554666 0.08951629 -0.05839062 0.008162477 0.003391466 -0.08034369 -0.022164308 0.016596932 -0.08197235 -0.085230604 -0.020502817 -0.02932801 -0.13828146 -0.022379613 0.06038564 -0.010189884 0.12926248 0.11940094 -0.08720714 -0.009079302 0.09409572 0.11527133 0.0800606 0.11767338 -0.06441058 0.092283845 0.036680836 -0.029122908 -0.09976927 0.030991863 -0.060036052 0.037238922 0.012244031 -0.03165938 -0.18061432 -0.08456441 -0.13053128 -0.04725296 -0.011699941 -0.053977977 0.03270332 0.03589473 -0.034493506 -0.081882976 -0.11047226 0.024248462 -0.060948938 -0.055529397 0.042810015 0.04871061 0.042026628 -0.093858436 -0.11329237 0.0023366292 0.002552622 0.035038803 0.030587578 -0.055504676 -0.0316513 -0.010200059 0.13516204 -0.02364639 -0.011497083 0.017154323 -0.009842216
44 0.055469055 -0.13260166 0.18321005 -0.05689448 0.078656666 -0.06248496 -0.0275767 -0.08411583 0.079339266 -0.0837871 -0.03583864 -0.34668753 -0.18519069 0.006549274 0.032313313 -0.105949655 0.06364264 -0.044784613 0.018477645 -0.09357751 0.1387289 0.0957427 0.14746495 0.06776869 -0.14294705 0.1489214 0.007914511 0.021915697 0.10052673 -0.072737925 -0.1357512 -0.020139853 -0.18552761 0.07099995 -0.21366909 0.06146588 0.1600763 0.11356343 0.12710421 -0.0046604704 -0.056237843 0.011120237 -0.03300813 -0.004898349 0.04195351 0.11796335 0.04804166 -0.13301784 0.007581935 0.0555322 -0.069334194 0.1117101 0.19883624 0.14539152 -0.15696098 0.14011568 0.06720137 0.09798734 0.056665022 -0.027456455 0.25859717 -0.13631125 0.14617035 0.12662439 0.18882437 -0.12252807 -0.07184994 -0.101580255 -0.016033545 -0.067899354 0.103772245 -0.15446712 -0.23777029 -0.06313562 0.041528396 -0.20412585 -0.064566806 0.11121804 -0.02648763 0.19814904 0.1051758 -0.16452447 0.05273045 0.11308656 0.1473139 0.073147796 0.21948199 -0.06849257 -0.005734418 0.1100696 -0.16118576 -0.10763725 -0.05971006 -0.04760189 0.17817101 -0.0074535077 -0.046676885 -0.26893312 -0.23281789 -0.17521425 -0.06452605 0.054370802 -0.0013031731 0.0819801 0.13429378 -0.091589116 -0.10428 -0.21547578 0.113473184 -0.12034005 -0.013441882 0.008793802 0.1144875 0.035242323 -0.04318053 -0.089041926 -0.001203915 0.07706845 0.13814847 -0.03897509 -0.07348799 -0.06439234 -0.01385153 0.25584108 -0.06262493 -0.06340425 -0.08244476 0.030091062
1 0.0480043 0.07431828 0.026740413 0.10207123 0.12404744 -0.0840601 0.09878068 0.19027986 -0.093588226 0.1745351 0.20586474 0.14834283 0.0060787075 -0.02033945 0.2296555 0.15273139 0.12371432 0.06976034 0.006263035 0.08756526 -0.09337402 0.029508682 -0.24836633 -0.08225835 0.027216 -0.1753901 -0.07571015 0.1037485 -0.0028294886 0.12949993 -0.050986774 0.13967974 0.103257485 0.18200348 0.09616915 -0.09635918 -0.0017536319 -0.10298252 0.25553182 0.04536619 -0.1108506 -0.087240696 -0.098284364 -0.041388363 0.005909258 -0.21785522 -0.012331717 0.14311767 -0.17794862 0.20072661 -0.015069549 -0.14051688 0.18204126 0.04479848 0.23735917 -0.03370611 0.064744376 0.11410656 -0.21154146 0.19533096 -0.21866024 0.11019432 0.03196541 -0.15289547 0.013793623 -0.0706432 0.020802448 0.16421895 -0.19548792 -0.018407984 -0.09233791 0.17708838 -0.019225962 -0.11062811 -0.044911373 -0.26825684 -0.14535213 -0.07279674 -0.23106413 0.125871 -0.15073803 -0.14001594 -0.061843786 0.18203306 0.14338946 0.03759714 0.15481594 -0.0714059 0.029400043 0.26753655 0.0709569 -0.30824894 0.10149558 0.007558095 -0.1028854 -0.06508555 0.003038702 -0.008587706 0.16219884 -0.051152438 -0.0760905 -0.29850355 -0.29557234 -0.16315801 -0.057659224 -0.022460913 -0.12237326 0.2486542 0.05062812 -0.13952032 0.045813736 -0.07960967 0.07018425 0.052667473 -0.19657221 -0.05288868 -0.019212352 0.108611144 -0.023075255 0.12787908 -0.05912187 -0.08754722 0.05896289 0.033111345 0.0039264946 0.08677018 0.16946249 0.11741065
18 0.0811959 -0.1464675 0.23437843 -0.14295152 0.14803678 -0.0700219 -0.053322658 -0.08907444 0.118246265 -0.10004863 -0.065503396 -0.42785722 -0.24434444 -0.05065819 0.036221795 -0.071726695 0.09424485 -0.08776697 0.04147989 -0.09481506 0.220751 0.115064315 0.22985174 0.06794826 -0.15613152 0.2262452 0.041008268 -0.0013338593 0.16207494 -0.0780205 -0.13082346 -0.060055353 -0.27822775 0.13772584 -0.20348655 0.02168518 0.14623886 0.031966146 0.13391384 -0.1273974 -0.034709927 -0.053617347 -0.054936208 0.0003346113 0.05929986 0.02551334 0.08639177 -0.15157396 -0.077810645 0.000426052 -0.007039386 0.100921325 0.17622235 0.18449396 -0.14536688 0.136431 0.13252188 0.2486041 -0.023576636 -0.049069636 0.109240115 -0.11951247 0.28441647 0.027805788 0.20703086 -0.10473801 -0.026173824 -0.14173898 0.027047042 -0.025641173 0.03511616 -0.07266634 -0.29644045 0.013270793 -0.06342317 -0.22674748 -0.06104449 0.11671346 -0.028542912 0.14926575 0.07011793 -0.14815062 0.027625868 0.056979455 0.19645837 0.04157881 0.18066357 -0.068326764 -0.15222897 0.18650652 -0.13505886 -0.11723082 -0.045763645 -0.12766153 0.16445188 -0.054527838 0.031210834 -0.1693184 -0.19774991 -0.09686568 -0.0194192 0.10976636 -0.11606303 0.030341912 0.20007332 -0.07716633 -0.22138362 -0.1575066 0.06914707 -0.1387601 0.018215844 -0.0712522 -0.0048151975 0.041913245 -0.11298325 -0.0534389 -0.0017754262 0.032707676 0.16792458 -0.05531846 -0.11157091 -0.13190076 -0.034383133 0.15496822 0.0147604095 -0.0673216 -0.2031136 0.1215129
45 0.11666064 -0.13372807 -0.003929248 -0.017806107 0.1968156 -0.057298925 0.09357184 0.06950225 -0.031273697 0.07776489 0.115185596 -0.049814522 -0.13305753 -0.21484818 0.09317818 -0.053412434 0.094918266 0.06992219 -0.1877588 0.13271175 0.06304832 0.05557596 -0.0021436685 0.011033863 -0.1570931 -0.09433312 -0.05230367 0.17663118 0.013543055 0.09092911 -0.26744768 0.0663393 0.13721085 0.04663787 -0.09267828 0.022909384 0.018838063 -0.016385889 0.114078194 0.10854139 -0.018844334 -0.027119733 -0.11173781 -0.036306918 -0.01710807 -0.040021677 0.06719524 -0.025770431 -0.067054875 0.07192638 0.00788384 -0.083229855 0.1763652 0.0072873184 0.015548615 0.079269424 0.13357046 -0.11478067 0.019923767 0.07151758 0.104920514 0.024781615 0.009306721 0.02557867 -0.0141079435 -0.060046844 0.0139665725 0.0629302 -0.090878755 -0.014542392 0.1362444 -0.026961964 -0.0004183379 -0.03941976 0.026742827 -0.07371133 -0.040175587 0.010457924 -0.017399428 0.10616206 0.0768957 -0.1164912 0.01326514 0.07916135 0.07255458 0.076826476 0.12705542 -0.06803932 0.20416908 0.05681261 -0.027242059 -0.0990797 -2.0603427e-05 0.04341416 0.07095715 0.020855388 -0.14505114 -0.2763743 -0.060186878 -0.20797169 0.0029428136 -0.050505 -0.0020382735 0.05276024 0.020004712 -0.07368862 0.047606222 -0.16893852 0.052858092 -0.049416214 -0.104283325 0.08553198 0.10147096 0.04566753 0.040011115 -0.099897996 0.012927946 0.17064068 0.07247731 0.09654302 -0.06361368 -0.035470936 -0.03318651 0.2590858 -0.06711398 0.0012252111 0.13393676 0.05839545
5 0.03223254 -0.14124192 0.2181873 -0.10216638 0.09941145 -0.06934974 -0.060461923 -0.0835213 0.08276407 -0.092624635 -0.03951914 -0.3943659 -0.23720485 0.021557001 0.051432513 -0.08262114 0.06633699 -0.1340355 0.05542935 -0.14610748 0.18566988 0.12399935 0.18592241 0.04338303 -0.14318015 0.19630928 0.020260248 0.0066306572 0.12929533 -0.10082776 -0.10904496 -0.08600474 -0.26985344 0.13374107 -0.21168502 0.06583829 0.21831577 0.04201321 0.19173346 -0.08424108 -0.06300328 -0.0703549 0.017598212 -0.048522398 0.06368487 0.052083187 0.05269083 -0.1576887 -0.013699103 -0.043865915 -0.0302377 0.05558428 0.1604865 0.2151081 -0.14074403 0.13966696 0.10466215 0.16516283 -0.031285975 -0.015921196 0.19345745 -0.15595268 0.24806261 0.051950485 0.19196644 -0.095140964 -0.063302636 -0.07863135 -0.029698225 -0.07160765 0.096662246 -0.065247126 -0.30062592 -0.044804152 -0.010754207 -0.29309565 -0.103812285 0.08755981 -0.039421823 0.16910557 0.013262442 -0.180971 0.06573455 0.108171195 0.15724707 0.04162288 0.14650062 -0.034768585 -0.13782364 0.14968522 -0.10039098 -0.09365949 -0.059681334 -0.0925358 0.22248866 -0.051182337 -0.01742631 -0.17252855 -0.20171022 -0.07615387 -0.03868068 0.12444462 -0.09539808 0.05304737 0.16498381 -0.09042097 -0.18567781 -0.13473639 0.08939733 -0.18270822 0.0050359354 -0.049686603 0.06047672 0.040691845 -0.07151553 -0.037993144 -0.007129672 0.11814255 0.15043318 -0.10913209 -0.088892266 -0.08068984 -0.073504865 0.18343996 -0.007538075 -0.025660813 -0.10254936 0.10566315
39 -0.028542647 0.0657299 -0.0636911 0.060960583 0.097681835 -0.10392288 0.07703103 0.20129229 -0.08149343 0.15614039 0.24471277 0.20706397 0.015402054 -0.058246072 0.14120269 0.09656009 0.09863135 0.09036404 -0.07745481 0.09243505 -0.11901063 0.018816186 -0.23539084 -0.06767211 -0.020384857 -0.17786357 -0.12351275 0.12732558 0.0067171333 0.1776166 -0.14119658 0.14997193 0.02585149 0.17694713 0.034344494 -0.016815599 0.034258567 -0.10121076 0.2824448 0.055561326 -0.053827245 -0.06973385 -0.078736335 -0.050330613 -0.021827046 -0.15277243 -0.0061345957 0.07567284 -0.1547486 0.11563671 0.02586325 -0.1945692 0.16953225 0.08042733 0.20801096 -0.019631064 0.03407767 0.008786032 -0.19388986 0.22012971 -0.18019159 0.10949095 0.053364053 -0.12255279 -0.018027121 -0.08454728 -0.0022752236 0.18708137 -0.17744209 -0.06545318 -0.031630326 0.13194129 -0.026104677 -0.12596703 -0.08182404 -0.25352722 -0.112763144 -0.08977465 -0.19566458 0.104282305 -0.12373469 -0.14553092 -0.01807183 0.20708066 0.15304844 0.050095074 0.11052793 -0.033216566 0.07457363 0.20260447 0.10621676 -0.23192261 0.07945008 0.03082911 -0.0012632661 -0.094452366 -0.03518549 -0.060579468 0.19073755 -0.09798199 -0.06923627 -0.2656123 -0.21010844 -0.12991743 -0.09585595 -0.045228906 -0.020953229 0.21336888 0.05952897 -0.09320658 0.00947713 -0.009612291 0.059818745 0.07832992 -0.15624873 -0.052452564 -0.0024630427 0.1296951 -0.0026990948 0.09675969 -0.062005933 -0.072802536 0.015056297 0.07589911 -0.024377044 0.040900614 0.17862466 0.08100486
27 0.14827724 -0.16617607 0.09295836 -0.052802168 0.22265798 -0.07784516 0.069964014 0.02338436 0.0857102 0.007190644 0.006257365 -0.21640709 -0.12914315 -0.28341678 0.057112623 -0.06386712 0.14536971 0.038752202 -0.13260123 0.107627064 0.18742496 0.114521734 0.11789269 -0.00792195 -0.16432816 0.011634115 -0.040415317 0.12526222 0.09270609 0.019734913 -0.23565947 0.04249481 -0.047408808 0.040259615 -0.10073529 -0.0013048962 -0.0077173607 0.016580893 0.04330216 0.01999355 -0.053051285 -0.0013575553 -0.1102396 0.014784966 0.049125794 0.0651334 0.10082272 -0.04127688 -0.08815161 0.11569823 -0.03825739 0.08553435 0.1417751 0.026461648 -0.056894314 0.0922731 0.08381652 0.095224775 0.03295938 -0.005971927 0.089372575 -0.06446111 0.10114388 0.04293016 0.10069467 -0.067555256 -0.005784639 -0.060557872 -0.029963462 -0.007403511 -0.007966544 -0.103042394 -0.10710164 0.026951212 0.012273238 -0.089840375 -0.01999397 0.061404396 0.014554697 0.09802802 0.11127372 -0.06796957 -0.023336582 0.055385966 0.13544211 0.07373312 0.15072826 -0.07504913 0.07579521 0.06118376 -0.09535143 -0.12371619 0.045081906 -0.03168203 0.010985374 0.028160535 0.014781241 -0.19381335 -0.15319845 -0.13309959 -0.04898938 -0.019316752 -0.014071335 0.042258877 0.05314422 -0.070158646 -0.070408314 -0.14287397 0.04629972 -0.05365677 -0.049438316 0.025718601 0.06483899 0.038126305 -0.073726274 -0.096106105 0.023319267 0.054818008 0.05724355 0.027398752 -0.075836755 -0.07181289 0.043253306 0.18420629 -0.031233683 -0.02187813 0.029596448 0.007120501
49 0.06724045 -0.1524528 0.13694297 -0.09871367 0.1654593 -0.031066382 -0.012661468 -0.018266853 0.10982568 -0.06289341 -0.031207826 -0.2717362 -0.1751551 -0.14823043 0.0003294206 -0.075209245 0.07712683 -0.061612304 -0.054262556 -0.036395364 0.17532772 0.086257115 0.22561774 0.04596536 -0.13961461 0.16182306 0.0047390363 -0.0016050908 0.061488744 -0.06436856 -0.12432165 -0.089602746 -0.28934768 0.1060039 -0.18349402 0.06254088 0.14271645 0.014303946 0.11913656 -0.10070691 -0.009986454 -0.022094049 -0.047782097 -0.027860932 0.048195172 0.10358101 0.11290597 -0.13404603 -0.060298752 -0.06299928 -0.022268921 0.097977765 0.16512161 0.21117188 -0.12320695 0.13895413 0.14317295 0.18015905 0.00030346308 -0.044369787 0.16826119 -0.18831839 0.28866044 0.099316135 0.18771414 -0.09207477 -0.025339052 -0.1116064 -0.024935024 -0.061879996 0.051200576 -0.1416295 -0.2964155 0.008988281 -0.06514009 -0.26254892 -0.021818595 0.13199997 7.959406e-05 0.14836492 0.11128457 -0.095348716 0.054747898 0.06289724 0.18744466 0.0731669 0.1841955 -0.002612173 -0.106707826 0.18081747 -0.12927859 -0.096141554 -0.06323655 -0.14803779 0.25287303 -0.07964608 0.006765355 -0.18357576 -0.23932287 -0.09996605 -0.03133663 0.16239233 -0.02138185 0.088827826 0.23051997 -0.13038898 -0.22402129 -0.19602181 0.10005928 -0.18291813 -0.00028049987 -0.041780926 0.01796094 0.07333797 -0.076439485 -0.034193806 -0.0024887498 0.07767015 0.21315649 -0.10448316 -0.14441006 -0.14096388 -0.024472797 0.24037385 -0.005237725 -0.114504054 -0.1711945 0.07854388
28 0.13050768 -0.023099693 0.14913446 0.07997826 0.22194688 -0.101105444 0.11777423 0.18344802 -0.107249 0.16057667 0.17656358 0.026787227 -0.09791385 -0.029608682 0.35950938 0.15371996 0.12303981 0.043759767 0.03754333 0.06503681 0.027731074 0.05383957 -0.22951238 -0.13791929 -0.0043052523 -0.15854192 -0.084506415 0.163259 0.09497566 0.14193255 -0.13508473 0.13562709 0.10177016 0.21993464 0.115188 -0.16186535 -0.031206649 -0.16577406 0.19985579 -0.008900473 -0.10546021 -0.13359265 -0.098452665 -0.0395959 0.020455245 -0.25636083 0.0006330228 0.0945742 -0.15265639 0.11954848 -0.028999215 -0.190497 0.15024897 0.07920132 0.22829613 -0.018446568 0.0402619 0.16385017 -0.2386014 0.17074952 -0.21072757 0.08230168 0.072196 -0.12963532 -0.04367231 -0.015974402 0.027288176 0.13195075 -0.13699792 -0.013367105 -0.1596342 0.21757884 -0.049912192 -0.049533106 -0.0239977 -0.20719784 -0.17908481 -0.08450204 -0.20211495 0.024687013 -0.19648243 -0.09098547 -0.04088144 0.13697734 0.16115282 -0.033018705 0.11259877 -0.07543966 -0.017602889 0.29512027 0.07228035 -0.3241464 0.1455319 0.03164516 -0.12980014 -0.081296876 0.037461095 0.0915505 0.10990316 0.033814877 0.012829044 -0.21377552 -0.2889154 -0.19664867 -0.07437623 0.066647016 -0.14978589 0.2821236 0.061221544 -0.14161216 0.048019573 -0.11467984 0.024950834 0.007180458 -0.1666858 0.03239212 0.028310688 0.12907654 -0.0062068617 0.1022892 -0.09406109 -0.05806182 0.03937075 0.07917336 -8.586873e-05 0.09789485 0.14613366 0.14763641
15 0.057095658 0.06145376 -0.00014472622 0.03680995 0.09918933 -0.12989973 0.062241 0.2266504 0.0065824767 0.1678036 0.24440888 0.08022354 0.055719517 -0.107857116 0.07535901 0.10530548 0.1762533 0.079033084 -0.07063278 0.11813228 -0.053870704 0.0042379336 -0.15704496 -0.060692172 -0.024215577 -0.123110674 -0.079507425 0.07250494 0.0022690033 0.14257903 -0.0903466 0.13483943 0.05571905 0.0948165 0.011161067 -0.018278837 -0.007319166 -0.11815669 0.18940338 0.021460041 -0.097490266 -0.039888564 -0.10432011 -0.06453548 -0.020184383 -0.19232124 -0.030562146 0.13420442 -0.23092242 0.25659075 0.07387515 -0.09753911 0.22444515 -0.0015731055 0.17061263 -0.006526208 0.12567641 0.08100349 -0.17856307 0.20973065 -0.27424607 0.17009443 -0.012188317 -0.2202118 0.042217102 -0.13752654 0.037340015 0.14844386 -0.22418967 0.0067453147 -0.06916258 0.15857147 -0.01475586 -0.1262968 -0.09262126 -0.30424583 -0.024124801 -0.06326513 -0.21695276 0.15393269 -0.09898905 -0.14698534 -0.0704672 0.14225203 0.1546161 0.07954078 0.12731436 -0.07501861 0.0043334523 0.22977725 0.052433487 -0.1655383 0.04877096 0.0052118977 -0.095124446 -0.004645672 -0.00456965 -0.11199438 0.24411806 -0.105266854 -0.12394388 -0.3373584 -0.2476305 -0.15632577 0.0019081236 -0.09504161 -0.10139137 0.20195244 0.0038719738 -0.08609243 0.022320595 -0.0024623657 0.056532476 0.12020728 -0.18551779 -0.10474432 -0.074866526 0.052829914 -0.060726546 0.1382488 -0.0010178053 -0.17460704 0.06378019 -0.10694839 0.06673981 0.08485007 0.1654952 0.06929363
11 0.08602159 -0.033826742 0.086405426 0.017566402 0.18455113 -0.091687605 0.088735856 0.107354075 -0.04284904 0.14113414 0.12669405 -0.00034021508 -0.07736589 -0.09066925 0.25057003 0.105153814 0.17012127 0.0025531568 0.021717077 0.13142778 0.072092466 0.055258688 -0.17680243 -0.11382367 -0.048350863 -0.13513477 -0.12587808 0.17261367 0.13938324 0.1502704 -0.18162033 0.14209035 0.045174196 0.15703529 0.08135155 -0.07239425 -0.042285543 -0.12609799 0.10578815 0.03850963 -0.1237233 -0.08726232 -0.070490226 -0.002811961 0.07554872 -0.13011302 0.020480342 0.08771004 -0.1713313 0.14846955 -0.007106181 -0.08057307 0.1277866 -0.018374639 0.13959725 0.047117226 0.020473082 0.14727734 -0.11869692 0.11493717 -0.18512486 0.050640583 0.04921365 -0.12967281 0.007823399 -0.0435326 0.0128626935 0.08931411 -0.1822008 -0.01675193 -0.16053338 0.1100809 -0.078178324 -0.02689117 -0.01769224 -0.2299262 -0.12545301 -0.06075203 -0.0940311 0.047834657 -0.10886133 -0.10650253 -0.08204434 0.1602521 0.18071283 0.021160072 0.11077012 -0.08059105 0.0019684215 0.17327574 0.060524326 -0.25741565 0.19097735 0.001846762 -0.110662475 -0.0028228674 0.07525473 0.028038695 0.08148611 0.0065942556 -0.056760572 -0.18720138 -0.25052503 -0.20453744 -0.09327781 0.082511604 -0.13123001 0.24862434 0.009508341 -0.1215605 0.009574668 -0.0492579 0.005104211 -0.056877658 -0.1666485 -0.05366449 0.06274857 0.08450214 -0.123133324 0.0396889 -0.03311379 -0.068504006 0.00817967 0.01711824 -0.03169676 0.13736522 0.14440204 0.0808276
16 0.06852013 -0.17207542 0.21040754 -0.09327683 0.17916872 -0.08066891 -0.0040927995 0.009399722 0.12837641 -0.04218226 -0.03353585 -0.3605393 -0.18528876 -0.06862558 0.14452486 -0.03959189 0.1284933 -0.09717319 0.022106262 -0.08507798 0.19056164 0.13172735 0.15354706 -0.01854784 -0.12107581 0.1349617 0.0026403714 0.013270847 0.1313045 -0.02396837 -0.14982331 -0.08715712 -0.3557786 0.12679861 -0.23056827 0.08471637 0.16388166 0.053262904 0.13348134 -0.11463818 -0.081610575 -0.010341188 -0.03493397 -0.0074207447 0.11621813 0.13359565 0.06717699 -0.13580328 -0.027545879 -0.012233913 -0.064723365 0.15185289 0.16591418 0.19984828 -0.13508396 0.15228969 0.09047166 0.23098686 0.021290975 -0.018253345 0.12239303 -0.16101901 0.23123653 0.061970476 0.18186006 -0.07947363 -0.07959344 -0.09521345 -0.058830634 -0.06618702 -0.0008756886 -0.10527325 -0.2852848 -0.01590429 -0.017228415 -0.2903617 -0.057238966 0.10699366 -0.021965124 0.14231122 0.06312903 -0.09749138 0.05471404 0.11611885 0.12804934 0.026353762 0.1483505 -0.006881884 -0.15208232 0.10613994 -0.07989903 -0.07996472 -0.023849636 -0.12062576 0.13471305 -0.023318376 0.05354746 -0.09201016 -0.20957167 -0.06332044 -0.050690267 0.11167295 -0.04845182 0.059214413 0.18467899 -0.07369571 -0.23899885 -0.09714947 0.06090373 -0.1677283 0.05021628 -0.024669785 0.026876615 0.06228735 -0.1007563 -0.026540617 -0.0027830706 -0.008474337 0.12055215 -0.123834625 -0.09942593 -0.10211977 -0.006090098 0.14266509 0.014538456 -0.053951275 -0.12572552 0.028233461
31 0.13374849 -0.023006963 0.17348896 0.053299982 0.14801493 -0.09782713 0.083734356 0.11071093 -0.105219 0.103376314 0.14297414 0.024593135 -0.076885454 0.019902332 0.26432368 0.110633545 0.051191296 0.05236857 0.06274854 0.037381057 0.07901952 0.017480932 -0.20319593 -0.11264123 0.02083925 -0.099460304 -0.12951086 0.108426794 0.1257551 0.08918191 -0.09141048 0.15499973 0.09342264 0.23114048 0.119828075 -0.14142057 -0.019759929 -0.17570904 0.20443049 0.035277672 -0.11862617 -0.05500524 -0.13468863 -0.03333562 0.045309994 -0.24330221 0.051218756 0.051563 -0.19074444 0.0999474 0.009294771 -0.19479443 0.12511563 0.048838556 0.2764337 0.029047588 0.01398853 0.11943548 -0.26845688 0.15738562 -0.1804181 0.050704636 0.08540673 -0.0551667 -0.076838404 -0.01637243 0.10736295 0.1516282 -0.1652458 -0.01942831 -0.22827761 0.21285576 -0.06826809 -0.06839228 -0.03368613 -0.2440906 -0.15975633 -0.08311057 -0.22975184 0.06219478 -0.19597708 -0.09944304 -0.0022604403 0.14938901 0.1821467 -0.01990651 0.10033952 -0.11001593 0.009593541 0.33541867 0.05886914 -0.3229581 0.12780686 0.008374629 -0.083510235 -0.096164964 0.014082455 0.066149816 0.1559362 0.066224396 -0.024934886 -0.25127894 -0.3542402 -0.2805606 -0.10502882 0.11086923 -0.19224901 0.298405 0.08169415 -0.19750407 0.05488824 -0.11674116 0.063690215 -0.032891806 -0.19043635 -0.037527233 0.043995358 0.11649181 -0.046565145 0.12537834 -0.061176848 -0.03522796 0.0094900625 0.08048527 0.0053383047 0.13632528 0.11644284 0.13725741
20 0.09852239 -0.08891868 -0.05443825 -0.0068407394 0.15600522 -0.06744422 0.08899244 0.13672607 0.0013000878 0.09025652 0.12809667 0.06715789 -0.029371709 -0.24149108 0.04495625 -0.01644369 0.1372278 0.07845891 -0.21083702 0.16635923 0.012639258 0.05017137 -0.050213624 -0.036309473 -0.11322235 -0.121705554 -0.08769881 0.12465587 0.019284789 0.11108384 -0.22050264 0.1085073 0.020634368 0.07619943 -0.09665461 0.064177826 0.04630085 -0.005904149 0.15460138 0.11645787 -0.056339502 -0.016610272 -0.07883991 -0.025926469 0.03181679 -0.0003744134 0.056288835 -0.016888991 -0.10487842 0.08634109 0.003411467 -0.0711982 0.12684357 0.030199414 0.0040744776 0.0739281 0.09416844 -0.09053741 -0.0063252556 0.069735505 0.045522943 0.006326423 0.008871142 -0.0050958293 0.011026336 -0.07967536 -0.015752703 0.08196448 -0.15184574 -0.03386348 0.1121399 -0.047725268 -0.027922925 -0.067366935 5.302725e-05 -0.14332634 -0.05202305 -0.016960006 -0.030890886 0.12547436 0.05344238 -0.14191668 0.0339823 0.11946215 0.07260541 0.11536047 0.06745399 -0.036332674 0.19536102 0.015516115 0.0054278737 -0.07368067 0.0057567954 0.02042365 0.04482372 0.034032796 -0.05567426 -0.20883681 -0.0052110944 -0.17094336 -0.038412865 -0.08660417 -0.03841734 0.036881432 0.0021189677 -0.11991303 0.03338465 -0.11482383 0.030531699 -0.05329766 -0.076164655 0.105215415 0.12355442 0.0775025 -0.01511786 -0.13278913 -0.0185674 0.104513235 0.027037274 0.037803914 -0.004530364 -0.05318051 -0.020002076 0.1806144 -0.051100813 0.022689711 0.14559062 -0.008727622
42 -0.035843756 -0.08836532 0.12955956 -0.12101606 0.094223075 -0.09346243 -0.04003544 -0.045364097 0.1538094 -0.07935209 -0.05331498 -0.3829517 -0.18074487 -0.08714655 -0.017268948 -0.06372503 0.14083396 -0.11488657 -0.010445468 -0.06838994 0.1477659 0.12481938 0.21408492 0.03764371 -0.17840539 0.15349518 0.03367941 0.04110391 0.13102718 -0.04156013 -0.13888244 -0.093446225 -0.20275138 0.05584175 -0.110899016 0.046161637 0.08615317 0.012756004 0.052546177 -0.067616545 -0.050981194 -0.063926116 0.007959979 0.003720174 0.052736763 0.068982944 0.02835688 -0.025826188 -0.066991456 0.067928195 -0.009050894 0.10917835 0.1695542 0.10169941 -0.12409936 0.12614875 0.14451483 0.17853771 0.020819545 0.01954265 -0.00031685593 -0.072432175 0.19180156 -0.0729882 0.22157589 -0.1008814 -0.101707414 -0.12290281 -0.052049685 -0.04336703 0.077338174 -0.111549005 -0.29608908 0.004296717 -0.026230128 -0.27893928 -0.013944785 0.07573477 0.060451012 0.11976359 0.088363536 -0.15726608 -0.004719432 0.11891025 0.19765598 0.12501223 0.2085457 -0.004296354 -0.060356297 0.084310934 -0.076200224 -0.104334384 0.03147336 -0.06984309 0.15750462 0.014011218 0.050839256 -0.21000405 -0.1820044 -0.12192534 -0.118353605 0.08268573 -0.041704573 0.053119175 0.17067705 -0.11360565 -0.119223505 -0.15007691 -0.0035449327 -0.103184305 0.012461888 -0.004330868 -0.026998831 0.062363546 -0.08531006 -0.072898105 0.045334224 0.047077343 0.061034683 -0.108513765 -0.08436082 -0.15477821 -0.005693289 0.1110792 0.0028661024 -0.046810366 -0.07532563 0.065819025
48 0.13003007 -0.107575856 0.0019227703 0.011484002 0.17988092 -0.08312757 0.11578862 0.12114031 -0.0055356002 0.062719256 0.09614761 -0.0139457425 -0.04694397 -0.28661397 0.04941553 -0.0023190344 0.12726521 0.08683225 -0.19236663 0.14422816 0.07421413 0.06513436 0.018054092 -0.0714255 -0.116245836 -0.13399489 -0.073905855 0.13297038 0.0055564004 0.059861675 -0.18459514 0.0655984 0.123180725 0.040944874 -0.018682683 -0.0059436825 -0.021144291 -0.07631394 0.08643539 0.11176673 -0.05329025 -0.03567198 -0.0729359 -0.039769184 -0.0045400877 -0.05227534 0.0564557 0.061625358 -0.1199731 0.12867402 0.020087052 -0.09680192 0.12750927 -0.009922176 0.06270769 0.0720827 0.13431443 -0.09595238 -0.050049458 0.09653667 -0.02044163 0.031497363 -0.025033206 -0.048391297 -0.010662855 -0.05118565 0.048785828 0.072744966 -0.13634343 0.008355871 0.041744668 0.0009903375 -0.0068915873 -0.04899717 0.020645168 -0.11546992 -0.0026354757 -0.03319742 -0.028799133 0.10042353 0.040986076 -0.06965539 0.0035694623 0.074423015 0.06845549 0.13048944 0.0851572 -0.029275915 0.20648079 0.053095203 -0.0012143151 -0.108320296 0.016090581 0.036695905 0.018605968 0.044624697 -0.04224722 -0.19593735 -0.02470522 -0.12318076 -0.06689192 -0.11123314 -0.033224884 0.005920909 0.04376059 -0.13253456 0.020269655 -0.13835897 0.019479146 -0.10906401 -0.05921792 0.06350166 0.1346909 0.091292426 0.009068591 -0.14348805 0.004013939 0.12690052 0.028321702 0.026297396 -0.043863893 -0.051515132 0.0103684245 0.17744543 -0.018938389 0.039074127 0.13772 0.016616242
23 -0.0352518 0.069959834 -0.06562648 0.062270075 0.081697255 -0.045439973 0.0326918 0.1342714 -0.050445814 0.13060424 0.17159392 0.12156064 0.019100698 -0.0685663 0.058522824 0.044523574 0.12394514 0.035259824 -0.07246107 0.14780098 -0.070601724 0.0023580634 -0.09882351 -0.087625295 -0.11564482 -0.15046354 -0.1396925 0.14666419 -0.016980566 0.13066123 -0.17223784 0.10979485 0.040180974 0.09029486 6.4739856e-05 0.0136906635 0.033733457 -0.104533605 0.13564992 0.088575944 -0.09009429 -0.0653693 -0.00862837 -0.092328794 -0.022684257 -0.09296515 -0.005025394 0.09580069 -0.13669017 0.14462483 0.050751723 -0.1310682 0.20487888 0.05654654 0.08317299 0.06390237 0.12353349 -0.04913884 -0.08112977 0.16551185 -0.104128405 0.04058958 0.0171755 -0.12287303 0.047150873 -0.09137525 0.013958676 0.12876588 -0.19533397 -0.021288846 0.07298928 0.03605297 -0.037529517 -0.08666416 -0.02296847 -0.25301015 -0.030571194 -0.070601 -0.08577362 0.11942246 -0.016836807 -0.13719898 -0.044958565 0.15643321 0.10042811 0.100243114 0.10600217 0.034636363 0.11375529 0.073098145 0.06894685 -0.13367262 0.040141005 0.036773942 0.07649723 0.002916458 -0.06129798 -0.16881496 0.08843764 -0.13857663 -0.11132563 -0.18743743 -0.05305504 -0.029474579 -0.00086403266 -0.10706532 0.054506768 0.027391436 -0.0001507564 -0.1023412 -0.03809803 0.044467814 0.062859714 0.074185796 -0.044613056 -0.06962852 0.019431021 0.15831235 3.5921512e-05 0.036454655 -0.04407778 -0.10652622 0.026471743 0.106835134 -0.021888116 0.029762624 0.19889596 0.053236216
2 0.071817525 0.032176364 0.0829118 0.10615657 0.11024041 -0.097657055 0.101623766 0.14208265 -0.13774563 0.13714764 0.16912319 0.122844025 -0.045746814 0.0462649 0.29121634 0.18251054 0.06909522 0.04408271 0.044521637 0.05524682 -0.01254417 0.022814302 -0.24701893 -0.12903024 0.019183876 -0.19309938 -0.12679087 0.13640995 0.050059717 0.1390673 -0.10426779 0.11658738 0.11501947 0.21914154 0.13460569 -0.12521142 -0.010024341 -0.15785669 0.23550066 0.06641182 -0.14048763 -0.09573083 -0.09176339 -0.016914623 0.037092358 -0.21975982 0.01227864 0.14394204 -0.18015881 0.1504333 -0.022279605 -0.18865524 0.16024072 0.042057626 0.25421605 0.04165916 0.03441655 0.10851445 -0.23018502 0.20358486 -0.2338093 0.09251536 0.03528641 -0.11571891 -0.04921499 -0.027746286 0.057460744 0.16649725 -0.22447366 -0.034860168 -0.17220525 0.17680918 -0.0791262 -0.12751074 -0.02555071 -0.28601533 -0.16811953 -0.099086106 -0.20301625 0.078577936 -0.16003545 -0.10894486 -0.020415718 0.22147134 0.14978637 0.019889385 0.13579097 -0.06493561 0.0070405435 0.28180176 0.09253273 -0.35096046 0.15777434 0.005530735 -0.081894554 -0.07386037 0.03247224 0.06250724 0.13109526 0.009837817 -0.06663097 -0.2641199 -0.32722023 -0.24364434 -0.077621266 0.0684116 -0.14698343 0.30575687 0.05314647 -0.2432501 0.05752907 -0.10971175 0.05992251 -0.027538242 -0.1665705 -0.061310746 0.046045333 0.1335089 -0.05876396 0.060467273 -0.09038687 -0.056341417 0.012251497 0.10409372 -0.017266877 0.14877538 0.14275166 0.13171145
17 0.12664853 -0.11908776 0.092837185 -0.0063414713 0.2351817 -0.11855133 0.12300657 0.14752102 -0.059355754 0.12956905 0.124317475 0.0343806 -0.092694506 -0.20539345 0.28111073 0.11718946 0.1213938 0.031101316 -0.03817635 0.12619771 0.12793285 0.045703243 -0.12608814 -0.16714334 0.0054803393 -0.15935631 -0.14308102 0.16912936 0.15224408 0.13355067 -0.1621606 0.09701697 0.1601129 0.2179842 0.20075083 -0.108455926 -0.11595982 -0.285267 0.12940133 0.08146716 -0.09119766 -0.0860702 -0.1218573 -0.025389252 0.058381096 -0.21833496 0.071366854 0.14376312 -0.2537334 0.09939403 0.058860518 -0.24990745 0.10798459 -0.022396049 0.33382928 0.05416266 0.06525772 0.07871673 -0.2414824 0.19709225 -0.32746133 0.06816763 0.06881279 -0.15990125 -0.13907544 0.03686126 0.12887844 0.17886865 -0.2487455 0.0047021955 -0.27024055 0.18923308 -0.025827155 -0.01893476 -0.030125411 -0.2556832 -0.122668095 -0.12427156 -0.13559802 -0.0122743985 -0.17572427 -0.06076884 -0.061566826 0.19444776 0.20067091 0.048214246 0.08441704 -0.05777085 0.12896962 0.27031234 0.1486927 -0.34520566 0.25633928 0.017216863 -0.12297678 -0.055464376 0.072008945 0.09432379 0.16495839 0.09187352 -0.02577211 -0.24253249 -0.29892492 -0.3127283 -0.10968919 0.094235316 -0.14713924 0.30392975 0.021369975 -0.19364 0.0069288663 -0.054426204 0.020485168 -0.062657736 -0.15981457 -0.057712335 0.113474794 0.11927839 -0.14055073 0.03986642 -0.08210923 -0.024674794 -0.019719196 0.07674119 -0.016852532 0.17798212 0.17054595 0.10308481
7 -0.02497043 -0.09737005 0.1776227 -0.11463013 0.07423632 -0.06148908 -0.043886393 -0.093248315 0.13216989 -0.15326545 -0.13167973 -0.37975547 -0.18850681 -0.03946443 0.0085542 -0.033138398 0.05903859 -0.15732118 0.0350313 -0.17464244 0.18408082 0.08870534 0.27731767 -0.016406057 -0.111476906 0.18062586 0.05502311 -0.041486077 0.14142275 -0.11447101 -0.03453958 -0.17721263 -0.32758674 0.16054845 -0.0925382 0.0658304 0.13409704 0.0016505652 0.08669926 -0.10156165 -0.05808193 -0.0875987 0.0442764 0.009602071 0.08891646 0.10216305 0.06784418 -0.08220037 -0.075463526 -0.038533144 -0.052704964 0.06081552 0.11416272 0.2290849 -0.12480906 0.15503663 0.122862324 0.2420963 -0.045482162 -0.043894324 0.04004909 -0.18930748 0.3113395 -0.009913198 0.21396974 -0.06361465 -0.09537264 -0.18315107 -0.04680456 -0.06615537 0.022839822 -0.1580608 -0.4311324 0.015541655 -0.011345306 -0.36311916 -0.059906412 0.07762184 0.07988428 0.116155736 0.08259807 -0.14502579 0.09306451 0.17009023 0.23791195 0.12848149 0.22584452 0.031355742 -0.078672715 0.13012719 -0.076744705 -0.18401352 0.04879011 -0.11073812 0.26437604 -0.03979611 0.11420466 -0.1541096 -0.31379244 -0.075502515 -0.100588 0.18745267 -0.07192393 0.014628673 0.25092673 -0.14759731 -0.22339739 -0.18213542 0.044772606 -0.24988577 0.035935212 -0.057032563 0.008355708 0.024185788 -0.05698931 -0.065688476 0.11539239 0.07081062 0.14129014 -0.24945101 -0.13520531 -0.121027805 -0.054644983 0.28523836 -0.004967415 -0.05498004 -0.19708219 0.11000467
26 0.027907858 -0.12967074 0.1969004 -0.06417638 0.09475026 -0.06182183 -0.03523167 -0.06844002 0.066558875 -0.066309296 -0.0045872903 -0.3292923 -0.18384428 0.009977844 0.07397957 -0.044507254 0.047993056 -0.09519619 0.035048872 -0.14448836 0.19693385 0.07575839 0.18093513 0.020013124 -0.112995215 0.15416999 -0.0077434517 0.014478406 0.11472749 -0.048264675 -0.121564984 -0.07971771 -0.2876432 0.12656885 -0.17125717 0.029870803 0.16196749 0.037125032 0.13360955 -0.11393961 -0.035882108 -0.04779855 -0.012095443 -0.026583338 0.0391824 0.07927093 0.03456027 -0.1154659 -0.029746778 -0.02973209 -0.03764588 0.068615906 0.18409815 0.24347359 -0.1532698 0.16841806 0.076868124 0.20823364 -0.027352557 0.003648756 0.15801588 -0.14800072 0.26024976 0.07122974 0.18603024 -0.09096624 -0.074321106 -0.12840095 0.0028088028 -0.09909779 0.013684925 -0.14507589 -0.34666556 -0.04186988 -0.025650341 -0.27365187 -0.034185685 0.12597753 0.009456588 0.12149114 0.060311165 -0.10351061 0.069102034 0.09601717 0.2125214 0.05600935 0.19668026 -0.026067665 -0.18622018 0.19287702 -0.13697806 -0.12469249 -0.034990057 -0.11854743 0.24296156 -0.07871072 0.0446807 -0.16192251 -0.24543439 -0.09561993 -0.06715864 0.15472583 -0.027244268 0.051636253 0.20862687 -0.09377874 -0.22282963 -0.14032759 0.11443964 -0.21412821 0.03734021 -0.060514253 0.0145687945 0.034208413 -0.055271327 -0.024664104 0.011247068 0.105283 0.17674592 -0.15867639 -0.1500264 -0.13382015 -0.04164763 0.23983516 -0.028283715 -0.06478693 -0.18607947 0.079883896
46 0.17742065 -0.18675868 0.002190342 -0.048196454 0.15532264 -0.052571777 0.09389071 0.058473874 0.0032354365 0.028122168 0.017924054 -0.011875446 -0.06320221 -0.28617764 0.028195048 -0.042182796 0.07239532 0.047052406 -0.19316329 0.19594279 0.16444705 0.01685034 0.06499929 -0.065621495 -0.14545093 -0.098002724 -0.10749257 0.14736852 0.052393194 0.068037674 -0.25233683 0.032889616 0.10760912 0.037706997 -0.064858496 0.086047746 -0.015782677 -0.088198505 0.02492605 0.17981361 -0.08418582 0.053706862 -0.114716105 0.011855134 0.08476621 0.049772687 0.14982224 -0.004645869 -0.1343414 0.062623754 0.038403474 -0.08056852 0.09270367 -0.0837414 0.08033929 0.15060899 0.13616468 -0.17900087 0.027041407 0.05496081 0.00052791025 -0.04002016 -0.040752314 0.04734007 -0.108386375 -0.014272734 0.11909332 0.119569235 -0.25968283 0.042517982 0.0034316906 -0.032787353 0.0030613027 -0.053181883 0.053244047 -0.17754722 -0.023058264 -0.09021277 0.008909631 0.12483504 0.07644816 -0.10754282 0.035959445 0.17801757 0.04551516 0.13405928 0.06916491 -0.04647373 0.34626716 -0.011030114 0.051097583 -0.12131941 0.111225724 0.048612747 0.0030577837 0.10093717 -0.07693665 -0.19698882 0.017684013 -0.10307468 -0.056988608 -0.124429815 -0.053193927 -0.086013 -0.04034741 -0.022962332 0.04292583 -0.11074746 -0.017157666 -0.15417434 -0.12872657 0.13199042 0.14907469 -0.020238511 0.044469297 -0.20583127 0.09879897 0.10307694 -0.07945875 0.024640756 0.014325703 0.0107129365 -0.038173866 0.22907767 -0.05831134 0.107350536 0.17735577 -0.026377274
25 -0.019348819 0.0541757 -0.011959805 0.029315574 0.08275909 -0.10862069 0.044042114 0.1625766 -0.046360146 0.10867528 0.19920912 0.12138796 -0.026653552 -0.03523135 0.10879026 0.08813584 0.09082081 0.10638736 -0.042851698 0.08201406 -0.09909106 0.04410559 -0.20805237 -0.038172208 -0.024702616 -0.14003241 -0.13519827 0.10312441 0.040324394 0.13537523 -0.11706501 0.16990131 0.019853234 0.16471083 0.04014265 -0.042704348 0.042557392 -0.07899127 0.30975237 0.05969336 -0.05976019 -0.05151289 -0.098945685 -0.054259717 -0.014312375 -0.17190295 0.022408694 0.06827722 -0.16561028 0.1520581 0.03399254 -0.15496124 0.18380159 0.059818495 0.22561967 0.009069828 0.061423626 0.039786767 -0.20041786 0.20135796 -0.16718715 0.10840507 0.060394153 -0.111929305 0.02926615 -0.07837334 0.04569933 0.17208603 -0.16001049 -0.062363796 -0.04676692 0.13918722 -0.02388881 -0.12640025 -0.09888372 -0.24033046 -0.1045213 -0.05236713 -0.24291834 0.13349226 -0.11847863 -0.12993042 -0.04059171 0.14329916 0.132268 0.05300465 0.09097288 -0.047699977 0.044919487 0.2411044 0.06952268 -0.22084548 0.034617398 -0.0038615537 -0.029529702 -0.09984953 -0.042497 -0.038315956 0.20147596 -0.0721248 -0.0739037 -0.27049607 -0.24805994 -0.1266271 -0.06183192 -0.020161463 -0.06253002 0.19183302 0.052844845 -0.09289994 0.049229268 -0.04411882 0.062802896 0.08885385 -0.18490309 -0.06305768 -0.05323965 0.05884991 0.00014701844 0.15093158 -0.049837384 -0.06890048 0.025399048 0.011356512 0.004685661 0.04207846 0.14170463 0.06732764
14 -0.05796819 -0.13864756 0.23123519 -0.06342485 0.06669522 -0.08568877 -0.07119671 -0.07713971 0.1089237 -0.117347784 -0.06913465 -0.46197617 -0.2217193 0.08183777 0.0824732 -0.050333347 0.05190097 -0.15144202 0.099089906 -0.20667684 0.19678336 0.14518236 0.24147184 0.048262548 -0.13750136 0.1897542 0.007824068 -0.008357181 0.11017673 -0.1109454 -0.09130593 -0.15635101 -0.3469857 0.1055059 -0.18171173 0.036608875 0.20699786 0.04349561 0.18693376 -0.10650827 -0.043648157 -0.0548114 0.05378207 -0.03993171 0.027597299 0.14477444 0.020338403 -0.05610277 0.032052666 -0.009673841 -0.06845361 0.1108077 0.22326618 0.2574386 -0.15578966 0.17499512 0.094567984 0.21356809 -0.00937965 0.045452934 0.16320114 -0.1763536 0.24053892 0.047447138 0.25274584 -0.108035795 -0.11458424 -0.089255385 -0.049175028 -0.12955484 0.039801773 -0.14133103 -0.36616245 -0.105782084 -0.014972767 -0.35695553 -0.06325372 0.11658302 -0.047564726 0.18139817 0.055755347 -0.11302859 0.036813844 0.14636102 0.16881247 0.09032224 0.19915387 0.044654716 -0.22272652 0.19081831 -0.110884115 -0.12246257 -0.0418693 -0.1214247 0.23407978 -0.09107778 0.034685526 -0.13463987 -0.26054454 -0.078069255 -0.11805389 0.14075585 -0.023359155 0.05691857 0.24528073 -0.10641975 -0.2335841 -0.0966593 0.12832388 -0.27436048 0.08153344 -0.089518294 0.05885897 0.060106378 -0.08704565 -0.02757264 -0.017590407 0.10318708 0.1835003 -0.21039002 -0.17453292 -0.13911816 -0.024879722 0.2076381 -0.030284945 -0.06533855 -0.16326666 0.04854143
21 0.11213973 -0.051375087 0.120887816 0.05005293 0.15149844 -0.08430693 0.10187586 0.07681308 -0.11785209 0.12738441 0.1038445 0.06647728 -0.058908403 -0.074635305 0.24686801 0.08039257 0.06350704 0.09444304 0.0018328611 0.14370021 0.096268676 0.017839434 -0.1643834 -0.1284772 -0.026646363 -0.15667373 -0.17162669 0.18043096 0.10953292 0.104348674 -0.18484111 0.16273348 0.14383303 0.24767543 0.147704 -0.13552986 -0.09628848 -0.23118074 0.15864712 0.11548179 -0.145927 -0.043256383 -0.15366143 -0.028632142 0.035917133 -0.18438905 0.08622397 0.11032374 -0.22642659 0.16286609 0.0030037882 -0.21783085 0.14653197 -0.023709202 0.29580227 0.06900645 -0.020445472 0.06627163 -0.20634682 0.18269044 -0.18320404 0.06318634 0.04587109 -0.04526291 -0.09417649 -0.0004770093 0.12360438 0.14100403 -0.1662256 -0.014838121 -0.24511833 0.15206107 -0.04544451 -0.060044605 0.002007607 -0.20089684 -0.118847154 -0.07619785 -0.18543562 0.040657133 -0.12596832 -0.0507527 -0.024587933 0.15113765 0.1867049 -0.006720776 0.1179495 -0.093688674 0.09409057 0.26780748 0.07257652 -0.34825903 0.16514668 0.03216609 -0.072028354 -0.058647152 0.0051960913 0.037695073 0.122506514 0.042314403 -0.021839375 -0.25296307 -0.23164444 -0.25419813 -0.14003208 0.1418146 -0.12305107 0.2685793 0.06906937 -0.17151652 4.907333e-05 -0.080120526 0.07328429 -0.07638355 -0.1497956 -0.044783793 0.085191496 0.09657257 -0.083365515 0.0722653 -0.07997876 0.01235071 0.007763854 0.11680317 -0.028369706 0.12948424 0.12552539 0.09372164
43 0.10494126 -0.12353018 0.00971768 -0.0024209924 0.08522387 -0.021517884 0.030266711 -0.008514126 -0.030115992 0.016961519 0.028846476 -0.019163277 -0.07338719 -0.14475603 0.00778346 -0.05972223 0.03603502 0.04851947 -0.13869433 0.13600999 0.094828516 0.014484071 0.071680196 -0.05497736 -0.18564743 -0.084136315 -0.117019996 0.15327866 0.0015041771 0.03876101 -0.24242009 0.030766021 0.13322264 0.053931322 -0.06710258 0.05277729 0.02718316 -0.057690255 0.04359248 0.17820095 -0.08704803 0.012081699 -0.061899103 -0.042215325 0.031428847 0.022891236 0.11205341 -0.016515907 -0.10473828 0.08024886 0.02178029 -0.09770753 0.18990472 0.00096726953 0.03708084 0.18112475 0.15016197 -0.1670951 0.04020922 0.07955854 0.115412824 -0.04998372 -0.016291315 0.08809046 -0.028923254 -0.038610276 0.07596163 0.08225554 -0.19022809 9.4707255e-05 0.095283486 -0.072616726 -0.009775149 -0.07289047 0.08762051 -0.15220347 -0.016633859 -0.022141114 -0.01215628 0.12002797 0.07968944 -0.12000863 0.04436825 0.14697702 0.05307639 0.13066669 0.106703155 -0.028681332 0.28721896 0.021619614 -0.027480628 -0.11967592 0.028492332 0.06719439 0.10313481 0.07348673 -0.11400326 -0.26445478 -0.02795151 -0.17131712 -0.0599496 -0.10866281 0.01778192 -0.010143455 -0.019611597 -0.052737474 0.067812845 -0.16170228 0.021642897 -0.15816645 -0.11623607 0.12584159 0.1454597 0.0051258393 0.0706963 -0.15834211 0.08005063 0.16904709 -0.0009317035 0.03518539 -0.045230806 -0.008051932 -0.03615344 0.30935302 -0.078736834 0.052746236 0.17436703 0.014221995
4 -0.0336372 -0.15710455 0.22390363 -0.13439682 0.064659424 -0.0579701 -0.09588935 -0.14117563 0.087639175 -0.13210718 -0.06668752 -0.3547122 -0.26468605 0.061542325 0.051061384 -0.07130729 0.048967976 -0.12493349 0.12180341 -0.18550524 0.1375637 0.12949504 0.17657249 0.03939827 -0.12599717 0.21372935 -0.004378442 -0.013470298 0.16726743 -0.0916367 -0.08733365 -0.08677925 -0.27977067 0.18598317 -0.12834917 0.053892344 0.22876966 0.037372664 0.18670882 -0.09177064 -0.030829081 -0.0843431 0.046237513 -0.030974677 0.084526025 0.03546004 0.047109187 -0.1829912 0.007806674 -0.11767404 -0.03258064 -0.0038927572 0.13350965 0.26872146 -0.10425143 0.16823135 0.09526379 0.17612043 -0.038687922 -0.027123345 0.20624897 -0.1978905 0.31954488 0.08015999 0.19532631 -0.046401534 -0.07178305 -0.12138174 0.043096744 -0.11439488 0.09522961 -0.111887254 -0.37430033 -0.02550449 -0.020692017 -0.29681188 -0.10012599 0.15053967 -0.008911408 0.13806462 -0.027211579 -0.16925704 0.09417509 0.12695326 0.22050361 0.057275318 0.1870633 -0.02134049 -0.11296173 0.21510571 -0.12154463 -0.18254213 -0.06341231 -0.1150539 0.34281698 -0.11081308 0.028521035 -0.11782818 -0.224439 -0.042008996 -0.032616727 0.18749563 -0.11546107 0.035391208 0.16739726 -0.056623343 -0.23068255 -0.15083805 0.09702889 -0.23095693 0.05649111 -0.08622915 0.010469253 0.0379343 -0.0857558 -0.023480384 0.05209512 0.11149466 0.19122885 -0.1447672 -0.146168 -0.06567515 -0.11376838 0.27442083 -0.06281342 -0.09268272 -0.21968384 0.13063182
3 0.07070581 -0.11790374 0.25796238 -0.034658 0.1627849 -0.01815776 -0.029747104 0.030850304 0.08375929 -0.02759537 -0.024040235 -0.33672377 -0.09020035 0.011127317 0.10524007 0.008247687 0.098603636 -0.2367695 0.08353947 -0.084027946 0.28830534 0.034297556 0.22123617 -0.06621056 -0.058962904 0.22090282 0.03302876 -0.06300051 0.10526419 -0.09439436 -0.002195404 -0.18733978 -0.43607584 0.13867423 -0.18015712 0.07396565 0.21260883 -0.02850642 0.026403328 -0.22286953 -0.082922675 -0.09168442 0.10626268 -0.0530401 0.100108504 0.12624705 0.024097595 -0.137556 -0.02384392 -0.15568234 -0.015322084 0.15710436 0.124083474 0.32819134 -0.23023196 0.14576846 0.16478966 0.27333927 -0.041614454 -0.09081017 0.12275195 -0.3232852 0.34968394 0.014910167 0.18937446 -0.12612186 -0.08039457 -0.10365672 -0.13950478 -0.016268698 0.011577828 -0.10408982 -0.4613108 0.018561304 -0.028101403 -0.4944392 -0.06611594 0.060511816 0.050838917 0.16844866 -0.0034521604 -0.18416853 0.101924606 0.1710387 0.23823582 0.07549275 0.17263648 0.041945167 -0.22899432 0.17955203 -0.102981955 -0.076690026 0.003926757 -0.15101998 0.2806292 -0.03535708 0.100700036 -0.123085156 -0.29485932 -0.0014933043 -0.07304217 0.25936565 -0.04824183 -7.764436e-06 0.28159988 -0.14906107 -0.29331872 -0.11486299 0.082767695 -0.26055402 0.0426268 -0.04010939 -0.022219427 0.019195018 -0.05552078 0.01799597 0.044018712 0.16541228 0.16462386 -0.28141198 -0.08186818 -0.21220486 -0.031123212 0.20353892 0.008896147 -0.047787625 -0.20403107 0.10957266
22 0.14331213 -0.07514625 0.084896766 0.05322998 0.25026113 -0.10306005 0.1557008 0.17097571 -0.14895163 0.19375028 0.17394473 0.072442815 -0.11621774 -0.1420247 0.3492297 0.14690499 0.14927475 0.036499955 -0.027455287 0.16992222 0.06288108 0.045912858 -0.23750803 -0.16916072 -0.0038507665 -0.2621866 -0.16131093 0.21837449 0.08713133 0.16105269 -0.17924234 0.12100682 0.21055964 0.23390982 0.14705382 -0.104257055 -0.05418365 -0.23260748 0.18851829 0.104508616 -0.14172202 -0.12525819 -0.107969984 -0.047118504 0.06456676 -0.24138385 0.056276824 0.12843384 -0.22342195 0.10653757 0.0028749502 -0.23242232 0.1345952 -0.009134999 0.29612073 0.06882318 0.06998633 0.053046912 -0.20870148 0.18241994 -0.21255422 0.07837196 0.050766397 -0.1316563 -0.12297835 0.023101572 0.097135864 0.16941144 -0.23162927 -0.0068644164 -0.18541914 0.20346387 -0.014738167 -0.042639647 -0.0041460022 -0.25912508 -0.16626687 -0.08715684 -0.16375293 0.041410558 -0.19955184 -0.05133031 -0.032745782 0.1414648 0.1457719 0.0056095594 0.06241113 -0.06672382 0.059230793 0.22747515 0.11631063 -0.31707436 0.17969966 0.024071086 -0.09656989 -0.03987676 0.02000055 0.10116459 0.11787948 0.072271705 -0.004167996 -0.19917947 -0.32198662 -0.26012337 -0.10481313 0.11168128 -0.15785006 0.2910625 0.019282969 -0.21388328 0.00615352 -0.06944837 0.043123543 -0.079087615 -0.10537662 -0.049279127 0.0962062 0.14194457 -0.11476503 0.04832438 -0.069104984 0.0009783669 -0.06749348 0.09077092 -0.024259042 0.18439564 0.18383582 0.14389257
24 0.28901094 -0.09076934 0.1955188 0.08883977 0.31077993 -0.07874981 0.16086243 0.16870786 -0.13546523 0.20436528 0.16015473 0.03564141 -0.085030876 -0.1262432 0.40212956 0.153845 0.12251868 0.025531808 -0.0079876 0.19682166 0.18063687 -0.0022110322 -0.20036669 -0.19749495 -0.02771382 -0.17751744 -0.13928129 0.21444912 0.11283259 0.15191868 -0.22291987 0.14302644 0.19237424 0.22617278 0.121042624 -0.16662349 -0.11725054 -0.2666822 0.08189055 0.05510286 -0.18025306 -0.08989701 -0.17802012 -0.029908095 0.07377188 -0.26467842 0.08608493 0.09834874 -0.2503299 0.13722709 0.013685037 -0.16600592 0.15281098 -0.025642594 0.24249493 0.05527593 0.073246226 0.13380662 -0.22414799 0.13220227 -0.24131587 0.06219732 0.041817576 -0.08503666 -0.1539905 0.004308837 0.15750955 0.15546729 -0.22070178 0.06846 -0.27109712 0.2419442 -0.008567306 0.0074578486 0.009829897 -0.18202625 -0.1597359 -0.13168494 -0.14554 -0.020179467 -0.14449349 -0.060754444 -0.039516777 0.13430837 0.1470949 -0.066555336 0.08376469 -0.11499572 0.011266759 0.2650415 0.08532019 -0.31191918 0.21781047 0.021620475 -0.18366446 -0.013140771 0.02767297 0.07138171 0.102557145 0.06995333 0.04210657 -0.2262244 -0.29043266 -0.2940068 -0.1032939 0.14796321 -0.16392033 0.30729333 0.0405866 -0.16645312 -0.021934295 -0.08907827 0.011121235 -0.115482956 -0.13911383 0.008136747 0.08487637 0.14868775 -0.096660845 0.11133699 -0.058817968 -0.054838475 0.028095454 0.09678757 0.018107666 0.19460614 0.16242716 0.15803015
32 0.10141802 -0.0149110025 0.08334396 0.05782531 0.22127073 -0.07336078 0.09059406 0.18206398 -0.058810104 0.13585359 0.16703688 0.05237628 -0.06388575 -0.092758335 0.28834525 0.13841386 0.13790114 0.030617576 0.01515501 0.11046684 0.011643507 0.025138438 -0.16373879 -0.14027923 -0.007195958 -0.121871136 -0.09038469 0.13429224 0.08530725 0.13538884 -0.11146961 0.1120421 0.054897793 0.1710047 0.1290993 -0.1290006 -0.047710795 -0.16146703 0.13416575 -0.027487399 -0.06367928 -0.112526044 -0.06719179 -0.043616492 0.014842837 -0.21433133 0.004686454 0.104913935 -0.16021873 0.11939269 0.0019193742 -0.15031269 0.14694227 0.09717666 0.20407484 -0.015606573 0.084851794 0.15975262 -0.21193632 0.14181744 -0.24602716 0.048765216 0.10923589 -0.15783896 -0.011151653 -0.012497396 0.054421857 0.09666272 -0.13093752 0.009702954 -0.15373215 0.16583927 -0.059522122 -0.009412423 -0.053865407 -0.22606973 -0.12167078 -0.056142565 -0.16323552 0.030760812 -0.15489882 -0.07483125 -0.07662776 0.12924014 0.18413673 0.009667441 0.13645488 -0.025205975 -0.022549972 0.28133798 0.056511633 -0.3014177 0.13019834 -0.011902243 -0.06211449 -0.08989345 0.06748537 0.08298177 0.08873057 0.030009322 -0.026585232 -0.17789175 -0.22303006 -0.165264 -0.0035108193 0.012617908 -0.13141006 0.2111652 0.03189676 -0.11845416 0.05218395 -0.10169824 -0.03376232 0.026125336 -0.1596726 0.040588 0.03750016 0.07853306 0.012436537 0.08229041 -0.09693841 -0.09025127 0.051605396 0.038728837 0.013543959 0.028778337 0.0717379 0.12805428
33 0.024911858 -0.15897019 0.26044062 -0.0808718 0.09483139 -0.08783575 -0.028670726 -0.09286637 0.06474873 -0.117680505 -0.057165056 -0.40304852 -0.21197131 0.009069463 0.066493906 -0.027962465 0.041608404 -0.11249163 0.07286459 -0.12681694 0.25534058 0.08351365 0.22201557 0.011652787 -0.1391143 0.17265074 -0.0067341826 0.016234891 0.16375506 -0.09219712 -0.09732831 -0.10595844 -0.17797376 0.100258395 -0.04735587 -0.01038812 0.12489485 -0.030346837 0.046151288 -0.08233358 -0.03360212 -0.0715716 0.057098024 0.0001244662 0.024413444 0.04901776 0.0272881 -0.04146627 -0.007070527 -0.03677851 -0.020130508 0.01842832 0.13800472 0.17951722 -0.104799144 0.17330839 0.11420428 0.16080512 -0.063641086 -0.0022205543 0.06329485 -0.16115585 0.22256795 0.0024928872 0.15750615 -0.057770856 -0.03361531 -0.13036782 -0.022584673 -0.06075446 -0.016158115 -0.10232326 -0.38583922 -0.042027604 0.0049536005 -0.29801312 -0.024202 0.078543946 0.041805796 0.12304847 0.022131149 -0.11604578 0.063856624 0.1260866 0.21901776 0.10022242 0.20749944 -0.0022775533 -0.10382473 0.21285611 -0.10847537 -0.16779837 0.011389481 -0.069401085 0.24510014 -0.058842804 0.050956897 -0.13324255 -0.24331973 -0.02249886 -0.097885504 0.17201002 -0.048931494 -0.038907714 0.20188141 -0.043825753 -0.1897731 -0.15733786 0.08046394 -0.25988156 0.052467935 -0.0899315 0.023220018 -0.00829194 -0.016423307 -0.06868051 0.07301168 0.12959096 0.1335887 -0.20680699 -0.12853654 -0.121806294 -0.054384243 0.25188202 -0.052624766 -0.036715224 -0.23534043 0.10974422
41 0.04976606 -0.008958357 0.09297246 0.07870086 0.1918156 -0.11743199 0.103205584 0.118356235 -0.13937058 0.18526746 0.19078112 0.06481001 -0.08223701 -0.05849998 0.31856468 0.12276012 0.10984525 0.08068746 0.044054825 0.13141309 0.046310082 0.037727885 -0.21708462 -0.15022528 -0.043423016 -0.23077169 -0.1994903 0.24386364 0.10953781 0.18023922 -0.22996143 0.16554919 0.19206567 0.198437 0.15693654 -0.1561501 -0.09394479 -0.2248028 0.13384429 0.069648094 -0.115924716 -0.09833236 -0.10682476 -0.060322028 -0.002262942 -0.21380694 0.02704205 0.13751338 -0.19501358 0.17785048 0.012266233 -0.2145965 0.21112396 -0.0048437375 0.27389282 0.08133053 0.013301498 0.07810465 -0.1843046 0.2208951 -0.19743924 0.116432495 0.039671123 -0.11618726 -0.082360946 0.0017658686 0.09410621 0.1350718 -0.12757768 -0.037789714 -0.22836743 0.18114546 -0.018225066 -0.04608617 -0.014452267 -0.1871677 -0.0996575 -0.051529557 -0.17663193 0.014460732 -0.16755086 -0.0017254788 -0.07673712 0.13347013 0.18298744 -0.02166918 0.12898014 -0.06759353 0.0035699084 0.25958547 0.06971892 -0.33416364 0.17719193 0.0454042 -0.07120395 -0.07640475 0.015771484 0.060601216 0.12782905 0.0156668 -0.046944164 -0.23050635 -0.21974114 -0.24828096 -0.12549259 0.1388446 -0.113288455 0.3020846 0.051662218 -0.17933872 0.028982066 -0.08033813 0.010910814 -0.06126097 -0.13691393 -0.0398234 0.11786338 0.14427951 -0.08098382 0.07200772 -0.14160766 -0.036829535 -0.004397428 0.098763525 -0.043971773 0.11182616 0.121257134 0.1320686
