1813 128
1222 -0.01918158 -0.30906907 -0.3983339 0.03194261 0.5713661 -0.17447615 -0.054150004 0.54673964 -0.114021435 -0.05550853 0.23887682 -0.08312929 -0.17608576 -0.22796802 0.18738122 0.26427618 -0.06335994 -0.011087274 0.31326184 0.043646585 0.004299176 0.11833165 0.15405118 -0.19938236 0.5546277 0.17058457 0.17094536 -0.41044295 -0.35584897 -0.43383613 0.08105114 -0.29680622 -0.08064038 0.18502374 -0.15125677 0.45760986 0.4051298 0.042663693 -0.08555231 -0.1492121 -0.33248344 -0.12760049 -0.08453286 -0.055499367 0.0022464362 0.08861566 0.028876191 0.031852264 -0.07947508 0.36146146 -0.021608599 -0.11247006 0.12782848 0.27489662 0.55157024 -0.30208343 0.21159932 -0.117391616 -0.27226278 0.3623022 0.107110016 0.079593666 0.14496283 -0.3231581 0.39774644 0.11315175 -0.343199 -0.026472092 -0.015749894 0.09136752 0.2383253 -0.24520442 0.19051285 -0.03309572 0.0339467 -0.2347982 -0.13404234 -0.14634335 -0.005939257 0.13768198 -0.16092528 0.08079364 -0.27673924 0.549214 -0.13751721 -0.02943675 0.13176107 -0.1878638 -0.26322857 -0.052712098 0.09987052 -0.17517744 0.0023364783 0.2685663 0.008404147 -0.4111446 -0.2998995 -0.17601801 -0.071880564 -0.061925795 -0.24059047 -0.22449589 -0.22716957 0.1493778 0.0009431987 -0.4760068 -0.5211321 -0.04546028 0.01022595 -0.24341999 -0.045749847 -0.22423244 0.2203582 -0.26018047 -0.17451185 -0.27260008 0.059507683 -0.22608268 -0.06522827 -0.18765555 0.108393975 -0.26026896 -0.059302017 0.23220775 -0.71187526 -0.16857839 0.0020704146 0.549664
831 0.13065828 -0.39257824 -0.20950036 -0.24405046 0.11586185 -0.2855958 -0.08532543 0.39513996 -0.35155046 -0.16135031 0.52598673 -0.30376318 -0.16613375 0.19303018 0.10176146 -0.13908678 0.008619954 0.16295853 0.28724393 -0.053314496 -0.31957933 0.113459185 -0.25103593 -0.05373842 0.48409805 -0.09852179 0.25193256 -0.2119149 -0.39566487 -0.20404805 0.11042129 -0.5637017 0.32475662 0.3450605 -0.019749966 0.47330457 -0.10731867 0.10028461 0.048452266 0.12433543 -0.12015305 -0.30779794 -0.2756313 -0.18800835 0.12479812 0.17995755 -0.06438691 -0.2070235 -0.18392146 0.4830206 0.12347287 -0.24171346 0.11946116 0.1585709 0.5424552 -0.347567 -0.017992841 -0.15126792 -0.19600673 0.6026368 -0.027525548 0.3570179 -0.1512374 0.031029604 0.14119264 -0.035189 -0.1707688 0.19145879 -0.0013567795 0.18072829 0.43203333 -0.057377417 0.012902852 -0.35449246 0.1160268 -0.017158244 0.07796541 -0.07845057 -0.0025624272 0.03513404 -0.22894728 0.17840423 -0.24338463 0.10064916 0.2090216 -0.2986425 0.19810967 0.04774423 0.17571001 -0.062339265 -0.0041910917 -0.0729893 -0.089687645 0.36719793 -0.24948533 -0.27374232 -0.32879648 -0.6156569 -0.23538059 -0.3596373 -0.34708154 -0.1703197 -0.28720292 0.16653745 -0.12982015 -0.25556007 -0.36411726 -0.14113182 0.54179764 -0.2667246 -0.27403292 0.045539808 0.33127412 -0.16589461 -0.41321388 -0.012212742 -0.0004111821 -0.022178542 0.040702075 -0.0586485 -0.036279716 -0.12358325 0.034815338 0.4940777 -0.5498004 0.010364839 -0.3678077 0.4701355
667 0.082066596 -0.40055197 -0.18592691 -0.31450632 0.19312847 -0.26388642 -0.043772683 0.38184533 -0.36377242 -0.062201776 0.53141403 -0.2299358 -0.11808372 0.053368255 0.09068591 -0.1798497 -0.08606638 0.22521435 0.30361265 -0.09237777 -0.34054998 0.17011493 -0.2834398 -0.095993996 0.37275466 -0.15687935 0.2545642 -0.17558688 -0.37173572 -0.14219631 0.14682624 -0.605065 0.30911553 0.41249496 -0.08972968 0.43800125 -0.15297972 0.055830687 0.03607677 0.16002095 -0.05965161 -0.39977407 -0.298853 -0.15383554 0.10201103 0.19030146 -0.074390605 -0.07327919 -0.2004415 0.336674 0.10336412 -0.32761824 0.047145676 0.015239848 0.540139 -0.3235098 0.023588952 -0.16774124 -0.23750065 0.61695427 -0.06417121 0.4039954 -0.046113618 0.012593025 0.173172 -0.011334949 -0.18439724 0.076153204 0.08836406 0.160876 0.43584403 -0.023629557 0.0666135 -0.3147875 0.12019975 -0.120422065 0.14672187 -0.10310892 -0.05943196 0.017409554 -0.08514334 0.050726227 -0.25597942 0.18483335 0.24568352 -0.17745717 0.10226318 0.10987734 0.16021459 0.039751627 0.05669028 -0.037555873 0.037860684 0.37538633 -0.32384893 -0.22131881 -0.35976788 -0.5943003 -0.2918353 -0.28446305 -0.30996963 -0.2545581 -0.24098165 0.24767724 -0.26983067 -0.32014644 -0.334849 -0.09476855 0.56126064 -0.33338764 -0.34957257 -0.0103842495 0.3979552 -0.20825477 -0.35865852 0.05378559 0.0046259337 -0.0074829436 0.040043313 -0.07244432 0.050035715 -0.15597199 0.049295265 0.5077012 -0.556197 0.057645243 -0.42450824 0.4676431
161 0.30336937 -0.23211436 -0.07857996 0.23334105 -0.1489173 -0.108979724 -0.14986165 0.05433994 -0.2977884 -0.42804125 0.54461485 0.13696465 0.13152318 -0.15839441 0.7349556 0.38770443 -0.12350605 -0.23306604 0.17122824 -0.2184944 -0.2947559 0.32373425 -0.21191302 -0.40614638 0.35391366 0.097208895 0.0843229 -0.47571307 -0.12217109 -0.3420223 -0.09340197 -0.139084 0.35999027 0.014620809 0.12765533 0.35858145 -0.2983775 0.12548265 0.25146738 -0.028935956 -0.29551715 -0.07605099 -0.3409647 -0.18847266 0.207051 0.4512989 -0.31565282 -0.4969751 0.15080461 0.23077896 0.1658751 0.2778515 0.60374784 0.06367221 0.089596346 0.21762323 0.26895022 -0.1919289 -0.21129069 0.34829998 0.3903418 0.24707307 -0.18130198 -0.15630226 0.25729135 -0.060991827 -0.25586107 0.027034042 -0.06500033 0.23879142 0.08538167 -0.3908639 0.11511115 -0.22109565 0.196654 -0.29812828 0.13020253 -0.45434463 0.15675743 0.29355446 0.16756052 -0.18632935 -0.33745694 0.33301443 0.0792987 -0.10377207 0.2848671 0.1265738 0.3775618 -0.1604636 -0.2807794 -0.3605302 0.26535758 -0.11266834 -0.30813268 0.044372503 -0.13709444 -0.62532824 -0.013308852 -0.2162542 -0.12802638 -0.10270838 0.3250144 0.3046452 -0.11719964 -0.54187065 -0.2541949 -0.22580819 0.098122366 -0.080026224 0.14014505 -0.26537332 0.4393914 -0.26185265 -0.5450936 -0.25458664 -0.31845385 -0.3332684 -0.11114348 -0.36664242 0.04819439 -0.21555436 -0.32605508 0.22941408 -0.34455648 -0.28011185 0.36332762 0.14345333
865 0.10624177 -0.27299133 -0.12943928 -0.26443467 0.111249544 -0.31678694 -0.09234349 0.3425589 -0.41317466 -0.085171044 0.45942006 -0.22648521 -0.14016832 0.105028965 0.22562099 -0.1461225 -0.032140646 0.20003167 0.3149291 -0.0050067636 -0.29537752 0.2202502 -0.2813117 -0.025148975 0.41679248 -0.09928869 0.14211133 -0.19915633 -0.36675206 -0.1457164 0.13399436 -0.53306097 0.32719555 0.2833018 -0.011067151 0.48351616 -0.15507512 0.11181049 0.055664625 0.1334187 -0.014756236 -0.3697957 -0.26698908 -0.090400375 0.14520074 0.16222604 -0.022604132 -0.24579942 -0.16676822 0.48395506 0.11303467 -0.32788152 0.11958525 0.11150041 0.5750133 -0.2631325 0.06877134 -0.19158907 -0.20494342 0.59555936 -0.075488105 0.3467997 -0.07873405 -0.01748779 0.16019058 -0.058997735 -0.18247716 0.10068534 0.043584343 0.16924998 0.50761956 -0.124968536 0.04682835 -0.40180132 0.16097118 -0.08170429 0.05144039 -0.01659034 0.01117943 -0.020974705 -0.07992405 0.07668082 -0.20859116 0.16546151 0.25973713 -0.09481339 0.14688447 0.20387003 0.003233864 0.060162906 0.036223885 -0.03721191 -0.027829135 0.30063358 -0.340931 -0.3584688 -0.35840428 -0.5481878 -0.21811356 -0.36888024 -0.33396232 -0.28454688 -0.27478984 0.1877931 -0.09866782 -0.35985488 -0.35034138 -0.04784314 0.49487868 -0.22706778 -0.32067496 0.012706208 0.32949287 -0.13379471 -0.30043277 0.04556388 0.015666978 -0.021362264 0.048714813 -0.17020445 -0.08723021 -0.07069722 0.12048785 0.5467863 -0.5334195 -0.03233647 -0.37432992 0.46131465
1467 0.09960897 -0.31676126 -0.14117496 -0.3052059 0.12793176 -0.30908 -0.14012128 0.2533062 -0.48001486 -0.13784954 0.44413355 -0.30892485 -0.14668718 0.093165144 0.16115415 -0.12645705 -0.081622876 0.21269086 0.31420457 -0.0073550236 -0.4053174 0.101485044 -0.21424612 -0.060859144 0.4407327 -0.09911948 0.24574393 -0.24252844 -0.35078824 -0.1834098 0.07848687 -0.47742042 0.36957318 0.33400804 -0.03673425 0.40990493 -0.17534764 -0.0042192014 0.07879861 0.12269765 -0.047452215 -0.32859415 -0.32104567 -0.19495349 0.12655976 0.19201905 -0.013520976 -0.1077102 -0.21719716 0.51761085 0.120672375 -0.23922388 0.13435985 0.10077251 0.5869748 -0.3861977 0.0018793554 -0.15567431 -0.21112427 0.5793943 -0.0124568585 0.3304098 -0.09262099 -9.517697e-05 0.11573069 0.017030891 -0.23104943 0.10726128 0.13271119 0.204446 0.43287313 -0.051701263 0.12176148 -0.30135873 0.18770255 -0.13340704 0.077826686 -0.020735111 -0.05028879 -0.0030577616 -0.10509275 0.12985078 -0.14346965 0.13136962 0.24641263 -0.15319484 0.100132965 0.14489184 0.14226037 0.11612638 0.06678561 -0.068669535 -0.029029906 0.2825551 -0.27581227 -0.29885912 -0.40987656 -0.65617204 -0.31732807 -0.3628987 -0.2541159 -0.2225054 -0.2155951 0.2699118 -0.20498218 -0.3464566 -0.29050547 -0.11725234 0.53530115 -0.28078187 -0.29921678 -0.07944907 0.3292795 -0.20164825 -0.31193256 0.036778904 0.0843427 0.023652768 0.10947711 -0.16862488 -0.022447847 -0.05357256 0.06832296 0.48925805 -0.54755086 -0.04058313 -0.37808287 0.46593127
1377 -0.04106022 -0.24938327 -0.27755645 0.07766509 0.56320894 -0.2614847 -0.008080545 0.6181052 -0.16078705 0.029426547 0.19691707 -0.063382566 -0.20130698 -0.34898886 0.20564061 0.23596449 -0.13104627 -0.040208694 0.25391442 0.10833254 0.015654393 0.06479482 -0.0033246176 -0.15095565 0.58149016 0.16504464 0.051501263 -0.44008178 -0.45000532 -0.41225904 0.13826124 -0.33634233 -0.025257463 0.15283269 -0.26292875 0.56416917 0.3080714 0.000982412 -0.13117565 -0.19009398 -0.32552 -0.12268046 -0.16165802 0.11397425 -0.006816565 0.118900016 -0.014405928 0.05755075 0.038957372 0.31026056 -0.042816844 -0.17017652 0.039025392 0.24523044 0.57923955 -0.38038674 0.21154337 -0.22368129 -0.20956042 0.39976573 0.08160837 0.07727388 0.12328819 -0.4048664 0.43676314 0.20695606 -0.37460512 -0.04959384 -0.004410323 0.13815579 0.1519603 -0.27653617 0.12100464 -0.022414401 0.042908147 -0.167367 -0.024667706 -0.076733775 -0.028762473 0.07455121 -0.121798016 0.066564284 -0.307331 0.45296085 -0.1347256 -0.15013018 0.004461331 -0.14751698 -0.2432317 -0.02176573 0.09819713 -0.1702043 0.12860169 0.2848938 0.00891019 -0.42018157 -0.13115364 -0.23395379 -0.19952314 -0.11006582 -0.26787296 -0.20489067 -0.25653738 0.09407322 0.020063167 -0.40928227 -0.4218101 -0.1628242 0.0626106 -0.26261267 -0.024102526 -0.27294943 0.23137835 -0.3431132 -0.25972548 -0.24419925 0.043257184 -0.19653523 -0.11275114 -0.20192082 0.11602846 -0.39054304 -0.10715714 0.15740459 -0.6556673 -0.067034386 0.08273161 0.5037004
286 0.25214702 -0.22957231 -0.13670425 0.1710363 -0.14807752 -0.0871337 -0.18421726 0.07260198 -0.3289967 -0.43428448 0.52585053 0.057658408 0.21921575 -0.08649478 0.7083997 0.17714065 -0.08677237 -0.18264371 0.13434425 -0.10272918 -0.23878331 0.29719815 -0.19975093 -0.3528758 0.37168753 0.04576387 0.11146283 -0.48987582 -0.14570834 -0.27739948 -0.07564595 -0.2940008 0.38821396 0.047175523 0.06381628 0.395462 -0.21587643 0.15131587 0.2392266 -0.04248924 -0.269726 -0.06797773 -0.3232132 -0.24304569 0.19673756 0.4771935 -0.35706344 -0.5419026 0.11520323 0.27440313 0.09350839 0.34351513 0.49340096 -0.06425278 -0.060857836 0.24723554 0.2872903 -0.21779637 -0.17352773 0.30602792 0.36063325 0.24921206 -0.21337663 -0.23960641 0.23523748 0.02084827 -0.121586666 0.09315306 -0.039116316 0.27092877 -0.006272511 -0.30481458 0.13224563 -0.16333143 0.26418138 -0.27697444 0.07208525 -0.6008809 0.19408083 0.2864397 0.23539267 -0.24965355 -0.33660114 0.3542211 0.14955547 -0.10410827 0.26014605 0.20890021 0.27785277 -0.13096246 -0.15166935 -0.36660615 0.44244266 -0.14150757 -0.34883264 0.00569913 -0.06901972 -0.5560119 -0.13759765 -0.2347011 -0.13104118 -0.029512694 0.42719442 0.32848787 -0.09147268 -0.58969164 -0.35459194 -0.2769509 0.08125138 0.028016124 0.14603631 -0.19693321 0.45202652 -0.2403971 -0.5468347 -0.2643187 -0.28373328 -0.23160093 -0.08368389 -0.3423296 -0.09202834 -0.30555275 -0.37183347 0.2942419 -0.33619046 -0.27588475 0.3632888 0.16406061
6 0.5116073 -0.33134946 -0.17284064 -0.16670153 0.19585273 0.33347687 -0.16677482 -0.05554889 -0.18962917 0.29624808 0.10927968 0.088388465 -0.107619554 -0.3856646 0.64080477 0.67473596 -0.11810879 -0.046372317 0.04147484 -0.06503889 -0.4579852 -0.032272596 -0.07603181 -0.8216244 0.16907595 -0.035755757 -0.3047772 -0.40718216 -0.13848431 -0.25146884 0.42433482 -0.43253624 0.3728791 -0.06621128 -0.46392697 -0.03891923 0.74089277 -0.106489666 -0.10371376 -0.051885992 0.6698903 0.20594618 0.13229117 0.057583533 0.14883548 0.47124535 -0.16829494 -0.16926801 -0.24620853 0.017511886 0.04228444 0.16170569 0.18381156 0.194771 0.107962474 0.24792443 0.2438742 -0.37253326 -0.03519866 0.38266775 -0.12667201 -0.47059107 -0.00047759432 0.4986968 -0.10614182 -0.107021034 0.5052558 -0.10206025 -0.45069784 0.43603516 -0.28090245 0.14881523 -0.35847265 -0.1423097 -0.24936725 -0.48359066 -0.25424117 -0.3498152 -0.5162648 -0.40575725 0.23162755 -0.15445024 -0.097620934 0.40051365 0.02896107 0.19245945 0.33848602 -0.12775505 0.6071441 0.29904127 -0.17086762 0.0039151325 -0.0076506003 -0.15795632 0.53955364 -0.33789584 0.16124322 -0.062838025 -0.30841726 -0.0434599 0.24420641 0.3366357 -0.24659036 -0.07127624 0.61361605 0.022378724 0.07544167 0.57103723 0.13945207 -0.12867089 0.04866994 -0.15200822 0.09304461 0.46354482 -0.030274404 0.012260688 -0.43108127 0.22196048 0.33079875 0.25222036 0.057501476 -0.06833331 -0.30529216 0.077630825 0.002164396 -0.05660602 -0.02887382 0.39006585
354 0.27302086 -0.1930435 -0.066002086 0.17823103 -0.14411628 -0.13567033 -0.16371597 0.041998647 -0.20591977 -0.37426412 0.45510346 0.13303284 0.1887945 -0.08905741 0.7847913 0.25406936 -0.13135555 -0.22108716 0.11943065 -0.064220406 -0.17953785 0.3358683 -0.02709693 -0.40109578 0.4254924 0.13274138 -0.033644676 -0.4359484 -0.20667623 -0.20067716 -0.1517997 -0.26883978 0.50069296 0.07350254 0.09526831 0.33114994 -0.22064134 0.0883306 0.22577848 -0.05381087 -0.37072086 -0.06631606 -0.27312672 -0.20994131 0.2695272 0.46309903 -0.28232765 -0.5086655 0.17506585 0.17363347 0.12594725 0.29938734 0.5382165 0.04694723 0.028805273 0.20968711 0.31444588 -0.1266543 -0.19317539 0.30913907 0.31505364 0.16919158 -0.13188273 -0.18807352 0.26239625 -0.055243447 -0.18151885 0.06870314 -0.036237434 0.13940792 0.07197466 -0.45516738 0.14629981 -0.19011329 0.18216762 -0.3816733 0.16718334 -0.51907295 0.14745115 0.32402617 0.22416186 -0.13164468 -0.29419035 0.26646417 0.041793436 -0.12872033 0.36367607 0.20386356 0.3740665 -0.21466805 -0.16595833 -0.28712037 0.26566714 -0.057354655 -0.32159033 0.11100102 -0.17184053 -0.5608625 -0.1779523 -0.21469441 -0.06916993 -0.049773287 0.4722128 0.38691965 -0.11651322 -0.5067466 -0.29306987 -0.26099524 0.18821487 -0.18017331 0.10033066 -0.14287195 0.48224103 -0.26414108 -0.4788904 -0.2652576 -0.38879034 -0.22831516 -0.071993135 -0.35589612 -0.0021594337 -0.30792665 -0.32337588 0.39253643 -0.29349762 -0.21532314 0.38994205 0.13501707
67 0.481321 -0.382256 -0.07746591 -0.08311607 0.23101425 0.35359192 -0.19769192 -0.047440782 -0.20218801 0.25626558 0.11938724 0.19421574 -0.07228452 -0.42309347 0.5523154 0.665267 -0.11669125 -0.19411856 0.041169968 -0.06277195 -0.53357375 -0.004568815 -0.024629759 -0.8325813 0.12857385 -0.05804664 -0.35410017 -0.30330902 -0.1302095 -0.22108014 0.46726 -0.38579586 0.4414108 -0.10195899 -0.43179348 -0.07966836 0.72451293 -0.22196251 -0.05602678 -0.1154532 0.6209198 0.19196875 0.059310578 0.105787806 0.26740003 0.47183242 -0.13085525 -0.22864118 -0.2500395 0.07115096 0.07988596 0.19738774 0.2820692 0.21490066 0.106595695 0.28358382 0.33012608 -0.4178735 -0.084927276 0.47382668 -0.17671834 -0.41943786 -0.037089754 0.48616338 -0.0697845 -0.119165964 0.48636055 -0.013593061 -0.44081563 0.42484516 -0.2352611 0.17203304 -0.39738387 -0.17671768 -0.24817707 -0.4666954 -0.20218752 -0.3072027 -0.51345986 -0.4082546 0.2813726 -0.1631524 -0.06484004 0.46233207 0.0847057 0.19436312 0.40349713 -0.058042698 0.5229463 0.29476973 -0.13174765 0.07133602 0.01359245 -0.1764881 0.50094384 -0.37086913 0.122478254 -0.08920471 -0.25567314 -0.06220958 0.19967973 0.31636044 -0.3080207 -0.13226786 0.67833984 0.09169393 0.06905477 0.54968226 0.09224766 -0.22180383 0.00034261073 -0.14425214 0.065653004 0.5053361 -0.0066733463 -0.062004015 -0.4514332 0.19839796 0.36097813 0.27150714 0.110421956 -0.0279433 -0.273614 0.05548595 0.021844108 -0.09438614 -0.036128305 0.3810432
283 0.2970473 -0.22722471 -0.077035405 0.2867547 0.05454197 -0.11220716 -0.11107911 -0.022714246 -0.26359937 -0.42423004 0.4539025 0.1290117 0.2443254 -0.16316982 0.70101905 0.10524575 -0.1369389 -0.3376373 0.16339925 -0.105732165 -0.13867515 0.27037954 -0.010086725 -0.36372378 0.4686907 -0.05353783 -0.01535061 -0.54574597 -0.08327671 -0.22436415 -0.21954319 -0.45276463 0.39239872 0.01599715 0.054742485 0.4321495 -0.17308415 0.22661735 0.24986163 -0.152776 -0.316186 -0.041365415 -0.20707461 -0.27391502 0.26477176 0.35896719 -0.36860827 -0.52899027 0.09110021 0.1545876 0.19305862 0.2975807 0.48172304 -0.057858072 0.09557222 0.21405123 0.19517246 -0.32861608 -0.31828383 0.33991313 0.3126098 0.13943519 -0.14536324 -0.20450364 0.21123339 -0.063402966 -0.09364442 0.052689746 0.0754667 0.13668026 0.28632745 -0.35209975 0.16816069 -0.04666091 0.19960192 -0.2799343 0.038087834 -0.6412075 0.13651969 0.20735775 0.23939338 -0.29743525 -0.26521498 0.34043044 0.067748606 -0.20240273 0.31883228 0.29995063 0.46346197 -0.2485949 -0.19228958 -0.36646354 0.42944258 -0.10401472 -0.2554176 0.14881976 -0.12673995 -0.5650909 -0.08344986 -0.3577716 -0.1638038 -0.07776137 0.28279686 0.36062878 -0.14424972 -0.5575233 -0.3773955 -0.14607692 0.1320323 -0.15530077 0.02684433 -0.046611823 0.46213418 -0.33501992 -0.39886385 -0.36696276 -0.16471708 -0.09713217 -0.021567972 -0.38585782 -0.11611912 -0.42753676 -0.27099007 0.3658829 -0.3194848 -0.21147561 0.41931555 0.07327424
53 0.48590565 -0.35726637 -0.13898292 -0.1933505 0.22459602 0.36071897 -0.20148572 -0.019677151 -0.2381975 0.28365868 0.08118967 0.13940053 -0.08271975 -0.4020108 0.64154625 0.7131566 -0.19850501 -0.09149744 0.05078432 -0.0856308 -0.5676704 -0.012830635 -0.0018077843 -0.79574525 0.20982525 -0.073754966 -0.45263416 -0.39131206 -0.15895222 -0.26410168 0.48236448 -0.35003424 0.3967501 -0.18616474 -0.40207782 -0.09939095 0.72961915 -0.21788186 -0.09203774 -0.038838103 0.6337091 0.19021228 0.036136948 0.08545696 0.31507114 0.45299256 -0.118923284 -0.20209904 -0.22074881 0.053600397 0.15020217 0.224762 0.16327113 0.19602984 0.088757336 0.32094333 0.13389784 -0.42582873 -0.06622331 0.41718677 -0.11033111 -0.46462464 -0.025556838 0.5656211 -0.01305809 -0.071802944 0.46829596 -0.101159856 -0.46784753 0.44389674 -0.23627344 0.17545484 -0.39850485 -0.16070947 -0.24864079 -0.46341413 -0.23791261 -0.3272325 -0.5566568 -0.3459705 0.24925376 -0.08451165 -0.17776227 0.42602593 0.030687172 0.1517863 0.40760764 -0.076900385 0.47171935 0.26899728 -0.16971111 -0.013815988 -0.024237746 -0.20635076 0.58297855 -0.31048462 0.16452847 -0.10177943 -0.32212925 -0.025698526 0.22902595 0.32825646 -0.32364058 -0.092782736 0.56134045 0.030673644 0.14888017 0.4825491 0.08773709 -0.12951075 0.030409535 -0.22913027 0.035367467 0.4688957 0.0070436136 -0.012780883 -0.3993683 0.21311107 0.28694674 0.2939568 0.11565535 -0.091642104 -0.2928885 0.029410027 -0.01562684 -0.029575735 0.07215424 0.40852556
2 0.47534177 -0.30954885 -0.199975 -0.17649285 0.19046865 0.33637214 -0.18937272 -0.025753915 -0.17954434 0.29183316 0.15461493 0.1037394 -0.06673211 -0.381828 0.6272335 0.6884906 -0.14206575 -0.19128416 0.045648158 -0.036563277 -0.50514233 -0.046974342 -0.09473644 -0.84940755 0.22089955 -0.039871678 -0.2537491 -0.3377703 -0.06222633 -0.24860024 0.41948628 -0.47762352 0.3669188 -0.12951644 -0.37742147 -0.06660371 0.67879456 -0.17583771 -0.21090944 -0.109714225 0.67019033 0.2761072 0.112015955 0.029828794 0.32727325 0.47760612 -0.14442454 -0.15083583 -0.23003975 0.0763182 0.07801086 0.18661283 0.21171302 0.1628359 0.1252852 0.27545306 0.2117885 -0.36872128 -0.034959402 0.38253388 -0.13931966 -0.36495516 -0.07587637 0.57086205 -0.00439707 -0.20928285 0.47602847 -0.062201362 -0.36374775 0.36038092 -0.2883575 0.16356778 -0.41079623 -0.22245686 -0.19588052 -0.503557 -0.22233684 -0.383583 -0.5252046 -0.4336798 0.29825243 -0.24918674 -0.07405268 0.4146012 0.004404275 0.23249152 0.34985578 -0.17395087 0.5403766 0.27166486 -0.21956468 0.026053904 -0.04905742 -0.15768136 0.5085897 -0.3055839 0.11967142 -0.077190146 -0.40255865 -0.08436874 0.27602163 0.38722286 -0.25661752 -0.1632076 0.61069477 0.028065031 0.1431948 0.5421246 0.17165552 -0.1512263 0.045563996 -0.17785974 0.0075193434 0.48183465 0.05912275 -0.021194981 -0.45316896 0.18611605 0.22953105 0.2809943 0.09894781 -0.113678984 -0.16220699 0.026458846 -0.06444328 -0.082341924 0.07283761 0.39220545
72 0.56513244 -0.35674992 -0.112984404 -0.13671318 0.27481586 0.29371902 -0.23015249 -0.06124786 -0.19934222 0.30385038 0.0951656 0.13773732 -0.06413254 -0.33105078 0.6187942 0.67101514 -0.109587245 -0.104306035 0.01649 -0.10127466 -0.50189227 -0.031065349 -0.04138759 -0.8050795 0.17580256 -0.04234846 -0.40480587 -0.3522147 -0.22586884 -0.21747637 0.48080605 -0.3828329 0.42107135 -0.12335004 -0.42398977 -0.016164316 0.67240006 -0.19126798 -0.05602316 -0.039066885 0.72278297 0.26595506 0.034588177 0.048481986 0.30266964 0.50986546 -0.14653231 -0.19110495 -0.19276354 0.06348113 0.07898734 0.18524846 0.21577291 0.23157273 0.12653622 0.33643374 0.22115617 -0.38249245 -0.0023440467 0.39778987 -0.11792742 -0.43601638 -0.11814284 0.52224314 -0.033003427 -0.1395591 0.5055015 -0.12303092 -0.3702825 0.39084458 -0.29467073 0.23067607 -0.33988318 -0.135133 -0.30160955 -0.40655053 -0.15971728 -0.3488056 -0.47847518 -0.43580097 0.31858218 -0.18948579 -0.0917925 0.41020563 0.05848336 0.17634484 0.3675204 -0.12801567 0.43145397 0.3280685 -0.18808587 0.054467984 0.025139304 -0.17806287 0.5214464 -0.4250129 0.15017097 -0.1632539 -0.31504762 -0.0678737 0.22479635 0.3488069 -0.26304376 -0.00598276 0.64767706 0.0472282 0.17425837 0.52658474 0.07971184 -0.20356719 0.08814394 -0.14881654 0.03339351 0.5076203 -0.03248393 -0.042929117 -0.3987126 0.19736305 0.26460752 0.26572704 0.09136641 -0.0909741 -0.23856227 -0.011875413 -0.056667987 -0.041449305 0.04493096 0.39534286
8 0.5750706 -0.32789522 -0.14076336 -0.16459215 0.24795963 0.3559094 -0.22856589 -0.07692 -0.2779528 0.2494748 0.17693247 0.19398874 -0.059431095 -0.36323988 0.56629735 0.71349466 -0.24094416 -0.073856235 -0.0016680931 -0.03053448 -0.53938293 0.0045772004 -0.06499462 -0.7830242 0.1506099 0.012468497 -0.2881219 -0.34284022 -0.10248243 -0.2351611 0.4870195 -0.39152613 0.35377613 -0.16328567 -0.4430375 -0.040956322 0.737443 -0.11978914 -0.18504599 -0.0357806 0.7314213 0.14990892 0.02384408 0.091551654 0.26176405 0.51931685 -0.11407267 -0.15138803 -0.29242846 0.1667818 0.0884498 0.25467345 0.26307595 0.1714335 0.09859262 0.25266185 0.17830372 -0.33927083 -0.091896184 0.46802425 -0.1965456 -0.4281614 -0.063720725 0.44379097 -0.0205147 -0.11202124 0.511633 -0.124344654 -0.4530983 0.44235778 -0.21402106 0.1372556 -0.30260596 -0.0978059 -0.2609159 -0.4919961 -0.28174958 -0.30596563 -0.55086523 -0.4626822 0.27934366 -0.17053601 -0.17276561 0.46378392 0.05375961 0.16959485 0.27543607 -0.08193817 0.5232527 0.34392136 -0.19127604 -0.007563671 -0.045610934 -0.15894388 0.5534355 -0.24029966 0.18682514 -0.036855634 -0.31611505 -0.059430264 0.3017073 0.33079237 -0.28567868 -0.092059925 0.6293538 -0.024587866 0.06794372 0.577336 0.08476829 -0.09251588 0.057243835 -0.16091107 0.038369406 0.5273609 0.010387991 -0.06731854 -0.4277912 0.21596445 0.27727237 0.32920036 0.06462567 -0.061256632 -0.2978674 0.08646254 0.0027050527 -0.053379923 0.0488648 0.4881238
357 -0.09005353 -0.31367725 -0.23915096 0.073789135 0.31237006 -0.2255474 -0.033603333 0.25437063 -0.47559524 -0.30187234 0.22222024 0.06796069 -0.0753264 0.13451509 0.6502302 -0.03462943 -0.4273317 0.23672149 0.16530384 -0.07075232 0.084056765 0.25688067 -0.06310363 -0.16128969 0.27666366 0.10282756 0.42245862 0.008111827 -0.2650064 -0.13440429 0.26234385 -0.5366737 -0.1764847 0.1015494 -0.08146927 -0.01319242 -0.038710486 0.10998095 -0.21950386 0.010634571 -0.39905506 -0.04104989 -0.1035199 0.13772939 0.24189107 0.1926073 0.22735624 -0.08809638 0.08037678 0.40545157 -0.1021909 -0.35187465 0.12901999 0.05987044 0.6482263 -0.032445177 -0.09109476 0.1308608 0.10422606 0.18819678 -0.24776395 0.10763358 0.023091856 0.23986782 0.3419598 0.13458993 -0.013484857 -0.22334328 0.0043390174 -0.20035388 0.089525536 -0.3110831 0.106600426 -0.28163138 -0.056486107 -0.37393293 0.26540482 -0.21117194 -0.1665847 -0.2541938 0.13472672 0.0063572647 -0.3389419 0.42334792 -0.2890296 -0.37057713 0.17480043 0.24102572 0.41761515 -0.29341033 0.15850623 -0.56753784 0.12559375 0.33054593 -0.04826377 -0.48434654 -0.43039474 -0.42882806 -0.3295655 -0.12697276 -0.2066401 -0.05878448 -0.26358125 0.083802186 0.37645584 -0.32064113 -0.5996915 -0.2908482 0.15250316 -0.15198988 -0.11108978 -0.06808026 -0.01333145 -0.3671126 -0.20774806 0.019917766 -0.027122386 -0.20299129 0.026751759 -0.38774747 0.034707375 -0.33208135 -0.10159949 0.38824603 -0.5793742 -0.34865943 0.05000143 0.17256641
294 -0.14905588 -0.26184535 -0.27178484 0.08899287 0.30959597 -0.24018808 -0.039173707 0.3280376 -0.3896554 -0.34409472 0.25941998 0.13172911 -0.14941745 0.12302577 0.67283267 -0.070530415 -0.37200782 0.31408238 0.19177715 -0.0069069224 0.110412255 0.19292118 -0.046751194 -0.2206862 0.21783213 0.05182833 0.34301263 -0.0521586 -0.32515934 -0.08779006 0.26706234 -0.4963115 -0.10224295 0.1604312 -0.068880096 0.09735533 -0.0703811 0.18513373 -0.1087421 0.034140814 -0.38666508 0.020398395 -0.13727725 0.26745117 0.22059208 0.18403403 0.16881382 -0.11530169 0.091308214 0.4556265 -0.15268274 -0.34516025 0.09445202 0.04849606 0.59634614 0.014835623 -0.11349725 0.22001366 0.12556313 0.21478955 -0.27519578 0.045534465 -0.04610547 0.29439598 0.43479764 0.12273666 0.088276654 -0.3257259 -0.023359612 -0.13478726 0.11031019 -0.2526243 0.1154628 -0.28859475 0.028032782 -0.39018887 0.2647057 -0.10413728 -0.22518061 -0.20611255 0.2497562 -0.056445364 -0.35610327 0.3625804 -0.35501584 -0.32420537 0.13651003 0.2230848 0.4469672 -0.3030823 0.24453153 -0.6172561 0.14369152 0.19691652 0.015079213 -0.4334874 -0.44118994 -0.44510913 -0.2991818 -0.18568696 -0.20894201 -0.023126729 -0.2020421 0.06925193 0.36017513 -0.39985147 -0.531704 -0.34359503 0.11082515 -0.19182983 -0.08113502 -0.1412267 0.04209597 -0.284594 -0.1715082 -0.05408962 0.039744142 -0.22064617 0.12511896 -0.33223942 0.058124263 -0.3433547 0.028117847 0.44142324 -0.56645924 -0.33668578 -0.059826534 0.21297988
1045 0.0141765475 0.0823855 -0.27246132 0.14645444 0.6104832 -0.39199758 -0.022797324 0.58286905 -0.29501405 -0.14918177 0.15521634 -0.069404006 0.26444927 -0.39130095 0.6445805 0.24337716 0.10928639 -0.10569106 0.11627817 0.0077593997 -0.24943563 -0.03140155 -0.07830265 -0.39284497 0.6978353 0.2524667 0.3007443 0.0050938986 -0.19508027 -0.23193958 0.30489624 -0.2328591 0.1432151 0.22089663 -0.3130989 0.17028236 -0.04985142 -0.20066863 -0.24963623 -0.010928044 -0.04089683 -0.18231016 -0.17955232 0.09996177 -0.1314541 0.21549806 0.20162123 -0.10841895 -0.014875161 0.20563063 0.011049604 -0.26517144 -0.36709955 0.05591824 0.7207936 -0.26888147 0.0068381736 -0.13004059 -0.013581077 0.2740393 -0.08896426 0.18586513 -0.120980375 0.074806295 0.49489903 0.37959653 -0.11485098 -0.14750758 0.25558367 0.11883717 -0.14566813 -0.13487059 0.1266712 -0.28469145 0.06321097 0.15566996 -0.19995695 0.04583115 -0.40381557 0.03951582 0.051637772 0.08284111 -0.11726406 0.3177992 -0.2014044 -0.12355278 -0.011084576 -0.11706519 -0.1199703 0.031474795 -0.20308259 -0.338472 -0.26107106 -0.17542545 -0.21349244 -0.07599886 0.17475384 -0.18741903 -0.09942076 -0.116527565 -0.36235106 0.009491567 0.21732602 0.042560607 -0.0010597716 -0.36025387 -0.53755003 -0.047258507 0.15597159 -0.5281193 0.028771412 0.034313694 -0.091328405 -0.6477344 -0.20786135 -0.57116485 -0.11491423 0.09588714 -0.28107873 -0.299683 -0.07453968 -0.4181069 0.19856764 -0.027903894 -0.9863009 -0.079778574 -0.02792459 0.46191007
697 0.04505246 0.0006687893 -0.3031176 0.25063595 0.6711288 -0.4530164 0.004393431 0.60017073 -0.1410902 -0.20417328 0.14877367 -0.057648733 0.19361052 -0.4173523 0.5740214 0.25338256 0.060716327 -0.17127286 0.11963178 0.04957745 -0.18058936 -0.17193079 0.015247091 -0.39922404 0.7521752 0.23911142 0.1976533 -0.055944975 -0.22250836 -0.22778012 0.31636685 -0.16007745 0.30097058 0.17151318 -0.33717623 0.2702036 -0.103358395 -0.236074 -0.28726584 -0.076960675 -0.062788494 -0.29419455 -0.06627786 0.13164353 -0.112572245 0.07694894 0.11872686 -0.12808129 -0.04788682 0.1594499 0.08700818 -0.21180741 -0.43829447 0.080270335 0.72487694 -0.18103479 0.045422304 -0.09060366 -0.10581924 0.21611594 -0.055515137 0.16608243 -0.013053006 0.027896747 0.44052494 0.31475505 -0.062385164 -0.28462043 0.28001654 0.08054841 0.013753771 -0.0310652 0.05652139 -0.357924 0.0090297405 0.20840114 -0.26960486 0.015849398 -0.42386568 -0.06626688 -0.05689021 0.047877196 -0.21620327 0.28298196 -0.22043192 0.002458753 -0.045286957 -0.1142087 -0.0345886 0.030332953 -0.21806546 -0.3916792 -0.16585258 -0.24784817 -0.20016596 -0.15693203 0.1685204 -0.21662702 -0.040682245 -0.11026011 -0.39669567 0.045481615 0.28559476 0.08438498 -0.11706985 -0.33055484 -0.5433101 -0.12473279 0.2266777 -0.43650812 0.053326156 0.021765683 0.07452736 -0.50712425 -0.27469552 -0.5242832 -0.102727994 0.17870195 -0.31218976 -0.264732 -0.11122173 -0.48910004 0.16215073 -0.025050318 -0.9969811 0.006696714 0.04685606 0.5507486
44 0.0820638 -0.17433055 -0.34356484 0.33244213 0.15126428 0.095911816 0.10927629 0.3727948 0.14440891 -0.29690808 -0.092939675 0.3207599 0.31565112 -0.068608224 0.38033047 0.5194386 -0.05534355 0.19301805 0.42414054 -0.18911494 -0.08538117 0.41951394 -0.1381902 -0.31458482 0.39750037 -0.19899893 -0.102592245 -0.09071526 0.017007137 0.18653873 0.06206798 -0.3512789 0.33857438 0.36930382 0.28577194 0.21286438 -0.2808051 -0.21966588 0.03547996 0.028760688 -0.047470637 -0.33658853 0.22906353 -0.3053176 -0.3486263 -0.31101874 0.06511116 -0.18611814 -0.124272265 0.27699086 -0.0042573973 0.055353824 0.12158146 -0.25017458 0.037710443 -0.014953525 -0.13889527 -0.17238533 0.026719932 -0.0024012488 -0.35157284 0.15610038 0.14323768 -0.23284858 -0.052118927 0.031230543 0.0008421949 -0.014264726 0.28491256 0.2077471 -0.10123421 -0.045560353 -0.097440735 -0.037958052 0.2306109 -0.003878483 0.059677307 -0.36095533 -0.08087148 -0.3332498 0.17966856 0.16384915 -0.3116762 0.09972941 0.018081278 -0.27129802 0.19087799 -0.14866605 0.0943727 0.18762663 0.2900001 0.05335855 0.04924864 -0.07899575 0.25741675 -0.43433315 0.40659687 0.33644873 -0.1690832 -0.23719141 0.33057716 -0.15153114 -0.1716442 -0.086737946 -0.11854671 0.04469382 0.027892878 -0.103579365 -0.13458107 -0.46662283 0.21878283 -0.17232831 -0.15994415 0.3339111 0.36224943 -0.16865246 -0.29921407 -0.48994622 -0.17846635 0.052466933 -0.10370192 0.1727374 0.10770903 -0.1713099 0.108823135 -0.044868037 -0.15030876 -0.16259083
700 0.08570188 0.02999067 -0.29197064 0.22037068 0.57368034 -0.41579488 0.004916596 0.61475617 -0.20385364 -0.1541694 0.12879854 -0.12503465 0.29304698 -0.40804246 0.52976644 0.23422252 0.1914021 -0.13150655 0.17252034 0.08707229 -0.15461792 -0.12692511 0.052322324 -0.41828597 0.73530924 0.18681733 0.3120815 -0.062319547 -0.32623386 -0.16589262 0.25343144 -0.27048972 0.19703731 0.19960766 -0.2852624 0.28524286 -0.051709972 -0.15256344 -0.17439418 0.06337216 -0.022330595 -0.20692469 -0.2009035 0.074895196 -0.1706202 0.12735358 0.09703314 -0.11748556 0.060879238 0.13969417 0.039843254 -0.29595485 -0.34762326 0.037425034 0.7249351 -0.2111578 -0.028908532 -0.18289492 -0.046436433 0.24426131 -0.11452296 0.17898779 -0.07023527 -0.02010245 0.48185083 0.30311623 0.014528809 -0.17794815 0.28965366 0.26198944 -0.20614967 -0.07796826 0.14807758 -0.33740503 -0.033557847 0.15033749 -0.2482243 0.094519384 -0.41653445 0.017260443 0.0065282444 0.09564227 -0.22707771 0.2734412 -0.25379744 -0.04548271 -0.07170064 -0.14047919 -0.045203816 -0.05407709 -0.28939247 -0.28382596 -0.117050625 -0.14594053 -0.20828362 -0.066455275 0.051900756 -0.3069613 -0.14384496 -0.044813197 -0.34236127 0.026446411 0.19692911 -0.039970864 -0.07714545 -0.39610225 -0.5957221 -0.11111513 0.2229271 -0.47826162 0.05528668 -0.016434534 0.037453637 -0.61381435 -0.13784045 -0.42716506 -0.09390289 0.07569401 -0.32103494 -0.15074535 -0.07130683 -0.43893915 0.18561037 -0.0598643 -1.0152386 -0.013820503 0.100658886 0.4650417
1665 0.6873142 -0.12529556 -0.30852944 0.39841384 0.047644112 0.31652302 0.060253885 0.07577355 0.123976156 -0.26919052 0.257386 0.08035487 -0.23675035 -0.18777914 0.22054629 0.026649663 -0.35903078 0.64334524 0.45684263 0.1775223 -0.06904919 -0.20607607 -0.041328136 -0.03819015 0.5432706 -0.37356555 -0.083682835 -0.5318091 -0.5717036 0.34029552 0.48859143 -0.10317503 0.13896723 -0.09307413 0.08549299 -0.28283167 -0.12347473 -0.15556186 -0.29403192 -0.14988369 0.008936934 -0.42432305 0.048378307 -0.21636173 -0.09999513 0.047590602 -0.10943199 -0.22083429 -0.37617674 -0.15478975 0.0053889896 -0.21706049 0.20514756 -0.28183123 -0.33027077 -0.4292522 0.14581569 -0.1983895 -0.1983793 -0.05507902 0.09161121 -0.27394372 -0.5989295 0.39487702 -0.058674444 0.18770835 -0.09728226 0.060814478 -0.05765198 0.094364196 -0.030286059 -0.13752641 -0.14576884 -0.026456652 -0.72717595 -0.31827322 -0.5366438 -0.13408332 0.19716917 0.018124426 0.4737328 -0.27326202 -0.056723546 -0.30130446 0.50677097 -0.09179569 -0.16180597 0.1697454 0.120450325 -0.019509915 -0.04350442 -0.41115332 -0.30318767 0.23193213 -0.21397337 -0.13895306 -0.014205618 -0.024026781 -0.13560013 -0.3432279 0.89025843 -0.15671168 -0.1857597 0.001780664 -0.014290743 -0.15792245 -0.1242319 -0.13849747 0.03164678 0.00025112455 0.5995975 -0.13003032 0.4660068 -0.3325085 0.19930586 -0.33082741 -0.1765857 -0.2692082 -0.22840078 -0.29386044 -0.16192918 -0.31378955 -0.3075739 -0.3346284 -0.30053347 0.4368006 -0.28953287 0.4385707
24 0.21534401 -0.2526539 -0.5343372 -0.24013266 -0.029828615 -0.051607817 -0.1068549 -0.01029202 -0.35057274 -0.078796655 0.07568929 0.043242887 0.3130813 -0.26960495 0.6314031 0.19071251 -0.18720771 0.094516136 0.605553 0.41953263 -0.028961262 -0.0835244 -0.018702868 0.10494399 0.15837273 0.017520588 0.24540459 -0.36445364 -0.37148577 -0.4519976 -0.23033881 -0.62685466 0.22652982 0.66535276 0.22938973 0.35178554 -0.17831272 -0.061410587 -0.13678908 0.107419334 -0.21337341 0.13105726 -0.1965939 0.1657421 0.10751461 -0.009840394 0.09342413 -0.17314476 -0.14364895 0.3517571 0.12659372 -0.084638536 0.07534111 -0.114783466 0.39620817 -0.3090053 -0.06297704 0.21612704 0.12144835 0.31376538 -0.45370355 0.03357813 0.3187856 -0.07021801 0.11984184 0.2123921 -0.055850334 -0.39300832 0.2480074 -0.5799673 -0.11186359 -0.43077698 0.13787542 -0.023661627 -0.27824983 0.13360572 0.5132362 -0.43291456 -0.5633606 0.26096395 0.08749616 0.08272872 -0.2537536 0.33413222 -0.17053597 -0.15057445 0.28071606 0.13072062 0.3747028 -0.40550798 0.42169216 -0.41181105 0.24282515 0.43697906 -0.28192082 -0.034629036 -0.3741022 -0.25311372 -0.21255672 -0.34012315 -0.18437019 -0.47626987 -0.002910666 0.08976743 0.5081305 -0.14847139 -0.52774984 0.36860165 0.20533265 0.24976908 0.0839224 -0.24038833 0.18311492 -0.31269476 -0.32627395 0.036561687 -0.12367512 -0.09494224 -0.16865149 -0.12463159 -0.23618047 -0.61530834 -0.33181044 0.37557673 -0.7863448 -0.072568335 -0.19505654 0.16420157
347 0.30720016 -0.14754915 -0.046705496 0.20149703 0.045380965 -0.064419605 -0.044238456 -0.006665342 -0.23324184 -0.3729983 0.5230162 0.119123556 0.19724418 -0.05140906 0.6947317 0.1435982 -0.16833207 -0.24229415 0.21093366 -0.19294316 -0.180742 0.22196054 0.046636026 -0.45011473 0.5051306 -0.022397816 0.15454149 -0.43985566 -0.117618695 -0.2660598 -0.2956399 -0.44678837 0.4564114 0.03397375 0.07938603 0.40205804 -0.2215343 0.30813783 0.22469032 -0.07458416 -0.38692158 -0.039061554 -0.18001334 -0.21576616 0.26732567 0.34136954 -0.4249615 -0.46549717 -0.0380702 0.17980772 0.13294631 0.27155188 0.45903763 -0.018886367 0.13032433 0.14876755 0.24641435 -0.30544275 -0.22164051 0.26517096 0.25680235 0.14030065 -0.029167494 -0.14686672 0.20835815 -0.04982034 -0.02018567 0.052313775 0.060403895 0.10157523 0.23212966 -0.44521293 0.20209132 -0.07731064 0.10715223 -0.28106895 0.04148156 -0.49551788 0.2570956 0.17956243 0.21141452 -0.22380184 -0.36943707 0.280429 0.088250324 -0.1555755 0.31332484 0.34083834 0.40178123 -0.16521846 -0.30085313 -0.22844465 0.36273423 -0.14016362 -0.27484772 0.24010809 -0.14229912 -0.5643863 -0.21291889 -0.4175677 -0.09570515 -0.04659164 0.30820358 0.3766234 -0.17712124 -0.5935496 -0.3350862 -0.17184398 0.21732943 -0.08773365 -0.02716436 -0.09882597 0.40934613 -0.30117702 -0.40862975 -0.33097374 -0.24140272 -0.056446172 -0.05903152 -0.4391746 -0.099445745 -0.39240798 -0.29626688 0.23961231 -0.34041172 -0.28627816 0.3919517 0.056408733
15 0.12260861 -0.075014465 -0.43736404 0.30341813 0.13875528 0.08046725 0.10320223 0.23517491 0.124437846 -0.26927033 -0.14814809 0.25096694 0.38624585 -0.019838678 0.41427422 0.49745008 -0.037608672 0.29190108 0.37705454 -0.29228038 -0.04204547 0.3999829 -0.16519353 -0.1275746 0.4565659 -0.23462956 -0.18603092 -0.16376364 -0.041475154 0.05353485 0.21263352 -0.29207653 0.56685346 0.21474287 0.15313761 0.29243475 -0.2610746 -0.22415051 -0.004756925 0.11083581 -0.121569656 -0.2810905 0.15754752 -0.33711603 -0.42361262 -0.30109143 -0.04382868 -0.08393651 -0.0768539 0.25483254 0.02720673 0.035743997 0.1032085 -0.21334146 0.095358305 -0.061746772 -0.12290913 -0.1915721 0.08830201 0.020195525 -0.17128047 0.19095 0.15291387 -0.13385749 -0.05639408 0.013566689 0.007895476 -0.09143463 0.31168264 0.09754549 -0.104907535 -0.023342192 -0.11706332 0.03255276 0.26995167 -0.20087835 0.059691656 -0.26052794 -0.008751803 -0.2694334 0.13978308 0.17568298 -0.20976795 0.06981426 0.11814459 -0.3408548 0.21783485 -0.21063818 0.17383721 0.31071317 0.26310524 0.09013054 0.028762575 -0.13141292 0.34594157 -0.4280354 0.39634678 0.42380637 -0.1845616 -0.3106642 0.31848812 -0.14283258 -0.3303265 -0.056039833 -0.12487138 0.018727832 -0.06050087 0.026776686 -0.20943473 -0.5215358 0.23050492 -0.09920174 -0.21172984 0.37221202 0.2575638 -0.112420134 -0.2741293 -0.3902131 -0.13540985 -0.01582266 -0.008743879 0.17577693 0.01863391 -0.20983322 0.105496705 -0.060554408 -0.12943669 -0.27216178
104 0.20408681 0.20693707 0.09498202 -0.16587636 0.04284621 0.32821035 -0.028394757 0.15898795 -0.3292531 0.092858635 -0.060292535 0.4589119 -0.00020187486 0.20695198 0.32418713 0.1837148 0.1918279 -0.004587623 -0.037090607 0.06349302 -0.15804975 -0.101610705 -0.27915365 -0.015885962 0.42641303 -0.21430074 0.20930222 -0.25565708 0.13072209 0.6035953 0.02100028 0.19904295 0.28525367 0.13122034 0.4225199 -0.0057779117 -0.015731484 0.22221129 -0.10099328 0.016202178 -0.22595902 -0.14227766 0.2154012 0.18564138 0.071812205 0.11831383 0.32846132 -0.28497553 -0.55024844 -0.030219354 0.6265053 -0.112951405 -0.23453179 0.34671012 0.41862553 -0.18232478 0.49375477 -0.14213791 -0.056073524 0.5620635 0.119453795 0.07776817 0.18120451 -0.16562769 -0.42020017 -0.21970299 -0.33610544 -0.3213441 -0.11844101 0.45238483 -0.26575297 0.015396317 0.01725 0.19576299 -0.11083953 -0.024874298 0.27571395 -0.48819178 -0.053836025 0.070187114 0.0675586 0.0016754759 -0.087910846 -0.105695546 0.39289644 -0.07358536 0.25533277 0.3043444 -0.15656894 -0.0538917 -0.45512182 -0.60139763 0.4832516 -0.102363236 0.86564463 -0.01795314 0.21249683 0.3653303 -0.64370024 -0.16270182 0.026982643 0.35384908 0.010614327 -0.10638986 0.16878471 0.0059594605 -0.47874293 -0.033663433 0.3016565 -0.5131506 0.35654575 -0.10976277 0.3272487 0.112588115 -0.01555123 0.0786735 0.12767026 -0.11248507 -0.16985519 0.3052163 0.26851484 -0.3506355 0.059044823 0.01903135 -0.3830908 -0.28620848 -0.044394482 0.011386676
399 0.21967132 0.22304021 0.17054524 -0.073564075 0.11770772 0.33357763 -0.095224485 0.2096158 -0.38499415 0.023730341 -0.029482365 0.4267302 0.025940126 0.10086142 0.36236137 0.15952696 0.22765385 0.10457122 -0.10649657 0.03636228 -0.0006517278 -0.18830438 -0.28596938 -0.036797866 0.32112876 -0.26347423 0.17424592 -0.31969792 0.14771631 0.7330061 -0.05094935 0.22723182 0.22344796 0.2058312 0.1933923 0.035511862 -0.07925889 0.29350954 0.13440786 0.034448713 -0.21440996 -0.128196 0.23861067 0.18244985 0.08136867 0.111915834 0.3620585 -0.31573322 -0.5858152 0.08399745 0.6387446 -0.18450987 -0.34481847 0.2099892 0.3610784 -0.16159545 0.5128502 -0.15634441 -0.10221398 0.5291896 0.17444034 0.01382478 0.23541616 -0.09763078 -0.3123876 -0.29122993 -0.2257926 -0.41129234 -0.14136146 0.51338506 -0.18513276 0.018671297 -0.011496624 0.13790366 -0.054366697 -0.1608095 0.32615808 -0.4324859 -0.045313355 -0.040362835 0.05761551 -0.077934906 -0.16864678 -0.07502012 0.30669692 -0.04911736 0.2878451 0.28746325 -0.102179274 -0.018905628 -0.42485857 -0.53260446 0.5183718 -0.12022182 0.83277804 -0.02926584 0.15435046 0.42955485 -0.6327606 -0.10208924 -0.011258645 0.26469433 0.103808835 -0.024223536 0.17273012 -0.010012814 -0.50529945 0.040155336 0.34521383 -0.47521424 0.32942936 -0.09523906 0.2849006 0.14585684 0.06082168 0.13686672 0.093903564 -0.13744979 -0.1734601 0.35668102 0.2323555 -0.29687515 0.0068239956 0.080900125 -0.38006365 -0.14656377 -0.057129186 0.05758948
16 0.10561018 -0.12638475 -0.4060742 0.25426298 0.15721068 0.15448233 0.13019092 0.4807039 0.07237286 -0.43916157 -0.14188908 0.17492239 0.36001533 -0.07564614 0.4839581 0.49152058 -0.08291274 0.3183945 0.31905875 -0.30468705 -0.032594457 0.36835763 -0.2122894 -0.14871709 0.3956858 -0.33725986 -0.060976736 -0.07705712 -0.025836283 0.05921393 0.16829324 -0.30071133 0.48675945 0.117304765 0.15496929 0.26400214 -0.2037873 -0.112266056 -0.05857852 0.13604836 -0.03823465 -0.2630984 0.09486548 -0.34485474 -0.34306815 -0.36121932 0.05493345 -0.18239307 -0.17147028 0.13894305 0.08342101 0.10557365 0.12697236 -0.32745546 -0.06064929 -0.006107245 -0.08936098 -0.12082515 -0.026451457 -0.016035417 -0.24457923 0.2147744 0.13739863 -0.14250776 -0.19778493 0.033167403 -0.015553177 -0.19141768 0.31090486 0.19954015 -0.040882837 -0.18494864 -0.10909227 -0.074022114 0.30899498 -0.18662608 0.063150436 -0.32422945 0.02150624 -0.25690594 0.2241675 0.17677899 -0.2600821 0.00997192 0.08885206 -0.31230563 0.15270312 -0.26191515 0.1898354 0.29981276 0.2625817 0.07947242 -0.062778816 0.024781583 0.39140177 -0.35551938 0.40204254 0.4388872 -0.119547985 -0.30886793 0.30611205 -0.18124124 -0.26046303 -0.07121144 -0.032043412 -0.035538416 -0.022893008 0.015483861 -0.1506917 -0.50406194 0.2460797 -0.060998052 -0.26510614 0.37686276 0.21803501 -0.26772454 -0.21772565 -0.49322736 -0.14141777 -0.04706759 0.08644061 0.18138756 0.082355425 -0.13229032 0.17288582 -0.09707922 -0.2501433 -0.27624336
48 0.22122462 0.18201423 0.15499365 -0.061417364 0.10867741 0.28788695 -0.05128647 0.31817746 -0.26337087 0.06591186 -0.017289305 0.50066864 -0.002226551 0.1277863 0.31285837 0.18860218 0.2408685 0.019806514 -0.085827425 0.08581182 -0.06970945 -0.09934725 -0.31005782 -0.050038856 0.39704567 -0.19070701 0.20848517 -0.2697284 0.07811701 0.6855152 0.016679075 0.19456714 0.2114172 0.16027792 0.30545467 -0.01487398 -0.01649693 0.32941967 0.025713623 0.06487691 -0.19919248 -0.06975896 0.28387547 0.19597343 0.10707416 0.12623766 0.32890663 -0.3899953 -0.5124658 -0.021823935 0.6604511 -0.12801644 -0.37949458 0.27556998 0.27664384 -0.19892709 0.52770156 -0.0900827 -0.079861045 0.52946967 0.12367989 0.04349666 0.15747331 -0.12701167 -0.36731628 -0.31075355 -0.34435993 -0.331823 -0.12023675 0.50155103 -0.24400021 -0.033913564 0.018459937 0.14653839 -0.07368908 -0.07257892 0.30120462 -0.50404793 0.014068623 0.06493585 0.019920731 0.002685988 -0.11337826 -0.090456836 0.3309599 -0.066489324 0.31145763 0.29089788 -0.07088557 -0.026402604 -0.44406572 -0.52903223 0.46865168 -0.1438259 0.76484144 -0.008665413 0.13521914 0.4809895 -0.54608023 -0.17023231 0.068360895 0.34379882 0.018425457 0.022020172 0.1898884 0.037750524 -0.51865023 -0.018250545 0.28119004 -0.50805444 0.35672852 -0.089394934 0.3656927 0.16313708 -0.029185152 0.15108642 0.067655995 -0.07035887 -0.18927753 0.34252185 0.31024274 -0.2712823 0.08084828 -0.07238231 -0.43375772 -0.26736602 -0.09838267 0.087395094
13 0.12744997 -0.10042427 -0.44637555 0.20268944 0.22622617 0.097187705 0.09983547 0.36435503 0.14237183 -0.33300602 -0.1946672 0.10276948 0.28118742 -0.14579137 0.45831007 0.48668942 -0.113018595 0.35392764 0.3625123 -0.16783935 -0.02865491 0.4186099 -0.18820377 -0.23517056 0.3721766 -0.34809068 -0.1765221 -0.11557595 -0.03946098 0.07670544 0.08069671 -0.2892608 0.49856216 0.24253374 0.1894304 0.31289777 -0.3020612 -0.21899633 -0.018274225 0.20794888 -0.010778392 -0.2401594 0.028002726 -0.21792302 -0.3389436 -0.41169956 0.0022088871 -0.13739647 -0.07812129 0.19115059 0.063258335 0.06609037 0.050429605 -0.3680042 0.0064346055 0.010742023 -0.024991183 -0.14717467 -0.038307574 -0.033103928 -0.16575585 0.1128502 0.10294646 -0.092059284 -0.046754014 0.041759163 0.016381495 -0.11842956 0.26262182 0.15990518 -0.10787807 -0.24318314 -0.080612525 -0.013346254 0.25939983 -0.13353494 0.07807596 -0.33463755 -0.13804756 -0.238124 0.18090911 0.18535373 -0.4181434 -0.04287084 0.120345935 -0.2844126 0.1887947 -0.1853465 0.19371709 0.29596958 0.20521018 0.12416652 -0.070245355 -0.042984024 0.37477604 -0.37485197 0.47059348 0.4621399 -0.20824108 -0.34721473 0.33155698 -0.08680858 -0.23146383 -0.05406594 -0.11387571 0.012227718 -0.028812805 -0.07232118 -0.1425479 -0.4792751 0.1952673 -0.16707343 -0.26057234 0.4050604 0.2374845 -0.1349491 -0.19889054 -0.5374371 -0.12759463 -0.057611044 -0.030413512 0.17846301 0.18592617 -0.07221141 0.20089717 -0.10490473 -0.21404403 -0.25999027
34 0.16245578 0.21053848 0.16546227 -0.07925383 0.050277844 0.3313377 -0.11510156 0.22748533 -0.36550483 0.020211121 -0.0151023045 0.426011 -0.021313284 0.08852597 0.29057866 0.152845 0.17944002 0.13101943 -0.095356815 0.04970354 -0.06961265 -0.11793768 -0.2681552 -0.019504037 0.41011527 -0.17739958 0.15443896 -0.28578296 0.112400874 0.7239315 -0.06985539 0.16031784 0.24356538 0.2148002 0.29633415 0.033061214 -0.009776859 0.2823528 0.088638544 0.057696264 -0.2180042 -0.09684154 0.24533778 0.20263664 0.058452494 0.1284272 0.3339322 -0.27349696 -0.5544344 0.054297 0.6251017 -0.11565382 -0.3574614 0.3017285 0.36698478 -0.11240602 0.56613594 -0.10781576 -0.11605469 0.47787565 0.12351947 0.0151040545 0.18623632 -0.15285803 -0.27246848 -0.33109728 -0.31496662 -0.36355054 -0.20005654 0.50557566 -0.29553536 -0.012868353 -0.10108954 0.12596868 -0.027035367 -0.16684659 0.27644822 -0.43098137 -0.03983625 0.040123574 0.024130205 0.119681485 -0.10799568 -0.12125932 0.32964844 -0.056812882 0.2839119 0.367687 -0.083270155 -0.021924464 -0.42396626 -0.5861442 0.50017035 -0.097470045 0.81009454 -0.012351648 0.11275738 0.45706883 -0.6576021 -0.19424365 0.077145286 0.37517583 0.07227847 -0.032330215 0.24733572 0.045398306 -0.5153555 -0.026973885 0.32896537 -0.5110601 0.33538014 -0.091568135 0.30440077 0.13718615 0.019113543 0.12924796 0.06250153 -0.09286272 -0.19613038 0.32213065 0.18117577 -0.30018488 0.09969473 0.029968798 -0.36252296 -0.2097226 -0.076717004 0.027811961
244 0.31172118 -0.27460936 -0.18259543 0.22832677 -0.15960503 -0.10403314 -0.094256334 0.1427719 -0.22619599 -0.34791255 0.5360226 0.16048487 0.11891155 0.008774633 0.6962213 0.28577477 -0.09449894 -0.30506313 0.08594404 -0.1841173 -0.28523478 0.19541614 -0.1377699 -0.45138308 0.3666076 0.21392515 0.1506498 -0.5419821 -0.20485452 -0.23163846 -0.22455181 -0.213383 0.44173414 0.02353206 0.050702106 0.30244887 -0.21481013 0.16689597 0.3093202 -0.0030956012 -0.37068996 -0.023277445 -0.3170809 -0.12064332 0.107157424 0.4467035 -0.26560855 -0.46172267 0.0798137 0.2997011 0.21026099 0.3224605 0.5605072 0.08802355 -0.041231968 0.30794546 0.36981663 -0.21576692 -0.1998798 0.394995 0.41536987 0.10228786 -0.11345164 -0.30320022 0.27916196 -0.08377637 -0.21483462 -0.0098321065 -0.03119651 0.21955404 0.014671113 -0.39267522 0.18412708 -0.2868583 0.17863734 -0.40874612 0.16861296 -0.47322235 0.1718221 0.352772 0.18301179 -0.10560881 -0.35963717 0.21049145 0.082375176 -0.19051315 0.2911202 0.15949737 0.38352904 -0.10263709 -0.16511916 -0.17323779 0.31207356 -0.06297536 -0.4391936 -0.046148654 -0.14726768 -0.63804126 -0.121647015 -0.16874813 -0.17338355 -0.11918203 0.38816622 0.286439 -0.0019426744 -0.41169795 -0.31406248 -0.19089729 0.18891165 -0.12551229 0.06446179 -0.21322824 0.31748238 -0.3209363 -0.47478193 -0.13466468 -0.31254858 -0.4064925 -0.09457301 -0.3789403 -0.09177107 -0.27445626 -0.40239003 0.17771815 -0.22871503 -0.21157716 0.20902923 0.21719433
1 0.13998823 -0.11377345 -0.44370553 0.20469625 0.19528995 0.0826055 0.025240853 0.31774166 0.08382751 -0.18769488 -0.16610979 0.036549762 0.31448987 -0.122893296 0.48085743 0.53430873 -0.14547542 0.23670329 0.3950845 -0.40641809 0.009779151 0.3788958 -0.23113605 -0.07818964 0.41079062 -0.31034714 -0.13843621 -0.1666349 -0.014874283 0.117949106 0.19494936 -0.29991326 0.4718284 0.2695945 0.23243263 0.24582396 -0.22591251 -0.1407502 0.09094344 0.25670713 -0.019740375 -0.2898078 0.012143677 -0.30090517 -0.36665693 -0.2938514 -0.095684 -0.16392629 -0.05827171 0.20201756 0.07984228 0.13118088 0.0626928 -0.27790856 -0.07287469 0.008217961 -0.1329128 -0.10777914 -0.04282125 -0.020058509 -0.17686495 0.17376043 0.17552887 -0.17728403 -0.116834916 0.06105771 -0.11146572 -0.09088286 0.3439106 0.14691666 -0.037359808 -0.12404948 -0.11812013 0.04936521 0.23288538 -0.15170372 0.06531679 -0.267708 -0.0029681055 -0.33536214 0.15483475 0.28312358 -0.276826 -0.013503026 0.14185143 -0.31227702 0.184424 -0.22401622 0.23118728 0.21621011 0.24890395 0.03166045 0.049741533 -0.061975494 0.38056037 -0.40392795 0.3976774 0.36236528 -0.21710609 -0.4285349 0.32731447 -0.13593924 -0.20948966 0.02116813 -0.035964437 -0.017757414 -0.036102198 -0.09739396 -0.22578375 -0.5442915 0.20953351 -0.014231214 -0.27550244 0.35732117 0.19239314 -0.13633041 -0.23580706 -0.32892397 -0.14660078 -0.040425554 -0.09056778 0.12548149 0.075541094 -0.3187964 0.16587831 -0.11472432 -0.18786891 -0.25644767
95 0.20074788 0.2465708 -0.039825633 -0.03285189 0.1275923 0.33250892 -0.03361148 0.16784282 -0.34397435 0.030019972 -0.0604151 0.4186525 -0.08200384 0.10871143 0.30603373 0.098451786 0.23171796 -0.054763295 -0.027066834 0.03646551 0.028200286 -0.11406263 -0.36416864 -0.06999498 0.34466684 -0.19033742 0.36396092 -0.2674042 0.11290743 0.6976668 -0.01715114 0.15819159 0.2109278 0.17970401 0.31466737 -0.044668317 0.021754958 0.23023488 0.09621896 0.063908 -0.23673722 -0.056720763 0.35851663 0.13564152 0.1351506 0.17439681 0.3245874 -0.2851816 -0.5201633 0.03327569 0.67243266 -0.076448746 -0.27620745 0.2969251 0.36194894 -0.047743678 0.55584264 -0.15163277 -0.13900661 0.53176373 0.20807357 -0.02105557 0.22360103 -0.19979009 -0.35615504 -0.23750676 -0.36392394 -0.37719998 -0.20664997 0.51252043 -0.09385534 0.07430095 0.025113625 0.19332777 -0.20605211 -0.07949993 0.3704074 -0.5065484 -0.09656374 0.029425249 0.14455 0.078467585 -0.20234716 -0.07242696 0.30949524 -0.06291891 0.29462576 0.28848323 -0.11275286 -0.13614377 -0.46447942 -0.57826436 0.47890314 -0.053737022 0.82844484 -0.10909883 0.2380585 0.38388416 -0.44190094 -0.22601284 0.05444039 0.33084002 -0.0074313646 -0.0027081154 0.15291685 0.01776576 -0.44886854 0.0039165765 0.425223 -0.45321804 0.4155918 -0.08116924 0.20290436 0.1900114 -0.0055908435 0.16514893 0.16577281 -0.11054771 -0.11647796 0.3708833 0.16613999 -0.3647917 -0.0064458866 -0.024416782 -0.36044502 -0.20551422 -0.1429774 0.04029213
21 0.34138697 -0.24220969 -0.18446852 0.20125921 -0.08505789 -0.059193533 -0.02812457 0.09811561 -0.23252657 -0.4368173 0.50347954 0.17215814 0.19723265 0.08995578 0.7038148 0.21935223 -0.13743968 -0.2188439 0.0694237 -0.22500916 -0.21643716 0.2140433 -0.12271976 -0.3995653 0.34372038 0.03854338 -0.02314736 -0.38088277 -0.04628323 -0.22028376 -0.037049804 -0.18272303 0.30905727 0.09180758 0.1344428 0.39704466 -0.22983038 0.15162167 0.173364 0.069749594 -0.2528739 -0.14119267 -0.37485594 -0.20322935 0.19553058 0.54468983 -0.23942417 -0.5210438 0.010386855 0.1851004 0.13423014 0.35258165 0.57222646 0.062475577 0.02946373 0.24358061 0.3740951 -0.19179548 -0.12576503 0.28561428 0.23760542 0.32560214 -0.11777616 -0.24244964 0.3618041 0.063588105 -0.19125555 0.060223673 -0.10459292 0.32112223 0.02608116 -0.27332515 0.17078605 -0.153815 0.21888202 -0.30441296 0.16619256 -0.44844377 0.13031414 0.31912926 0.21981336 -0.25486803 -0.458759 0.31703722 -0.07965994 -0.044946622 0.34787643 0.09352822 0.36756 -0.24374524 -0.18718266 -0.17706825 0.30129042 -0.08537932 -0.29413074 -0.06945888 -0.20937064 -0.52482736 -0.17455238 -0.16595112 -0.164959 -0.15490036 0.40217453 0.3504153 -0.11931237 -0.55076605 -0.2521089 -0.07590309 0.051302005 -0.025123252 0.146109 -0.1580425 0.4358645 -0.28092837 -0.60732645 -0.20276581 -0.32757777 -0.2940945 -0.007829229 -0.4046217 0.060500514 -0.31002918 -0.42801228 0.1772169 -0.39761746 -0.18529975 0.3889321 0.22066155
171 0.14628795 0.22134072 0.04797038 -0.05856176 0.13099247 0.33240667 0.00913095 0.08206547 -0.43378752 0.051535185 -0.014916347 0.45245573 -0.06365981 0.105915524 0.342785 0.103142515 0.2603111 0.05636441 -0.012475544 0.024310643 0.002087215 -0.14304684 -0.391768 -0.044621862 0.30521858 -0.29614073 0.1833886 -0.29372436 0.038355183 0.70125294 -0.0063809976 0.18690734 0.11831315 0.12651384 0.2893379 -0.015208326 -0.014224798 0.20247938 0.057437323 0.035765335 -0.2874933 -0.17066295 0.30746913 0.097098134 0.21313985 0.121792935 0.29775688 -0.29544115 -0.48049384 0.10979817 0.6477588 -0.06949564 -0.2930351 0.24667165 0.39602625 -0.1883487 0.5015482 -0.21776012 -0.15894009 0.5178074 0.15100776 0.109289244 0.16875812 -0.20430647 -0.2915744 -0.27212057 -0.37425178 -0.3845444 -0.23788533 0.49777037 -0.14022066 0.07743251 0.00063234934 0.21337 -0.15594247 -0.0014533935 0.28571996 -0.547424 -0.092163995 0.023633264 0.061104298 0.053382944 -0.07745251 -0.035622835 0.3352647 -0.0956084 0.36525002 0.29376897 -0.19846629 -0.055348653 -0.48095956 -0.42578945 0.51216626 -0.22245644 0.8475595 -0.0876256 0.23591898 0.47501865 -0.5232038 -0.15873797 0.013950813 0.24064355 0.05419404 0.0017020006 0.19493124 0.019602308 -0.5097229 0.006565677 0.27956608 -0.4152777 0.4713489 -0.0024194135 0.2733614 0.21212178 -0.07425208 0.123932034 0.19699474 -0.13411807 -0.17229961 0.26886752 0.2793728 -0.36456433 0.07427495 0.01984835 -0.4455498 -0.22577175 -0.14408207 0.036170866
18 0.1385383 -0.08930904 -0.39983836 0.24850115 0.22901297 0.1502498 -0.019890884 0.27507657 0.07448518 -0.20619841 -0.14406656 0.24033354 0.34722987 -0.06898098 0.4823695 0.44930312 -0.1314577 0.2697162 0.34257647 -0.27485317 -0.0119833555 0.3415563 -0.22920518 -0.11615887 0.3490791 -0.34623185 -0.225275 -0.1850385 0.03262449 0.08143028 0.23194364 -0.32151166 0.46308172 0.19395114 0.23154621 0.27690995 -0.35118577 -0.15921138 0.03945575 0.19704393 0.029265761 -0.27971026 0.11689476 -0.3550715 -0.40025347 -0.30581528 -0.006682256 -0.16078055 -0.038172737 0.21330002 0.058944274 0.095263004 0.22519398 -0.26354778 0.07790226 -0.019848106 -0.14474334 -0.1878415 -0.0038039805 -0.11523307 -0.21720515 0.24159646 0.21352299 -0.19003956 -0.071872644 0.007942086 -0.09621675 -0.07458208 0.37132084 0.14467196 -0.10189936 -0.1524407 -0.1680554 0.0056139342 0.27936846 -0.13325362 -0.026893957 -0.3059687 0.014330659 -0.26863533 0.14267522 0.26576522 -0.22955847 0.036844935 0.16548583 -0.3153549 0.25257263 -0.11497814 0.18351535 0.29133657 0.20242396 0.1453289 0.014859175 -0.10448013 0.4429792 -0.4837443 0.347983 0.3511811 -0.2212534 -0.39014092 0.3432167 -0.17620684 -0.24354132 -0.007533628 -0.019742643 0.016082339 0.022361416 -0.11651012 -0.23969266 -0.5553716 0.25811103 -0.09412778 -0.20111932 0.3341057 0.19012845 -0.21134283 -0.22585037 -0.38331294 -0.12162736 0.010281284 -0.076170295 0.15011677 0.11875068 -0.26677588 0.07399648 -0.047614437 -0.13018234 -0.28861254
62 0.25772762 0.25317574 0.035800185 -0.05285918 0.093246005 0.24584979 -0.014787882 0.11330625 -0.40597418 0.061141938 -0.0077419863 0.48266193 -0.05919683 0.12087485 0.36707065 0.14859232 0.2463285 0.0017216033 -0.023577048 0.10768075 0.038014144 -0.056756206 -0.38520768 -0.014822475 0.24517767 -0.2908655 0.16004445 -0.31512812 0.050500542 0.63692063 -0.024985503 0.25114498 0.18437183 0.15815835 0.37769172 -0.010968232 -0.03588367 0.26720014 0.10494129 0.06880296 -0.23465125 -0.21958409 0.3338222 0.194256 0.23496532 0.13416353 0.31274754 -0.26627365 -0.5552673 0.045056574 0.64434624 -0.07917075 -0.30578887 0.25728777 0.4806827 -0.1201123 0.5437046 -0.13063258 -0.14917879 0.5056581 0.17271852 0.05943335 0.17782314 -0.18580107 -0.34767327 -0.27318695 -0.42684662 -0.35280436 -0.22874056 0.49470243 -0.15192258 0.11576149 0.057577614 0.17513892 -0.17532143 -0.06983492 0.29987988 -0.54958737 -0.106696464 -0.026215792 0.11734465 0.008345362 -0.14827114 -0.08922053 0.36914316 -0.084712535 0.323048 0.22064885 -0.14412771 -0.07545059 -0.4812218 -0.48674557 0.47169086 -0.21207756 0.8139828 -0.10224166 0.21830264 0.4509936 -0.5137662 -0.19226141 0.029967023 0.2414556 0.07919403 0.056154974 0.23311408 0.058833312 -0.5583545 -0.041207753 0.28770858 -0.4547813 0.40099612 -0.0745353 0.2908197 0.12755638 -0.006320425 0.08084515 0.17120692 -0.071061455 -0.18290167 0.27210024 0.24585842 -0.36072975 0.05590668 0.025134858 -0.4005967 -0.18325579 -0.12142744 -0.020726804
19 0.021974042 -0.110283 -0.51758385 0.21839343 0.16180062 0.08662463 0.015457773 0.2616815 0.038444553 -0.21320556 -0.06781053 0.22387901 0.3675048 -0.10535038 0.4530537 0.48642695 -0.12750034 0.2620361 0.36703932 -0.28120124 0.013322136 0.3402096 -0.2498944 -0.14049387 0.41866925 -0.3602599 -0.18024655 -0.16442332 0.01825651 0.10975645 0.2041864 -0.28828803 0.46539497 0.23146807 0.27600425 0.29107347 -0.24099207 -0.14287087 -0.059054844 0.19367889 -0.0015607906 -0.32909444 0.03530282 -0.303167 -0.41231373 -0.34573865 -0.053113844 -0.19695988 -0.0515926 0.27156743 0.0435453 0.13422951 0.047936417 -0.24772818 0.044368643 -0.025885485 -0.10181138 -0.22335817 -0.0150991455 -0.08742654 -0.16774951 0.2564201 0.084643684 -0.1617037 -0.026016656 0.109991595 -0.103495635 -0.108730264 0.26813856 0.15342934 -0.22365075 -0.098167956 -0.100594215 -0.019712582 0.24651079 -0.17954282 0.12000179 -0.3222428 -0.0002636579 -0.33049056 0.14148733 0.12874152 -0.29396203 0.006617656 0.1002887 -0.22392324 0.14998469 -0.20011568 0.27116093 0.36389777 0.3074992 0.101360105 0.0046959943 -0.11508612 0.29376543 -0.42475662 0.36353293 0.37742138 -0.18717209 -0.35771012 0.29550558 -0.12686634 -0.26343566 0.033617213 -0.062097408 0.10289293 -0.023158818 -0.09379585 -0.18933673 -0.5410909 0.33152747 -0.12033839 -0.22246845 0.31295928 0.24708469 -0.24320298 -0.1657553 -0.47303268 -0.15264441 0.0071780435 0.0029965157 0.18669364 0.11301957 -0.2013837 0.14980282 -0.07965455 -0.115517594 -0.33654547
35 0.13332091 -0.19693679 -0.18837243 -0.37408528 0.20192021 0.08235269 -0.39814577 0.30753553 -0.3330398 -0.30070353 0.2864982 0.55080986 -0.24963139 0.18077053 0.3654621 0.53513724 -0.29331586 0.17663369 -0.12750028 0.09162994 -0.24638323 0.070403256 0.06496692 -0.35259148 0.5294819 -0.5099252 -0.016499903 -0.2873138 -0.16023158 -0.09835282 -0.03869857 -0.27860916 0.20618524 0.037856583 -0.13848256 0.14279318 0.48904732 0.1424421 0.31598234 0.33627588 0.2827348 0.26063424 0.35780248 -0.073807545 -0.16685353 0.015685676 -0.0044524963 0.07368182 0.24251792 0.13105536 0.08263034 0.19931203 0.29956302 0.24103 0.068641186 -0.17290863 0.68342286 -0.36130682 0.31163645 0.35765785 0.022140194 0.10632929 -0.051934004 0.31485537 -0.11168732 0.16111603 0.29391786 0.24454953 -0.22664708 0.11670251 0.18771525 0.021679277 -0.9246102 -0.33080196 -0.27340358 -0.4830972 -0.4275977 -0.8097424 -0.59600836 -0.70344824 0.85385686 -0.50688666 -0.23835096 0.12405541 -0.09992492 -0.055392236 0.16219628 -0.45560473 -0.18295927 0.17595309 -0.27389017 -0.15258832 -0.05120051 -0.18594046 0.43754914 0.27355558 -0.08712743 -0.10341279 -0.42777374 -0.2592093 0.2334973 0.1735125 0.13578953 -0.02573952 0.43628985 0.59659654 0.38225055 0.1125311 0.24900475 -0.13686384 0.051590882 -0.16520149 0.41738722 -0.057373185 0.08590733 0.40203872 -0.0024254406 0.10298266 -0.27372003 -0.39821687 0.08494206 0.10277026 0.21279603 -0.26048908 -0.27650833 0.1349937 -0.45866504 0.23711729
389 0.11876401 -0.14111064 -0.4158987 0.2574546 0.18836366 0.11881768 0.042121995 0.29598168 0.0555275 -0.22611828 -0.06647811 0.23918441 0.406781 -0.019966992 0.5124857 0.4363498 -0.047489464 0.3427114 0.38367048 -0.31712458 0.0021126007 0.36843893 -0.15643509 -0.076401204 0.4809365 -0.26792592 -0.09897352 -0.14493217 0.07612537 0.11101761 0.27355033 -0.3092752 0.46967447 0.26215038 0.2579656 0.20315848 -0.24395329 -0.1783167 -0.074915126 0.24404564 -0.022504758 -0.29237914 0.072068475 -0.3287551 -0.3759126 -0.34784964 -0.017628921 -0.16344234 -0.06299966 0.2581504 0.061551724 0.14261141 0.09932935 -0.22311234 -0.045153964 0.07448753 -0.10041595 -0.30871767 0.09856191 -0.08226487 -0.312647 0.2541647 0.20723489 -0.2626144 -0.03197256 0.035433885 -0.08601608 0.009687696 0.3169904 0.19609131 -0.100423746 0.008592283 -0.0941109 -0.032405358 0.23113462 -0.113748156 0.15514085 -0.38172507 -0.041932687 -0.34710932 0.101345085 0.23962922 -0.2907738 0.09773196 0.11077467 -0.25172052 0.15701698 -0.11556903 0.21759675 0.32030457 0.26741114 0.052933473 -0.057787266 -0.055924673 0.33395088 -0.40062216 0.47806805 0.35750717 -0.26027307 -0.28677136 0.25557342 -0.16562943 -0.20507306 -0.042104576 -0.10531411 -0.035401825 -0.022318462 -0.09559439 -0.15722051 -0.45136762 0.2639856 -0.110976994 -0.2517388 0.40934137 0.24432462 -0.19502442 -0.2674262 -0.4782831 -0.06916285 -0.090249784 -0.047230724 0.13505387 0.1292099 -0.2822635 0.16898347 -0.0508459 -0.19453457 -0.18822397
69 0.10810581 -0.17292617 -0.2165902 -0.2545896 0.3044725 -0.030852078 -0.41588455 0.21138428 -0.2939807 -0.27709082 0.28476843 0.51001257 -0.24235955 0.21218081 0.3951945 0.5826882 -0.30536094 0.065639734 -0.16353643 0.10177878 -0.16137902 0.16610412 0.11275586 -0.34916276 0.51086557 -0.4850211 -0.022543004 -0.2650185 -0.25458986 -0.0453391 0.03608955 -0.2704602 0.22483845 0.078865565 -0.14163505 0.14186767 0.4783684 0.17214578 0.33615562 0.34200913 0.22214094 0.25298718 0.29725224 -0.15722555 -0.16809756 0.06574584 0.0788631 0.07527472 0.28215557 0.13326994 0.005325653 0.17555062 0.28292644 0.23035686 0.06517649 -0.14497286 0.55675656 -0.34977672 0.34570163 0.456542 0.028121328 0.12303025 -0.115290485 0.27657247 -0.121465355 0.09899937 0.24439752 0.2905387 -0.2593556 0.105562784 0.15435798 0.06841315 -1.0129255 -0.3305959 -0.17441578 -0.4551912 -0.42582625 -0.83093345 -0.5564314 -0.723812 0.9355143 -0.5371083 -0.26540735 0.11489984 0.011153422 -0.06489738 0.21606489 -0.48063725 -0.17358485 0.24077326 -0.31179342 -0.113101676 -0.017651012 -0.12088405 0.39018643 0.27817032 -0.15771934 -0.03730801 -0.3664905 -0.31605214 0.18558179 0.2052503 0.19710581 -0.10186038 0.53980786 0.57417524 0.390326 0.1705391 0.1402445 -0.18214563 0.063030705 -0.18310845 0.3988292 -0.045777865 0.058868505 0.42865518 -0.018073918 0.06198052 -0.19532849 -0.41481045 0.037265234 0.12799132 0.17730299 -0.2952695 -0.3068171 0.18453002 -0.4294229 0.2734883
131 0.18682927 0.16834916 0.2229685 -0.13632636 0.03861417 0.25506392 -0.20495938 0.18248023 -0.2656059 0.1691073 0.013220658 0.47268006 0.0067440122 0.12764864 0.36810324 0.19617715 0.20058255 0.1954212 -0.11878569 0.06271904 0.013115053 -0.13685267 -0.27172515 -0.09172686 0.37163052 -0.2114626 0.14374852 -0.3087569 0.2303557 0.73272264 0.08763741 0.14118323 0.24000686 0.16953996 0.2899559 0.004898795 0.0023258638 0.33254543 0.018953014 0.038727097 -0.2390486 -0.05815463 0.2545694 0.19472228 0.059149127 0.043765552 0.3778817 -0.27376962 -0.5468753 0.050375316 0.6461979 -0.11862032 -0.36683854 0.23020254 0.37225804 -0.106390126 0.4994723 -0.040367465 -0.06239779 0.5008792 0.11377969 0.22942251 0.24546723 -0.148422 -0.30192003 -0.30281526 -0.17215823 -0.33110455 -0.088107474 0.5421963 -0.22493745 -0.032850098 0.024418393 0.13016243 -0.043427017 -0.07499246 0.26973218 -0.4809635 -0.032070216 -0.011109054 0.045032308 0.01971858 -0.16016011 -0.12687977 0.34290645 -0.0082533425 0.1873447 0.38632804 -0.1435999 -0.024567848 -0.40050027 -0.51551354 0.54281443 -0.101868406 0.84299225 -0.07226686 0.099259704 0.3814126 -0.59115314 -0.15557139 0.06943215 0.43250054 0.03852702 -0.06955479 0.1600302 0.015410195 -0.4820317 0.018016184 0.21695812 -0.46562642 0.34834698 0.011758988 0.37207738 0.14017418 -0.071574226 0.13641088 0.028408129 -0.17053044 -0.20165977 0.27106437 0.22242114 -0.3689966 0.15517785 -0.06285919 -0.4306804 -0.2668588 -0.030902293 0.11382808
237 0.18120608 0.237476 0.22432996 -0.11418579 0.085735105 0.2501323 -0.09671775 0.2027763 -0.28372842 0.111573786 -0.052161817 0.47342905 -0.064123236 0.052854612 0.32779026 0.22609784 0.23181076 0.2124973 -0.1975959 -0.013034143 0.012963514 -0.11883791 -0.30955836 -0.11228253 0.37018245 -0.1910109 0.19306998 -0.37274027 0.08893964 0.65593106 0.0029960764 0.11966622 0.20146495 0.16524471 0.28218943 0.0444008 -0.023655787 0.39085588 0.076189406 0.059347715 -0.20412132 -0.13723665 0.29277104 0.18366829 0.0788096 0.122692615 0.3658134 -0.32267871 -0.56482375 0.06575247 0.67436445 -0.22057651 -0.35145256 0.23524286 0.3152785 -0.17782995 0.46596202 -0.069149986 -0.04922041 0.48532134 0.09547187 0.14924611 0.17331606 -0.036301896 -0.22720486 -0.35746485 -0.28271782 -0.43078128 -0.10650916 0.5387188 -0.33036187 -0.11297762 0.004073919 0.12732096 -0.011095731 -0.18813346 0.23392703 -0.46515045 0.0066588717 0.036256533 0.026470918 0.015235062 -0.060695253 -0.05748797 0.31206492 -0.0073978086 0.26345554 0.29748937 -0.16504474 -0.02814647 -0.42165843 -0.6256069 0.53334737 -0.109627016 0.80187964 0.025419686 0.052298464 0.5204978 -0.69232917 -0.16487446 0.063508905 0.3558813 -0.010625703 -0.13247374 0.25930542 -0.038364332 -0.49059048 -0.018859113 0.24096026 -0.5002096 0.34743023 0.022127992 0.39950728 0.10125991 -0.0033823869 0.13377601 0.087455146 -0.16517784 -0.2780675 0.31095347 0.23783484 -0.3287542 0.14328 -0.043753006 -0.3902395 -0.29244223 -0.0862366 0.097268514
205 0.18424186 0.29271567 0.19381279 -0.20054056 0.07034239 0.22729531 -0.14692765 0.21314216 -0.29153147 0.05577761 -0.00090889883 0.46554577 -0.021745613 0.14426942 0.35971698 0.24581017 0.23288284 0.16822185 -0.09704883 -0.016780501 0.02610456 -0.15387683 -0.21915482 0.01028177 0.38726208 -0.13743186 0.13470958 -0.3107212 0.14478302 0.685467 0.053109426 0.20269093 0.30220768 0.20852269 0.30516928 0.011978004 0.07181365 0.31423745 0.034062035 0.038720787 -0.19078252 -0.09355001 0.22770695 0.23585209 0.09126534 0.09876839 0.35910556 -0.2716151 -0.5940154 -0.016493864 0.73208016 -0.22321887 -0.35467675 0.2503685 0.37493595 -0.19616619 0.56841815 -0.079661414 -0.093389615 0.4386745 0.083909884 0.1814039 0.19785352 -0.13090873 -0.35524687 -0.32522213 -0.24874134 -0.40133813 -0.11789771 0.49843383 -0.29224396 0.038013812 0.020647971 0.122770466 -0.03454793 -0.2154461 0.19896501 -0.4874849 -0.027046125 0.010039398 0.04529463 0.044224165 -0.15068012 -0.13897537 0.34980989 -0.14016405 0.23894382 0.24751818 -0.14040396 0.00464171 -0.41343793 -0.6531504 0.5890006 -0.15545852 0.8266402 -0.008823619 0.059966583 0.39300367 -0.6209982 -0.19521329 0.090853065 0.44299206 0.015062 -0.12866478 0.14665118 -0.031652194 -0.50572366 -0.024954684 0.2840591 -0.46371606 0.32081896 -0.041626662 0.37352452 0.13467205 -0.047179356 0.12743686 0.09181319 -0.14822246 -0.24537511 0.3210834 0.24394183 -0.33440727 0.11337763 -0.055346936 -0.39951974 -0.30593568 -0.028358469 0.014857888
27 0.15537654 -0.15476133 -0.19306432 -0.32654706 0.2207892 -0.078156814 -0.33850875 0.23777577 -0.25881773 -0.20167626 0.28780285 0.49090174 -0.31227273 0.108151294 0.33912694 0.5679174 -0.27002984 0.1444701 -0.13483731 0.19106612 -0.16395356 0.051845774 -0.004630656 -0.4036906 0.527555 -0.5008421 0.04381027 -0.32247654 -0.20834391 -0.10666881 0.102725394 -0.21621077 0.2686816 0.02479244 -0.12181145 0.15306516 0.47703916 0.12292701 0.41546878 0.3806444 0.1882235 0.2847694 0.31826586 -0.16580644 -0.16592467 0.033179812 -0.032528196 0.043407805 0.23498006 0.15113352 0.0906468 0.17809327 0.32688972 0.246927 0.047795635 -0.13750136 0.592031 -0.37902918 0.33305994 0.3708454 0.009844828 0.024403993 -0.09965876 0.36824542 -0.08889585 0.089015886 0.24782363 0.23718438 -0.22048683 0.06889484 0.13321614 -0.068144105 -1.0087292 -0.38656643 -0.26745272 -0.53391504 -0.38847053 -0.82260484 -0.65766203 -0.71204805 0.8780975 -0.4522793 -0.21212229 0.15432248 -0.020248115 0.009890048 0.2094754 -0.4649271 -0.19826572 0.17311256 -0.29016206 -0.18281877 -0.05678075 -0.18860845 0.41655025 0.3311184 -0.121470004 -0.077477954 -0.37118545 -0.27002773 0.21243282 0.2424301 0.08609855 -0.08783851 0.3838692 0.6107568 0.40155232 0.10480807 0.26911357 -0.1850305 0.07017747 -0.25210822 0.33161622 -0.065142594 0.08384824 0.46247873 -0.004645257 0.049662944 -0.2060224 -0.3131358 0.018978082 0.13745639 0.1572548 -0.26324928 -0.32063285 0.1529769 -0.4283785 0.2730487
7 0.07826563 -0.13751799 -0.45754614 0.20186047 0.17694266 0.14545587 0.020891318 0.38039395 5.0062787e-05 -0.3213336 -0.071169384 0.28198072 0.4141673 -0.00628072 0.34609252 0.5062309 -0.07129977 0.2362331 0.38523287 -0.23990895 0.026595432 0.35473877 -0.23296942 -0.19760533 0.42073914 -0.20322366 -0.05729098 -0.13319623 0.042956337 0.11159944 0.2546026 -0.29511464 0.4724766 0.28735584 0.14962775 0.23970951 -0.20382382 -0.14708374 -0.06387691 0.090871744 -0.063246354 -0.351562 0.05637992 -0.44190282 -0.3392799 -0.38764957 -0.044797767 -0.15515599 -0.075394034 0.20606682 -0.00402932 0.1535962 0.13207076 -0.11292052 -0.003374803 0.055707105 -0.18905911 -0.21232432 -0.011690791 -0.08659626 -0.24968463 0.22442304 0.14363286 -0.2168475 -0.07957914 0.08219064 0.031944543 -0.072632656 0.37646738 0.21079071 -0.15595657 -0.011722801 -0.06497447 0.027827943 0.2593137 -0.15963773 0.089445375 -0.38688338 -0.14679317 -0.29760236 0.17425035 0.23406826 -0.2336672 0.12950987 0.19720718 -0.3121007 0.19035707 -0.106849246 0.15401927 0.18536884 0.23690866 0.03093046 0.050533272 0.051069718 0.37520996 -0.37483618 0.40450215 0.38948384 -0.13107273 -0.28570735 0.32529193 -0.19385615 -0.1591459 -0.07049001 -0.14399764 0.07582778 -0.004525552 -0.123666555 -0.14096327 -0.51315856 0.17687407 -0.11980238 -0.22265343 0.32080343 0.28230813 -0.09964216 -0.25809532 -0.5204096 -0.15879275 -0.011951593 -0.08811553 0.15981866 0.1749124 -0.25105008 0.21548393 -0.011612355 -0.11059836 -0.096438386
317 0.17880152 0.24116032 -0.021112496 -0.11745318 0.145174 0.31464067 -0.11758575 0.06398818 -0.3623899 0.11430648 -0.0032654079 0.36758342 -0.11552007 0.024441246 0.34395394 0.17268047 0.19336168 -0.07226656 -0.01594075 0.108261146 0.058154646 -0.12793115 -0.42802703 0.005808249 0.3150504 -0.3049796 0.2551774 -0.3117475 0.03266287 0.5853172 -0.03440165 0.11526784 0.21578132 0.13631625 0.3790618 -0.045106485 -0.029968224 0.38161114 0.1637635 0.055975102 -0.24424729 -0.18608887 0.2447527 0.112030774 0.25155774 0.10577789 0.33197114 -0.21963789 -0.43426162 0.080603726 0.6705643 -0.09210629 -0.2777321 0.39157555 0.393368 -0.19355492 0.44263497 -0.12690164 -0.22300746 0.51596063 0.12996024 0.14270851 0.22458416 -0.2255481 -0.3720477 -0.29181182 -0.35899973 -0.38305518 -0.26931196 0.47777095 -0.1454817 0.11814376 0.042833313 0.22711706 -0.17680275 -0.10768106 0.3153955 -0.5941791 -0.09455381 0.03680253 0.06502618 0.031491313 -0.20820442 -0.13893586 0.35584658 -0.060480043 0.25749645 0.26606962 -0.19419351 -0.05097802 -0.45495906 -0.52470696 0.4842919 -0.16758314 0.8246933 -0.14482893 0.23256066 0.502422 -0.44166878 -0.18347503 0.004177412 0.24404997 0.089176916 -0.009983351 0.2207972 0.056995712 -0.53814083 -0.044723168 0.2594677 -0.42026466 0.4409785 -0.10325299 0.23753539 0.14443527 0.018101968 0.092697926 0.1807859 -0.12173031 -0.19299005 0.31599668 0.23661229 -0.36982343 0.03936124 -0.043757368 -0.40206766 -0.26126027 -0.120059825 0.05312253
54 0.22016467 0.25623226 -0.04756288 -0.058536705 0.056317788 0.2407611 -0.0288621 0.074814215 -0.38422415 0.06367775 -0.050271813 0.3973594 -0.0950954 0.08716616 0.3797305 0.19203189 0.33246616 -0.018183667 -0.011874426 0.1328859 -0.027548706 -0.08703555 -0.35883665 -0.0134754125 0.32216936 -0.35160926 0.31954217 -0.36550242 0.05546309 0.57905614 -0.099632464 0.184381 0.2724717 0.100729495 0.2726289 -0.10581242 -0.08894746 0.25651628 0.13127512 0.11315189 -0.33193702 -0.11616492 0.308251 0.14798634 0.16868018 0.1933638 0.24478374 -0.27250192 -0.4692984 0.11503862 0.7221476 -0.14937834 -0.26997626 0.29367936 0.44503206 -0.25148165 0.5634054 -0.17543383 -0.13129613 0.5082598 0.14954963 -0.05247604 0.2279739 -0.24627152 -0.3500615 -0.30281132 -0.35829514 -0.39767823 -0.26452672 0.45296425 -0.091778874 0.031320553 0.054776806 0.20345347 -0.19212146 -0.038849317 0.32981354 -0.58973134 -0.12229835 0.052994967 0.068202294 0.104245186 -0.13476412 -0.11883204 0.31748903 -0.122594826 0.3218437 0.31322306 -0.19130267 -0.016676007 -0.4560504 -0.48634043 0.46377552 -0.21008895 0.7567791 -0.07839476 0.3274289 0.38865468 -0.49924648 -0.11922134 0.07839777 0.28208688 0.0912651 -0.006693887 0.1749522 0.004790576 -0.55358034 0.04433998 0.29228273 -0.43150133 0.37943786 -0.0412344 0.2720369 0.232557 0.011581789 0.11190168 0.15118384 -0.06906742 -0.24731557 0.28271315 0.27880526 -0.36835042 0.117514126 -0.0009250198 -0.40386105 -0.23115188 -0.18930353 -0.0100557115
1020 0.6165892 -0.1180317 -0.2607932 0.42709857 0.015417649 0.33563656 0.08846792 -0.009945868 0.10374765 -0.29493746 0.22865328 0.14215212 -0.1727559 -0.1496197 0.22260971 0.08077359 -0.29032725 0.684125 0.41128728 0.15440206 -0.15390271 -0.31594744 0.006480914 -0.046438552 0.5813848 -0.37506905 -0.11282905 -0.5864163 -0.5694294 0.31411815 0.47346896 -0.15456532 0.24760967 -0.094745144 0.12016928 -0.3438046 -0.1965337 -0.17747778 -0.33315453 -0.13414949 -0.018828258 -0.4054504 -0.0015652499 -0.27591658 -0.18375249 -0.042203695 -0.1319186 -0.14136942 -0.3748891 -0.0902048 -0.03539364 -0.21294652 0.1986715 -0.2748319 -0.3540174 -0.39662066 0.07423604 -0.22717549 -0.11816781 -0.10248491 0.16473827 -0.28883222 -0.6082492 0.4035835 0.027968602 0.08317162 -0.0084337685 0.008771005 -0.19109109 0.21648175 0.07598317 -0.11473848 -0.10267512 -0.049240448 -0.6848678 -0.35120556 -0.46184328 -0.16561256 0.12395382 0.07034929 0.45179114 -0.24870883 -0.04418416 -0.36157134 0.44828632 -0.082278624 -0.17582549 0.1772078 0.09057328 -0.013513069 -0.0924944 -0.36787271 -0.2662013 0.2465233 -0.17773813 -0.21993892 -0.039624874 -0.084865056 -0.0666243 -0.37915292 0.8768878 -0.085206516 -0.24214509 -0.017316895 0.055758502 -0.09871061 -0.16739109 -0.11301479 -0.060849406 0.07126484 0.5636331 -0.16587277 0.52827555 -0.41882744 0.1702225 -0.31276566 -0.23496987 -0.31115216 -0.23299477 -0.35202777 -0.14841802 -0.30642626 -0.25986084 -0.27235618 -0.40013653 0.39411795 -0.28512692 0.41853046
3 0.19446452 -0.13520166 -0.47197035 0.22234328 0.20654225 0.12076183 -0.0053513558 0.3034551 0.15518574 -0.22856642 -0.15439156 0.19951409 0.3441711 -0.036132522 0.49946395 0.43956843 -0.114776276 0.25003475 0.27164286 -0.35223627 -0.0043958235 0.3334474 -0.22102 -0.22539362 0.472936 -0.36948994 -0.21768956 -0.15474896 -0.048118196 0.101541854 0.11474869 -0.2770933 0.44672558 0.19029917 0.19483183 0.23372267 -0.2674117 -0.21410178 -0.0049471008 0.20777477 -0.028752053 -0.2792293 0.06377745 -0.34812877 -0.51801795 -0.30610606 -0.12986925 -0.04324568 -0.053761896 0.2572721 0.10298697 0.11827092 0.09464804 -0.16043933 -0.009904912 -0.08906732 -0.16420086 -0.19128808 0.03156634 -0.03104735 -0.16562487 0.25403944 0.17026894 -0.16055298 -0.07402175 0.038918063 -0.0938392 -0.11457994 0.2770417 0.033061873 -0.08906222 -0.16943981 -0.14567885 0.0044114753 0.23765199 -0.16406877 0.011643528 -0.27760538 -0.012157102 -0.24594848 0.14556748 0.24188012 -0.28291944 0.048986264 0.12771662 -0.34306875 0.20232663 -0.11647829 0.1994168 0.24789958 0.24921666 0.06871549 0.109953456 -0.06660615 0.34395745 -0.47758138 0.4803172 0.41014847 -0.27342176 -0.36028886 0.3316313 -0.08092019 -0.22131428 0.04483927 -0.08655607 -0.021227127 -0.020234978 -0.047176305 -0.2352068 -0.51212716 0.20821407 -0.045594756 -0.2965709 0.40092802 0.21253091 -0.14670786 -0.2665629 -0.36561337 -0.1933075 -0.03517313 -0.08629268 0.18949217 0.12284749 -0.16444123 0.17326297 -0.06363973 -0.18716337 -0.30237758
28 0.12564397 -0.14656164 -0.19525091 -0.3245349 0.25561768 0.024905637 -0.40540802 0.3041344 -0.19898874 -0.23827477 0.3115676 0.43053466 -0.24901494 0.2294171 0.2966261 0.5654432 -0.22012226 0.18951884 -0.10661198 0.043762766 -0.23556669 0.06560235 -0.001957919 -0.3554302 0.46416387 -0.5274275 -0.0449308 -0.29225945 -0.23753537 -0.14243269 0.03184921 -0.18788272 0.2697533 0.08273113 -0.16428097 0.13656417 0.50797105 0.22369961 0.29547435 0.38476738 0.2393567 0.29596457 0.32599232 -0.17622669 -0.11431192 0.08302519 -0.09207419 -0.02067606 0.22312911 0.1796831 0.15006639 0.3209214 0.35201204 0.28181297 0.07535819 -0.14687066 0.55291444 -0.37241897 0.37232032 0.45142788 0.007022689 -0.037606616 -0.09924446 0.3561705 -0.1285419 0.12847863 0.24092714 0.2229491 -0.24309538 0.05713904 0.1553354 0.0105099855 -0.9882939 -0.4079493 -0.24816579 -0.51592433 -0.36774185 -0.88041174 -0.5262192 -0.73020184 0.81195754 -0.4954018 -0.15298806 0.11961347 -0.08817489 0.02010344 0.19507352 -0.41213802 -0.20451988 0.12890254 -0.23979837 -0.17476411 -0.04126549 -0.13931914 0.38634306 0.1824008 -0.018705541 -0.09455734 -0.43391207 -0.17165484 0.1860483 0.15015437 0.08839484 -0.04249189 0.38945353 0.6164323 0.3981198 0.085032575 0.20792925 -0.08565574 0.06883824 -0.17706433 0.37391138 -0.0686028 0.077624604 0.4413204 -0.07297887 0.08190249 -0.24893105 -0.4633325 -0.021241538 0.05173127 0.18661268 -0.3367685 -0.30908632 0.21405838 -0.41336644 0.23012134
696 0.16549626 -0.055045787 -0.12739676 0.29261884 0.08444852 0.37451738 -0.0831109 0.46887997 -0.4048515 -0.23661509 -0.0044781407 -0.14334604 -0.33747202 -0.002306945 0.14251041 -0.26355368 -0.1661976 0.08347422 0.19132234 -0.27424222 -0.009118312 -0.12172133 -0.28227052 -0.40012878 0.08968295 -0.4679639 0.042263273 -0.6645876 -0.105073206 -0.53496903 0.27212387 0.30153787 0.058674015 0.08906988 0.42121878 0.10644283 -0.4444134 -0.540359 -0.64076304 0.54255754 -0.015478805 -0.058130566 -0.0021371846 -0.15317915 -0.26394886 -0.21522325 0.5866124 -0.10803228 -0.37628686 -0.14059202 0.08376698 -0.24218747 -0.0477629 -0.1555053 -0.016448058 -0.32662764 0.08373393 -0.40504286 -0.019602854 0.20865804 0.16305776 -0.111991785 0.022446156 0.3249167 -0.2692206 -0.36293107 0.22203122 0.17463757 -0.4897637 0.15200254 -0.18919258 0.11571079 -0.381592 -0.28930464 -0.48278195 -0.37211752 -0.7471277 -0.3158625 0.39420977 -0.3440636 0.6958815 0.16081367 -0.20397165 -0.17847994 -0.007816644 0.041158237 -0.116481416 0.19917867 0.006486077 0.08800438 0.29664847 0.36097565 0.1476209 0.98955363 -0.13901559 -0.2837948 0.6270455 -0.3857036 -0.2081953 -1.0916569 0.7736916 -0.057248347 -0.36138517 0.34858584 0.2659328 -0.5092452 -0.09575124 -0.06061914 0.25009274 -0.026391301 0.62494004 -0.011732878 0.7468222 -0.72804624 0.031954806 -0.7277129 0.39718112 -0.16651021 -0.7222543 -0.102006435 0.065858535 -0.2550261 0.25609288 0.3149617 -0.23587854 0.40825948 -0.39316332 0.45501518
37 0.22587371 0.13495438 0.26294208 -0.10471489 0.044174105 0.28666285 -0.14831753 0.15463461 -0.2955398 0.13690451 0.0041605723 0.45698833 -0.024208358 0.08970975 0.34348968 0.1916241 0.20785615 0.2259769 -0.2455511 -0.020072244 -0.009587626 -0.18017499 -0.25223354 -0.090047754 0.3242401 -0.18288694 0.1678801 -0.35822657 0.103441186 0.7370288 -0.012452044 0.12151541 0.18893631 0.21969141 0.33236188 0.09119698 0.02517873 0.3501724 0.073029414 0.07995852 -0.11801656 -0.115138054 0.28315434 0.1745729 0.011514807 0.052672032 0.33436042 -0.34279585 -0.5761078 -0.008107039 0.7398115 -0.17816201 -0.2992159 0.21353918 0.39645925 -0.09686846 0.5506882 -0.12623324 0.05592197 0.4838813 0.15921243 0.12586392 0.17917313 -0.062007654 -0.2840576 -0.2841865 -0.33560747 -0.2818699 -0.12865376 0.5900526 -0.3391751 -0.04574477 0.03071826 0.12623277 -0.089217156 -0.14091308 0.2461582 -0.46671888 -0.07131166 0.017598206 0.02310103 -0.0035938378 -0.071119644 -0.064252265 0.37226534 -0.023575576 0.25872076 0.3784527 -0.14998935 -0.01941859 -0.4358862 -0.55245095 0.5115079 -0.11670489 0.8810029 -0.10632615 0.05969457 0.45394614 -0.5516724 -0.20095497 0.040866293 0.33999246 -0.04558136 -0.10713074 0.1938384 0.015630255 -0.56902325 0.06944943 0.2927318 -0.39968306 0.35475257 -0.006055626 0.3672763 0.14653961 -0.06901624 0.10602647 0.028012589 -0.23032339 -0.24783282 0.35831794 0.22524776 -0.2852475 0.20653664 -0.057122614 -0.46584484 -0.25263405 -0.05936835 -0.0124141695
754 0.08536491 -0.09620807 -0.0695651 0.32936218 0.036110178 0.34839755 -0.07649976 0.41100457 -0.43636307 -0.17338564 -0.009753446 -0.06683169 -0.2822147 -0.006866497 0.024016941 -0.12176401 -0.13363811 -0.0038166372 0.29369357 -0.3298642 0.021455139 -0.16482222 -0.26382884 -0.3703229 0.10168662 -0.3852067 0.1626196 -0.6049125 -0.12559676 -0.5667229 0.38226676 0.290238 0.09038073 0.12105721 0.39478952 0.13564633 -0.4995012 -0.543244 -0.51672566 0.51462406 0.032135174 -0.11434839 0.021266147 -0.064124994 -0.2955067 -0.16043243 0.5811663 -0.16931354 -0.398752 -0.075523995 0.054115146 -0.36944607 0.008048629 -0.14372393 -0.1136621 -0.26170582 0.13146877 -0.33981466 -0.06589123 0.07994204 0.25852114 -0.13973965 -0.044334363 0.35173145 -0.22506236 -0.31866232 0.27795443 0.16927579 -0.6094586 0.17803308 -0.15117668 0.1274942 -0.3443813 -0.25182506 -0.4964427 -0.2559406 -0.6559974 -0.2450014 0.33140334 -0.3726941 0.68863064 0.20104031 -0.24918939 -0.08226915 0.12213034 0.00832812 -0.0064189723 0.2589608 0.016149202 0.06483885 0.27556127 0.3778417 0.10891032 0.9763876 -0.06104845 -0.20664047 0.5007262 -0.30665064 -0.21209504 -1.1200067 0.78305024 -0.085655846 -0.4324548 0.26230207 0.37015206 -0.528618 -0.1443016 0.035475258 0.27618825 0.015791157 0.57699597 -0.038497526 0.71384394 -0.7196284 0.069688745 -0.6747284 0.38723758 -0.1808014 -0.77617204 -0.13670583 0.1389162 -0.27257293 0.18953016 0.34488702 -0.20255448 0.46096522 -0.33396915 0.4962159
11 0.15979792 -0.18572806 -0.17786829 -0.24271217 0.1890263 0.08418657 -0.3598675 0.23896828 -0.2989118 -0.14634456 0.33089203 0.5416439 -0.2863391 0.22232386 0.30451754 0.5365994 -0.23735167 0.078520045 -0.063727506 0.064220265 -0.28652534 0.1038631 0.02206219 -0.37670004 0.45954713 -0.5187032 -0.09062921 -0.2538827 -0.22265303 -0.10566918 0.054381482 -0.26966748 0.31022683 0.12164748 -0.16769761 0.1043073 0.50307816 0.15001324 0.30272722 0.33800367 0.20987035 0.33261862 0.35697663 -0.18118626 -0.20001693 0.04387491 0.018482773 0.028770046 0.20799732 0.13049053 0.06858919 0.25582263 0.38929167 0.23055726 0.09272145 -0.11520845 0.59873724 -0.36841124 0.3622011 0.4168919 0.08759608 -0.068415985 -0.11435062 0.29501063 -0.05530528 0.15802285 0.23703165 0.24932133 -0.26255447 0.049510315 0.1676168 -0.029855322 -0.991733 -0.44455656 -0.19907856 -0.4190473 -0.38275757 -0.8253105 -0.5685392 -0.75137097 0.8442672 -0.49941534 -0.18409249 0.13506821 -0.15067141 -0.07828762 0.2956419 -0.3313719 -0.19608544 0.091716446 -0.24635848 -0.16832048 -0.03495475 -0.1421671 0.4512484 0.21098742 -0.060008306 -0.034122847 -0.36105046 -0.1972068 0.20876008 0.16741359 0.10470174 -0.097308554 0.40538758 0.6100615 0.37431255 0.14682695 0.20309508 -0.14686021 0.023608316 -0.21963957 0.39795232 -0.02182245 0.11039072 0.39703864 0.028376836 0.059053108 -0.18713844 -0.44601724 0.06551762 0.09351848 0.17321928 -0.29620188 -0.339396 0.22071481 -0.39356104 0.24136496
1131 0.5794913 -0.056192063 -0.3113261 0.48965803 0.0669261 0.28728166 -0.0034184372 -0.061742924 0.013537416 -0.2606486 0.22893202 0.027069142 -0.20153493 -0.14917961 0.20297846 0.030204138 -0.36144882 0.57484263 0.3686108 0.093800396 -0.1669572 -0.22199635 -0.039723087 -0.006235108 0.5416185 -0.40380618 -0.15926698 -0.49367112 -0.59071517 0.34736016 0.45576236 -0.25392893 0.18833992 -0.090590775 0.122747235 -0.34311283 -0.17177032 -0.2501756 -0.28414574 -0.16066292 0.012829711 -0.36316794 -0.02221888 -0.20706217 -0.10777786 0.011745674 -0.045732614 -0.1272516 -0.34016988 -0.16930808 0.03733912 -0.17641982 0.15253834 -0.26432288 -0.19209324 -0.35460305 0.1250986 -0.22735082 -0.14596684 -0.13503398 0.15066457 -0.3045182 -0.6205674 0.47667328 0.09180461 0.17966878 -0.032177564 0.004335366 -0.114976935 0.21727021 0.08984813 -0.17352736 0.004116107 -0.061168425 -0.7971013 -0.29477122 -0.5320253 -0.1770454 0.13907212 0.044293582 0.47357586 -0.2842231 -0.008544548 -0.28197506 0.4605207 -0.1708749 -0.13240585 0.1605392 0.120444104 -0.09250989 -0.059702467 -0.37628967 -0.2429334 0.2212455 -0.17184168 -0.26898423 -0.084852085 0.0023046734 -0.13843025 -0.37277433 0.9522855 -0.12502526 -0.20223263 0.03004648 -0.0584016 -0.13392031 -0.1162994 -0.08053596 -0.016604649 0.030192766 0.6294238 -0.19368336 0.48415607 -0.40614423 0.14980799 -0.3204924 -0.30326006 -0.2869113 -0.23325692 -0.39699844 -0.16257593 -0.2769617 -0.25727034 -0.40207195 -0.3220142 0.45074454 -0.35245407 0.37914708
1403 0.5692676 -0.01500466 -0.30468827 0.4411536 0.011097018 0.34266332 0.02528971 0.06351989 0.013469519 -0.2920035 0.20103428 0.015070281 -0.13383348 -0.113557704 0.21197379 0.04076601 -0.26141936 0.5637854 0.35567936 0.15007852 -0.05630318 -0.2661986 -0.08153421 -0.0576225 0.50998956 -0.3757356 -0.1004346 -0.5207817 -0.5904919 0.33855864 0.59746945 -0.2154187 0.26599154 -0.1896847 0.22649801 -0.42441615 -0.22880928 -0.22937252 -0.32703847 -0.11361776 0.010018332 -0.38064978 -0.0067362743 -0.21998185 -0.11229793 0.022310605 -0.14074445 -0.2707586 -0.31197697 -0.086271405 0.032141794 -0.1720728 0.17102177 -0.29552284 -0.250264 -0.3228309 0.07298822 -0.1414679 -0.20400809 -0.09233255 0.21705642 -0.27960318 -0.54039097 0.30186045 -0.000135371 0.14657848 -0.018998537 -0.012475155 -0.2313635 0.1918082 0.15776964 -0.11985253 -0.07225805 -0.040893827 -0.818501 -0.24537222 -0.4069658 -0.15844344 0.10206105 0.014189281 0.43041223 -0.24856696 -0.049920626 -0.3038622 0.39451203 -0.128612 -0.26960984 0.10184717 0.13635038 -0.0814766 -0.061190393 -0.3164253 -0.3205184 0.27119794 -0.10265114 -0.3103055 -0.041858695 -0.05627388 -0.0926442 -0.41649354 0.9564388 -0.028004186 -0.19459131 0.08078705 -0.03712157 0.02635017 -0.1471869 -0.12100752 -0.020060817 0.018255344 0.5981946 -0.17137504 0.44840202 -0.4696155 0.17068726 -0.3271542 -0.2892897 -0.28753737 -0.22011562 -0.4848319 -0.09373105 -0.33783388 -0.3080986 -0.34865916 -0.31994718 0.3903006 -0.33241016 0.33124274
17 0.1425897 -0.08360148 -0.42480364 0.34187505 0.27786502 0.25567186 0.14472267 0.35851938 0.014287845 -0.18540208 -0.120609045 0.074125305 0.3224859 0.032843284 0.37920204 0.45028093 -0.1323506 0.3151081 0.26572138 -0.2932222 0.015441953 0.2788199 -0.18836004 -0.2097988 0.39045456 -0.39725178 -0.12669335 -0.03358992 -0.08308969 0.015335379 0.0935374 -0.29581764 0.4897906 0.16170743 0.21468143 0.35553923 -0.24004762 -0.17069326 -0.0075379573 0.280223 -0.07024256 -0.2338145 0.06920213 -0.3655906 -0.3344107 -0.3420237 -0.05743313 -0.13846989 -0.12376542 0.30746406 0.06968844 -0.007635522 0.12967826 -0.25728586 -0.05679138 0.008094421 -0.07752616 -0.11538787 -0.0098106405 -0.11434098 -0.16780066 0.1471762 0.20265865 -0.1357293 -0.009545953 0.14666392 0.07790766 -0.06569879 0.33245072 0.21066152 -0.032995563 -0.20599614 -0.097071975 0.027832149 0.26985815 -0.10925464 0.014089432 -0.40155765 -0.051475268 -0.33527645 0.044156544 0.2857325 -0.4121456 -0.026431099 0.12962168 -0.26825544 0.18270122 -0.17889741 0.11967016 0.20106727 0.2782393 0.054009482 0.0054491824 -0.0008658937 0.4778673 -0.39489883 0.508294 0.4350971 -0.2634638 -0.21734436 0.35430127 -0.05206271 -0.17944367 -0.011569753 -0.044713378 0.018124739 0.020982454 -0.074091054 -0.21100847 -0.5037935 0.18376637 -0.0030281309 -0.17527871 0.25280988 0.18610305 -0.15330346 -0.25669712 -0.44979766 -0.14411272 -0.0068975077 -0.03642297 0.18760943 -0.0012462365 -0.14177857 0.1286812 -0.03689214 -0.2578506 -0.23803489
47 0.2056324 0.18330672 0.23475868 -0.09127329 0.026744809 0.3370994 -0.086003885 0.18708245 -0.27933165 0.15787092 -0.01792063 0.3963298 -0.04546577 0.100432485 0.32870024 0.18520413 0.22440064 0.1936675 -0.108910486 -0.045069486 -0.08578405 -0.1360455 -0.30023855 -0.08042196 0.29397276 -0.13613313 0.15548332 -0.35974726 0.04197214 0.7275539 0.010837727 0.20313753 0.22715582 0.21906616 0.3858384 0.11535529 -0.01455076 0.23097451 0.033578813 0.07172217 -0.26408494 -0.059984498 0.31845146 0.19923021 0.03733129 0.15206309 0.38945425 -0.33298582 -0.53627694 0.029480811 0.7384495 -0.22244449 -0.36395785 0.24131115 0.4213878 -0.1427925 0.5953992 -0.029857889 0.0519051 0.5558677 0.19669521 0.13096707 0.14499688 -0.100599885 -0.24085413 -0.23924634 -0.16215178 -0.37237823 -0.069352396 0.51135767 -0.3556285 -0.0037487347 0.034080483 0.15526937 -0.035324715 -0.21207829 0.16425054 -0.5398407 -0.053793732 0.01553001 -0.052347146 0.055561803 -0.140655 -0.05887343 0.34714556 -0.003359005 0.23278347 0.33921057 -0.200201 -0.0051227473 -0.3774027 -0.56676096 0.4446084 -0.13479605 0.8037697 -0.040245418 0.028668642 0.4862407 -0.6015229 -0.22833095 0.07195063 0.41700286 0.06383041 -0.06690409 0.28075436 -0.010417164 -0.56277865 -0.004674169 0.2858567 -0.46877676 0.34830013 -0.007082953 0.33994418 0.1288546 -0.04996129 0.115864016 0.07197887 -0.23984009 -0.20715323 0.2766571 0.31391323 -0.34717202 0.17084736 -0.10310792 -0.4043455 -0.27596095 -0.018583365 0.006249144
31 0.18078884 -0.090554774 -0.49774224 0.27780592 0.111146085 0.22512983 0.11946004 0.41195115 0.14711246 -0.2873665 -0.065513626 0.12780608 0.3454465 -0.037281774 0.45618802 0.53089905 -0.07303569 0.26582754 0.28182888 -0.2533607 -0.008367149 0.38555393 -0.29965332 -0.14819258 0.38795462 -0.4360017 -0.12608676 -0.040394805 -0.07633028 -0.0789202 0.15158165 -0.17785442 0.37440825 0.108655944 0.18582371 0.29815868 -0.2670375 -0.18754567 0.08116918 0.22855076 -0.02668261 -0.36309746 0.0043155514 -0.26888925 -0.34021205 -0.3725796 -0.060709503 -0.15904716 -0.13664895 0.2796409 0.015481477 0.06339963 0.122417726 -0.20895372 0.16739745 -0.07650512 -0.20637426 -0.19416223 -0.091225035 -0.09114826 -0.09832408 0.21019308 0.12761846 -0.18301524 -0.06080049 0.059959743 -0.079804845 -0.062312536 0.30051064 0.17451246 -0.13811994 -0.1993712 -0.12969989 -0.032032374 0.26193184 -0.07462733 0.114369005 -0.4158912 -0.10044505 -0.29296196 0.118658625 0.1682222 -0.40588373 0.028531006 0.18998481 -0.2578383 0.14603741 -0.25266838 0.22846073 0.24778055 0.20995133 0.092845455 0.10612628 0.021806892 0.37243217 -0.40906143 0.35421696 0.3398529 -0.29255852 -0.2912442 0.40223655 -0.1268351 -0.1790933 -0.052948467 -0.04556344 -0.011485073 0.017632164 -0.031565804 -0.18920437 -0.52040976 0.31648985 -0.13401292 -0.3003231 0.32873625 0.2863144 -0.22781044 -0.18351184 -0.38898522 -0.19640313 -0.06813255 0.047344092 0.19130498 0.08565946 -0.19471066 0.27194607 -0.03643628 -0.16777068 -0.3124539
10 0.16372514 -0.2002049 -0.38948834 0.22652532 0.17630596 0.13346167 0.09406145 0.23501357 0.08046784 -0.19814001 -0.1694351 0.26380804 0.29092985 -0.11679229 0.45255265 0.4784722 -0.2294511 0.2529358 0.38949695 -0.380701 -0.039991397 0.31099957 -0.14633891 -0.1004326 0.3594958 -0.3415261 -0.086027086 -0.14132658 0.014156014 0.095165096 0.10049294 -0.28115124 0.5260324 0.19458073 0.2366704 0.33104065 -0.4116574 -0.2380308 0.020582749 0.19188379 0.036001626 -0.3830856 0.1047956 -0.29766715 -0.40589905 -0.3294916 -0.02330404 0.019552609 -0.034077026 0.2404182 0.06475281 0.08180623 0.18968849 -0.18858656 0.0074031637 0.05403401 -0.27389938 -0.07974071 -0.019474747 -0.022121688 -0.18762201 0.07071921 0.24259746 -0.17218076 0.030705059 0.11131416 -0.075086586 -0.09765935 0.38440755 0.20548926 -0.083727196 -0.14689314 -0.067251064 -0.056702886 0.29209867 -0.20095466 0.055322066 -0.39802888 -0.06821021 -0.25740746 0.11009343 0.4046555 -0.15997572 0.0063328724 0.22536393 -0.37893048 0.28287065 -0.09349893 0.124911144 0.20337857 0.1540972 0.07174539 -0.028849801 -0.11599808 0.5676059 -0.3501599 0.33863425 0.30039954 -0.2008039 -0.41331312 0.44906384 -0.18456756 -0.18287665 0.013626144 -0.05548976 0.105527215 6.8749177e-06 0.038029164 -0.1294364 -0.5639847 0.13526134 -0.055474054 -0.2388516 0.21109058 0.09714466 -0.24973707 -0.15666488 -0.46610758 -0.100135446 0.039035197 -0.116584 0.1707538 0.10453215 -0.18861985 0.20085672 -0.071779765 -0.28324068 -0.13452867
77 0.24709134 0.21006174 0.026228026 -0.007021828 0.09318328 0.32823995 -0.051505905 0.13719201 -0.38665327 0.10066402 -0.022090131 0.4726376 -0.09988123 0.08439397 0.3733335 0.100680105 0.31430945 -0.033752203 -0.07716704 0.07127516 0.031796064 -0.042789616 -0.4319568 -0.012655658 0.28748354 -0.26313415 0.20154661 -0.3434686 0.05195357 0.57921016 -0.011850346 0.2015969 0.16443573 0.10471918 0.31599885 0.035232823 -0.027158815 0.27006766 0.05166955 0.08690064 -0.22573707 -0.06471869 0.3359905 0.15029725 0.119919576 0.122623414 0.34618768 -0.3583079 -0.5207434 0.13315761 0.66272223 -0.14397797 -0.29331774 0.3108062 0.43207616 -0.10177213 0.4899807 -0.10242201 -0.16505334 0.5367893 0.16168761 -0.02874687 0.24751852 -0.18442748 -0.3720967 -0.2016168 -0.420347 -0.40324923 -0.2851236 0.54796255 -0.12553528 0.08164965 -0.0030121214 0.22610003 -0.21786448 -0.06354869 0.2819639 -0.46549278 -0.093988895 -0.005509086 0.11075385 0.009960297 -0.10712717 -0.1349473 0.32114726 -0.07439559 0.39691335 0.23137788 -0.19814311 -0.09657798 -0.46379024 -0.481157 0.49570802 -0.18168987 0.7167239 -0.14403029 0.2757368 0.4275287 -0.5060231 -0.09956585 0.011296101 0.23283811 0.08860248 -0.013186395 0.19500835 -0.009213581 -0.54082644 -0.023435073 0.32574153 -0.5245369 0.4739766 -0.1038403 0.255736 0.21463674 -0.007570137 0.12576061 0.19662455 -0.08329173 -0.17320068 0.27789426 0.20665072 -0.3400301 0.020501455 -0.023486909 -0.42391703 -0.22492695 -0.14939068 -0.0063487394
181 0.09272998 0.04348008 -0.123930715 0.39238238 0.20872931 0.011090355 -0.08130323 -0.010901626 -0.15188697 -0.43673986 0.6397037 0.049706444 0.13019149 -0.049703702 0.7423327 0.16748072 -0.2186064 -0.15901545 -0.01122439 -0.25366327 -0.16842486 0.30176404 0.20157997 -0.38525674 0.50640297 -0.13866806 0.12325979 -0.5249813 -0.008867979 -0.3097848 -0.21026367 -0.389912 0.45643568 -0.013234157 -0.0062985513 0.5237209 -0.24119355 0.42284444 0.018014876 -0.018798465 -0.1879665 -0.0444193 -0.36741906 -0.17534882 0.25897548 0.22095327 -0.41034052 -0.50116676 -0.08851501 0.21813631 0.147524 0.118483536 0.40444523 0.12804224 0.11341777 0.13850495 0.07164259 -0.34046406 -0.2198899 0.45908204 0.24914429 -0.049694043 -0.07669825 -0.27660623 0.15958087 -0.07666671 -0.03798712 -0.08175239 -0.060748994 0.10122551 0.21646477 -0.41323528 0.18060571 0.020756625 0.37142557 -0.136115 0.026982874 -0.5151306 0.123127766 0.2668539 0.23957948 -0.20167665 -0.2873238 0.2982292 0.16422385 -0.22982958 0.22732253 0.11855111 0.4606936 -0.299143 -0.16839291 -0.34234083 0.40623203 -0.2742898 -0.3491505 0.23017871 -0.08143239 -0.46720853 -0.18710811 -0.38397068 -0.123465694 -0.14968339 0.29219106 0.5066334 -0.08678079 -0.42606378 -0.3804868 -0.11560251 0.13372795 -0.10117975 0.025061626 -0.011327677 0.29346874 -0.27269226 -0.3770431 -0.23610991 -0.091483414 0.033726852 0.0081460625 -0.5749357 -0.21444878 -0.47343388 -0.30765095 0.17906275 -0.43941012 -0.29436043 0.38013098 0.11508268
30 0.19838971 -0.14873718 -0.40969995 0.37060755 0.22154646 0.2045533 0.18249118 0.34759602 0.020965276 -0.20232095 -0.065815546 0.30902353 0.28916532 -0.1026655 0.5341451 0.37845337 -0.17739484 0.32057962 0.26078197 -0.39901495 0.050255425 0.3412295 -0.17250592 -0.094210796 0.4578909 -0.31229305 -0.07737432 -0.14843455 0.021641575 0.11569319 0.12711428 -0.33750585 0.4628579 0.26927507 0.25227043 0.44784784 -0.32821524 -0.16495016 -0.0066710673 0.16385618 0.098285064 -0.35245493 0.092980385 -0.22315985 -0.39886963 -0.44514194 0.04765604 -0.034010157 -0.15972216 0.08172865 -0.08842965 0.055933096 0.16351666 -0.063235596 -0.034712836 0.03884865 -0.19463523 -0.2507661 0.03911029 -0.050694764 -0.19886318 0.06370297 0.13661797 -0.23688841 -0.07345689 -0.01705116 0.022330485 -0.0022946782 0.36882794 0.17879829 -0.11703253 -0.1396209 -0.10196997 -0.12886223 0.34512934 -0.16115956 0.098819554 -0.33587524 -0.015376835 -0.35490075 0.038096607 0.39771664 -0.15908033 0.015479321 0.31028995 -0.37179723 0.28727943 -0.16124225 0.17403679 0.0988337 0.10857595 0.073474996 -0.016943865 -0.08284957 0.51728725 -0.39271122 0.27300903 0.39874542 -0.199838 -0.44501808 0.3697186 -0.18809439 -0.23317787 0.014717722 -0.1427587 0.13218313 0.060687732 -0.02971983 -0.12862611 -0.48698738 0.07355491 -0.021034168 -0.2348288 0.23003589 0.14961006 -0.22628005 -0.18455927 -0.4402938 -0.049031567 0.02042133 -0.23461889 0.081574604 0.063424766 -0.18673953 0.22034417 -0.12407655 -0.17974852 -0.142151
1322 0.62487763 -0.068742245 -0.23924355 0.42424545 -0.013964539 0.1529244 0.0918223 0.016035618 0.015842939 -0.333616 0.07668963 0.10323622 -0.107434005 -0.1139137 0.20322308 0.029897392 -0.32517073 0.4985931 0.2550592 0.1525319 -0.1913501 -0.33405864 0.02044624 -0.06582032 0.6395255 -0.52960765 -0.076195225 -0.5149571 -0.4926363 0.34134662 0.5775104 -0.24100672 0.10941733 -0.14058441 0.20024957 -0.38388425 -0.23821871 -0.2580125 -0.34330022 -0.16377416 0.005411688 -0.3448109 0.052118335 -0.22230817 -0.032314908 -0.11142265 -0.064183995 -0.1575859 -0.2879558 -0.085685715 -0.061013635 -0.10897133 0.12937321 -0.25533828 -0.28137687 -0.2541861 0.14854635 -0.26791683 -0.18127868 -0.05376287 0.14114358 -0.46114016 -0.53689355 0.31660464 -0.09802452 0.096933365 -0.037545547 0.12949318 -0.15049195 0.20908235 0.041696277 -0.051789314 -0.053696424 -0.11883334 -0.7976764 -0.40240163 -0.36134654 -0.08927666 0.07273682 0.05279928 0.44639167 -0.18621098 -0.013751312 -0.37236592 0.46160322 -0.14469709 -0.113844 0.15095659 0.14541471 -0.09148286 -0.026290327 -0.43460256 -0.38430557 0.25959787 -0.12188969 -0.28537974 -0.019645529 -0.10081422 -0.15573746 -0.4608114 0.91571987 -0.16306138 -0.27634722 0.07885011 -0.0017970043 -0.020146606 -0.10754757 -0.07425624 -0.052264582 0.02698595 0.6728367 -0.1328104 0.51431066 -0.4492088 0.047623497 -0.30499858 -0.3441828 -0.35332578 -0.18150963 -0.4103808 -0.28124717 -0.25570446 -0.34371665 -0.35097364 -0.34560663 0.36933655 -0.31136906 0.41752458
