19 128
17 0.050401922 -0.07146098 0.16171719 0.02741874 -0.08688725 -0.2181401 0.010599044 0.12490239 0.060424767 -0.028649662 0.22018157 0.0055039907 0.01805038 -0.062140014 -0.061345775 -0.06267258 -0.054468505 0.07198328 -0.11377452 -0.026486829 0.15301435 0.053358085 0.09471189 -0.023689356 -0.012890602 0.055842347 -0.087126374 0.055377632 0.08862518 -0.05022491 -0.18814741 0.05466034 0.020788766 -0.023365598 -0.039550655 0.088642865 0.2968109 0.04225359 0.22922957 -0.038061287 -0.01429942 0.15279582 -0.012635957 -0.10075519 0.05693699 0.033798486 -0.04998385 -0.09857989 0.055650625 0.023348734 0.07533852 0.010939122 -0.023326514 0.0634641 0.1613659 0.024889482 0.13039684 -0.14109291 -0.07207985 -0.025303297 0.080425605 -0.11525261 -0.019265657 0.015922386 0.028763276 -0.017348977 0.11154286 0.09507618 0.031402126 0.0069062402 0.064427316 0.07139215 -0.10191809 -0.05198141 0.012089326 -0.016169906 0.09242412 0.0436469 0.053092215 0.07807032 -0.058177814 -0.039850652 0.112201124 0.078179285 0.0031814438 0.07068136 0.12792271 -0.05450419 0.06147117 0.16156133 -0.032233905 -0.00074533175 -0.07812725 -0.016826307 0.14279167 -0.010489346 -0.17772791 -0.199375 0.051508687 0.052806444 -0.13403602 0.12904243 0.07455033 -0.011236911 0.067721955 -0.016827144 0.008342389 -0.0946332 -0.008058011 -0.05202197 0.041788425 0.004197038 -0.045307394 0.052854106 0.08195873 0.033361964 -0.010313197 0.118608005 0.033936277 0.036718693 0.0010033645 -0.0389357 0.026759686 -0.057733387 0.026187284 -0.043602265 -0.085959636 0.0242424
3 0.07340516 -0.068719596 0.18511511 0.030084096 -0.07198461 -0.23701207 -0.012107476 0.11944211 0.13517678 -0.01739409 0.19758031 0.007474136 0.09410875 -0.10565931 -0.06883431 -0.037355553 -0.08645564 0.09261395 -0.10576593 0.014854218 0.1658197 0.0784972 0.088632725 -0.048096243 -0.042676903 0.07496992 -0.10658291 0.050219186 0.14800842 -0.034335893 -0.19767989 0.08628686 -0.002430972 0.0041093943 -0.024923563 0.08082037 0.23857345 0.03944521 0.21004786 -0.015692027 -0.0072508226 0.1316781 0.016873157 -0.089417964 0.051679615 0.04216062 -0.016916148 -0.107338764 0.025499195 0.0048492197 0.093177095 0.017560275 -0.036892727 0.04873657 0.11725815 0.031519722 0.11710348 -0.085216686 -0.072886325 -0.061828654 0.05901975 -0.11154049 -0.0053211283 0.022672784 0.06538592 -0.049901742 0.115478285 0.06685458 0.07678625 0.02713938 0.033694953 0.07413065 -0.12118504 -0.002033032 0.008898748 -0.052520283 0.08431481 0.06867492 0.06305369 0.11337509 -0.058929373 -0.043865465 0.10608011 0.06114191 0.045235757 0.09430312 0.10121052 -0.052026 0.052390724 0.1606492 -0.038758274 0.005251655 -0.09535075 -0.0050468445 0.11332127 -0.029745338 -0.14724581 -0.20971283 0.06754814 0.031591706 -0.13764958 0.11832247 0.06382723 -0.040578324 0.008856297 -0.010104233 -0.012990142 -0.098142974 -0.007034086 -0.014302794 0.041004334 0.020919206 -0.051055733 0.06739716 0.059276164 -0.00076832814 -0.02299322 0.0858622 0.028186126 0.03747599 -0.016250618 -0.05265261 0.015160259 -0.055520788 0.02340133 -0.046318065 -0.08067329 0.015417116
2 0.07875774 -0.074777596 0.18666683 0.0063972953 -0.07809939 -0.21338296 -0.015262315 0.10873446 0.10194619 -0.016592253 0.23314582 -0.06164359 0.05959672 -0.06535921 -0.06854724 -0.053607564 -0.10106646 0.047532048 -0.14673576 0.037033908 0.1736081 0.0791928 0.034536686 -0.054819543 -0.10285066 0.05157727 -0.18692212 -0.010653091 0.10377112 -0.0110018235 -0.22914131 0.09798768 -0.046229966 -0.0036575447 0.0608852 0.09606808 0.27568236 0.084023766 0.19432724 0.002347004 0.020991473 0.109313205 0.077534646 -0.049781572 0.03403379 0.03162303 -0.021922734 -0.1363372 0.050080366 -0.007947713 0.10339011 0.028881572 -0.011759958 -0.0183496 0.16673322 0.03978404 0.15773551 -0.059430912 -0.0592678 -0.07108318 0.064770155 -0.17852715 -0.016343454 0.010677043 0.08017661 -0.044563483 0.13009755 0.06172595 0.02743765 -0.0077265375 0.049872525 0.058748685 -0.15784267 -0.0019400113 0.01820872 -0.08765489 0.10975869 0.017138546 0.07791329 0.13285647 -0.0047953096 -0.063305475 0.0921449 0.09995393 0.032823354 0.103168435 0.12551142 0.015155112 0.082550414 0.16469279 -0.019219408 0.012742826 -0.13482384 -0.001776405 0.14615749 -0.0074123256 -0.24679403 -0.20724992 -0.016910324 0.025801506 -0.12570792 0.12028428 0.075237274 -0.0033394352 0.05434952 0.008853234 0.027715338 -0.14299381 -0.023390178 -0.06187127 0.050375257 0.050136272 -0.0037344156 0.004802593 0.06757131 0.037226573 -0.058701344 0.14244412 0.022752054 0.05213135 0.026990185 -0.012203403 -0.0036804676 -0.027385939 0.041879512 -0.00229173 -0.058646433 0.08226526
1 0.105096124 -0.047934674 0.1712446 0.09652573 -0.10851905 -0.23701961 -0.035355285 0.111706726 0.112856664 -0.052330256 0.1650157 -0.043276925 0.09484467 -0.110160016 -0.025716789 -0.024225378 -0.09549614 0.0534357 -0.16208847 0.018622436 0.15525174 0.13082519 0.087106206 -0.015187529 -0.045574572 0.092850246 -0.116825156 0.02236255 0.10242363 -0.043492466 -0.23877864 0.083255775 0.019091036 -0.027488224 -0.013736672 0.08710735 0.31652468 0.06135063 0.21861152 0.01512092 -0.04896444 0.09720578 0.067915715 -0.053464517 0.011652893 0.05665815 -0.04740242 -0.10004261 0.03711916 0.011538469 0.084937856 0.03142764 0.0004021864 0.066118404 0.090867214 0.05738162 0.13976806 -0.0855967 -0.11276893 -0.04317733 0.030148534 -0.13191602 0.0066137128 0.0026590126 0.066304535 -0.04056111 0.13634145 0.04159823 0.04267097 0.006258003 0.05449922 0.07727479 -0.15448545 0.00534065 0.024087844 -0.04191275 0.058206182 0.032739986 0.054639403 0.083651595 -0.024764124 -0.039516136 0.121365465 0.06458171 -0.0053521628 0.1131188 0.06280373 0.015522521 0.024014963 0.14641263 -0.0352066 0.04036867 -0.058871932 0.029252203 0.12286409 0.00800954 -0.17645824 -0.16842078 0.06328151 -0.003944951 -0.12512022 0.074236296 0.10011529 0.008906439 0.017550778 -0.048454694 0.06572879 -0.06937321 -0.03194879 -0.040879685 0.05210114 0.019196976 -0.023967965 0.06934796 0.08616053 -0.0013893474 -0.042752508 0.08245782 0.014708145 0.0415505 0.022444833 -0.0706886 0.032612618 -0.058120474 0.065727144 -0.059321884 -0.062999055 0.043098196
16 0.042218957 -0.10751731 0.10916674 -0.028629767 -0.093353465 -0.19711536 -0.023630183 0.06353611 0.03693178 -0.020941194 0.1680263 0.053378437 0.003763821 -0.07586603 -0.027089154 -0.03329021 -0.037247438 0.105877824 -0.038807433 0.01361218 0.13147639 0.027365178 0.07853156 0.017537307 0.022370148 0.06876775 -0.085980885 -0.027110936 0.14496332 -0.0891249 -0.19039743 0.047780443 0.056889486 -0.023111215 -0.017671777 0.13603908 0.2958237 0.048365396 0.19643947 -0.040472656 0.029883517 0.15678073 -0.0018765094 -0.07767168 0.089401275 0.026348677 -0.07045495 -0.16439253 0.057857893 0.0152006745 0.1232394 0.021454973 0.009732287 0.07381105 0.12291818 0.077555194 0.096274056 -0.12312016 -0.045451768 -0.05565526 0.09098179 -0.09384149 -0.0014553139 0.060735647 -0.008973635 -0.006831989 0.14931647 0.072864324 0.06697375 0.0012393489 0.07742229 0.025284328 -0.09006361 -0.024171153 -0.02427614 0.032788467 0.021453854 0.06145656 0.07973739 0.115089804 -0.06552008 -0.052065317 0.14224914 0.0856093 0.02928074 0.063654415 0.10342498 -0.08081037 0.07451416 0.15016109 -0.07700335 0.025149385 -0.08606743 -0.010798383 0.15251645 0.021334546 -0.16192839 -0.16641138 0.10541602 0.016593494 -0.11447446 0.17672317 0.057518903 -0.054070212 0.07939891 0.029631173 0.039200425 -0.09682273 -0.029318813 -0.06672003 0.069181435 0.06064491 -0.06902911 0.03694895 0.077797115 -0.064011276 -0.0019446777 0.06546623 0.039289273 0.11903401 0.005927192 -0.055552892 -0.04825267 -0.08346564 0.011622252 -0.07682004 -0.10542005 0.014077626
13 0.06928251 -0.010971066 0.11196021 0.03731329 -0.058802366 -0.13699579 -0.048416562 0.06302539 0.10182959 -0.039221514 0.09242353 -0.047172435 0.067859024 -0.092147805 -0.005037084 -0.028708596 -0.08538442 0.022773154 -0.11255372 0.019091694 0.09104581 0.08555933 0.06571113 -0.024902353 -0.06797531 0.10247366 -0.06677782 0.015711892 0.10870416 -0.039351262 -0.18645243 0.07641996 -0.052763794 -0.016436055 -0.01487234 0.1210563 0.30405423 0.13596287 0.23313494 -0.012060937 -0.023141688 0.08412457 0.0729335 -0.05078855 0.06361041 0.070711166 -0.021936286 -0.13793074 0.021531371 0.017082077 0.059203826 0.041982334 0.03428919 0.09995484 0.106710404 0.06448452 0.12648122 -0.04837674 -0.09976734 -0.092654854 0.03054063 -0.13311744 0.03821629 0.029011244 0.10067491 -0.004005578 0.1419704 0.022244021 0.019226525 -0.015110374 0.062284876 0.059993993 -0.16258483 0.045324173 0.020135757 -0.030924847 0.0339721 0.064299345 0.07980642 0.14970024 -0.030162109 -0.062038764 0.12248781 0.04562179 0.007381148 0.098858766 0.09820778 0.008828841 0.05959679 0.12022143 -0.063105896 0.01634206 -0.06347011 0.01916811 0.106454134 0.025665032 -0.20666933 -0.18579058 0.06449633 -0.015228989 -0.16949704 0.104209624 0.09448262 0.04230781 0.037000928 -0.040469557 0.057656284 -0.15329665 -0.056727137 -0.028270727 0.02889022 0.05940751 -0.016501082 0.064714715 0.08944713 -0.00931673 -0.054553144 0.09571924 0.056115966 0.08115332 0.043453444 -0.062379148 0.018093696 -0.03319763 0.07757768 -0.111331515 -0.018362889 0.0404967
7 0.056144822 -0.047892217 0.12695424 0.020860339 -0.03922141 -0.17414558 -0.013574469 0.10250458 0.13652326 -0.012591057 0.14016473 -0.026278993 0.075869486 -0.10085389 -0.044288643 -0.035205413 -0.06241231 0.054533117 -0.096575186 0.020162057 0.12446631 0.06643738 0.071772926 -0.046323128 -0.05987554 0.07332862 -0.06769372 0.040313922 0.15839535 -0.05819849 -0.18124259 0.08302125 -0.049558003 -0.0035470163 -0.0387414 0.13748704 0.26075402 0.096761726 0.23791096 -0.034487374 -0.0073056305 0.107137315 0.039382886 -0.092945784 0.0902825 0.059729513 -0.0132648265 -0.12423592 0.02117414 0.03395134 0.048150495 0.046843216 0.018729432 0.07619189 0.12960954 0.035641223 0.1142501 -0.057179675 -0.068080485 -0.093851104 0.04937064 -0.10792607 0.018566053 0.046419412 0.096358165 -0.010006705 0.12424991 0.051623248 0.033464745 0.025879897 0.064109415 0.07641203 -0.13217571 0.041472156 0.02702415 -0.052875116 0.044251077 0.08845865 0.0879729 0.17216966 -0.048194394 -0.07187102 0.09838062 0.050543215 0.046079706 0.08871239 0.13020311 -0.040762067 0.08029251 0.1261606 -0.03470754 -0.021075713 -0.07666936 -0.005576028 0.104603425 0.009923616 -0.19624503 -0.23875783 0.056866195 0.022771724 -0.17496042 0.14808778 0.050969433 0.008260689 0.051176973 -0.018455856 0.0029746038 -0.16138184 -0.03235644 -0.0055438415 0.015606102 0.06257298 -0.035946593 0.06872944 0.0709917 -0.022401465 -0.024244823 0.10327913 0.05369594 0.07021112 0.016921543 -0.049209505 0.0069831847 -0.04026584 0.06798255 -0.07470053 -0.00803758 0.0323134
4 0.054339603 -0.0146371 0.044333223 0.022080528 -0.06600384 -0.13158049 -0.058680966 0.066855095 0.07197647 -0.034182265 0.03297852 0.011154281 0.037277978 -0.0924717 0.030043352 -0.013655835 -0.039356686 0.053419277 -0.059322175 0.004085825 0.06672101 0.046264082 0.09530863 0.018969761 0.012696586 0.09420771 0.0081460625 0.008660702 0.14035709 -0.084366135 -0.16500288 0.048492104 0.01224036 -0.040787295 -0.076629154 0.1600486 0.32658413 0.13299143 0.23902968 -0.0408674 -0.032125436 0.10525421 0.02772706 -0.07536064 0.091420196 0.078508526 -0.06471349 -0.14301121 0.03145066 0.051041566 0.0368381 0.049765598 0.066096574 0.16475786 0.088145584 0.09646385 0.09059868 -0.07411407 -0.093134 -0.08641335 0.02829749 -0.06729653 0.042958908 0.04414295 0.06819453 0.0326662 0.15907343 0.023270689 0.02179148 -0.011747186 0.08277428 0.057551462 -0.122526266 0.038870707 0.0016711261 0.027745446 -0.03272623 0.095394015 0.08332084 0.15076211 -0.058965698 -0.06937694 0.13986416 0.03700744 0.010875471 0.074601814 0.098159716 -0.04546628 0.05842062 0.09541098 -0.08820809 0.013327683 -0.014435305 0.020066844 0.10015599 0.05882925 -0.16393006 -0.16776446 0.13578302 -0.026467983 -0.18371154 0.1422388 0.08429105 0.025731185 0.055783037 -0.045667976 0.071021594 -0.13446143 -0.077797115 -0.027905848 0.024379728 0.06425533 -0.05776143 0.09409303 0.09548615 -0.07234518 -0.01430133 0.05957399 0.072341636 0.12604296 0.030680489 -0.101919 0.0018616018 -0.07462489 0.07160752 -0.15067697 -0.017066285 0.001773485
18 0.060127668 -0.03720715 0.1244769 0.020201959 -0.057167117 -0.16898428 -0.027498305 0.09269994 0.11446947 -0.022514347 0.14692141 -0.02406235 0.058836903 -0.08587373 -0.027377004 -0.0349439 -0.07901609 0.052990362 -0.10579572 0.01607705 0.11375872 0.067018844 0.07287306 -0.025908517 -0.06070543 0.08960421 -0.071978845 0.027634941 0.13004059 -0.041422624 -0.19849056 0.07355128 -0.035178807 -0.012403351 -0.026299965 0.11402671 0.26902923 0.102231234 0.22648463 -0.03746559 -0.020630823 0.113572784 0.035455223 -0.080532074 0.07154385 0.04658068 -0.026714515 -0.124230705 0.030550314 0.021921232 0.07173375 0.027406372 0.018512756 0.077948414 0.12905185 0.052650187 0.12923656 -0.06983831 -0.08108233 -0.0802722 0.037499975 -0.116714634 0.008944963 0.024647787 0.084348515 -0.0032242197 0.13003911 0.048076954 0.02892994 0.0054788785 0.06103232 0.07184928 -0.1323859 0.023275143 0.010757963 -0.030597098 0.05988655 0.07936826 0.07366235 0.14805563 -0.04201657 -0.062420093 0.105269365 0.05267872 0.016670791 0.071403764 0.123341374 -0.030141965 0.06862668 0.12995282 -0.043233436 -0.0054501337 -0.08419024 -0.01126187 0.12190988 0.0012459175 -0.20281443 -0.20471318 0.06251877 0.0054972693 -0.16496599 0.11896847 0.06651853 0.014218561 0.047778893 -0.017129341 0.024759283 -0.14243537 -0.043656513 -0.028158624 0.037237417 0.04871078 -0.033176515 0.06254115 0.07394935 -0.0039161476 -0.043519344 0.09963185 0.056032997 0.077208504 0.024504317 -0.049938403 0.017277572 -0.038672887 0.058733344 -0.08116703 -0.037361674 0.028096775
5 0.06527645 -0.004772378 0.0938567 0.03204746 -0.063623235 -0.11878559 -0.037119012 0.07282452 0.06420977 -0.04534344 0.122031294 -0.07051295 0.012897403 -0.04516868 0.008808909 -0.037008304 -0.089275494 0.008321661 -0.13545495 0.018898597 0.09574723 0.07501467 0.055910088 -0.010894387 -0.08380979 0.09886157 -0.07972737 0.007954868 0.06782183 -0.02082048 -0.20336787 0.061391797 -0.047764853 -0.028066942 -0.0051937387 0.10365932 0.31838766 0.14761811 0.22593638 -0.0284805 -0.039249245 0.09683368 0.07803907 -0.05193276 0.04725472 0.048352078 -0.041444335 -0.12678494 0.043816265 0.012945598 0.061170347 0.017179655 0.046917606 0.09046664 0.14336574 0.06709206 0.15188023 -0.072210796 -0.10102118 -0.08089306 0.024971062 -0.15154403 0.011100796 -0.0042001894 0.09091668 0.021540629 0.13832992 0.034725737 -0.021932246 -0.028348243 0.076321356 0.06354271 -0.15762208 0.022341223 0.015106898 -0.015012688 0.054452404 0.04616427 0.06439059 0.13437112 -0.015311855 -0.06755386 0.10781757 0.04944616 -0.028567757 0.0637042 0.12396084 0.023865025 0.06857469 0.124012426 -0.045817394 0.006822251 -0.08261898 -0.0027381924 0.14205909 0.024282215 -0.25293395 -0.16845797 0.034356028 -0.010871109 -0.16586149 0.09095412 0.09846606 0.059697345 0.06688928 -0.027990816 0.079396866 -0.15092792 -0.07484885 -0.065595336 0.042311065 0.04992108 -0.0055260435 0.03967758 0.110928886 0.029232146 -0.06991054 0.1262742 0.06554311 0.075061716 0.060685247 -0.04241303 0.028660974 -0.022559632 0.0826298 -0.096882865 -0.020114517 0.0582327
19 0.06927935 -0.03629182 0.15136048 0.058149897 -0.10021244 -0.19676931 -0.020987393 0.09806952 0.06742903 -0.042369973 0.18064635 -0.03880324 0.052228782 -0.07604206 -0.023856387 -0.045972917 -0.0832525 0.056679826 -0.13239235 0.006190002 0.12788923 0.09625322 0.06835423 -0.0165648 -0.054548874 0.0788254 -0.11443885 0.0147724645 0.071234874 -0.020510536 -0.21890384 0.07594927 -0.006356755 -0.028674986 2.5787813e-06 0.0826682 0.3153407 0.08519916 0.21584317 -0.019331716 -0.027165847 0.1193426 0.050941266 -0.051275983 0.03307518 0.04516335 -0.058792327 -0.11513373 0.049450893 0.012846065 0.09324545 0.010346929 0.0042236135 0.06449116 0.1327481 0.048060432 0.13324426 -0.09447822 -0.10304229 -0.04433016 0.042175584 -0.14109078 0.0017865729 -0.0045710215 0.058331396 -0.029254591 0.12561396 0.05366521 0.03722331 -0.017054006 0.0577525 0.07066282 -0.15193605 -0.01363749 0.0067917523 -0.022396695 0.08372103 0.03533707 0.04845897 0.09782757 -0.03194864 -0.035115115 0.122412756 0.07229394 -0.005855791 0.082664676 0.104971096 0.00431944 0.048634797 0.1497097 -0.043436695 0.02208535 -0.088526525 0.010230103 0.14903592 0.0077121397 -0.20489243 -0.1671739 0.05947236 0.005453816 -0.13849916 0.081634335 0.1079835 0.015788833 0.041208185 -0.029778987 0.06117284 -0.0902584 -0.041052096 -0.06443238 0.06474481 0.02245623 -0.020020835 0.05585634 0.08099207 0.025211785 -0.041635197 0.10293244 0.028344925 0.05939789 0.03049026 -0.047701456 0.032255467 -0.05702356 0.05854988 -0.069923505 -0.070723504 0.046549246
9 0.068951376 -0.062333543 0.16190468 -0.0050448654 -0.08600516 -0.196025 -0.02127352 0.08947954 0.10952935 -0.01869127 0.1820415 -0.014263967 0.0843208 -0.07729227 -0.046285387 -0.037672587 -0.094656356 0.074912615 -0.08909306 0.012065936 0.1350008 0.06964273 0.043613315 -0.039553463 -0.05698746 0.06073933 -0.121030495 -0.0049871765 0.1392324 -0.009357473 -0.20361392 0.094072536 -0.017125776 -0.0127268415 0.013098756 0.10930574 0.28148457 0.09437912 0.20477012 -0.03303697 0.014910965 0.1256845 0.04840732 -0.058840185 0.068094805 0.036240075 -0.042685073 -0.15770455 0.048729993 0.0077140676 0.11318819 0.026756382 -0.021657642 0.031288195 0.13636445 0.051570117 0.13303143 -0.06088306 -0.07621283 -0.086290486 0.050720822 -0.13977943 -0.0055854414 0.011560989 0.070833534 -0.041908618 0.11935287 0.041995563 0.07054612 -0.003272211 0.04700986 0.06781275 -0.15001978 0.016767994 -0.00045554663 -0.05016008 0.08766132 0.0596836 0.081290886 0.13644765 -0.039676536 -0.050169446 0.112713 0.07546984 0.045898132 0.09216596 0.11163983 -0.03643211 0.069356985 0.15602715 -0.057591215 0.025893388 -0.11227478 0.0030539844 0.12988633 0.0028152661 -0.18994062 -0.19278501 0.04935591 0.016705053 -0.13775921 0.13273932 0.07200242 -0.028456545 0.025748502 0.0048253206 0.014396079 -0.12059142 -0.039020345 -0.028774692 0.06589655 0.05005915 -0.0399752 0.054647144 0.04975292 0.0029623997 -0.04094492 0.09347184 0.02829055 0.082097575 0.018205851 -0.04671769 -0.0057155616 -0.057592764 0.03815625 -0.047507163 -0.08468377 0.04281825
12 0.1205947 -0.06018947 0.030714054 0.20348088 -0.049102552 -0.24097927 -0.07250097 0.12015841 0.1650273 -0.040593237 -0.023736924 0.009057025 0.11090385 -0.22570288 0.030651951 0.03842611 0.023389267 0.090315826 -0.11537304 0.054057136 0.124171026 0.13828115 0.19818313 0.06446205 0.075924784 0.1301244 0.043930024 0.058824774 0.20016648 -0.21446444 -0.19597551 0.052080236 0.115976445 -0.025057228 -0.19301032 0.14710689 0.26667678 -0.011918721 0.23365884 0.039519563 -0.116956696 0.03918594 0.011977098 -0.11630863 0.024464833 0.097571075 -0.047101296 -0.012641181 -0.037392393 0.09198338 -0.0360222 0.06871807 0.10940645 0.221455 -0.06319533 0.08394771 0.022521855 -0.10446625 -0.10653523 -0.010706299 0.007742955 0.054167517 0.079209186 0.100295156 0.03636581 0.007194034 0.1735337 0.026582586 0.038151853 0.088599406 0.08530526 0.09277657 -0.056257576 0.063096315 0.03398578 0.03154983 -0.1471872 0.12934305 0.033002 0.11009073 -0.082831755 -0.05033406 0.11858967 -0.024527939 0.0039135716 0.112195596 0.0045904447 -0.03638168 -0.021406263 0.07466285 -0.02801982 -0.012702241 0.08132155 0.034858026 0.051007643 0.053803474 -0.04663008 -0.17613243 0.20976935 -0.03592929 -0.12861262 0.08772529 0.03490565 -0.0006913354 0.030000998 -0.11352561 0.07258504 -0.0065775784 -0.013213187 0.023969788 -0.03242196 0.036252633 -0.06271444 0.150783 0.102533646 -0.19710526 0.034004517 -0.02081608 0.038245812 0.08359497 -0.01080828 -0.1689313 0.00962022 -0.09907204 0.118036464 -0.1408115 0.04031695 -0.022921182
8 0.064712115 -0.036154382 0.1278523 0.032230623 -0.0495881 -0.16505232 -0.012057672 0.099501155 0.11939384 -0.021041265 0.15252478 -0.0493431 0.071434624 -0.08612752 -0.03141358 -0.03788431 -0.08002198 0.0373633 -0.12080318 0.015406075 0.1188947 0.07876493 0.056562442 -0.042586356 -0.078372 0.074466944 -0.085728206 0.03079138 0.12952952 -0.028691106 -0.19641997 0.08457066 -0.05438825 -0.010386778 -0.020587886 0.11516418 0.27002475 0.106847376 0.22702596 -0.031761732 -0.008740061 0.10027973 0.06095319 -0.07438403 0.063761644 0.050044376 -0.02394765 -0.12854391 0.03477746 0.017059423 0.069764465 0.02717692 0.015346203 0.058635425 0.13907668 0.035180133 0.13688487 -0.06395951 -0.08267139 -0.089640684 0.04013516 -0.13256748 0.006774279 0.020554215 0.093543105 -0.016177647 0.120678216 0.048927363 0.019819893 0.006409983 0.063146755 0.08191719 -0.15018077 0.036243506 0.023715308 -0.054204848 0.06973419 0.06398253 0.080312416 0.15603448 -0.031260256 -0.066019304 0.0935672 0.05332061 0.026484793 0.08578856 0.12885176 -0.010369689 0.07909635 0.13258605 -0.027844284 -0.008012398 -0.08831854 -0.0041514947 0.12075835 0.006078918 -0.21705604 -0.21842997 0.03363256 0.016912598 -0.15533556 0.12245013 0.067848936 0.018409409 0.051218588 -0.022168543 0.024192726 -0.15161462 -0.036428258 -0.019848403 0.037396055 0.05648525 -0.018396754 0.059024125 0.07917067 0.011844973 -0.04660567 0.11924028 0.051302873 0.062164668 0.034010418 -0.037156817 0.0197963 -0.029547563 0.072750084 -0.06582948 -0.021914996 0.046741705
6 0.12257906 -0.05719101 0.053604044 0.19562456 -0.054533612 -0.23135118 -0.05464794 0.076181404 0.20533177 -0.046389043 -0.0520411 0.03960833 0.16467568 -0.24602088 0.04086832 0.07738978 0.0039647827 0.07753044 -0.089674965 0.055957206 0.101154685 0.17480493 0.17888525 0.042738773 0.07989342 0.14313555 0.06705124 0.060144283 0.24058534 -0.22306201 -0.18164374 0.04896146 0.11184708 -0.029916892 -0.20003594 0.17663324 0.2644191 -0.0029882914 0.24048628 0.033329397 -0.10160205 0.027371205 0.036491077 -0.11660614 0.059404984 0.12923451 -0.028647656 -0.057046726 -0.046179708 0.084056966 -0.0064450954 0.1198341 0.08941805 0.20431511 -0.093874685 0.08391669 0.032972373 -0.0662557 -0.09623596 -0.06068485 -0.0037193145 0.040189873 0.08380939 0.13277394 0.044702765 -0.0042836517 0.17474581 0.008649765 0.05526732 0.11186563 0.09031091 0.09912258 -0.07362656 0.11851405 0.0506704 0.03330224 -0.15517865 0.14562948 0.06974178 0.122697495 -0.06322313 -0.046312544 0.12400251 -0.022194913 0.021882595 0.13779266 -0.022513298 -0.061596863 -0.023742734 0.068464875 -0.060456652 0.016508639 0.09222594 0.04320844 0.02182326 0.0676377 -0.029533453 -0.1965312 0.22460864 -0.051118977 -0.12852906 0.12478173 0.04340874 -0.004459768 0.008685343 -0.10167607 0.07657731 -0.020632925 -0.012188218 0.06426624 -0.015126906 0.08310844 -0.09309533 0.16418386 0.102318324 -0.22728941 0.033668306 -0.049776167 0.025318757 0.0968993 0.006778801 -0.16319518 -4.4618766e-05 -0.1005396 0.12535635 -0.1582767 0.031692937 -0.03728161
10 0.05951983 -0.030356009 0.097512856 0.010848402 -0.067423806 -0.1465167 -0.041686486 0.071622886 0.09243982 -0.022445366 0.10827574 -0.031798143 0.05342127 -0.07974123 -0.021623997 -0.026516464 -0.07507506 0.04442953 -0.0874126 0.009204143 0.103141755 0.062806726 0.06837076 -0.0116758365 -0.0470136 0.07936887 -0.06739972 -0.0006818231 0.12474623 -0.03584582 -0.18769452 0.067628786 -0.036495823 -0.019115252 -0.015484132 0.12905964 0.2896719 0.11838446 0.2221407 -0.032354854 -0.0076913536 0.0971761 0.047130633 -0.061377488 0.06874176 0.056067497 -0.041185055 -0.14382447 0.02780239 0.013275544 0.065016925 0.023875644 0.02604823 0.085721664 0.118023664 0.060045797 0.11719093 -0.05791816 -0.0873155 -0.08945282 0.035452742 -0.11309365 0.025650162 0.022366216 0.078023665 -0.0053971894 0.12468278 0.029433774 0.030616092 -0.018090311 0.057710517 0.055361457 -0.14228162 0.032888483 -0.005199346 -0.027241876 0.032661583 0.0649699 0.075595185 0.14315876 -0.03619499 -0.05529999 0.10841377 0.055451743 0.026316546 0.077006385 0.104443744 -0.018860405 0.06995176 0.11524373 -0.050421596 0.007341309 -0.06825152 0.008419872 0.11791019 0.015689885 -0.18938835 -0.16591325 0.058106996 0.00029273814 -0.14677148 0.11960816 0.06545405 0.016781975 0.04400654 -0.021975873 0.037798386 -0.13340735 -0.05616262 -0.03833172 0.034177847 0.042670313 -0.028258326 0.057757854 0.07216044 -0.0060279733 -0.031886477 0.097880594 0.05428953 0.086271636 0.031231564 -0.05433465 -0.004491482 -0.037942793 0.056167062 -0.09512676 -0.04157726 0.032699514
14 0.06319031 -0.031566665 0.10457401 0.020922404 -0.058413662 -0.15222709 -0.036837623 0.08117748 0.101592995 -0.027717004 0.110026374 -0.038725402 0.057247777 -0.084411666 -0.011809521 -0.0352341 -0.07570128 0.05254045 -0.09477936 0.014449308 0.10661145 0.066680305 0.07013464 -0.017159509 -0.059155192 0.0856281 -0.064679764 0.013815425 0.13385996 -0.04074865 -0.19861129 0.07695029 -0.04148051 -0.015036848 -0.02600241 0.12783049 0.29198256 0.123873234 0.23389874 -0.037086993 -0.012538575 0.10725993 0.049337357 -0.06440597 0.074062966 0.05826477 -0.034500264 -0.14433053 0.031541508 0.01993681 0.06502392 0.022621118 0.031639595 0.09500459 0.12857611 0.060930755 0.114346825 -0.062057983 -0.093884885 -0.090952106 0.03951674 -0.11333529 0.028112026 0.031053174 0.08621057 -0.006734782 0.12829842 0.03269168 0.036646746 -0.008522772 0.064990304 0.069530345 -0.14900711 0.03447098 0.0034322198 -0.023837171 0.03969572 0.07778819 0.07327151 0.15852888 -0.03805435 -0.05824528 0.11685774 0.045610204 0.028507758 0.07529985 0.11822111 -0.024241734 0.07058182 0.11938305 -0.050184656 -0.0027872473 -0.07963521 0.003437554 0.12699528 0.018521195 -0.20918272 -0.19582745 0.06858425 -0.00022980955 -0.16316222 0.12398283 0.07472311 0.019311216 0.04588175 -0.020988509 0.03593867 -0.1459808 -0.051584166 -0.032244302 0.03508706 0.052790392 -0.028273424 0.06954599 0.074536905 -0.009971662 -0.03682824 0.09828323 0.061950292 0.09319891 0.03368242 -0.053533334 0.00491378 -0.039689194 0.07236652 -0.100306064 -0.031260516 0.035125006
11 0.08635373 0.0076647424 -0.0739721 0.17547914 -0.021922484 -0.13939416 -0.11496315 0.062162936 0.16065226 -0.043452024 -0.17073074 0.018433783 0.10721426 -0.23627888 0.13141187 0.050165128 0.046529192 0.04783826 -0.06397476 0.042777684 0.006718684 0.1300546 0.17897736 0.089373 0.090008676 0.17171219 0.17163403 0.054124374 0.23418437 -0.2660098 -0.1635985 0.030073352 0.06673978 -0.051268727 -0.2488469 0.24380082 0.3326166 0.12148451 0.3000351 0.00040302266 -0.13109902 0.008852285 0.03956223 -0.108769126 0.10999376 0.15798262 -0.051861048 -0.06232078 -0.03423448 0.14837606 -0.10185244 0.1407881 0.20613986 0.3286449 -0.08108156 0.1389708 -0.0088353455 -0.050138347 -0.11226436 -0.06536268 -0.013064613 0.074865155 0.12779535 0.14403416 0.105995595 0.08534118 0.19895934 -0.027796486 -0.0081175305 0.05597547 0.13053952 0.07552047 -0.07924093 0.1384412 0.052173797 0.07032851 -0.24955957 0.1947261 0.09168567 0.22043881 -0.08965002 -0.10122981 0.14495979 -0.04122969 -0.015157066 0.1124504 0.031595398 -0.049052514 0.008809231 0.0061816685 -0.09872438 -0.011943797 0.1391228 0.06315493 0.008612372 0.13789262 -0.08582095 -0.19950953 0.26081428 -0.09227912 -0.23680294 0.12615962 0.059776615 0.08452568 0.0390929 -0.1360206 0.12748149 -0.1172245 -0.08580135 0.05898815 -0.05802744 0.11552059 -0.06437458 0.19611844 0.11349858 -0.27396524 0.0076651233 -0.040706646 0.08873689 0.16562302 0.02453854 -0.20718591 0.004866446 -0.09445829 0.16400251 -0.26775464 0.14502738 -0.04449829
15 0.078554474 -0.0015570577 -0.0749866 0.14378378 -0.028470509 -0.13808036 -0.12996529 0.065241806 0.14244238 -0.045837622 -0.14170392 0.034053743 0.099597365 -0.2154876 0.12984313 0.045508873 0.036065847 0.05511434 -0.05842087 0.03183416 0.010572697 0.10764193 0.16491312 0.09133057 0.09567244 0.16036873 0.15610862 0.032653656 0.20606506 -0.23607941 -0.16219269 0.019264039 0.09437001 -0.046414264 -0.22619437 0.23227516 0.3272207 0.116195224 0.2735156 -0.009864897 -0.12744889 0.016256217 0.024600694 -0.097829744 0.09291584 0.12850258 -0.053946517 -0.06571745 -0.015803115 0.13752605 -0.07792058 0.12612131 0.18751283 0.3210708 -0.06531783 0.14529403 0.007607109 -0.055637307 -0.11598381 -0.051237103 -0.021084707 0.0704401 0.11376507 0.10123668 0.09879216 0.09661891 0.21024956 -0.019166432 -0.003079324 0.044214882 0.13075183 0.06487345 -0.07274346 0.11851261 0.037252158 0.07695846 -0.22518131 0.1733508 0.09189846 0.1990843 -0.09178933 -0.10237607 0.14853875 -0.021679474 -0.02738875 0.11197839 0.03030009 -0.05734326 -0.004156592 0.01188816 -0.10386873 0.013596534 0.1364291 0.061303973 0.024633387 0.13534535 -0.09172989 -0.18060935 0.26550335 -0.10326211 -0.23728116 0.11366748 0.06900327 0.067903236 0.035933316 -0.13371052 0.12540537 -0.10423217 -0.09427195 0.042559635 -0.04637971 0.10523859 -0.07207207 0.19426301 0.10545779 -0.26337814 -0.0064645084 -0.04604318 0.07896462 0.1725553 0.012341062 -0.21694463 0.012154326 -0.11467079 0.14578347 -0.25155282 0.11909744 -0.034739207
