10 128
2 0.0029946615 -0.013021545 0.1616856 -0.08317082 -0.040734403 -0.11902059 -0.101461105 0.061248563 -0.009810475 -0.027571741 0.23053168 0.031611532 -0.13979083 -0.008698075 -0.13376781 -0.07533098 -0.08433446 0.0472873 -0.12213524 0.05606236 0.1523529 -0.0506958 0.17443484 -0.022158721 -0.074826345 0.17294681 -0.16610871 0.017985174 -0.036834687 -0.047062375 -0.18957998 0.037628807 -0.041226406 0.02937427 0.08381079 0.0010475989 0.21235463 0.058003683 0.14372459 0.010860257 -0.05790668 0.16225305 -0.08249716 -0.10749134 0.038126502 -0.007264919 0.027831819 -0.036884904 -0.048455432 -0.012788935 0.05230475 -0.023970446 0.0041566305 0.12527077 0.15752336 0.06720616 0.16113529 -0.11881317 -0.041061115 -0.004971076 0.05025725 -0.14423136 0.034135245 -0.019483447 0.00903639 0.08184559 0.18592332 0.107288525 -0.04332599 -0.04054716 -0.010927077 -0.058783516 0.0004465424 -0.12876038 -0.05044262 0.04629813 0.10340716 0.013068897 -0.030297259 -0.011172835 -0.06634485 -0.02057773 0.092059985 0.061927877 -0.085856766 -0.018501049 0.104075484 0.017304659 0.017864276 0.14950107 -0.05886992 -0.033756975 -0.105211005 -0.0883478 0.13246259 -0.090279534 -0.21604858 -0.118753634 0.107349776 -0.009890164 -0.21622644 0.049782615 0.09408265 0.03961771 0.12120633 -0.0211447 0.0182396 -0.14139542 -0.060358815 -0.18702985 -0.027999861 -0.040528234 -0.029511258 -0.07930182 0.11809343 0.07020571 -0.033889666 0.113588125 0.07421599 0.044032257 -0.015960308 -0.054639194 0.039481856 -0.03771962 -0.053036124 -0.077463485 -0.10285802 0.015057132
10 -0.016885161 -0.019036623 0.15263042 -0.11682253 -0.019085623 -0.12846644 -0.1055133 0.047446284 0.0047049485 -0.0034363004 0.23423986 0.064904444 -0.11474431 -0.046561435 -0.12584504 -0.07369647 -0.08468047 0.06675519 -0.075818665 0.08071049 0.1366434 -0.0645258 0.1545765 -0.03476397 -0.082781196 0.17748545 -0.15869604 0.017426906 0.013065979 -0.04159527 -0.16975966 0.035801847 -0.08162738 0.053591818 0.08044068 0.023028834 0.18986715 0.06631993 0.16553459 0.011014339 -0.007208504 0.16605695 -0.060062114 -0.10500575 0.05542829 0.008620253 0.0435047 -0.076904394 -0.05551105 -0.048331324 0.08867456 -0.042797495 0.009803872 0.12528263 0.14944144 0.06611467 0.13012213 -0.10727198 -0.020889062 -0.04309538 0.07474742 -0.14806038 0.041343346 0.011005985 0.014752377 0.062228385 0.18125787 0.111612715 -0.016839752 -0.049375284 -0.027928242 -0.09380155 -0.0036333846 -0.10718912 -0.07106303 0.038228285 0.08048764 0.016619353 -0.0040116785 0.041032065 -0.078717716 -0.03375348 0.07650825 0.064086914 -0.04314409 -0.024688767 0.102878585 0.009804433 0.05368036 0.12828282 -0.06351776 -0.042816244 -0.12174293 -0.08016082 0.108747974 -0.11315667 -0.18218896 -0.11572133 0.11585239 -0.014830377 -0.20796062 0.06496184 0.08391853 0.008253096 0.08979058 0.008543639 0.007949059 -0.17358194 -0.048514936 -0.16879386 -0.01731041 -0.013087658 -0.023410657 -0.09683914 0.10894533 0.044783354 -0.0344167 0.09842574 0.085451685 0.029281083 -0.046718117 -0.025915941 0.0077617536 -0.013814301 -0.09805499 -0.10253648 -0.086365566 -0.017725406
8 -0.001776533 -0.023501096 0.14006828 -0.09766449 -0.02115825 -0.11600018 -0.09786286 0.0449979 -0.014302888 -0.007894989 0.22717638 0.043123856 -0.13300909 -0.016443884 -0.1130035 -0.065368064 -0.08291753 0.05103967 -0.1065889 0.07710561 0.14932942 -0.047038775 0.1517877 -0.01854685 -0.07977613 0.16392767 -0.1689872 0.010643129 -0.020269124 -0.045812372 -0.18008588 0.022515897 -0.044722397 0.043723673 0.07674709 0.0110419905 0.20432538 0.053910937 0.15626888 0.026298162 -0.02894677 0.15080512 -0.05201746 -0.102269076 0.022029398 0.0064101536 0.039495807 -0.056646377 -0.044365942 -0.042012732 0.07652749 -0.030074108 0.017230902 0.11218484 0.15060498 0.077278934 0.14949504 -0.119919196 -0.027855188 -0.01984002 0.07048338 -0.14925303 0.028864166 0.004299314 0.013808982 0.06551188 0.19220494 0.111198515 -0.041016944 -0.043210734 -0.009162336 -0.07001714 -0.0027207376 -0.1119642 -0.05882754 0.037534952 0.07674699 0.0087413145 -0.014995249 0.021403719 -0.05446051 -0.033198953 0.07248062 0.06725712 -0.06819753 -0.010884956 0.09655636 0.019177925 0.035132077 0.13755369 -0.053711817 -0.031996023 -0.113643385 -0.0822811 0.12516299 -0.100598596 -0.20923936 -0.119630635 0.0964209 -0.01912376 -0.1926291 0.05448367 0.09340744 0.019705042 0.09730194 -0.002454327 0.028860949 -0.14942856 -0.044428628 -0.17937455 -0.021074643 -0.01775548 -0.01998082 -0.09624266 0.11735171 0.050437152 -0.04855303 0.11168503 0.07508334 0.030248169 -0.033955235 -0.033544082 0.014482427 -0.014282344 -0.0754848 -0.08017886 -0.08935075 0.006439054
7 -0.0017430258 -0.034032166 0.15258996 -0.10531397 -0.01272016 -0.112915054 -0.114256054 0.029007753 -0.0060428 -0.008953489 0.23764443 0.03603067 -0.13035235 -0.028810449 -0.1258223 -0.075640194 -0.093909144 0.04906037 -0.10300839 0.07305558 0.14595355 -0.04809238 0.15494889 -0.01570098 -0.093919724 0.18402803 -0.17282829 0.009993104 -0.025488615 -0.041290093 -0.17638132 0.022002792 -0.06536791 0.063323386 0.08488499 0.004327597 0.20277593 0.055832703 0.17173238 0.029700078 -0.023319514 0.15020242 -0.055472743 -0.0997748 0.024290798 -0.004694886 0.059937444 -0.06637086 -0.05627913 -0.05804659 0.09010467 -0.048971172 0.010299287 0.12057823 0.14634636 0.07298154 0.15395264 -0.12889665 -0.039688792 -0.01815554 0.08335448 -0.15960748 0.043153398 0.011287486 0.017882414 0.059065815 0.1917067 0.11058393 -0.026226107 -0.05001574 -0.014560501 -0.08365613 -0.008933543 -0.1120597 -0.0692188 0.034396037 0.08524715 0.013724762 -0.016331041 0.02867441 -0.068675205 -0.02883002 0.07829603 0.060535 -0.07371807 -0.007018282 0.09089252 0.023280079 0.032843724 0.14653717 -0.054542463 -0.03000109 -0.12818092 -0.086832955 0.1314957 -0.12187367 -0.21570702 -0.12471434 0.09480021 -0.016310882 -0.19162029 0.04304285 0.085717425 0.016799366 0.089785814 -0.0016534004 0.0140937315 -0.16085012 -0.034640096 -0.17741856 -0.022645256 -0.025236445 -0.005300287 -0.097372726 0.10993631 0.05821754 -0.06633639 0.11184701 0.08023603 0.025686268 -0.039995972 -0.03250702 0.006992336 0.0041293874 -0.08421233 -0.09168574 -0.101946086 0.0073119304
3 -0.00857018 -0.025091644 0.14819409 -0.10497483 -0.026919972 -0.12102695 -0.108324036 0.05022523 -0.0072034225 -0.019011928 0.22503923 0.045288697 -0.13442571 -0.027590409 -0.12228826 -0.075632565 -0.0805582 0.05369277 -0.093812115 0.07309911 0.14210917 -0.06465053 0.15704805 -0.022739168 -0.079119824 0.17506474 -0.15955228 0.0091806045 -0.007872777 -0.052355174 -0.17707498 0.031309295 -0.062435113 0.043065626 0.085984476 0.02277241 0.19748375 0.062417716 0.15169665 0.012651682 -0.028339505 0.16116685 -0.06592919 -0.0990209 0.05023336 -0.0038207727 0.038471937 -0.061031237 -0.04758097 -0.033654176 0.07010514 -0.034670975 0.016003354 0.12557401 0.1510307 0.07059708 0.13893332 -0.11045726 -0.026871363 -0.024941893 0.06630437 -0.14348364 0.04040643 0.0025026666 0.0083738305 0.079181544 0.18493651 0.10836438 -0.03154974 -0.04521737 -0.012525722 -0.08865489 -0.0018001867 -0.11695134 -0.059349563 0.04600535 0.08035462 0.008915139 -0.009281086 0.02111591 -0.069639385 -0.034335542 0.086967275 0.0642537 -0.06483986 -0.026281398 0.09865498 0.015677469 0.0392716 0.12705873 -0.056652855 -0.036811195 -0.11045952 -0.08047755 0.12090806 -0.095740765 -0.20107578 -0.11091287 0.10610483 -0.014912804 -0.2057953 0.061316542 0.0806683 0.024906753 0.112025395 0.002776695 0.016927455 -0.16386035 -0.054052267 -0.17960511 -0.02397534 -0.020707011 -0.021467455 -0.09526575 0.114622414 0.04821687 -0.033920977 0.09973943 0.08210154 0.03847974 -0.03059454 -0.033742905 0.013926405 -0.020085115 -0.07651214 -0.08893059 -0.083699174 -0.00031813217
1 0.001308349 -0.033248913 0.16093282 -0.10564125 -0.010292576 -0.099525444 -0.114709 0.02952098 0.0012873047 -0.0144170495 0.22970492 0.023725646 -0.1365548 -0.02236497 -0.14394 -0.08053539 -0.08659595 0.03741742 -0.105056174 0.06275951 0.14132845 -0.05743767 0.16185494 -0.022746405 -0.09461626 0.18174423 -0.16976117 0.008637349 -0.034479085 -0.047442958 -0.1664546 0.032842383 -0.071494624 0.061148196 0.091783695 0.003984417 0.19945751 0.062687255 0.16058104 0.022792492 -0.030341463 0.14639081 -0.0729257 -0.104833014 0.040047552 -0.014522625 0.06501902 -0.057569303 -0.066417456 -0.037143495 0.06620777 -0.036087647 0.0037848682 0.11791459 0.14816691 0.06189214 0.15966685 -0.11885409 -0.035972577 -0.013687659 0.07548652 -0.1545151 0.050812993 0.0088054985 0.015742661 0.07023629 0.1840869 0.10419261 -0.03553657 -0.0439439 -0.016109085 -0.077583805 0.003301974 -0.112391986 -0.06003946 0.03391941 0.0977668 0.018699892 -0.025425075 0.012256734 -0.07067659 -0.02096519 0.07716212 0.04998446 -0.07915834 -0.009392672 0.095019035 0.022366228 0.0232689 0.1495081 -0.05567215 -0.036659222 -0.12328576 -0.0982016 0.12283469 -0.11350535 -0.21384856 -0.12333123 0.084566236 -0.006273531 -0.19189711 0.042377613 0.07159361 0.02798445 0.10961016 -0.007948706 -0.00566616 -0.15864912 -0.034778245 -0.17221217 -0.039442237 -0.030849317 -0.004457954 -0.09956293 0.0992012 0.06875587 -0.058173757 0.11161322 0.076473124 0.035223234 -0.024962777 -0.037398454 0.012100406 0.000693452 -0.06962599 -0.07424305 -0.100415945 0.02059917
9 -0.0060587027 -0.036477886 0.15569411 -0.11080512 -0.008245384 -0.11192561 -0.117354535 0.038006183 0.010012624 -0.017874513 0.2311743 0.028671904 -0.1396141 -0.030027775 -0.14110415 -0.07260478 -0.08425512 0.04563769 -0.08731314 0.08466116 0.14958946 -0.06290197 0.15896879 -0.028120922 -0.099868506 0.18815 -0.16672894 0.0074185543 -0.017181337 -0.051111005 -0.164251 0.02618596 -0.083511986 0.06798582 0.09160159 0.024342733 0.20434648 0.06837245 0.17276293 0.013141199 -0.030576332 0.15840016 -0.059189074 -0.109174065 0.055655804 -0.011303144 0.0662096 -0.06534047 -0.06709181 -0.045920484 0.067832164 -0.04450091 0.011761963 0.13328886 0.1581901 0.059546236 0.15138893 -0.112004615 -0.03339837 -0.037347227 0.075327516 -0.16076042 0.053538486 0.0023577407 0.0204008 0.08173083 0.18438338 0.111200385 -0.0320453 -0.03730242 -0.012886231 -0.09642906 -0.0030564012 -0.10438865 -0.065220565 0.037818644 0.08433622 0.014570969 -0.015159616 0.029933805 -0.07667815 -0.033045497 0.077237286 0.054687377 -0.06714218 -0.02412759 0.10114831 0.015992869 0.038053416 0.13871503 -0.050512128 -0.045930997 -0.13021688 -0.095776744 0.13081886 -0.112848915 -0.21432066 -0.116726026 0.09143719 -0.00535822 -0.20666604 0.054658536 0.06425164 0.021356907 0.11000683 0.010362388 -0.0041623027 -0.170953 -0.05080578 -0.18229781 -0.039986864 -0.024014672 -0.012599048 -0.10847248 0.114408806 0.05687482 -0.04323685 0.10602546 0.0826008 0.02591078 -0.03463435 -0.027148 0.0015491897 -0.0028031177 -0.07587718 -0.088639416 -0.08075949 0.015823945
4 -0.0048483056 -0.01335521 0.1528967 -0.10680234 -0.028374085 -0.12859017 -0.11098528 0.05881292 -0.009572468 -0.018985389 0.22065286 0.053410437 -0.12975405 -0.030964212 -0.11736528 -0.073155835 -0.08265452 0.054346927 -0.10161226 0.086395435 0.14867452 -0.06692172 0.15948534 -0.033253975 -0.07875425 0.17161961 -0.17009431 0.010609976 -0.0030950697 -0.052649587 -0.1832775 0.03854808 -0.060042214 0.039032225 0.09240651 0.022623848 0.20096608 0.06686495 0.1440684 0.028078904 -0.02391827 0.15953815 -0.05582504 -0.09481706 0.04162793 0.0126562705 0.03753871 -0.06301946 -0.04765194 -0.035221875 0.069084294 -0.022253284 0.019714052 0.125402 0.15258318 0.08118802 0.1393683 -0.10094913 -0.021038305 -0.03288752 0.063698664 -0.14907508 0.040772714 0.0035544834 0.010971146 0.077553354 0.19747534 0.10831535 -0.03936596 -0.048857138 -0.020265896 -0.09188252 -0.0011719064 -0.11886169 -0.05433794 0.0425754 0.07460877 -0.004115524 -0.00840564 0.015016599 -0.058802284 -0.03878517 0.086599424 0.06945059 -0.05713042 -0.01850662 0.09477198 0.027059171 0.03982606 0.12299464 -0.06333825 -0.033388898 -0.103285775 -0.07116689 0.107293196 -0.08953456 -0.19501308 -0.10823073 0.112542994 -0.025862744 -0.21145521 0.06373243 0.09927576 0.025681969 0.10758817 -0.002527713 0.029986111 -0.16918182 -0.05629972 -0.183772 -0.028391179 -0.01310217 -0.025075529 -0.104817554 0.12283747 0.043954182 -0.029295774 0.09863092 0.080907345 0.035439167 -0.03377388 -0.035222914 0.01945373 -0.027083807 -0.08261905 -0.08627808 -0.07434764 -0.0037316233
5 -0.013181391 -0.018049303 0.1425541 -0.1061846 -0.015044751 -0.11918929 -0.105991125 0.04504639 0.0031352425 -0.001589094 0.23311248 0.055194154 -0.11958969 -0.033419132 -0.11906498 -0.066781774 -0.087791815 0.059099004 -0.09457677 0.086832 0.13751951 -0.057171885 0.14811072 -0.024440099 -0.088665456 0.17325805 -0.165735 0.012415284 -0.010163196 -0.03809922 -0.17173542 0.025374211 -0.06617292 0.049128637 0.08203098 0.018228743 0.18919484 0.056045886 0.1640719 0.020474793 -0.028367478 0.16066638 -0.056920152 -0.10620831 0.03719018 0.0037160686 0.04413955 -0.059817128 -0.05148704 -0.04340663 0.08791386 -0.03519353 0.018735189 0.11443238 0.14405204 0.07758412 0.14273165 -0.10783064 -0.024081148 -0.02655136 0.06346483 -0.14574791 0.030837974 0.0067071626 0.02040884 0.065717764 0.19063514 0.11094062 -0.026226006 -0.04155849 -0.021853399 -0.08284613 -0.0005831406 -0.110802725 -0.06428909 0.032449055 0.0829838 0.018239178 -0.008433751 0.037058104 -0.06591551 -0.039088666 0.0741264 0.06919338 -0.06034032 -0.02179196 0.09976895 0.017594865 0.04201063 0.12925072 -0.051851813 -0.039533533 -0.12145678 -0.083491646 0.11766029 -0.115293965 -0.19894114 -0.12055574 0.10843987 -0.025703985 -0.20612226 0.048990075 0.08346349 0.017161842 0.09007392 0.004713375 0.019645723 -0.16409457 -0.0481853 -0.17385061 -0.015171617 -0.01595639 -0.0203696 -0.09327909 0.109567106 0.041354675 -0.050739884 0.10155719 0.08224452 0.032271616 -0.04364583 -0.031676304 0.017472591 -0.012512848 -0.087752126 -0.08993875 -0.08561176 -0.0106132785
6 0.00825612 -0.016728451 0.1329777 -0.09528359 -0.024403952 -0.10822791 -0.09736776 0.040975127 -0.012496862 -0.010618189 0.22256972 0.038517118 -0.13587971 -0.0090950215 -0.10301203 -0.056371056 -0.09230132 0.054931078 -0.104482606 0.08003782 0.14936998 -0.039412457 0.15586086 -0.011253678 -0.08164138 0.17276058 -0.16400385 0.0072591137 -0.017774887 -0.031615898 -0.18551679 0.02373935 -0.03694427 0.042797532 0.06492329 -0.0007522839 0.21265481 0.06420331 0.15704685 0.016825808 -0.03605008 0.15292977 -0.044649426 -0.105078496 0.015686048 0.0019374972 0.029940655 -0.06228244 -0.046805993 -0.048512343 0.08568542 -0.046453048 0.016369326 0.12221979 0.14602716 0.08133189 0.15564854 -0.12672105 -0.03870346 -0.030854207 0.06115469 -0.14992973 0.025270274 -0.00897992 0.011140504 0.065785035 0.18994576 0.10343357 -0.04156024 -0.044353012 -0.009849308 -0.058042794 -0.0053781746 -0.09953204 -0.07060105 0.051593725 0.07405906 0.019434417 -0.02630132 0.019012637 -0.057572994 -0.026695404 0.06741493 0.049103003 -0.07339275 -0.020955654 0.096235566 0.01671797 0.032218806 0.14622442 -0.060903724 -0.031799626 -0.12127514 -0.09163844 0.13310865 -0.10372607 -0.20699057 -0.10684076 0.10592273 -0.021969024 -0.18623184 0.048446022 0.09505498 0.011784882 0.09019124 -0.002008854 0.035221197 -0.13562368 -0.0566987 -0.18035507 -0.010256902 -0.017942019 -0.026074544 -0.089938015 0.12686653 0.053171054 -0.05414605 0.11051286 0.08165461 0.037130196 -0.026072154 -0.041436587 0.012590238 -0.01600084 -0.06729246 -0.09430011 -0.102653556 0.0062509994
